-1.059740781784057617e-02,1.491452194750308990e-02,-3.934942185878753662e-03,-5.076770484447479248e-02,-8.422415703535079956e-05,2.214157022535800934e-02,-1.102497428655624390e-02,-8.204095065593719482e-04,-2.912951260805130005e-02,-1.875085197389125824e-02,-5.392171442508697510e-05,3.794096410274505615e-03,-1.176555827260017395e-02,-2.270067483186721802e-02,1.178725250065326691e-02,-2.349061146378517151e-02,-1.673408225178718567e-02,-1.456639356911182404e-02,4.638781398534774780e-02,-8.385442197322845459e-05,-8.174873888492584229e-03,-5.122274160385131836e-06,-4.946999251842498779e-05,-1.777600497007369995e-02,9.275674819946289062e-04,3.853860497474670410e-02,-1.615986227989196777e-03,2.714060246944427490e-05,-2.134642563760280609e-03,-1.612659543752670288e-04,-9.000580757856369019e-03,-4.696361720561981201e-04,-1.172008737921714783e-02,-1.936604082584381104e-02,-5.047362297773361206e-03,2.961978316307067871e-05,-3.071501851081848145e-06,4.962459206581115723e-04,-3.936491906642913818e-03,-1.475401222705841064e-05,-1.211389899253845215e-04,-2.566892653703689575e-04,-8.698645979166030884e-05,6.023150682449340820e-02,1.253923401236534119e-02,-4.465822130441665649e-04,2.845150418579578400e-02,-9.766340255737304688e-03,2.657561004161834717e-02,-1.556258648633956909e-04,-4.631713032722473145e-03,6.178921088576316833e-03,4.959225654602050781e-03,-1.818254590034484863e-03,-2.429429441690444946e-04,8.677924051880836487e-04,1.514814794063568115e-02,3.217980265617370605e-04,-4.718266427516937256e-05,-2.718903124332427979e-05,-9.255670011043548584e-05,-3.895051777362823486e-04,-3.175706416368484497e-02,-2.620801888406276703e-02,-3.356322646141052246e-02,1.623558439314365387e-02,4.918743297457695007e-02,4.643831402063369751e-02,-7.165981456637382507e-03,-7.480382919311523438e-05,1.081481017172336578e-02,5.785806104540824890e-03,4.071267321705818176e-04,-1.396305859088897705e-03,-3.698211163282394409e-02,-4.203695431351661682e-02,-2.077743411064147949e-04,-4.721861332654953003e-04,-1.029333099722862244e-02,-3.223592787981033325e-02,-9.473346173763275146e-03,-1.334995031356811523e-04,-2.608928829431533813e-03,-1.722110435366630554e-03,-9.990669786930084229e-05,-2.475824207067489624e-02,-2.709292620420455933e-02,-1.539047807455062866e-04,-1.974633708596229553e-02,-2.636595256626605988e-02,-1.938901469111442566e-02,-3.120131045579910278e-02,5.877547711133956909e-02,-1.071754284203052521e-02,6.246041506528854370e-03,8.805867284536361694e-03,1.413330808281898499e-02,-4.936195909976959229e-05,1.691642776131629944e-02,-4.766071587800979614e-02,6.757568567991256714e-03,9.621392935514450073e-03,1.047123968601226807e-02,-6.528757512569427490e-05,-4.172880947589874268e-02,-1.503761205822229385e-02,-6.773881614208221436e-05,2.761900424957275391e-03,4.257701337337493896e-03,-7.376894354820251465e-04,6.800722330808639526e-04,-1.085348427295684814e-02,-1.284642145037651062e-02,1.017689891159534454e-02,-1.385791972279548645e-02,-2.286652475595474243e-02,4.857106134295463562e-02,-8.941646665334701538e-04,3.989040851593017578e-05,-1.114398054778575897e-02,-1.911394298076629639e-03,-1.199040189385414124e-02,-4.452191665768623352e-02,2.373494580388069153e-02,-5.823642015457153320e-03,-8.734315633773803711e-05,6.420433521270751953e-03,-6.458841264247894287e-03,-3.363459557294845581e-02,-6.331082433462142944e-03,1.199500821530818939e-02,1.267570070922374725e-02,-2.376355230808258057e-02,-2.572126686573028564e-05,1.987926661968231201e-04,-1.681734062731266022e-02,-4.048789665102958679e-02,-1.016574911773204803e-02,1.029200851917266846e-03,-8.124578744173049927e-05,-5.199778825044631958e-03,3.232453018426895142e-02,-3.778804838657379150e-02,5.427515134215354919e-03,-7.965303957462310791e-03,-8.273986168205738068e-06,1.815147697925567627e-06,-1.490294560790061951e-02,-8.545070886611938477e-05,-2.036760747432708740e-02,-8.863849565386772156e-03,-1.623667217791080475e-02,2.143915742635726929e-03,3.357976675033569336e-05,-4.089359194040298462e-03,-2.063025161623954773e-02,-3.486546874046325684e-02,-1.259334385395050049e-04,-2.150302752852439880e-04,-5.951337516307830811e-05,-9.626820683479309082e-04,-7.192045450210571289e-05,-1.142136752605438232e-04,-2.281404286623001099e-02,2.122943662106990814e-02,-5.657561123371124268e-03,-3.542784228920936584e-02,-1.618731766939163208e-04,-5.735028535127639771e-04,-1.057907938957214355e-04,-8.566014468669891357e-03,6.651893258094787598e-03,-1.382641494274139404e-05,-6.835907697677612305e-04,-1.815333962440490723e-05,-1.512252911925315857e-02,-4.774373024702072144e-03,-9.451340883970260620e-05,1.239237561821937561e-02,1.129424944519996643e-02,1.068853586912155151e-02,1.909721642732620239e-03,-2.919882535934448242e-05,-4.321556538343429565e-03,-4.104338586330413818e-05,-1.829129457473754883e-02,2.573709934949874878e-03,-1.670305803418159485e-02,8.557733893394470215e-02,-9.621378034353256226e-03,1.174048930406570435e-01,-3.052401542663574219e-02,1.225247979164123535e-05,-3.811496868729591370e-02,-6.336826831102371216e-03,5.344301462173461914e-05,1.488179899752140045e-02,-1.510605216026306152e-05,-3.962874412536621094e-03,3.819480538368225098e-03,-2.924341708421707153e-02,1.652055978775024414e-02,2.005886472761631012e-02,9.227395057678222656e-04,-1.834515482187271118e-02,8.983518928289413452e-04,-2.009008079767227173e-02,-8.373893797397613525e-05,1.263432204723358154e-05,-2.178554609417915344e-02,-3.032616153359413147e-02,-3.504753112792968750e-04,-2.041375823318958282e-02,-3.014572896063327789e-02,-1.506181433796882629e-02,-1.350676640868186951e-02,-9.713321924209594727e-05,2.097013592720031738e-02,2.466142177581787109e-06,-1.343159377574920654e-02,2.356532029807567596e-02,-1.799315214157104492e-05,-1.189794018864631653e-02,-1.794137060642242432e-04,8.070737123489379883e-03,-3.301724791526794434e-05,-1.395694911479949951e-02,-7.453374564647674561e-03,-4.705041646957397461e-06,-1.055824011564254761e-02,4.942935705184936523e-02,-1.922911033034324646e-04,-1.398936659097671509e-02,2.602115273475646973e-06,4.121955484151840210e-03,4.613399505615234375e-04,-2.162859961390495300e-02,6.384991109371185303e-03,-2.558246254920959473e-02,-1.994783431291580200e-02,-2.900899574160575867e-02,-1.078806817531585693e-03,-7.498858496546745300e-03,-7.365774363279342651e-04,2.124051377177238464e-02,-9.265393018722534180e-04,6.661303807049989700e-03,-6.381867453455924988e-03,1.119847297668457031e-01,-1.261569559574127197e-05,-3.313184529542922974e-02,-2.537043765187263489e-02,-8.918717503547668457e-05,7.519472390413284302e-03,-2.156198024749755859e-05,-1.239016652107238770e-03,-4.861703887581825256e-02,-3.670059144496917725e-03,-3.001466393470764160e-05,-7.023943588137626648e-03,2.868846058845520020e-05,-2.815481647849082947e-02,-1.810081303119659424e-04,-5.510263144969940186e-05,6.563907116651535034e-02,-1.384845003485679626e-02,-2.663955092430114746e-05,-4.141591489315032959e-05,4.032999277114868164e-05,-2.053897082805633545e-02,-8.717924356460571289e-05,-3.497399017214775085e-02,-4.516085237264633179e-02,-3.086812421679496765e-02,-4.546903073787689209e-05,-6.617978215217590332e-06,9.160488843917846680e-06,3.577768802642822266e-04,-6.217468529939651489e-02,1.902518793940544128e-03,-2.285080589354038239e-02,-2.950184047222137451e-03,-2.818531543016433716e-02,-8.361497893929481506e-03,-3.311627544462680817e-03,-5.906751379370689392e-03,1.244027353823184967e-02,-6.649881601333618164e-03,2.463398128747940063e-02,-1.003518700599670410e-04,-1.355074346065521240e-05,-1.854728348553180695e-02,-4.766508936882019043e-06,-1.613646745681762695e-04,-1.540646329522132874e-02,-7.597889751195907593e-03,-1.997454091906547546e-04,-4.612092860043048859e-03,-1.444742083549499512e-04,-1.722883433103561401e-02,4.540564864873886108e-02,-1.774324849247932434e-02,-2.384945005178451538e-02,-1.377420499920845032e-02,-2.199132926762104034e-02,-2.884376794099807739e-03,-3.827044740319252014e-03,7.735565304756164551e-06,4.770172387361526489e-02,-2.850443124771118164e-02,-4.385411739349365234e-05,-2.554252743721008301e-03,-1.645963639020919800e-04,-4.602845013141632080e-02,2.545207738876342773e-02,-2.018835768103599548e-02,-2.301041036844253540e-02,-1.964278519153594971e-02,-2.480517514050006866e-02,-5.098059773445129395e-05,-9.177069179713726044e-03,-1.030938141047954559e-02,1.830171793699264526e-03,4.944000393152236938e-03,-1.634489744901657104e-04,-8.293868973851203918e-03,-1.267325133085250854e-04,-4.514649882912635803e-02,-1.557480543851852417e-03,-2.363968640565872192e-02,-1.768618822097778320e-02,-2.698247879743576050e-02,-1.016887836158275604e-04,-3.629010915756225586e-02,-5.200393497943878174e-03,-7.522936910390853882e-03,2.357935905456542969e-02,-1.287078484892845154e-04,-2.611499279737472534e-03,-6.027631461620330811e-04,-1.131203025579452515e-04,-2.948758751153945923e-02,-4.595735296607017517e-02,-1.410413533449172974e-04,-1.660088077187538147e-03,-3.406364470720291138e-02,4.419979453086853027e-02,2.273745834827423096e-03,-1.006244122982025146e-02,4.322133958339691162e-03,-2.907105907797813416e-02,2.533472841605544090e-03,2.183664590120315552e-03,-1.048785448074340820e-02,1.856312155723571777e-05,-8.144974708557128906e-05,-2.790087834000587463e-02,-2.173537947237491608e-02,4.302006214857101440e-03,-9.810250252485275269e-03,-4.399310797452926636e-03,-1.098838262259960175e-02,-2.001608908176422119e-02,-2.632239833474159241e-02,-8.236058056354522705e-05,-5.789721384644508362e-03,1.493196934461593628e-03,-3.045011684298515320e-02,-4.122709482908248901e-02,9.700244292616844177e-03,-1.688343286514282227e-02,3.035381808876991272e-02,-1.271720975637435913e-04,-8.203152567148208618e-03,2.278573811054229736e-04,1.035055704414844513e-02,1.326500251889228821e-02,-1.924235001206398010e-02,-1.741480082273483276e-05,-2.021027356386184692e-02,1.680174097418785095e-02,-4.773724824190139771e-03,-4.770653322339057922e-03,1.023053824901580811e-01,-1.542419195175170898e-04,-5.160670727491378784e-03,-4.651038348674774170e-02,-1.741480082273483276e-05,-6.889369338750839233e-03,-1.220063492655754089e-02,-4.349898546934127808e-03,-8.429586887359619141e-05,-5.242330953478813171e-03,-1.076108589768409729e-02,-1.757767051458358765e-03,-4.518716409802436829e-02,-2.019263058900833130e-02,1.200523227453231812e-03,-1.910924911499023438e-04,4.359534941613674164e-03,4.658475518226623535e-05,-9.859539568424224854e-05,5.708109587430953979e-03,-2.778571099042892456e-03,-6.108377128839492798e-04,-1.441230997443199158e-04,-3.420934081077575684e-05,-2.031732350587844849e-02,-5.960091948509216309e-05,4.233978688716888428e-02,-4.095791280269622803e-02,1.080611161887645721e-02,-4.303064197301864624e-04,-2.324091456830501556e-02,2.834973856806755066e-03,-1.425369642674922943e-02,-5.489215254783630371e-06,-3.285651654005050659e-02,-3.179535269737243652e-06,2.512376755475997925e-03,1.799942739307880402e-02,-1.209564507007598877e-04,1.090280711650848389e-04,-2.773665636777877808e-02,5.396469309926033020e-02,-5.658652633428573608e-03,-2.141792885959148407e-02,2.514437586069107056e-02,-3.551971167325973511e-04,-5.592397600412368774e-02,-8.769273757934570312e-03,-1.662408746778964996e-02,-5.202181637287139893e-05,1.032391004264354706e-02,-4.058714956045150757e-03,-2.156943082809448242e-04,-1.014520786702632904e-02,5.824610590934753418e-02,5.036108940839767456e-02,-5.872547626495361328e-05,-2.330318279564380646e-02,-2.519401535391807556e-02,4.794821143150329590e-05,-1.555721461772918701e-02,-1.263341307640075684e-02,-9.458512067794799805e-05,-3.546942025423049927e-02,-1.578936353325843811e-02,7.118077576160430908e-02,-2.076417580246925354e-02,-1.272931694984436035e-04,9.196983650326728821e-03,-1.776069402694702148e-03,-2.470426261425018311e-03,-1.531094312667846680e-06,2.792105637490749359e-02,-1.622940227389335632e-02,-1.402372866868972778e-02,-1.733042299747467041e-04,-6.235327571630477905e-03,-3.383226692676544189e-02,3.230603784322738647e-02,1.619089394807815552e-02,-4.358013346791267395e-02,3.015074878931045532e-03,-2.694619819521903992e-03,-2.367608249187469482e-05,3.457596898078918457e-02,-5.437564104795455933e-04,-6.060674786567687988e-05,4.690513014793395996e-05,3.829888999462127686e-03,1.746950484812259674e-02,-3.887362778186798096e-03,-4.523992538452148438e-05,-1.043080911040306091e-02,-3.399585559964179993e-02,-2.886541187763214111e-04,3.097100183367729187e-03,-1.073535531759262085e-04,-9.473577141761779785e-03,-8.266903460025787354e-04,2.659258246421813965e-02,1.963403820991516113e-02,-1.721084117889404297e-05,-7.736869156360626221e-05,-3.641005605459213257e-03,7.256059348583221436e-02,-3.225341066718101501e-02,1.673661172389984131e-04,-2.047161944210529327e-02,8.442141115665435791e-03,2.574117854237556458e-02,-2.204254269599914551e-05,-1.804491505026817322e-02,-2.706981450319290161e-02,5.856947600841522217e-02,-2.721278928220272064e-02,1.017694734036922455e-02,7.159700989723205566e-02,-2.248992025852203369e-02,-3.786081448197364807e-03,-2.105534076690673828e-05,-9.893730282783508301e-03,-9.246179834008216858e-03,-5.792826414108276367e-05,-9.370613843202590942e-03,-4.969957098364830017e-02,-1.713785529136657715e-02,6.926294416189193726e-03,-2.265516668558120728e-02,-5.410648882389068604e-04,-4.366345703601837158e-02,-5.895644426345825195e-05,7.076564710587263107e-03,-1.820946857333183289e-02,-8.244708180427551270e-03,-1.764651015400886536e-02,8.747491985559463501e-03,-4.010107368230819702e-02,-1.410799100995063782e-03,2.528633922338485718e-03,-6.157044321298599243e-03,-1.044917851686477661e-03,-1.204874366521835327e-03,-3.554370626807212830e-02,-1.279860734939575195e-04,-1.612678170204162598e-05,6.023459136486053467e-03,-4.609403759241104126e-02,1.935730129480361938e-02,3.935210406780242920e-05,-3.587268292903900146e-05,-7.886998355388641357e-05,-3.444696217775344849e-02,1.629833504557609558e-02,6.403211504220962524e-02,-6.474141031503677368e-03,-4.727393388748168945e-05,-3.603123873472213745e-02,-8.426412940025329590e-03,6.746128201484680176e-05,-2.267902344465255737e-02,-2.377065084874629974e-02,-2.702455967664718628e-03,-4.623234272003173828e-02,1.082928851246833801e-02,5.990375950932502747e-02,-2.596254274249076843e-02,-1.583154127001762390e-02,7.059073075652122498e-03,-2.498675882816314697e-02,3.361718356609344482e-02,-3.864815086126327515e-02,-5.317045375704765320e-03,-1.867535337805747986e-02,-6.460584700107574463e-05,-5.630412138998508453e-03,-4.388827830553054810e-02,-3.218144178390502930e-03,-5.310182273387908936e-02,-3.218142315745353699e-02,-1.688558608293533325e-03,1.798775047063827515e-04,-5.782756954431533813e-02,1.326300948858261108e-01,1.034028828144073486e-02,1.580944843590259552e-02,-2.625398896634578705e-02,1.672655344009399414e-05,-1.105934567749500275e-02,-3.546617925167083740e-03,-3.046960011124610901e-02,-2.536407671868801117e-03,-5.509657785296440125e-03,-1.651792041957378387e-02,1.749111339449882507e-03,-3.887162730097770691e-02,-2.334082312881946564e-02,1.078499481081962585e-02,1.189298927783966064e-05,1.451000571250915527e-06,5.092713981866836548e-02,-1.424262300133705139e-03,-4.984302446246147156e-03,-1.095201820135116577e-03,4.190255329012870789e-02,-1.476521790027618408e-02,-5.640577524900436401e-03,-5.513243377208709717e-05,-2.140916511416435242e-02,-1.744985952973365784e-02,-4.758493602275848389e-02,-1.025634258985519409e-02,-4.261234402656555176e-02,4.348468407988548279e-02,3.731511533260345459e-04,-1.329928636550903320e-06,-1.305015012621879578e-02,-2.879937738180160522e-02,7.091689854860305786e-03,-1.042710617184638977e-02,-8.438143879175186157e-03,-4.886484518647193909e-02,-1.257682964205741882e-02,-2.090547047555446625e-02,9.732337668538093567e-03,-2.362765371799468994e-05,2.681308239698410034e-02,-1.567909494042396545e-04,-1.693304255604743958e-02,7.934868335723876953e-07,8.658386766910552979e-03,-3.680214285850524902e-05,-1.663377135992050171e-02,-1.636293157935142517e-02,-1.248244196176528931e-03,-1.130443997681140900e-02,-1.607103832066059113e-02,-2.472467720508575439e-03,-4.123175516724586487e-03,-4.252612963318824768e-02,3.347173333168029785e-05,3.420997038483619690e-02,-4.756936058402061462e-02,-4.240703210234642029e-02,-7.729418575763702393e-05,7.789582014083862305e-06,-7.757544517517089844e-05,6.931687146425247192e-02,2.521285600960254669e-02,8.375197649002075195e-05,7.043778896331787109e-04,3.501033410429954529e-03,-2.293670922517776489e-02,-2.456273883581161499e-03,7.256470620632171631e-03,-4.432037472724914551e-03,-3.446308895945549011e-03,3.635003045201301575e-02,2.036469988524913788e-02,-2.608895301818847656e-03,9.225662797689437866e-03,2.614738047122955322e-02,-4.611425101757049561e-04,3.454089164733886719e-05,-9.997375309467315674e-05,-2.542510628700256348e-06,4.281103610992431641e-05,-3.673251718282699585e-03,-3.123655915260314941e-06,-5.042366683483123779e-05,-1.702204532921314240e-02,-9.880168363451957703e-04,-3.123030811548233032e-02,-1.566284149885177612e-02,-1.229207962751388550e-02,-1.421825587749481201e-02,-1.577474176883697510e-04,-5.715712904930114746e-05,3.664642572402954102e-04,-3.183104097843170166e-02,-6.028749048709869385e-03,2.268792688846588135e-02,-5.219876766204833984e-05,-1.557049900293350220e-02,-4.434399306774139404e-05,-6.656721234321594238e-05,-5.184017121791839600e-03,4.901997745037078857e-04,-1.545466482639312744e-03,1.181613653898239136e-03,-2.196787670254707336e-02,3.340467810630798340e-05,-2.211019396781921387e-03,2.498047240078449249e-02,3.872970119118690491e-03,-1.071338914334774017e-02,-3.591369837522506714e-03,-1.303637400269508362e-02,-1.729869283735752106e-02,4.172759130597114563e-02,-1.839503645896911621e-02,5.045939236879348755e-03,-2.311538904905319214e-02,-7.028814405202865601e-03,4.892665892839431763e-03,2.222897112369537354e-02,-4.731338471174240112e-03,-1.469941809773445129e-02,-1.436423882842063904e-02,1.535089686512947083e-03,-2.583946660161018372e-02,-8.583068847656250000e-04,1.759848743677139282e-02,-3.000091575086116791e-02,-4.542855173349380493e-02,5.637366324663162231e-03,3.955230116844177246e-03,4.323199391365051270e-05,-4.944205284118652344e-05,-1.201267167925834656e-02,-3.569230437278747559e-02,1.012877374887466431e-02,4.664100334048271179e-02,-1.037395186722278595e-02,4.064993932843208313e-02,-4.463642835617065430e-05,-3.746343404054641724e-02,2.332851849496364594e-02,-1.301024109125137329e-02,8.400492370128631592e-04,2.333883009850978851e-02,-3.662903979420661926e-02,-8.429555222392082214e-03,-1.194179058074951172e-04,7.144547998905181885e-04,-1.250179111957550049e-02,-7.443856447935104370e-04,-6.000697612762451172e-05,-1.243650913238525391e-04,-3.074482083320617676e-03,-2.274122089147567749e-04,3.677826374769210815e-03,-2.018402889370918274e-02,1.838142052292823792e-02,2.547521144151687622e-04,1.593729853630065918e-02,1.478899456560611725e-02,1.317149400711059570e-02,4.890726879239082336e-03,-2.282123453915119171e-02,8.925662375986576080e-03,-2.600539475679397583e-03,1.347883045673370361e-02,4.195325076580047607e-03,-2.196617424488067627e-05,7.472909986972808838e-03,-3.193733096122741699e-02,2.266742475330829620e-02,2.550861984491348267e-02,-4.342723637819290161e-03,-2.442517131567001343e-02,-2.079380303621292114e-02,-2.251231856644153595e-02,2.696734666824340820e-02,-9.329834952950477600e-03,3.389345854520797729e-02,1.049056649208068848e-03,-3.443698212504386902e-02,-1.024929806590080261e-04,-8.858256042003631592e-03,-1.299855485558509827e-02,7.690530270338058472e-02,-2.762495353817939758e-02,-1.450236886739730835e-04,-3.567142039537429810e-02,3.418701514601707458e-02,1.163221895694732666e-05,-2.191712521016597748e-02,-5.217341706156730652e-03,-1.779060810804367065e-03,2.831469103693962097e-02,-1.786964014172554016e-02,-9.900908917188644409e-04,-2.450011670589447021e-02,1.721084117889404297e-05,-2.767261117696762085e-03,-2.608748897910118103e-02,-4.318356513977050781e-05,9.996108710765838623e-04,6.676592677831649780e-02,-4.408881068229675293e-05,7.992941886186599731e-02,-8.725635707378387451e-04,-1.860525459051132202e-02,1.565536111593246460e-02,5.903767421841621399e-03,9.520207531750202179e-03,-2.480274811387062073e-02,3.376771882176399231e-02,9.139843285083770752e-03,2.392374351620674133e-02,-9.185750037431716919e-03,1.598039176315069199e-03,-9.604720398783683777e-03,-1.949630677700042725e-05,-2.906775847077369690e-02,1.328631490468978882e-02,-3.111731261014938354e-03,1.803971268236637115e-02,8.154638111591339111e-03,1.854002475738525391e-04,2.901628613471984863e-05,9.036879986524581909e-03,-2.107341215014457703e-02,-8.905581198632717133e-03,-2.096485346555709839e-03,-7.847677916288375854e-03,-2.668187767267227173e-02,-1.509206742048263550e-02,-3.010007739067077637e-02,-1.358858682215213776e-02,-5.943141877651214600e-04,-2.083485573530197144e-02,-1.969328895211219788e-02,-3.552418202161788940e-03,8.907578885555267334e-04,7.449362426996231079e-03,-3.237744793295860291e-03,-2.711030840873718262e-02,-4.129670560359954834e-05,-4.859625548124313354e-02,-3.952869400382041931e-02,-6.699338555335998535e-04,-9.151797741651535034e-03,1.084303203970193863e-02,-2.024919912219047546e-02,-8.744467049837112427e-05,1.712086051702499390e-02,-4.445420578122138977e-03,-3.731146454811096191e-02,-1.554695330560207367e-02,-1.861155964434146881e-02,-4.421140626072883606e-02,3.026617690920829773e-02,-5.179736763238906860e-05,2.677433192729949951e-03,3.644246980547904968e-02,-1.341769471764564514e-03,1.892561465501785278e-02,-7.179565727710723877e-05,2.783536911010742188e-05,5.186358094215393066e-02,7.810549437999725342e-02,-2.102239057421684265e-02,-4.041325300931930542e-04,-2.592671662569046021e-03,-1.978001371026039124e-02,9.201770648360252380e-03,-6.853751838207244873e-04,-1.829396933317184448e-04,1.093228161334991455e-02,1.676861755549907684e-02,-1.521483063697814941e-04,2.295896410942077637e-05,3.250687196850776672e-02,-6.608292460441589355e-05,-1.695487834513187408e-02,-8.717700839042663574e-03,-3.088470175862312317e-02,-3.227984160184860229e-02,-4.207322373986244202e-03,7.427052408456802368e-02,3.926052153110504150e-02,-3.462471067905426025e-05,8.831769227981567383e-04,5.001726746559143066e-02,2.770923078060150146e-03,-7.730260491371154785e-03,1.100653037428855896e-02,2.781303785741329193e-02,-4.784204065799713135e-05,9.392107278108596802e-02,-1.700583845376968384e-03,2.798438072204589844e-05,-2.670623734593391418e-02,-4.806090146303176880e-05,6.208886951208114624e-02,-5.869194865226745605e-05,1.821478083729743958e-02,7.245384156703948975e-03,1.289145648479461670e-01,-4.618242383003234863e-05,-1.088447868824005127e-02,-8.681789040565490723e-05,-1.440579816699028015e-02,-4.866935312747955322e-03,5.288584157824516296e-03,-2.342257648706436157e-02,2.958044409751892090e-03,8.666887879371643066e-05,9.609548375010490417e-03,-4.069564491510391235e-02,-3.306696191430091858e-02,-3.017485141754150391e-05,-8.581394329667091370e-03,-6.416998803615570068e-05,-3.153834491968154907e-03,-1.882099732756614685e-02,-1.406150311231613159e-02,1.308557763695716858e-02,-1.363341882824897766e-02,-2.167706936597824097e-02,-5.981437861919403076e-03,-4.859900102019309998e-03,4.879802465438842773e-03,-4.169235005974769592e-03,-2.003572881221771240e-04,-2.413295209407806396e-03,1.138966530561447144e-02,3.645582124590873718e-03,1.377651467919349670e-02,-1.334380358457565308e-04,-1.891677826642990112e-02,-2.158650755882263184e-02,-3.138310275971889496e-04,1.932637766003608704e-03,9.838445112109184265e-04,-6.014674901962280273e-03,2.356316708028316498e-02,-8.729178458452224731e-03,-3.126065433025360107e-02,1.529928296804428101e-03,5.105774477124214172e-02,-1.132010668516159058e-02,-4.619732499122619629e-05,-3.870000690221786499e-02,-7.576775737106800079e-03,-9.445723146200180054e-03,2.544373273849487305e-06,-1.303875260055065155e-02,-1.156919263303279877e-02,-1.874419115483760834e-02,2.184323966503143311e-04,-5.659647285938262939e-05,1.008771546185016632e-02,-8.130446076393127441e-06,-5.384180694818496704e-03,-1.577716320753097534e-03,1.336511969566345215e-02,-1.414077356457710266e-02,1.665220223367214203e-02,7.642367854714393616e-04,1.999277621507644653e-03,-3.592391498386859894e-03,-1.843040809035301208e-04,2.682900056242942810e-03,3.309547901153564453e-05,-1.441621966660022736e-02,-1.446643099188804626e-02,1.285945996642112732e-02,7.161645591259002686e-02,3.686231002211570740e-02,8.608897030353546143e-02,4.177347943186759949e-02,-1.567581668496131897e-02,-1.142299827188253403e-02,4.116412252187728882e-03,-1.412755995988845825e-02,-2.506015822291374207e-03,-3.826505690813064575e-02,-1.532490272074937820e-02,4.181451350450515747e-02,-8.164634928107261658e-03,1.107640564441680908e-04,7.383678853511810303e-02,-1.407791953533887863e-02,-2.871226146817207336e-02,1.979634165763854980e-03,3.751434385776519775e-03,-2.237012609839439392e-02,1.002970710396766663e-01,-4.964800551533699036e-02,-2.110030129551887512e-02,-9.443890303373336792e-03,-5.167182534933090210e-04,-1.828726381063461304e-04,4.267902299761772156e-02,-2.205064520239830017e-04,-1.305990666151046753e-02,-4.374730587005615234e-02,4.552262648940086365e-02,-6.861768662929534912e-03,-3.579797595739364624e-02,1.752935349941253662e-05,-1.163495704531669617e-02,5.360320210456848145e-05,-6.539011374115943909e-03,1.336427405476570129e-03,-3.493634983897209167e-02,4.334771260619163513e-02,1.637580990791320801e-02,1.333331689238548279e-02,-4.013533890247344971e-02,2.904361486434936523e-02,-2.257592603564262390e-02,2.180375158786773682e-04,2.368514612317085266e-02,1.314263325184583664e-02,2.267152070999145508e-03,8.422599174082279205e-03,2.736511081457138062e-02,5.044301971793174744e-03,-2.144705504179000854e-04,-4.305736720561981201e-02,6.740912795066833496e-05,-1.466013491153717041e-04,1.042967475950717926e-02,-6.825476884841918945e-05
3.677909821271896362e-02,3.292825445532798767e-02,1.300387382507324219e-01,8.617098629474639893e-02,3.132880851626396179e-02,5.142083391547203064e-03,5.278705060482025146e-02,4.247795790433883667e-02,6.947801262140274048e-02,5.484015122056007385e-02,5.597247183322906494e-02,6.537164747714996338e-02,8.637169003486633301e-02,5.851367861032485962e-02,-6.719971075654029846e-03,8.203020691871643066e-02,5.507571622729301453e-02,4.171219095587730408e-02,-8.537475764751434326e-02,4.081751406192779541e-02,5.021272227168083191e-02,8.729662001132965088e-02,4.181396961212158203e-02,3.400700911879539490e-02,4.849987477064132690e-02,8.822219446301460266e-03,6.444351375102996826e-02,4.520865529775619507e-02,9.550160728394985199e-03,1.323187723755836487e-03,6.787477433681488037e-02,6.253248453140258789e-02,4.530290141701698303e-03,4.871500283479690552e-02,8.918292820453643799e-02,6.406976282596588135e-02,5.647701770067214966e-02,4.728739708662033081e-02,7.467028498649597168e-02,6.679951399564743042e-02,2.612353675067424774e-02,4.044973850250244141e-02,1.145626697689294815e-02,-1.799805015325546265e-01,5.546057969331741333e-02,3.314338624477386475e-02,-8.092654868960380554e-03,5.940650403499603271e-02,5.082942545413970947e-03,1.973639242351055145e-02,9.840863943099975586e-02,3.312629461288452148e-02,2.531628124415874481e-02,5.915615707635879517e-02,6.066166236996650696e-02,-3.638500347733497620e-03,5.617943033576011658e-02,7.368937134742736816e-02,3.422541916370391846e-02,4.419968649744987488e-02,2.311372384428977966e-02,6.804167479276657104e-02,1.113146822899580002e-02,4.574290290474891663e-02,5.092063173651695251e-02,-3.110971301794052124e-03,3.359712660312652588e-03,7.197400555014610291e-03,-6.134761497378349304e-03,4.955551028251647949e-02,-2.390168607234954834e-03,7.056251168251037598e-03,-1.823577284812927246e-02,1.294488608837127686e-01,3.983441740274429321e-03,6.014448404312133789e-02,-1.476284489035606384e-02,4.308221861720085144e-02,4.852901771664619446e-02,5.428340286016464233e-02,1.315798163414001465e-01,3.354557603597640991e-02,2.696727588772773743e-02,4.894799739122390747e-02,4.068877547979354858e-02,1.207606419920921326e-01,6.591518223285675049e-02,2.497300505638122559e-03,6.706405431032180786e-02,6.903108954429626465e-02,6.007920205593109131e-02,8.827237784862518311e-02,-5.918382108211517334e-02,7.232064753770828247e-02,6.506823003292083740e-02,-4.774648230522871017e-03,2.316013909876346588e-02,4.911076650023460388e-02,7.031834870576858521e-02,7.150996476411819458e-02,5.917209759354591370e-02,2.358785085380077362e-02,1.596552506089210510e-02,6.395580619573593140e-02,7.829914242029190063e-02,5.632960237562656403e-03,2.892670221626758575e-02,1.749591156840324402e-02,1.607420593500137329e-01,2.728320658206939697e-02,3.458319231867790222e-02,3.819683194160461426e-02,8.259005844593048096e-02,-3.106581047177314758e-03,4.277942329645156860e-02,-2.395930700004100800e-03,1.572352275252342224e-02,2.481492422521114349e-02,5.061335489153862000e-02,2.761824615299701691e-02,7.190414518117904663e-02,7.117912173271179199e-02,7.854460738599300385e-03,2.443884313106536865e-02,-9.856034070253372192e-03,2.847066894173622131e-02,1.802656352519989014e-01,1.135975420475006104e-01,6.442179530858993530e-02,6.999318301677703857e-02,-1.518406718969345093e-02,2.234230749309062958e-02,1.300634145736694336e-01,6.459193676710128784e-02,4.305604845285415649e-02,4.093296080827713013e-02,6.038561835885047913e-02,4.715006053447723389e-02,2.262997068464756012e-02,9.599382057785987854e-03,1.774349994957447052e-02,4.840233549475669861e-02,1.090060323476791382e-01,2.435370720922946930e-02,7.621397078037261963e-02,-7.040344178676605225e-03,1.824619993567466736e-02,4.591988027095794678e-02,2.544393204152584076e-02,6.758874654769897461e-02,5.086951330304145813e-02,4.625304043292999268e-02,6.621241569519042969e-02,1.014945507049560547e-01,2.252819947898387909e-02,8.606620132923126221e-02,4.463377222418785095e-02,2.204561792314052582e-02,-1.662539690732955933e-02,2.646159566938877106e-02,2.678252942860126495e-02,5.962948501110076904e-02,8.781150914728641510e-03,1.272341609001159668e-01,-1.184958592057228088e-01,6.714482605457305908e-02,2.382525056600570679e-02,1.426076143980026245e-02,3.312408551573753357e-02,5.357309058308601379e-02,9.114386141300201416e-02,5.446098744869232178e-02,3.480704873800277710e-02,1.880910620093345642e-02,3.332789987325668335e-02,8.365103602409362793e-02,7.376822829246520996e-02,2.437161281704902649e-02,5.411041900515556335e-03,7.462649792432785034e-02,4.861859604716300964e-02,4.053087905049324036e-03,6.906333565711975098e-02,5.930213257670402527e-02,3.462062776088714600e-02,5.530380830168724060e-02,5.224131792783737183e-02,1.115040704607963562e-01,4.432562738656997681e-03,6.061498075723648071e-03,1.766331866383552551e-02,2.413510158658027649e-02,5.936776101589202881e-02,1.151565909385681152e-01,3.635767102241516113e-02,3.266277164220809937e-02,5.928700789809226990e-03,4.818550497293472290e-02,8.803082257509231567e-02,3.863847255706787109e-02,5.300211161375045776e-02,-1.818832755088806152e-02,1.334514096379280090e-02,1.543328911066055298e-01,8.819815516471862793e-02,6.324007641524076462e-03,1.085761785507202148e-01,5.378983914852142334e-02,5.341394618153572083e-02,2.785739302635192871e-02,1.272749304771423340e-01,3.344065696001052856e-02,3.890172392129898071e-02,7.272569090127944946e-02,5.127311870455741882e-02,9.374313056468963623e-02,2.771623246371746063e-02,5.632319301366806030e-02,8.449326269328594208e-03,8.565983176231384277e-02,-2.835355885326862335e-02,1.732355915009975433e-02,8.149622380733489990e-02,3.022470325231552124e-02,1.831725388765335083e-01,4.081471264362335205e-02,4.502918571233749390e-02,6.267257034778594971e-02,5.099231749773025513e-02,-8.007654920220375061e-03,7.189793512225151062e-03,-9.859807789325714111e-03,6.647552549839019775e-02,4.602119326591491699e-02,3.189048916101455688e-02,1.376703381538391113e-01,1.038066446781158447e-01,6.497773528099060059e-02,5.296447500586509705e-02,1.309053897857666016e-01,1.110792607069015503e-01,2.664704993367195129e-02,2.116055414080619812e-02,2.918933704495429993e-02,-1.287501305341720581e-02,7.780482620000839233e-02,-2.081025857478380203e-03,4.813311621546745300e-02,-2.453889846801757812e-01,1.723271235823631287e-02,6.086813285946846008e-03,1.542650014162063599e-01,5.141052976250648499e-02,5.549445375800132751e-02,5.777184292674064636e-02,1.232596263289451599e-01,2.930470183491706848e-02,2.552222460508346558e-02,5.139959603548049927e-02,6.751655787229537964e-02,4.791883751749992371e-02,1.065848469734191895e-01,2.612561732530593872e-02,5.847948789596557617e-02,1.975763589143753052e-02,9.587056189775466919e-02,7.866159081459045410e-02,2.071207202970981598e-02,7.434740662574768066e-02,3.777336329221725464e-02,2.943721413612365723e-02,8.574770390987396240e-02,1.848198845982551575e-02,1.139984577894210815e-01,2.854747697710990906e-02,1.198775880038738251e-02,8.492082357406616211e-02,6.402146816253662109e-02,8.383093774318695068e-02,3.438704460859298706e-02,6.111472845077514648e-02,4.757171124219894409e-02,1.142951995134353638e-01,4.612585157155990601e-02,5.338137038052082062e-03,-1.202224940061569214e-02,1.014533825218677521e-02,8.957231044769287109e-02,-2.927706763148307800e-02,2.287908457219600677e-02,4.777314141392707825e-02,2.800327725708484650e-02,4.725269228219985962e-02,1.406039483845233917e-02,9.958796203136444092e-02,4.977484792470932007e-02,9.259143844246864319e-03,-1.494074705988168716e-02,2.471456117928028107e-02,4.941799119114875793e-02,8.405068889260292053e-03,1.306104362010955811e-01,3.784202411770820618e-02,6.920963525772094727e-02,7.537342607975006104e-04,1.466501317918300629e-02,4.232272505760192871e-02,3.541404381394386292e-02,-7.762286067008972168e-02,7.135479897260665894e-02,2.651092410087585449e-02,3.095211833715438843e-02,1.390957087278366089e-02,6.874741613864898682e-02,-3.088155202567577362e-02,9.565582871437072754e-02,6.839817762374877930e-02,7.181704789400100708e-02,1.911126263439655304e-02,6.005566567182540894e-02,4.162541590631008148e-03,4.797936975955963135e-02,7.300321757793426514e-02,4.554240778088569641e-02,5.808852612972259521e-03,5.715334415435791016e-02,1.029206253588199615e-02,1.167643256485462189e-02,2.551891840994358063e-02,1.221825275570154190e-02,8.261331915855407715e-02,6.891891360282897949e-02,7.350649684667587280e-04,-2.410840429365634918e-02,4.023749381303787231e-02,6.798604130744934082e-02,-1.590166240930557251e-02,2.239499241113662720e-02,8.097986876964569092e-02,9.434653818607330322e-02,5.683907121419906616e-02,-1.595550775527954102e-02,7.359354197978973389e-02,1.570808328688144684e-02,3.377161920070648193e-03,4.252743907272815704e-03,6.931984797120094299e-03,3.872694075107574463e-02,8.359293639659881592e-02,3.010287135839462280e-02,4.510561935603618622e-03,-1.758355274796485901e-02,6.230565905570983887e-02,5.163302272558212280e-02,4.492778331041336060e-02,5.492107197642326355e-02,6.642262637615203857e-02,5.574125796556472778e-02,1.721637137234210968e-02,6.704198196530342102e-03,6.423261016607284546e-02,3.734115511178970337e-03,2.345517650246620178e-02,9.048871695995330811e-02,1.610633917152881622e-02,2.652515470981597900e-02,1.387432664632797241e-01,3.325119614601135254e-02,-6.641456857323646545e-04,1.006055437028408051e-02,6.538889557123184204e-02,-3.408104926347732544e-02,1.581473276019096375e-02,8.036960661411285400e-02,4.430478811264038086e-02,4.317116737365722656e-02,-6.961083039641380310e-03,4.980325698852539062e-03,1.867737807333469391e-02,7.198461890220642090e-02,4.840781539678573608e-02,3.639668226242065430e-02,3.873073309659957886e-02,3.393538296222686768e-03,2.528443373739719391e-02,7.355085760354995728e-02,4.671209305524826050e-02,1.105795521289110184e-02,8.684802800416946411e-02,7.723529636859893799e-02,1.716573908925056458e-02,1.678811013698577881e-02,-1.317956112325191498e-02,8.681464195251464844e-02,3.337742015719413757e-02,9.125430881977081299e-02,9.172026067972183228e-02,5.352630838751792908e-02,1.070817187428474426e-02,-2.169037237763404846e-03,5.136822164058685303e-02,5.207758396863937378e-02,5.034096911549568176e-02,8.682502806186676025e-02,1.724309846758842468e-02,5.339996889233589172e-03,7.821805775165557861e-02,9.916656464338302612e-02,2.793499827384948730e-02,4.285939410328865051e-02,8.301156014204025269e-02,4.617881029844284058e-03,1.175404153764247894e-02,6.259839981794357300e-02,4.211958497762680054e-03,4.564873129129409790e-02,3.541747480630874634e-02,5.577087402343750000e-02,5.277907103300094604e-02,5.779335275292396545e-02,4.519829526543617249e-03,5.600722879171371460e-02,3.458219394087791443e-02,1.079290136694908142e-01,-5.779612809419631958e-03,9.920613467693328857e-02,5.476919561624526978e-02,-2.090878412127494812e-02,1.509597338736057281e-02,4.009190201759338379e-02,6.700898706912994385e-02,-8.087318390607833862e-02,3.697230666875839233e-02,3.196016699075698853e-02,2.679595723748207092e-02,3.048312105238437653e-02,4.474660009145736694e-02,4.963696748018264771e-02,5.215056240558624268e-02,7.891198992729187012e-02,7.039691507816314697e-02,1.292672902345657349e-01,5.454138666391372681e-02,9.200636297464370728e-02,5.034598708152770996e-02,2.038467116653919220e-02,6.861080974340438843e-02,4.444508999586105347e-02,6.125493720173835754e-02,6.769752502441406250e-02,5.301239341497421265e-02,1.248858496546745300e-02,4.189695417881011963e-02,1.128695681691169739e-01,2.473228611052036285e-03,-5.246620625257492065e-03,7.249034196138381958e-02,7.660079747438430786e-02,7.447448372840881348e-02,6.611497700214385986e-02,1.381072700023651123e-01,-1.548734493553638458e-02,7.085351645946502686e-02,6.369641423225402832e-02,4.762920737266540527e-02,3.479441255331039429e-02,3.464438393712043762e-02,6.033593416213989258e-02,2.688556537032127380e-02,9.193627536296844482e-02,4.863473773002624512e-02,5.875737220048904419e-02,3.436441347002983093e-02,1.711603701114654541e-01,6.899254024028778076e-02,9.194038063287734985e-02,7.417905144393444061e-03,7.537141442298889160e-03,8.351497352123260498e-03,2.366555482149124146e-02,7.909301668405532837e-02,2.986511029303073883e-02,1.922835782170295715e-02,5.076253786683082581e-02,6.245442479848861694e-02,2.024785056710243225e-02,3.248733282089233398e-02,-1.888663768768310547e-01,5.997119471430778503e-02,3.018941543996334076e-02,3.788542002439498901e-03,2.217367850244045258e-02,2.164888754487037659e-02,6.624843925237655640e-02,5.137170664966106415e-03,9.130232036113739014e-02,5.868251249194145203e-02,5.791083723306655884e-02,2.595544978976249695e-02,-1.190092563629150391e-01,7.113132625818252563e-02,2.554643526673316956e-02,4.086419194936752319e-02,4.133405536413192749e-02,7.810682058334350586e-02,4.166217148303985596e-02,1.008239313960075378e-01,6.404618918895721436e-02,6.338776648044586182e-02,-6.626620888710021973e-03,3.987626358866691589e-02,6.087835133075714111e-02,5.949823558330535889e-02,5.156586319208145142e-02,-1.768048852682113647e-03,6.369504332542419434e-02,1.349783837795257568e-01,3.990397602319717407e-02,7.459433376789093018e-02,6.981763243675231934e-02,2.930419519543647766e-02,2.945102192461490631e-02,5.285546183586120605e-02,6.292224675416946411e-02,6.128253415226936340e-02,-3.068565949797630310e-02,6.099531799554824829e-02,4.721734672784805298e-02,6.679832190275192261e-02,7.725756615400314331e-02,6.399770826101303101e-02,3.465890511870384216e-02,3.492313250899314880e-02,2.079497277736663818e-02,1.155960634350776672e-01,5.223333835601806641e-02,1.595205068588256836e-02,7.151415944099426270e-02,1.271985769271850586e-01,4.716911911964416504e-02,5.867733433842658997e-02,5.498101189732551575e-02,3.919722512364387512e-02,2.267238497734069824e-02,1.417580693960189819e-01,7.649684697389602661e-02,-2.460688352584838867e-03,4.509234428405761719e-02,6.426848471164703369e-02,8.300869166851043701e-02,1.177355833351612091e-02,3.969800099730491638e-02,-3.242915123701095581e-02,6.086599081754684448e-02,2.418900467455387115e-02,5.048763751983642578e-02,5.686001479625701904e-02,1.441307645291090012e-02,5.657271295785903931e-02,3.627549856901168823e-02,1.118249744176864624e-01,1.140893250703811646e-01,1.723858341574668884e-02,3.448729962110519409e-02,6.646485626697540283e-02,1.358016207814216614e-02,7.503143697977066040e-02,2.047617547214031219e-02,7.247931510210037231e-02,6.112980842590332031e-02,2.949627116322517395e-02,8.468498289585113525e-02,-7.497052848339080811e-02,2.970769070088863373e-03,4.299921914935112000e-03,5.047485977411270142e-02,5.908090621232986450e-03,1.016100347042083740e-01,3.456165641546249390e-02,6.085199117660522461e-02,1.618018560111522675e-02,5.507133901119232178e-02,-7.180901616811752319e-02,4.013390466570854187e-02,2.803862281143665314e-02,6.207218021154403687e-02,7.081201300024986267e-03,1.979061588644981384e-02,6.951630860567092896e-02,6.278655678033828735e-02,6.697646528482437134e-02,9.368665516376495361e-02,3.107007965445518494e-02,8.907955139875411987e-02,6.431049108505249023e-02,7.286053150892257690e-03,6.101720780134201050e-02,1.109671592712402344e-01,5.511509254574775696e-02,9.779077023267745972e-02,5.642016232013702393e-02,5.922630429267883301e-02,6.692159920930862427e-02,1.015133932232856750e-01,8.271561563014984131e-02,5.715973675251007080e-02,1.333317533135414124e-02,3.978487104177474976e-02,5.446850135922431946e-02,2.737139537930488586e-02,7.651591300964355469e-02,4.932545125484466553e-02,-7.321290671825408936e-03,6.399916112422943115e-02,7.449142634868621826e-02,8.969567716121673584e-02,3.647238388657569885e-02,3.342657908797264099e-02,4.982850700616836548e-02,1.261446624994277954e-02,3.688468039035797119e-02,6.786485761404037476e-02,5.530384927988052368e-02,3.789942711591720581e-02,7.374997437000274658e-02,9.126819670200347900e-02,2.444888278841972351e-02,7.742305845022201538e-02,1.768263801932334900e-02,1.404174789786338806e-02,4.827217757701873779e-02,1.376988291740417480e-01,4.718578234314918518e-02,1.636372506618499756e-02,1.046477109193801880e-01,2.413146197795867920e-02,5.946400016546249390e-02,7.160794734954833984e-02,2.575301751494407654e-02,2.081312425434589386e-02,3.557585924863815308e-02,3.117887675762176514e-02,4.915009811520576477e-02,4.210623353719711304e-02,7.351876795291900635e-02,4.697551950812339783e-02,1.952052861452102661e-02,3.507917374372482300e-02,4.705277085304260254e-02,2.936760522425174713e-02,1.206730864942073822e-02,1.514073647558689117e-02,3.475712239742279053e-02,-2.148124575614929199e-02,6.979343295097351074e-02,7.431810349225997925e-02,7.104561477899551392e-02,5.475964397192001343e-02,6.361785531044006348e-02,7.098998874425888062e-02,8.761510998010635376e-02,7.500326633453369141e-02,6.928795576095581055e-02,9.914159774780273438e-03,5.854168161749839783e-02,8.461755514144897461e-02,3.407756984233856201e-02,4.952735826373100281e-02,4.188996553421020508e-02,3.983860462903976440e-02,1.855760999023914337e-02,-2.089451998472213745e-02,5.287942290306091309e-02,6.119715049862861633e-02,4.375389590859413147e-02,-3.174272924661636353e-02,-2.409339882433414459e-03,1.056669279932975769e-02,2.909786626696586609e-02,7.148261368274688721e-02,4.962884262204170227e-02,6.465707719326019287e-02,1.143633797764778137e-01,6.534624844789505005e-02,2.442003227770328522e-03,5.057220906019210815e-02,5.490885674953460693e-02,5.627314001321792603e-02,6.157412752509117126e-02,5.079856514930725098e-02,6.465429067611694336e-02,1.609014347195625305e-03,1.203867495059967041e-01,2.317833527922630310e-02,-2.786083891987800598e-02,6.405039876699447632e-02,6.696017086505889893e-02,5.708289518952369690e-02,-1.021044701337814331e-02,5.100909620523452759e-02,2.273960970342159271e-02,1.763611473143100739e-02,4.095525294542312622e-02,4.065249115228652954e-02,1.323177665472030640e-02,4.502978920936584473e-02,1.216422766447067261e-02,5.694285035133361816e-02,7.778483629226684570e-02,-1.868180185556411743e-02,6.609544903039932251e-02,-1.538536325097084045e-02,5.162367969751358032e-02,9.590270370244979858e-02,1.144771277904510498e-02,5.180445313453674316e-02,7.482525706291198730e-02,5.302939191460609436e-02,2.790916152298450470e-02,4.485548287630081177e-02,3.806353360414505005e-02,9.900669753551483154e-02,3.925617784261703491e-02,3.973325341939926147e-02,3.402876481413841248e-02,1.068606786429882050e-02,4.831284284591674805e-03,-1.198519021272659302e-04,3.155709058046340942e-02,3.077709674835205078e-02,3.780085593461990356e-02,2.783501520752906799e-03,4.718368873000144958e-03,4.312463477253913879e-02,6.126632913947105408e-02,5.266968905925750732e-02,3.923071920871734619e-02,8.598898537456989288e-03,8.220579475164413452e-02,-3.151659667491912842e-02,6.852993369102478027e-02,4.290560260415077209e-02,1.693138182163238525e-01,8.384713530540466309e-02,5.255620926618576050e-02,8.751805126667022705e-02,5.009885504841804504e-02,7.569811493158340454e-02,6.173377484083175659e-02,8.838066458702087402e-02,4.949851892888545990e-03,6.129325181245803833e-02,4.267450049519538879e-02,-1.538292616605758667e-01,4.734056442975997925e-02,2.781195566058158875e-02,8.835298568010330200e-02,6.012548506259918213e-02,6.979291141033172607e-02,3.840214759111404419e-02,3.850023448467254639e-02,7.631961256265640259e-02,4.702430218458175659e-03,5.654903501272201538e-02,4.739405587315559387e-03,3.471046313643455505e-02,1.290008723735809326e-01,1.850149780511856079e-02,6.862723827362060547e-02,1.960873790085315704e-02,3.214462846517562866e-02,-1.993566751480102539e-01,3.048588521778583527e-02,9.380105882883071899e-03,3.296148777008056641e-02,6.375522911548614502e-02,1.995856501162052155e-02,-1.971264556050300598e-02,1.814460568130016327e-02,8.833689987659454346e-02,-3.176996111869812012e-02,2.063821554183959961e-01,5.718395113945007324e-02,-1.242700032889842987e-02,-7.107576820999383926e-03,4.969085752964019775e-02,2.568773366510868073e-02,1.217845678329467773e-01,6.727395206689834595e-02,3.322171419858932495e-02,-2.600819431245326996e-02,6.042335927486419678e-02,5.383247882127761841e-02,6.293273717164993286e-02,-6.169027183204889297e-03,5.522263795137405396e-02,-1.822446659207344055e-02,5.533029139041900635e-02,1.113147810101509094e-01,-3.120386041700839996e-03,4.727656394243240356e-02,6.595520675182342529e-02,-2.511842176318168640e-03,4.893527925014495850e-02,1.491598784923553467e-03,1.073655933141708374e-01,1.016583740711212158e-01,7.810431718826293945e-02,1.378082111477851868e-02,1.756574958562850952e-02,4.940022900700569153e-02,4.151397198438644409e-02,8.097749948501586914e-02,5.702867731451988220e-02,1.365827582776546478e-02,9.105989336967468262e-02,1.262367703020572662e-03,9.986753761768341064e-02,2.126122824847698212e-03,2.435040101408958435e-02,1.318627782166004181e-02,-2.482266165316104889e-02,3.134665638208389282e-02,1.465801335871219635e-02,6.359468400478363037e-02,3.973736613988876343e-02,2.482039853930473328e-02,1.764803752303123474e-02,5.205944925546646118e-02,4.512744396924972534e-02,2.982064150273799896e-02,9.655596688389778137e-03,4.390919208526611328e-02,-7.495044171810150146e-02,-7.202956825494766235e-03,1.116849780082702637e-01,3.533205389976501465e-02,2.477567456662654877e-02,5.371009185910224915e-02,3.413984552025794983e-03,3.730075061321258545e-02,2.502375282347202301e-02,-8.367689326405525208e-03,2.415871247649192810e-02,9.937234222888946533e-03,4.197188839316368103e-02,-8.217548020184040070e-03,2.758043818175792694e-02,-7.876509800553321838e-03,4.099550098180770874e-02,1.305295675992965698e-01,2.961846627295017242e-02,1.772323809564113617e-02,-1.937385052442550659e-01,-2.461023628711700439e-03,3.762962669134140015e-02,4.357676580548286438e-02,-7.845769077539443970e-02,7.122576236724853516e-03,6.361645460128784180e-02,5.733617395162582397e-02,-3.769497573375701904e-02,4.246848076581954956e-02,1.673268340528011322e-02,9.203742444515228271e-02,5.661175400018692017e-02,6.000858545303344727e-02,2.313705720007419586e-02,-1.438253521919250488e-01,3.179729357361793518e-02,1.074091345071792603e-02,5.868594720959663391e-02,1.870188489556312561e-02,2.747366204857826233e-02,3.882987052202224731e-02,4.351812228560447693e-02,4.909148067235946655e-02,7.344948500394821167e-02,2.453773654997348785e-02,-6.788500584661960602e-03,6.625205278396606445e-02,6.031962484121322632e-02,1.370444055646657944e-02,4.548859968781471252e-02,6.326409429311752319e-02,8.919687941670417786e-03,4.987682402133941650e-02,6.328836828470230103e-02,3.503410518169403076e-02,7.006758451461791992e-02,5.957338586449623108e-02,2.631043642759323120e-02,7.004467397928237915e-02,3.353850916028022766e-04,4.459700360894203186e-02,-1.177877373993396759e-02,2.640614844858646393e-02,4.132644087076187134e-02,5.493576638400554657e-03,3.879519179463386536e-02,4.338307306170463562e-02,1.602056436240673065e-02,5.573704838752746582e-02,3.241745382547378540e-02,1.092448234558105469e-01,4.914005845785140991e-02,-3.815169259905815125e-02,1.211024820804595947e-03,-2.344250306487083435e-02,2.332946658134460449e-02,3.875306248664855957e-02,8.465638756752014160e-02,1.018269136548042297e-01,9.032675623893737793e-02,-7.710900157690048218e-03,5.447733402252197266e-02,7.591648399829864502e-02,7.097367197275161743e-02,-1.023942325264215469e-02,6.610925495624542236e-02,4.177723824977874756e-02,6.109317764639854431e-03,2.147641219198703766e-02,6.132049858570098877e-02,6.332232058048248291e-02,4.381299763917922974e-02,1.115581579506397247e-02,5.054502189159393311e-02,4.632472246885299683e-02,6.700023263692855835e-02,3.438809514045715332e-02,4.950897395610809326e-02,3.587527573108673096e-02,2.416390180587768555e-02,6.535067223012447357e-03,-2.304175123572349548e-02,-1.925940997898578644e-02,2.256506308913230896e-02,9.389901161193847656e-02,5.867832899093627930e-02,4.769393801689147949e-02,1.723845489323139191e-02,-1.898489594459533691e-01,6.774871051311492920e-02,1.775770634412765503e-02,-1.420837193727493286e-01,8.683305978775024414e-02,-1.840346492826938629e-03,6.127175688743591309e-02,7.259808480739593506e-02,1.857731863856315613e-02,9.379760175943374634e-02,-8.722513914108276367e-02,7.980577647686004639e-03,5.309512838721275330e-03,6.355916708707809448e-02,-7.793371379375457764e-02,4.954847507178783417e-03,6.151390075683593750e-02,5.760414153337478638e-02,2.762677893042564392e-02,5.633848160505294800e-02,1.140237227082252502e-02,6.437453627586364746e-02,1.152374744415283203e-01,5.266490578651428223e-02,1.972445100545883179e-02,1.156460493803024292e-02,7.831291854381561279e-02,-1.376212853938341141e-02,6.455862522125244141e-02,2.337691932916641235e-02,6.003168970346450806e-02,1.150096431374549866e-01,1.219051331281661987e-01,4.560789465904235840e-02,4.269154369831085205e-02,7.357203960418701172e-02,5.775488913059234619e-03,1.571172848343849182e-02,9.872157871723175049e-02,-1.327611804008483887e-01,3.399239853024482727e-02,3.283608704805374146e-03,3.947108238935470581e-02,1.585951074957847595e-02,1.053631603717803955e-01,5.213169381022453308e-02,4.848850890994071960e-03,6.530009210109710693e-03,8.878503926098346710e-03,-2.290808409452438354e-02,6.041008979082107544e-02,-5.808451212942600250e-03,2.087940648198127747e-02,8.008586615324020386e-02,4.737759754061698914e-02,1.579945720732212067e-02,3.208594396710395813e-02,6.010425463318824768e-02
-3.072932362556457520e-03,6.175087019801139832e-02,1.846034079790115356e-03,-4.319714009761810303e-02,-1.039883121848106384e-03,5.924768000841140747e-02,-7.473081350326538086e-04,3.072912432253360748e-02,1.046800799667835236e-02,-7.252978160977363586e-03,-3.111908212304115295e-03,7.745054364204406738e-02,3.811623901128768921e-03,1.358012855052947998e-02,7.887399755418300629e-03,7.454305887222290039e-06,-2.960124984383583069e-03,1.027175597846508026e-02,-4.509389400482177734e-03,4.506483674049377441e-05,-2.404954284429550171e-04,4.347257316112518311e-03,-7.331961765885353088e-03,5.412539094686508179e-02,3.459962457418441772e-02,2.355233952403068542e-02,1.277440786361694336e-02,1.662280410528182983e-02,1.921325922012329102e-02,-6.875738501548767090e-03,1.213113963603973389e-02,1.718695834279060364e-02,2.288464643061161041e-02,-1.656984910368919373e-03,-1.087502762675285339e-02,1.448832824826240540e-02,-3.656372427940368652e-06,2.387847751379013062e-02,1.287457533180713654e-02,-2.168660983443260193e-03,-9.461157023906707764e-04,1.400099880993366241e-02,8.834755048155784607e-03,-8.861654996871948242e-02,3.787301853299140930e-02,-2.863625064492225647e-03,6.230372935533523560e-02,3.127072006464004517e-02,7.026641070842742920e-02,1.402925699949264526e-04,-2.370245754718780518e-03,2.740321308374404907e-02,3.113242425024509430e-02,4.093647003173828125e-02,-2.082884311676025391e-04,6.783349439501762390e-03,6.593514978885650635e-02,2.629676461219787598e-02,8.015334606170654297e-04,1.200058497488498688e-02,-1.066471263766288757e-02,3.504629433155059814e-02,4.845997318625450134e-04,-1.036715693771839142e-02,-2.135827951133251190e-02,6.424448639154434204e-02,-9.745154529809951782e-04,2.158369123935699463e-02,-6.802642717957496643e-03,2.524930983781814575e-03,4.644999653100967407e-02,2.285608276724815369e-02,9.110139682888984680e-03,1.201379671692848206e-02,4.095536097884178162e-02,-4.007072374224662781e-02,-4.359221458435058594e-02,7.993793115019798279e-03,5.191044136881828308e-02,3.485105931758880615e-03,7.796283811330795288e-03,-1.319991238415241241e-02,1.885877922177314758e-03,-4.639662802219390869e-05,-1.377107575535774231e-03,8.440017700195312500e-03,1.209439337253570557e-02,-9.090255945920944214e-03,1.222267746925354004e-05,-2.585153840482234955e-02,4.020765423774719238e-02,1.116941869258880615e-02,-1.988980919122695923e-03,-1.122863963246345520e-03,4.273771494626998901e-02,6.508566439151763916e-04,6.534515321254730225e-02,-1.613333821296691895e-03,6.183099374175071716e-02,-3.675939887762069702e-02,2.980403788387775421e-02,6.015048548579216003e-02,3.789196908473968506e-02,-7.634703069925308228e-04,-1.815391331911087036e-02,2.426510676741600037e-03,1.112408842891454697e-02,-2.203114330768585205e-03,4.532545804977416992e-03,-5.140807479619979858e-03,1.888954639434814453e-02,1.083954889327287674e-02,4.931166768074035645e-05,2.963196858763694763e-02,1.341141760349273682e-04,1.028382778167724609e-02,8.465619385242462158e-02,-4.095548763871192932e-03,2.638400718569755554e-02,2.499506436288356781e-02,1.922173798084259033e-02,8.677318692207336426e-05,1.141811953857541084e-04,4.703326150774955750e-02,8.256206288933753967e-03,4.443526268005371094e-05,4.741720855236053467e-03,-7.476367056369781494e-03,-3.300348669290542603e-02,1.170056127011775970e-02,-2.773657627403736115e-02,8.116140216588973999e-02,8.782625198364257812e-03,-9.663719683885574341e-04,2.107561938464641571e-02,-8.024275302886962891e-04,-1.933927834033966064e-02,6.861075758934020996e-03,-2.086047083139419556e-03,6.854034960269927979e-03,1.387203764170408249e-02,5.765943229198455811e-02,-3.961528837680816650e-02,6.372542679309844971e-02,5.340509116649627686e-03,1.509936712682247162e-02,4.686033353209495544e-04,-1.396182924509048462e-04,-1.095164567232131958e-02,1.658691465854644775e-02,-9.639468044042587280e-04,-1.182759180665016174e-03,3.091904148459434509e-02,-3.053274005651473999e-03,1.140667870640754700e-02,-1.726278290152549744e-02,-1.891925930976867676e-02,1.585570164024829865e-02,-1.412357203662395477e-03,4.105372354388237000e-03,-2.699013799428939819e-03,-9.018540382385253906e-03,1.577213034033775330e-02,1.932606101036071777e-04,-3.131292387843132019e-02,4.704117774963378906e-03,5.310316570103168488e-03,3.494113683700561523e-02,5.872325971722602844e-03,-9.680062532424926758e-03,1.125096902251243591e-02,2.888759225606918335e-02,1.905398443341255188e-02,-5.882408469915390015e-03,-1.264812424778938293e-03,-9.499598294496536255e-03,-3.764953464269638062e-03,1.640617847442626953e-05,2.901556901633739471e-02,5.075775086879730225e-02,3.050642274320125580e-02,3.313351795077323914e-02,-5.508076399564743042e-03,8.687514811754226685e-03,-9.260140359401702881e-03,4.033371806144714355e-05,2.883507497608661652e-02,-2.381119877099990845e-03,5.101146176457405090e-02,4.103424400091171265e-02,7.923053205013275146e-02,-6.062259897589683533e-03,1.072080247104167938e-02,-1.184679195284843445e-02,1.108073163777589798e-02,1.248385757207870483e-03,-1.741864345967769623e-02,1.813570596277713776e-02,1.624930649995803833e-03,2.637402340769767761e-02,1.250860933214426041e-02,3.361439332365989685e-02,8.423059433698654175e-02,2.541754394769668579e-03,-8.734919130802154541e-03,8.031320758163928986e-04,1.317709684371948242e-04,-1.134607009589672089e-02,-5.640089511871337891e-06,1.108637079596519470e-04,7.006548345088958740e-03,7.650346308946609497e-02,9.700097143650054932e-05,-2.733609639108181000e-02,-4.031987860798835754e-03,8.306652307510375977e-05,-8.408334106206893921e-04,5.251256749033927917e-02,-1.012862659990787506e-02,1.059323549270629883e-04,7.039042189717292786e-03,5.705960094928741455e-03,1.631490886211395264e-04,-4.102420061826705933e-03,8.070878684520721436e-03,7.786039263010025024e-03,-4.777945578098297119e-04,1.569317653775215149e-02,3.794208168983459473e-05,3.430123999714851379e-02,1.612468622624874115e-02,-1.316806301474571228e-03,1.584832370281219482e-02,-2.920886501669883728e-03,5.963280797004699707e-02,5.014367401599884033e-03,-6.428521126508712769e-03,3.573313727974891663e-02,-1.720125973224639893e-02,1.858845353126525879e-04,-3.130429610610008240e-02,1.820676773786544800e-02,1.245958916842937469e-02,7.083995267748832703e-03,5.976665765047073364e-03,4.201027750968933105e-02,4.658197984099388123e-03,3.149513155221939087e-03,-1.363900154829025269e-01,-3.060488961637020111e-03,3.174317255616188049e-02,1.604155451059341431e-02,-3.155626356601715088e-03,3.825245797634124756e-02,-7.856115698814392090e-03,-1.390480995178222656e-02,5.961493588984012604e-04,6.751620210707187653e-03,3.348159790039062500e-02,-8.455142378807067871e-04,1.230461522936820984e-02,8.379224687814712524e-03,4.605855792760848999e-05,-7.560756057500839233e-04,1.072695031762123108e-01,1.305155456066131592e-04,-3.393448889255523682e-03,6.486475467681884766e-05,2.113505452871322632e-02,4.660066217184066772e-03,8.709840476512908936e-04,-3.212485462427139282e-04,1.219933619722723961e-04,7.451832294464111328e-03,6.075489334762096405e-03,4.218052141368389130e-03,1.748071610927581787e-02,2.552318014204502106e-02,-4.944223910570144653e-02,2.217003889381885529e-02,2.223188430070877075e-02,1.911541447043418884e-03,1.330934464931488037e-02,-6.534736603498458862e-04,1.836161687970161438e-02,2.046770416200160980e-02,5.414989218115806580e-02,1.174178346991539001e-02,8.928747847676277161e-03,-4.718648269772529602e-04,1.880917698144912720e-04,1.056361943483352661e-04,1.652892678976058960e-04,-9.728295728564262390e-03,2.076476812362670898e-04,9.182468056678771973e-05,1.371607370674610138e-02,-1.110422331839799881e-02,-4.478730261325836182e-05,-5.705714225769042969e-03,2.239091694355010986e-02,6.758052855730056763e-03,3.049109131097793579e-02,2.220314741134643555e-02,3.728512674570083618e-04,1.686805486679077148e-02,9.188577532768249512e-04,8.328184485435485840e-04,-6.277753040194511414e-03,1.949988119304180145e-02,1.139681693166494370e-02,1.005535107105970383e-02,2.193641848862171173e-02,1.055853627622127533e-02,-3.632145002484321594e-03,-1.101031899452209473e-03,-2.509810402989387512e-02,1.425521448254585266e-03,4.353765398263931274e-02,-8.916113525629043579e-03,-5.014755763113498688e-03,6.802029907703399658e-03,6.025645881891250610e-02,4.236110299825668335e-02,2.334415167570114136e-02,1.785848289728164673e-03,2.118821628391742706e-02,1.916135661303997040e-04,8.496165275573730469e-03,2.463581040501594543e-04,-1.600642129778862000e-02,6.337426602840423584e-04,-9.275320917367935181e-05,8.596316911280155182e-05,3.534731641411781311e-02,1.077664270997047424e-02,-3.792467527091503143e-03,-9.421259164810180664e-06,2.415716648101806641e-02,-8.842829614877700806e-03,-3.231946378946304321e-03,1.157971564680337906e-04,-3.936890512704849243e-03,-9.404147043824195862e-03,3.442375361919403076e-02,4.825782496482133865e-03,1.531913504004478455e-02,2.374764159321784973e-02,1.474022865295410156e-04,-2.035250887274742126e-03,2.929279580712318420e-04,-2.855062298476696014e-02,3.516250476241111755e-02,-2.123937010765075684e-04,2.227798104286193848e-04,-3.488600254058837891e-03,1.760600507259368896e-02,-9.006915614008903503e-03,7.486501336097717285e-02,1.770542375743389130e-02,2.250360883772373199e-02,7.655617780983448029e-03,-1.420837081968784332e-02,-2.335095778107643127e-02,8.652564138174057007e-04,7.437977939844131470e-03,1.629095524549484253e-03,3.928691148757934570e-05,4.186639562249183655e-04,2.651159837841987610e-02,6.828190386295318604e-02,6.969729438424110413e-03,-1.063385233283042908e-02,2.224002778530120850e-02,2.147377654910087585e-02,3.948172926902770996e-02,1.820208504796028137e-03,3.444525226950645447e-02,6.635710597038269043e-04,-5.780301988124847412e-03,4.669207707047462463e-02,-7.376670837402343750e-03,7.306225597858428955e-05,2.239971160888671875e-01,1.345149986445903778e-02,-6.869420409202575684e-03,-1.189522445201873779e-04,1.064522191882133484e-03,-7.770534604787826538e-03,4.873797297477722168e-05,1.025993004441261292e-02,3.465942107141017914e-03,1.858756132423877716e-02,-9.571574628353118896e-04,6.643239408731460571e-03,-4.656171426177024841e-02,1.141019165515899658e-04,2.125988900661468506e-02,-8.905900642275810242e-03,1.848245970904827118e-03,1.951390318572521210e-02,-1.065243594348430634e-02,4.075300693511962891e-02,4.252769052982330322e-03,9.225727058947086334e-03,-8.503645658493041992e-04,-1.729823648929595947e-03,3.386216610670089722e-02,8.818978443741798401e-03,7.663661241531372070e-02,1.075495034456253052e-02,-1.743962988257408142e-03,1.914008520543575287e-02,8.233385160565376282e-03,3.975758701562881470e-02,1.253545098006725311e-02,-6.567792966961860657e-03,7.597906515002250671e-03,5.261600017547607422e-05,3.002415969967842102e-02,-9.363006800413131714e-03,-9.103413671255111694e-03,2.144422009587287903e-02,-2.948081493377685547e-02,2.410425245761871338e-02,2.110905945301055908e-03,3.187172114849090576e-05,2.782776206731796265e-02,1.598193310201168060e-02,-1.251026988029479980e-04,5.359901487827301025e-02,9.944532066583633423e-04,8.910799399018287659e-03,2.983797155320644379e-02,8.198650553822517395e-03,4.260761663317680359e-03,-2.216769382357597351e-03,9.054515510797500610e-02,8.617528527975082397e-02,-7.713139057159423828e-03,4.374558106064796448e-03,1.475401222705841064e-04,1.562042534351348877e-02,3.107871860265731812e-03,-7.166340947151184082e-04,1.817261800169944763e-04,-3.478869795799255371e-02,3.979913890361785889e-04,1.125206649303436279e-01,1.004457473754882812e-03,-1.006355136632919312e-02,-4.805579781532287598e-03,1.670492812991142273e-03,3.271549940109252930e-04,2.023971639573574066e-02,6.260244548320770264e-02,1.830399781465530396e-02,5.184791982173919678e-03,-4.770915955305099487e-03,3.892891108989715576e-03,-3.787690401077270508e-02,4.475287348031997681e-02,5.963023006916046143e-02,-1.924511417746543884e-02,2.633077464997768402e-02,6.860362365841865540e-03,1.077921316027641296e-02,1.037568226456642151e-01,-3.575593233108520508e-03,-6.248541176319122314e-03,1.932648941874504089e-02,3.384364768862724304e-02,4.413805156946182251e-02,2.800099551677703857e-03,-1.452272757887840271e-03,6.822496652603149414e-05,2.448071725666522980e-03,4.902012273669242859e-02,-4.606751725077629089e-03,3.227763250470161438e-02,-4.730619490146636963e-03,-4.579450935125350952e-03,1.179909259080886841e-01,6.537032872438430786e-02,-9.105671197175979614e-03,3.613358363509178162e-03,-3.085818141698837280e-03,-1.053603142499923706e-01,9.351316839456558228e-04,4.751496016979217529e-04,2.859529480338096619e-02,6.212154775857925415e-02,2.326287515461444855e-02,-7.357347756624221802e-03,1.186147332191467285e-03,4.178285598754882812e-05,9.112762659788131714e-02,-2.591103129088878632e-02,9.305373579263687134e-02,-8.666601032018661499e-03,5.587339773774147034e-02,1.088270172476768494e-02,3.918565809726715088e-03,-4.745461046695709229e-04,-9.859425947070121765e-03,2.892017364501953125e-04,-1.028747484087944031e-02,-8.350964635610580444e-03,-2.272218465805053711e-03,1.312299817800521851e-02,2.519749663770198822e-02,2.752550877630710602e-02,7.872873917222023010e-03,-1.038327813148498535e-03,3.154743462800979614e-04,4.481042921543121338e-02,4.889182746410369873e-04,1.581644639372825623e-03,2.952140569686889648e-02,-3.870696574449539185e-02,1.011978555470705032e-02,2.329501695930957794e-02,5.065463483333587646e-04,-6.851553916931152344e-05,5.909929051995277405e-03,2.734034508466720581e-02,2.852007746696472168e-04,9.967619553208351135e-03,4.138533771038055420e-02,-4.360458254814147949e-02,4.789955541491508484e-02,2.064891159534454346e-03,4.924241453409194946e-03,2.015422284603118896e-02,4.103910177946090698e-03,4.313727095723152161e-02,-3.198778256773948669e-03,3.712963312864303589e-03,2.708729356527328491e-03,2.065612003207206726e-02,-1.742243766784667969e-04,2.254080399870872498e-02,3.190493583679199219e-02,1.014225091785192490e-02,9.633302688598632812e-04,-3.657905012369155884e-02,2.723434939980506897e-02,1.458447873592376709e-01,-5.518641322851181030e-03,-1.766118034720420837e-02,2.147958055138587952e-02,2.041323110461235046e-03,8.552987873554229736e-02,-2.840939350426197052e-02,2.234637923538684845e-02,-1.581324264407157898e-03,-3.966547548770904541e-03,9.616753086447715759e-04,2.978928387165069580e-05,-6.875209510326385498e-03,-5.353999882936477661e-02,2.070020511746406555e-02,1.567170396447181702e-02,-2.208575606346130371e-04,-1.697582937777042389e-02,7.279741764068603516e-02,6.405167281627655029e-02,-1.417115330696105957e-03,-2.313238941133022308e-02,1.057414151728153229e-02,6.657791323959827423e-03,3.720375522971153259e-02,1.705326139926910400e-04,4.884782247245311737e-03,-1.365591771900653839e-03,9.512532502412796021e-03,2.730466425418853760e-03,-4.249826446175575256e-02,3.665126860141754150e-05,3.895802050828933716e-02,-1.177758537232875824e-02,8.669322356581687927e-03,-3.503767773509025574e-03,5.250373855233192444e-03,-3.867192193865776062e-03,3.047895990312099457e-02,1.354147307574748993e-02,1.268072053790092468e-02,2.418458461761474609e-05,-1.134399324655532837e-03,3.742714971303939819e-02,-1.264955475926399231e-02,1.074043102562427521e-04,1.274235546588897705e-04,1.641660928726196289e-04,1.190411597490310669e-01,2.459596469998359680e-02,8.708238601684570312e-05,6.419420242309570312e-05,-2.631723880767822266e-02,4.376471787691116333e-02,-1.921728253364562988e-03,6.686234846711158752e-03,-3.898474946618080139e-02,9.475275874137878418e-05,-2.832680940628051758e-03,2.752194181084632874e-02,1.226342562586069107e-02,1.116607785224914551e-01,-1.084720715880393982e-04,-1.557116582989692688e-02,-2.246148884296417236e-03,2.697267942130565643e-02,-4.743300378322601318e-04,9.032711386680603027e-05,4.582852125167846680e-05,6.325861439108848572e-03,1.264736056327819824e-05,1.056138426065444946e-04,-8.629705756902694702e-03,1.012954022735357285e-02,2.143543772399425507e-02,1.981506682932376862e-02,6.387569010257720947e-02,3.431882709264755249e-03,1.666977629065513611e-02,9.826852940022945404e-03,1.370090246200561523e-02,9.862612932920455933e-05,1.437730193138122559e-01,5.807743966579437256e-02,4.374306648969650269e-03,2.354705892503261566e-02,4.650231450796127319e-02,1.090449467301368713e-02,7.962647080421447754e-02,2.881165407598018646e-02,1.882710307836532593e-02,1.557993330061435699e-02,-4.839889705181121826e-03,8.682623505592346191e-02,2.074189856648445129e-02,3.560698032379150391e-02,6.123097240924835205e-02,-8.067004382610321045e-03,1.800557412207126617e-02,2.302303165197372437e-02,1.384057104587554932e-04,1.741084828972816467e-02,3.144297376275062561e-02,3.377662040293216705e-03,3.361321240663528442e-02,-1.476550288498401642e-02,-1.946400851011276245e-02,1.156562380492687225e-02,9.694322943687438965e-05,1.456947997212409973e-02,7.158676162362098694e-03,2.782451175153255463e-02,-1.612761989235877991e-03,2.345495484769344330e-02,1.062696240842342377e-02,8.693709969520568848e-05,-1.349955797195434570e-03,2.913945727050304413e-02,-1.476763561367988586e-02,5.887785926461219788e-03,-1.249440014362335205e-03,4.553885385394096375e-02,2.478131651878356934e-02,2.395806834101676941e-02,-5.432193167507648468e-03,4.904918372631072998e-03,1.054363325238227844e-03,4.277458414435386658e-03,7.667271420359611511e-03,4.553114995360374451e-04,3.411331772804260254e-02,4.975946247577667236e-02,9.572438895702362061e-03,-1.409266144037246704e-03,8.020506799221038818e-02,1.539565622806549072e-02,4.142047464847564697e-02,1.787780784070491791e-03,3.136088699102401733e-02,3.588618338108062744e-02,7.882971316576004028e-02,2.587162889540195465e-02,-1.412848010659217834e-03,3.209695219993591309e-02,2.886982820928096771e-02,4.306789487600326538e-03,1.199286989867687225e-02,1.697689481079578400e-02,-1.541351340711116791e-02,-3.641804307699203491e-02,3.590364754199981689e-02,4.302196204662322998e-03,2.999066561460494995e-02,2.240415662527084351e-03,1.569384709000587463e-02,1.882559433579444885e-02,4.853700473904609680e-02,9.581152349710464478e-03,5.304725840687751770e-03,5.660841986536979675e-02,-9.387500584125518799e-03,6.002016365528106689e-03,-1.212344504892826080e-03,4.054360091686248779e-02,-6.348468363285064697e-03,4.681750759482383728e-02,1.022249273955821991e-02,3.520910069346427917e-02,2.955849096179008484e-02,2.126335352659225464e-02,7.175004109740257263e-03,2.531397901475429535e-02,7.267370820045471191e-04,-8.905567228794097900e-03,-6.219256669282913208e-03,1.320972945541143417e-02,7.256963849067687988e-02,3.135568648576736450e-02,8.250848948955535889e-02,-8.657485246658325195e-03,2.425341866910457611e-02,2.537639066576957703e-02,3.640977665781974792e-02,2.563517913222312927e-02,3.739279508590698242e-02,-2.101158723235130310e-03,5.537355318665504456e-03,4.472007229924201965e-02,4.584776237607002258e-02,-5.984678864479064941e-04,3.181798383593559265e-04,-1.927360147237777710e-02,8.385161869227886200e-03,5.174473673105239868e-02,1.000818051397800446e-02,4.323154687881469727e-03,-1.248208805918693542e-02,-1.526296697556972504e-02,8.196395635604858398e-02,1.737438142299652100e-04,6.607934832572937012e-02,2.816814742982387543e-02,2.798983827233314514e-03,9.310529567301273346e-03,2.652535215020179749e-03,-1.368024945259094238e-02,1.966844126582145691e-02,-1.315417140722274780e-02,-1.119449920952320099e-02,1.141580194234848022e-02,5.790811032056808472e-02,-1.723878085613250732e-05,7.693059742450714111e-03,1.699380576610565186e-03,4.321334511041641235e-02,-1.363364979624748230e-03,1.424634829163551331e-02,2.940942533314228058e-02,6.427118554711341858e-03,4.976131021976470947e-04,1.176595035940408707e-02,-2.884707227349281311e-02,7.104327902197837830e-03,-2.097941935062408447e-03,-1.271559000015258789e-01,4.499796777963638306e-04,6.621307879686355591e-02,1.506060920655727386e-02,-6.181187927722930908e-05,8.109915256500244141e-02,1.582783646881580353e-02,-3.026448190212249756e-03,9.382929652929306030e-03,8.672844618558883667e-03,2.635781466960906982e-02,5.782543122768402100e-02,3.330378234386444092e-02,7.546823471784591675e-03,-1.781789585947990417e-03,1.472635474056005478e-02,4.820153117179870605e-05,4.772785305976867676e-02,1.309232506901025772e-02,9.000403806567192078e-03,4.129663109779357910e-02,2.107629552483558655e-02,7.894676178693771362e-03,-1.860372722148895264e-04,6.884912028908729553e-03,5.511523224413394928e-03,-6.773695349693298340e-05,7.524445652961730957e-03,1.108617894351482391e-02,-3.186209127306938171e-03,2.499715797603130341e-02,2.802977338433265686e-02,1.382747292518615723e-02,3.531268239021301270e-02,-1.665421947836875916e-02,-5.869030952453613281e-03,2.639610879123210907e-02,7.037732005119323730e-02,1.255772449076175690e-02,6.211947649717330933e-03,8.000954985618591309e-04,-4.889369010925292969e-02,-3.235163539648056030e-02,1.693710498511791229e-02,1.263879239559173584e-04,1.846433058381080627e-02,8.025392889976501465e-05,7.896097376942634583e-03,8.213665336370468140e-03,1.715331897139549255e-02,2.317160833626985550e-04,-1.272910647094249725e-02,-6.776656955480575562e-04,1.207902655005455017e-02,5.433968454599380493e-02,1.370181329548358917e-03,2.782345190644264221e-02,7.362379878759384155e-02,8.519930765032768250e-03,4.161025211215019226e-02,4.561000503599643707e-03,1.774278096854686737e-02,5.766205489635467529e-03,3.480425477027893066e-02,2.169422805309295654e-04,-1.561636105179786682e-03,1.205000653862953186e-02,4.865190014243125916e-02,5.531699210405349731e-02,8.027257397770881653e-03,-2.461658790707588196e-03,4.067686386406421661e-03,4.053005576133728027e-02,-4.246830940246582031e-06,-3.708884119987487793e-03,3.269683942198753357e-02,1.011079177260398865e-03,2.025192975997924805e-02,5.944337323307991028e-02,1.320876181125640869e-04,2.295176498591899872e-03,1.383905112743377686e-02,-7.195533066987991333e-02,7.881014794111251831e-02,-1.327048987150192261e-03,2.440920472145080566e-02,7.222253829240798950e-03,2.373908273875713348e-02,2.101106196641921997e-02,3.388026729226112366e-02,5.909807980060577393e-02,1.385174691677093506e-04,-2.749003469944000244e-04,-1.061167567968368530e-03,1.225141994655132294e-02,1.373153738677501678e-02,8.623078465461730957e-04,2.218615636229515076e-02,2.430230379104614258e-04,-1.530107110738754272e-03,2.828829176723957062e-02,7.175541669130325317e-02,-9.466050192713737488e-03,2.095885202288627625e-02,-1.687876880168914795e-03,-2.389432862401008606e-03,1.433123275637626648e-02,5.976289883255958557e-02,6.982003338634967804e-03,3.598509728908538818e-02,2.274826169013977051e-02,3.000199794769287109e-04,2.454034984111785889e-04,2.392373606562614441e-02,4.192413762211799622e-04,1.695449277758598328e-02,-3.811147063970565796e-03,9.309860877692699432e-03,2.787241712212562561e-02,6.465241312980651855e-05,1.544802822172641754e-02,1.448368281126022339e-02,1.797070726752281189e-04,4.824036732316017151e-03,1.134932693094015121e-02,-9.788889437913894653e-04,2.952100709080696106e-03,-1.486050896346569061e-04,4.082502797245979309e-03,5.104482918977737427e-02,-3.250651061534881592e-03,4.471589624881744385e-02,-1.140637323260307312e-04,-2.330769971013069153e-02,1.814624294638633728e-02,-8.319523185491561890e-03,3.543952107429504395e-02,-2.618352882564067841e-03,9.486774913966655731e-03,5.803512409329414368e-02,3.021925687789916992e-03,1.229984685778617859e-02,2.454265952110290527e-02,2.488963864743709564e-02,1.528467983007431030e-02,-6.728056818246841431e-03,-3.533288091421127319e-02,-1.072878483682870865e-02,4.392600059509277344e-02,5.988758057355880737e-04,7.230760529637336731e-03,5.607623606920242310e-04,-7.064698264002799988e-03,2.341648563742637634e-02,-4.592258483171463013e-04,1.444818452000617981e-03,9.413858875632286072e-03,2.500712871551513672e-04,1.843418553471565247e-02,4.364557936787605286e-02,-1.053780317306518555e-03,4.087831825017929077e-02,1.912089064717292786e-04,-6.498109549283981323e-03,-3.059627488255500793e-02,1.835915632545948029e-02,5.031229928135871887e-02,1.356348022818565369e-02,-1.909473910927772522e-03,-8.041311055421829224e-03,6.926685571670532227e-02,-1.130409985780715942e-01,7.262312620878219604e-02,1.817375719547271729e-01,-4.354526102542877197e-02,3.532934933900833130e-03,2.643263153731822968e-02,5.167464911937713623e-02,-1.042336225509643555e-05,9.556531906127929688e-03,1.639059185981750488e-02,1.063077710568904877e-03,1.969147846102714539e-02,2.521544694900512695e-03,5.464750528335571289e-02,8.215000852942466736e-03,6.968910805881023407e-03,-2.371032163500785828e-02,5.829432979226112366e-02,4.371292889118194580e-04,6.105601787567138672e-03,5.187123641371726990e-02,7.510185241699218750e-06,9.572234004735946655e-03,-4.130955785512924194e-04,4.088860005140304565e-03,-8.900953456759452820e-03,8.106486499309539795e-02,-1.857508905231952667e-03,-6.294745951890945435e-03,1.216670032590627670e-03,8.669204264879226685e-02,-7.814005017280578613e-03,-4.165582358837127686e-02,1.928061246871948242e-04,-1.783352345228195190e-04,2.151254750788211823e-02,2.389412373304367065e-02,4.063726589083671570e-02,4.059121012687683105e-03,1.781025342643260956e-02,5.495057255029678345e-02,-2.757251262664794922e-03,4.123374819755554199e-04,1.142126470804214478e-01,-8.157435804605484009e-03,2.289405465126037598e-02,3.633175417780876160e-02,-1.115754246711730957e-03,5.180919542908668518e-04,-5.184086970984935760e-03,5.779922753572463989e-02,2.876681089401245117e-02,-8.913008496165275574e-03,-2.972219698131084442e-02,2.107095345854759216e-02,-1.216380670666694641e-02,3.416276723146438599e-02,-6.819777190685272217e-04
1.965285092592239380e-02,2.740515395998954773e-02,5.894582346081733704e-02,-1.482835039496421814e-02,-1.220362354069948196e-02,4.069282114505767822e-02,-5.763575434684753418e-03,1.518028974533081055e-02,2.369186282157897949e-02,-1.619770191609859467e-02,-1.467137224972248077e-02,7.553122937679290771e-03,3.321873769164085388e-02,-1.725475117564201355e-02,-6.142949685454368591e-03,7.147169113159179688e-02,-5.637098103761672974e-03,2.794545888900756836e-02,-4.279340803623199463e-02,-4.228765144944190979e-03,-6.877243518829345703e-03,1.204499229788780212e-02,3.416458889842033386e-02,2.371080592274665833e-02,2.547026984393596649e-02,4.001927375793457031e-02,1.176951266825199127e-02,1.747367903590202332e-02,-1.745212823152542114e-02,3.381448239088058472e-02,-1.297878101468086243e-02,-9.563200175762176514e-03,-7.670596241950988770e-03,-4.416368901729583740e-04,3.483803197741508484e-02,1.960028335452079773e-02,-9.267074987292289734e-03,2.584275789558887482e-02,2.247802168130874634e-02,-1.569862104952335358e-02,-1.523765921592712402e-02,6.159795448184013367e-03,-1.286143343895673752e-02,-5.701723694801330566e-02,-4.700239747762680054e-03,1.360407005995512009e-02,1.641939766705036163e-02,2.286942116916179657e-02,4.374171420931816101e-02,-1.112833805382251740e-02,4.458600655198097229e-02,3.251960501074790955e-02,1.944007351994514465e-02,2.844566851854324341e-02,1.480398140847682953e-02,-1.308274734765291214e-02,-1.291170716285705566e-03,3.813594952225685120e-02,-4.665069282054901123e-03,2.719520404934883118e-02,3.052685037255287170e-02,1.113798469305038452e-03,-6.236853078007698059e-04,5.872452631592750549e-03,-2.846203744411468506e-03,2.762050554156303406e-02,2.622170373797416687e-02,4.710625112056732178e-02,-4.115217179059982300e-02,3.165021538734436035e-03,9.868137538433074951e-03,2.032359316945075989e-02,-4.276915639638900757e-02,1.237911581993103027e-01,3.573868423700332642e-02,-3.057221323251724243e-02,-1.034511625766754150e-02,2.827044576406478882e-03,2.127389609813690186e-02,-4.521859809756278992e-03,6.695851683616638184e-02,2.453230321407318115e-02,-1.693068630993366241e-02,-3.244105726480484009e-03,-4.245124757289886475e-03,2.860693633556365967e-02,2.210160531103610992e-02,2.567142434418201447e-02,3.367625176906585693e-02,-2.287344448268413544e-02,2.756199799478054047e-02,3.441838547587394714e-02,-3.301409631967544556e-02,9.520551189780235291e-03,-8.895806968212127686e-04,-1.006092317402362823e-02,3.106460720300674438e-02,-1.212917454540729523e-02,2.857208251953125000e-03,-2.371638454496860504e-02,3.039256483316421509e-02,4.655739292502403259e-03,3.254130482673645020e-02,3.181379288434982300e-04,-1.388300582766532898e-02,-1.325434166938066483e-02,4.880124703049659729e-03,1.943592540919780731e-02,1.253867447376251221e-01,1.028529554605484009e-02,3.021644055843353271e-02,5.873914808034896851e-03,8.158737421035766602e-02,-5.469455569982528687e-02,4.416570067405700684e-02,-3.207876533269882202e-02,6.013665348291397095e-02,1.422367338091135025e-02,3.277997300028800964e-02,-3.378187865018844604e-02,2.825116366147994995e-02,4.099834710359573364e-02,7.940831594169139862e-03,4.041381925344467163e-02,-3.594203665852546692e-02,-1.471193507313728333e-02,1.747408807277679443e-01,4.045653715729713440e-02,-2.699190564453601837e-02,1.841412670910358429e-02,-5.864030122756958008e-02,3.616809099912643433e-02,2.635106630623340607e-02,-6.739016622304916382e-03,2.433959767222404480e-02,-2.207354269921779633e-02,-2.854083105921745300e-02,7.514281198382377625e-03,2.012401074171066284e-02,-1.703564077615737915e-03,7.706987671554088593e-03,5.763660371303558350e-02,1.866165362298488617e-02,3.150972351431846619e-02,2.056869119405746460e-02,7.515650242567062378e-03,-5.395591259002685547e-03,-4.848442971706390381e-03,2.136559970676898956e-02,-1.568156108260154724e-02,-4.079533740878105164e-03,-9.055322036147117615e-03,-4.417069256305694580e-03,3.983659669756889343e-02,-1.239136606454849243e-02,1.867989078164100647e-02,5.042720586061477661e-04,-1.778548397123813629e-02,2.334758639335632324e-03,-1.464817672967910767e-02,2.163996361196041107e-02,4.434219747781753540e-02,-1.853344962000846863e-02,1.257270127534866333e-01,-3.428437933325767517e-02,3.228071331977844238e-02,-9.417440742254257202e-05,1.798440329730510712e-02,1.269180141389369965e-02,5.176892876625061035e-02,3.338126465678215027e-02,-6.874777376651763916e-03,2.082547172904014587e-02,2.176107838749885559e-02,-1.703122258186340332e-02,2.249657176434993744e-02,-3.530863672494888306e-03,-7.458902895450592041e-03,1.753208599984645844e-02,5.592531710863113403e-02,3.207806870341300964e-02,-1.895772106945514679e-02,-5.835831165313720703e-03,2.478182129561901093e-02,2.987712994217872620e-02,6.664304435253143311e-02,-1.836776733398437500e-03,4.717921465635299683e-02,6.293332576751708984e-02,-3.905847296118736267e-02,5.758900940418243408e-02,-2.885540947318077087e-02,1.741885021328926086e-02,2.118490077555179596e-02,9.400260634720325470e-03,-5.219699814915657043e-03,-4.906340688467025757e-02,6.215043365955352783e-03,2.683621272444725037e-02,2.824990078806877136e-02,2.247211150825023651e-02,-1.011080387979745865e-02,4.435729607939720154e-02,6.670461595058441162e-02,1.559675484895706177e-02,-9.166061878204345703e-03,1.115885600447654724e-01,3.301355242729187012e-02,-9.368063881993293762e-03,2.370340377092361450e-02,3.413191065192222595e-02,3.112897276878356934e-02,7.819156348705291748e-02,-1.977529563009738922e-02,-8.984781801700592041e-03,5.201184377074241638e-02,-1.674737222492694855e-02,-1.994557678699493408e-04,2.191964350640773773e-02,7.856956124305725098e-02,-4.304356127977371216e-02,8.629309013485908508e-03,9.576585888862609863e-02,6.806093454360961914e-02,1.464914530515670776e-01,6.209250539541244507e-03,4.281029105186462402e-03,-1.060180366039276123e-02,-1.621875911951065063e-02,-2.153461053967475891e-02,3.425615280866622925e-02,2.334509044885635376e-03,-1.467098295688629150e-02,-8.371224626898765564e-03,2.478146553039550781e-02,7.647782564163208008e-02,3.535990417003631592e-02,-2.503495663404464722e-03,-1.714960858225822449e-02,1.482001245021820068e-01,3.408582508563995361e-02,-3.665260970592498779e-03,4.888234660029411316e-03,6.426833570003509521e-04,-3.472910076379776001e-02,4.622109234333038330e-03,-1.227498240768909454e-02,3.475019708275794983e-03,-1.182779669761657715e-01,-2.210876718163490295e-02,1.981947384774684906e-02,5.753991380333900452e-02,-1.237204670906066895e-02,3.972329944372177124e-02,5.086159706115722656e-02,9.424923360347747803e-02,-1.488086394965648651e-02,-1.044193468987941742e-02,2.313910983502864838e-02,-1.514207758009433746e-02,2.091486752033233643e-02,3.946972638368606567e-02,-2.936433069407939911e-03,-4.451006650924682617e-03,7.789205014705657959e-02,8.150540292263031006e-02,-2.125959843397140503e-03,-2.226168476045131683e-02,4.316949844360351562e-02,-8.512474596500396729e-05,-2.283523418009281158e-02,7.667616009712219238e-03,-1.768030412495136261e-02,3.908082470297813416e-02,1.046096719801425934e-02,5.755873396992683411e-03,2.898531965911388397e-02,-9.346038103103637695e-03,-3.080740757286548615e-02,2.725885063409805298e-02,-1.686270721256732941e-02,3.527393564581871033e-03,3.280711546540260315e-02,-1.926150172948837280e-03,-7.256018929183483124e-03,-3.145664930343627930e-02,-3.952306881546974182e-02,4.107802361249923706e-02,-5.202975496649742126e-02,-1.779973320662975311e-02,-2.122276090085506439e-02,2.449581772089004517e-02,-5.571667104959487915e-03,2.658157236874103546e-02,1.049671620130538940e-01,3.725575655698776245e-02,-1.751470007002353668e-02,-3.083287179470062256e-02,-1.626994088292121887e-02,-8.145302534103393555e-03,4.935393109917640686e-02,7.284432649612426758e-02,1.664283499121665955e-02,-1.461727917194366455e-02,2.098755910992622375e-02,-1.236165873706340790e-02,-5.369549617171287537e-03,-1.159825176000595093e-02,-2.726175636053085327e-02,-1.823483407497406006e-02,1.264915429055690765e-02,-1.383168622851371765e-02,1.323351636528968811e-03,-2.272932976484298706e-02,-4.002592712640762329e-02,4.048488289117813110e-02,-2.347465604543685913e-02,1.461981050670146942e-02,3.605755418539047241e-02,6.159243732690811157e-02,-3.219202905893325806e-02,7.425658404827117920e-04,1.033433526754379272e-02,2.088268287479877472e-02,-1.484531722962856293e-02,3.104396164417266846e-03,-1.962083764374256134e-02,-8.255010470747947693e-03,7.307250052690505981e-03,1.804523169994354248e-02,2.170924469828605652e-02,2.317218855023384094e-02,-8.644689805805683136e-03,3.015667200088500977e-02,1.872752048075199127e-02,1.354169473052024841e-02,-5.992183461785316467e-02,-9.004100225865840912e-03,3.980260714888572693e-02,3.529390320181846619e-02,-8.797237649559974670e-03,3.491618484258651733e-02,-2.694410085678100586e-02,3.293189406394958496e-02,3.271102905273437500e-03,3.345673903822898865e-04,4.393050074577331543e-02,2.300732582807540894e-02,7.712037861347198486e-02,1.814661175012588501e-02,1.861517876386642456e-02,-7.046490907669067383e-02,-5.800370126962661743e-03,-7.321890443563461304e-03,-1.209161803126335144e-02,-1.326220110058784485e-02,-1.690668240189552307e-02,-1.771216280758380890e-02,3.719732165336608887e-02,1.515494287014007568e-02,2.575805038213729858e-02,-8.781824260950088501e-03,-2.087140455842018127e-02,3.539323806762695312e-04,-8.738864213228225708e-03,-5.813997238874435425e-03,6.400141865015029907e-02,2.438449673354625702e-02,-2.325362712144851685e-02,3.092670068144798279e-02,-1.220181584358215332e-03,-5.396178364753723145e-02,3.021938167512416840e-02,-3.771711140871047974e-03,2.268853224813938141e-02,3.498910367488861084e-02,-2.507475763559341431e-02,8.452593348920345306e-03,-6.728757172822952271e-03,-1.643536612391471863e-02,4.620209708809852600e-02,1.332210097461938858e-02,3.509011864662170410e-02,1.093132346868515015e-01,5.987733602523803711e-04,3.589906916022300720e-02,5.279947072267532349e-04,-1.091479230672121048e-02,2.431540191173553467e-02,4.477431252598762512e-02,-8.599020540714263916e-03,-8.636438287794589996e-03,-3.137222677469253540e-02,1.373999752104282379e-02,5.653150379657745361e-03,-2.061315625905990601e-02,7.727958261966705322e-02,-4.305139183998107910e-03,2.581783384084701538e-02,-1.526486314833164215e-02,1.945785060524940491e-02,3.740955889225006104e-02,3.726836293935775757e-02,2.882034517824649811e-02,1.242861244827508926e-02,-1.701902039349079132e-02,-1.378937996923923492e-02,7.969684898853302002e-03,1.509318500757217407e-02,6.375304609537124634e-02,1.323910616338253021e-02,-3.210438415408134460e-03,-2.298698946833610535e-02,-2.350523881614208221e-02,-1.739537902176380157e-02,8.751494809985160828e-03,3.763247281312942505e-02,2.677047625184059143e-03,4.279807209968566895e-03,3.844313323497772217e-02,-4.263151064515113831e-02,6.470625102519989014e-02,3.216088563203811646e-02,4.122999310493469238e-02,-3.788053616881370544e-02,3.924435377120971680e-02,5.885994434356689453e-02,5.083774216473102570e-03,-1.812078244984149933e-02,-1.342274062335491180e-02,4.630051553249359131e-04,9.954640641808509827e-03,7.312985137104988098e-03,3.326661884784698486e-02,-2.245892584323883057e-02,3.003848716616630554e-03,-1.001242361962795258e-02,8.086438477039337158e-02,7.388071715831756592e-02,5.124900490045547485e-02,-1.597130484879016876e-02,1.192415952682495117e-01,2.207211777567863464e-02,3.294587135314941406e-02,4.970401525497436523e-03,2.282121218740940094e-03,-2.415104769170284271e-02,3.048310056328773499e-03,6.059724837541580200e-02,-1.909733936190605164e-02,6.650605797767639160e-02,-1.427124626934528351e-02,4.192668944597244263e-03,4.356377944350242615e-02,-1.765238866209983826e-02,-3.371590375900268555e-02,-1.116255670785903931e-02,2.262911573052406311e-02,7.883514463901519775e-02,2.968813106417655945e-02,3.863518685102462769e-02,-5.198670923709869385e-02,5.881723761558532715e-02,-2.421274036169052124e-02,2.440555207431316376e-02,4.604386165738105774e-03,2.225010283291339874e-02,6.720349937677383423e-02,1.601865887641906738e-02,-6.420183926820755005e-03,2.189023979008197784e-02,-1.028764992952346802e-02,3.969036415219306946e-02,5.901963263750076294e-02,1.120351999998092651e-02,1.027264222502708435e-01,2.365962602198123932e-03,2.210213989019393921e-02,-3.275711089372634888e-02,2.629012241959571838e-02,-2.937927842140197754e-03,1.661811769008636475e-02,4.550855606794357300e-02,4.374247044324874878e-02,4.527581855654716492e-02,-9.050540626049041748e-03,2.125527337193489075e-02,-7.063587009906768799e-02,-2.941835671663284302e-03,-1.542827859520912170e-02,-4.084827378392219543e-03,3.064574673771858215e-02,1.988173648715019226e-02,4.515248909592628479e-02,-1.694645732641220093e-02,6.555916368961334229e-02,5.236101895570755005e-02,-2.341045625507831573e-02,3.773359954357147217e-02,-1.236248761415481567e-03,2.081282436847686768e-03,1.409873366355895996e-03,4.079306498169898987e-03,4.246030002832412720e-03,-2.080147899687290192e-02,-1.093227975070476532e-02,6.316135078668594360e-02,-2.184158936142921448e-02,-2.276541292667388916e-02,-6.806395016610622406e-03,9.867228567600250244e-03,1.941080763936042786e-02,-1.920817978680133820e-02,-4.219902679324150085e-03,-8.303289301693439484e-03,-1.336696371436119080e-02,4.450111091136932373e-02,1.013156026601791382e-03,1.555365324020385742e-02,-3.010001964867115021e-02,-3.779778257012367249e-03,2.054062858223915100e-02,-6.076969206333160400e-03,1.519399508833885193e-02,1.406560093164443970e-02,6.202624645084142685e-03,6.878617405891418457e-02,8.803475648164749146e-03,4.093009978532791138e-03,-2.738250233232975006e-02,6.383433938026428223e-03,-3.612982109189033508e-03,1.504411920905113220e-03,5.395598709583282471e-03,2.254183217883110046e-02,4.470875114202499390e-02,1.823587715625762939e-02,1.804461516439914703e-02,7.079905271530151367e-02,6.734466180205345154e-03,2.271858975291252136e-03,2.364651113748550415e-02,1.733283884823322296e-02,1.217585522681474686e-02,4.706632718443870544e-02,-1.271924003958702087e-02,-6.173262745141983032e-02,8.242048323154449463e-02,-5.590036511421203613e-03,-3.317918628454208374e-03,2.259988337755203247e-02,2.557933330535888672e-04,-6.440603733062744141e-02,-6.861543282866477966e-03,2.257594279944896698e-02,-3.214176744222640991e-03,-1.467807777225971222e-02,9.405044838786125183e-04,-8.165774866938591003e-03,-2.105191349983215332e-03,2.649284899234771729e-03,4.938846826553344727e-02,1.956715807318687439e-02,-1.591364480555057526e-02,-3.053532913327217102e-03,7.482621818780899048e-02,3.994852304458618164e-03,2.921224944293498993e-02,-2.069277502596378326e-02,2.467967756092548370e-02,-1.158518157899379730e-02,8.101709187030792236e-03,-3.428701311349868774e-03,-1.548328157514333725e-02,-2.229106053709983826e-02,7.406519725918769836e-03,-2.275068312883377075e-03,-2.681195735931396484e-03,4.505609720945358276e-02,4.847906529903411865e-04,3.016088902950286865e-02,1.641019433736801147e-02,-4.448739439249038696e-02,-3.065209835767745972e-03,1.297258771955966949e-02,-8.672486990690231323e-03,4.016384109854698181e-02,-2.892512828111648560e-02,7.191491127014160156e-02,-4.589794203639030457e-03,-8.948817849159240723e-04,2.643690444529056549e-02,-1.410469599068164825e-02,7.007405906915664673e-02,1.676423475146293640e-03,5.666500329971313477e-02,2.811341732740402222e-02,3.355749696493148804e-02,6.363356858491897583e-02,1.911850273609161377e-02,4.897993057966232300e-02,-4.403717815876007080e-03,-1.075369492173194885e-02,-4.366859793663024902e-04,8.781284838914871216e-02,-4.966387525200843811e-03,3.503355011343955994e-02,9.084256365895271301e-03,5.691141635179519653e-02,-1.486171316355466843e-02,-2.470403909683227539e-03,-4.227330908179283142e-03,-1.187930814921855927e-03,3.722852095961570740e-03,5.108589306473731995e-02,7.826267182826995850e-02,7.927619852125644684e-03,3.083707578480243683e-02,3.512072190642356873e-02,-1.395766064524650574e-02,1.210621464997529984e-02,-2.092446759343147278e-02,1.925360411405563354e-02,5.347455292940139771e-02,1.399604417383670807e-02,2.279658243060112000e-02,-1.045899838209152222e-02,3.320869058370590210e-02,1.775221899151802063e-04,7.357180863618850708e-02,5.145616456866264343e-02,6.312927603721618652e-02,2.554552257061004639e-02,3.032182529568672180e-02,1.279775798320770264e-02,3.776497021317481995e-02,3.800779581069946289e-02,3.197354078292846680e-02,1.918913982808589935e-02,2.529461681842803955e-02,4.229732602834701538e-02,1.512887421995401382e-02,1.171271130442619324e-02,5.123323202133178711e-02,3.725074604153633118e-02,2.212510071694850922e-02,5.984630435705184937e-03,-1.535595767199993134e-02,9.397631511092185974e-03,2.315995097160339355e-02,-6.932025775313377380e-03,1.670931279659271240e-02,8.524686098098754883e-03,-2.638654783368110657e-02,1.103133708238601685e-02,8.575417101383209229e-02,-9.539414197206497192e-03,7.932372391223907471e-04,-9.412437677383422852e-03,-1.063039340078830719e-02,5.329427123069763184e-02,2.393689937889575958e-02,5.326044932007789612e-02,1.963450945913791656e-02,1.922563463449478149e-02,6.413709372282028198e-03,1.647104322910308838e-02,-6.819963455200195312e-03,1.453837752342224121e-02,2.738103643059730530e-02,2.162050455808639526e-02,-5.343005433678627014e-02,3.723992034792900085e-03,1.562394201755523682e-02,3.783872351050376892e-03,-4.608445614576339722e-02,-5.478125996887683868e-03,-4.114419966936111450e-02,2.143363095819950104e-02,-1.179565489292144775e-02,-1.033527776598930359e-03,5.111992731690406799e-02,1.622196286916732788e-02,4.528036713600158691e-02,-1.297969091683626175e-02,1.307911612093448639e-02,-1.083230227231979370e-02,9.578395634889602661e-03,-9.115982800722122192e-03,-5.017012357711791992e-03,2.181265689432621002e-02,-1.903440430760383606e-02,3.195650130510330200e-02,-4.450274631381034851e-03,-5.537238344550132751e-02,-1.428315602242946625e-02,-2.975721471011638641e-02,4.072796925902366638e-02,-4.311190918087959290e-02,4.295428097248077393e-02,2.906393259763717651e-03,-3.362571820616722107e-02,9.877836331725120544e-03,2.431211993098258972e-02,3.365537896752357483e-02,6.161933764815330505e-03,4.598131775856018066e-02,4.441904276609420776e-02,2.037544921040534973e-02,-2.270921692252159119e-02,-1.735806465148925781e-03,-5.982526391744613647e-02,5.152191594243049622e-02,2.083508484065532684e-02,-3.545293956995010376e-02,1.717483066022396088e-02,4.135556891560554504e-02,1.233749091625213623e-03,1.473912596702575684e-02,-3.925986588001251221e-03,5.224793404340744019e-02,4.072056710720062256e-02,1.231403835117816925e-02,3.521905094385147095e-02,1.532620936632156372e-02,4.240157082676887512e-02,2.859776280820369720e-02,7.846744731068611145e-03,2.449306845664978027e-02,3.123365342617034912e-02,3.516843914985656738e-02,-3.260420262813568115e-02,-7.986243814229965210e-03,4.349729046225547791e-03,4.203923046588897705e-03,2.670592628419399261e-02,1.479031518101692200e-03,7.571689784526824951e-04,-1.470040902495384216e-02,-5.085699260234832764e-02,5.072308704257011414e-02,1.309342123568058014e-02,5.737670138478279114e-02,2.295530959963798523e-02,-8.511440828442573547e-03,3.738188743591308594e-02,3.790574148297309875e-03,7.573390752077102661e-02,2.048002555966377258e-02,3.110339492559432983e-02,-1.272540073841810226e-02,2.104819566011428833e-02,-1.115182414650917053e-03,2.181908860802650452e-02,3.789868205785751343e-04,3.434111922979354858e-02,3.185132890939712524e-02,1.399338245391845703e-02,5.069352686405181885e-03,-1.811865717172622681e-03,-1.318318396806716919e-02,9.843897074460983276e-03,2.204595878720283508e-02,2.456519752740859985e-03,-1.061937771737575531e-02,-1.164940185844898224e-02,4.357167333364486694e-02,-5.273180082440376282e-03,-2.694648131728172302e-02,9.834233671426773071e-03,2.451598644256591797e-02,-9.910964220762252808e-02,-1.654507406055927277e-02,7.595088332891464233e-02,-1.218852587044239044e-02,8.723240345716476440e-03,3.627077490091323853e-02,-5.110712349414825439e-02,1.937778666615486145e-03,3.371752053499221802e-02,-3.239750862121582031e-02,1.242121905088424683e-01,5.863866582512855530e-02,-2.411642670631408691e-02,-1.622165553271770477e-02,-2.733383886516094208e-02,1.446373667567968369e-02,1.022594869136810303e-01,3.193777799606323242e-02,-6.028784438967704773e-03,-4.208863526582717896e-02,-2.555735409259796143e-03,3.000674583017826080e-02,1.871950551867485046e-02,-1.255927607417106628e-02,-9.855926036834716797e-04,-4.123357310891151428e-02,2.120549976825714111e-02,6.621955335140228271e-02,-3.714923933148384094e-02,-1.066460832953453064e-02,-2.008861303329467773e-02,-2.841398306190967560e-02,1.184611767530441284e-02,-3.364429995417594910e-02,2.688764967024326324e-02,3.323592618107795715e-02,3.846045583486557007e-03,3.991610556840896606e-02,5.530734546482563019e-03,1.184857543557882309e-02,-7.719788700342178345e-04,-3.342186659574508667e-02,-1.498972252011299133e-02,-1.764668338000774384e-02,9.074908494949340820e-02,3.303506411612033844e-03,1.169586852192878723e-01,-1.329908240586519241e-02,3.722746670246124268e-02,6.203971803188323975e-03,1.181225758045911789e-02,1.214135065674781799e-02,-1.384990848600864410e-02,1.111827790737152100e-03,4.926863312721252441e-02,-1.019121054559946060e-02,2.319931052625179291e-02,6.666668504476547241e-02,6.319729611277580261e-03,3.745929524302482605e-02,-2.721324563026428223e-04,9.084675461053848267e-03,-3.353020176291465759e-02,-1.211853697896003723e-02,1.149071604013442993e-01,1.645345054566860199e-02,1.244104281067848206e-02,-9.348209947347640991e-03,3.928612172603607178e-02,1.064496114850044250e-02,7.600896060466766357e-03,-1.550833880901336670e-02,4.072027653455734253e-02,-1.631251163780689240e-02,4.855569452047348022e-02,1.180049870163202286e-02,-3.946864977478981018e-03,-3.318747133016586304e-02,2.603233233094215393e-02,1.298306137323379517e-01,-1.943485811352729797e-03,-6.131766363978385925e-03,-4.164833575487136841e-02,-5.911803990602493286e-02,-1.032962463796138763e-02,3.017955273389816284e-02,-3.574273735284805298e-02,-5.603560060262680054e-02,-1.267675310373306274e-02,-6.261635571718215942e-03,-5.189288407564163208e-02,-7.105490192770957947e-03,5.161837860941886902e-02,4.725586995482444763e-02,1.949922367930412292e-02,-1.980299875140190125e-02,-9.203659370541572571e-03,6.203478202223777771e-03,-1.400815695524215698e-02,1.754271239042282104e-02,3.856969624757766724e-02,7.457571476697921753e-02,2.475183829665184021e-02,1.657300442457199097e-02,-2.113579213619232178e-02,-2.451334148645401001e-03,1.950259879231452942e-02,3.176925703883171082e-02,-3.097898885607719421e-02,-7.461920380592346191e-03,2.751062996685504913e-02,4.195312038064002991e-03,-1.504397578537464142e-02,-1.740704849362373352e-02,-8.724112063646316528e-03,3.285091370344161987e-04,-1.250423677265644073e-02,1.259232871234416962e-02,-1.268485188484191895e-02,5.535549670457839966e-02,3.717763349413871765e-02,-1.491478458046913147e-02,3.302788361907005310e-02,1.226427033543586731e-03,-2.377081848680973053e-02,2.698931097984313965e-02,-1.260573603212833405e-02,-5.531680770218372345e-03,8.026875555515289307e-03,3.485815227031707764e-02,-3.663543611764907837e-04,4.594694823026657104e-02,-1.161501277238130569e-02,1.085437089204788208e-02,-9.800929576158523560e-03,1.175729371607303619e-02,-1.520501635968685150e-02,-5.429891869425773621e-02,-1.126419566571712494e-02,4.539043828845024109e-02,3.153359889984130859e-02,1.278924010694026947e-02,5.819991230964660645e-02,-4.549082368612289429e-02,3.368631005287170410e-03,3.906101733446121216e-02,-2.608119137585163116e-02,-3.449788689613342285e-02,-7.273148745298385620e-03,-2.190984785556793213e-02,-1.508900336921215057e-02,-2.876790054142475128e-02,1.440439373254776001e-04,2.942891791462898254e-02,-1.752359420061111450e-02,1.726290769875049591e-02,1.288996078073978424e-02,-7.945863530039787292e-03,2.615724131464958191e-02,3.172253444790840149e-02,-8.041616529226303101e-03,4.478000849485397339e-02,-1.102606486529111862e-02,2.681442536413669586e-02,-6.535316258668899536e-02,-2.547647990286350250e-02,2.840106748044490814e-02,6.096037104725837708e-02,-8.009931072592735291e-03,-6.251784041523933411e-03,3.789683431386947632e-02,