-5.515636876225471497e-03,1.071906462311744690e-02,5.101579427719116211e-02,2.246212400496006012e-02,-8.457338437438011169e-03,7.327465340495109558e-03,1.020951848477125168e-02,2.000824175775051117e-02,2.957330830395221710e-02,1.548117026686668396e-02,9.267221204936504364e-03,6.878267228603363037e-02,2.623329125344753265e-02,1.272783800959587097e-02,-3.162006661295890808e-02,3.005999699234962463e-02,9.744428098201751709e-03,1.345568429678678513e-02,-6.927797198295593262e-02,-1.565003767609596252e-03,1.279384270310401917e-02,2.926861681044101715e-02,1.634123176336288452e-02,-2.553236484527587891e-02,1.368643715977668762e-02,-7.069438695907592773e-03,1.477258000522851944e-02,1.027447171509265900e-02,-1.389521174132823944e-02,-1.778849214315414429e-02,1.727691292762756348e-02,2.133868634700775146e-03,-1.487195678055286407e-02,5.321190692484378815e-03,2.748863212764263153e-02,1.198310405015945435e-02,1.291593909263610840e-02,1.403260789811611176e-02,2.022474259138107300e-02,1.697977073490619659e-02,-1.029819902032613754e-02,1.061984896659851074e-02,-1.756871305406093597e-02,-9.309987723827362061e-02,2.040751278400421143e-02,-1.811513677239418030e-03,-5.604859441518783569e-03,1.848800480365753174e-02,6.569959223270416260e-04,-1.908559165894985199e-02,3.573925048112869263e-02,4.754690453410148621e-03,8.030438795685768127e-03,1.732900738716125488e-02,7.495144382119178772e-03,-1.932680420577526093e-02,5.214384570717811584e-02,2.403197810053825378e-02,2.629673108458518982e-04,6.718855351209640503e-03,-3.387842327356338501e-03,2.599734254181385040e-02,-3.427271544933319092e-02,-2.467701211571693420e-03,-1.122966408729553223e-03,-1.476207748055458069e-02,-1.261866278946399689e-02,-8.201908320188522339e-03,-4.820610582828521729e-02,8.681176230311393738e-03,-4.873996600508689880e-03,6.294133141636848450e-03,-6.150712445378303528e-02,7.113437354564666748e-02,-1.732730492949485779e-02,6.958477199077606201e-03,-4.274930059909820557e-02,1.314888987690210342e-02,3.420904278755187988e-03,-2.033848315477371216e-03,4.584873467683792114e-02,-3.117686137557029724e-03,1.468211412429809570e-04,9.968269616365432739e-03,-7.481034845113754272e-03,4.165801033377647400e-02,3.016849420964717865e-02,-1.484904624521732330e-02,2.917895466089248657e-02,1.054717507213354111e-02,3.299377858638763428e-03,3.398066014051437378e-02,-6.229686737060546875e-02,1.073904428631067276e-02,1.928989961743354797e-02,-3.356441855430603027e-02,1.900130882859230042e-03,5.094166845083236694e-03,3.217790275812149048e-02,3.069835714995861053e-03,1.954056508839130402e-02,-9.705225005745887756e-03,3.498293459415435791e-03,1.522878464311361313e-02,2.103576250374317169e-02,-2.074325829744338989e-02,9.699333459138870239e-03,-9.662831202149391174e-03,7.509516179561614990e-02,-1.984165981411933899e-03,7.978199049830436707e-03,-3.691820427775382996e-03,4.363569244742393494e-02,-2.985668182373046875e-02,3.491774946451187134e-02,-4.656006768345832825e-02,1.719080656766891479e-02,-8.211966603994369507e-03,1.346605457365512848e-02,-1.714177243411540985e-02,1.884033717215061188e-02,3.504110127687454224e-02,-2.810848318040370941e-02,7.699191570281982422e-03,-5.559362098574638367e-02,-1.265299879014492035e-02,1.090920791029930115e-01,3.684203699231147766e-02,6.796133704483509064e-03,1.581011340022087097e-02,-6.154969707131385803e-02,-6.189864128828048706e-03,4.191964864730834961e-02,1.774643175303936005e-02,6.656281650066375732e-03,-5.187358707189559937e-03,5.677481181919574738e-03,5.430072546005249023e-03,-5.715383216738700867e-03,-1.680147647857666016e-02,-4.992071539163589478e-03,2.542511001229286194e-02,2.950065955519676208e-02,-1.274936459958553314e-02,1.398131623864173889e-02,-3.511187061667442322e-02,-1.588874310255050659e-02,1.168679445981979370e-03,-1.335715875029563904e-03,1.357837021350860596e-02,9.163389913737773895e-03,8.739816024899482727e-03,2.961713075637817383e-02,4.259084537625312805e-02,-9.952343069016933441e-03,2.247085422277450562e-02,-5.405364558100700378e-03,-3.229081630706787109e-04,-5.269322544336318970e-02,-9.256508201360702515e-04,-1.395136024802923203e-02,3.138303384184837341e-02,-1.585054025053977966e-02,6.568858027458190918e-02,-7.788529992103576660e-02,2.395639568567276001e-02,4.136149957776069641e-02,-3.503436222672462463e-03,-9.664632380008697510e-04,2.366000972688198090e-02,2.478747256100177765e-02,1.827046833932399750e-02,3.941593691706657410e-03,-1.539133209735155106e-02,-4.353849217295646667e-03,2.230593934655189514e-02,2.082116156816482544e-02,-1.378347445279359818e-02,-1.090741250663995743e-02,2.675085328519344330e-02,2.397868409752845764e-02,-1.847472228109836578e-02,1.938745565712451935e-02,1.512127369642257690e-02,5.126425996422767639e-03,1.216453313827514648e-02,1.830900274217128754e-02,4.240577295422554016e-02,-3.250688314437866211e-05,-2.903809025883674622e-02,1.089893281459808350e-03,-3.733199462294578552e-02,1.170271728187799454e-02,3.300414979457855225e-02,4.922563210129737854e-03,-4.604589194059371948e-03,-3.373134881258010864e-02,1.280632615089416504e-02,2.906875126063823700e-02,3.980113193392753601e-03,3.897355869412422180e-03,-2.261910960078239441e-02,-6.538670510053634644e-03,7.910425215959548950e-02,2.694082260131835938e-02,-2.806822210550308228e-02,5.616878345608711243e-02,1.647568866610527039e-02,9.145274758338928223e-03,6.611715070903301239e-03,3.531517460942268372e-02,-1.123398542404174805e-04,2.328017354011535645e-02,1.956759393215179443e-02,8.134962059557437897e-03,3.271521255373954773e-02,-1.287489663809537888e-02,2.226531505584716797e-02,-1.076698768883943558e-02,5.270821228623390198e-02,-6.360106170177459717e-02,-4.463739693164825439e-03,4.654715582728385925e-02,1.404705177992582321e-02,9.351202845573425293e-02,1.035949401557445526e-02,3.008071333169937134e-03,9.907705709338188171e-03,8.517269976437091827e-03,-2.135718241333961487e-02,-9.847380220890045166e-03,-4.883484914898872375e-02,1.362883113324642181e-02,-9.189069271087646484e-03,-9.424872696399688721e-04,4.714963957667350769e-02,3.253196924924850464e-02,2.790465578436851501e-02,9.530527517199516296e-03,9.165400266647338867e-02,3.178928792476654053e-02,-3.549253568053245544e-03,-4.326669499278068542e-03,-8.006409741938114166e-03,-3.231449425220489502e-02,2.875586971640586853e-02,-2.198115922510623932e-02,6.375445052981376648e-03,-1.165237426757812500e-01,-3.000067546963691711e-02,-2.381163090467453003e-02,5.659935623407363892e-02,4.019098356366157532e-03,1.832051947712898254e-02,2.752047032117843628e-02,6.094269827008247375e-02,-2.239116840064525604e-02,2.214498817920684814e-04,1.333865337073802948e-02,1.340959221124649048e-02,9.115962311625480652e-03,3.293083235621452332e-02,-2.062168531119823456e-02,1.368079148232936859e-02,2.148345485329627991e-02,3.920277953147888184e-02,1.763370446860790253e-02,-2.204713225364685059e-02,3.170178458094596863e-02,-4.373420029878616333e-03,1.764943823218345642e-03,1.986289024353027344e-02,-1.910609938204288483e-02,3.631618991494178772e-02,-3.947746008634567261e-04,-1.864198595285415649e-02,3.058417141437530518e-02,2.038046345114707947e-02,1.200001034885644913e-02,7.388718426227569580e-03,1.086927950382232666e-03,6.584317423403263092e-03,4.580760747194290161e-02,9.734761901199817657e-03,-1.512927189469337463e-02,-3.252330422401428223e-02,-8.032757788896560669e-03,3.208680450916290283e-02,-6.441406160593032837e-02,-1.444020029157400131e-02,1.536220498383045197e-02,2.456456050276756287e-02,6.908625364303588867e-03,-1.900704577565193176e-03,3.960905224084854126e-02,2.977341972291469574e-02,-1.788007840514183044e-02,-5.871783941984176636e-02,-1.615654863417148590e-02,7.887698709964752197e-03,-1.145559921860694885e-02,5.375655740499496460e-02,-6.656723096966743469e-03,1.449741981923580170e-02,-2.234506979584693909e-02,-7.682591676712036133e-03,1.571596041321754456e-02,-2.726511098444461823e-03,-5.226606875658035278e-02,1.549030095338821411e-02,6.696339696645736694e-03,1.491723582148551941e-03,-1.275867223739624023e-02,7.914677262306213379e-03,-6.182068586349487305e-02,4.576923698186874390e-02,1.349008455872535706e-02,1.108713634312152863e-02,-1.556057855486869812e-02,3.481679409742355347e-02,-4.779382050037384033e-02,1.534897461533546448e-02,3.151982277631759644e-02,2.351774834096431732e-02,-1.256611384451389313e-02,-8.884448558092117310e-03,-1.246025040745735168e-02,-2.714613080024719238e-02,6.543867290019989014e-03,-1.350453030318021774e-02,3.176798671483993530e-02,1.449836231768131256e-02,-3.178849816322326660e-02,5.846405401825904846e-03,8.635565638542175293e-03,1.290527358651161194e-02,-4.716991633176803589e-02,-2.315850928425788879e-02,2.827312797307968140e-02,3.975263983011245728e-02,1.066213008016347885e-02,6.206864491105079651e-03,1.046118326485157013e-02,-6.364723667502403259e-03,-1.444040797650814056e-02,-2.559428475797176361e-02,-8.512539789080619812e-03,6.474887952208518982e-03,3.866772353649139404e-02,-1.264004036784172058e-03,6.161744892597198486e-02,2.502810209989547729e-02,1.841805502772331238e-02,1.331673376262187958e-02,4.491110332310199738e-03,2.920385450124740601e-04,9.672349318861961365e-03,9.475067257881164551e-03,-1.533120125532150269e-02,-2.321312017738819122e-02,1.244213059544563293e-02,-2.644282020628452301e-02,-2.624225988984107971e-02,3.869718685746192932e-02,-1.784254051744937897e-02,-7.207577116787433624e-03,6.361839175224304199e-02,2.018791064620018005e-02,-1.755444146692752838e-02,-1.775039359927177429e-02,1.805254071950912476e-02,-6.833197921514511108e-02,-2.945221960544586182e-03,2.506901510059833527e-02,7.951667532324790955e-03,1.148420944809913635e-02,-4.252276197075843811e-02,-2.547337301075458527e-02,-1.294646970927715302e-02,1.643078960478305817e-02,1.584514603018760681e-02,-2.403767779469490051e-03,2.320705354213714600e-02,-1.809046790003776550e-02,9.568357840180397034e-03,2.194933779537677765e-02,-8.334579877555370331e-03,-2.256880328059196472e-02,3.072615899145603180e-02,4.070393368601799011e-02,-1.780585385859012604e-02,-1.182381249964237213e-02,-3.440668433904647827e-02,1.805773749947547913e-02,9.167281910777091980e-03,1.946207880973815918e-02,4.144965484738349915e-02,1.842190511524677277e-02,-8.409062400460243225e-03,-2.644418366253376007e-02,9.323585778474807739e-03,1.798280328512191772e-02,5.693152546882629395e-03,3.224965184926986694e-02,-6.869040429592132568e-03,-3.439647331833839417e-02,2.801804244518280029e-02,2.475444786250591278e-02,-2.590112388134002686e-03,1.783907040953636169e-02,3.370409458875656128e-02,-2.070357464253902435e-02,-1.372170448303222656e-02,1.314590871334075928e-02,-7.971284911036491394e-03,-2.531168982386589050e-03,3.948025405406951904e-04,2.100449800491333008e-02,9.045187383890151978e-03,1.485668867826461792e-02,-2.774022333323955536e-02,2.001601643860340118e-02,4.131129011511802673e-03,3.843226283788681030e-02,-2.075484767556190491e-02,3.433986753225326538e-02,3.347481787204742432e-02,-1.468945853412151337e-02,-1.106362789869308472e-02,-1.196675188839435577e-02,1.262877508997917175e-02,-3.194268792867660522e-02,1.070128940045833588e-02,7.412564009428024292e-03,-1.004948187619447708e-02,-1.358172856271266937e-03,1.417878828942775726e-02,3.552070632576942444e-02,3.769306838512420654e-02,4.143386334180831909e-02,9.312916547060012817e-03,7.363577932119369507e-02,1.067018136382102966e-02,2.588745206594467163e-02,3.448255360126495361e-03,-1.996441185474395752e-02,1.164192240685224533e-02,3.439247608184814453e-03,4.201469197869300842e-02,1.149216946214437485e-02,2.580637484788894653e-02,-6.377195939421653748e-03,5.644449964165687561e-03,5.382728576660156250e-02,1.261036936193704605e-02,-3.384504467248916626e-03,1.472564041614532471e-02,1.867262274026870728e-02,2.664314396679401398e-02,1.758532971143722534e-02,5.801417306065559387e-02,-2.094148099422454834e-02,2.500057965517044067e-02,6.857098080217838287e-03,1.315075345337390900e-02,3.690302371978759766e-03,5.515282973647117615e-03,2.940229326486587524e-02,-3.796188160777091980e-03,3.100681118667125702e-02,1.614746637642383575e-02,1.479815319180488586e-02,1.327873766422271729e-02,6.998407840728759766e-02,1.365757547318935394e-02,4.834692552685737610e-02,-3.246198222041130066e-02,-1.596198603510856628e-02,-3.176436200737953186e-02,-6.244799122214317322e-03,2.383275330066680908e-02,-5.351407453417778015e-03,-1.101010106503963470e-02,2.016316913068294525e-02,2.355414256453514099e-02,-9.257999248802661896e-03,-1.326011586934328079e-02,-9.660445153713226318e-02,1.785538159310817719e-02,-3.951870836317539215e-03,-1.334277912974357605e-02,-6.244396790862083435e-03,-2.717371471226215363e-02,1.780316606163978577e-02,-2.220152318477630615e-02,3.377784788608551025e-02,3.755486384034156799e-02,1.057587750256061554e-02,-1.476870477199554443e-02,1.264382153749465942e-03,1.750646159052848816e-02,-4.075149074196815491e-03,6.754416972398757935e-03,3.639655187726020813e-03,1.715353131294250488e-02,1.566002145409584045e-03,4.176839441061019897e-02,-1.287011429667472839e-03,7.856822572648525238e-03,-2.524386532604694366e-02,-2.610383555293083191e-03,1.542668975889682770e-02,-9.404979646205902100e-04,1.068680081516504288e-02,-3.081703558564186096e-02,4.062551259994506836e-02,3.916134685277938843e-02,-5.517899990081787109e-05,4.863973334431648254e-02,7.182974368333816528e-03,-7.242143154144287109e-03,9.633336216211318970e-03,4.474874213337898254e-02,1.318889949470758438e-02,7.945695891976356506e-03,4.480419680476188660e-03,2.866298705339431763e-02,1.319370418787002563e-02,2.057450078427791595e-02,7.941210642457008362e-03,2.603461407124996185e-02,-1.806579530239105225e-03,3.957894630730152130e-03,-1.624949276447296143e-03,2.535125613212585449e-02,1.599270850419998169e-02,1.538021489977836609e-03,1.315292902290821075e-02,4.010199755430221558e-02,-7.185550406575202942e-03,5.205210298299789429e-03,1.136364787817001343e-02,-6.579520180821418762e-03,8.784709498286247253e-03,5.931319296360015869e-02,4.068059846758842468e-03,-2.615959569811820984e-02,1.761677488684654236e-02,1.915093883872032166e-02,2.335578575730323792e-02,-1.413534488528966904e-02,-5.753273144364356995e-03,-3.801546990871429443e-02,2.780761569738388062e-03,-6.123762577772140503e-03,3.560755401849746704e-03,8.918905630707740784e-03,-3.192457929253578186e-02,-2.343080937862396240e-03,-7.008183747529983521e-03,3.313749283552169800e-02,3.004456497728824615e-02,-6.654065102338790894e-03,-4.659146070480346680e-04,-3.751209005713462830e-03,1.126343756914138794e-02,3.147187083959579468e-02,-7.640553638339042664e-03,1.774026826024055481e-02,7.184257730841636658e-03,-8.908795192837715149e-03,2.671079896390438080e-02,-2.359106950461864471e-02,-2.203468233346939087e-02,-2.544662356376647949e-02,4.538334906101226807e-05,-2.034161984920501709e-02,2.401359751820564270e-02,-1.020143926143646240e-02,3.456126153469085693e-02,-9.623328223824501038e-03,7.536787539720535278e-03,-5.840780586004257202e-02,7.003292441368103027e-03,-1.189910434186458588e-02,1.823862455785274506e-02,-9.401865303516387939e-03,-1.277929544448852539e-02,3.259011358022689819e-02,1.826357468962669373e-02,1.258192025125026703e-02,3.604063764214515686e-02,-1.752899959683418274e-02,4.438999295234680176e-02,-5.542188882827758789e-04,-5.239918828010559082e-03,1.849951222538948059e-02,5.037188529968261719e-02,2.794239856302738190e-02,2.862035855650901794e-02,1.626502349972724915e-02,1.068830490112304688e-02,1.527048461139202118e-02,3.899316117167472839e-02,4.219004884362220764e-02,6.234128959476947784e-03,2.575846388936042786e-03,9.799199178814888000e-03,2.405541017651557922e-02,-1.588488556444644928e-02,3.612490743398666382e-02,1.385454088449478149e-03,-2.429983578622341156e-02,1.471805293112993240e-02,3.640592470765113831e-02,4.610735177993774414e-02,8.264448493719100952e-03,2.349047735333442688e-02,2.277890965342521667e-02,-1.360131427645683289e-02,3.091841936111450195e-03,1.725584082305431366e-02,2.122417464852333069e-02,2.200839668512344360e-02,-6.246096454560756683e-03,3.795432671904563904e-02,-3.990299068391323090e-03,3.186159208416938782e-02,-1.883529871702194214e-02,1.327072456479072571e-02,1.214674860239028931e-02,7.710266113281250000e-02,1.883864030241966248e-02,-2.948928624391555786e-03,4.925291985273361206e-02,-3.589114919304847717e-02,2.838633395731449127e-02,1.353953406214714050e-02,1.875348389148712158e-03,-4.380060359835624695e-03,5.078874528408050537e-04,-7.374212145805358887e-06,1.952554658055305481e-02,1.900808885693550110e-02,3.112813830375671387e-02,1.074695028364658356e-02,3.387127071619033813e-03,7.912033237516880035e-03,9.036520496010780334e-03,-4.791477695107460022e-03,-1.811867579817771912e-02,1.759414747357368469e-02,-4.637010395526885986e-03,-5.461689084768295288e-02,6.061531603336334229e-03,3.487313911318778992e-02,1.774151064455509186e-02,1.793675869703292847e-02,1.779097691178321838e-02,2.248540148138999939e-02,3.198931366205215454e-02,3.403033688664436340e-02,2.733427472412586212e-02,-8.471177890896797180e-03,1.942412368953227997e-02,2.187281474471092224e-02,-5.901509895920753479e-03,5.506346002221107483e-03,7.576424628496170044e-03,7.472192868590354919e-03,-6.672635674476623535e-03,-6.451106816530227661e-02,-7.554013282060623169e-04,1.237995456904172897e-02,7.946230471134185791e-03,-6.744701415300369263e-02,-3.407740592956542969e-02,-1.924723014235496521e-02,-2.428729087114334106e-03,1.564090140163898468e-02,5.606926977634429932e-03,3.508467227220535278e-02,4.609314724802970886e-02,2.200094051659107208e-02,-1.720458827912807465e-02,1.415866613388061523e-02,1.525327749550342560e-02,5.369048193097114563e-02,1.197014190256595612e-02,8.883375674486160278e-03,2.000091224908828735e-02,-1.143386960029602051e-02,5.324192345142364502e-02,2.267897129058837891e-03,-6.623952835798263550e-02,1.337303407490253448e-02,8.552642539143562317e-03,1.739938557147979736e-02,-4.977126792073249817e-02,1.627096161246299744e-02,-5.601419135928153992e-03,-1.031499914824962616e-02,-7.699849084019660950e-03,4.189377650618553162e-03,-8.891336619853973389e-05,4.597073420882225037e-03,-8.588720113039016724e-03,1.493194233626127243e-02,3.252645209431648254e-02,-4.207779467105865479e-02,4.281891882419586182e-02,-5.669633671641349792e-02,2.251603081822395325e-02,2.632565796375274658e-02,-2.559574320912361145e-02,1.262504048645496368e-02,2.716558240354061127e-02,1.779890060424804688e-02,1.362247392535209656e-03,1.138262450695037842e-04,9.269523434340953827e-03,4.223911836743354797e-02,2.856212481856346130e-02,7.749006152153015137e-03,-5.602328106760978699e-03,-6.761912256479263306e-03,-8.997375145554542542e-03,-3.226240351796150208e-02,1.238155551254749298e-02,8.113583549857139587e-03,5.448305979371070862e-03,-3.680728748440742493e-02,-2.869440615177154541e-02,7.997567765414714813e-03,1.985755562782287598e-02,1.659352332353591919e-02,-2.100429497659206390e-03,-2.680983208119869232e-02,2.609039843082427979e-02,-6.968311965465545654e-02,3.524646535515785217e-02,1.865522935986518860e-03,4.717899858951568604e-02,2.493375539779663086e-02,5.616165697574615479e-03,5.483651906251907349e-02,5.112431943416595459e-03,4.358553141355514526e-02,2.240674942731857300e-02,3.973614051938056946e-02,-1.194383483380079269e-02,1.240634918212890625e-02,8.237818256020545959e-03,-7.072560489177703857e-02,-2.825947478413581848e-03,1.830205321311950684e-02,3.146070614457130432e-02,2.919426187872886658e-02,9.924427606165409088e-03,-1.399681717157363892e-02,1.854021102190017700e-04,3.158396482467651367e-02,-1.432997360825538635e-02,8.021285757422447205e-03,-1.679821312427520752e-02,-1.507236342877149582e-02,6.843738257884979248e-02,-1.481718569993972778e-02,9.341420605778694153e-03,1.307809725403785706e-03,-1.554681360721588135e-02,-1.074494197964668274e-01,1.223098486661911011e-03,-1.265410333871841431e-02,3.379955887794494629e-04,9.657598100602626801e-03,-7.442314177751541138e-03,-6.321740895509719849e-02,-9.017426520586013794e-03,3.053794801235198975e-02,-6.163205206394195557e-02,8.979469537734985352e-02,2.366219460964202881e-02,-2.842554822564125061e-02,-2.382566779851913452e-02,3.766825422644615173e-03,5.855794996023178101e-03,6.236101686954498291e-02,2.662922628223896027e-02,1.917984336614608765e-04,-6.354258954524993896e-02,-3.459900617599487305e-04,1.230786181986331940e-02,1.063842512667179108e-02,-3.119182772934436798e-02,6.586773321032524109e-03,-5.784491822123527527e-02,8.354393765330314636e-03,4.789821431040763855e-02,-5.389270186424255371e-02,1.581238023936748505e-02,2.059322036802768707e-02,-3.828490525484085083e-02,5.877984687685966492e-03,-3.724576905369758606e-02,3.795878216624259949e-02,5.008772760629653931e-02,4.045442491769790649e-02,-1.658613793551921844e-02,-5.077863112092018127e-03,2.374008297920227051e-02,1.699084416031837463e-03,1.258982066065073013e-02,4.497185349464416504e-03,-1.044403947889804840e-02,4.679289460182189941e-02,-2.229334041476249695e-02,5.609045550227165222e-02,-1.521770842373371124e-02,-2.480668015778064728e-02,1.533879898488521576e-02,-3.006809949874877930e-02,-8.129162713885307312e-03,-1.690213009715080261e-02,4.230730235576629639e-03,2.209829166531562805e-02,-1.051889266818761826e-02,5.966195836663246155e-03,2.867610007524490356e-02,1.285122707486152649e-02,4.356175661087036133e-03,-1.533708069473505020e-02,5.130599811673164368e-02,-6.150098145008087158e-02,-5.217136442661285400e-02,6.029159948229789734e-02,6.177909672260284424e-04,3.530565649271011353e-03,-2.529978752136230469e-03,-1.546875759959220886e-02,5.394726991653442383e-03,-9.716607630252838135e-03,-3.860201314091682434e-02,4.492074251174926758e-03,-2.783930301666259766e-02,9.310465306043624878e-03,-2.712954021990299225e-02,-9.930383414030075073e-03,-4.729139804840087891e-02,3.128573298454284668e-03,7.729948312044143677e-02,-5.389124155044555664e-03,-6.691189482808113098e-03,-9.270025789737701416e-02,-1.653584651648998260e-02,-5.146614275872707367e-03,9.261040017008781433e-03,-6.564950942993164062e-02,-3.081597574055194855e-02,1.535869762301445007e-02,2.074781619012355804e-02,-5.239786952733993530e-02,5.970074795186519623e-03,-1.588504761457443237e-03,3.221332281827926636e-02,1.007083803415298462e-02,9.880336001515388489e-03,-1.720516011118888855e-03,-7.571958750486373901e-02,9.688884019851684570e-04,-1.063220761716365814e-02,2.148063480854034424e-02,-5.948539823293685913e-03,8.135083131492137909e-03,-1.086018979549407959e-02,3.636260516941547394e-03,6.992381066083908081e-03,1.618002355098724365e-02,-3.947354853153228760e-03,-5.150455236434936523e-02,3.582718968391418457e-02,1.297325268387794495e-02,-1.929285377264022827e-02,1.138799916952848434e-02,-4.692345485091209412e-02,-2.826224453747272491e-02,8.569220080971717834e-03,1.291316282004117966e-02,4.410717636346817017e-03,1.707518659532070160e-02,2.734177187085151672e-02,-1.010169833898544312e-02,1.327177137136459351e-02,-3.274542838335037231e-02,1.202127803117036819e-02,-1.196766458451747894e-02,-5.919223651289939880e-03,3.756081685423851013e-03,-2.749081328511238098e-02,7.553461939096450806e-03,1.922091655433177948e-02,-1.095718890428543091e-02,1.680146344006061554e-02,-1.589657738804817200e-02,3.650454431772232056e-02,-2.206990495324134827e-03,-3.278803825378417969e-02,-1.057005859911441803e-02,-6.617259234189987183e-02,-8.417164906859397888e-03,8.617926388978958130e-03,3.026497177779674530e-02,3.853449597954750061e-02,3.541847318410873413e-02,-2.033780887722969055e-02,1.170634850859642029e-02,3.520793095231056213e-02,1.181153394281864166e-02,-5.228067189455032349e-02,1.940269209444522858e-02,1.076290663331747055e-02,-2.164692804217338562e-02,-1.630576699972152710e-02,1.955391839146614075e-03,1.933000423014163971e-02,1.906771212816238403e-03,-1.182658411562442780e-02,1.305845472961664200e-02,1.180395949631929398e-02,1.584007404744625092e-02,6.143148988485336304e-03,1.395940408110618591e-02,1.355429738759994507e-02,-6.743695586919784546e-03,-9.320270270109176636e-03,-5.602004006505012512e-02,-4.938888177275657654e-02,-6.220828741788864136e-03,3.504181280732154846e-02,2.191044948995113373e-02,1.017720438539981842e-02,-3.588577732443809509e-03,-1.025587469339370728e-01,3.139929473400115967e-02,1.449998468160629272e-03,-8.864848315715789795e-02,2.607431821525096893e-02,-2.725745365023612976e-02,2.452338859438896179e-02,3.421648964285850525e-02,-7.690014317631721497e-03,4.021307080984115601e-02,-3.871300816535949707e-02,-1.421200484037399292e-02,-2.214588597416877747e-02,2.840376459062099457e-02,-5.202526226639747620e-02,-2.047683671116828918e-02,8.148440159857273102e-03,4.587291553616523743e-02,-8.852413855493068695e-03,2.845920622348785400e-03,-3.512375056743621826e-03,-1.054012216627597809e-03,4.127233847975730896e-02,7.850008085370063782e-03,-4.271750338375568390e-03,-5.930170416831970215e-03,5.071461573243141174e-02,-5.042164027690887451e-02,8.467738516628742218e-03,-2.667319402098655701e-02,2.830306813120841980e-02,5.685258656740188599e-02,3.843012452125549316e-02,-5.530901253223419189e-04,-3.975389525294303894e-03,3.252355754375457764e-02,-1.552001014351844788e-02,-2.304678782820701599e-03,2.800694666802883148e-02,-7.415170967578887939e-02,1.265158131718635559e-02,-8.508512750267982483e-03,-2.141222357749938965e-03,-1.281535252928733826e-02,3.407572582364082336e-02,8.185310289263725281e-03,-2.464432455599308014e-02,-2.881215140223503113e-02,-1.845825463533401489e-02,-6.223824247717857361e-02,2.490327879786491394e-02,-1.646064594388008118e-02,4.678785800933837891e-03,2.087430283427238464e-02,6.489545106887817383e-03,-1.257842313498258591e-02,1.344748213887214661e-02,1.283917203545570374e-02
-4.378285259008407593e-03,4.761042818427085876e-02,4.301961138844490051e-02,4.627798497676849365e-02,3.740679845213890076e-02,4.068871960043907166e-02,2.759386785328388214e-02,4.965417087078094482e-02,6.974418461322784424e-02,3.753176704049110413e-02,3.746072575449943542e-02,8.539363741874694824e-02,5.879554897546768188e-02,3.533211722970008850e-02,2.179638296365737915e-02,-4.164598882198333740e-03,3.270463272929191589e-02,4.929134249687194824e-02,-2.866985648870468140e-02,4.661058634519577026e-02,2.975589595735073090e-02,4.169714450836181641e-02,-1.438293978571891785e-02,4.217505455017089844e-02,4.601167142391204834e-02,3.585820272564888000e-02,3.408931940793991089e-02,3.428618982434272766e-02,2.320030704140663147e-02,-4.731269925832748413e-02,4.656599462032318115e-02,3.747533261775970459e-02,2.562517113983631134e-02,1.011743489652872086e-02,7.735958322882652283e-03,3.679773956537246704e-02,3.485178574919700623e-02,4.245825484395027161e-02,4.149864241480827332e-02,3.810364007949829102e-02,2.554639428853988647e-02,3.504933789372444153e-02,3.830680996179580688e-02,4.298087954521179199e-02,4.793271794915199280e-02,-1.327358186244964600e-04,3.536470606923103333e-02,4.450332373380661011e-02,4.106413573026657104e-02,2.369353733956813812e-02,3.227940201759338379e-02,3.949957340955734253e-02,4.100512340664863586e-02,4.535616189241409302e-02,3.028385341167449951e-02,1.963796094059944153e-02,7.927585393190383911e-02,5.445862188935279846e-02,3.274536505341529846e-02,3.022046759724617004e-02,-3.627490997314453125e-02,4.932041838765144348e-02,-5.196351930499076843e-02,2.075263857841491699e-02,4.109262675046920776e-02,3.433603048324584961e-02,3.340473026037216187e-02,-6.862021982669830322e-04,1.549923233687877655e-02,3.915971890091896057e-02,3.406379744410514832e-02,3.560921177268028259e-02,-3.620850853621959686e-03,3.482933714985847473e-02,3.577926382422447205e-02,3.720463067293167114e-02,4.544980823993682861e-02,3.362322971224784851e-02,4.752893000841140747e-02,4.291951283812522888e-02,4.596737772226333618e-02,-2.503168396651744843e-02,1.934069395065307617e-02,3.145790472626686096e-02,3.616685420274734497e-02,6.086141616106033325e-02,5.800925567746162415e-02,-4.571110010147094727e-02,1.539345458149909973e-02,3.505179286003112793e-02,3.992035239934921265e-02,6.839491426944732666e-02,-1.066569425165653229e-02,2.691179327666759491e-02,4.587357118725776672e-02,3.654575347900390625e-02,4.133421927690505981e-02,4.088503867387771606e-02,5.776034295558929443e-02,3.734627366065979004e-02,4.685799777507781982e-02,4.716416448354721069e-02,3.712884709239006042e-02,4.449291527271270752e-02,4.713908955454826355e-02,1.952054724097251892e-02,2.928951755166053772e-02,-3.438195213675498962e-03,5.138525366783142090e-02,1.020338386297225952e-04,3.178490325808525085e-02,3.699238598346710205e-02,1.580666750669479370e-03,3.236182779073715210e-02,6.789416074752807617e-04,7.294019684195518494e-03,4.802798107266426086e-02,2.896647527813911438e-02,5.336366966366767883e-02,6.292277481406927109e-03,4.756528511643409729e-02,1.533219404518604279e-02,-3.293902426958084106e-02,4.561943188309669495e-02,1.641049236059188843e-02,3.000698424875736237e-02,6.504143029451370239e-02,2.443786710500717163e-02,3.490503877401351929e-02,3.874886780977249146e-02,1.614031381905078888e-02,3.855662792921066284e-02,5.933709442615509033e-02,3.284237533807754517e-02,3.939932584762573242e-02,2.738291770219802856e-02,3.645636886358261108e-02,4.591090604662895203e-02,1.387363299727439880e-03,2.759931609034538269e-02,2.904850058257579803e-02,5.660472437739372253e-02,4.622487723827362061e-02,3.503310680389404297e-02,4.162904992699623108e-02,5.895212292671203613e-02,2.833104133605957031e-02,4.077982902526855469e-02,-3.023660928010940552e-02,3.578159958124160767e-02,3.286584839224815369e-02,3.305446356534957886e-02,6.382510811090469360e-02,3.227686136960983276e-02,2.615588158369064331e-02,4.240313544869422913e-02,4.277323186397552490e-02,2.264772169291973114e-02,-4.733356647193431854e-03,2.307435311377048492e-02,-7.859813980758190155e-03,3.694273531436920166e-03,1.873888634145259857e-02,3.022060915827751160e-02,6.485794670879840851e-03,4.819449782371520996e-02,8.200352638959884644e-02,3.352628275752067566e-02,3.663786500692367554e-02,-1.252974569797515869e-02,4.992249608039855957e-02,4.919300228357315063e-02,3.372169658541679382e-02,-1.214861590415239334e-02,3.461369127035140991e-02,3.982038423418998718e-02,2.690075337886810303e-02,3.315414860844612122e-02,2.197647467255592346e-02,5.847696214914321899e-02,4.879171028733253479e-02,2.457765676081180573e-02,5.194004625082015991e-02,4.209114238619804382e-02,-2.023256570100784302e-02,-2.921568602323532104e-02,5.256012454628944397e-02,6.329172104597091675e-02,-8.524119853973388672e-03,3.669443726539611816e-02,-1.061396673321723938e-02,3.354823961853981018e-02,2.989080920815467834e-02,5.709065869450569153e-02,3.847579658031463623e-02,3.458097577095031738e-02,-3.460165113210678101e-03,3.786931186914443970e-02,3.727640584111213684e-02,3.871443122625350952e-02,4.313872754573822021e-02,2.227333001792430878e-02,3.823056817054748535e-02,8.950959146022796631e-02,5.215969309210777283e-02,2.459724992513656616e-02,1.340368390083312988e-02,-6.521688774228096008e-03,3.650710359215736389e-02,-2.045408822596073151e-02,6.375509500503540039e-02,4.288225620985031128e-02,-2.793724462389945984e-02,3.908210992813110352e-02,3.651770949363708496e-02,1.653297431766986847e-02,3.136551752686500549e-02,5.328350141644477844e-02,-3.999064862728118896e-02,1.764218136668205261e-02,5.570687819272279739e-03,2.939529158174991608e-02,-1.035249978303909302e-02,-4.513166099786758423e-02,6.545594334602355957e-02,3.271228447556495667e-02,3.611822798848152161e-02,4.622597619891166687e-02,3.041483089327812195e-02,3.606726229190826416e-02,7.162475958466529846e-03,-5.755247548222541809e-04,4.376998916268348694e-02,5.373074859380722046e-02,4.509370028972625732e-02,3.883619979023933411e-02,5.272708833217620850e-02,6.056836992502212524e-02,4.120994359254837036e-02,3.127511590719223022e-02,5.631545931100845337e-02,2.813013084232807159e-02,3.343542292714118958e-02,2.307239547371864319e-02,1.758826151490211487e-02,4.375295341014862061e-02,1.857006922364234924e-02,3.028406389057636261e-02,5.968874320387840271e-02,2.982494607567787170e-02,4.811821877956390381e-02,8.082248270511627197e-02,4.442234337329864502e-02,5.554173886775970459e-02,-1.408579945564270020e-02,3.184133023023605347e-02,5.530865117907524109e-02,1.997729390859603882e-02,4.709390178322792053e-02,3.987067937850952148e-02,3.118024021387100220e-02,6.445919722318649292e-02,2.707829140126705170e-02,3.631829097867012024e-02,5.519000813364982605e-02,1.256961002945899963e-02,5.676485225558280945e-02,3.282997012138366699e-02,5.843619257211685181e-02,4.014606773853302002e-02,2.129290811717510223e-02,5.123654380440711975e-02,5.390830338001251221e-02,6.159231811761856079e-02,3.055656701326370239e-02,3.356752172112464905e-02,5.508289486169815063e-02,4.685513302683830261e-02,4.520548880100250244e-02,3.590614721179008484e-02,3.744009137153625488e-02,3.156829625368118286e-02,6.847230345010757446e-02,2.921936288475990295e-02,2.341098710894584656e-02,3.915483877062797546e-02,1.984791830182075500e-02,5.889442935585975647e-02,-1.662345230579376221e-02,2.468692511320114136e-02,3.008916974067687988e-02,-1.059613376855850220e-02,3.609356284141540527e-02,-3.847529739141464233e-02,-1.499097794294357300e-03,9.791068732738494873e-04,1.828594505786895752e-02,8.406739681959152222e-03,2.933705598115921021e-02,3.019943833351135254e-02,3.565862029790878296e-02,6.889571994543075562e-02,3.456125408411026001e-02,3.924596309661865234e-02,-4.715300351381301880e-02,2.636386454105377197e-02,3.093986026942729950e-02,2.589487843215465546e-02,-1.910402812063694000e-02,3.935537487268447876e-02,3.772537782788276672e-02,2.530338615179061890e-02,1.917270757257938385e-02,3.586597740650177002e-02,3.327851742506027222e-02,7.968868315219879150e-02,3.067527711391448975e-02,4.611044377088546753e-02,4.303889721632003784e-02,-1.521658524870872498e-02,8.526718243956565857e-03,3.828898444771766663e-02,5.252595990896224976e-02,5.454048514366149902e-02,2.087496221065521240e-02,2.167252264916896820e-02,2.183146961033344269e-02,6.361983716487884521e-02,2.875414490699768066e-02,-3.495968133211135864e-02,4.308641329407691956e-02,4.670781642198562622e-02,3.954746574163436890e-02,-4.366049170494079590e-02,4.542945697903633118e-02,3.930024802684783936e-02,-6.847362965345382690e-03,2.439926005899906158e-02,6.443662196397781372e-02,2.931452542543411255e-02,5.287211388349533081e-02,-4.687074199318885803e-02,3.827967494726181030e-02,-3.671635314822196960e-02,4.189959540963172913e-02,6.805766373872756958e-02,-2.247611060738563538e-03,4.045389592647552490e-02,-6.038244813680648804e-03,-2.097563818097114563e-03,2.767636626958847046e-02,4.544661939144134521e-02,4.104639589786529541e-02,3.150748834013938904e-02,3.377658873796463013e-02,4.418276250362396240e-02,3.626466542482376099e-02,3.086625784635543823e-02,4.727040976285934448e-02,3.529160842299461365e-02,4.531688988208770752e-02,3.242240846157073975e-02,-9.593516588211059570e-04,4.985155165195465088e-02,2.177500911056995392e-02,2.498050779104232788e-02,9.228986501693725586e-02,2.781385555863380432e-03,5.208121985197067261e-02,3.709690272808074951e-02,4.589372128248214722e-02,-2.030260115861892700e-02,-3.693657368421554565e-02,4.851756617426872253e-02,4.090918228030204773e-02,5.382474139332771301e-02,6.715724244713783264e-03,4.510265961289405823e-02,2.657966315746307373e-02,4.389459267258644104e-02,5.564299970865249634e-02,1.066029071807861328e-02,-1.648813113570213318e-02,4.291837662458419800e-02,3.880688548088073730e-02,1.149951480329036713e-02,6.258250027894973755e-02,2.248753793537616730e-02,2.893064171075820923e-02,1.847164332866668701e-02,2.635341696441173553e-02,1.988584175705909729e-02,3.330909460783004761e-02,3.076964244246482849e-02,3.163818269968032837e-02,4.176489263772964478e-02,1.619301736354827881e-03,4.557803273200988770e-02,-3.855270147323608398e-02,2.028792165219783783e-02,3.993413597345352173e-02,-1.470837183296680450e-02,5.337060242891311646e-02,4.364872351288795471e-02,2.539124339818954468e-02,3.650848194956779480e-02,3.453250974416732788e-02,4.340782389044761658e-02,3.415701538324356079e-02,5.501062422990798950e-02,6.788104027509689331e-02,-2.230098471045494080e-03,2.330669760704040527e-02,3.695618361234664917e-02,2.449496462941169739e-02,4.113843664526939392e-02,-1.975791156291961670e-02,5.707130581140518188e-02,3.729695826768875122e-02,5.298782885074615479e-02,-2.104427665472030640e-03,-2.952212467789649963e-02,3.661391511559486389e-02,6.158866733312606812e-02,-9.275369346141815186e-03,4.318113997578620911e-02,-3.497943282127380371e-03,4.974890500307083130e-02,1.977531798183917999e-02,6.247106567025184631e-02,4.876788705587387085e-02,-5.670300871133804321e-02,2.856096252799034119e-02,3.952287510037422180e-02,2.022085711359977722e-02,2.755832299590110779e-02,3.417929261922836304e-02,6.278683990240097046e-02,6.405808776617050171e-02,1.660345122218132019e-02,3.573445230722427368e-02,3.911135345697402954e-02,3.830061107873916626e-02,5.200613662600517273e-02,3.739453852176666260e-02,3.679781034588813782e-02,3.509693220257759094e-02,4.017693549394607544e-02,7.094851881265640259e-02,3.538544103503227234e-02,-3.069718554615974426e-02,2.202638983726501465e-02,3.172013908624649048e-02,7.143506407737731934e-02,3.403059393167495728e-02,3.080845251679420471e-02,4.569956660270690918e-02,4.448214918375015259e-02,-2.647516317665576935e-02,4.529222846031188965e-02,6.183828786015510559e-02,3.080672957003116608e-02,5.983844026923179626e-02,3.725474327802658081e-02,4.807967692613601685e-02,2.601340040564537048e-02,2.652310580015182495e-02,6.177261844277381897e-02,1.021998003125190735e-03,6.737542152404785156e-02,3.912651911377906799e-02,4.319930449128150940e-02,4.610931500792503357e-02,7.177582383155822754e-02,4.662355035543441772e-02,-1.594487577676773071e-03,-4.759374260902404785e-02,3.534118831157684326e-02,8.533081039786338806e-03,3.804840520024299622e-02,4.046587646007537842e-02,1.456644386053085327e-03,4.698810353875160217e-02,5.180996656417846680e-02,-9.549621492624282837e-03,2.008139342069625854e-02,-9.415241889655590057e-03,4.836734384298324585e-02,5.132538825273513794e-02,2.689920552074909210e-02,2.751220948994159698e-02,3.858994320034980774e-02,5.525433644652366638e-02,-1.171013340353965759e-03,2.238509617745876312e-02,9.108439087867736816e-03,6.522163748741149902e-02,3.647947311401367188e-02,3.491225838661193848e-02,-4.167260602116584778e-02,3.879231214523315430e-02,3.903814032673835754e-02,3.202236816287040710e-02,3.424207866191864014e-02,3.679874911904335022e-02,2.624497003853321075e-02,2.633937634527683258e-02,3.761934861540794373e-02,2.811957709491252899e-02,1.799406670033931732e-02,3.811784088611602783e-02,4.649024829268455505e-02,3.355958685278892517e-02,3.903768584132194519e-02,3.384009748697280884e-02,5.155597254633903503e-02,3.216996416449546814e-02,4.003433138132095337e-02,6.988952308893203735e-02,3.371465951204299927e-02,4.273393750190734863e-02,3.586285188794136047e-02,6.524749845266342163e-02,3.734511137008666992e-02,2.863340079784393311e-02,9.192140400409698486e-02,-2.668646723031997681e-02,2.917998097836971283e-02,4.743158817291259766e-02,3.975678235292434692e-02,5.328180268406867981e-02,3.279631212353706360e-02,2.818397805094718933e-02,2.193586900830268860e-02,5.722783133387565613e-02,5.320175737142562866e-02,3.898126631975173950e-02,3.487850725650787354e-02,2.969313226640224457e-02,3.805188089609146118e-02,4.016161710023880005e-02,4.567508399486541748e-02,4.260031878948211670e-02,5.071694403886795044e-02,6.819213181734085083e-02,4.108678549528121948e-02,2.672148123383522034e-02,6.223662942647933960e-02,3.871387988328933716e-02,3.748548775911331177e-02,3.215744718909263611e-02,3.773021697998046875e-02,2.624498307704925537e-02,4.040674865245819092e-02,4.183261469006538391e-02,3.616581112146377563e-02,4.642571508884429932e-02,5.695185810327529907e-02,5.913864076137542725e-02,2.157817594707012177e-03,4.953446239233016968e-02,1.158946007490158081e-02,3.687276691198348999e-02,3.682084009051322937e-02,3.719875216484069824e-02,-8.957970887422561646e-03,5.395713448524475098e-02,-1.734403893351554871e-03,3.484807163476943970e-02,3.138853982090950012e-02,3.796319290995597839e-02,4.693704470992088318e-02,-2.870880439877510071e-02,2.270543575286865234e-02,2.699895948171615601e-02,3.965919464826583862e-02,2.939557470381259918e-02,4.422093182802200317e-02,-3.468196839094161987e-02,6.676717102527618408e-02,-4.466880112886428833e-02,3.803513944149017334e-02,-3.078208304941654205e-02,2.332186698913574219e-02,-6.265593692660331726e-03,4.466186091303825378e-02,-8.399579674005508423e-04,3.038648702204227448e-02,-1.030533760786056519e-02,3.381932899355888367e-02,3.740737959742546082e-02,4.920524358749389648e-02,5.891031771898269653e-02,4.725489765405654907e-03,5.692484974861145020e-02,4.006993398070335388e-02,4.830395057797431946e-02,5.457851290702819824e-02,-2.185267210006713867e-02,4.913292452692985535e-02,6.038159132003784180e-02,3.279523923993110657e-02,4.207399114966392517e-02,5.723346024751663208e-02,3.021813929080963135e-03,3.994778543710708618e-02,3.672011569142341614e-02,3.201460093259811401e-02,6.450903415679931641e-02,3.241489082574844360e-02,5.687668919563293457e-02,4.792972281575202942e-02,2.125312760472297668e-02,3.316731378436088562e-02,-6.977394223213195801e-04,1.957567967474460602e-02,3.170038387179374695e-02,-1.160844229161739349e-02,-8.534882217645645142e-03,2.576883882284164429e-03,3.406863659620285034e-02,4.296440631151199341e-02,4.078087955713272095e-02,5.337281525135040283e-02,6.055821478366851807e-02,7.463891804218292236e-02,2.102489024400711060e-02,5.593089759349822998e-02,2.163851633667945862e-02,5.956641584634780884e-02,5.292265862226486206e-02,8.780681341886520386e-02,4.171308875083923340e-02,3.836226463317871094e-02,5.899756029248237610e-02,4.900052025914192200e-02,5.393351987004280090e-02,4.621731117367744446e-02,3.093235194683074951e-02,1.978272199630737305e-02,4.028628021478652954e-02,3.601758182048797607e-02,5.247271433472633362e-02,5.221137031912803650e-02,1.978740654885768890e-02,3.644182160496711731e-02,5.656311661005020142e-02,3.676360845565795898e-02,3.898123651742935181e-02,3.768903017044067383e-02,2.185297012329101562e-02,4.645988717675209045e-02,1.134041976183652878e-02,7.813636213541030884e-03,3.136450424790382385e-02,-1.261660456657409668e-02,4.599448293447494507e-02,4.745690152049064636e-02,5.201227217912673950e-02,4.152946919202804565e-02,5.432651937007904053e-02,7.484813779592514038e-02,3.042753785848617554e-03,-3.673758357763290405e-03,4.706989228725433350e-02,3.300524130463600159e-02,4.250397533178329468e-02,3.353727236390113831e-02,4.912473261356353760e-02,3.910791501402854919e-02,4.019933566451072693e-02,1.296018715947866440e-02,3.923241421580314636e-02,3.560740500688552856e-02,3.019123896956443787e-02,7.582028396427631378e-03,2.558493800461292267e-02,3.632903844118118286e-02,4.391041770577430725e-02,4.583191871643066406e-02,4.022604227066040039e-02,6.633946299552917480e-02,7.448840141296386719e-02,6.135190278291702271e-02,3.987102583050727844e-02,3.615226596593856812e-02,4.134634882211685181e-02,8.564601838588714600e-02,5.090504512190818787e-02,4.019158706068992615e-02,4.293979331851005554e-02,2.377161383628845215e-02,6.427233666181564331e-02,2.737274020910263062e-02,7.810735143721103668e-03,4.015430808067321777e-02,3.957042470574378967e-02,5.586566776037216187e-02,1.638781279325485229e-02,5.607971176505088806e-02,2.736044675111770630e-02,3.295032680034637451e-02,3.430573642253875732e-02,4.051035642623901367e-02,-5.624273791909217834e-03,4.026187583804130554e-02,1.179603487253189087e-02,-4.228480160236358643e-03,7.379646599292755127e-02,8.721277117729187012e-03,5.318578705191612244e-02,1.299892831593751907e-02,5.696802586317062378e-02,6.085265800356864929e-02,3.468201681971549988e-02,4.441892355680465698e-02,4.937736317515373230e-02,4.490974172949790955e-02,3.736040741205215454e-02,3.404235094785690308e-02,-4.125335067510604858e-02,5.811665952205657959e-02,5.080850049853324890e-02,4.800906032323837280e-02,4.294684529304504395e-02,3.836097568273544312e-02,-4.998123273253440857e-02,2.631803043186664581e-02,1.358455605804920197e-02,4.626302421092987061e-02,4.303563386201858521e-02,3.837745264172554016e-02,3.317047655582427979e-02,3.056130930781364441e-02,4.911757260560989380e-02,4.787486046552658081e-02,4.034220054745674133e-02,2.871670015156269073e-02,4.550095275044441223e-02,-1.777213811874389648e-02,6.474707275629043579e-02,3.892327845096588135e-02,6.962004303932189941e-02,5.197856575250625610e-02,2.424387447535991669e-02,7.394114136695861816e-02,3.651248663663864136e-02,7.050951570272445679e-02,4.910878092050552368e-02,5.914320051670074463e-02,3.559206798672676086e-02,4.174584150314331055e-02,1.855984702706336975e-02,-1.191205903887748718e-02,4.283587262034416199e-02,-2.544422447681427002e-02,6.608568131923675537e-02,5.754096060991287231e-02,4.200633615255355835e-02,3.331420198082923889e-02,2.092870697379112244e-02,4.965472221374511719e-02,-9.722180664539337158e-03,4.345708712935447693e-02,2.771332487463951111e-02,3.563347831368446350e-02,8.311456441879272461e-02,3.258702158927917480e-02,3.623745217919349670e-02,2.998686581850051880e-02,-8.059779182076454163e-03,5.460111051797866821e-02,2.218887582421302795e-02,-1.142417266964912415e-02,2.330768108367919922e-02,3.940855711698532104e-02,3.356428071856498718e-02,1.159834023565053940e-02,6.408017873764038086e-02,6.435718387365341187e-02,-8.723296225070953369e-03,1.085743010044097900e-01,5.987537279725074768e-02,4.094254970550537109e-02,1.846884004771709442e-02,2.464994415640830994e-02,3.137536719441413879e-02,3.523334115743637085e-02,5.558420345187187195e-02,3.727710247039794922e-02,5.629255436360836029e-03,3.621083870530128479e-02,4.335009306669235229e-02,3.144529461860656738e-02,2.407940477132797241e-02,4.327332600951194763e-02,4.231261089444160461e-03,4.700616747140884399e-02,2.477597072720527649e-02,4.203059524297714233e-02,3.808770701289176941e-02,4.311814159154891968e-02,-5.985936149954795837e-04,3.252392634749412537e-02,3.909961134195327759e-02,5.420874804258346558e-02,6.672484427690505981e-02,6.754371523857116699e-02,4.111409187316894531e-02,2.626426331698894501e-02,5.464676022529602051e-02,3.692559897899627686e-02,4.235200956463813782e-02,3.781369328498840332e-02,2.027955278754234314e-02,9.556939825415611267e-03,2.435623481869697571e-02,5.806561559438705444e-03,1.809882931411266327e-02,-1.337903551757335663e-02,4.474322125315666199e-02,-4.905253276228904724e-02,1.131469570100307465e-02,2.316676080226898193e-02,3.593015298247337341e-02,5.264060944318771362e-02,2.350743860006332397e-02,3.509637713432312012e-02,6.134004145860671997e-02,3.575307875871658325e-02,4.611434042453765869e-02,2.679896354675292969e-02,6.656314432621002197e-02,-3.000062890350818634e-02,-2.255416661500930786e-02,1.394846476614475250e-02,3.950892016291618347e-03,2.846513316035270691e-02,4.644303023815155029e-02,3.603574633598327637e-02,3.098310716450214386e-02,-2.175716683268547058e-03,2.292062528431415558e-02,4.369386658072471619e-02,2.807093784213066101e-02,-1.126426085829734802e-02,4.831110686063766479e-02,2.862673252820968628e-02,1.449161488562822342e-02,4.962746798992156982e-02,2.722065523266792297e-02,6.610651314258575439e-02,2.546941302716732025e-02,4.107679426670074463e-02,2.220531739294528961e-02,3.632957115769386292e-02,4.500253498554229736e-02,-2.969728596508502960e-02,2.667699567973613739e-02,5.003274604678153992e-02,5.142396688461303711e-02,4.758077114820480347e-02,3.048381209373474121e-02,-5.119110643863677979e-02,3.638390824198722839e-02,3.148291632533073425e-02,3.510388731956481934e-02,2.758848294615745544e-02,1.957512460649013519e-02,3.530393540859222412e-02,-5.844617262482643127e-03,5.262756720185279846e-02,3.962985053658485413e-02,-3.419554978609085083e-02,-3.030536696314811707e-03,3.703551739454269409e-02,3.748766332864761353e-02,4.016328603029251099e-02,3.939552605152130127e-02,4.565642774105072021e-02,7.029949128627777100e-02,4.549911618232727051e-02,2.978982776403427124e-02,5.139145255088806152e-02,1.324192807078361511e-02,2.763213776051998138e-02,4.474750161170959473e-02,3.988729417324066162e-02,3.219731152057647705e-02,3.798902034759521484e-02,-2.443343400955200195e-03,-2.525439485907554626e-03,4.464670270681381226e-02,-5.164992436766624451e-02,3.368417546153068542e-02,3.916376829147338867e-02,7.552148774266242981e-03,2.252248488366603851e-02,2.804091759026050568e-02,3.417572751641273499e-02,4.513369873166084290e-02,-2.281045541167259216e-03,5.278040841221809387e-02,3.459363430738449097e-02,4.175798967480659485e-02,2.410914190113544464e-02,-4.829910770058631897e-02,2.794517949223518372e-02,-6.466443184763193130e-03,2.412455528974533081e-02,4.903782904148101807e-02,5.165676772594451904e-02,6.599488854408264160e-02,6.284068524837493896e-02,-5.865894258022308350e-03,4.121290892362594604e-02,1.305723004043102264e-02,3.681664168834686279e-02,1.874310337007045746e-02,4.064583033323287964e-02,2.846960723400115967e-02,2.350901439785957336e-02,2.222710661590099335e-02,3.470966592431068420e-02,4.543815553188323975e-02,3.092579543590545654e-02,4.010539501905441284e-03,2.893213368952274323e-02,2.838169410824775696e-02,4.479036480188369751e-02,4.528874158859252930e-02,3.385358676314353943e-02,5.225446820259094238e-02,4.197225347161293030e-02,-4.716678708791732788e-02,1.820703782141208649e-02,4.366599395871162415e-02,3.914425522089004517e-02,5.846524611115455627e-02,3.903055936098098755e-02,3.864467516541481018e-02,3.932250663638114929e-02,4.716173931956291199e-02,6.631974130868911743e-02,5.127800256013870239e-02,1.779368892312049866e-02,5.115453898906707764e-02,4.535693302750587463e-02,6.402487307786941528e-02,-1.012941449880599976e-02,6.693591363728046417e-03,7.532741129398345947e-02,-6.199770420789718628e-02,-7.841419428586959839e-04,2.422297745943069458e-02,4.263880103826522827e-02,-3.132180497050285339e-02,2.145453356206417084e-02,3.641106560826301575e-02,6.992621719837188721e-02,4.257205501198768616e-02,4.346533492207527161e-02,-1.153395324945449829e-02,6.035264581441879272e-02,6.115899235010147095e-02,3.201922401785850525e-02,1.887154951691627502e-02,-4.221736639738082886e-02,7.182310521602630615e-02,-8.323814719915390015e-03,4.108409211039543152e-02,5.338750779628753662e-02,6.237866729497909546e-02,7.269994914531707764e-02,5.656424909830093384e-02,3.208476305007934570e-02,2.939566411077976227e-02,4.969338700175285339e-02,2.694209665060043335e-02,3.440088778734207153e-02,5.630826950073242188e-02,9.784158319234848022e-03,4.189721867442131042e-02,8.588841184973716736e-03,6.300093233585357666e-02,3.845724090933799744e-02,5.105852335691452026e-02,4.494845494627952576e-02,4.481357336044311523e-02,5.733342841267585754e-03,2.330034039914608002e-02,1.180637627840042114e-02,5.925866588950157166e-02,2.991148084402084351e-02,-3.152890130877494812e-02,4.698289930820465088e-02,4.177792370319366455e-02,-4.066659882664680481e-02,4.370854422450065613e-02,3.897745907306671143e-02
3.636283427476882935e-02,6.221586465835571289e-02,3.962013497948646545e-02,2.711025439202785492e-02,5.371600389480590820e-03,4.983291402459144592e-02,1.514143310487270355e-02,4.781709238886833191e-02,3.220413625240325928e-02,1.908786967396736145e-02,9.302602149546146393e-03,1.543084830045700073e-01,4.620306938886642456e-02,4.476039484143257141e-02,-1.082807686179876328e-02,6.932707130908966064e-02,1.892829313874244690e-02,1.759114116430282593e-02,2.797235175967216492e-02,6.872961297631263733e-03,1.618873141705989838e-02,2.003288641571998596e-02,3.975521773099899292e-02,5.595336668193340302e-03,4.404130578041076660e-02,6.747662276029586792e-02,3.390777856111526489e-02,3.416914492845535278e-02,2.360432408750057220e-02,4.673030972480773926e-02,4.379741102457046509e-02,2.061980776488780975e-02,2.810371667146682739e-02,3.394594788551330566e-02,3.384651243686676025e-02,3.662714362144470215e-02,1.627249456942081451e-02,4.167705774307250977e-02,3.957167640328407288e-02,1.133990753442049026e-02,8.976889774203300476e-03,2.897062711417675018e-02,1.046751905232667923e-02,-4.301115125417709351e-02,5.594671517610549927e-02,3.792957216501235962e-02,3.878755867481231689e-02,4.689778760075569153e-02,7.804894447326660156e-02,-1.397144515067338943e-03,3.229060769081115723e-02,3.923370689153671265e-02,4.239259287714958191e-02,5.672142282128334045e-02,2.194057404994964600e-02,2.439914271235466003e-03,1.229492798447608948e-01,5.242672190070152283e-02,5.192480050027370453e-03,2.838135510683059692e-02,3.526930510997772217e-02,6.243920326232910156e-02,5.070726200938224792e-02,3.211954981088638306e-02,2.185120247304439545e-02,3.792333602905273438e-02,4.222686588764190674e-02,6.703786551952362061e-02,2.517677098512649536e-02,1.521864160895347595e-02,5.426379293203353882e-02,3.488739579916000366e-02,3.713217377662658691e-02,5.940321460366249084e-02,1.033812910318374634e-01,8.830499835312366486e-03,-6.762539967894554138e-03,2.743001282215118408e-02,5.783621594309806824e-02,1.976113580167293549e-02,5.230508744716644287e-02,3.157963976263999939e-02,1.281631924211978912e-02,1.434472016990184784e-02,5.520327016711235046e-03,2.499176934361457825e-02,4.072958230972290039e-02,4.052755236625671387e-02,2.680629305541515350e-02,1.251781545579433441e-02,6.063066422939300537e-02,3.130843862891197205e-02,2.844048663973808289e-02,2.705554105341434479e-02,5.633270740509033203e-02,-8.717580698430538177e-03,5.986841768026351929e-02,1.095252111554145813e-02,8.969356119632720947e-02,6.578160449862480164e-03,4.566628485918045044e-02,4.748691618442535400e-02,3.592225536704063416e-02,1.355746109038591385e-02,4.840834438800811768e-02,1.579042151570320129e-02,2.684658765792846680e-02,4.594857245683670044e-02,5.098028853535652161e-02,3.925506025552749634e-02,3.176278620958328247e-02,1.324747409671545029e-02,7.439144700765609741e-02,1.887765713036060333e-03,4.124089702963829041e-02,3.037177585065364838e-02,8.701115101575851440e-02,2.382314577698707581e-02,5.128325894474983215e-02,1.248847041279077530e-02,4.620172083377838135e-02,3.406251594424247742e-02,5.431793257594108582e-02,5.814119800925254822e-02,9.503398090600967407e-03,-4.738862626254558563e-04,6.661456078290939331e-02,3.231299668550491333e-02,1.064483821392059326e-02,3.664757683873176575e-02,-1.617038995027542114e-02,7.137551903724670410e-02,2.221493609249591827e-02,1.506155636161565781e-02,3.898204118013381958e-02,1.492079999297857285e-02,9.644641540944576263e-03,1.466693170368671417e-02,4.201018810272216797e-02,4.695776849985122681e-03,2.524189464747905731e-02,7.651752233505249023e-02,2.944343537092208862e-02,3.466343507170677185e-02,4.010411351919174194e-02,-2.326214313507080078e-02,-2.214969135820865631e-04,1.663878932595252991e-02,3.165639936923980713e-02,4.442578926682472229e-02,1.671171747148036957e-02,2.260183542966842651e-02,6.529504060745239258e-02,3.253654018044471741e-02,1.471418142318725586e-02,4.091067984700202942e-02,2.235325425863265991e-02,1.881867647171020508e-02,2.473903074860572815e-02,1.380967721343040466e-02,3.626788780093193054e-02,3.725755959749221802e-02,1.567311212420463562e-02,5.948110669851303101e-02,-3.723564371466636658e-02,3.584355860948562622e-02,4.852516949176788330e-02,2.953228354454040527e-02,1.580196432769298553e-02,4.123875871300697327e-02,4.575796052813529968e-02,4.471512883901596069e-02,2.912671677768230438e-02,3.567560389637947083e-02,7.402506191283464432e-03,3.985907137393951416e-02,2.519914880394935608e-02,3.452319651842117310e-03,1.033148914575576782e-02,6.608016043901443481e-02,4.685760661959648132e-02,2.314251288771629333e-02,7.767690345644950867e-03,4.084769636392593384e-02,3.778384625911712646e-02,6.579820811748504639e-02,5.006585642695426941e-02,4.075500741600990295e-02,9.921812266111373901e-02,7.143564056605100632e-03,1.050788685679435730e-01,-2.981996629387140274e-03,2.972871810197830200e-02,2.705663815140724182e-02,3.124075755476951599e-02,8.199878968298435211e-03,1.977798715233802795e-02,2.961514145135879517e-02,3.220543265342712402e-02,3.753738105297088623e-02,1.307360082864761353e-02,-1.908385194838047028e-03,7.055370509624481201e-02,3.923085704445838928e-02,8.046917617321014404e-03,-5.088616628199815750e-03,7.678133994340896606e-02,3.310303390026092529e-02,1.117848418653011322e-02,5.380039662122726440e-02,1.954760029911994934e-02,5.860874056816101074e-02,7.585661113262176514e-02,3.465080261230468750e-02,1.738942414522171021e-02,5.499592423439025879e-02,4.618755076080560684e-03,7.037291675806045532e-02,3.364742547273635864e-02,6.596095860004425049e-02,7.407681085169315338e-03,7.052615284919738770e-03,7.869753241539001465e-02,7.579670846462249756e-02,5.332107096910476685e-02,2.569289505481719971e-02,1.831631921231746674e-02,4.224597662687301636e-02,1.331636309623718262e-02,1.062914263457059860e-02,9.190725535154342651e-02,1.906207948923110962e-02,4.355856776237487793e-02,-4.828412085771560669e-03,6.105406582355499268e-02,5.516603961586952209e-02,3.267771750688552856e-02,5.843034386634826660e-02,1.934548467397689819e-02,7.428142428398132324e-02,2.908180654048919678e-02,2.921318262815475464e-02,2.614708431065082550e-02,1.035821158438920975e-02,7.548862602561712265e-03,7.179409265518188477e-02,-4.386133980005979538e-03,1.856496743857860565e-02,-7.756541669368743896e-02,1.362490234896540642e-03,9.259035810828208923e-03,3.258810192346572876e-02,4.034200683236122131e-03,5.646417289972305298e-02,4.148757085204124451e-02,5.035946890711784363e-02,2.072993433102965355e-03,1.269323658198118210e-02,4.466266185045242310e-02,1.260913629084825516e-02,3.074447810649871826e-02,2.913740091025829315e-02,-3.866612445563077927e-03,1.162148453295230865e-02,1.128694638609886169e-01,5.169069766998291016e-02,1.319237239658832550e-02,1.381323672831058502e-03,5.706853792071342468e-02,2.036949247121810913e-02,1.469782926142215729e-02,2.395685203373432159e-02,-1.280069537460803986e-02,2.681077644228935242e-02,1.482610590755939484e-02,1.641614362597465515e-03,5.088654160499572754e-02,4.738786071538925171e-02,2.058900892734527588e-03,3.588604927062988281e-02,4.357807338237762451e-02,1.770596206188201904e-02,2.721528895199298859e-02,1.238179579377174377e-02,2.312752231955528259e-02,3.320242278277873993e-03,3.086473233997821808e-02,5.059440433979034424e-02,3.133929893374443054e-02,5.374083295464515686e-03,1.434541027992963791e-02,3.905247524380683899e-02,1.024104841053485870e-02,3.961709141731262207e-02,7.409784197807312012e-02,3.823753446340560913e-02,1.526209898293018341e-02,1.012948807328939438e-02,2.954315859824419022e-03,1.334371790289878845e-02,7.039932161569595337e-02,4.565011709928512573e-02,4.712085798382759094e-02,5.054029822349548340e-02,6.364411860704421997e-02,2.389649674296379089e-02,2.184688299894332886e-02,9.994981810450553894e-03,3.674763068556785583e-02,5.530582368373870850e-02,2.409114688634872437e-02,2.217496931552886963e-02,1.341502275317907333e-02,4.651877656579017639e-02,-5.980487912893295288e-04,2.819062024354934692e-02,1.336445845663547516e-02,1.652184315025806427e-02,4.478078335523605347e-02,4.771109670400619507e-02,1.874344795942306519e-02,3.272049874067306519e-02,9.383758902549743652e-02,5.565835162997245789e-02,1.850356347858905792e-02,1.626922562718391418e-02,2.102440595626831055e-02,-6.358237937092781067e-03,2.215280570089817047e-02,5.214470997452735901e-02,3.983145952224731445e-02,3.652593120932579041e-02,-1.162648387253284454e-02,7.380820810794830322e-02,4.524258524179458618e-02,3.729484230279922485e-02,2.583217620849609375e-02,-1.246154075488448143e-03,6.177787482738494873e-02,2.866721153259277344e-02,7.024301216006278992e-03,7.351426780223846436e-02,3.813482448458671570e-02,3.895885497331619263e-02,2.362380176782608032e-02,-3.476049052551388741e-03,6.521734595298767090e-02,3.827095776796340942e-02,6.863452494144439697e-02,3.907755017280578613e-02,5.907399952411651611e-02,9.380045533180236816e-02,5.343943089246749878e-02,1.448084414005279541e-02,1.237167604267597198e-02,4.751030355691909790e-03,4.698229208588600159e-02,1.341487839818000793e-02,4.859043285250663757e-02,2.962603233754634857e-02,4.326217994093894958e-02,4.882691428065299988e-04,3.333911299705505371e-02,4.372196272015571594e-02,-1.558749470859766006e-03,1.622460409998893738e-02,3.704160824418067932e-02,5.370004102587699890e-02,-6.112552713602781296e-03,8.307008072733879089e-03,1.141264662146568298e-01,2.926902472972869873e-02,3.714469075202941895e-02,5.258120968937873840e-02,3.999533504247665405e-02,5.345475673675537109e-02,3.445817530155181885e-02,7.939215749502182007e-03,9.491136297583580017e-04,4.008774459362030029e-02,5.924447998404502869e-02,4.368429630994796753e-02,3.912410885095596313e-02,1.837054193019866943e-01,4.203943535685539246e-02,3.250721842050552368e-02,1.457148231565952301e-03,2.244677860289812088e-03,2.916023693978786469e-02,3.796771168708801270e-02,1.298520527780056000e-02,5.164505913853645325e-03,-3.907978534698486328e-04,2.738544158637523651e-02,1.929174922406673431e-02,1.135387737303972244e-02,7.003492116928100586e-02,4.210194945335388184e-02,3.371155261993408203e-02,-4.121997393667697906e-03,3.905919939279556274e-02,3.865874186158180237e-02,5.396883934736251831e-02,4.131718724966049194e-02,1.412043534219264984e-02,-4.066008143126964569e-03,1.609292253851890564e-02,6.148390471935272217e-02,1.141489855945110321e-02,9.536506980657577515e-02,2.612603455781936646e-02,3.764222189784049988e-02,2.119256369769573212e-02,3.881617635488510132e-02,2.532840147614479065e-02,2.853540889918804169e-02,3.945480287075042725e-02,2.404337748885154724e-02,1.702200062572956085e-02,5.085612088441848755e-02,2.662041783332824707e-02,6.820688396692276001e-02,3.659375011920928955e-02,4.192905128002166748e-02,4.321055114269256592e-02,4.148698225617408752e-02,6.414991617202758789e-02,2.992255613207817078e-03,1.823746971786022186e-02,2.245082054287195206e-03,9.846862405538558960e-02,5.558085069060325623e-02,2.615734562277793884e-02,3.892088681459426880e-02,1.539256051182746887e-02,8.907400071620941162e-03,2.322696521878242493e-02,1.119785830378532410e-01,1.006249487400054932e-01,4.040900990366935730e-02,3.630337864160537720e-02,5.563831701874732971e-02,3.790972754359245300e-02,3.268512710928916931e-02,1.861163601279258728e-02,-6.157960742712020874e-04,1.029315497726202011e-02,2.333470247685909271e-02,1.416351050138473511e-01,3.469592332839965820e-02,5.503423884510993958e-02,2.080482430756092072e-02,1.668519526720046997e-02,2.707345783710479736e-02,2.643395587801933289e-02,3.786923363804817200e-02,4.875606298446655273e-02,1.556881889700889587e-02,7.369653135538101196e-02,4.030322283506393433e-02,2.888723462820053101e-02,3.328420221805572510e-02,7.724438607692718506e-02,1.653778366744518280e-02,4.567581042647361755e-02,1.437692809849977493e-02,2.436219342052936554e-02,1.142939701676368713e-01,4.182705283164978027e-02,1.173918880522251129e-02,3.902060538530349731e-02,5.237204581499099731e-02,5.445241183042526245e-02,2.663956396281719208e-02,2.651633881032466888e-02,7.683519273996353149e-02,5.352592840790748596e-02,3.227286785840988159e-02,2.349831163883209229e-02,3.154137358069419861e-02,3.767689317464828491e-02,4.319966584444046021e-02,4.718228429555892944e-02,6.708531826734542847e-02,4.040373861789703369e-02,5.296296905726194382e-03,3.388408198952674866e-02,-5.116865038871765137e-02,3.099423646926879883e-02,7.350535131990909576e-03,2.769748121500015259e-02,5.574809014797210693e-02,-1.080002076923847198e-02,3.900510445237159729e-02,1.885153353214263916e-02,6.387363374233245850e-02,1.182617768645286560e-01,1.383170019835233688e-02,8.891863375902175903e-02,9.179379045963287354e-02,8.636908233165740967e-02,1.940072886645793915e-02,1.715595275163650513e-02,1.702546142041683197e-02,7.013523951172828674e-03,9.372700005769729614e-03,4.508488997817039490e-02,1.445253472775220871e-02,1.660463400185108185e-02,-3.420738037675619125e-03,4.715999960899353027e-02,4.314832389354705811e-02,4.014200717210769653e-02,1.008511986583471298e-02,-7.793953176587820053e-03,1.026045382022857666e-01,3.053007461130619049e-02,2.009044028818607330e-02,6.849814951419830322e-02,8.607083000242710114e-03,1.434435136616230011e-02,3.422059863805770874e-02,2.654742822051048279e-02,1.728223636746406555e-02,2.774205245077610016e-02,5.891675502061843872e-02,7.065939903259277344e-02,2.673635631799697876e-02,6.476285308599472046e-02,4.487643018364906311e-03,6.699720025062561035e-02,9.470595046877861023e-03,9.520202875137329102e-03,1.649270951747894287e-02,2.609856612980365753e-02,5.763429030776023865e-02,2.905229292809963226e-02,3.430106490850448608e-02,5.760516971349716187e-02,5.245446041226387024e-02,1.959819905459880829e-02,4.402386397123336792e-02,5.746210366487503052e-02,1.108425948768854141e-02,2.571005187928676605e-02,1.155748777091503143e-02,4.744505975395441055e-03,1.509201824665069580e-01,2.914876863360404968e-02,3.562476113438606262e-02,4.234898835420608521e-03,2.355864830315113068e-02,4.927933588624000549e-02,2.184035442769527435e-02,3.209753334522247314e-02,1.841342635452747345e-02,6.948977708816528320e-03,-1.228659134358167648e-02,4.741999786347150803e-03,3.049832209944725037e-02,1.989661529660224915e-02,3.480194136500358582e-02,2.075041644275188446e-02,8.876995183527469635e-03,1.559730339795351028e-02,1.259280294179916382e-01,9.514798223972320557e-02,4.480745643377304077e-02,1.585702598094940186e-02,3.083516471087932587e-02,2.166307158768177032e-02,6.687861680984497070e-02,4.725713282823562622e-02,3.117494285106658936e-03,2.066712826490402222e-03,2.063512243330478668e-02,-2.156196162104606628e-03,1.127800531685352325e-02,5.804484337568283081e-02,7.083252817392349243e-02,4.000122845172882080e-02,1.042068563401699066e-02,3.229844570159912109e-02,1.430758275091648102e-02,3.129014372825622559e-02,5.275552719831466675e-02,6.287000328302383423e-02,9.436938911676406860e-03,7.100756466388702393e-02,1.471835561096668243e-02,6.332036852836608887e-02,4.583999887108802795e-02,-1.339274458587169647e-04,6.977048516273498535e-02,2.006443776190280914e-02,9.655480086803436279e-02,4.625773057341575623e-02,2.969488874077796936e-02,7.186332345008850098e-02,2.960093319416046143e-02,6.159833073616027832e-02,1.879845745861530304e-02,3.741450607776641846e-02,4.478916525840759277e-02,6.953428685665130615e-02,1.898521743714809418e-02,3.532651066780090332e-02,2.455378137528896332e-02,1.427469253540039062e-01,-1.566156279295682907e-03,3.856825456023216248e-02,4.861837252974510193e-03,-1.863265410065650940e-03,1.981375925242900848e-02,6.554193794727325439e-02,5.686539039015769958e-02,2.187251672148704529e-02,3.623800352215766907e-02,3.690855577588081360e-02,2.869328111410140991e-02,2.943744696676731110e-02,6.197464466094970703e-02,4.012988507747650146e-02,7.849537581205368042e-02,8.229015395045280457e-03,3.141074627637863159e-02,9.879162535071372986e-03,4.522454366087913513e-02,-2.397674601525068283e-03,1.482637077569961548e-01,7.174620032310485840e-02,3.471654653549194336e-02,4.153703898191452026e-02,3.528747335076332092e-02,5.921198427677154541e-02,7.774281315505504608e-03,5.246582627296447754e-02,4.588488861918449402e-02,2.577568031847476959e-02,1.848968490958213806e-02,7.350951433181762695e-02,3.522738441824913025e-02,5.006795376539230347e-02,7.221551239490509033e-02,2.957601845264434814e-02,3.631945699453353882e-02,3.993032500147819519e-02,9.421208873391151428e-03,3.677598759531974792e-02,4.057955741882324219e-02,8.451929315924644470e-04,4.470584541559219360e-02,3.474663943052291870e-02,9.149056859314441681e-03,3.242278844118118286e-02,7.356005907058715820e-02,4.437791183590888977e-02,3.530220687389373779e-02,5.385329574346542358e-02,1.384055521339178085e-02,5.320725217461585999e-02,3.183500468730926514e-02,5.605102330446243286e-02,4.518698155879974365e-02,3.917759656906127930e-02,3.043706528842449188e-02,7.866059429943561554e-03,9.443935938179492950e-03,5.187527835369110107e-02,3.900984302163124084e-02,2.984504587948322296e-02,-1.362375821918249130e-02,2.044365927577018738e-02,1.526235323399305344e-02,2.278538048267364502e-02,9.222115390002727509e-03,-8.199569769203662872e-03,1.009052060544490814e-02,6.034239754080772400e-02,4.239172488451004028e-02,2.221589721739292145e-02,1.004684269428253174e-01,2.825063467025756836e-02,6.072707474231719971e-02,3.071487322449684143e-02,3.548910096287727356e-02,5.371794104576110840e-02,1.401990354061126709e-01,4.863150417804718018e-02,2.166095003485679626e-02,5.200444161891937256e-02,2.012964710593223572e-02,2.922816574573516846e-02,2.590461075305938721e-02,8.022516034543514252e-03,2.097377739846706390e-02,7.596672512590885162e-03,5.470281466841697693e-02,3.630224615335464478e-03,5.469918996095657349e-02,6.182021927088499069e-03,1.194521971046924591e-02,4.871626198291778564e-02,4.124195873737335205e-02,5.514489859342575073e-02,2.601678110659122467e-02,9.770363569259643555e-02,3.692730888724327087e-02,2.896383777260780334e-02,1.915564015507698059e-02,8.340030163526535034e-02,-1.984468102455139160e-02,6.253234297037124634e-02,2.445092424750328064e-02,8.632089011371135712e-03,3.677752241492271423e-02,4.734923690557479858e-02,3.451386466622352600e-02,3.380905464291572571e-02,9.560754522681236267e-03,6.428150087594985962e-02,3.149220347404479980e-02,3.006281517446041107e-02,7.237166166305541992e-02,5.665517598390579224e-02,6.680763512849807739e-02,4.343502223491668701e-02,-1.401917915791273117e-02,5.891196429729461670e-02,4.625993221998214722e-02,4.279918596148490906e-02,9.089075028896331787e-03,-7.388005033135414124e-04,2.219688519835472107e-02,5.716265738010406494e-02,5.371604487299919128e-02,5.008036270737648010e-03,-4.389533773064613342e-03,4.269950464367866516e-02,3.193071484565734863e-02,7.734557986259460449e-02,2.531223744153976440e-02,2.055261097848415375e-02,1.409841142594814301e-02,1.520648226141929626e-02,1.245340406894683838e-01,1.873670518398284912e-02,9.173800051212310791e-02,4.528988897800445557e-02,3.405710682272911072e-02,9.335737675428390503e-03,3.545193374156951904e-02,3.149424120783805847e-02,3.654101118445396423e-02,2.196623757481575012e-02,4.362318664789199829e-02,2.803194336593151093e-02,8.064422011375427246e-02,1.520685479044914246e-02,4.776640329509973526e-03,1.470394711941480637e-02,8.070587366819381714e-02,4.761916399002075195e-02,2.483987249433994293e-02,2.765315957367420197e-02,1.084018871188163757e-02,3.785753250122070312e-02,1.493212766945362091e-02,7.826035842299461365e-03,1.649089902639389038e-02,4.324084520339965820e-02,-7.037319988012313843e-02,9.972454980015754700e-03,8.604697883129119873e-02,2.097116596996784210e-02,2.556032128632068634e-02,6.075011193752288818e-02,-7.247702218592166901e-03,-2.059526741504669189e-03,3.547028079628944397e-02,4.060421511530876160e-02,2.175275608897209167e-02,7.547560334205627441e-02,7.146039977669715881e-03,3.599839517846703529e-03,1.731349527835845947e-02,2.474869415163993835e-02,5.027702078223228455e-02,6.208691000938415527e-02,2.274178527295589447e-02,1.079065632075071335e-02,4.687324538826942444e-02,4.282676428556442261e-02,2.986385859549045563e-02,-7.063674274832010269e-03,2.353605814278125763e-02,3.340141475200653076e-02,1.614232733845710754e-02,6.004029884934425354e-02,-6.221841555088758469e-03,2.723856642842292786e-02,6.403043866157531738e-02,2.700384519994258881e-02,3.210986033082008362e-02,9.428298100829124451e-03,1.163599640130996704e-02,2.807695791125297546e-02,6.451036036014556885e-02,4.548541456460952759e-02,2.056362479925155640e-02,1.653289049863815308e-02,1.136673893779516220e-02,3.081331029534339905e-03,1.697344332933425903e-02,1.617053523659706116e-02,6.676492094993591309e-02,-5.266434513032436371e-03,8.202273398637771606e-02,8.296809159219264984e-03,5.054143071174621582e-02,4.105534031987190247e-02,6.210764497518539429e-02,4.007485508918762207e-02,1.875780709087848663e-02,4.533422738313674927e-02,7.333008199930191040e-02,4.245945718139410019e-03,3.089940920472145081e-02,9.265378117561340332e-02,3.060019761323928833e-02,5.158272013068199158e-02,5.236204713582992554e-03,3.014674037694931030e-02,2.938205562531948090e-02,4.774346947669982910e-02,7.897425442934036255e-02,4.012943804264068604e-02,2.353008463978767395e-02,6.928119063377380371e-02,3.477687761187553406e-02,2.432120218873023987e-02,3.887027874588966370e-02,-2.072554081678390503e-02,4.732086509466171265e-02,2.557880012318491936e-03,4.512851312756538391e-02,-1.271332986652851105e-02,5.596399307250976562e-03,2.415769267827272415e-03,6.318847835063934326e-02,6.485267728567123413e-02,2.708702906966209412e-02,2.429454028606414795e-02,-3.691275417804718018e-02,3.868081793189048767e-02,4.394201561808586121e-03,4.441299661993980408e-02,3.216432407498359680e-02,3.646877594292163849e-03,4.684165120124816895e-02,5.224213749170303345e-02,1.606434583663940430e-03,9.731508791446685791e-03,7.674367725849151611e-02,3.990432247519493103e-02,3.142056986689567566e-02,4.176601022481918335e-02,7.187325507402420044e-03,-2.382419072091579437e-02,7.485201116651296616e-03,4.364365339279174805e-02,5.110041797161102295e-02,9.418654441833496094e-02,3.478904813528060913e-02,4.324294254183769226e-02,9.508757852017879486e-03,2.056130208075046539e-02,3.746404498815536499e-02,5.382135882973670959e-02,-2.378661185503005981e-03,7.411391288042068481e-02,4.450179636478424072e-02,-3.902791999280452728e-03,2.297469973564147949e-02,4.407930187880992889e-03,-4.706072621047496796e-03,2.469862438738346100e-02,9.189942851662635803e-03,2.433915250003337860e-02,5.689404532313346863e-02,5.964201688766479492e-02,5.769211798906326294e-02,4.286943748593330383e-02,5.896940082311630249e-02,2.471841126680374146e-02,3.923365101218223572e-02,5.379404127597808838e-02,1.602590084075927734e-02,-5.355615634471178055e-03,2.191162109375000000e-02,5.732958018779754639e-02,3.161346167325973511e-02,5.786888673901557922e-02,-3.603830002248287201e-03,2.633199095726013184e-02,2.130773104727268219e-02,5.076901987195014954e-02,2.619014307856559753e-02,1.648451946675777435e-02,2.134508639574050903e-02,6.931053102016448975e-02,3.785299137234687805e-02,2.128925919532775879e-02,6.005905568599700928e-02,4.224409162998199463e-02,4.093608632683753967e-02,3.956378251314163208e-02,1.283158268779516220e-02,5.456678569316864014e-03,6.890781223773956299e-02,1.387576200067996979e-02,2.320901863276958466e-02,1.629783771932125092e-02,1.796677522361278534e-02,4.450388997793197632e-02,1.046316139400005341e-02,4.904085397720336914e-02,2.857619896531105042e-02,1.264050416648387909e-02,4.384439066052436829e-02,5.157504230737686157e-02,2.283557876944541931e-02,5.414782091975212097e-02,5.813943222165107727e-03,4.160920530557632446e-02,-1.913551986217498779e-02,-2.065629698336124420e-03,5.301346629858016968e-02,5.819640308618545532e-02,2.361737564206123352e-02,2.024215087294578552e-02,6.063826382160186768e-02,-6.182707473635673523e-02,9.462387859821319580e-02,1.461033374071121216e-01,-4.296544939279556274e-02,3.079104050993919373e-02,2.054585143923759460e-03,8.487273007631301880e-02,7.547076046466827393e-02,2.664394304156303406e-02,2.644390985369682312e-02,5.865621566772460938e-02,5.461706221103668213e-02,4.008984193205833435e-03,8.225902169942855835e-02,3.995840996503829956e-02,2.134018577635288239e-02,1.853138022124767303e-02,1.018393784761428833e-01,-4.379636608064174652e-03,2.156769484281539917e-02,9.764255583286285400e-02,1.000965945422649384e-02,1.918435655534267426e-02,1.656606607139110565e-02,9.985447861254215240e-03,4.348319023847579956e-02,1.193460151553153992e-01,4.261545091867446899e-02,1.638300716876983643e-02,1.021164003759622574e-03,1.064653247594833374e-01,2.552237920463085175e-02,2.002151682972908020e-02,1.058517210185527802e-02,1.259970851242542267e-02,4.950295388698577881e-02,2.754702419042587280e-02,3.290297836065292358e-02,1.398613117635250092e-02,-1.734544895589351654e-02,5.621351674199104309e-02,3.119258955121040344e-02,-2.579991705715656281e-03,1.058574989438056946e-01,2.233145385980606079e-02,4.349862784147262573e-02,-3.643007948994636536e-03,4.532524198293685913e-02,1.847613370046019554e-03,-1.264651026576757431e-02,7.883046567440032959e-02,1.210083067417144775e-02,4.654731601476669312e-02,4.695009440183639526e-02,3.970288112759590149e-02,3.039974346756935120e-02,3.901150077581405640e-02,1.514682266861200333e-02
2.291605435311794281e-02,5.666083842515945435e-02,2.927957102656364441e-02,2.188809961080551147e-02,5.191078409552574158e-03,6.090404093265533447e-02,2.031924016773700714e-02,4.922374337911605835e-02,4.203791543841362000e-02,2.161924727261066437e-02,9.142583236098289490e-03,1.591929793357849121e-01,4.465627670288085938e-02,3.417291492223739624e-02,8.672556839883327484e-03,4.073469340801239014e-02,1.861028373241424561e-02,4.171419516205787659e-02,4.931125789880752563e-02,7.868509739637374878e-03,2.203066088259220123e-02,2.001272141933441162e-02,3.974495828151702881e-02,8.118209429085254669e-03,4.597410559654235840e-02,5.537418276071548462e-02,3.393141180276870728e-02,3.428142145276069641e-02,2.291818149387836456e-02,3.338214755058288574e-02,4.092768952250480652e-02,2.398126758635044098e-02,2.961265482008457184e-02,1.726014353334903717e-02,3.375451639294624329e-02,3.598495200276374817e-02,1.693563163280487061e-02,4.247986897826194763e-02,3.841686993837356567e-02,1.123839244246482849e-02,8.924629539251327515e-03,3.496377170085906982e-02,1.254624500870704651e-02,6.893490254878997803e-02,6.127145141363143921e-02,1.502395514398813248e-02,5.599319934844970703e-02,4.023144394159317017e-02,7.603207975625991821e-02,2.078869612887501717e-03,2.879558689892292023e-02,4.628615081310272217e-02,4.706559702754020691e-02,4.804134741425514221e-02,2.193672396242618561e-02,1.527831144630908966e-02,1.311819255352020264e-01,5.449039861559867859e-02,1.249300781637430191e-02,2.840128913521766663e-02,3.486244380474090576e-02,6.262416392564773560e-02,2.522312663495540619e-02,1.857733167707920074e-02,1.642296463251113892e-02,5.166119337081909180e-02,3.732160478830337524e-02,5.405033007264137268e-02,9.336428716778755188e-03,1.519598532468080521e-02,5.062028765678405762e-02,4.148449376225471497e-02,2.896164357662200928e-02,5.465981364250183105e-02,8.094545453786849976e-02,9.074603207409381866e-03,4.314271733164787292e-03,3.353510424494743347e-02,4.262761026620864868e-02,1.504078507423400879e-02,3.317080065608024597e-02,3.094770759344100952e-02,1.910223811864852905e-02,2.286757156252861023e-02,5.328262224793434143e-03,2.520143240690231323e-02,4.075993597507476807e-02,3.588968515396118164e-02,2.681474387645721436e-02,1.386122126132249832e-02,4.037281870841979980e-02,3.893053531646728516e-02,2.901089563965797424e-02,2.139307186007499695e-02,5.777709186077117920e-02,-5.407439544796943665e-03,5.730558931827545166e-02,1.081336103379726410e-02,8.860880136489868164e-02,3.085782751441001892e-03,4.926438257098197937e-02,4.235904663801193237e-02,4.482975602149963379e-02,1.351259928196668625e-02,3.798751533031463623e-02,1.954242959618568420e-02,2.911454811692237854e-02,3.188594803214073181e-02,4.173205792903900146e-02,2.216525934636592865e-02,3.174875304102897644e-02,8.573181927204132080e-03,6.037770956754684448e-02,3.568031266331672668e-02,4.027253389358520508e-02,1.641885377466678619e-02,1.013739332556724548e-01,2.213899791240692139e-02,5.335102975368499756e-02,1.256699208170175552e-02,4.606593027710914612e-02,3.400614485144615173e-02,1.313497871160507202e-02,7.371275126934051514e-02,1.543830521404743195e-02,4.971069283783435822e-03,6.638664007186889648e-02,3.222570940852165222e-02,9.920819662511348724e-03,3.493824601173400879e-02,1.799345761537551880e-02,5.695023760199546814e-02,2.095049992203712463e-02,1.501014363020658493e-02,3.938897699117660522e-02,1.705424860119819641e-02,9.610854089260101318e-03,3.374417498707771301e-02,2.476508170366287231e-02,1.179329771548509598e-02,2.878679893910884857e-02,9.131708741188049316e-02,2.509784139692783356e-02,3.879923000931739807e-02,3.669921308755874634e-02,1.603638380765914917e-02,6.609994452446699142e-03,1.662016846239566803e-02,3.174775838851928711e-02,3.581736981868743896e-02,2.202915214002132416e-02,2.098770439624786377e-02,7.130189239978790283e-02,3.229697048664093018e-02,1.775227859616279602e-02,3.116755187511444092e-02,1.721032708883285522e-02,2.271935157477855682e-02,-7.684025913476943970e-04,1.934645324945449829e-02,2.668486535549163818e-02,3.723368793725967407e-02,1.847361586987972260e-02,4.708570241928100586e-02,2.608192339539527893e-02,4.346314817667007446e-02,4.852417483925819397e-02,3.321729227900505066e-02,1.616481132805347443e-02,3.895477578043937683e-02,4.445927590131759644e-02,5.314114689826965332e-02,3.262139484286308289e-02,2.649166807532310486e-02,7.396418601274490356e-03,3.196785226464271545e-02,2.397910319268703461e-02,3.474992234259843826e-03,1.965100318193435669e-02,6.777790933847427368e-02,5.686272308230400085e-02,2.540736831724643707e-02,7.711471989750862122e-03,4.186445474624633789e-02,3.776676207780838013e-02,3.932191431522369385e-02,5.437232181429862976e-02,4.759235680103302002e-02,8.650498092174530029e-02,2.319760993123054504e-02,9.476013481616973877e-02,8.169569075107574463e-03,2.984940446913242340e-02,2.162907645106315613e-02,3.351053968071937561e-02,1.088055036962032318e-02,2.757146954536437988e-02,3.779659792780876160e-02,3.495132178068161011e-02,4.177445173263549805e-02,3.373339027166366577e-02,2.087703719735145569e-02,6.150082498788833618e-02,4.199305176734924316e-02,2.477982267737388611e-02,5.954739172011613846e-04,5.123472958803176880e-02,3.304345905780792236e-02,1.118066534399986267e-02,3.490295261144638062e-02,2.400019019842147827e-02,3.952295705676078796e-02,5.316180735826492310e-02,2.717901766300201416e-02,2.015380561351776123e-02,3.745602071285247803e-02,4.753218963742256165e-03,8.154554665088653564e-02,3.392169252038002014e-02,5.575941130518913269e-02,6.370259076356887817e-02,1.517875865101814270e-02,5.942932143807411194e-02,7.033108174800872803e-02,4.687597975134849548e-02,3.261426091194152832e-02,2.191742509603500366e-02,4.018175229430198669e-02,1.343261078000068665e-02,1.998949423432350159e-02,7.133562862873077393e-02,3.108886536210775375e-03,3.438544273376464844e-02,-4.740340635180473328e-03,5.042556673288345337e-02,3.362886235117912292e-02,3.456389531493186951e-02,6.422351300716400146e-02,1.960152760148048401e-02,7.339340448379516602e-02,2.754223719239234924e-02,2.800590917468070984e-02,2.718541771173477173e-02,1.362236961722373962e-02,1.873989775776863098e-02,6.874821335077285767e-02,1.344801858067512512e-02,2.272959798574447632e-02,1.012090444564819336e-01,1.389115815982222557e-03,1.195701770484447479e-02,2.707087434828281403e-02,3.837386146187782288e-03,6.260561943054199219e-02,4.147445410490036011e-02,3.935233503580093384e-02,5.867742933332920074e-03,1.981441304087638855e-02,4.316120222210884094e-02,1.245454140007495880e-02,3.086030855774879456e-02,3.531557321548461914e-02,-3.714012447744607925e-03,1.156320143491029739e-02,1.291292756795883179e-01,3.620447963476181030e-02,4.032639786601066589e-03,1.366917975246906281e-03,5.843270942568778992e-02,2.393547631800174713e-02,2.117788046598434448e-02,1.704038679599761963e-02,8.786547929048538208e-03,3.007995337247848511e-02,1.694194786250591278e-02,8.780458010733127594e-03,5.242409557104110718e-02,4.880103841423988342e-02,5.198607221245765686e-03,3.839508444070816040e-02,2.715724520385265350e-02,2.306308224797248840e-02,2.653417177498340607e-02,1.980978995561599731e-02,2.295265905559062958e-02,1.933332160115242004e-02,3.061140701174736023e-02,5.254795774817466736e-02,5.770581215620040894e-02,6.132243201136589050e-03,2.211417257785797119e-02,3.770669922232627869e-02,1.115909032523632050e-02,3.386083617806434631e-02,4.900582879781723022e-02,3.819812461733818054e-02,1.829289831221103668e-02,1.055662520229816437e-02,2.957510761916637421e-03,1.675718650221824646e-02,5.584239214658737183e-02,5.476132780313491821e-02,3.663425147533416748e-02,4.090755060315132141e-02,3.677984327077865601e-02,2.602822706103324890e-02,2.575904689729213715e-02,1.520440448075532913e-02,4.899331927299499512e-02,4.180740565061569214e-02,2.966693043708801270e-02,2.416712976992130280e-02,1.931419223546981812e-02,2.582511492073535919e-02,2.013035118579864502e-02,2.816346660256385803e-02,1.170457061380147934e-02,2.832358516752719879e-02,4.688011854887008667e-02,4.773270338773727417e-02,1.365391351282596588e-02,3.288784623146057129e-02,7.989075034856796265e-02,5.578032881021499634e-02,2.131822705268859863e-02,2.133224532008171082e-02,2.186122164130210876e-02,1.423227787017822266e-02,2.857618033885955811e-02,2.429899573326110840e-02,3.606134653091430664e-02,3.801467269659042358e-02,-8.363729342818260193e-03,4.477550834417343140e-02,4.015034437179565430e-02,3.435149416327476501e-02,3.230654448270797729e-02,-1.198637532070279121e-03,5.938923731446266174e-02,2.735348790884017944e-02,6.856510415673255920e-03,5.094847455620765686e-02,2.093073539435863495e-02,3.235911577939987183e-02,2.367079630494117737e-02,2.534421347081661224e-02,5.292784422636032104e-02,4.044703766703605652e-02,5.037496611475944519e-02,1.823423057794570923e-02,4.684305191040039062e-02,8.510624617338180542e-02,5.195017904043197632e-02,1.968893781304359436e-02,1.241901889443397522e-02,4.554104059934616089e-03,3.031640499830245972e-02,1.260416861623525620e-02,4.449576884508132935e-02,2.555428259074687958e-02,3.877307847142219543e-02,1.305188331753015518e-02,2.092526108026504517e-02,4.113836586475372314e-02,7.041481323540210724e-03,1.763030514121055603e-02,3.267417103052139282e-02,2.971657738089561462e-02,3.521262900903820992e-03,1.418289914727210999e-02,8.410189300775527954e-02,6.054825335741043091e-02,3.442964330315589905e-02,5.020292103290557861e-02,4.090692102909088135e-02,6.449418514966964722e-02,1.180942915380001068e-02,1.308992970734834671e-02,8.574554696679115295e-03,3.341127559542655945e-02,7.028553634881973267e-02,2.979269996285438538e-02,3.909908980131149292e-02,1.545272171497344971e-01,3.377208113670349121e-02,3.230176120996475220e-02,1.230699382722377777e-02,5.359797738492488861e-03,2.812403254210948944e-02,3.790745884180068970e-02,1.358725503087043762e-02,1.211921591311693192e-02,2.762843854725360870e-02,2.671122550964355469e-02,2.464003488421440125e-02,1.418239995837211609e-02,4.547533392906188965e-02,4.561376199126243591e-02,3.003905341029167175e-02,9.964173659682273865e-03,3.991302847862243652e-02,3.862579166889190674e-02,5.369038134813308716e-02,4.242672771215438843e-02,1.859379932284355164e-02,5.993777886033058167e-03,1.600813493132591248e-02,4.948564991354942322e-02,1.884032785892486572e-02,1.056643798947334290e-01,2.647134289145469666e-02,1.926103793084621429e-02,2.338313870131969452e-02,2.818659693002700806e-02,2.626394107937812805e-02,2.991353347897529602e-02,3.941066563129425049e-02,3.246710076928138733e-02,1.700772158801555634e-02,5.333255231380462646e-02,3.311222046613693237e-02,5.876620858907699585e-02,3.756981343030929565e-02,4.062586277723312378e-02,5.724075064063072205e-02,4.214850813150405884e-02,5.016004294157028198e-02,3.067103959619998932e-02,1.978549733757972717e-02,6.829456891864538193e-03,9.531104564666748047e-02,3.203105181455612183e-02,2.839239314198493958e-02,4.700320214033126831e-02,2.001628838479518890e-02,1.529377605766057968e-02,2.602938190102577209e-02,1.278152614831924438e-01,1.128937155008316040e-01,4.035210609436035156e-02,2.384926751255989075e-02,4.556749761104583740e-02,3.826993331313133240e-02,3.937840089201927185e-02,2.185532636940479279e-02,-2.838419750332832336e-04,7.784493267536163330e-03,2.580575272440910339e-02,1.552735120058059692e-01,2.542698383331298828e-02,4.576011747121810913e-02,2.248172275722026825e-02,2.388114482164382935e-02,2.704300731420516968e-02,2.882455289363861084e-02,4.538121819496154785e-02,3.996942564845085144e-02,3.123419359326362610e-02,5.009313672780990601e-02,4.281131550669670105e-02,3.226121142506599426e-02,6.181961297988891602e-02,7.726860046386718750e-02,1.273487694561481476e-02,5.017303675413131714e-02,2.017701789736747742e-02,2.508510276675224304e-02,1.052504330873489380e-01,2.454429306089878082e-02,4.524668678641319275e-03,3.911917656660079956e-02,4.580105841159820557e-02,6.480191648006439209e-02,2.658521570265293121e-02,2.536863088607788086e-02,5.921327695250511169e-02,2.538321167230606079e-02,3.662892431020736694e-02,2.049300074577331543e-02,3.530940413475036621e-02,3.465638309717178345e-02,2.458730340003967285e-02,4.368029534816741943e-02,6.123285740613937378e-02,4.037290066480636597e-02,1.305421441793441772e-02,2.447303198277950287e-02,7.442595809698104858e-02,3.254675492644309998e-02,1.153663545846939087e-02,3.511913865804672241e-02,4.844205826520919800e-02,2.125803381204605103e-02,3.896478191018104553e-02,2.198575064539909363e-02,3.469515591859817505e-02,1.334153115749359131e-01,1.382179092615842819e-02,7.073176652193069458e-02,1.041839867830276489e-01,7.171575725078582764e-02,1.938370801508426666e-02,2.016837522387504578e-02,2.074071392416954041e-02,4.942007362842559814e-04,1.596467569470405579e-02,3.238112851977348328e-02,1.015075575560331345e-02,1.563756726682186127e-02,1.338146626949310303e-02,3.095389343798160553e-02,4.233540594577789307e-02,1.872981898486614227e-02,9.980348870158195496e-03,-1.185889821499586105e-03,8.163960278034210205e-02,2.481980063021183014e-02,2.616772428154945374e-02,8.197819441556930542e-02,4.791598767042160034e-03,1.583327539265155792e-02,3.676981478929519653e-02,2.417045459151268005e-02,3.203320503234863281e-02,2.690135315060615540e-02,5.699891224503517151e-02,6.944128870964050293e-02,2.912830375134944916e-02,6.169253587722778320e-02,-2.491269260644912720e-03,7.484460622072219849e-02,1.116891391575336456e-02,1.478751096874475479e-02,2.170576155185699463e-02,1.867530308663845062e-02,6.991367042064666748e-02,3.868956863880157471e-02,3.111257590353488922e-02,3.771614283323287964e-02,2.450270019471645355e-02,1.923915930092334747e-02,4.566931724548339844e-02,3.386015444993972778e-02,4.155903309583663940e-02,2.567645162343978882e-02,8.146488107740879059e-03,3.538984432816505432e-02,1.436382085084915161e-01,2.463060617446899414e-02,2.936444431543350220e-02,1.310824975371360779e-02,2.221629023551940918e-02,5.455063283443450928e-02,1.750121824443340302e-02,3.379767388105392456e-02,1.862146519124507904e-02,6.787741556763648987e-03,2.249035425484180450e-02,9.216998703777790070e-03,5.061443895101547241e-03,1.876934617757797241e-02,3.476295620203018188e-02,2.230399474501609802e-02,9.083515033125877380e-03,9.145150892436504364e-03,1.230998039245605469e-01,8.510202914476394653e-02,2.773919515311717987e-02,1.486653648316860199e-02,3.093707002699375153e-02,2.058332599699497223e-02,6.300395727157592773e-02,1.216318830847740173e-02,2.241421118378639221e-02,1.731052249670028687e-02,1.976433768868446350e-02,7.659491151571273804e-03,1.632650196552276611e-02,2.689068019390106201e-02,8.209793269634246826e-02,3.772506490349769592e-02,1.771265454590320587e-02,5.040460079908370972e-02,2.257619611918926239e-02,2.096259593963623047e-02,5.107717216014862061e-02,4.966773092746734619e-02,1.872035115957260132e-02,6.270119547843933105e-02,1.463627722114324570e-02,4.869927465915679932e-02,4.105201736092567444e-02,1.099244412034749985e-02,6.045734509825706482e-02,1.547776628285646439e-02,8.562971651554107666e-02,4.833263903856277466e-02,2.970446273684501648e-02,5.896005034446716309e-02,2.751221321523189545e-02,6.531937420368194580e-02,1.920972019433975220e-02,3.346756100654602051e-02,3.905451297760009766e-02,4.954788461327552795e-02,1.935414969921112061e-02,3.898096829652786255e-02,3.192098811268806458e-02,1.214128583669662476e-01,-1.517093274742364883e-03,3.993875160813331604e-02,4.708625376224517822e-03,1.595959253609180450e-02,1.973166316747665405e-02,4.967905580997467041e-02,4.545237123966217041e-02,2.568243071436882019e-02,3.619453310966491699e-02,3.683499619364738464e-02,2.025308459997177124e-02,3.071330860257148743e-02,4.316337034106254578e-02,4.077939689159393311e-02,9.180198609828948975e-02,7.006223779171705246e-03,2.799793146550655365e-02,1.577579788863658905e-02,5.144470185041427612e-02,8.486066944897174835e-04,1.426970660686492920e-01,8.096894621849060059e-02,3.475293517112731934e-02,4.242626577615737915e-02,4.057432711124420166e-02,5.930561572313308716e-02,1.020808424800634384e-02,6.065425649285316467e-02,4.378277063369750977e-02,3.073343075811862946e-02,1.893858611583709717e-02,7.004660367965698242e-02,3.438583016395568848e-02,5.941762030124664307e-02,8.067405223846435547e-02,2.948126383125782013e-02,3.640294820070266724e-02,3.991240262985229492e-02,9.817653335630893707e-03,3.858635574579238892e-02,3.656799346208572388e-02,8.904123678803443909e-03,5.367717891931533813e-02,2.203110046684741974e-02,9.330935776233673096e-03,3.136388212442398071e-02,5.022180080413818359e-02,3.874495625495910645e-02,3.556014224886894226e-02,5.198553949594497681e-02,1.380578428506851196e-02,5.436412990093231201e-02,4.012499749660491943e-02,4.669679701328277588e-02,2.685545943677425385e-02,4.213954135775566101e-02,2.519363909959793091e-02,7.875708863139152527e-03,9.448022581636905670e-03,4.459090530872344971e-02,4.054780304431915283e-02,3.523558750748634338e-02,1.505574677139520645e-02,1.832959614694118500e-02,3.024564124643802643e-02,2.752125076949596405e-02,7.006817311048507690e-02,9.607954416424036026e-05,2.458981424570083618e-02,4.236111417412757874e-02,3.698594123125076294e-02,2.264664322137832642e-02,1.110843643546104431e-01,2.227614261209964752e-02,6.313972920179367065e-02,3.225897252559661865e-02,3.598899021744728088e-02,4.757232218980789185e-02,1.452189832925796509e-01,4.590376093983650208e-02,2.402618899941444397e-02,4.337618872523307800e-02,2.424375899136066437e-02,3.575361892580986023e-02,2.709198370575904846e-02,5.885758996009826660e-02,1.892561838030815125e-02,1.007207296788692474e-02,6.119988858699798584e-02,1.884892582893371582e-02,5.607200413942337036e-02,1.468676887452602386e-02,2.564606443047523499e-02,2.477716282010078430e-02,4.632777720689773560e-02,5.404390394687652588e-02,2.711107581853866577e-02,7.898635417222976685e-02,3.684728220105171204e-02,3.275694325566291809e-02,1.378558296710252762e-02,7.787032425403594971e-02,1.571866869926452637e-02,7.738140970468521118e-02,2.070603147149085999e-02,2.504859119653701782e-02,3.854791074991226196e-02,4.941433295607566833e-02,3.433889895677566528e-02,3.644688799977302551e-02,9.614391252398490906e-03,5.312019586563110352e-02,3.138565272092819214e-02,3.681448847055435181e-02,5.147802457213401794e-02,3.387201577425003052e-02,5.844573676586151123e-02,3.890051692724227905e-02,7.408076897263526917e-03,5.619494616985321045e-02,6.026963517069816589e-02,4.742207005620002747e-02,1.487760059535503387e-02,9.482673369348049164e-03,2.829200401902198792e-02,6.147966533899307251e-02,4.864153265953063965e-02,5.132685415446758270e-03,7.484789006412029266e-03,3.554769605398178101e-02,6.711355596780776978e-02,9.393215179443359375e-02,3.212337940931320190e-02,2.150815352797508240e-02,3.082065284252166748e-02,2.284351736307144165e-02,1.343698501586914062e-01,2.353802695870399475e-02,1.062187999486923218e-01,4.869212955236434937e-02,4.035514593124389648e-02,1.473660394549369812e-02,3.595067560672760010e-02,2.126085199415683746e-02,5.897329002618789673e-02,2.017722651362419128e-02,3.777818754315376282e-02,3.128486499190330505e-02,9.680311381816864014e-02,1.756927743554115295e-02,9.989097714424133301e-03,2.030474506318569183e-02,7.108151912689208984e-02,2.957675606012344360e-02,2.536560036242008209e-02,2.724119648337364197e-02,1.319041289389133453e-02,3.107568249106407166e-02,1.630882732570171356e-02,1.049650926142930984e-02,2.357948757708072662e-02,2.266342379152774811e-02,9.176180511713027954e-02,1.576566323637962341e-02,6.865575909614562988e-02,2.331024967133998871e-02,2.694403938949108124e-02,5.128371715545654297e-02,2.082875557243824005e-02,1.593599095940589905e-03,4.292788356542587280e-02,3.129823505878448486e-02,3.156187757849693298e-02,8.603956550359725952e-02,1.986088603734970093e-02,1.502704806625843048e-02,1.970869116485118866e-02,3.128675743937492371e-02,3.674798458814620972e-02,6.670716404914855957e-02,1.758300513029098511e-02,6.655398011207580566e-02,2.919064462184906006e-02,4.334515333175659180e-02,2.985115163028240204e-02,4.970577079802751541e-03,2.468283101916313171e-02,1.702386513352394104e-02,4.291731864213943481e-02,4.410533607006072998e-02,9.557696990668773651e-03,2.697038650512695312e-02,4.934927076101303101e-02,2.686660736799240112e-02,3.155526146292686462e-02,1.722896657884120941e-02,2.706091105937957764e-02,2.806093357503414154e-02,6.948766857385635376e-02,5.393837392330169678e-02,2.236523851752281189e-02,3.619719296693801880e-02,1.238691434264183044e-02,5.186375230550765991e-03,1.211442425847053528e-02,1.993733830749988556e-02,4.954689368605613708e-02,1.129964366555213928e-02,5.600090324878692627e-02,1.615946926176548004e-02,2.899982407689094543e-02,4.349892213940620422e-02,2.424844354391098022e-02,2.532310783863067627e-02,1.925860717892646790e-02,2.313629537820816040e-02,8.918398618698120117e-02,9.884972125291824341e-03,3.711468353867530823e-02,1.031364053487777710e-01,3.553084656596183777e-02,6.654411554336547852e-02,1.163825858384370804e-02,4.019043967127799988e-02,4.543319344520568848e-02,5.090208351612091064e-02,5.163508281111717224e-02,2.446139603853225708e-02,2.823360450565814972e-02,6.552264839410781860e-02,4.785792902112007141e-02,3.021284565329551697e-02,1.528551615774631500e-02,9.463097900152206421e-03,6.136150658130645752e-02,2.551037818193435669e-03,4.511497169733047485e-02,2.151355147361755371e-02,1.021931972354650497e-02,1.671313680708408356e-02,4.556046053767204285e-02,5.522388964891433716e-02,3.045507147908210754e-02,2.517965435981750488e-02,7.553853839635848999e-02,4.325233399868011475e-02,4.200410097837448120e-03,4.505605250597000122e-02,5.631460994482040405e-02,2.542319521307945251e-02,4.465426132082939148e-02,6.395152211189270020e-02,3.748225420713424683e-02,1.550545450299978256e-02,6.205035746097564697e-02,3.708419203758239746e-02,3.141595050692558289e-02,2.713790535926818848e-02,1.416627969592809677e-02,4.837435483932495117e-02,1.051685027778148651e-02,2.944973111152648926e-02,6.149170175194740295e-02,7.911588996648788452e-02,3.489404171705245972e-02,2.798494696617126465e-02,9.343312121927738190e-03,2.244890108704566956e-02,3.569336980581283569e-02,4.670447483658790588e-02,1.378804910928010941e-02,8.045533299446105957e-02,4.544501006603240967e-02,9.333321824669837952e-03,2.293605916202068329e-02,1.166259311139583588e-02,1.555959461256861687e-03,3.029378317296504974e-02,9.077800437808036804e-03,2.532499842345714569e-02,4.598288983106613159e-02,4.872114211320877075e-02,4.488744959235191345e-02,3.459614515304565430e-02,2.324023842811584473e-02,2.786222286522388458e-02,4.427818953990936279e-02,3.756823390722274780e-02,2.197685465216636658e-02,-4.992954898625612259e-03,2.601823024451732635e-02,6.010740250349044800e-02,1.469211559742689133e-02,6.319405138492584229e-02,-3.590620122849941254e-03,2.726124785840511322e-02,2.415061928331851959e-02,2.864125929772853851e-02,3.045238181948661804e-02,2.151789888739585876e-02,2.082251012325286865e-02,7.605285197496414185e-02,4.492006078362464905e-02,2.331591770052909851e-02,6.338364630937576294e-02,5.676044523715972900e-02,3.348172456026077271e-02,3.954397141933441162e-02,8.518168702721595764e-03,1.644349098205566406e-02,5.838079378008842468e-02,1.746266894042491913e-02,2.360195480287075043e-02,2.031642943620681763e-02,1.526142563670873642e-02,4.546532407402992249e-02,1.046058442443609238e-02,3.518044203519821167e-02,2.856057323515415192e-02,1.969333179295063019e-02,4.463202878832817078e-02,6.030514091253280640e-02,2.422941289842128754e-02,6.912510097026824951e-02,6.117231678217649460e-03,4.184608533978462219e-02,2.315904572606086731e-02,1.509965118020772934e-02,4.519905894994735718e-02,5.844118818640708923e-02,2.624579519033432007e-02,2.537307888269424438e-02,5.584422498941421509e-02,8.432143926620483398e-02,1.067822277545928955e-01,1.205412968993186951e-01,3.816713765263557434e-02,3.779808059334754944e-02,9.228302165865898132e-03,8.045898377895355225e-02,5.475126579403877258e-02,2.648311108350753784e-02,2.851197868585586548e-02,3.264626860618591309e-02,4.384375363588333130e-02,1.929134503006935120e-02,7.634440809488296509e-02,5.430683866143226624e-02,2.181592956185340881e-02,1.252486929297447205e-02,1.063911616802215576e-01,-1.314589753746986389e-04,2.276538126170635223e-02,8.829004317522048950e-02,5.555201321840286255e-03,2.880397439002990723e-02,2.130677923560142517e-02,1.869395561516284943e-02,3.258881717920303345e-02,1.323472857475280762e-01,-3.135890699923038483e-03,1.044335402548313141e-02,8.859429508447647095e-03,1.162656396627426147e-01,2.543397806584835052e-02,2.211271971464157104e-02,