-9.339009970426559448e-02,7.032949477434158325e-03,3.670191392302513123e-03,-2.751975879073143005e-02,-1.244392246007919312e-03,9.102909825742244720e-03,1.540819182991981506e-02,2.217605710029602051e-03,4.349950700998306274e-03,-6.826604157686233521e-02,5.373278632760047913e-02,-1.781882904469966888e-02,-5.421759560704231262e-02,2.581132575869560242e-03,2.926240861415863037e-02,4.790307581424713135e-02,2.418530173599720001e-02,3.857906535267829895e-02,-2.684297785162925720e-02,-4.101313650608062744e-02,-8.435378223657608032e-02,6.901617348194122314e-02,2.576299756765365601e-02,2.231337130069732666e-03,4.207260906696319580e-02,2.249640971422195435e-02,2.639628946781158447e-02,1.092643104493618011e-02,4.797811806201934814e-02,8.847906254231929779e-03,-4.978096857666969299e-02,5.060780048370361328e-02,7.112772762775421143e-02,3.864657133817672729e-02,3.198897466063499451e-03,-1.852439716458320618e-03,5.364241078495979309e-03,3.226504102349281311e-02,8.470863103866577148e-03,3.582267090678215027e-03,1.540531590580940247e-02,-8.364908397197723389e-03,1.847602054476737976e-02,1.039506401866674423e-02,-1.652368903160095215e-02,5.974700674414634705e-03,1.519111096858978271e-01,6.719470024108886719e-02,4.387657716870307922e-02,4.835416749119758606e-02,5.260921642184257507e-02,9.061605669558048248e-03,6.515652686357498169e-02,8.992588147521018982e-03,-2.246985957026481628e-02,5.157448723912239075e-02,5.457274988293647766e-02,-4.912538081407546997e-02,-1.803146488964557648e-02,-2.543523907661437988e-03,-5.379763245582580566e-02,4.547337070107460022e-03,5.580205470323562622e-03,-1.913248375058174133e-02,9.093228727579116821e-03,5.837666988372802734e-02,-8.264554291963577271e-02,2.998781204223632812e-02,1.075705885887145996e-02,1.150823663920164108e-02,3.039169311523437500e-02,3.426476940512657166e-02,1.943841576576232910e-03,-1.587300002574920654e-02,-5.612072721123695374e-02,-5.760822445154190063e-03,2.725990489125251770e-02,1.384534873068332672e-02,2.157412841916084290e-02,1.116874627768993378e-02,-5.597494170069694519e-02,-6.333284080028533936e-03,-8.703868836164474487e-02,1.911990344524383545e-03,-9.739294648170471191e-03,-7.990106195211410522e-02,-2.691171877086162567e-02,3.830024972558021545e-03,1.067947596311569214e-03,3.360717743635177612e-02,1.037247944623231888e-02,-2.145186066627502441e-03,5.937145277857780457e-02,-1.458971668034791946e-02,5.009868741035461426e-02,-2.683605998754501343e-02,2.260646969079971313e-02,-6.680572777986526489e-02,-1.392778567969799042e-02,3.283074870705604553e-02,4.325110465288162231e-03,8.109690994024276733e-02,-1.267492771148681641e-02,2.760396525263786316e-02,5.392240360379219055e-02,2.180842310190200806e-02,-2.156256325542926788e-02,1.556213758885860443e-02,5.284670740365982056e-02,-3.637156262993812561e-02,1.605772227048873901e-02,3.831133618950843811e-02,1.109373662620782852e-02,-4.586030542850494385e-02,-2.899902127683162689e-02,7.512534037232398987e-03,1.406689733266830444e-02,-1.875715702772140503e-02,2.118021622300148010e-02,1.084005832672119141e-02,3.799570724368095398e-03,4.079995676875114441e-02,3.083286806941032410e-03,2.611834555864334106e-02,2.683682180941104889e-02,6.163995712995529175e-02,-1.769782416522502899e-02,1.872234418988227844e-02,-2.930691093206405640e-02,-1.981672644615173340e-02,1.841371878981590271e-02,4.504275321960449219e-02,-2.465408667922019958e-02,-1.217037439346313477e-02,4.232380539178848267e-03,1.041908748447895050e-02,4.505590349435806274e-02,6.324350833892822266e-03,7.509902119636535645e-03,4.225257784128189087e-03,2.201423421502113342e-02,4.830677062273025513e-03,-2.196580171585083008e-04,4.526117071509361267e-02,3.020226396620273590e-02,4.988129064440727234e-02,1.351613551378250122e-01,-6.955660879611968994e-03,3.049272112548351288e-02,-1.493838429450988770e-02,-1.806791499257087708e-02,3.535426035523414612e-02,1.008171495050191879e-02,6.376187503337860107e-02,2.351167984306812286e-02,9.710853919386863708e-03,-1.658543944358825684e-03,-6.511200219392776489e-03,4.728687927126884460e-02,4.109311848878860474e-02,1.692428067326545715e-02,1.221228204667568207e-02,3.818338736891746521e-02,6.511969491839408875e-03,-4.272498190402984619e-02,1.190818846225738525e-03,2.978539094328880310e-03,-5.621833354234695435e-02,1.217104122042655945e-02,6.886032409965991974e-03,2.379931136965751648e-02,8.081269450485706329e-03,8.131709881126880646e-03,3.597150370478630066e-02,7.084619253873825073e-03,3.386867418885231018e-02,-8.164171874523162842e-02,1.609984040260314941e-02,-1.573227904736995697e-02,-5.654696375131607056e-03,-5.258485674858093262e-03,2.873248234391212463e-02,6.386307626962661743e-02,-5.386673659086227417e-02,6.826952099800109863e-03,4.590278118848800659e-02,1.656972989439964294e-02,3.047125600278377533e-02,2.322881296277046204e-02,4.104369878768920898e-02,5.466856062412261963e-03,3.687681630253791809e-03,1.138598471879959106e-02,1.612367294728755951e-02,-1.489637792110443115e-02,7.763393223285675049e-03,-3.308634087443351746e-02,4.986132960766553879e-03,3.668463230133056641e-02,8.814796805381774902e-03,-1.521098800003528595e-02,-2.513789013028144836e-02,2.102036401629447937e-02,3.046386316418647766e-02,-2.834084071218967438e-02,1.909824833273887634e-02,9.790783748030662537e-03,2.043565269559621811e-03,4.116783663630485535e-02,5.393479019403457642e-03,1.170105040073394775e-01,3.616785630583763123e-03,1.569655351340770721e-02,4.014927893877029419e-03,3.363850712776184082e-02,2.824954688549041748e-03,1.048186421394348145e-02,3.426772728562355042e-02,-1.292950566858053207e-02,-5.639832466840744019e-03,1.426682528108358383e-02,4.022631794214248657e-02,1.837821491062641144e-02,-3.754765540361404419e-02,-4.536746814846992493e-02,3.910522907972335815e-03,6.337501108646392822e-03,2.481280080974102020e-02,-9.788244962692260742e-03,1.457371562719345093e-02,-5.655623972415924072e-03,2.818201482295989990e-02,4.302116110920906067e-02,2.956173941493034363e-02,2.009437792003154755e-02,1.461008284240961075e-02,4.034712910652160645e-03,-2.669040113687515259e-03,-6.804810464382171631e-02,6.511111557483673096e-02,4.261231981217861176e-03,1.661473698914051056e-02,4.904834553599357605e-03,4.608917981386184692e-03,-6.935495883226394653e-03,2.702318504452705383e-02,3.443356230854988098e-02,-5.385946482419967651e-03,1.225971058011054993e-02,-1.425465196371078491e-02,-2.619214355945587158e-04,5.350994318723678589e-02,1.652741059660911560e-02,8.565297350287437439e-03,6.154106929898262024e-03,9.827972948551177979e-02,6.886769086122512817e-03,-8.084495365619659424e-02,1.182378828525543213e-02,-1.438800245523452759e-05,-1.797745749354362488e-02,-4.614990204572677612e-03,1.299861259758472443e-02,3.890156000852584839e-02,-3.862301632761955261e-02,-2.409890294075012207e-03,3.723194822669029236e-03,1.185464020818471909e-02,4.276249185204505920e-02,1.274087000638246536e-02,2.153448387980461121e-02,5.575431138277053833e-02,-2.533763647079467773e-03,-2.222983166575431824e-02,7.069129496812820435e-03,-7.465502247214317322e-03,3.713250532746315002e-02,1.521230190992355347e-01,5.585806816816329956e-02,2.420652657747268677e-02,5.850221961736679077e-02,1.420491933822631836e-02,3.143902868032455444e-02,-9.342472068965435028e-03,-3.997972980141639709e-02,1.217748522758483887e-01,9.647445753216743469e-03,-1.188133470714092255e-02,6.576919555664062500e-02,2.384859696030616760e-02,1.989330910146236420e-02,7.238520309329032898e-03,2.825186774134635925e-02,1.155355386435985565e-02,1.495128720998764038e-01,6.884923204779624939e-03,7.628904283046722412e-02,4.014131426811218262e-02,-4.389600828289985657e-02,5.475918948650360107e-02,3.263141587376594543e-02,3.683213144540786743e-04,1.921290531754493713e-03,-6.695474684238433838e-02,8.177392184734344482e-03,1.522837486118078232e-02,1.658667996525764465e-02,2.621396072208881378e-02,3.305057808756828308e-02,2.296833321452140808e-02,4.758092761039733887e-02,2.784680807963013649e-03,-3.181634098291397095e-02,-1.522948220372200012e-02,1.887398213148117065e-02,-1.242018118500709534e-02,-5.533061176538467407e-02,3.243777528405189514e-02,4.824594408273696899e-02,-3.764403238892555237e-02,-6.765220314264297485e-02,-3.732676804065704346e-02,3.726686537265777588e-02,2.519319392740726471e-02,4.432487487792968750e-02,3.193994611501693726e-02,1.502976659685373306e-02,3.406606987118721008e-02,3.007593564689159393e-02,1.896707713603973389e-02,-7.218245416879653931e-03,4.346549138426780701e-02,-2.907899022102355957e-02,-7.791683822870254517e-02,4.336148872971534729e-02,3.428464382886886597e-02,2.903623878955841064e-02,-3.751183860003948212e-03,-7.861393503844738007e-03,3.330735862255096436e-02,4.389088973402976990e-02,-1.103967521339654922e-02,1.281356252729892731e-02,6.586065888404846191e-02,1.043623778969049454e-02,1.249518245458602905e-04,3.531517833471298218e-02,8.412417024374008179e-03,5.995968356728553772e-02,7.432185579091310501e-03,-7.822267711162567139e-03,6.087293848395347595e-02,7.864287123084068298e-03,-5.807051807641983032e-02,-6.095133721828460693e-03,3.130378201603889465e-02,-2.473504841327667236e-02,6.225924938917160034e-03,-2.772361040115356445e-04,6.710684299468994141e-02,7.338438183069229126e-02,5.911570042371749878e-03,-2.984842099249362946e-02,3.401870653033256531e-02,-2.300613000988960266e-02,1.576726883649826050e-02,4.180336743593215942e-02,1.302126348018646240e-01,-4.820153117179870605e-05,-4.056483507156372070e-03,-1.698158495128154755e-02,2.218516916036605835e-02,5.860676616430282593e-02,3.094713017344474792e-02,-4.211647808551788330e-02,-6.197728216648101807e-04,2.119796350598335266e-03,3.561278805136680603e-03,2.215152792632579803e-02,9.990635327994823456e-03,-6.709504872560501099e-02,4.509773105382919312e-02,-2.158668637275695801e-02,-7.795373909175395966e-03,7.801893353462219238e-02,3.872327879071235657e-02,3.118956461548805237e-03,3.591765090823173523e-02,3.356966003775596619e-02,-1.308165490627288818e-02,1.171343587338924408e-02,6.735958158969879150e-03,8.874621242284774780e-03,9.870198555290699005e-03,4.155935719609260559e-02,1.547715254127979279e-02,-3.467239439487457275e-04,6.760092452168464661e-03,1.297439914196729660e-02,1.548036374151706696e-02,8.706176280975341797e-02,-2.400775067508220673e-02,4.533782973885536194e-02,4.882346093654632568e-02,-1.723101362586021423e-03,1.005058921873569489e-02,4.922246560454368591e-03,1.238186936825513840e-02,4.358900338411331177e-02,-2.855069935321807861e-03,1.911301165819168091e-03,5.246587097644805908e-03,-2.039778977632522583e-02,4.087449237704277039e-02,-2.325308695435523987e-02,-5.254720151424407959e-02,-1.869744993746280670e-02,4.107606038451194763e-02,9.821881540119647980e-03,5.785416439175605774e-02,5.685760080814361572e-02,-8.045881986618041992e-05,2.570659294724464417e-02,-8.277045562863349915e-03,-3.060443326830863953e-03,7.559213042259216309e-02,8.792266249656677246e-03,-5.409475415945053101e-04,7.323886267840862274e-03,1.719798520207405090e-02,3.193372488021850586e-02,4.627048969268798828e-03,2.123027667403221130e-02,7.904935628175735474e-03,-2.872790209949016571e-02,5.012914538383483887e-02,-3.551727160811424255e-03,-2.299614995718002319e-02,2.965834178030490875e-02,2.339705452322959900e-02,-1.916605234146118164e-02,1.399859227240085602e-02,-2.614310197532176971e-02,1.994818821549415588e-02,-1.019151881337165833e-02,1.298191025853157043e-02,2.779456600546836853e-02,9.714707732200622559e-03,8.586463518440723419e-03,9.345644153654575348e-03,2.421990782022476196e-02,1.484746113419532776e-03,1.495876256376504898e-02,2.607019059360027313e-02,-4.050634056329727173e-02,1.182163879275321960e-02,9.026151150465011597e-03,9.518288075923919678e-03,1.447824947535991669e-02,-1.145220175385475159e-02,5.179641768336296082e-02,1.092078536748886108e-02,-4.824225977063179016e-02,-7.578054443001747131e-03,1.035365089774131775e-02,-2.320135384798049927e-02,2.928321063518524170e-02,1.106013357639312744e-02,5.752603523433208466e-03,-3.856458887457847595e-02,2.741250395774841309e-02,4.349432885646820068e-03,4.677637293934822083e-02,2.739681117236614227e-02,5.795450881123542786e-02,-5.026241391897201538e-02,2.931519784033298492e-02,9.186243638396263123e-03,3.719292581081390381e-02,2.664484083652496338e-02,-2.038177102804183960e-03,7.935020141303539276e-03,4.273993521928787231e-02,-1.996788010001182556e-02,1.634015701711177826e-02,1.556988619267940521e-02,1.779403910040855408e-02,1.078288629651069641e-02,2.868477068841457367e-02,-1.000997144728899002e-02,4.258483648300170898e-03,-7.857140153646469116e-03,6.436403840780258179e-03,-7.501354441046714783e-03,-1.291647553443908691e-03,7.536887191236019135e-03,4.702023416757583618e-02,2.211488783359527588e-03,1.579207181930541992e-02,6.137158721685409546e-02,8.418145030736923218e-02,1.025918684899806976e-02,2.127076499164104462e-02,2.300502732396125793e-02,-3.102015890181064606e-02,3.976052999496459961e-02,8.261936157941818237e-02,4.401049390435218811e-02,5.457647517323493958e-02,1.582360640168190002e-02,-4.846230521798133850e-02,8.353697508573532104e-02,2.269917353987693787e-02,9.385863319039344788e-03,-1.288963109254837036e-02,8.376902900636196136e-03,3.508308902382850647e-02,5.101491510868072510e-02,2.278710156679153442e-02,-2.155139110982418060e-02,1.498951576650142670e-02,3.030607476830482483e-03,-9.785943478345870972e-02,1.061490550637245178e-02,2.198887988924980164e-02,1.874756440520286560e-02,-1.885324716567993164e-02,6.061621010303497314e-03,-1.456966623663902283e-02,1.449175551533699036e-02,3.362646326422691345e-03,-4.686096683144569397e-03,9.052269160747528076e-04,1.788815855979919434e-02,8.149879984557628632e-03,9.999283403158187866e-02,3.697451576590538025e-02,1.845349557697772980e-02,1.191008836030960083e-03,3.640577197074890137e-03,9.952142834663391113e-03,3.445154428482055664e-02,-1.926949247717857361e-03,1.366193406283855438e-02,1.978477649390697479e-02,1.471505127847194672e-02,-7.697831839323043823e-03,-7.229361217468976974e-04,2.132526598870754242e-02,-2.256739698350429535e-02,-1.663294248282909393e-02,1.834992878139019012e-02,4.057679325342178345e-02,1.881187781691551208e-02,-6.888634711503982544e-02,1.205686479806900024e-03,2.891006693243980408e-02,-3.079120069742202759e-04,-7.182471454143524170e-04,6.299121305346488953e-03,9.004755318164825439e-02,8.676802739500999451e-03,-8.531310409307479858e-02,1.648503728210926056e-02,-1.335025578737258911e-02,-6.769095361232757568e-02,1.122875139117240906e-03,3.133562952280044556e-02,-2.934243157505989075e-02,2.038570493459701538e-02,2.746777422726154327e-02,-1.765787601470947266e-05,-5.294334143400192261e-03,3.898421302437782288e-03,1.497027929872274399e-02,-4.729049652814865112e-02,-5.968307703733444214e-02,3.058375418186187744e-02,-8.909087628126144409e-04,-1.925189048051834106e-03,1.798544079065322876e-02,-4.730553925037384033e-02,4.911664873361587524e-02,2.742987871170043945e-02,5.134848877787590027e-02,6.824370473623275757e-03,-2.311345748603343964e-02,6.570431590080261230e-02,-2.592694014310836792e-02,3.366732969880104065e-03,-1.058599352836608887e-02,1.406707428395748138e-02,2.493226900696754456e-02,-8.590955287218093872e-03,1.599092595279216766e-02,5.697140470147132874e-03,-1.246243715286254883e-03,-9.608916938304901123e-03,1.917203515768051147e-02,2.229405939579010010e-02,-6.637370213866233826e-03,1.006926149129867554e-01,-1.276280544698238373e-02,1.985937543213367462e-02,1.545149181038141251e-02,2.455365285277366638e-02,1.286119967699050903e-01,-7.025004178285598755e-02,5.506132543087005615e-02,-6.136174499988555908e-02,1.720662042498588562e-02,6.516585499048233032e-02,8.180318027734756470e-02,2.079935744404792786e-02,4.171137884259223938e-02,-2.171606756746768951e-02,1.186251454055309296e-02,-6.584330648183822632e-02,1.172884833067655563e-03,3.849227353930473328e-02,1.561964489519596100e-02,3.812395036220550537e-02,9.805724024772644043e-03,1.907188072800636292e-02,1.002790592610836029e-02,6.647527217864990234e-03,-2.867519855499267578e-03,2.976630628108978271e-02,7.204048335552215576e-03,2.224848233163356781e-02,3.953627496957778931e-02,1.003634184598922729e-02,4.694614559412002563e-02,5.911367945373058319e-03,2.408718690276145935e-03,-1.800517365336418152e-02,1.544180884957313538e-02,8.610541000962257385e-03,-7.271993160247802734e-02,-6.214910373091697693e-02,3.276012092828750610e-02,8.695821277797222137e-03,2.452587708830833435e-02,2.406280487775802612e-03,4.443494230508804321e-02,4.102327674627304077e-02,4.852809756994247437e-02,4.182174429297447205e-02,1.958886720240116119e-02,2.413396351039409637e-02,4.131966456770896912e-02,2.772886306047439575e-03,-1.775407977402210236e-02,-2.879284694790840149e-02,-4.924068599939346313e-02,-1.281769201159477234e-02,3.502242639660835266e-02,1.102363970130681992e-02,3.867633268237113953e-02,9.216368198394775391e-06,5.599144473671913147e-02,6.598778069019317627e-02,9.757850319147109985e-03,9.017319418489933014e-03,-1.933572441339492798e-02,4.608729854226112366e-02,2.677740715444087982e-02,-2.830646932125091553e-03,-1.708207093179225922e-02,1.667008502408862114e-03,1.346064545214176178e-02,1.675806939601898193e-02,1.441679894924163818e-02,-7.056994363665580750e-03,-1.806223019957542419e-02,1.801915839314460754e-02,2.486299909651279449e-02,5.647963285446166992e-02,4.886656999588012695e-03,-2.058028802275657654e-02,-1.731004938483238220e-02,-1.383627764880657196e-02,-2.829839661717414856e-02,-9.698703885078430176e-02,8.817011490464210510e-03,8.923556655645370483e-03,3.171866759657859802e-02,1.105472072958946228e-02,4.067239910364151001e-02,4.484303295612335205e-03,1.047986894845962524e-01,-1.190658472478389740e-02,6.118308380246162415e-02,-8.318467438220977783e-02,8.963134139776229858e-03,7.488802075386047363e-04,-9.253931045532226562e-02,3.661346435546875000e-02,5.259985104203224182e-03,6.320275366306304932e-03,2.505660615861415863e-02,5.543682724237442017e-03,-1.268932595849037170e-03,-1.649697683751583099e-02,-1.293778419494628906e-03,-2.302016876637935638e-02,5.971878767013549805e-03,1.952223293483257294e-02,3.449741750955581665e-03,-3.653955087065696716e-02,4.776480421423912048e-02,2.014463394880294800e-02,-9.128019213676452637e-03,-1.504195667803287506e-02,-2.236613817512989044e-02,2.725037373602390289e-02,1.632436364889144897e-02,-2.228568866848945618e-02,3.204239904880523682e-02,5.310876294970512390e-03,2.235237881541252136e-02,6.447993218898773193e-04,-1.361494511365890503e-02,8.911878801882266998e-03,-2.539927139878273010e-03,8.878827095031738281e-03,5.852075293660163879e-02,-2.233577892184257507e-02,7.884345948696136475e-03,-1.223580911755561829e-02,4.088751971721649170e-02,1.032543089240789413e-02,3.985880687832832336e-02,2.917177230119705200e-02,4.555180668830871582e-03,3.187875822186470032e-02,6.012938916683197021e-03,-1.838211715221405029e-02,5.117349326610565186e-03,-4.329374060034751892e-02,-3.730282187461853027e-04,6.985457614064216614e-03,1.541179418563842773e-02,2.221780829131603241e-02,2.606187388300895691e-02,-1.683053933084011078e-02,5.781624466180801392e-03,-2.442852035164833069e-02,-1.240458339452743530e-03,1.841551996767520905e-02,-6.657349318265914917e-02,3.076876513659954071e-02,1.506420318037271500e-02,-2.405153028666973114e-02,-1.699915155768394470e-03,-8.851110190153121948e-02,1.435458380728960037e-02,1.215003803372383118e-02,3.057057410478591919e-02,3.443624824285507202e-02,1.739042624831199646e-02,4.163153469562530518e-03,1.892093569040298462e-04,2.542411908507347107e-02,-5.646896734833717346e-02,4.975475370883941650e-02,6.558712571859359741e-03,5.333494395017623901e-03,3.562089800834655762e-02,1.888880692422389984e-02,5.797904729843139648e-02,1.653452590107917786e-02,-6.835805252194404602e-03,1.863567903637886047e-02,2.271523699164390564e-02,4.572389274835586548e-02,-6.773697212338447571e-03,7.148124277591705322e-02,1.730072870850563049e-02,-1.831977441906929016e-02,-1.672471128404140472e-02,2.901722490787506104e-02,-3.784804791212081909e-02,3.388977795839309692e-02,3.270904347300529480e-02,2.587586641311645508e-03,6.161985918879508972e-03,-8.810197934508323669e-03,-2.462592720985412598e-02,-8.974451571702957153e-03,-3.342411294579505920e-02,2.303418144583702087e-02,3.306193277239799500e-02,1.624169945716857910e-02,-2.849420905113220215e-02,4.584304243326187134e-02,2.197670377790927887e-02,-6.692599505186080933e-03,3.929235041141510010e-02,-1.259609311819076538e-02,-2.608294785022735596e-02,7.922098040580749512e-03,-3.887597471475601196e-02,-1.577667519450187683e-02,2.797450684010982513e-02,-4.654175788164138794e-02,4.067840054631233215e-03,6.935171782970428467e-02,2.962159551680088043e-02,6.394237279891967773e-04,-2.232998237013816833e-02,7.083635032176971436e-02,-2.387300319969654083e-02,-3.290185704827308655e-03,8.914049714803695679e-03,1.629865914583206177e-02,8.389601111412048340e-02,-3.610828891396522522e-02,-1.731914468109607697e-02,1.877522654831409454e-02,1.034629065543413162e-02,4.265705123543739319e-03,4.638137761503458023e-03,-1.626960933208465576e-03,4.437541589140892029e-02,6.308594718575477600e-03,2.684614248573780060e-02,-1.534208655357360840e-03,6.162785366177558899e-02,1.415108740329742432e-01,2.645547688007354736e-02,3.123105503618717194e-02,2.680619433522224426e-02,3.098765201866626740e-02,9.013865143060684204e-03,-1.511745154857635498e-03,5.267740041017532349e-02,4.969273507595062256e-02,2.020816877484321594e-02,-1.201983541250228882e-03,2.249052375555038452e-02,2.254886180162429810e-02,-1.294054090976715088e-04,2.214200794696807861e-02,8.434389531612396240e-02,-8.841655217111110687e-03,-2.345757558941841125e-02,-1.456875354051589966e-03,7.027707993984222412e-02,-7.309159263968467712e-03,5.280967056751251221e-02,2.624359540641307831e-02,-1.928308419883251190e-02,-7.953222841024398804e-03,3.440713509917259216e-03,1.522621326148509979e-02,-2.843737974762916565e-02,-4.933703690767288208e-03,4.516144469380378723e-02,2.892411872744560242e-02,2.167221531271934509e-02,-3.976198658347129822e-02,2.978219650685787201e-02,3.499497845768928528e-02,1.060829125344753265e-02,7.857512682676315308e-03,6.118303164839744568e-03,2.583250030875205994e-02,3.886774927377700806e-02,7.837625220417976379e-03,1.640567556023597717e-02,-2.110060304403305054e-02,-4.363836348056793213e-02,9.755816310644149780e-03,1.152455713599920273e-02,1.479459367692470551e-02,2.632910385727882385e-03,3.316577151417732239e-02,1.982466317713260651e-02,-5.914382636547088623e-04,1.466788351535797119e-02,2.592040784657001495e-02,9.592072106897830963e-03,5.807447433471679688e-02,-2.675173059105873108e-02,4.125773906707763672e-03,2.330531552433967590e-02,9.114043787121772766e-03,2.821207046508789062e-03,-1.880003511905670166e-02,1.137925684452056885e-02,-3.032563440501689911e-02,6.775968521833419800e-02,1.953415572643280029e-02,1.001105234026908875e-01,-2.096684277057647705e-02,1.231124252080917358e-02,3.194302693009376526e-02,2.857238054275512695e-03,4.839338362216949463e-05,1.676531322300434113e-02,2.122697979211807251e-02,-6.339978426694869995e-04,3.576025366783142090e-03,5.825039930641651154e-03,9.621141478419303894e-03,9.860103949904441833e-03,2.430789172649383545e-04,1.513410918414592743e-02,-3.605760633945465088e-02,3.594831749796867371e-02,1.211966294795274734e-02,-9.886397048830986023e-03,-5.139689892530441284e-02,-5.396202206611633301e-02,4.187066107988357544e-03,2.206570468842983246e-02,8.243633434176445007e-03,1.461165864020586014e-02,4.730587452650070190e-02,-7.400464266538619995e-03,-6.163681671023368835e-02,-1.531187444925308228e-03,3.035258874297142029e-02,1.741837337613105774e-02,-5.407269299030303955e-02,2.096574380993843079e-02,-2.794571220874786377e-03,5.179843306541442871e-02,7.453164085745811462e-03,-7.764623034745454788e-03,4.033008962869644165e-02,-3.347063437104225159e-03,-3.575757145881652832e-03,2.343725413084030151e-02,-5.405306816101074219e-03,2.156685665249824524e-02,-1.616897620260715485e-02,1.611996814608573914e-02,2.069967798888683319e-02,-3.591594845056533813e-02,2.404698729515075684e-02,-2.839460596442222595e-02,1.118882745504379272e-02,8.723678998649120331e-03,7.210684940218925476e-03,-2.595184929668903351e-02,-2.827670611441135406e-02,-4.970886930823326111e-02,1.749873161315917969e-02,-3.817800432443618774e-03,-2.736199647188186646e-03,-1.534504257142543793e-02,3.392239660024642944e-02,2.958644181489944458e-04,1.422040164470672607e-02,2.992635592818260193e-03,-6.716056168079376221e-02,1.311799231916666031e-02,-4.265598952770233154e-03,5.154152959585189819e-02,1.227225083857774734e-02,-2.167178317904472351e-02,-2.050419524312019348e-02,-6.626397371292114258e-02,2.779785171151161194e-02,2.931552380323410034e-02,1.116932928562164307e-02,3.633565455675125122e-02,-4.817370325326919556e-03,-4.077470302581787109e-02,2.931851893663406372e-02,1.448950730264186859e-02,1.330154389142990112e-02,3.444613143801689148e-02,5.604841560125350952e-02,5.303326994180679321e-02,2.528507262468338013e-02,3.938054665923118591e-02,-2.757047303020954132e-03,1.906260848045349121e-03,1.771977171301841736e-03,-5.588112398982048035e-03,3.801750391721725464e-02,2.739684656262397766e-03,-2.701162174344062805e-02,3.021754138171672821e-02,-6.809952855110168457e-02,1.341825909912586212e-02,-1.935393735766410828e-02,-4.169019404798746109e-03,2.130001783370971680e-03,5.539315193891525269e-02,4.096551612019538879e-02,-1.393421925604343414e-02,9.434487670660018921e-03,-1.308290660381317139e-02,8.676763623952865601e-03,4.054613038897514343e-02,7.621498778462409973e-03
-1.378274615854024887e-02,5.330418050289154053e-02,2.985857427120208740e-02,4.739374294877052307e-02,3.521417081356048584e-02,2.831887826323509216e-02,4.299592971801757812e-02,-1.798810064792633057e-02,3.235599398612976074e-02,6.373535096645355225e-02,6.285832077264785767e-02,4.419085010886192322e-02,-1.435868535190820694e-02,3.394788131117820740e-02,3.499111533164978027e-02,4.734366759657859802e-02,3.993560373783111572e-02,3.717957809567451477e-02,4.093119874596595764e-02,2.871267497539520264e-04,1.076991762965917587e-02,7.472275197505950928e-02,4.289175570011138916e-02,-2.808436751365661621e-02,3.104480914771556854e-02,4.230967164039611816e-02,6.063375249505043030e-02,3.314388543367385864e-02,3.021046519279479980e-02,2.979255653917789459e-02,4.520013183355331421e-02,7.648967951536178589e-02,6.613153219223022461e-02,6.542965769767761230e-02,4.873429238796234131e-02,2.771258354187011719e-02,3.945575654506683350e-02,5.573314428329467773e-02,3.173913806676864624e-02,2.980973757803440094e-02,4.425347223877906799e-02,6.826676428318023682e-02,4.292920231819152832e-02,3.343567997217178345e-02,4.702814668416976929e-02,3.187439218163490295e-02,1.990936100482940674e-01,7.411514222621917725e-02,3.566039726138114929e-02,6.291829049587249756e-02,3.656752035021781921e-02,3.224475681781768799e-02,4.654281213879585266e-02,4.839625954627990723e-02,4.378714412450790405e-02,8.825612813234329224e-02,6.479799747467041016e-02,4.640701413154602051e-02,4.387914389371871948e-02,4.973698034882545471e-02,-1.613276824355125427e-02,3.231659531593322754e-02,3.295629844069480896e-02,4.479876160621643066e-02,5.500913411378860474e-02,6.408873200416564941e-02,1.332748308777809143e-02,3.715474903583526611e-02,3.098991885781288147e-02,3.068576753139495850e-02,4.534053802490234375e-02,4.223000630736351013e-02,3.244341909885406494e-02,-1.047039777040481567e-02,-6.701456382870674133e-03,3.728490695357322693e-02,7.491405308246612549e-02,4.423085600137710571e-02,3.235783800482749939e-02,3.354598209261894226e-02,4.006760194897651672e-02,5.422273278236389160e-02,3.644837066531181335e-02,3.355538100004196167e-02,4.445281252264976501e-02,4.160730168223381042e-03,3.473114222288131714e-02,4.975216090679168701e-02,3.620226681232452393e-02,5.663383007049560547e-02,3.731732070446014404e-02,3.509486094117164612e-02,7.586511969566345215e-02,-6.645125336945056915e-03,5.516056343913078308e-02,3.514182940125465393e-02,3.355731442570686340e-02,-5.478001199662685394e-03,4.696283489465713501e-02,5.599424242973327637e-02,3.139705955982208252e-02,8.961930125951766968e-02,6.231046468019485474e-02,3.477748483419418335e-02,7.860927283763885498e-02,2.999355643987655640e-02,3.132384270429611206e-03,4.165419191122055054e-02,5.799547582864761353e-02,5.962090939283370972e-02,4.131117463111877441e-02,6.155004352331161499e-02,3.333836793899536133e-02,-1.658785529434680939e-02,4.776730760931968689e-02,3.675971552729606628e-02,2.862285077571868896e-02,4.444866627454757690e-02,3.767114132642745972e-02,3.266631811857223511e-02,3.051427938044071198e-02,3.429184108972549438e-02,2.874074503779411316e-02,5.170077085494995117e-02,5.589303746819496155e-02,5.843083560466766357e-02,4.357085004448890686e-02,3.638610243797302246e-02,-7.872553542256355286e-03,-2.809953317046165466e-02,3.556580096483230591e-02,6.677092611789703369e-02,4.854606091976165771e-02,4.620459675788879395e-02,2.923683263361454010e-02,3.988176956772804260e-02,6.128988787531852722e-02,3.278790414333343506e-02,3.064697422087192535e-02,2.944218367338180542e-02,3.652833774685859680e-02,4.683941602706909180e-02,3.965720534324645996e-02,6.420152634382247925e-02,3.649869188666343689e-02,5.416427180171012878e-02,1.541434824466705322e-01,-3.683891147375106812e-03,3.825117647647857666e-02,4.440662264823913574e-02,-2.573474124073982239e-02,3.410382941365242004e-02,3.017556294798851013e-02,6.956095248460769653e-02,4.427374526858329773e-02,3.705950081348419189e-02,-4.272946715354919434e-02,3.316419199109077454e-02,5.478733777999877930e-02,7.353539764881134033e-02,2.388113550841808319e-02,3.062818571925163269e-02,6.490915268659591675e-02,3.277388215065002441e-02,-9.778371080756187439e-03,3.575942665338516235e-02,3.187952190637588501e-02,-2.651637420058250427e-03,3.019288182258605957e-02,2.922955900430679321e-02,4.390414804220199585e-02,3.073671460151672363e-02,9.767302311956882477e-03,4.635988920927047729e-02,3.108054772019386292e-02,3.987663239240646362e-02,6.039379164576530457e-02,3.551351651549339294e-02,5.354777723550796509e-02,3.984824195504188538e-02,3.966709226369857788e-02,3.473704680800437927e-02,9.286489337682723999e-02,7.018528878688812256e-03,3.601182997226715088e-02,6.820555031299591064e-02,1.989067718386650085e-02,4.052174463868141174e-02,5.014781653881072998e-02,5.952995270490646362e-02,2.782079577445983887e-02,3.303161635994911194e-02,3.745934367179870605e-02,3.391034901142120361e-02,-1.270143315196037292e-02,3.316681832075119019e-02,9.495732374489307404e-03,3.359724953770637512e-02,4.118135571479797363e-02,3.276989236474037170e-02,3.906401991844177246e-02,-2.110851556062698364e-02,5.390841513872146606e-02,4.436527565121650696e-02,-6.582101806998252869e-03,4.701836407184600830e-02,2.743128687143325806e-02,3.374811634421348572e-02,7.452499866485595703e-02,3.368323296308517456e-02,1.283959150314331055e-01,2.842803671956062317e-02,4.745847731828689575e-02,3.195789456367492676e-02,3.806375339627265930e-02,3.061868064105510712e-02,2.518249675631523132e-02,4.229556769132614136e-02,2.660205401480197906e-02,-3.324981033802032471e-02,3.342921659350395203e-02,5.782543122768402100e-02,1.995267346501350403e-02,-1.024909690022468567e-02,-1.959757879376411438e-02,3.390051424503326416e-02,3.186685219407081604e-02,3.497864678502082825e-02,1.405181456357240677e-02,3.313553705811500549e-02,-2.573274075984954834e-02,3.383300825953483582e-02,8.365432918071746826e-02,5.370078235864639282e-02,3.615834563970565796e-02,3.266681730747222900e-02,3.199301660060882568e-02,3.445972874760627747e-02,-1.692071557044982910e-02,8.714627474546432495e-02,2.679959684610366821e-02,3.486467897891998291e-02,3.051167726516723633e-02,-1.737317815423011780e-02,4.371461272239685059e-02,3.368794173002243042e-02,4.170262441039085388e-02,3.534808754920959473e-02,-2.483214065432548523e-02,4.197253286838531494e-02,3.393366932868957520e-02,6.369554251432418823e-02,2.870895341038703918e-02,3.319583833217620850e-02,3.203870356082916260e-02,1.161713600158691406e-01,-2.161701768636703491e-02,1.313677057623863220e-03,-1.666463911533355713e-02,3.171124309301376343e-02,3.164099901914596558e-02,3.282216191291809082e-02,3.681663423776626587e-02,6.074161082506179810e-02,4.985737428069114685e-02,-4.231971502304077148e-02,3.030339628458023071e-02,3.098848462104797363e-02,4.313443228602409363e-02,3.460063412785530090e-02,3.500308841466903687e-02,6.216989457607269287e-02,3.712921962141990662e-02,3.088109195232391357e-02,3.523801267147064209e-02,3.367862105369567871e-02,5.147757381200790405e-02,2.027897536754608154e-01,4.406331852078437805e-02,6.445790082216262817e-02,8.210656791925430298e-02,3.383973985910415649e-02,5.160523951053619385e-02,3.174895793199539185e-02,4.723475873470306396e-02,1.333911865949630737e-01,3.416504710912704468e-02,-2.061573974788188934e-02,1.008631289005279541e-01,2.776939235627651215e-02,3.705558925867080688e-02,3.355157375335693359e-02,3.274536505341529846e-02,3.462702035903930664e-02,1.937818527221679688e-01,3.195137158036231995e-02,6.499965488910675049e-02,5.619422718882560730e-02,-8.685273118317127228e-03,6.853658705949783325e-02,7.137770950794219971e-02,3.171875327825546265e-02,3.651991114020347595e-02,-2.705632895231246948e-02,3.218766674399375916e-02,4.476509615778923035e-02,5.551144480705261230e-02,4.940310493111610413e-02,3.962077945470809937e-02,3.156710788607597351e-02,6.479913741350173950e-02,2.627181448042392731e-02,-2.120308019220829010e-02,5.109081417322158813e-02,7.455518096685409546e-02,4.174614697694778442e-02,3.181041777133941650e-02,3.153615444898605347e-02,6.465197354555130005e-02,3.843413293361663818e-02,-1.902451179921627045e-02,-9.175213053822517395e-03,5.331825837492942810e-02,5.586628243327140808e-02,1.140772774815559387e-01,5.352660268545150757e-02,3.256514668464660645e-02,5.515435338020324707e-02,4.220678284764289856e-02,3.744046762585639954e-02,-8.057747036218643188e-03,6.183706223964691162e-02,3.117845207452774048e-02,-2.540626376867294312e-02,3.543500602245330811e-02,5.659102648496627808e-02,3.607655316591262817e-02,4.311512783169746399e-02,2.543604373931884766e-02,3.608296439051628113e-02,4.454252123832702637e-02,-1.096587162464857101e-02,4.656684026122093201e-02,5.917023122310638428e-02,2.976203709840774536e-02,3.109753504395484924e-02,5.895880609750747681e-02,3.325554355978965759e-02,6.353037059307098389e-02,2.607337757945060730e-02,3.346820175647735596e-02,3.677464649081230164e-02,3.929070755839347839e-02,3.660037741065025330e-02,3.806138038635253906e-02,4.063904285430908203e-02,4.626875370740890503e-02,3.866788744926452637e-02,3.446473181247711182e-02,8.448426425457000732e-02,6.277246773242950439e-02,3.508096933364868164e-02,-1.531134359538555145e-02,5.101125687360763550e-02,4.589732736349105835e-02,3.142948448657989502e-02,3.891692683100700378e-02,1.577847152948379517e-01,3.845234215259552002e-02,3.449350968003273010e-02,2.602530084550380707e-02,2.889589220285415649e-02,7.271280884742736816e-02,3.788906335830688477e-02,-1.024899724870920181e-02,2.837793156504631042e-02,4.576168209314346313e-02,2.969920076429843903e-02,4.805944114923477173e-02,3.121273592114448547e-02,-1.512329466640949249e-02,2.615514397621154785e-02,3.718687593936920166e-02,2.791367843747138977e-02,6.329566985368728638e-02,5.108309537172317505e-02,2.761657349765300751e-02,3.772674128413200378e-02,3.486042097210884094e-02,3.307113423943519592e-02,3.361382707953453064e-02,-3.504861146211624146e-02,3.567206114530563354e-02,4.415852576494216919e-02,4.915985092520713806e-02,4.720194637775421143e-02,-4.065366089344024658e-02,2.985001727938652039e-02,2.375764958560466766e-02,4.616172611713409424e-02,7.962055504322052002e-02,5.687458813190460205e-02,6.854389607906341553e-02,8.084091544151306152e-02,3.124066069722175598e-02,3.235062211751937866e-02,2.985027804970741272e-02,3.220805525779724121e-02,4.979136958718299866e-02,2.837077155709266663e-02,3.428688645362854004e-02,3.072731755673885345e-02,-2.128345146775245667e-02,4.071902111172676086e-02,4.390576109290122986e-02,7.852255366742610931e-04,3.853779658675193787e-02,5.269394069910049438e-02,2.821550704538822174e-02,6.641674041748046875e-02,8.541253209114074707e-02,3.564067184925079346e-02,5.806995555758476257e-02,2.417304366827011108e-02,3.160145133733749390e-02,7.802855968475341797e-02,5.247674137353897095e-02,3.116155229508876801e-02,2.957968972623348236e-02,4.609416425228118896e-02,8.452017605304718018e-02,-1.716170459985733032e-02,3.676114976406097412e-02,3.167196363210678101e-02,-2.117656730115413666e-02,7.289166748523712158e-02,3.125517070293426514e-02,3.222010284662246704e-02,4.763926193118095398e-02,3.718557208776473999e-02,-2.448132634162902832e-02,3.292994946241378784e-02,3.813764452934265137e-02,3.269267082214355469e-02,5.111387744545936584e-02,4.489918053150177002e-02,5.029756948351860046e-02,2.733733132481575012e-02,2.966670505702495575e-02,3.008059784770011902e-02,4.717263951897621155e-02,4.846376925706863403e-02,3.544237092137336731e-02,5.002453178167343140e-02,-1.067172084003686905e-02,2.958212420344352722e-02,3.404716774821281433e-02,3.338579460978507996e-02,4.248708114027976990e-02,4.947409778833389282e-02,6.362452358007431030e-02,3.974041715264320374e-02,4.143909364938735962e-02,2.741516008973121643e-02,4.341252520680427551e-02,-8.588631637394428253e-03,3.553404659032821655e-02,3.497917577624320984e-02,2.877418138086795807e-02,-1.194324530661106110e-02,4.515971615910530090e-02,-1.895989477634429932e-02,6.155949831008911133e-02,2.600323222577571869e-02,7.833069562911987305e-02,1.426061615347862244e-03,3.420161828398704529e-02,3.532544150948524475e-02,5.226700007915496826e-02,2.509886212646961212e-02,2.831074222922325134e-02,3.025490045547485352e-02,3.235078230500221252e-02,3.651813790202140808e-02,3.252515941858291626e-02,3.252338245511054993e-02,4.231749475002288818e-02,3.516723960638046265e-02,7.034032791852951050e-02,3.080984391272068024e-02,3.232575953006744385e-02,3.107472509145736694e-02,-8.294254541397094727e-03,3.578728437423706055e-02,3.373523056507110596e-02,3.681288287043571472e-02,6.366841495037078857e-02,3.790106624364852905e-02,3.037400171160697937e-02,6.363745033740997314e-02,9.039584547281265259e-02,3.210935369133949280e-02,3.139084950089454651e-02,3.873438388109207153e-02,-1.871234737336635590e-02,4.912845790386199951e-02,9.468960762023925781e-02,4.205687344074249268e-02,6.642844527959823608e-02,3.771928697824478149e-02,3.349598497152328491e-02,8.818560838699340820e-02,2.915713004767894745e-02,4.475880786776542664e-02,4.654592275619506836e-02,3.548639267683029175e-02,5.434980243444442749e-02,8.630624413490295410e-02,4.087736830115318298e-02,3.927725553512573242e-02,3.633030876517295837e-02,3.145946562290191650e-02,5.243999511003494263e-02,3.737317025661468506e-02,3.546182811260223389e-02,3.713376447558403015e-02,3.050140291452407837e-02,5.025493726134300232e-02,4.436149448156356812e-02,4.284875467419624329e-02,3.457893431186676025e-02,2.315887063741683960e-02,3.439010307192802429e-02,3.289214894175529480e-02,3.128395602107048035e-02,1.273213773965835571e-01,6.734738498926162720e-02,3.015705570578575134e-02,-1.023237779736518860e-02,3.150824829936027527e-02,3.724920749664306641e-02,3.173366934061050415e-02,3.896608203649520874e-02,3.129062429070472717e-02,4.664186388254165649e-02,3.502073884010314941e-02,-3.372572362422943115e-02,2.725984342396259308e-02,3.539908677339553833e-02,3.998139128088951111e-02,-1.419991254806518555e-02,3.256543725728988647e-02,3.152281790971755981e-02,4.083051905035972595e-02,1.001087296754121780e-02,3.311092033982276917e-02,3.644662722945213318e-02,4.412933439016342163e-02,2.976603806018829346e-02,3.178352117538452148e-02,1.149870157241821289e-01,3.143157064914703369e-02,1.122109964489936829e-02,4.117822274565696716e-02,4.834529012441635132e-02,3.946470469236373901e-02,3.121312707662582397e-02,2.365545555949211121e-02,-1.187862455844879150e-02,4.002418741583824158e-02,3.488114476203918457e-02,3.369402885437011719e-02,2.822101116180419922e-02,2.912141382694244385e-02,3.211468085646629333e-02,-2.419352158904075623e-02,-3.850543871521949768e-04,3.545492514967918396e-02,2.915464714169502258e-02,-1.866535842418670654e-02,3.682893142104148865e-02,5.919352918863296509e-02,3.742925822734832764e-02,4.558477923274040222e-02,6.517778337001800537e-02,3.037246130406856537e-02,2.995881810784339905e-02,7.699712365865707397e-02,3.384800255298614502e-02,3.333508595824241638e-02,4.451352730393409729e-02,3.220063820481300354e-02,5.232905969023704529e-02,3.991854190826416016e-02,3.686483576893806458e-02,3.132101893424987793e-02,3.438021987676620483e-02,-3.160634636878967285e-02,3.689855709671974182e-02,4.063839465379714966e-02,4.167389869689941406e-02,1.024710088968276978e-01,4.200583696365356445e-02,3.562727570533752441e-02,3.692908212542533875e-02,3.455670922994613647e-02,1.333792507648468018e-01,6.959831342101097107e-03,7.643514126539230347e-02,5.870782956480979919e-02,3.511645644903182983e-02,7.229911535978317261e-02,9.175021946430206299e-02,4.715910553932189941e-02,5.750304460525512695e-02,5.395008623600006104e-02,3.350776061415672302e-02,-3.149197436869144440e-03,9.455672465264797211e-03,2.443528734147548676e-02,3.153550997376441956e-02,7.282869517803192139e-02,3.556854277849197388e-02,3.450038284063339233e-02,3.277205303311347961e-02,-1.130096241831779480e-02,3.500539064407348633e-02,5.491219460964202881e-02,3.048287145793437958e-02,3.348951041698455811e-02,5.664954334497451782e-02,3.818207606673240662e-02,4.725985601544380188e-02,2.857309952378273010e-02,3.113715350627899170e-02,-2.334803342819213867e-02,3.612954914569854736e-02,3.548540174961090088e-02,1.419381890445947647e-02,-1.488048303872346878e-02,4.316722601652145386e-02,3.092806786298751831e-02,4.641591757535934448e-02,3.048261255025863647e-02,5.831037461757659912e-02,5.523710325360298157e-02,5.319774150848388672e-02,5.866619944572448730e-02,3.487876057624816895e-02,3.350716829299926758e-02,5.491850525140762329e-02,-1.306330040097236633e-02,4.212816432118415833e-02,-6.952970288693904877e-03,3.760906681418418884e-02,2.930229902267456055e-02,7.417459785938262939e-02,3.236733749508857727e-02,6.014297530055046082e-02,3.382135182619094849e-02,9.689690917730331421e-02,7.132736593484878540e-02,3.198119997978210449e-02,3.294872492551803589e-02,5.370317026972770691e-02,6.007675081491470337e-02,5.580167844891548157e-02,3.890978544950485229e-02,3.699596226215362549e-02,2.826525457203388214e-02,4.162330180406570435e-02,3.639635071158409119e-02,3.911835700273513794e-02,2.994269505143165588e-02,3.071649372577667236e-02,3.820335119962692261e-02,3.305812925100326538e-02,6.487899273633956909e-02,-1.301775127649307251e-02,5.478135868906974792e-02,4.374888911843299866e-02,2.735819853842258453e-02,5.340332631021738052e-03,2.402547560632228851e-02,3.544913977384567261e-02,3.541672602295875549e-02,3.689430654048919678e-02,3.523735329508781433e-02,6.576769053936004639e-02,3.416983410716056824e-02,1.096376329660415649e-01,3.373181074857711792e-02,5.669182166457176208e-02,5.840260908007621765e-02,-1.217702217400074005e-02,3.093883208930492401e-02,4.130007699131965637e-02,5.815900862216949463e-02,3.082518093287944794e-02,3.601447865366935730e-02,6.645797193050384521e-02,4.414984211325645447e-02,4.067182540893554688e-02,3.670893982052803040e-02,2.820931747555732727e-02,4.768657684326171875e-02,-7.727239280939102173e-03,3.447534143924713135e-02,3.774667531251907349e-02,-7.986993528902530670e-03,7.188554108142852783e-02,3.889255598187446594e-02,3.236401453614234924e-02,3.150025382637977600e-02,5.270497500896453857e-02,3.871510550379753113e-02,4.458884894847869873e-02,3.227026760578155518e-02,5.094434693455696106e-02,3.139569237828254700e-02,3.444644808769226074e-02,3.479488939046859741e-02,4.182137176394462585e-02,3.129765018820762634e-02,2.913980558514595032e-02,3.035078756511211395e-02,7.113023102283477783e-02,2.821033447980880737e-02,3.389217704534530640e-02,4.144950211048126221e-02,2.599853090941905975e-02,3.120018914341926575e-02,2.944332733750343323e-02,7.112486660480499268e-02,3.234248608350753784e-02,4.012801498174667358e-02,3.176519647240638733e-02,3.259114548563957214e-02,3.039666824042797089e-02,5.455831065773963928e-03,3.576489910483360291e-02,3.272054344415664673e-02,3.282681852579116821e-02,3.373544663190841675e-02,3.326124697923660278e-02,4.546336084604263306e-02,3.545982018113136292e-02,5.913272872567176819e-02,-4.836171865463256836e-03,3.340181335806846619e-02,-1.973601803183555603e-02,3.621691092848777771e-02,2.976056374609470367e-02,-4.831127822399139404e-03,2.775852195918560028e-02,2.538476511836051941e-02,3.088875487446784973e-02,3.247756138443946838e-02,4.258048906922340393e-02,3.978041186928749084e-02,3.882338479161262512e-02,2.817295491695404053e-02,3.161012008786201477e-02,2.798335812985897064e-02,5.340107902884483337e-02,4.972225427627563477e-02,2.996047958731651306e-02,5.044612288475036621e-02,7.076057046651840210e-02,3.955703973770141602e-02,7.600160688161849976e-02,3.587945550680160522e-02,-2.575266920030117035e-02,4.204513877630233765e-02,4.260279610753059387e-02,4.564069956541061401e-02,4.421640560030937195e-02,9.363279491662979126e-02,3.398296236991882324e-02,3.212575614452362061e-02,4.398944228887557983e-02,6.422640383243560791e-02,6.957387179136276245e-02,2.715172246098518372e-02,4.916618019342422485e-02,3.599815443158149719e-02,3.212612494826316833e-02,4.151052236557006836e-02,4.494694620370864868e-02,3.244539722800254822e-02,5.287413485348224640e-03,4.908332228660583496e-02,4.045085236430168152e-02,3.295518457889556885e-02,-1.338057965040206909e-02,3.007429093122482300e-02,3.595592826604843140e-02,-2.881625667214393616e-02,3.267204016447067261e-02,2.978781796991825104e-02,4.814229160547256470e-02,-1.426754891872406006e-02,-1.013505924493074417e-02,5.706655234098434448e-02,2.467840164899826050e-02,2.799273654818534851e-02,3.094214014708995819e-02,7.112108170986175537e-02,2.818410843610763550e-02,3.152683377265930176e-02,3.698715940117835999e-02,6.325193494558334351e-02,3.424466401338577271e-02,3.075919114053249359e-02,3.398095816373825073e-02,3.177918493747711182e-02,1.024077907204627991e-01,7.054554298520088196e-04,4.696286469697952271e-02,5.466817319393157959e-02,3.023137524724006653e-02,3.088045865297317505e-02,2.439424395561218262e-02,4.434595257043838501e-02,5.745992809534072876e-02,3.455386310815811157e-02,3.993640467524528503e-02,3.375978767871856689e-02,7.728020846843719482e-02,1.444678306579589844e-01,6.578152626752853394e-02,4.913537204265594482e-02,7.784345746040344238e-02,3.496947139501571655e-02,3.579973056912422180e-02,2.901823446154594421e-02,6.181927770376205444e-02,5.398992449045181274e-02,7.832436263561248779e-02,3.348430991172790527e-02,6.254742294549942017e-02,3.538933023810386658e-02,2.999436296522617340e-02,3.855390101671218872e-02,1.101539209485054016e-01,3.119697049260139465e-02,-1.311640534549951553e-02,4.361764341592788696e-02,7.826911658048629761e-02,4.550014436244964600e-02,6.205429509282112122e-02,5.825170129537582397e-02,3.929615765810012817e-02,4.622902348637580872e-02,2.143009565770626068e-02,5.296310409903526306e-02,4.614890366792678833e-02,-2.267581969499588013e-02,5.704187601804733276e-02,4.060959815979003906e-02,3.598782420158386230e-02,-7.751432713121175766e-03,6.055838987231254578e-02,3.435869514942169189e-02,3.543302416801452637e-02,3.443754464387893677e-02,3.122614324092864990e-02,4.560009390115737915e-02,9.030207991600036621e-02,3.358992934226989746e-02,3.528327494859695435e-02,3.302412852644920349e-02,-1.237094588577747345e-02,3.088596835732460022e-02,2.317044325172901154e-02,3.484024107456207275e-02,2.992160059511661530e-02,3.489999100565910339e-02,3.150643408298492432e-02,3.757885470986366272e-02,3.217818588018417358e-02,5.753108114004135132e-02,3.225196152925491333e-02,6.572987139225006104e-02,4.071758687496185303e-02,3.279861062765121460e-02,3.453499078750610352e-02,2.949487790465354919e-02,3.225097060203552246e-02,4.435443133115768433e-02,3.041961044073104858e-02,-1.167269889265298843e-02,9.579367190599441528e-02,4.416814446449279785e-02,1.095094084739685059e-01,3.869810327887535095e-02,3.567191213369369507e-02,5.602934956550598145e-02,3.572940081357955933e-02,4.860481619834899902e-02,3.016938082873821259e-02,3.302238509058952332e-02,2.870668098330497742e-02,3.228037804365158081e-02,3.137258812785148621e-02,3.468883410096168518e-02,4.008586332201957703e-02,3.361548110842704773e-02,4.472962021827697754e-02,4.248991981148719788e-02,5.986678227782249451e-02,2.943506650626659393e-02,4.035888612270355225e-02,-8.500685915350914001e-03,-7.487494498491287231e-03,3.430704399943351746e-02,5.454983189702033997e-02,3.434411808848381042e-02,3.319884091615676880e-02,4.045697301626205444e-02,3.291497379541397095e-02,-3.487642109394073486e-02,3.441946581006050110e-02,3.774994984269142151e-02,1.710569672286510468e-02,-1.667534932494163513e-02,3.867471963167190552e-02,3.251855447888374329e-02,5.167778581380844116e-02,3.354630991816520691e-02,2.651689015328884125e-02,5.493584647774696350e-02,3.067480213940143585e-02,3.284092620015144348e-02,3.599927574396133423e-02,3.433909639716148376e-02,6.440103799104690552e-02,4.241022467613220215e-02,3.668232262134552002e-02,3.574927896261215210e-02,-5.881034769117832184e-03,5.016259849071502686e-02,4.816953092813491821e-02,3.238251432776451111e-02,3.154313564300537109e-02,3.395062685012817383e-02,3.624944016337394714e-02,-1.182767190039157867e-02,-3.762156702578067780e-04,3.719890490174293518e-02,3.059779666364192963e-02,-2.765700593590736389e-02,4.477620869874954224e-02,6.293203681707382202e-02,3.618254885077476501e-02,4.729107022285461426e-02,3.333098068833351135e-02,3.036858513951301575e-03,2.999375388026237488e-02,-3.756459802389144897e-02,6.267744302749633789e-02,3.194062784314155579e-02,4.623832926154136658e-02,4.169134795665740967e-02,-1.710833609104156494e-02,4.866538941860198975e-02,7.196716219186782837e-02,3.686716780066490173e-02,5.855961516499519348e-02,3.435310721397399902e-02,6.015021353960037231e-02,5.060076713562011719e-02,3.636393696069717407e-02,-7.592603564262390137e-03,2.524908259510993958e-02,6.400693953037261963e-02,7.564148306846618652e-02,3.608578070998191833e-02,5.520063638687133789e-02,2.944788336753845215e-02,-1.446233689785003662e-02,3.338022902607917786e-02,3.567722439765930176e-02,2.935394272208213806e-02,3.137009590864181519e-02,-5.184599198400974274e-03,3.685085847973823547e-02,-1.805441640317440033e-02,3.462198376655578613e-02,1.814418844878673553e-02,2.615188620984554291e-02,4.093147814273834229e-02,6.353344768285751343e-02,4.633647203445434570e-02,3.968038782477378845e-02,3.691129386425018311e-02,5.006287619471549988e-02,3.368939086794853210e-02,3.781205415725708008e-02,3.092509880661964417e-02
2.583331800997257233e-02,1.290286332368850708e-02,3.035274520516395569e-02,-3.634751960635185242e-02,5.404447019100189209e-02,2.932492271065711975e-02,4.188011959195137024e-02,8.076850324869155884e-02,3.356873989105224609e-02,-1.526382844895124435e-02,5.299465358257293701e-02,3.542008250951766968e-02,3.866175189614295959e-02,3.371205180883407593e-02,4.027822613716125488e-02,5.504806712269783020e-02,3.083811700344085693e-02,4.976819083094596863e-02,-1.955204084515571594e-02,5.043638497591018677e-02,2.181609719991683960e-02,2.633015438914299011e-02,4.574391990900039673e-02,1.181288585066795349e-01,4.208654910326004028e-02,3.662589937448501587e-02,8.219300955533981323e-02,3.287999704480171204e-02,4.737513884902000427e-02,2.669323980808258057e-02,-3.229858353734016418e-02,5.003773421049118042e-02,7.114306837320327759e-02,4.301305115222930908e-02,3.235194832086563110e-03,2.803449705243110657e-02,7.694927975535392761e-03,4.129777848720550537e-02,2.878203243017196655e-02,3.047394379973411560e-02,4.574222490191459656e-02,-2.242082357406616211e-02,4.028419032692909241e-02,3.504866361618041992e-02,3.685918822884559631e-02,3.193272650241851807e-02,3.632684350013732910e-01,6.648641079664230347e-02,4.636014997959136963e-02,-2.242163196206092834e-02,4.852008819580078125e-02,3.081221505999565125e-02,5.466171726584434509e-02,1.160208880901336670e-02,-1.794621348381042480e-02,1.445548981428146362e-01,7.565479725599288940e-03,-4.105842113494873047e-02,-8.400792255997657776e-03,-2.478572726249694824e-02,6.097641214728355408e-02,3.654896095395088196e-02,3.527578338980674744e-02,-1.018144190311431885e-02,7.978475093841552734e-02,4.244884103536605835e-02,1.749010197818279266e-02,4.265945404767990112e-02,3.081478737294673920e-02,3.092210367321968079e-02,4.690815880894660950e-02,5.366140604019165039e-02,3.334327414631843567e-02,6.050870195031166077e-02,2.710204198956489563e-02,4.715921357274055481e-02,1.247144564986228943e-01,3.838614001870155334e-02,3.275726735591888428e-02,3.785704076290130615e-02,-3.600032627582550049e-02,1.470312476158142090e-03,-7.196028251200914383e-03,4.102215170860290527e-02,-4.930011928081512451e-04,2.234146557748317719e-02,-3.056766837835311890e-02,8.195757865905761719e-03,6.152029708027839661e-02,5.574772506952285767e-02,2.919876947999000549e-02,3.455057367682456970e-02,5.151541531085968018e-02,3.973796591162681580e-02,8.162762224674224854e-02,-2.675076946616172791e-02,3.410437703132629395e-02,1.546857319772243500e-02,-2.514932863414287567e-02,3.635678440332412720e-02,3.177328035235404968e-02,4.243377223610877991e-02,-2.197055518627166748e-02,3.790459781885147095e-02,1.294217705726623535e-01,3.326718881726264954e-02,1.467050053179264069e-02,4.373854398727416992e-02,5.582303553819656372e-02,-2.149601094424724579e-02,3.591140359640121460e-02,8.346553146839141846e-02,3.287281095981597900e-02,4.542889818549156189e-02,-3.094348497688770294e-02,3.676935285329818726e-02,2.933304011821746826e-02,-8.087957277894020081e-03,4.592456668615341187e-02,3.250737488269805908e-02,3.163392469286918640e-02,4.397772252559661865e-02,2.879576198756694794e-02,4.612235352396965027e-02,5.203278735280036926e-02,3.861583769321441650e-02,-3.108485415577888489e-02,4.028718173503875732e-02,5.008926242589950562e-02,8.435717225074768066e-02,3.624732792377471924e-02,4.147435352206230164e-02,-3.196045756340026855e-02,-7.904335856437683105e-03,2.924187853932380676e-02,4.438621923327445984e-02,2.562340721487998962e-02,4.032436758279800415e-02,-4.079363774508237839e-03,3.059919923543930054e-02,3.753990307450294495e-02,4.587853699922561646e-02,2.661317586898803711e-03,4.567052423954010010e-02,4.219370707869529724e-02,4.847883433103561401e-02,1.340262144804000854e-01,4.515974223613739014e-02,3.447921574115753174e-02,-5.253732204437255859e-03,8.404413610696792603e-02,4.259011894464492798e-02,3.023918718099594116e-02,1.086189448833465576e-01,4.076502472162246704e-02,3.432773426175117493e-02,1.135472208261489868e-01,5.778556689620018005e-03,4.710061848163604736e-02,5.779844149947166443e-02,3.252189233899116516e-02,3.105469793081283569e-02,8.873017132282257080e-02,3.103748150169849396e-02,4.054276272654533386e-03,4.497626423835754395e-02,3.339129686355590820e-02,2.282244525849819183e-02,3.222848474979400635e-02,2.993769943714141846e-02,4.488743841648101807e-02,2.869721874594688416e-02,-1.493347994983196259e-02,3.450227528810501099e-02,3.040193207561969757e-02,4.361144453287124634e-02,-5.996202677488327026e-02,3.856253251433372498e-02,-2.110011689364910126e-02,-2.326831221580505371e-03,3.986408002674579620e-03,3.556089475750923157e-02,8.271443098783493042e-02,3.681238368153572083e-02,6.315995007753372192e-02,2.450571954250335693e-02,-2.188734710216522217e-03,5.177259817719459534e-02,5.255633592605590820e-02,5.867287516593933105e-02,2.908136323094367981e-02,3.885556757450103760e-02,3.741341084241867065e-02,3.465854749083518982e-02,7.918214797973632812e-02,3.270914033055305481e-02,2.388744056224822998e-02,2.616005484014749527e-03,4.406294971704483032e-02,3.250836953520774841e-02,-5.910804495215415955e-03,7.684660702943801880e-02,6.126517802476882935e-02,3.803486377000808716e-02,5.600567162036895752e-02,5.046972632408142090e-02,2.910848334431648254e-02,4.778117872774600983e-03,1.324840337038040161e-01,3.361535817384719849e-02,5.403883010149002075e-02,2.950587309896945953e-02,3.830950707197189331e-02,3.398277238011360168e-02,3.620811924338340759e-02,3.047825954854488373e-02,1.239907369017601013e-02,2.489324100315570831e-02,-3.646088298410177231e-03,1.176134645938873291e-01,3.322895616292953491e-02,3.659063577651977539e-02,-1.408747676759958267e-02,5.559468641877174377e-02,5.223406478762626648e-02,6.183587014675140381e-02,3.179874271154403687e-02,3.281848132610321045e-02,3.699968010187149048e-02,3.400805592536926270e-02,9.383584558963775635e-02,3.307503834366798401e-02,6.786050647497177124e-02,4.291193932294845581e-02,3.942304477095603943e-02,3.273056820034980774e-02,3.214924409985542297e-02,9.095998108386993408e-02,3.857184946537017822e-02,5.319287627935409546e-02,2.934330701828002930e-02,4.017218202352523804e-02,3.252270072698593140e-02,7.097810506820678711e-02,-2.071391791105270386e-04,3.199680522084236145e-02,5.212632566690444946e-02,1.533538103103637695e-03,9.176009148359298706e-02,-9.538492187857627869e-03,4.086530953645706177e-02,4.910062998533248901e-02,3.054239973425865173e-02,3.321738913655281067e-02,3.307603672146797180e-02,3.019004315137863159e-02,9.414087980985641479e-02,1.714980974793434143e-02,8.936840295791625977e-02,1.186278834939002991e-02,-1.057162787765264511e-02,5.844909697771072388e-02,2.332722581923007965e-02,5.355150252580642700e-02,-3.353701531887054443e-02,1.150020137429237366e-01,3.040713630616664886e-02,3.280000388622283936e-02,5.822061747312545776e-02,3.128035739064216614e-02,3.553771600127220154e-02,-2.675235271453857422e-03,7.597856968641281128e-02,-7.806686684489250183e-03,3.770008683204650879e-02,3.491283208131790161e-02,6.908713281154632568e-02,7.441425323486328125e-02,5.235232412815093994e-02,1.020746380090713501e-01,7.912624627351760864e-02,3.505986928939819336e-02,6.302611529827117920e-02,-3.253871574997901917e-03,-3.573131561279296875e-02,5.300571769475936890e-02,4.827491566538810730e-02,7.410788536071777344e-02,9.612374007701873779e-03,3.351976722478866577e-02,2.230227366089820862e-02,3.287649527192115784e-02,3.134407475590705872e-02,4.758424311876296997e-02,2.314053922891616821e-01,3.002644143998622894e-02,5.080198124051094055e-02,3.551576286554336548e-02,3.222950175404548645e-02,3.628274053335189819e-02,4.990749061107635498e-02,2.376390248537063599e-02,2.819094620645046234e-02,4.609412699937820435e-02,3.884462639689445496e-02,1.820798963308334351e-02,3.062296472489833832e-02,3.890984505414962769e-02,4.314793646335601807e-02,3.187077119946479797e-02,9.590531885623931885e-02,1.240662671625614166e-02,4.472177103161811829e-02,-1.046494767069816589e-02,1.208613365888595581e-01,-8.070897310972213745e-04,-3.429310396313667297e-02,3.558810800313949585e-02,-3.477274626493453979e-02,-3.678160160779953003e-02,3.317910432815551758e-02,5.679515749216079712e-02,4.800604656338691711e-02,4.790160059928894043e-02,1.811390370130538940e-01,5.938192456960678101e-02,3.378242999315261841e-02,3.508438169956207275e-02,3.047054260969161987e-02,4.403296485543251038e-02,5.107520520687103271e-02,3.849990293383598328e-02,-1.727304793894290924e-02,5.363862961530685425e-02,4.482373222708702087e-02,4.007534310221672058e-02,3.731248900294303894e-02,-2.819521911442279816e-02,5.193484015762805939e-03,3.956519067287445068e-02,5.621454492211341858e-02,4.024476930499076843e-02,4.578231275081634521e-02,4.713870584964752197e-02,3.179560601711273193e-02,3.135391324758529663e-02,9.126086533069610596e-02,3.554660826921463013e-02,3.662767261266708374e-02,4.142880439758300781e-03,5.774211138486862183e-02,5.503910034894943237e-02,3.668097779154777527e-02,-3.709971532225608826e-02,2.526505477726459503e-02,4.522177577018737793e-02,-2.722804993391036987e-02,7.333571463823318481e-02,1.116904709488153458e-02,5.892688781023025513e-02,5.366242676973342896e-02,5.851634591817855835e-02,6.568989157676696777e-02,6.711494177579879761e-02,-2.014748007059097290e-02,3.303881734609603882e-02,3.997303172945976257e-02,1.201443970203399658e-01,7.261812686920166016e-02,5.145148560404777527e-02,-1.168201304972171783e-02,3.243691474199295044e-02,4.793714731931686401e-02,4.060478508472442627e-02,3.503407910466194153e-02,2.801105380058288574e-02,7.713504135608673096e-03,3.006163239479064941e-02,4.232399165630340576e-02,3.129060566425323486e-02,2.901260927319526672e-02,4.787860810756683350e-02,-2.261378243565559387e-02,3.091786056756973267e-04,5.417501926422119141e-02,6.339362263679504395e-02,2.731698937714099884e-02,3.866347670555114746e-02,3.620680421590805054e-02,3.310279548168182373e-02,3.336374834179878235e-02,1.300303339958190918e-01,3.539298102259635925e-02,-4.841323941946029663e-03,7.042077183723449707e-02,5.544245988130569458e-02,1.199564114212989807e-01,2.940736338496208191e-02,3.088198229670524597e-02,4.518523067235946655e-02,5.419402942061424255e-02,-3.054895065724849701e-02,6.101363897323608398e-02,9.318672120571136475e-02,3.000841476023197174e-02,3.209771960973739624e-02,2.569136954843997955e-02,3.181840851902961731e-02,4.693157225847244263e-02,2.798096463084220886e-02,7.179541885852813721e-02,3.074615448713302612e-02,6.712849438190460205e-02,4.338292777538299561e-02,-1.643119379878044128e-02,3.309888392686843872e-02,-2.251882851123809814e-02,5.259988084435462952e-02,2.924526669085025787e-02,4.685334861278533936e-02,1.394813358783721924e-01,9.050702303647994995e-02,8.086104691028594971e-02,1.620078459382057190e-02,3.927996009588241577e-02,4.011061042547225952e-02,8.223494887351989746e-02,3.128457069396972656e-02,2.869099006056785583e-02,4.586587473750114441e-02,6.806979328393936157e-02,9.881814569234848022e-02,3.915729373693466187e-02,3.145310282707214355e-02,6.721137464046478271e-02,-3.728055953979492188e-02,3.129941225051879883e-02,-2.732588723301887512e-02,4.326534643769264221e-02,1.567431911826133728e-02,7.969513535499572754e-02,3.363023698329925537e-02,-3.037666901946067810e-02,3.089310228824615479e-02,-1.724126935005187988e-02,4.371619224548339844e-02,5.882111191749572754e-02,1.146059110760688782e-02,2.944830432534217834e-02,2.922805957496166229e-02,4.320209845900535583e-02,1.211283728480339050e-03,2.446554228663444519e-02,6.151829287409782410e-02,2.449570223689079285e-02,2.947629988193511963e-02,3.381373733282089233e-02,4.172174632549285889e-02,3.870531916618347168e-02,-6.849080324172973633e-03,3.890580683946609497e-02,2.149509079754352570e-02,-3.569354861974716187e-02,2.746234834194183350e-02,3.302204236388206482e-02,4.112433642148971558e-02,3.585974127054214478e-02,6.067289412021636963e-02,2.830990403890609741e-02,4.963013902306556702e-02,4.514992982149124146e-02,9.886649250984191895e-02,4.088358953595161438e-02,4.349033534526824951e-02,5.384237319231033325e-02,3.860774263739585876e-02,3.858585283160209656e-02,6.055795401334762573e-02,3.763246163725852966e-02,3.906211256980895996e-02,2.890682034194469452e-02,3.017292171716690063e-02,4.658796638250350952e-02,-7.952071726322174072e-03,3.248467296361923218e-02,3.240135312080383301e-02,1.287513971328735352e-02,3.518657013773918152e-02,6.906819343566894531e-02,-1.628896687179803848e-03,5.546983331441879272e-02,1.953788846731185913e-02,7.074014842510223389e-02,4.106859117746353149e-02,6.095116212964057922e-02,1.240335498005151749e-02,4.724359139800071716e-02,2.974007837474346161e-02,3.400705382227897644e-02,3.732120245695114136e-02,3.825462609529495239e-02,3.729484230279922485e-02,3.190737962722778320e-02,3.971011191606521606e-02,7.436350733041763306e-02,2.402523346245288849e-02,4.237985610961914062e-02,4.151925072073936462e-02,4.437554255127906799e-02,3.794197365641593933e-02,-3.634290397167205811e-02,3.716282173991203308e-02,3.283685445785522461e-02,-8.618822321295738220e-03,-3.041269257664680481e-03,3.131166100502014160e-02,1.845701783895492554e-02,6.714101135730743408e-02,4.300839081406593323e-02,-8.661875501275062561e-03,4.104798287153244019e-02,3.191646188497543335e-02,-4.245576635003089905e-02,5.636041238903999329e-02,3.559000045061111450e-02,4.135595634579658508e-02,-8.122526109218597412e-03,1.094517111778259277e-02,7.273182272911071777e-04,3.641438484191894531e-02,3.421664237976074219e-02,2.300905436277389526e-02,5.571290850639343262e-02,3.361874818801879883e-02,3.130862489342689514e-02,5.589371919631958008e-02,4.089568182826042175e-02,3.228294104337692261e-02,8.324465155601501465e-02,3.326690196990966797e-02,3.656550869345664978e-02,4.075472801923751831e-02,3.229715302586555481e-02,2.959148027002811432e-02,4.053039103746414185e-02,3.074882179498672485e-02,1.172778829932212830e-01,-1.510909758508205414e-02,3.620797023177146912e-02,-2.806848287582397461e-02,3.739815950393676758e-02,3.337045758962631226e-02,4.725543409585952759e-02,3.839563950896263123e-02,2.436447516083717346e-02,6.370255351066589355e-02,3.667800128459930420e-02,4.397798329591751099e-03,3.005509823560714722e-02,3.178581222891807556e-02,4.881492257118225098e-02,3.197397664189338684e-02,2.406550757586956024e-02,4.115151613950729370e-02,-1.694014668464660645e-02,-3.341273218393325806e-02,3.123411722481250763e-02,4.125525802373886108e-02,5.806329846382141113e-02,4.047859832644462585e-02,3.601057082414627075e-02,5.017334222793579102e-02,2.900126948952674866e-02,1.969787292182445526e-02,3.282622992992401123e-02,5.472611263394355774e-02,1.996553316712379456e-02,3.495492041110992432e-02,2.972995676100254059e-02,7.611801475286483765e-02,4.790805652737617493e-02,-5.081286281347274780e-02,4.497438669204711914e-02,2.907245978713035583e-02,3.343331813812255859e-02,3.034259006381034851e-02,-3.220922127366065979e-02,4.446542635560035706e-02,-2.307226881384849548e-02,3.727287054061889648e-02,9.204698726534843445e-03,3.195312991738319397e-02,4.559559747576713562e-02,1.591416075825691223e-03,3.994266688823699951e-02,3.309344500303268433e-02,6.836481392383575439e-02,9.999392926692962646e-02,4.212241992354393005e-02,2.910913340747356415e-02,9.439621120691299438e-03,5.048856139183044434e-02,1.857003197073936462e-03,3.852238506078720093e-02,1.863007247447967529e-02,3.972470760345458984e-02,4.908854886889457703e-02,3.805205225944519043e-02,4.690016806125640869e-02,-2.927465736865997314e-02,3.309594467282295227e-02,4.826877266168594360e-02,4.770435392856597900e-02,4.140851646661758423e-02,4.344315081834793091e-02,-3.664994984865188599e-02,3.651659190654754639e-02,3.524853289127349854e-02,-1.882502064108848572e-02,9.567242115736007690e-03,3.162144869565963745e-02,4.871997237205505371e-02,3.563426807522773743e-02,3.511036187410354614e-02,3.761368244886398315e-02,7.854487001895904541e-02,3.113458119332790375e-02,5.430638790130615234e-02,3.399969264864921570e-02,3.346979245543479919e-02,5.595589429140090942e-02,5.288792401552200317e-02,2.188272029161453247e-02,3.034895844757556915e-02,3.340279310941696167e-02,8.143940567970275879e-02,1.222287863492965698e-02,3.534349054098129272e-02,2.596258744597434998e-02,3.387076780200004578e-02,2.431365475058555603e-02,3.106694668531417847e-02,4.695233330130577087e-02,3.044507652521133423e-02,8.815461397171020508e-02,3.939481452107429504e-02,3.154838830232620239e-02,4.117488116025924683e-02,4.855350404977798462e-02,3.327617049217224121e-02,4.710233956575393677e-02,5.974049866199493408e-02,-3.216556087136268616e-02,4.290462285280227661e-02,-4.302287846803665161e-02,3.198245540261268616e-02,1.330069750547409058e-01,3.245324268937110901e-02,5.934486910700798035e-02,3.770182281732559204e-02,1.510444283485412598e-01,3.628133982419967651e-02,3.178969025611877441e-02,3.278403729200363159e-02,1.613049581646919250e-02,3.398577123880386353e-02,8.313401043415069580e-02,3.565951809287071228e-02,-3.020787425339221954e-02,-3.637180663645267487e-03,3.374512121081352234e-02,4.743626713752746582e-02,1.409756019711494446e-02,3.162938356399536133e-02,-1.565041020512580872e-02,2.453663200139999390e-02,3.393788263201713562e-02,4.444771632552146912e-02,8.843778073787689209e-02,-2.543815225362777710e-02,-1.785261929035186768e-02,-2.561251446604728699e-02,2.135883457958698273e-02,-2.342360839247703552e-02,3.525992482900619507e-02,4.952657222747802734e-02,4.623665288090705872e-02,4.107813909649848938e-02,6.470751017332077026e-02,6.941922008991241455e-02,4.533596336841583252e-02,-1.568155363202095032e-03,4.652182757854461670e-02,-3.612944483757019043e-02,2.505914680659770966e-02,3.019147366285324097e-02,-4.044730961322784424e-02,5.727847293019294739e-02,2.878647483885288239e-02,7.030983269214630127e-02,6.489016860723495483e-02,1.455530989915132523e-02,5.177008919417858124e-03,-2.193831093609333038e-02,2.616766281425952911e-02,-2.265925891697406769e-02,7.437291741371154785e-02,3.464127331972122192e-02,8.976646512746810913e-02,3.440411388874053955e-02,4.503591731190681458e-02,3.930649533867835999e-02,3.521200269460678101e-02,3.432999551296234131e-02,-2.569940872490406036e-02,4.525692015886306763e-02,2.580558881163597107e-02,-3.075629845261573792e-02,4.572152346372604370e-02,2.990628033876419067e-02,3.454773873090744019e-02,6.248435005545616150e-02,-7.500091567635536194e-03,3.136650845408439636e-02,2.593768760561943054e-02,3.113228455185890198e-02,4.428592696785926819e-02,-1.395922992378473282e-02,4.289617761969566345e-02,-2.376638352870941162e-03,4.695838317275047302e-02,3.102618083357810974e-02,4.448873922228813171e-02,1.129379272460937500e-01,4.296932369470596313e-02,4.379089921712875366e-02,3.195204213261604309e-02,-2.790941298007965088e-02,3.095826692879199982e-02,3.760822862386703491e-02,5.265336483716964722e-02,3.356113284826278687e-02,3.391750156879425049e-02,3.484976664185523987e-02,3.402524068951606750e-02,-2.100477926433086395e-02,7.391075044870376587e-02,-3.749032318592071533e-02,7.100370526313781738e-02,3.174647316336631775e-02,4.118362814188003540e-02,4.054325073957443237e-02,3.119603917002677917e-02,3.778983652591705322e-02,2.687015011906623840e-02,-1.349572092294692993e-02,3.291083872318267822e-02,3.218917548656463623e-02,4.644647985696792603e-02,4.519612342119216919e-02,3.630771115422248840e-02,2.867321670055389404e-02,3.303684294223785400e-02,3.494416922330856323e-02,-5.337443202733993530e-02,4.905260354280471802e-02,2.995629981160163879e-02,5.018590390682220459e-02,6.584725528955459595e-02,3.526173904538154602e-02,3.913354128599166870e-02,1.705540716648101807e-02,8.400149643421173096e-02,1.715011522173881531e-02,4.136641323566436768e-02,6.325000524520874023e-02,-4.502985626459121704e-03,4.537873715162277222e-02,3.656494617462158203e-02,-2.144646272063255310e-02,-8.297091349959373474e-03,8.791987597942352295e-02,-5.630866438150405884e-02,4.573643207550048828e-02,6.106306985020637512e-02,6.871756166219711304e-02,3.229758515954017639e-02,7.681362330913543701e-05,-3.170658648014068604e-02,-5.925988778471946716e-03,-1.968596130609512329e-02,4.201474413275718689e-02,5.585151165723800659e-02,3.335906937718391418e-02,5.828868970274925232e-02,4.932552576065063477e-02,3.565046936273574829e-02,9.371003508567810059e-02,4.558186233043670654e-02,3.047519922256469727e-02,-2.474831603467464447e-02,8.483313769102096558e-02,1.463718339800834656e-02,-2.079106122255325317e-02,4.145308211445808411e-02,-3.112557530403137207e-02,3.001296147704124451e-02,4.039918631315231323e-02,4.409294575452804565e-02,3.170519694685935974e-02,-2.062846347689628601e-02,4.341319203376770020e-02,-2.952559106051921844e-02,3.089747391641139984e-02,5.831528455018997192e-02,3.374260663986206055e-02,1.259525492787361145e-02,4.127777740359306335e-02,-1.322730444371700287e-02,6.300315260887145996e-02,3.010594472289085388e-02,3.282318636775016785e-02,3.970349673181772232e-03,2.229306846857070923e-03,4.534588754177093506e-02,3.641006723046302795e-02,3.566589206457138062e-02,4.792520776391029358e-02,1.241322010755538940e-01,4.822198301553726196e-02,9.372852742671966553e-02,5.678914114832878113e-02,1.293991655111312866e-01,3.639563173055648804e-02,9.147173911333084106e-02,2.897782623767852783e-02,-3.481341153383255005e-02,-5.129948258399963379e-02,7.075414806604385376e-02,3.340374305844306946e-02,9.097294509410858154e-02,3.997332975268363953e-02,2.953843213617801666e-02,4.186740890145301819e-02,1.441838741302490234e-01,-8.630421943962574005e-03,6.361712515354156494e-02,1.736786961555480957e-02,4.562078416347503662e-02,-2.531010657548904419e-03,8.490063995122909546e-02,4.299688339233398438e-02,-2.978391945362091064e-03,1.594424247741699219e-03,3.045768290758132935e-02,5.206630006432533264e-02,-3.588392585515975952e-02,1.025374084711074829e-01,3.837637603282928467e-02,4.944517463445663452e-02,3.635833039879798889e-02,4.470752179622650146e-02,5.972480028867721558e-02,4.146129265427589417e-02,3.855219855904579163e-02,5.458513274788856506e-02,3.187265619635581970e-02,4.184179008007049561e-02,1.593876332044601440e-01,3.659863397479057312e-02,4.296851158142089844e-02,-2.045609429478645325e-02,4.468579590320587158e-02,3.072949498891830444e-02,2.954996377229690552e-02,5.911624804139137268e-02,3.025239333510398865e-02,4.732848703861236572e-02,3.157199919223785400e-02,4.923392832279205322e-02,3.528844565153121948e-02,3.789905458688735962e-02,3.211967647075653076e-02,4.254481196403503418e-02,-2.943009883165359497e-02,3.812361136078834534e-02,3.424922749400138855e-02,3.072367608547210693e-02,4.126556962728500366e-02,-2.950976788997650146e-02,3.014319390058517456e-02,1.122413203120231628e-02,1.032073944807052612e-01,4.284057766199111938e-02,4.782199114561080933e-02,-3.035499341785907745e-02,3.569091856479644775e-02,5.503333359956741333e-02,4.670811817049980164e-02,2.583289518952369690e-03,3.361243382096290588e-02,3.338297456502914429e-02,2.854809910058975220e-02,5.446503311395645142e-02,2.999314665794372559e-02,3.809412196278572083e-02,3.936262056231498718e-02,3.409051150083541870e-02,4.924751818180084229e-02,-3.196506574749946594e-02,5.205014348030090332e-02,3.261480480432510376e-02,-1.168133690953254700e-03,6.287267431616783142e-03,2.622543461620807648e-02,6.170797348022460938e-02,5.397687107324600220e-02,4.246002435684204102e-02,3.312570974230766296e-02,5.206612125039100647e-02,4.321277141571044922e-02,2.564748749136924744e-02,5.074209719896316528e-02,4.176878929138183594e-02,-1.262164209038019180e-02,3.729239851236343384e-02,3.701829165220260620e-02,3.259176015853881836e-02,-4.957686364650726318e-02,5.552785843610763550e-02,-1.520602498203516006e-03,3.321213275194168091e-02,3.061181679368019104e-02,5.572917312383651733e-02,3.666263818740844727e-02,6.437429785728454590e-02,9.425665438175201416e-02,-1.250089891254901886e-02,4.865800589323043823e-02,3.671381250023841858e-02,1.205108501017093658e-02,3.937798365950584412e-02,-3.665724396705627441e-02,3.321944922208786011e-02,3.130524232983589172e-02,3.398960828781127930e-02,-2.551310695707798004e-02,4.674175381660461426e-02,3.281148523092269897e-02,3.694754838943481445e-02,3.112699277698993683e-02,9.515540301799774170e-02,-5.748974159359931946e-03,6.158057972788810730e-02,2.492088265717029572e-02,5.178930237889289856e-02,2.037202008068561554e-02,1.709644310176372528e-02,3.152360394597053528e-02,1.134022325277328491e-01,4.234981536865234375e-02,3.201866894960403442e-02,-3.396258503198623657e-02,-2.674121595919132233e-02,3.921743109822273254e-02,1.466506253927946091e-02,1.170295178890228271e-01,3.712853789329528809e-02,3.757498040795326233e-02,6.289084255695343018e-02,-2.227522060275077820e-02,4.919864982366561890e-02,5.460484325885772705e-02,7.331836968660354614e-02,4.047710821032524109e-02,4.346355423331260681e-02,3.344313427805900574e-02,2.857499569654464722e-02,7.927587628364562988e-02,2.026357688009738922e-03,6.987607479095458984e-02,3.250128030776977539e-02,3.818197920918464661e-02,4.419814422726631165e-02,3.138307109475135803e-02,4.809413105249404907e-02,4.797156155109405518e-02,3.893171995878219604e-02,3.840646147727966309e-02,1.524189487099647522e-02,9.442474693059921265e-04,5.572199821472167969e-03,4.331491142511367798e-02,2.974791638553142548e-02,-6.707612425088882446e-03,9.014492481946945190e-02,1.799327693879604340e-02,4.068068414926528931e-02,3.706407919526100159e-02,3.259247168898582458e-02
-9.717152267694473267e-02,3.508596494793891907e-02,2.417240664362907410e-02,1.620384678244590759e-02,4.675054922699928284e-02,1.857054047286510468e-02,4.336770996451377869e-02,8.782208710908889771e-02,2.692387066781520844e-02,1.016999781131744385e-02,5.102176964282989502e-02,2.748863026499748230e-02,-6.190351396799087524e-02,3.154502436518669128e-02,2.876834198832511902e-02,3.692625835537910461e-02,2.998718619346618652e-02,3.772443532943725586e-02,3.312367573380470276e-02,2.087357640266418457e-02,-4.377846606075763702e-03,5.668146535754203796e-02,3.499536588788032532e-02,1.126238256692886353e-01,4.025896638631820679e-02,4.090192914009094238e-02,5.641374737024307251e-02,3.943957015872001648e-02,3.831608965992927551e-02,9.215172380208969116e-03,-4.829815588891506195e-03,5.625399947166442871e-02,5.188903957605361938e-02,4.785751551389694214e-02,3.238512948155403137e-02,2.260093018412590027e-02,2.645657397806644440e-02,3.159993514418601990e-02,2.497870661318302155e-02,2.370596863329410553e-02,2.653164789080619812e-02,5.356451869010925293e-02,2.817272022366523743e-02,2.661914005875587463e-02,3.083308413624763489e-02,3.691666200757026672e-02,1.855857670307159424e-01,6.884086132049560547e-02,3.732129931449890137e-02,3.380557894706726074e-02,4.209419712424278259e-02,3.016477450728416443e-02,4.407462477684020996e-02,3.431199118494987488e-02,3.548842668533325195e-02,8.269652724266052246e-02,3.860614076256752014e-02,-1.402564626187086105e-02,2.994579449295997620e-02,3.169792145490646362e-02,-7.486506551504135132e-02,3.885891288518905640e-02,3.860464319586753845e-02,4.470649734139442444e-02,5.871865153312683105e-02,6.081810966134071350e-02,1.932559534907341003e-03,3.701931238174438477e-02,3.076614066958427429e-02,2.957416139543056488e-02,4.298551008105278015e-02,3.692878037691116333e-02,3.725062310695648193e-02,4.572787135839462280e-02,-5.780985578894615173e-03,4.208049550652503967e-02,6.735406816005706787e-02,3.995930403470993042e-02,3.155976906418800354e-02,2.882457524538040161e-02,-1.344425696879625320e-02,5.249668285250663757e-02,9.921841323375701904e-02,4.387874901294708252e-02,2.852266654372215271e-02,-7.392178289592266083e-03,3.308919724076986313e-03,3.783522173762321472e-02,5.214416235685348511e-02,5.329027026891708374e-02,2.782526426017284393e-02,3.758307173848152161e-02,6.756068021059036255e-02,2.682073786854743958e-02,5.218094214797019958e-02,-4.603249020874500275e-03,3.191217780113220215e-02,-1.115603651851415634e-02,1.919304579496383667e-02,4.080959782004356384e-02,2.757121622562408447e-02,6.851071119308471680e-02,4.612658917903900146e-02,3.308017179369926453e-02,7.423561066389083862e-02,2.472186647355556488e-02,-1.028057001531124115e-02,2.313295379281044006e-02,4.029187560081481934e-02,1.711084693670272827e-02,2.320177480578422546e-02,5.827964097261428833e-02,2.776906453073024750e-02,9.146536467596888542e-04,1.395947113633155823e-02,3.684104979038238525e-02,2.852388471364974976e-02,2.229807712137699127e-02,3.748385608196258545e-02,3.823440521955490112e-02,3.088030219078063965e-02,3.258410468697547913e-02,2.578417211771011353e-02,3.880724683403968811e-02,3.947737812995910645e-02,5.098862200975418091e-02,2.111321315169334412e-02,3.955375030636787415e-02,1.276038493961095810e-02,5.789317190647125244e-02,3.515722975134849548e-02,5.139274522662162781e-02,1.661326736211776733e-02,5.244872719049453735e-02,2.963993884623050690e-02,3.779446333646774292e-02,3.850725665688514709e-02,4.221206158399581909e-02,2.017419971525669098e-02,2.505763433873653412e-02,3.496820107102394104e-02,4.596606642007827759e-02,3.368927538394927979e-02,3.821198269724845886e-02,3.633343055844306946e-02,5.082888156175613403e-02,1.348881125450134277e-01,4.429078102111816406e-02,3.290997818112373352e-02,3.217446058988571167e-02,5.669524148106575012e-02,3.699252381920814514e-02,2.650587633252143860e-02,6.035629287362098694e-02,3.486923500895500183e-02,4.718380421400070190e-02,1.267567723989486694e-01,1.286206580698490143e-02,4.018908366560935974e-02,6.147043779492378235e-02,2.416107803583145142e-02,2.992740832269191742e-02,5.935547873377799988e-02,3.326282650232315063e-02,-8.972339332103729248e-03,4.503773897886276245e-02,3.241142258048057556e-02,-7.829573005437850952e-03,2.429843321442604065e-02,2.395894192159175873e-02,4.025619477033615112e-02,2.692624181509017944e-02,-8.916649967432022095e-03,3.717143833637237549e-02,3.543853759765625000e-02,3.252049535512924194e-02,-1.210550740361213684e-01,2.979304082691669464e-02,5.822675675153732300e-02,1.163896545767784119e-02,2.461169846355915070e-02,3.386805579066276550e-02,7.674511522054672241e-02,-1.553618349134922028e-02,5.392847210168838501e-02,4.061323031783103943e-02,2.212673425674438477e-04,3.735458850860595703e-02,3.062743507325649261e-02,5.692665651440620422e-02,2.717826887965202332e-02,3.927674144506454468e-02,4.317877441644668579e-02,3.263053297996520996e-02,3.236433491110801697e-02,3.627894073724746704e-02,1.079813763499259949e-02,1.600126177072525024e-02,2.839606441557407379e-02,3.960040956735610962e-02,3.069078177213668823e-02,4.287708178162574768e-02,6.046637147665023804e-02,3.913876786828041077e-02,2.182212658226490021e-02,4.219778627157211304e-02,1.179831661283969879e-02,1.016778871417045593e-02,6.810679286718368530e-02,3.314623981714248657e-02,9.117926657199859619e-02,2.567143552005290985e-02,4.079182073473930359e-02,3.561149537563323975e-02,3.891864791512489319e-02,2.543959394097328186e-02,7.637482136487960815e-03,3.343091532588005066e-02,-1.170908566564321518e-02,8.660396933555603027e-02,3.784485906362533569e-02,3.315419703722000122e-02,1.027086470276117325e-02,2.372050285339355469e-02,8.721244521439075470e-03,5.382756143808364868e-02,3.908955305814743042e-02,3.085889108479022980e-02,-9.894566610455513000e-04,3.182202950119972229e-02,9.735679626464843750e-02,3.163057565689086914e-02,7.016991823911666870e-02,4.161334782838821411e-02,3.406575694680213928e-02,3.478888049721717834e-02,3.409261256456375122e-02,6.272778660058975220e-02,-7.564129680395126343e-02,6.498772650957107544e-02,-4.692748188972473145e-04,3.218569606542587280e-02,3.463407233357429504e-02,7.841463387012481689e-02,3.566066548228263855e-02,3.164022415876388550e-02,3.979163244366645813e-02,1.219713408499956131e-02,1.093129292130470276e-01,1.230651512742042542e-02,4.309566318988800049e-02,4.795377701520919800e-02,2.455987222492694855e-02,3.976972401142120361e-02,4.017891734838485718e-02,7.953618466854095459e-02,1.036324501037597656e-01,-8.323870599269866943e-03,1.003506034612655640e-01,9.911627508699893951e-03,3.614556044340133667e-03,4.509527981281280518e-02,2.777427434921264648e-02,4.487894475460052490e-02,1.073078066110610962e-02,1.006710752844810486e-01,2.750293910503387451e-02,2.901670336723327637e-02,3.676132112741470337e-02,2.597344666719436646e-02,3.283552452921867371e-02,3.566512465476989746e-02,5.799916014075279236e-02,-4.397072829306125641e-03,4.401910305023193359e-02,3.086354769766330719e-02,4.840128496289253235e-02,1.505910754203796387e-01,4.249583929777145386e-02,5.993079766631126404e-02,7.167680561542510986e-02,2.644245699048042297e-02,4.803172871470451355e-02,1.050330325961112976e-02,-1.274427026510238647e-02,9.150362014770507812e-02,4.940252006053924561e-02,5.162961035966873169e-02,5.874179676175117493e-02,2.405113726854324341e-02,1.611274667084217072e-02,3.414572030305862427e-02,3.009159117937088013e-02,5.164295434951782227e-02,1.540887504816055298e-01,3.076769225299358368e-02,5.157000198960304260e-02,4.458405822515487671e-02,6.344978697597980499e-03,5.384483188390731812e-02,4.762331023812294006e-02,3.025403246283531189e-02,3.912476450204849243e-02,-1.072884872555732727e-01,4.395297542214393616e-02,4.044732451438903809e-02,4.172158613801002502e-02,3.522809594869613647e-02,3.657870739698410034e-02,3.237087652087211609e-02,6.301033496856689453e-02,4.738128278404474258e-03,3.564351238310337067e-03,3.938943892717361450e-02,6.585847586393356323e-02,2.520744130015373230e-02,-7.298637181520462036e-02,3.081923164427280426e-02,3.111470676958560944e-02,-9.034024551510810852e-03,-7.089062035083770752e-02,2.586000785231590271e-02,4.347477853298187256e-02,4.028741642832756042e-02,1.107316762208938599e-01,5.201661214232444763e-02,3.091820515692234039e-02,3.760354593396186829e-02,3.400919586420059204e-02,3.362338989973068237e-02,4.798123985528945923e-02,4.854737594723701477e-02,-9.513274766504764557e-03,-1.018481627106666565e-01,3.699682280421257019e-02,3.805999085307121277e-02,3.593447431921958923e-02,2.618062868714332581e-02,-4.650972783565521240e-03,3.526230156421661377e-02,4.042378813028335571e-02,2.571765333414077759e-02,4.487730562686920166e-02,4.487892240285873413e-02,2.748685702681541443e-02,2.781721018254756927e-02,5.120322480797767639e-02,4.223331063985824585e-02,3.928109258413314819e-02,1.259102858603000641e-02,4.104733467102050781e-02,4.329937696456909180e-02,3.076566569507122040e-02,-7.212305068969726562e-02,2.814096771180629730e-02,3.668446093797683716e-02,-7.532232441008090973e-03,6.480672210454940796e-02,1.351816020905971527e-02,6.865629553794860840e-02,4.738869145512580872e-02,5.126085877418518066e-02,3.138464689254760742e-02,4.703121632337570190e-02,-3.316362388432025909e-03,2.958346344530582428e-02,2.670261077582836151e-02,1.270634979009628296e-01,5.868136882781982422e-02,4.272038489580154419e-02,-2.466621808707714081e-04,2.356789819896221161e-02,5.785363540053367615e-02,3.488723933696746826e-02,1.278266217559576035e-02,2.746951207518577576e-02,3.397693112492561340e-02,2.502339705824851990e-02,2.177681773900985718e-02,3.070050664246082306e-02,-6.695433706045150757e-02,3.555459529161453247e-02,-1.598214730620384216e-04,9.098433889448642731e-03,4.955238848924636841e-02,4.348774254322052002e-02,2.414872683584690094e-02,4.104562103748321533e-02,3.733424097299575806e-02,2.444601245224475861e-02,4.016359150409698486e-02,1.316246986389160156e-01,4.107420891523361206e-02,3.479486331343650818e-02,4.609657824039459229e-02,2.211930975317955017e-02,9.955386817455291748e-02,2.183054387569427490e-02,2.390317805111408234e-02,2.169590815901756287e-02,5.824463814496994019e-02,5.078288167715072632e-02,6.596749275922775269e-02,7.841745018959045410e-02,2.984361536800861359e-02,3.745320811867713928e-02,3.021644800901412964e-02,3.424211964011192322e-02,4.872785136103630066e-02,2.599534206092357635e-02,5.533837527036666870e-02,2.859262563288211823e-02,3.338392078876495361e-02,3.266186267137527466e-02,3.549229726195335388e-02,-5.086899269372224808e-03,9.124601259827613831e-03,5.047629028558731079e-02,2.365009300410747528e-02,4.338117316365242004e-02,8.062198758125305176e-02,6.145879998803138733e-02,5.327188596129417419e-02,-3.381370566785335541e-03,3.813421726226806641e-02,6.453475356101989746e-02,7.039524614810943604e-02,3.066925704479217529e-02,2.754267305135726929e-02,4.339940845966339111e-02,6.396612524986267090e-02,1.083130985498428345e-01,3.220374882221221924e-02,3.394753113389015198e-02,2.650909870862960815e-02,3.497183322906494141e-02,2.992056496441364288e-02,3.109100740402936935e-03,4.097865521907806396e-02,2.310182526707649231e-02,5.136702954769134521e-02,3.059124387800693512e-02,4.266709554940462112e-03,2.764105051755905151e-02,6.913710385560989380e-02,4.489472508430480957e-02,4.534995555877685547e-02,8.941769599914550781e-03,3.049601987004280090e-02,2.899525128304958344e-02,4.060138016939163208e-02,2.893768064677715302e-02,2.073596976697444916e-02,4.551902413368225098e-02,6.461533717811107635e-03,3.034502826631069183e-02,3.823129087686538696e-02,4.664284735918045044e-02,3.923612087965011597e-02,3.112178668379783630e-02,3.583261743187904358e-02,2.375425957143306732e-02,-2.409048937261104584e-02,2.005023322999477386e-02,1.765703782439231873e-02,2.487533912062644958e-02,3.687363117933273315e-02,5.749437212944030762e-02,2.540326118469238281e-02,1.242673769593238831e-02,4.137976840138435364e-02,1.045763492584228516e-01,3.874646872282028198e-02,2.574362233281135559e-02,6.307007372379302979e-02,-1.257904525846242905e-02,2.938532270491123199e-02,5.649577081203460693e-02,4.541641846299171448e-02,2.412959933280944824e-02,1.820994727313518524e-02,2.791313827037811279e-02,3.590965643525123596e-02,5.927176214754581451e-03,3.725053369998931885e-02,3.109960630536079407e-02,3.512910753488540649e-02,4.499983042478561401e-02,6.614794582128524780e-02,5.344491917639970779e-03,5.480930581688880920e-02,2.286794222891330719e-02,7.555194199085235596e-02,3.841856122016906738e-02,6.193363294005393982e-02,2.995007298886775970e-02,4.741749912500381470e-02,4.106213897466659546e-02,2.446317486464977264e-02,5.389335751533508301e-02,7.073426246643066406e-02,2.566879615187644958e-02,2.745759300887584686e-02,3.689510375261306763e-02,2.977120876312255859e-02,3.403160348534584045e-02,7.193667441606521606e-02,3.781993687152862549e-02,6.043788790702819824e-02,4.428661987185478210e-02,-1.134881656616926193e-02,6.924273818731307983e-02,2.437664009630680084e-02,3.298691287636756897e-02,2.717490494251251221e-02,2.901352755725383759e-02,3.384823352098464966e-02,6.303416192531585693e-02,3.764750435948371887e-02,1.189767569303512573e-02,3.439636528491973877e-02,2.859885245561599731e-02,1.341163069009780884e-01,5.505397915840148926e-02,3.704758733510971069e-02,3.444635123014450073e-02,5.994883831590414047e-03,3.482760861515998840e-02,2.584857121109962463e-02,2.963039651513099670e-02,3.910973295569419861e-02,1.457665208727121353e-02,4.668379947543144226e-02,3.013171255588531494e-02,3.045955300331115723e-02,8.670755475759506226e-02,4.015098139643669128e-02,2.835558541119098663e-02,8.568355441093444824e-02,3.256957605481147766e-02,4.189012199640274048e-02,3.501214087009429932e-02,2.947485074400901794e-02,3.134644031524658203e-02,3.799397870898246765e-02,3.258415311574935913e-02,8.457872271537780762e-02,-1.488223671913146973e-03,2.772375382483005524e-02,1.438936218619346619e-02,2.844707481563091278e-02,3.117066249251365662e-02,3.335354104638099670e-02,3.773280978202819824e-02,-5.522582214325666428e-03,5.157840251922607422e-02,4.199832677841186523e-02,3.783395513892173767e-02,2.115813083946704865e-02,2.934251166880130768e-02,7.724574208259582520e-02,2.968709915876388550e-02,-2.142637968063354492e-03,4.035864025354385376e-02,6.217547506093978882e-02,-1.364098675549030304e-02,3.059152327477931976e-02,2.563910745084285736e-02,2.145201712846755981e-02,3.453861549496650696e-02,3.294334560632705688e-02,4.292628541588783264e-02,2.162117138504981995e-02,7.847137749195098877e-03,3.028102591633796692e-02,6.549837999045848846e-03,-5.867955274879932404e-03,3.740029782056808472e-02,1.918216608464717865e-02,8.124876767396926880e-02,5.761292204260826111e-02,-6.493560969829559326e-02,3.706065937876701355e-02,3.601371124386787415e-02,3.110321611166000366e-02,3.018434159457683563e-02,-5.006995052099227905e-04,6.375013291835784912e-02,-8.292292244732379913e-03,3.801571577787399292e-02,5.131564289331436157e-02,3.474720567464828491e-02,2.986063063144683838e-02,2.947940677404403687e-02,3.505071625113487244e-02,3.018215857446193695e-02,7.011024653911590576e-02,6.964259594678878784e-02,3.572203963994979858e-02,3.489204123616218567e-02,4.110489785671234131e-02,7.807831466197967529e-02,2.841467969119548798e-02,3.107117116451263428e-02,2.175990492105484009e-02,3.373780101537704468e-02,9.780385345220565796e-02,-2.910194173455238342e-02,5.625578016042709351e-02,1.431778073310852051e-01,2.786029316484928131e-02,4.500005394220352173e-02,7.181321084499359131e-02,1.262169890105724335e-02,5.292946472764015198e-02,4.368054866790771484e-02,2.726976387202739716e-02,-3.700147569179534912e-02,-1.140697207301855087e-02,2.205799333751201630e-02,2.622982114553451538e-02,5.381584167480468750e-02,3.732881322503089905e-02,3.531615436077117920e-02,2.486368641257286072e-02,8.359137177467346191e-02,3.299959003925323486e-02,5.134069919586181641e-02,3.711794316768646240e-02,3.658178076148033142e-02,5.469518527388572693e-02,5.464816093444824219e-02,2.765965834259986877e-02,2.666112780570983887e-02,3.181447833776473999e-02,5.622447654604911804e-02,1.908916607499122620e-02,3.597901761531829834e-02,-4.525270778685808182e-03,-6.444197148084640503e-02,3.128705546259880066e-02,2.967263199388980865e-02,3.973239287734031677e-02,2.883858606219291687e-02,5.678344517946243286e-02,4.995549470186233521e-02,3.187837451696395874e-02,5.166437104344367981e-02,3.345309942960739136e-02,3.101010620594024658e-02,4.567639529705047607e-02,6.950175017118453979e-02,2.197248488664627075e-02,9.208382107317447662e-03,-6.971288472414016724e-02,2.160310372710227966e-02,6.648060679435729980e-02,3.194009885191917419e-02,5.581781640648841858e-02,3.988464176654815674e-02,9.069751948118209839e-02,5.763654038310050964e-02,4.024320840835571289e-02,3.400348871946334839e-02,6.821241974830627441e-02,4.548694193363189697e-02,5.081696808338165283e-02,4.090980812907218933e-02,1.574368588626384735e-02,1.216186117380857468e-02,2.515091188251972198e-02,3.191443160176277161e-02,3.536150604486465454e-02,2.473680675029754639e-02,7.079634815454483032e-04,2.634695172309875488e-02,3.017974086105823517e-02,6.164412945508956909e-02,9.378776699304580688e-02,4.573071375489234924e-02,1.379509456455707550e-03,6.594843231141567230e-03,9.156855754554271698e-03,1.173475310206413269e-01,3.574103862047195435e-02,4.915584996342658997e-02,3.103315085172653198e-02,4.746908321976661682e-02,6.051651388406753540e-02,5.434849113225936890e-02,7.641978561878204346e-02,2.068457007408142090e-02,4.015244916081428528e-02,1.113272309303283691e-01,1.999770477414131165e-02,3.005940094590187073e-02,-1.715340837836265564e-02,5.636173486709594727e-02,3.173561394214630127e-02,5.865962803363800049e-02,6.045320257544517517e-02,3.860799968242645264e-02,2.737245708703994751e-02,6.850807927548885345e-03,2.576756104826927185e-02,-2.988548949360847473e-03,7.972897589206695557e-02,3.756123036146163940e-02,6.748496741056442261e-02,1.806331612169742584e-02,5.103946849703788757e-02,3.617522493004798889e-02,2.860451303422451019e-02,2.165261656045913696e-02,3.936663269996643066e-02,3.858686611056327820e-02,3.975016251206398010e-02,9.125557728111743927e-03,3.906690701842308044e-02,3.477403149008750916e-02,3.676360845565795898e-02,5.193199962377548218e-02,2.851582877337932587e-02,3.230990096926689148e-02,1.535138301551342010e-02,2.493001706898212433e-02,5.935316905379295349e-02,-5.041173659265041351e-03,4.409210011363029480e-02,3.863458707928657532e-02,3.127832338213920593e-02,3.169552236795425415e-02,3.636728599667549133e-02,6.327711790800094604e-02,4.008447378873825073e-02,3.655064478516578674e-02,3.473810851573944092e-02,9.628388099372386932e-03,2.187363244593143463e-02,-1.879495102912187576e-03,4.659855738282203674e-02,4.237400740385055542e-02,3.064614161849021912e-02,3.031202778220176697e-02,3.095004335045814514e-02,2.855050936341285706e-02,5.946630984544754028e-02,4.896289110183715820e-02,6.709089875221252441e-02,3.486198186874389648e-02,-8.518625050783157349e-02,3.696880489587783813e-02,2.460901811718940735e-02,2.341181412339210510e-02,2.465716376900672913e-02,1.133491769433021545e-01,2.676466479897499084e-02,3.833014145493507385e-02,3.945969417691230774e-02,2.297402918338775635e-02,1.958730444312095642e-02,2.084737457334995270e-02,3.345419466495513916e-02,2.728885784745216370e-02,-6.792594492435455322e-02,3.443869948387145996e-02,3.290461748838424683e-02,4.264047741889953613e-02,5.981875211000442505e-02,2.601423487067222595e-02,5.437900871038436890e-02,3.216454014182090759e-02,6.584218144416809082e-02,2.693655341863632202e-02,3.896595910191535950e-02,4.125820472836494446e-02,2.910292707383632660e-02,6.302838027477264404e-02,2.729402482509613037e-02,2.465524477884173393e-03,3.121355548501014709e-02,6.260691583156585693e-02,-2.914177067577838898e-02,3.165733069181442261e-02,4.148159921169281006e-02,5.682568997144699097e-02,3.259227052330970764e-02,2.837195619940757751e-02,1.739165186882019043e-02,1.052732300013303757e-02,-3.285101056098937988e-02,3.036486357450485229e-02,3.372116386890411377e-02,3.246686607599258423e-02,2.261531725525856018e-02,4.055605456233024597e-02,3.615989163517951965e-02,1.008780449628829956e-01,3.166915103793144226e-02,2.586941793560981750e-02,1.591572351753711700e-02,9.172976016998291016e-02,4.202527925372123718e-03,6.768886744976043701e-02,2.176373638212680817e-02,-5.684280022978782654e-02,3.099508583545684814e-02,6.124040484428405762e-02,2.891654893755912781e-02,3.048996254801750183e-02,-4.109539091587066650e-03,4.399345070123672485e-02,8.672818541526794434e-03,3.124037384986877441e-02,5.377776920795440674e-02,2.709806710481643677e-02,7.404655963182449341e-02,1.353548094630241394e-02,2.270689234137535095e-02,5.505165085196495056e-02,2.992767281830310822e-02,2.799841389060020447e-02,9.301099926233291626e-03,3.209091722965240479e-02,5.582532659173011780e-02,4.199229925870895386e-02,2.684371918439865112e-02,4.384981095790863037e-02,7.321831583976745605e-02,1.075797751545906067e-01,6.170786172151565552e-02,4.394387081265449524e-02,6.645759940147399902e-02,3.493507578969001770e-02,7.024243474006652832e-02,2.804305776953697205e-02,4.405563324689865112e-02,2.259612269699573517e-02,6.174220889806747437e-02,3.626466542482376099e-02,5.764008313417434692e-02,3.512179851531982422e-02,3.766721487045288086e-02,3.607289493083953857e-02,9.263075143098831177e-02,9.340435266494750977e-03,3.608675673604011536e-02,5.437986180186271667e-02,6.431420892477035522e-02,2.779456600546836853e-02,6.160416454076766968e-02,4.311209917068481445e-02,1.924691908061504364e-02,3.944646194577217102e-02,1.483817305415868759e-02,4.845472052693367004e-02,1.817935705184936523e-02,7.575605809688568115e-02,3.620356321334838867e-02,3.505959734320640564e-02,3.568565845489501953e-02,1.885334029793739319e-02,5.462855845689773560e-02,3.753048181533813477e-02,2.305502071976661682e-02,5.242168903350830078e-02,2.656163275241851807e-02,3.829807043075561523e-02,8.650760352611541748e-02,2.557116188108921051e-02,3.366258740425109863e-02,1.780190272256731987e-03,8.039711974561214447e-03,3.797306492924690247e-02,2.393875643610954285e-02,5.767469108104705811e-02,2.735184878110885620e-02,3.119586966931819916e-02,3.078138828277587891e-02,5.006770417094230652e-02,3.072244115173816681e-02,3.738989681005477905e-02,2.887572534382343292e-02,4.042831063270568848e-02,-3.119251457974314690e-03,3.951217979192733765e-02,3.273160010576248169e-02,2.548928558826446533e-02,3.922712802886962891e-02,1.734553650021553040e-02,3.125783056020736694e-02,4.197711125016212463e-03,7.871360331773757935e-02,2.791159041225910187e-02,7.906477153301239014e-02,1.358601357787847519e-02,4.404588788747787476e-02,5.305613204836845398e-02,4.720915481448173523e-02,2.579206973314285278e-02,2.594490349292755127e-02,3.280667960643768311e-02,2.412666566669940948e-02,4.737919196486473083e-02,2.840608730912208557e-02,4.498715698719024658e-02,4.052950069308280945e-02,3.397659212350845337e-02,2.496486902236938477e-02,5.554761737585067749e-04,4.365886747837066650e-02,2.489316090941429138e-02,2.358648367226123810e-02,-7.066759280860424042e-03,-7.508388254791498184e-03,5.336544662714004517e-02,4.827794432640075684e-02,4.623734578490257263e-02,3.849521651864051819e-02,3.915568441152572632e-02,3.327092155814170837e-02,-7.267496734857559204e-02,4.385485500097274780e-02,3.510997071862220764e-02,1.131653506308794022e-02,-6.536592543125152588e-02,3.161650896072387695e-02,3.293826058506965637e-02,9.609785862267017365e-03,5.089925229549407959e-02,-3.313758643344044685e-03,2.901795506477355957e-02,2.774615027010440826e-02,4.323761910200119019e-02,3.605302795767784119e-02,6.083842366933822632e-02,5.776720494031906128e-02,1.404435560107231140e-02,2.964031882584095001e-02,3.401531279087066650e-02,-1.432761736214160919e-02,3.757032379508018494e-02,2.132850140333175659e-02,2.994012646377086639e-02,3.258568793535232544e-02,3.864170610904693604e-02,-5.734255071729421616e-03,2.475363388657569885e-02,3.436437342315912247e-03,2.496788278222084045e-02,2.478329278528690338e-02,7.313425838947296143e-02,3.039391338825225830e-02,5.984798446297645569e-02,3.668181225657463074e-02,5.550048872828483582e-02,2.391272783279418945e-02,-3.599341958761215210e-03,2.515611052513122559e-02,9.603843092918395996e-02,5.772642046213150024e-02,3.234363347291946411e-02,2.293387800455093384e-02,1.318822428584098816e-02,-7.529044151306152344e-02,2.964334003627300262e-02,6.617875397205352783e-02,3.792370483279228210e-02,3.030907735228538513e-02,4.624206572771072388e-02,9.785897098481655121e-03,4.828224331140518188e-02,6.052095815539360046e-02,8.588531613349914551e-02,