-9.831145405769348145e-03,-3.615626320242881775e-02,-1.983907446265220642e-02,-4.830011725425720215e-02,-5.849994719028472900e-03,-9.939212352037429810e-03,-8.805066347122192383e-03,1.633022353053092957e-02,5.668353289365768433e-03,-4.146136343479156494e-03,2.076331526041030884e-03,-1.230293139815330505e-02,-1.177173480391502380e-02,-1.347288489341735840e-03,-4.224807024002075195e-03,-2.598213031888008118e-03,-2.134319394826889038e-03,-1.616738736629486084e-02,2.064505964517593384e-02,1.497470121830701828e-02,-1.090265437960624695e-02,2.510551363229751587e-03,-1.796735450625419617e-02,6.814397871494293213e-03,-1.027758792042732239e-02,-1.724027842283248901e-02,-1.842629536986351013e-02,4.574833437800407410e-03,-2.813505753874778748e-02,-1.249764859676361084e-02,-5.590692162513732910e-04,-1.589190028607845306e-02,-5.524462088942527771e-03,4.498113691806793213e-02,-5.383715033531188965e-04,-2.008112519979476929e-02,-1.106438785791397095e-02,5.873659998178482056e-02,1.390429213643074036e-03,-1.653557643294334412e-03,1.537370681762695312e-02,7.646810263395309448e-03,-7.471229881048202515e-03,3.635931015014648438e-02,-1.328444853425025940e-02,-1.243475079536437988e-02,4.365406930446624756e-04,-1.747567206621170044e-03,-1.637270674109458923e-02,-1.243080943822860718e-03,-1.399753987789154053e-02,-8.285494521260261536e-03,-8.854642510414123535e-03,1.111145466566085815e-01,-4.146913997828960419e-03,1.108020544052124023e-03,-1.800276339054107666e-02,-7.653608918190002441e-06,-3.816381096839904785e-03,-6.079550832509994507e-03,-1.938277855515480042e-02,-4.632717929780483246e-03,-1.426674425601959229e-04,-1.231765374541282654e-02,-1.578633487224578857e-02,-1.539266854524612427e-02,-1.442002877593040466e-02,5.872640758752822876e-04,1.262699253857135773e-02,-4.707365483045578003e-02,-8.341237902641296387e-03,-7.513580843806266785e-03,-1.223158091306686401e-03,-1.085865497589111328e-02,-8.490439504384994507e-03,-2.909995615482330322e-03,-1.752400025725364685e-02,-8.231922984123229980e-03,-9.314497932791709900e-03,-1.162505149841308594e-02,4.590129479765892029e-03,1.982138305902481079e-02,6.529080867767333984e-02,-1.472135074436664581e-02,1.065433025360107422e-04,-1.255875080823898315e-02,6.968775764107704163e-03,5.066849291324615479e-03,1.732282713055610657e-02,-1.401209086179733276e-02,-3.811231628060340881e-02,3.185886889696121216e-03,-4.709586501121520996e-03,-1.212555915117263794e-02,-5.119867622852325439e-03,-1.132103428244590759e-02,4.515079781413078308e-03,-4.161588847637176514e-03,2.257939614355564117e-02,-3.658621013164520264e-02,-8.469462394714355469e-03,-2.008192613720893860e-02,8.979430794715881348e-02,1.292804814875125885e-02,8.681006729602813721e-04,-1.836287975311279297e-02,4.044629633426666260e-03,-1.097879745066165924e-02,-1.155733689665794373e-02,-2.144926413893699646e-02,3.145612776279449463e-03,-3.232985734939575195e-03,1.643059775233268738e-02,-9.331334382295608521e-03,-1.846150308847427368e-02,-9.651873260736465454e-03,-1.792591065168380737e-03,-7.166674360632896423e-03,-3.185839205980300903e-02,-1.545792445540428162e-02,7.489571347832679749e-03,-2.942906320095062256e-02,-3.508006781339645386e-02,-3.618655726313591003e-02,-8.850134909152984619e-03,-9.897891432046890259e-03,-1.696031168103218079e-02,2.513021230697631836e-03,-1.997247710824012756e-02,-1.007558405399322510e-02,-5.513690412044525146e-03,-3.003386408090591431e-02,8.153366297483444214e-02,-1.690185442566871643e-02,1.213956065475940704e-02,-1.508877426385879517e-02,-7.628167048096656799e-03,-3.802777826786041260e-02,-2.605794556438922882e-02,-1.063062250614166260e-02,-1.073628664016723633e-02,-8.176226168870925903e-03,-3.685910254716873169e-03,5.161121487617492676e-03,2.339765429496765137e-03,-1.715369895100593567e-02,-6.614532321691513062e-04,-4.331922903656959534e-02,-6.202053278684616089e-03,-1.028260402381420135e-02,8.047077804803848267e-03,-6.088744848966598511e-03,-3.606563434004783630e-02,1.370920240879058838e-02,-1.948236301541328430e-02,6.832938641309738159e-03,-6.506904959678649902e-03,-9.279796853661537170e-03,-1.672273129224777222e-02,-4.917256534099578857e-03,-1.088169589638710022e-02,-7.908960804343223572e-03,-1.262431591749191284e-02,-7.339324802160263062e-03,-3.099516034126281738e-03,2.335279434919357300e-02,-1.169728115200996399e-02,-1.293287798762321472e-02,1.165631227195262909e-02,-3.413829952478408813e-03,-1.589098572731018066e-02,-8.809845894575119019e-04,-1.298710703849792480e-02,-2.110160514712333679e-02,2.249662578105926514e-02,-1.285891607403755188e-02,-1.106261461973190308e-02,1.194955222308635712e-02,2.530496567487716675e-04,7.888155058026313782e-03,3.769011050462722778e-02,-4.961638152599334717e-02,-1.859240233898162842e-02,1.636363938450813293e-02,5.440432578325271606e-03,-1.851248182356357574e-02,1.486930996179580688e-03,-9.550370275974273682e-03,-4.194490611553192139e-05,7.514655590057373047e-04,-1.770699024200439453e-02,3.733938187360763550e-02,-3.210628777742385864e-02,-2.419736236333847046e-03,1.142732799053192139e-02,-1.512294635176658630e-02,-6.210651248693466187e-03,-1.662181690335273743e-02,-8.179582655429840088e-04,-7.314998656511306763e-04,-1.363324373960494995e-02,1.178861036896705627e-02,-1.589279994368553162e-02,-3.342627733945846558e-02,-1.016268506646156311e-02,-8.006031624972820282e-03,-5.113201215863227844e-03,-1.521740574389696121e-02,-4.894778132438659668e-03,-7.498394697904586792e-03,-1.353884115815162659e-02,2.506058663129806519e-03,2.473430708050727844e-03,5.281801894307136536e-02,5.808461457490921021e-03,-8.851721882820129395e-03,1.404896005988121033e-02,-2.103943377733230591e-03,1.373384147882461548e-03,-1.722192205488681793e-02,-9.440818801522254944e-03,6.388656795024871826e-03,2.822894603013992310e-04,7.020879536867141724e-02,-1.129501871764659882e-02,-2.916846424341201782e-03,1.853669621050357819e-02,-6.442544981837272644e-03,-1.087743043899536133e-02,5.994242429733276367e-02,-6.876768544316291809e-03,-2.617835998535156250e-03,-2.011382952332496643e-03,1.066085323691368103e-02,8.423222228884696960e-03,7.988436147570610046e-03,-1.644129306077957153e-02,-2.952549606561660767e-02,-1.812857575714588165e-02,-1.583918742835521698e-02,-1.222760975360870361e-02,-2.674013376235961914e-05,-4.359303414821624756e-02,-1.677832752466201782e-02,-4.949904978275299072e-03,-1.031679846346378326e-02,-4.393786191940307617e-03,-1.192202419042587280e-02,-1.440891250967979431e-02,4.728473722934722900e-04,-2.385019883513450623e-02,-5.484987050294876099e-03,-1.947399973869323730e-02,-1.573194563388824463e-02,-7.780101150274276733e-03,-3.554952889680862427e-02,-2.070508897304534912e-03,7.362011820077896118e-03,-1.549392938613891602e-02,-4.780758172273635864e-04,1.222190260887145996e-02,-1.671053469181060791e-02,-1.509034261107444763e-02,-1.108910888433456421e-03,-1.986905932426452637e-03,7.841113954782485962e-03,-1.856632903218269348e-02,-2.289030700922012329e-03,-1.157227903604507446e-02,-1.455569639801979065e-03,-1.571541652083396912e-02,-8.963234722614288330e-03,-6.860144436359405518e-03,-2.613291144371032715e-05,7.823675870895385742e-03,-4.266478121280670166e-03,-9.879937395453453064e-03,-1.432230323553085327e-02,-7.345417514443397522e-03,-1.183615624904632568e-02,6.982523947954177856e-03,-5.006501916795969009e-03,-9.674962610006332397e-03,-1.331883016973733902e-02,-4.692237824201583862e-03,-2.308376133441925049e-05,-3.576561808586120605e-03,8.492983877658843994e-03,3.897652029991149902e-03,1.123338192701339722e-02,-1.195462048053741455e-02,-1.087763160467147827e-02,4.843961447477340698e-03,-1.817056164145469666e-02,-2.193010225892066956e-02,1.213904470205307007e-04,6.155695766210556030e-03,-1.618837378919124603e-02,1.216366142034530640e-02,-3.739273175597190857e-02,9.467525780200958252e-02,6.107515469193458557e-02,1.254720985889434814e-02,-2.336775511503219604e-02,-6.300251930952072144e-03,1.109034195542335510e-02,-2.315710857510566711e-02,-1.465450599789619446e-02,-4.502508789300918579e-02,-9.277559816837310791e-03,-9.147835895419120789e-03,-1.542329043149948120e-02,3.110490739345550537e-03,-1.508327201008796692e-02,-4.295403510332107544e-02,5.175525322556495667e-03,1.060929894447326660e-02,-1.031335815787315369e-02,-8.928129449486732483e-03,-1.116129010915756226e-02,1.755454763770103455e-02,1.392478495836257935e-02,-8.920717984437942505e-03,2.060583606362342834e-02,-1.519807800650596619e-02,-1.403658371418714523e-02,-1.138142496347427368e-02,-1.381840370595455170e-02,-1.323861256241798401e-02,-3.814232349395751953e-02,-1.068869046866893768e-02,-4.471357911825180054e-03,-1.621284335851669312e-02,-4.146967828273773193e-02,6.924923509359359741e-03,2.991824224591255188e-02,-1.070791110396385193e-02,-9.158711880445480347e-03,-1.796398311853408813e-03,-2.197460830211639404e-02,-1.424844935536384583e-02,2.043695934116840363e-02,-1.717907562851905823e-02,-8.368220180273056030e-03,-4.404010251164436340e-03,-6.120711565017700195e-03,-1.711361855268478394e-02,-1.548433303833007812e-02,-1.395045220851898193e-02,2.964463829994201660e-02,-6.775874644517898560e-04,-1.195258274674415588e-02,-2.068629115819931030e-02,1.574985310435295105e-02,-4.741791635751724243e-04,-1.955465227365493774e-02,-1.672829687595367432e-02,-8.908562362194061279e-03,-2.409028634428977966e-02,-2.612296678125858307e-02,-2.061395347118377686e-02,-1.893367245793342590e-02,-2.944219857454299927e-03,1.058881916105747223e-02,-1.127427443861961365e-02,-2.020431682467460632e-02,-4.164520651102066040e-03,-4.046793654561042786e-02,-1.670792698860168457e-05,1.304277032613754272e-02,-5.907811224460601807e-03,2.071965485811233521e-03,-4.991324618458747864e-03,-1.389075163751840591e-02,-3.520352393388748169e-02,-2.550572156906127930e-03,1.977439969778060913e-03,3.225222975015640259e-02,-7.067315280437469482e-03,-8.549436926841735840e-03,5.784705281257629395e-04,-2.652088925242424011e-02,-8.486872538924217224e-03,2.269783616065979004e-02,-1.393687911331653595e-02,1.253039687871932983e-01,-1.536248438060283661e-02,-1.694487780332565308e-02,-1.013979688286781311e-02,-1.822643727064132690e-02,4.196048527956008911e-02,-8.860740810632705688e-03,-1.654053106904029846e-02,-8.119553327560424805e-03,-7.633071392774581909e-03,-1.948007196187973022e-02,-1.769128628075122833e-02,-2.588364854454994202e-02,3.250953555107116699e-02,-8.285919204354286194e-03,-5.639765411615371704e-03,-1.426112279295921326e-02,-1.131306216120719910e-02,-1.078560575842857361e-02,-1.138614490628242493e-03,-4.211535304784774780e-02,-9.494274854660034180e-03,-1.457298174500465393e-02,-7.636241614818572998e-03,-3.155341371893882751e-02,-4.577411338686943054e-03,-1.872175931930541992e-02,-7.999725639820098877e-03,2.993293106555938721e-03,-6.605319678783416748e-03,-5.396336317062377930e-03,-3.524538129568099976e-02,2.539933100342750549e-02,-1.220135018229484558e-02,-1.936658844351768494e-02,-4.060737788677215576e-03,-2.092945948243141174e-02,-1.425227150321006775e-03,-1.040805131196975708e-03,5.576932802796363831e-03,-3.038321435451507568e-02,1.193949058651924133e-01,1.796863973140716553e-03,-1.859068870544433594e-04,-1.078855618834495544e-02,-6.340300664305686951e-03,-1.199594512581825256e-02,-4.677673429250717163e-02,-1.721988245844841003e-02,-1.639096811413764954e-02,5.310082808136940002e-03,-1.463033631443977356e-02,-4.879693314433097839e-02,-3.923900797963142395e-02,-1.034412533044815063e-03,6.398433446884155273e-02,1.740038953721523285e-02,-1.355230063199996948e-02,1.356684230268001556e-02,-3.535715863108634949e-03,-8.650889620184898376e-03,1.357723027467727661e-02,4.238020628690719604e-04,-1.471712440252304077e-02,1.931817643344402313e-02,-2.724321186542510986e-02,-1.478431746363639832e-02,3.824238851666450500e-02,5.523685365915298462e-03,-9.813033044338226318e-03,-3.757582977414131165e-03,9.646398946642875671e-03,-4.160606861114501953e-02,1.075529493391513824e-02,2.710005734115839005e-03,-1.388233620673418045e-02,1.083683222532272339e-03,-1.581489667296409607e-02,-3.544417396187782288e-02,-1.591504737734794617e-02,2.079677209258079529e-02,-8.917184546589851379e-03,1.684314757585525513e-02,-7.190350443124771118e-04,-4.376765340566635132e-03,-1.078297570347785950e-02,-1.058807782828807831e-02,-3.342654183506965637e-02,-1.358477491885423660e-02,-2.764068543910980225e-03,4.186313599348068237e-04,-1.541543379426002502e-02,-1.433770358562469482e-02,-9.408351033926010132e-03,-1.614121720194816589e-03,-4.515994340181350708e-03,-1.340914145112037659e-02,-1.635076478123664856e-02,1.448305323719978333e-03,-3.412798047065734863e-03,-3.714811056852340698e-03,-1.236046478152275085e-02,-1.196505501866340637e-02,-6.389468908309936523e-03,7.065937668085098267e-02,-1.644152589142322540e-02,7.841744460165500641e-03,-1.465945690870285034e-02,-1.112521067261695862e-02,-6.632190197706222534e-04,-6.056665629148483276e-02,-9.423527866601943970e-03,2.872062847018241882e-03,-6.068661808967590332e-03,-1.239827647805213928e-02,-2.128196880221366882e-03,-2.078589051961898804e-03,1.099593751132488251e-02,2.988716587424278259e-03,-3.851628676056861877e-02,-2.923106774687767029e-02,-4.808818921446800232e-03,-1.211333647370338440e-02,-2.407803013920783997e-02,-1.333935186266899109e-03,-1.441539451479911804e-02,-1.114197075366973877e-04,-2.671569585800170898e-03,-2.426654100418090820e-05,4.294632002711296082e-03,-3.894127905368804932e-03,5.437744781374931335e-03,5.434168502688407898e-03,1.494879461824893951e-02,1.294264942407608032e-02,-1.329049840569496155e-02,-6.810300052165985107e-03,1.211161911487579346e-02,-7.067348808050155640e-03,-1.209550350904464722e-02,2.344997599720954895e-03,-4.703197628259658813e-03,-6.378646939992904663e-03,-1.220712251961231232e-02,-4.433766007423400879e-04,-4.566460847854614258e-04,-2.327771857380867004e-02,1.543129794299602509e-02,-1.592126488685607910e-02,-1.471325755119323730e-02,-1.067601144313812256e-03,-1.420069858431816101e-02,-5.680974572896957397e-03,-8.284877985715866089e-03,2.263301983475685120e-03,9.883418679237365723e-04,-2.617169171571731567e-03,-7.097359746694564819e-03,-1.840932294726371765e-03,-3.647245466709136963e-05,-9.115267544984817505e-03,-8.844105526804924011e-03,5.068274214863777161e-03,-9.721241891384124756e-03,-5.248375236988067627e-04,7.354229688644409180e-03,-7.641430944204330444e-03,-1.300118863582611084e-02,-9.187243878841400146e-03,-1.334594935178756714e-02,-7.059443742036819458e-03,2.047858946025371552e-02,1.477789133787155151e-03,-9.587937034666538239e-03,-1.774495840072631836e-02,7.877297699451446533e-03,-1.020682230591773987e-02,-1.064426451921463013e-02,-1.236517354846000671e-02,5.372135713696479797e-02,-2.192794345319271088e-02,6.608019117265939713e-03,-1.109928544610738754e-02,-1.217285171151161194e-02,1.604789867997169495e-03,-1.372234150767326355e-02,3.800913691520690918e-05,-1.954605802893638611e-02,8.322576060891151428e-03,1.075231749564409256e-02,2.641623467206954956e-02,3.738328814506530762e-06,7.292255759239196777e-06,-1.065544411540031433e-02,-2.958506345748901367e-03,-9.028501808643341064e-03,1.100139692425727844e-03,4.350505769252777100e-03,-7.276751101016998291e-03,5.563050508499145508e-04,4.438462108373641968e-02,-2.685055136680603027e-03,-1.137273013591766357e-02,1.458163931965827942e-02,-1.657741516828536987e-02,-1.881058514118194580e-02,1.719724386930465698e-01,-8.751787245273590088e-03,-2.807192504405975342e-05,-1.242922432720661163e-02,3.530092537403106689e-02,3.015892580151557922e-02,-1.436237804591655731e-02,-1.010885648429393768e-02,-1.174226775765419006e-02,-9.135857224464416504e-03,-1.936374232172966003e-02,-1.711264625191688538e-02,-1.216091960668563843e-02,-1.748674176633358002e-02,-1.858638226985931396e-02,-8.812353014945983887e-03,2.389930188655853271e-03,4.592080786824226379e-02,-3.534502349793910980e-03,-1.836206391453742981e-02,-7.829587906599044800e-03,-1.125080883502960205e-02,-9.568449109792709351e-03,-3.044671379029750824e-03,-1.843366026878356934e-02,-1.764921098947525024e-02,-1.359521970152854919e-02,-7.047183811664581299e-03,-1.556851342320442200e-02,-2.305070310831069946e-02,-1.134047657251358032e-02,-3.989669028669595718e-03,-1.060245372354984283e-02,-1.318666711449623108e-02,-1.128254178911447525e-02,-1.737961918115615845e-02,-1.469516754150390625e-02,-7.093753665685653687e-03,1.815715804696083069e-02,6.938010454177856445e-03,-1.494918297976255417e-02,-8.357521146535873413e-04,-1.629748567938804626e-02,-6.141267716884613037e-03,-2.244451269507408142e-02,-5.971994251012802124e-03,-9.511549025774002075e-03,-8.882448077201843262e-03,-1.293937861919403076e-02,-8.493617177009582520e-03,1.576762646436691284e-02,-5.242143198847770691e-02,9.602915495634078979e-03,3.675930202007293701e-05,-2.893490344285964966e-02,-9.168833494186401367e-03,7.273070514202117920e-04,-2.641062624752521515e-02,-1.788154244422912598e-02,-1.354632899165153503e-02,-1.089856028556823730e-03,-1.825466752052307129e-03,4.138611257076263428e-03,-1.038967445492744446e-02,-1.011702418327331543e-02,-1.345912739634513855e-02,-1.519491896033287048e-02,3.152320161461830139e-03,-3.105942159891128540e-04,-6.260525435209274292e-02,-3.835770487785339355e-02,2.676730975508689880e-02,-1.017174497246742249e-02,-2.972851134836673737e-02,1.107231825590133667e-01,-3.972989693284034729e-02,-4.321891814470291138e-03,-2.197168394923210144e-02,2.142526209354400635e-03,-4.429861903190612793e-03,-3.276932984590530396e-04,4.000775516033172607e-05,-1.130669191479682922e-02,-5.430396646261215210e-03,-1.160213910043239594e-02,-2.402586862444877625e-02,-1.606876775622367859e-02,-2.794782444834709167e-02,-4.268840700387954712e-02,-2.201845869421958923e-03,-1.539294235408306122e-02,-2.826530858874320984e-02,-1.231429725885391235e-02,-9.469240903854370117e-03,-1.409444864839315414e-02,-2.185381948947906494e-03,-1.749046146869659424e-03,-4.221590608358383179e-02,-1.050600409507751465e-02,-8.131772279739379883e-03,-1.469686441123485565e-02,-2.202015370130538940e-03,-1.827884092926979065e-02,-1.625204458832740784e-02,1.308572851121425629e-02,-1.560708135366439819e-02,-8.675120770931243896e-04,1.594825834035873413e-02,-1.254380494356155396e-02,-1.540167815983295441e-02,9.634029120206832886e-04,-1.056640967726707458e-02,-9.119722992181777954e-03,-2.703565172851085663e-02,-1.515387836843729019e-02,-7.120775058865547180e-03,3.479365259408950806e-03,-1.656134054064750671e-02,-1.109941303730010986e-02,-1.021602377295494080e-02,-1.491076312959194183e-02,-2.883281186223030090e-02,2.172762453556060791e-01,-2.822530828416347504e-02,-9.086221456527709961e-03,-4.390781745314598083e-03,-3.429129719734191895e-06,-7.763300091028213501e-04,-3.773270174860954285e-02,-1.409129053354263306e-02,-6.858147680759429932e-03,1.062281429767608643e-03,-8.868603035807609558e-03,-9.772259742021560669e-03,1.322857290506362915e-02,-8.406072854995727539e-03,3.473702818155288696e-03,1.567978039383888245e-02,2.847213298082351685e-03,9.460035711526870728e-03,2.278251387178897858e-02,-1.872298121452331543e-02,-1.311252638697624207e-02,7.600300014019012451e-04,-9.697429835796356201e-03,-6.676929071545600891e-03,-3.227878361940383911e-03,-5.833879113197326660e-03,-3.011212311685085297e-02,8.275710791349411011e-02,2.383479848504066467e-03,2.322509884834289551e-02,-3.330318257212638855e-02,-1.518175005912780762e-02,-4.128991812467575073e-02,4.414469003677368164e-07,8.289054781198501587e-02,-1.226697489619255066e-02,-6.713092327117919922e-03,-3.007074631750583649e-02,-3.075063228607177734e-02,-1.559881493449211121e-03,-1.539226621389389038e-02,6.081249937415122986e-02,-7.265150547027587891e-03,-1.041885651648044586e-02,-1.479659602046012878e-02,-2.794631570577621460e-02,-5.945615470409393311e-03,-6.035941652953624725e-03,6.302895024418830872e-03,-1.286790519952774048e-02,-1.561542972922325134e-02,-1.693806052207946777e-02,-1.631632260978221893e-02,3.380754590034484863e-02,-7.672891020774841309e-03,-3.584058210253715515e-02,-1.551724970340728760e-02,-2.436282299458980560e-02,7.981995120644569397e-03,-2.835772559046745300e-02,-1.338394731283187866e-02,4.702527076005935669e-03,-5.533918738365173340e-04,-1.833358779549598694e-02,-1.838664337992668152e-02,-1.525402441620826721e-02,4.613514989614486694e-03,-6.304753571748733521e-02,1.491259597241878510e-02,-1.068597845733165741e-02,1.016349643468856812e-01,5.305550992488861084e-03,-7.219014689326286316e-03,3.131296485662460327e-03,-1.929106190800666809e-03,-6.715040653944015503e-03,-9.563289582729339600e-03,-1.220608502626419067e-02,-1.186960749328136444e-02,-3.259708359837532043e-02,-3.034405037760734558e-02,-1.386595517396926880e-02,-6.469488143920898438e-04,-3.744047135114669800e-04,-7.543794810771942139e-03,-1.493287459015846252e-02,1.390812993049621582e-01,-1.914243772625923157e-02,-2.848207950592041016e-03,-1.394274085760116577e-02,-7.953306660056114197e-03,7.903654128313064575e-03,-1.749377325177192688e-02,7.440214976668357849e-03,-1.254111900925636292e-02,-8.296485990285873413e-03,-1.207584515213966370e-02,-4.239246249198913574e-03,1.234917342662811279e-02,-1.366454176604747772e-02,1.634356379508972168e-02,-1.429526880383491516e-02,1.235612668097019196e-02,4.989209771156311035e-02,-3.188737109303474426e-02,-2.015625312924385071e-02,1.259502209722995758e-02,-1.656923815608024597e-02,1.497930474579334259e-02,-1.157946884632110596e-02,-1.348755508661270142e-02,-2.673243731260299683e-02,-1.818547770380973816e-02,-4.478774964809417725e-03,-3.997591882944107056e-02,-1.653924584388732910e-03,-9.180992841720581055e-03,-1.534651406109333038e-02,-4.414767026901245117e-04,-3.513377159833908081e-04,-1.030289009213447571e-02,-3.946860134601593018e-02,-3.244740888476371765e-03,-1.198038458824157715e-02,-1.013433188199996948e-02,3.168623894453048706e-03,-2.395513653755187988e-02,-3.554705157876014709e-02,-2.198385819792747498e-02,-1.493176445364952087e-02,-1.143220625817775726e-02,1.275697723031044006e-02,4.327819496393203735e-02,-1.613042131066322327e-02,-1.346319913864135742e-05,1.665242016315460205e-03,8.943264372646808624e-03,-1.226616278290748596e-02,3.931996598839759827e-02,-1.046806573867797852e-06,-1.640685275197029114e-02,-1.855040341615676880e-02,4.927646368741989136e-04,-1.507366076111793518e-02,-1.440631225705146790e-03,-7.322828751057386398e-03,-4.228103905916213989e-03,-4.028934985399246216e-03,-9.403768926858901978e-03,-3.430686891078948975e-02,-1.123432628810405731e-02,7.694309577345848083e-03,-1.062199100852012634e-02,-8.894246071577072144e-03,7.987184450030326843e-03,-4.824522882699966431e-02,-9.101385250687599182e-03,-4.440749064087867737e-03,1.022806018590927124e-02,-9.160971269011497498e-03,1.892194151878356934e-03,-1.205019932240247726e-02,-1.982048898935317993e-02,-2.495029382407665253e-02,1.058678701519966125e-02,-9.336359798908233643e-03,-2.337981015443801880e-03,-7.682135328650474548e-03,-8.893385529518127441e-04,-3.146603703498840332e-04,-1.776009052991867065e-02,3.568189218640327454e-03,-2.857785671949386597e-02,-4.249611869454383850e-02,1.151901483535766602e-02,7.420603930950164795e-02,6.648493930697441101e-03,-8.882034569978713989e-03,-1.444095373153686523e-02,-9.020993486046791077e-03,-2.035566791892051697e-02,-1.806076616048812866e-02,-4.212317988276481628e-03,-1.276280358433723450e-02,-1.368953566998243332e-02,-6.088994443416595459e-03,-1.935280114412307739e-02,-6.071981042623519897e-03,-1.914837583899497986e-02,-1.605422794818878174e-02,7.982797920703887939e-03,1.151828095316886902e-03,-5.765575915575027466e-03,2.157551981508731842e-02,7.540561258792877197e-02,-1.446105074137449265e-02,-1.752718538045883179e-02,-1.867207139730453491e-02,9.978823363780975342e-04,-3.184035420417785645e-03,-3.827304393053054810e-02,-2.084732800722122192e-02,-5.449571833014488220e-02,-8.523277938365936279e-03,-9.741425514221191406e-03,1.962948590517044067e-03,7.216736674308776855e-03,-1.048459857702255249e-02,-1.028447225689888000e-02,-7.837899029254913330e-03,2.040341496467590332e-04,-1.208289340138435364e-02,-1.096594333648681641e-02,-1.319616660475730896e-02,-1.086614280939102173e-02,-3.438241034746170044e-02,-1.330374181270599365e-02,-4.900962114334106445e-03,-4.818486794829368591e-02,9.983444958925247192e-02,-1.802230998873710632e-02,-1.077023521065711975e-02,-3.401275724172592163e-02,4.688277840614318848e-05,-1.374327391386032104e-02,-2.578099444508552551e-02,-1.393061131238937378e-02,-1.236755028367042542e-02,-1.515593007206916809e-02,9.450353682041168213e-02,1.165950000286102295e-01,-6.296282634139060974e-03,3.994917497038841248e-03,1.030994951725006104e-01,3.502592816948890686e-02,-1.634657382965087891e-05,-1.162768155336380005e-02,-4.834086820483207703e-02,-4.266962409019470215e-03,-4.919368773698806763e-03,1.483707875013351440e-02,-1.056462712585926056e-02,4.794977605342864990e-03,-9.652242064476013184e-03,6.726983934640884399e-03,1.586734950542449951e-01,-1.408976688981056213e-02,-4.211632534861564636e-03,-1.511591486632823944e-02,-1.567829400300979614e-02,5.882982909679412842e-02,-1.651788875460624695e-02,-1.014566421508789062e-02,1.221828907728195190e-02,-8.734501898288726807e-04,6.163345649838447571e-02,-9.458057582378387451e-03,-9.002694860100746155e-03,-1.467965915799140930e-02,2.500391006469726562e-02,-1.881784945726394653e-02,1.427061483263969421e-02,-2.212779223918914795e-02,-1.655520312488079071e-02,2.095032483339309692e-02,-1.724249869585037231e-02,-6.080320104956626892e-03,1.600787043571472168e-03,3.387177363038063049e-03,-7.006188854575157166e-03,2.502088621258735657e-02,-1.639372482895851135e-02,-7.700741291046142578e-03,-4.338004440069198608e-02,-1.768730580806732178e-03,-3.545589745044708252e-02,3.902449086308479309e-02,-4.463216289877891541e-03,-8.525304496288299561e-03,-1.564323902130126953e-03,-2.954155206680297852e-06,-2.663269639015197754e-03,-1.316963508725166321e-02,2.839772589504718781e-02,5.125477164983749390e-02,-1.127740368247032166e-02,6.917372345924377441e-03
1.055748164653778076e-01,2.102591097354888916e-02,2.787413075566291809e-02,6.659273058176040649e-03,2.053362503647804260e-02,2.168849855661392212e-02,8.077490329742431641e-02,-2.306520566344261169e-02,4.344959184527397156e-02,6.254141032695770264e-02,1.151696890592575073e-01,7.388163357973098755e-02,1.760570518672466278e-02,6.311723589897155762e-02,5.601514130830764771e-02,1.244917325675487518e-02,1.778873987495899200e-02,8.864077180624008179e-02,1.544472575187683105e-02,-8.767867833375930786e-02,8.065026998519897461e-02,5.266004055738449097e-02,8.166682720184326172e-02,1.380038261413574219e-02,1.021722517907619476e-02,1.024776250123977661e-01,2.306798286736011505e-02,-2.397008426487445831e-02,7.566656917333602905e-03,5.453411489725112915e-02,8.875444531440734863e-03,2.304359711706638336e-02,1.435655355453491211e-02,3.684380650520324707e-02,6.186900660395622253e-02,9.385924041271209717e-02,4.086427390575408936e-02,-6.879434734582901001e-02,1.705222576856613159e-02,1.344068907201290131e-02,1.607208847999572754e-01,1.430421695113182068e-02,1.267923042178153992e-02,1.894437968730926514e-01,8.255968987941741943e-02,7.880400121212005615e-02,7.046473026275634766e-02,1.421042717993259430e-02,8.367649465799331665e-02,7.275636494159698486e-02,7.624997198581695557e-02,3.247731551527976990e-02,7.904745638370513916e-02,6.288679689168930054e-02,1.777888042852282524e-03,7.225951552391052246e-02,8.786831796169281006e-02,9.918045252561569214e-03,6.240514293313026428e-02,7.292989641427993774e-02,2.742749825119972229e-02,3.747075051069259644e-02,1.140115968883037567e-02,7.103839889168739319e-03,9.112938493490219116e-02,1.175710260868072510e-01,7.404837012290954590e-02,1.282199099659919739e-02,1.414920017123222351e-02,1.429700292646884918e-03,7.439713180065155029e-02,1.730489358305931091e-02,3.390609845519065857e-02,1.110406592488288879e-02,6.943416595458984375e-02,6.056656315922737122e-02,8.587354421615600586e-02,6.696388870477676392e-02,5.759638547897338867e-02,1.248234324157238007e-02,9.721225127577781677e-03,1.766890585422515869e-01,1.379046589136123657e-03,1.905153132975101471e-02,2.886926755309104919e-02,8.071298152208328247e-02,1.532861590385437012e-02,1.618445105850696564e-02,-1.469772588461637497e-02,6.392940878868103027e-02,2.831835765391588211e-03,1.556115411221981049e-02,9.881781041622161865e-02,8.536458760499954224e-02,4.437571763992309570e-02,7.672468572854995728e-02,4.059372097253799438e-02,1.747896336019039154e-02,8.778767287731170654e-02,1.964670047163963318e-02,1.059427857398986816e-02,3.199043124914169312e-02,-5.873959511518478394e-03,1.071968115866184235e-02,1.548971422016620636e-02,1.696601510047912598e-02,1.616867631673812866e-02,4.082906991243362427e-02,1.487130858004093170e-02,8.929475396871566772e-02,1.568922214210033417e-02,7.420415431261062622e-02,1.834560930728912354e-02,1.021218858659267426e-02,8.010423928499221802e-02,1.000219136476516724e-01,1.394277438521385193e-02,4.824794083833694458e-02,1.066552102565765381e-01,9.216646850109100342e-02,1.865355670452117920e-02,9.885015338659286499e-02,1.017606854438781738e-01,1.481467578560113907e-02,1.709324680268764496e-02,7.007296383380889893e-02,9.935447573661804199e-02,9.123958647251129150e-03,8.382159471511840820e-02,8.110752701759338379e-02,5.464395880699157715e-02,1.056939885020256042e-01,1.014743372797966003e-02,1.700795628130435944e-02,-8.712930604815483093e-03,3.083376958966255188e-02,4.035791754722595215e-02,2.028713934123516083e-02,1.955565996468067169e-02,1.434172317385673523e-02,1.522791385650634766e-01,1.715561188757419586e-02,7.651413977146148682e-02,1.206628233194351196e-02,7.579036056995391846e-02,8.114333450794219971e-02,4.941486939787864685e-02,2.775606699287891388e-03,7.302045077085494995e-02,5.345189943909645081e-03,1.464414410293102264e-02,7.669436931610107422e-02,1.331691816449165344e-02,1.364935934543609619e-02,8.355795405805110931e-03,1.486828736960887909e-02,7.293136417865753174e-02,1.362724602222442627e-02,8.234316855669021606e-02,1.053138226270675659e-01,1.023442596197128296e-01,1.619660295546054840e-02,8.406257629394531250e-02,6.918037682771682739e-02,1.453185081481933594e-02,1.182379201054573059e-02,6.364022940397262573e-02,7.582664489746093750e-02,1.689037121832370758e-02,6.743306666612625122e-02,8.396400511264801025e-02,5.907912552356719971e-02,7.555387914180755615e-03,1.064445450901985168e-01,1.702530384063720703e-01,8.216387033462524414e-02,8.496478199958801270e-02,6.818640977144241333e-02,1.888649724423885345e-02,3.814808279275894165e-02,6.837039440870285034e-02,2.637455705553293228e-03,9.431783109903335571e-02,1.334941014647483826e-02,1.670998521149158478e-02,3.515021130442619324e-02,6.516417860984802246e-02,7.703289389610290527e-02,1.396500505506992340e-02,9.835392236709594727e-03,1.088271103799343109e-02,3.554063662886619568e-02,1.172579638659954071e-02,6.119056418538093567e-02,6.477990001440048218e-02,7.725590467453002930e-02,8.035255223512649536e-02,9.218293428421020508e-02,7.176796346902847290e-02,6.188744306564331055e-02,7.879947125911712646e-02,1.826542615890502930e-02,8.578226715326309204e-02,1.855457201600074768e-02,8.057758957147598267e-02,-5.644290708005428314e-03,4.178585112094879150e-02,1.578182354569435120e-02,8.659227192401885986e-02,1.535338722169399261e-02,8.045193552970886230e-02,1.088208518922328949e-02,9.752832353115081787e-03,5.234527587890625000e-02,3.994736447930335999e-02,7.840117812156677246e-02,1.638673990964889526e-02,5.817949771881103516e-02,9.072270244359970093e-03,2.980109117925167084e-02,3.974250704050064087e-02,3.289726376533508301e-02,1.224605366587638855e-02,3.863038495182991028e-02,1.197808794677257538e-02,5.711975693702697754e-02,-3.236504271626472473e-03,1.004831679165363312e-02,7.893817126750946045e-02,2.006042748689651489e-02,4.462591558694839478e-02,4.416473209857940674e-02,2.693495154380798340e-02,1.692631840705871582e-02,7.266788184642791748e-02,1.605188101530075073e-02,8.651685714721679688e-02,8.981479331851005554e-03,3.365054726600646973e-03,-4.493263550102710724e-04,9.331560134887695312e-02,1.153143867850303650e-02,1.456489507108926773e-02,1.152663752436637878e-01,1.312673687934875488e-01,3.738089650869369507e-02,9.766038507223129272e-03,1.947028748691082001e-02,8.010062575340270996e-02,1.359519362449645996e-02,9.172713756561279297e-02,6.732736527919769287e-02,1.272361278533935547e-01,7.823514938354492188e-02,6.890293210744857788e-02,8.733676746487617493e-03,4.052653908729553223e-02,1.622029207646846771e-02,9.523514658212661743e-02,1.022703573107719421e-02,1.496734321117401123e-01,8.992619812488555908e-02,9.689856320619583130e-03,5.099628865718841553e-02,5.160610377788543701e-02,1.362455077469348907e-02,1.101085245609283447e-01,7.410553097724914551e-02,7.377228140830993652e-02,1.246980391442775726e-02,8.451933413743972778e-02,6.221114471554756165e-02,7.335713505744934082e-02,1.125663891434669495e-02,1.821330375969409943e-02,-1.334082335233688354e-03,7.659528404474258423e-03,8.503493666648864746e-02,1.781361736357212067e-02,7.576198130846023560e-02,1.140317693352699280e-02,-3.716455399990081787e-02,1.672599092125892639e-02,3.147895261645317078e-02,7.531538605690002441e-02,1.088688895106315613e-02,5.626939237117767334e-02,1.269346475601196289e-02,4.159271717071533203e-02,6.842552125453948975e-02,7.471753656864166260e-02,6.961220502853393555e-02,1.366194337606430054e-02,8.195061236619949341e-02,9.778922796249389648e-02,9.447738528251647949e-03,1.182906031608581543e-01,1.058360934257507324e-02,1.635331287980079651e-02,1.588864065706729889e-02,3.278697654604911804e-02,1.775840111076831818e-02,1.755340769886970520e-02,1.151703819632530212e-01,6.818069517612457275e-02,1.562460511922836304e-02,9.324711561203002930e-02,9.481941163539886475e-02,1.004938036203384399e-02,8.090947568416595459e-02,1.700696349143981934e-02,8.816772699356079102e-02,1.301531195640563965e-01,7.221429795026779175e-02,6.240196526050567627e-04,1.282820850610733032e-02,1.668963767588138580e-02,8.834579586982727051e-02,-1.795155368745326996e-02,8.110344409942626953e-02,2.434320747852325439e-03,1.336218602955341339e-02,8.785662055015563965e-02,1.483395323157310486e-02,1.051842868328094482e-01,1.252319570630788803e-02,-3.986211493611335754e-03,1.320804655551910400e-02,1.467631943523883820e-02,1.900736428797245026e-02,2.067547664046287537e-02,6.077140942215919495e-02,7.107648998498916626e-02,7.640234660357236862e-03,7.530814409255981445e-02,7.989287376403808594e-03,8.158079534769058228e-02,7.350813597440719604e-02,5.091568082571029663e-02,8.660490810871124268e-02,7.811890542507171631e-02,1.458010636270046234e-02,9.340296685695648193e-02,7.205487787723541260e-02,3.986086696386337280e-02,1.447590999305248260e-02,1.515763439238071442e-02,8.416415750980377197e-02,9.612295776605606079e-02,1.788798123598098755e-01,1.325594447553157806e-02,7.345563173294067383e-02,1.286764070391654968e-02,7.321908324956893921e-02,2.055009268224239349e-02,8.309453725814819336e-02,9.121980518102645874e-03,6.789232790470123291e-02,2.712721377611160278e-02,1.425087265670299530e-02,9.573805332183837891e-02,8.433862775564193726e-02,7.015869021415710449e-02,5.517337843775749207e-02,9.170946478843688965e-02,9.926120936870574951e-02,7.211662828922271729e-02,1.177241094410419464e-02,5.962270498275756836e-02,1.255366355180740356e-01,7.707299292087554932e-02,9.672412648797035217e-03,5.641658976674079895e-02,1.479560043662786484e-02,1.700808852910995483e-02,5.385989695787429810e-02,1.761412620544433594e-02,1.756030619144439697e-01,1.129188388586044312e-01,1.116717830300331116e-01,1.267939805984497070e-01,2.028872072696685791e-02,1.898111961781978607e-02,1.674424707889556885e-01,6.724450737237930298e-03,4.390235990285873413e-02,1.250874437391757965e-02,1.422335300594568253e-02,7.964217662811279297e-02,1.040641665458679199e-01,1.446528360247612000e-02,7.626467943191528320e-02,8.590428531169891357e-02,1.817427948117256165e-02,4.007087647914886475e-02,1.063298732042312622e-01,2.013266272842884064e-02,2.002874389290809631e-02,1.726241037249565125e-02,4.436007142066955566e-02,7.022133469581604004e-02,9.745030105113983154e-02,8.506631851196289062e-02,8.205338567495346069e-02,9.003302082419395447e-03,1.068617589771747589e-02,6.287834048271179199e-02,8.622856438159942627e-02,8.657242357730865479e-02,1.039215084165334702e-02,6.041996926069259644e-02,8.030057698488235474e-02,5.486562103033065796e-02,1.035843417048454285e-02,1.768822595477104187e-02,5.594414472579956055e-02,1.895810663700103760e-02,4.152456670999526978e-02,8.196486160159111023e-03,2.437500283122062683e-02,5.662224441766738892e-02,9.295782446861267090e-02,1.557447947561740875e-02,9.389838203787803650e-03,2.903731726109981537e-02,1.009656339883804321e-01,8.660711348056793213e-03,4.925728216767311096e-02,1.599231548607349396e-02,8.047591149806976318e-02,4.719205945730209351e-02,8.439156413078308105e-02,1.234411727637052536e-02,8.439929783344268799e-02,8.485196530818939209e-02,1.575543731451034546e-02,8.111232519149780273e-02,5.359854549169540405e-04,1.396331097930669785e-02,1.027892529964447021e-02,4.350503534078598022e-02,6.082031130790710449e-02,8.463805913925170898e-02,1.656452007591724396e-02,4.965722560882568359e-02,3.678341954946517944e-02,1.514624059200286865e-01,9.270187467336654663e-03,7.742559909820556641e-02,1.116405427455902100e-02,9.929136931896209717e-02,8.091113716363906860e-02,2.052339166402816772e-02,7.580288499593734741e-02,5.779213830828666687e-02,1.195858605206012726e-02,2.623023930937051773e-03,2.291379496455192566e-03,1.294957101345062256e-02,-2.677069045603275299e-02,1.441143359988927841e-02,6.496103107929229736e-02,7.828377187252044678e-02,1.297802850604057312e-02,3.220349550247192383e-02,1.162867620587348938e-02,1.744032092392444611e-02,4.965126514434814453e-03,1.020648702979087830e-02,6.601902842521667480e-02,8.933819830417633057e-03,-1.370199024677276611e-04,2.540731802582740784e-02,2.046729996800422668e-02,1.644364744424819946e-02,1.318363100290298462e-02,9.526705741882324219e-02,2.621344104409217834e-02,6.635113060474395752e-02,1.079108566045761108e-02,5.726113170385360718e-02,7.778722792863845825e-02,9.259624779224395752e-02,1.050728559494018555e-02,1.296055763959884644e-01,5.455086380243301392e-02,8.152428269386291504e-02,1.036547645926475525e-01,1.555713638663291931e-02,4.777852818369865417e-02,1.658253557980060577e-02,1.638146489858627319e-02,8.434837311506271362e-02,7.473902404308319092e-02,4.931312799453735352e-02,-8.753270842134952545e-03,7.916286587715148926e-02,1.006469316780567169e-02,4.096613079309463501e-02,7.134866714477539062e-02,4.716838896274566650e-02,5.326319485902786255e-02,5.233800783753395081e-02,1.484017819166183472e-02,1.722754910588264465e-02,2.142521366477012634e-02,2.524605020880699158e-02,1.009792536497116089e-01,9.145393222570419312e-02,5.201530829071998596e-02,9.578454494476318359e-02,1.754565350711345673e-02,7.007391005754470825e-02,6.492435932159423828e-02,1.357550732791423798e-02,1.384644769132137299e-02,1.570694521069526672e-02,9.552583098411560059e-03,5.198051035404205322e-02,1.565677486360073090e-02,8.553364872932434082e-02,6.836176663637161255e-02,-2.414835989475250244e-02,2.426613122224807739e-02,1.304406672716140747e-02,1.332971639931201935e-02,7.014486938714981079e-02,7.325193285942077637e-02,3.821164369583129883e-02,6.260430067777633667e-02,7.043066620826721191e-02,2.684624493122100830e-02,1.381739974021911621e-02,1.074662953615188599e-01,6.390036642551422119e-02,6.664896011352539062e-02,1.444437727332115173e-02,4.761978238821029663e-02,6.823496520519256592e-02,3.807203844189643860e-02,6.584671139717102051e-02,1.541314087808132172e-02,5.841106921434402466e-02,7.004836574196815491e-03,1.260590925812721252e-02,7.048181444406509399e-02,4.789325594902038574e-02,1.097478158771991730e-02,7.080499082803726196e-02,1.635427400469779968e-02,1.607007719576358795e-02,8.880621939897537231e-02,6.100435554981231689e-02,7.315050065517425537e-02,7.447153329849243164e-02,1.875734515488147736e-02,6.777075678110122681e-02,6.510477513074874878e-02,-5.732013960368931293e-06,8.307240903377532959e-02,1.702693663537502289e-02,7.957981526851654053e-02,1.377906836569309235e-02,7.433135807514190674e-02,1.261908654123544693e-02,1.917222701013088226e-02,-2.067850902676582336e-02,1.411548908799886703e-02,9.679310768842697144e-02,1.043402031064033508e-02,6.280575692653656006e-02,1.203658431768417358e-02,1.271546036005020142e-01,1.554138213396072388e-02,-2.638386748731136322e-02,1.133444905281066895e-02,1.018246263265609741e-02,1.646607927978038788e-02,6.857188791036605835e-02,6.291534751653671265e-02,4.571256786584854126e-02,1.306712441146373749e-02,1.332015246152877808e-01,6.839285790920257568e-02,1.463883742690086365e-02,4.763818159699440002e-02,6.957443058490753174e-02,7.949496805667877197e-02,1.721334457397460938e-02,9.143584221601486206e-02,-1.529045403003692627e-04,3.617843985557556152e-02,3.994124755263328552e-02,1.586779206991195679e-02,3.453555703163146973e-02,2.108690142631530762e-01,1.273467764258384705e-02,2.694619819521903992e-02,2.038178034126758575e-02,1.102722808718681335e-01,7.385037839412689209e-02,1.119213402271270752e-01,9.279309958219528198e-02,1.256496831774711609e-02,2.550149895250797272e-02,1.088270694017410278e-01,7.099527120590209961e-02,8.874600753188133240e-03,2.050855383276939392e-02,-1.379794906824827194e-02,1.003629565238952637e-01,7.269892096519470215e-02,7.535167038440704346e-02,6.945970654487609863e-02,1.958725601434707642e-02,8.396636694669723511e-02,1.013409942388534546e-01,8.180643618106842041e-02,1.359695941209793091e-02,2.901460789144039154e-02,1.908311434090137482e-02,2.001051418483257294e-02,3.425715956836938858e-03,1.371919736266136169e-02,7.785628736019134521e-02,8.784557692706584930e-03,8.368340134620666504e-02,8.781653642654418945e-02,6.823148578405380249e-02,1.447242312133312225e-02,1.405812054872512817e-02,5.380799993872642517e-04,1.498165912926197052e-02,8.187347650527954102e-02,4.422118514776229858e-02,1.125786006450653076e-01,1.870388537645339966e-02,2.120948396623134613e-02,6.668241322040557861e-02,1.586524583399295807e-02,1.050432957708835602e-02,2.971208654344081879e-02,1.038094703108072281e-02,1.739652641117572784e-02,4.843860492110252380e-02,1.703271865844726562e-01,4.265331476926803589e-02,1.107393763959407806e-02,2.022207528352737427e-02,1.119413971900939941e-02,1.081331148743629456e-01,1.620223931968212128e-02,7.088852673768997192e-02,1.024775207042694092e-02,7.846651971340179443e-02,1.330575719475746155e-02,8.027632534503936768e-02,2.616875246167182922e-02,1.278578490018844604e-02,1.493115723133087158e-02,-1.265936903655529022e-02,8.660171180963516235e-03,6.165638938546180725e-02,9.644655883312225342e-02,1.943214051425457001e-02,2.894206345081329346e-02,5.632597953081130981e-03,6.625998020172119141e-02,8.899962902069091797e-02,5.648475512862205505e-02,7.841832935810089111e-02,4.580374807119369507e-02,4.486422985792160034e-02,1.319199800491333008e-02,6.353484094142913818e-02,3.362443670630455017e-02,9.168604016304016113e-02,9.054042398929595947e-02,2.214362099766731262e-02,1.003867946565151215e-02,8.954936638474464417e-03,1.676073111593723297e-02,1.391124818474054337e-02,8.698546886444091797e-02,1.035488955676555634e-02,3.232413902878761292e-02,4.375481605529785156e-02,5.678874254226684570e-02,-5.281207617372274399e-03,8.200496435165405273e-03,4.533839225769042969e-02,9.467577561736106873e-03,6.738027185201644897e-02,8.182217180728912354e-02,1.586972922086715698e-02,1.396140083670616150e-02,7.257781177759170532e-02,6.467781960964202881e-02,3.496718779206275940e-02,1.131932958960533142e-01,3.363157063722610474e-02,1.478755101561546326e-02,1.245750486850738525e-02,6.194513291120529175e-02,7.390492130070924759e-03,1.498325448483228683e-02,3.100310266017913818e-02,7.412654906511306763e-02,6.366066634654998779e-03,8.245842158794403076e-02,1.042769178748130798e-01,1.588939689099788666e-02,7.193207740783691406e-03,5.691108852624893188e-02,2.389973588287830353e-02,1.723019406199455261e-02,5.378564819693565369e-02,2.376019954681396484e-02,7.861448451876640320e-03,1.663673110306262970e-02,8.009034395217895508e-02,6.775349378585815430e-02,1.826915889978408813e-03,4.487366974353790283e-02,1.444458030164241791e-02,1.478203833103179932e-01,5.682004615664482117e-02,1.839209161698818207e-02,2.823828347027301788e-02,1.314938440918922424e-02,1.433540508151054382e-02,1.486817374825477600e-02,6.354090757668018341e-03,7.882563769817352295e-02,6.655234098434448242e-02,6.887832283973693848e-02,1.540376432240009308e-02,6.801943480968475342e-02,4.659452661871910095e-02,1.830246299505233765e-02,1.684774830937385559e-02,4.809170961380004883e-02,1.752461791038513184e-01,4.529781173914670944e-03,1.041401997208595276e-01,4.007617942988872528e-03,2.004467323422431946e-02,1.848959550261497498e-02,8.066429197788238525e-02,7.943087816238403320e-02,1.776378042995929718e-02,1.993953809142112732e-02,5.240938067436218262e-02,1.007857024669647217e-01,4.766295477747917175e-02,6.878840923309326172e-02,1.683870144188404083e-02,8.194285631179809570e-02,1.167425885796546936e-02,7.365818321704864502e-02,-4.331124015152454376e-03,5.323494970798492432e-02,8.458273112773895264e-02,8.549794554710388184e-02,6.512811779975891113e-02,1.120199076831340790e-02,9.719677269458770752e-03,7.536834478378295898e-02,2.870306372642517090e-03,2.116527408361434937e-02,1.456367224454879761e-02,1.603608950972557068e-02,1.160886045545339584e-02,5.686850845813751221e-02,1.673126406967639923e-02,6.238879635930061340e-02,1.011781990528106689e-01,2.321376278996467590e-02,7.575878500938415527e-02,6.152374297380447388e-02,-1.543601788580417633e-02,1.313294842839241028e-02,1.455895788967609406e-02,1.617474853992462158e-02,4.357399046421051025e-02,1.888397708535194397e-02,1.559552922844886780e-02,5.979344993829727173e-02,1.474513113498687744e-02,7.321953773498535156e-02,7.913540303707122803e-02,3.087390772998332977e-02,1.912469975650310516e-02,1.136371586471796036e-02,8.718988299369812012e-02,5.307346209883689880e-02,9.679041802883148193e-03,7.326707988977432251e-02,8.351854979991912842e-02,5.270295590162277222e-02,7.917873561382293701e-03,1.280122250318527222e-02,1.273271143436431885e-01,1.880337111651897430e-02,1.465044356882572174e-02,8.478668332099914551e-02,1.412511989474296570e-02,6.411449611186981201e-02,1.030192598700523376e-01,8.055248856544494629e-02,7.631728053092956543e-02,6.782490015029907227e-02,4.196669906377792358e-02,5.310815572738647461e-02,8.752329647541046143e-02,1.358370110392570496e-02,3.720348700881004333e-02,2.323933318257331848e-02,1.795997098088264465e-02,5.570345371961593628e-02,9.410762786865234375e-02,1.757492497563362122e-02,2.210139855742454529e-02,1.086301170289516449e-02,1.069382429122924805e-01,1.016242727637290955e-01,3.365902230143547058e-02,1.616430282592773438e-02,1.379310712218284607e-02,5.725419521331787109e-02,1.709315180778503418e-02,5.756262317299842834e-02,1.378835365176200867e-02,7.676582038402557373e-02,1.573759131133556366e-02,3.426473587751388550e-02,8.444894850254058838e-02,2.054828405380249023e-02,5.091930180788040161e-02,1.137046813964843750e-01,1.754856109619140625e-02,1.116009056568145752e-01,7.917286455631256104e-02,1.208919472992420197e-02,1.604950055480003357e-02,2.005436085164546967e-02,2.603119984269142151e-02,1.104218326508998871e-02,2.259594015777111053e-02,-2.017898112535476685e-02,8.332644402980804443e-02,2.550260163843631744e-03,1.495352759957313538e-02,8.115944266319274902e-02,9.875711798667907715e-02,1.313265599310398102e-02,1.067216843366622925e-01,1.451136358082294464e-02,5.449989344924688339e-03,8.099031448364257812e-02,1.018486544489860535e-02,6.755983829498291016e-02,2.125910483300685883e-02,1.257874816656112671e-02,-5.061555653810501099e-03,7.993266731500625610e-02,2.263424731791019440e-02,1.853900589048862457e-02,7.080946583300828934e-03,8.363321423530578613e-03,4.564863443374633789e-02,1.321282982826232910e-02,3.093010559678077698e-02,9.963547810912132263e-03,2.266448922455310822e-03,9.430550038814544678e-02,2.326975390315055847e-02,6.569030135869979858e-02,8.500041067600250244e-02,4.539921507239341736e-02,6.878295913338661194e-03,1.000668480992317200e-02,1.177955605089664459e-02,8.792435377836227417e-02,3.469178080558776855e-02,1.138455048203468323e-02,1.086247116327285767e-01,1.444961689412593842e-02,5.816200375556945801e-02,1.434007100760936737e-02,6.029002368450164795e-02,9.700301289558410645e-02,1.291718147695064545e-02,9.094415605068206787e-02,9.484569728374481201e-02,4.379847645759582520e-02,1.125981211662292480e-01,1.532818842679262161e-02,1.375980861485004425e-02,2.348267659544944763e-02,6.432449072599411011e-02,1.053641512989997864e-01,9.009304642677307129e-02,1.434736698865890503e-02,1.589458994567394257e-02,7.170864194631576538e-02,1.262056827545166016e-02,4.375182837247848511e-02,1.598256453871726990e-02,8.772251754999160767e-02,1.076975315809249878e-01,1.815844327211380005e-02,1.290313154458999634e-01,4.595797508955001831e-04,1.001433283090591431e-01,1.171898934990167618e-02,7.638013362884521484e-02,1.044538989663124084e-01,3.472559154033660889e-02,4.961590468883514404e-02,6.201595067977905273e-02,1.013276427984237671e-01,4.475045204162597656e-02,2.235456928610801697e-02,8.165144920349121094e-02,1.028982251882553101e-01,9.519882500171661377e-02,1.518953032791614532e-02,1.515749841928482056e-02,7.646758854389190674e-02,6.142327934503555298e-02,1.302580982446670532e-01,2.034379541873931885e-02,8.242435753345489502e-02,4.224955663084983826e-02,1.856472901999950409e-02,2.238517999649047852e-02,1.418291404843330383e-02,1.068614572286605835e-01,1.004661545157432556e-01,8.535446226596832275e-02,8.161689341068267822e-02,1.616922393441200256e-02,5.240823328495025635e-02,2.342170476913452148e-02,1.250873319804668427e-02,5.711508169770240784e-02,3.735806792974472046e-02,1.197885908186435699e-02,3.375361114740371704e-02,3.457322251051664352e-03,4.501603916287422180e-02,6.826568394899368286e-02,1.359734386205673218e-01,1.912198960781097412e-02,1.361568458378314972e-02,1.369300112128257751e-02,5.464842170476913452e-02,2.487380057573318481e-02,6.586351245641708374e-02,3.755598515272140503e-02,1.817917264997959137e-02,8.924605697393417358e-02,1.651647873222827911e-02,1.304256264120340347e-02,7.220821827650070190e-02,1.530948467552661896e-02,6.640053540468215942e-02,4.150623083114624023e-02,5.672954767942428589e-02,3.869485110044479370e-02,8.082976937294006348e-02,7.556512951850891113e-02,6.321340054273605347e-02,1.447406411170959473e-02,8.684728294610977173e-02,2.656216733157634735e-02,9.240081533789634705e-03,8.847428858280181885e-02,4.816406965255737305e-02,1.302043646574020386e-01,1.316348277032375336e-02,3.966023772954940796e-02,1.966761052608489990e-02,8.264846354722976685e-02,1.214171946048736572e-01,6.148423999547958374e-03,7.173392176628112793e-02,2.487194258719682693e-03,-6.302241981029510498e-02,1.236938126385211945e-02,8.376573771238327026e-02,5.389542505145072937e-02,2.164932154119014740e-02,6.444831192493438721e-02,8.284464478492736816e-02,3.833822906017303467e-02,1.442132331430912018e-02,7.534554600715637207e-02,1.365768536925315857e-02
3.199412673711776733e-02,-1.164898276329040527e-05,4.102257080376148224e-03,-4.925407120026648045e-05,6.726188585162162781e-03,-2.911277115345001221e-03,2.000919729471206665e-02,3.142730891704559326e-02,1.958632841706275940e-02,2.653267607092857361e-02,3.623540699481964111e-02,2.304258197546005249e-02,7.157249376177787781e-03,2.110145241022109985e-02,2.318219840526580811e-02,-4.055861383676528931e-03,5.305714905261993408e-03,2.461231872439384460e-02,3.537181764841079712e-02,1.443604938685894012e-03,2.649217844009399414e-02,1.011298783123493195e-02,3.995744884014129639e-02,2.350865490734577179e-02,8.934659883379936218e-03,3.706326335668563843e-02,1.471778377890586853e-03,-1.423124223947525024e-03,-5.171095952391624451e-03,2.283941023051738739e-02,6.930452771484851837e-03,-8.038874715566635132e-03,8.378090336918830872e-03,-8.214514702558517456e-03,1.920395344495773315e-02,-4.036841168999671936e-02,3.255603462457656860e-02,-2.019820921123027802e-02,2.650940045714378357e-02,-2.955475822091102600e-03,6.521338969469070435e-02,4.678841307759284973e-02,-7.188994437456130981e-03,8.109527081251144409e-02,3.349282592535018921e-02,3.070952184498310089e-02,3.476229310035705566e-02,-1.473536714911460876e-03,-3.339653834700584412e-02,1.386016607284545898e-02,2.165025658905506134e-02,1.955153793096542358e-02,1.955484598875045776e-02,1.133969798684120178e-02,-5.971177481114864349e-03,1.173521950840950012e-02,3.864449262619018555e-02,1.525769196450710297e-02,1.051280833780765533e-02,1.825833320617675781e-02,6.784622091799974442e-03,2.680920809507369995e-02,1.031251065433025360e-02,-6.758045405149459839e-03,2.414328232407569885e-02,5.944668501615524292e-02,2.735099196434020996e-02,1.496840827167034149e-02,3.963033482432365417e-02,-3.473833203315734863e-06,3.179359436035156250e-02,1.075398176908493042e-04,2.513818256556987762e-02,-6.280813366174697876e-03,2.546737156808376312e-02,1.797667518258094788e-02,3.132220357656478882e-02,2.136935666203498840e-02,2.115029469132423401e-02,-4.336984828114509583e-03,2.985059469938278198e-02,-1.936054080724716187e-01,-7.299128919839859009e-03,-3.375843167304992676e-03,8.568743243813514709e-03,2.199729904532432556e-02,2.287183329463005066e-02,2.265372499823570251e-02,3.652491793036460876e-02,2.648776397109031677e-02,-3.618188202381134033e-05,3.353404253721237183e-02,4.282204061746597290e-02,-3.623550385236740112e-02,3.778242692351341248e-02,2.625209651887416840e-02,1.676644757390022278e-02,2.953669056296348572e-03,-1.631101593375205994e-02,-2.915578894317150116e-03,2.933779731392860413e-03,9.106816723942756653e-03,-6.083142012357711792e-03,5.759787559509277344e-02,2.360375598073005676e-02,-6.921873427927494049e-03,2.515327744185924530e-02,2.701639011502265930e-02,-6.089573726058006287e-03,3.116564452648162842e-02,3.919586539268493652e-02,3.040855191648006439e-02,2.784314751625061035e-02,-4.401601850986480713e-03,3.241470456123352051e-02,3.000910207629203796e-02,7.817650213837623596e-03,3.676695376634597778e-02,-5.733898282051086426e-02,2.958914265036582947e-02,3.335031867027282715e-02,-5.174990743398666382e-02,-6.128120422363281250e-02,-1.189846545457839966e-03,4.597529768943786621e-03,2.152842283248901367e-02,4.850404709577560425e-02,2.476565539836883545e-02,3.274313360452651978e-02,2.986457757651805878e-02,2.078098431229591370e-02,-5.388370901346206665e-02,-7.456719875335693359e-03,-9.189644828438758850e-03,-8.537525311112403870e-03,1.000964827835559845e-02,2.755491994321346283e-02,-2.289069816470146179e-03,8.699442259967327118e-04,1.604190096259117126e-03,-1.513570547103881836e-01,-4.653427749872207642e-04,3.090216033160686493e-02,2.447924204170703888e-02,1.065687090158462524e-02,2.269262075424194336e-02,1.785345189273357391e-02,-9.472387842833995819e-03,1.588919758796691895e-02,9.534183889627456665e-03,1.882829144597053528e-02,1.104432158172130585e-02,-2.808662131428718567e-03,5.477438122034072876e-02,1.147643290460109711e-02,2.932476252317428589e-02,2.097404375672340393e-02,5.932209081947803497e-03,-2.939466387033462524e-02,4.239321500062942505e-02,3.786415606737136841e-02,1.399295590817928314e-02,-3.441081196069717407e-02,2.734102308750152588e-02,2.124908380210399628e-02,8.222207427024841309e-02,2.981520630419254303e-02,2.612255886197090149e-02,4.458580538630485535e-02,2.576337754726409912e-02,3.251831978559494019e-02,1.614919304847717285e-02,-3.771143034100532532e-03,5.246518552303314209e-02,8.346879482269287109e-02,2.635461091995239258e-02,3.259071335196495056e-02,-1.140623167157173157e-02,1.330821029841899872e-02,1.458694413304328918e-02,-1.163694262504577637e-02,-3.732694312930107117e-05,-3.982250392436981201e-02,6.179451942443847656e-02,3.916269913315773010e-02,6.683519110083580017e-03,1.271888613700866699e-02,2.540434338152408600e-02,9.314637631177902222e-03,3.058584034442901611e-02,3.042402677237987518e-03,8.433956652879714966e-03,-7.105432450771331787e-03,9.587982669472694397e-03,-6.078384816646575928e-03,3.568454459309577942e-02,9.189188480377197266e-03,4.202051833271980286e-02,2.816389687359333038e-02,1.595713570713996887e-02,2.515177801251411438e-02,4.373505339026451111e-02,2.644468657672405243e-02,-1.056755892932415009e-03,2.219282649457454681e-02,-2.071475377306342125e-03,2.218125760555267334e-02,-7.659235037863254547e-03,2.979545854032039642e-02,1.679368317127227783e-03,2.551872842013835907e-02,3.201642632484436035e-02,2.976140007376670837e-02,1.129608973860740662e-02,8.711038157343864441e-03,2.718036994338035583e-02,5.564953386783599854e-02,1.490978151559829712e-02,4.531926661729812622e-02,1.134502515196800232e-02,2.410767599940299988e-02,1.250500604510307312e-02,2.358923293650150299e-02,-5.662977695465087891e-03,-5.779223516583442688e-03,1.755287870764732361e-02,-7.456071674823760986e-03,4.415025934576988220e-03,4.102341085672378540e-02,-9.509965777397155762e-03,3.538231551647186279e-02,2.967754937708377838e-02,-3.136062994599342346e-03,3.815068304538726807e-02,-7.218297570943832397e-03,-2.856126055121421814e-03,3.469925746321678162e-02,-1.797126606106758118e-05,-4.654014483094215393e-03,-7.360298652201890945e-03,3.036908805370330811e-02,3.064207546412944794e-02,-1.518929959274828434e-03,-5.494414269924163818e-02,4.629684984683990479e-02,2.448074519634246826e-02,-5.314733833074569702e-03,1.646360382437705994e-03,2.493859827518463135e-02,3.254694864153862000e-03,4.399165511131286621e-02,2.014597877860069275e-02,-7.008650898933410645e-02,2.802131697535514832e-02,2.160292491316795349e-02,-5.676411092281341553e-06,2.207009121775627136e-02,3.765727579593658447e-02,-4.004239290952682495e-02,8.992080576717853546e-03,5.750923603773117065e-02,2.494857646524906158e-02,-6.093636155128479004e-03,1.641033217310905457e-02,1.991460844874382019e-02,1.898955181241035461e-02,-5.112226679921150208e-02,3.434843569993972778e-02,2.642850205302238464e-02,9.945258498191833496e-04,2.660067006945610046e-02,2.227985858917236328e-02,2.357986196875572205e-02,2.615809068083763123e-02,2.623273432254791260e-02,-8.239965885877609253e-03,2.622463926672935486e-02,1.967773400247097015e-02,4.381524398922920227e-03,2.550548128783702850e-02,4.274771362543106079e-02,-7.954966276884078979e-03,2.410532906651496887e-03,1.256838999688625336e-02,3.653717041015625000e-02,3.098019212484359741e-02,1.953218318521976471e-02,4.257163777947425842e-02,2.565548941493034363e-02,-4.583861678838729858e-03,2.575743943452835083e-02,2.418331615626811981e-02,3.079524263739585876e-02,3.359361737966537476e-02,-4.333335533738136292e-02,3.407450020313262939e-02,3.824767842888832092e-02,4.856774583458900452e-03,2.205307036638259888e-02,-1.128167612478137016e-03,2.568181604146957397e-02,-7.272291928529739380e-03,5.072404071688652039e-02,-5.863015353679656982e-02,1.852977089583873749e-02,4.255288094282150269e-02,-4.710482433438301086e-02,3.195264190435409546e-02,-2.550473436713218689e-05,1.902545057237148285e-02,1.374110579490661621e-03,3.572981059551239014e-02,5.455544218420982361e-02,2.601384744048118591e-02,-2.585537731647491455e-05,2.753492631018161774e-02,3.579284250736236572e-02,2.821984142065048218e-02,-6.580268964171409607e-03,-2.606874704360961914e-02,4.907846450805664062e-03,5.764673650264739990e-02,2.800849825143814087e-02,4.768678173422813416e-02,-4.348978400230407715e-02,-6.086236797273159027e-03,-6.226480007171630859e-03,-7.313955575227737427e-03,-6.957789883017539978e-03,-1.004984602332115173e-03,-5.120309069752693176e-03,2.057471871376037598e-02,-2.631754055619239807e-02,-7.483717054128646851e-04,8.639957755804061890e-03,5.428158491849899292e-02,3.544574230909347534e-02,2.700030431151390076e-02,1.710374280810356140e-02,3.456196188926696777e-02,2.834733761847019196e-02,5.778365582227706909e-02,3.828901052474975586e-02,2.128536254167556763e-02,2.236115932464599609e-02,8.888853713870048523e-03,8.719105273485183716e-03,3.112925030291080475e-02,-4.299849271774291992e-02,8.049286901950836182e-02,4.918761551380157471e-03,1.222634315490722656e-02,-9.552428498864173889e-03,3.126900643110275269e-03,5.100073292851448059e-03,-3.206890076398849487e-02,-6.676672026515007019e-03,2.238244190812110901e-02,8.426163345575332642e-03,-6.581667810678482056e-03,4.234270751476287842e-02,3.370842337608337402e-02,1.608599722385406494e-02,3.171726316213607788e-02,3.691231831908226013e-02,-3.970014303922653198e-02,1.443893276154994965e-02,-1.077328342944383621e-03,2.221887186169624329e-02,3.556308150291442871e-02,3.568512201309204102e-02,3.248556330800056458e-02,1.919060200452804565e-02,-1.096745021641254425e-03,-7.646621670573949814e-04,1.962693035602569580e-02,3.044034913182258606e-02,7.571308314800262451e-02,3.930634260177612305e-02,4.033480957150459290e-02,4.584346711635589600e-02,-1.456191297620534897e-03,5.032796412706375122e-03,7.559530436992645264e-02,1.062219776213169098e-02,-4.788860678672790527e-04,2.918100915849208832e-03,-7.185381837189197540e-03,6.893372163176536560e-03,-4.711563885211944580e-02,-1.024438813328742981e-02,2.996948920190334320e-02,2.712174132466316223e-02,1.262869685888290405e-03,2.934774570167064667e-02,-4.752438515424728394e-02,-8.220849558711051941e-03,6.063748151063919067e-05,-1.032707840204238892e-02,3.938861936330795288e-02,1.304134167730808258e-02,-4.024428129196166992e-02,2.498365379869937897e-02,2.423615194857120514e-02,2.819342166185379028e-02,-1.430744305253028870e-05,1.728376187384128571e-02,3.761075437068939209e-02,2.962834015488624573e-02,-7.310743443667888641e-03,2.223168686032295227e-02,2.727914229035377502e-02,2.018277347087860107e-02,1.950565353035926819e-02,2.469560131430625916e-03,2.438133396208286285e-02,-1.106876879930496216e-05,8.461711928248405457e-03,1.862127333879470825e-03,-5.421023815870285034e-04,2.208722941577434540e-02,2.954437211155891418e-02,-3.187283873558044434e-04,2.426850795745849609e-02,3.726761788129806519e-04,-6.118039786815643311e-02,-1.015357673168182373e-03,1.427223533391952515e-02,1.048217061907052994e-02,2.684182859957218170e-02,4.003888368606567383e-02,2.349971793591976166e-02,-3.048279904760420322e-05,2.598566561937332153e-02,3.349378705024719238e-02,1.293173898011445999e-02,1.212418451905250549e-02,-2.091284841299057007e-04,-3.520988393574953079e-04,3.066998720169067383e-02,-3.062650561332702637e-03,-3.890436142683029175e-03,1.916268840432167053e-02,3.694038093090057373e-02,3.844366222620010376e-02,1.973249390721321106e-02,6.425522267818450928e-02,2.506562881171703339e-02,2.521388977766036987e-02,7.087413221597671509e-02,-4.125119000673294067e-02,2.518149651587009430e-02,-1.077685505151748657e-02,1.321434974670410156e-04,2.478003315627574921e-02,7.347572594881057739e-03,4.535322077572345734e-04,-1.598522067070007324e-05,4.196472093462944031e-02,1.959311030805110931e-02,-7.563305087387561798e-03,1.084598153829574585e-02,3.771048784255981445e-02,-2.750901505351066589e-03,1.155911199748516083e-02,7.376331090927124023e-02,-3.315756097435951233e-03,1.664547994732856750e-02,8.732938207685947418e-03,2.293489500880241394e-02,6.290732882916927338e-03,3.658456355333328247e-02,-1.150742173194885254e-05,-7.958565838634967804e-03,2.818234823644161224e-02,2.793741226196289062e-02,2.837742865085601807e-02,1.534544862806797028e-03,2.141057141125202179e-02,4.092678427696228027e-03,2.270489558577537537e-02,3.165144100785255432e-02,-3.587244078516960144e-02,1.903728209435939789e-02,4.967108368873596191e-02,8.339501917362213135e-03,3.328715264797210693e-02,3.789698332548141479e-02,3.074951469898223877e-03,1.065604761242866516e-02,-8.054427802562713623e-03,-8.513964712619781494e-03,2.326790802180767059e-02,2.759800478816032410e-02,1.981754787266254425e-02,-1.003667421173304319e-05,2.401926927268505096e-02,2.088930085301399231e-02,2.647041901946067810e-02,2.977279014885425568e-02,3.982447087764739990e-02,1.636987179517745972e-02,2.412228472530841827e-02,2.778246812522411346e-02,-1.938072964549064636e-03,-3.660276532173156738e-03,-3.774100914597511292e-03,2.838487178087234497e-02,-4.169512167572975159e-02,2.107333391904830933e-02,3.139157965779304504e-02,4.670867696404457092e-03,2.389962598681449890e-02,3.159780055284500122e-02,2.262523025274276733e-02,-4.938112571835517883e-03,2.511247433722019196e-02,2.252180129289627075e-02,-4.376914352178573608e-03,3.671180084347724915e-02,4.334938526153564453e-02,2.507134713232517242e-02,3.103307634592056274e-02,3.624936565756797791e-03,-3.536097705364227295e-03,2.904640883207321167e-02,1.822641864418983459e-02,1.327494531869888306e-02,2.582294866442680359e-02,2.450075931847095490e-02,3.872204571962356567e-02,-3.989425487816333771e-03,5.330256372690200806e-02,-4.859472811222076416e-02,2.565377578139305115e-02,2.027953788638114929e-02,-5.438426509499549866e-03,3.582456707954406738e-02,2.201294526457786560e-02,-1.235164701938629150e-03,2.286217920482158661e-02,-6.275326013565063477e-03,2.068463526666164398e-02,2.156077325344085693e-02,2.492411620914936066e-02,3.083219937980175018e-02,3.820461779832839966e-02,3.124020621180534363e-02,2.812141180038452148e-02,-3.910195082426071167e-03,4.711987078189849854e-02,2.761690318584442139e-02,2.901113033294677734e-02,1.302391663193702698e-02,2.934254333376884460e-02,2.547295764088630676e-03,-1.282780244946479797e-02,3.356742113828659058e-02,1.504571922123432159e-02,4.220219701528549194e-02,3.818895667791366577e-02,1.084209978580474854e-02,-5.899183452129364014e-04,2.668296732008457184e-02,1.470778044313192368e-02,1.264986116439104080e-03,3.148014470934867859e-02,-7.055309601128101349e-03,4.518254101276397705e-02,2.153376117348670959e-02,2.910809032618999481e-02,2.266945317387580872e-02,-6.131159886717796326e-02,3.539673238992691040e-02,2.767868340015411377e-02,4.847575351595878601e-02,3.707686439156532288e-02,1.411225646734237671e-02,-2.496600523591041565e-02,1.874155551195144653e-02,3.821930289268493652e-02,2.602949924767017365e-02,5.123113095760345459e-02,1.167031563818454742e-02,2.568284422159194946e-02,8.789453655481338501e-03,1.356209814548492432e-02,2.872226014733314514e-02,3.876176476478576660e-02,2.718660235404968262e-02,6.377607583999633789e-03,-1.088827848434448242e-04,2.183433249592781067e-02,1.321789436042308807e-02,2.300341613590717316e-02,1.199498176574707031e-01,-5.988201126456260681e-03,-1.844005659222602844e-03,7.522256113588809967e-03,5.212996155023574829e-02,2.147850953042507172e-02,-5.377088114619255066e-02,3.255192935466766357e-02,-6.477147340774536133e-03,6.849420256912708282e-03,-5.169498920440673828e-02,2.294261567294597626e-02,2.574544772505760193e-02,-8.982781320810317993e-03,2.715896442532539368e-02,-4.334845021367073059e-02,2.126924693584442139e-02,2.311816252768039703e-02,2.260572090744972229e-02,-1.170256454497575760e-02,-3.373569995164871216e-02,-3.882123157382011414e-02,1.046829298138618469e-02,7.935394532978534698e-03,9.108701720833778381e-03,-2.195842564105987549e-03,-7.050834596157073975e-03,-9.313058108091354370e-03,-6.926888599991798401e-03,2.584679238498210907e-02,6.978652440011501312e-03,2.931027114391326904e-02,-2.859365940093994141e-02,1.910555735230445862e-02,4.949522763490676880e-02,2.428426966071128845e-02,-9.077563881874084473e-03,1.360129565000534058e-03,2.479219064116477966e-02,3.132129460573196411e-02,-5.531999096274375916e-02,6.089545786380767822e-03,-3.014398738741874695e-03,2.391352690756320953e-02,3.821749240159988403e-03,-1.662857830524444580e-04,-7.468033581972122192e-03,-1.732277683913707733e-03,4.584070295095443726e-02,1.380901038646697998e-02,-1.238031312823295593e-01,2.877530828118324280e-02,2.514630556106567383e-02,-7.841959595680236816e-04,-7.821600884199142456e-04,5.479521676898002625e-02,1.736421138048171997e-03,1.428582519292831421e-02,5.567754432559013367e-02,2.457131817936897278e-02,-6.627935916185379028e-03,2.300550788640975952e-02,9.452030062675476074e-04,2.454644814133644104e-02,3.922795876860618591e-03,-4.431192064657807350e-05,4.413302056491374969e-03,-8.084397763013839722e-03,4.250298812985420227e-02,-1.646025106310844421e-03,-1.951076090335845947e-03,-1.170905306935310364e-02,2.101468667387962341e-02,-3.953371196985244751e-02,2.259355224668979645e-02,3.536859154701232910e-02,1.577145978808403015e-02,1.505698543041944504e-02,1.468410715460777283e-03,1.716710627079010010e-02,1.873424090445041656e-02,-4.343589022755622864e-02,2.613552287220954895e-02,-6.672715768218040466e-03,-1.120194792747497559e-05,6.200540810823440552e-04,-7.307657971978187561e-03,-1.272166240960359573e-02,3.725676611065864563e-02,-2.530733123421669006e-03,1.244603935629129410e-02,3.268933296203613281e-02,1.848469115793704987e-02,2.034241333603858948e-05,3.717167302966117859e-03,4.359812289476394653e-02,-3.065897850319743156e-03,1.317230239510536194e-02,3.227644413709640503e-02,-7.259943522512912750e-03,5.520315468311309814e-02,-3.071755915880203247e-02,2.576995640993118286e-02,4.080936685204505920e-02,4.456681013107299805e-02,2.175423875451087952e-02,2.196997217833995819e-02,-1.834629103541374207e-03,2.232116833329200745e-02,-6.980262696743011475e-06,-1.882389187812805176e-04,1.203219965100288391e-02,1.266784407198429108e-02,-4.955928772687911987e-03,2.576658129692077637e-02,3.236599639058113098e-02,-6.479114294052124023e-03,-1.261809468269348145e-02,2.185215801000595093e-02,-1.931142527610063553e-03,1.426591910421848297e-02,2.232766710221767426e-02,1.049506664276123047e-02,3.353056311607360840e-02,-1.951845828443765640e-03,3.963964432477951050e-02,1.675767637789249420e-02,5.465723574161529541e-03,3.607711195945739746e-02,7.696896791458129883e-04,6.999731063842773438e-02,2.603267505764961243e-02,-1.080388016998767853e-02,-9.259300306439399719e-03,1.174281351268291473e-02,3.710591048002243042e-02,4.031975939869880676e-02,1.121850032359361649e-02,2.783087454736232758e-02,1.194164156913757324e-02,2.290157601237297058e-02,7.109438069164752960e-03,1.470597460865974426e-02,3.656779229640960693e-02,-1.530000474303960800e-03,-4.486147314310073853e-03,1.696820184588432312e-02,7.328622043132781982e-02,-4.959292709827423096e-07,-4.704415798187255859e-02,-9.727106429636478424e-03,7.712733000516891479e-03,-3.695946186780929565e-03,3.336611017584800720e-02,2.015148475766181946e-02,-6.868671625852584839e-04,-3.159114159643650055e-03,1.790098287165164948e-02,5.098304152488708496e-02,8.006118237972259521e-03,3.273982554674148560e-02,-6.143547594547271729e-03,2.435537241399288177e-02,-1.027209497988224030e-02,2.646098844707012177e-02,6.067789159715175629e-03,3.846534341573715210e-02,3.610662370920181274e-02,3.652039915323257446e-02,3.061715327203273773e-02,1.288320869207382202e-03,6.561285257339477539e-02,2.164262533187866211e-02,1.444015651941299438e-05,-7.698806002736091614e-03,-6.324240472167730331e-03,2.614921331405639648e-02,-1.122776325792074203e-02,2.412038296461105347e-02,2.861093357205390930e-02,2.291302010416984558e-02,-4.564632102847099304e-02,1.787901856005191803e-03,2.703834883868694305e-02,2.615622803568840027e-02,-1.670076744630932808e-05,5.291846767067909241e-02,4.961724393069744110e-03,-1.057792454957962036e-03,1.686816848814487457e-02,2.981442958116531372e-04,3.470404446125030518e-02,2.589616738259792328e-02,6.934765726327896118e-03,2.968050166964530945e-02,2.241954952478408813e-02,1.478146854788064957e-02,-2.569995820522308350e-03,-9.943858720362186432e-03,2.345072850584983826e-02,1.809645816683769226e-02,5.810355767607688904e-03,2.074761316180229187e-02,3.195102140307426453e-02,-1.098908483982086182e-03,2.231623977422714233e-03,-6.167115643620491028e-03,5.581131577491760254e-02,2.003556117415428162e-03,3.047491237521171570e-02,3.003582544624805450e-02,1.845716312527656555e-02,2.514638938009738922e-02,2.426129207015037537e-02,-2.520922943949699402e-02,3.247872740030288696e-02,-3.451045602560043335e-03,3.512432798743247986e-02,3.859897330403327942e-02,-3.808209300041198730e-02,5.262718349695205688e-02,8.935481309890747070e-05,9.121191687881946564e-03,-7.832975126802921295e-03,2.533675543963909149e-02,2.511019259691238403e-02,5.730841308832168579e-02,-3.475831821560859680e-03,-6.595494225621223450e-03,-7.197859883308410645e-02,-4.168284311890602112e-02,1.594534888863563538e-02,-1.315199304372072220e-03,1.132938638329505920e-02,2.797091752290725708e-02,-6.390172988176345825e-03,1.738400012254714966e-02,-2.335894852876663208e-03,2.708691917359828949e-02,-2.965331077575683594e-06,1.803245395421981812e-02,-3.489101678133010864e-02,2.774508669972419739e-03,8.455224335193634033e-03,-5.847997963428497314e-02,-1.364580588415265083e-03,-5.573273077607154846e-02,3.160266578197479248e-02,2.552025020122528076e-03,4.799976572394371033e-02,-7.871370762586593628e-03,1.346036978065967560e-02,2.749831229448318481e-02,1.244962029159069061e-02,3.282390162348747253e-02,2.219765260815620422e-02,4.616812802851200104e-03,1.116836443543434143e-02,2.575033344328403473e-02,-4.447226971387863159e-02,9.996699169278144836e-03,-4.618391394615173340e-02,-2.079952508211135864e-03,-7.661672774702310562e-03,2.767049334943294525e-02,2.640818431973457336e-02,2.585141174495220184e-02,3.597177565097808838e-04,2.629576250910758972e-02,2.685142681002616882e-02,2.598049305379390717e-02,2.892242744565010071e-03,3.707265853881835938e-02,-1.633689273148775101e-03,3.336718305945396423e-03,3.351089730858802795e-02,5.567363649606704712e-02,4.080437123775482178e-03,1.653464511036872864e-02,1.688487827777862549e-06,3.324991464614868164e-02,-1.493038609623908997e-03,7.783904671669006348e-03,3.318748250603675842e-02,3.850475698709487915e-02,-1.825228333473205566e-03,1.896934211254119873e-02,6.388435140252113342e-03,3.032699786126613617e-02,2.714483439922332764e-02,-1.330442493781447411e-03,-7.640072703361511230e-02,5.323027819395065308e-02,1.466377079486846924e-02,4.532499611377716064e-02,2.104353159666061401e-02,1.983728632330894470e-02,-3.485281020402908325e-03,-4.132907465100288391e-02,3.511244058609008789e-02,3.558848425745964050e-02,5.820859968662261963e-02,-7.119416259229183197e-03,1.869986392557621002e-02,-6.722505204379558563e-03,1.524482667446136475e-02,-4.375601932406425476e-02,4.238330572843551636e-02,3.765818476676940918e-02,2.150601893663406372e-02,2.320066466927528381e-02,3.882494196295738220e-02,4.487965255975723267e-03,-2.588436938822269440e-03,3.170353919267654419e-02,-4.408853501081466675e-02,7.297750562429428101e-03,5.021524429321289062e-02,-1.184644177556037903e-02,-4.489143192768096924e-02,-5.362194497138261795e-04,2.125883102416992188e-02,3.520203009247779846e-02,5.831193178892135620e-03,1.723698340356349945e-02,2.148364111781120300e-02,4.147751256823539734e-02,4.062036052346229553e-02,3.574933111667633057e-02,-3.525489941239356995e-02,3.407136723399162292e-02,2.621539868414402008e-02,-6.373479962348937988e-03,-9.485231712460517883e-04,2.474649250507354736e-02,1.997773349285125732e-02,-9.964746236801147461e-02,-3.193996846675872803e-03,3.380684927105903625e-02,2.992628328502178192e-02,-4.533533938229084015e-04,9.008008986711502075e-03,-1.963427290320396423e-03,-5.716911330819129944e-02,5.029308795928955078e-02,1.146122254431247711e-02,3.523450344800949097e-02,-4.133440554141998291e-03,2.610489353537559509e-02,2.457270398736000061e-03,3.425775468349456787e-02,9.541906416416168213e-03,9.171776473522186279e-04,2.866986952722072601e-02,1.171975396573543549e-02,-1.402108464390039444e-03,3.219600021839141846e-02,1.792037859559059143e-02,4.615689069032669067e-02,3.311526030302047729e-03,4.849408566951751709e-02,-2.522999420762062073e-03,-5.656991153955459595e-03,-4.167109727859497070e-05,2.302220091223716736e-02,1.959166675806045532e-02,-6.637010723352432251e-03,3.194456920027732849e-02,-6.766259670257568359e-03,-2.694212831556797028e-03,2.633727900683879852e-02,4.381469637155532837e-02,1.613552123308181763e-02,1.914981752634048462e-03,2.352968975901603699e-02,2.337639406323432922e-02,-3.238279372453689575e-02,1.726083457469940186e-03,3.126645833253860474e-02,4.651622846722602844e-02,-4.007790610194206238e-02,1.097033731639385223e-02,4.871283471584320068e-02,2.198518998920917511e-02,4.477535933256149292e-02,4.746254161000251770e-02,2.813910879194736481e-02,3.046230226755142212e-02,-1.046940311789512634e-02,2.946580760180950165e-02,4.367440193891525269e-02,-1.244469732046127319e-02,1.167548261582851410e-02,-2.185208722949028015e-05,-3.836272284388542175e-03,1.351817883551120758e-02,2.089661359786987305e-02,1.741360500454902649e-02,1.783038675785064697e-02,2.074510976672172546e-02,3.272941708564758301e-02,-3.832457587122917175e-03,-8.548401296138763428e-03,2.812018990516662598e-02,3.636247292160987854e-02
5.154910311102867126e-02,-1.695039495825767517e-02,-2.294604480266571045e-02,-4.107711091637611389e-02,1.033361814916133881e-02,-1.810317113995552063e-02,2.647452056407928467e-03,-1.408609449863433838e-01,-5.757132545113563538e-03,-1.590698957443237305e-06,1.440877839922904968e-02,2.624839544296264648e-05,-2.033188194036483765e-02,2.593845129013061523e-04,-4.269182682037353516e-06,1.577469706535339355e-02,1.694043166935443878e-02,1.975893974304199219e-05,4.357124865055084229e-02,7.330444455146789551e-02,2.020969986915588379e-05,2.343288436532020569e-02,3.393787890672683716e-03,3.841539099812507629e-02,3.303525969386100769e-02,2.434477210044860840e-05,-4.539777338504791260e-02,-1.165129318833351135e-01,-2.644981443881988525e-02,1.073412783443927765e-02,2.592543885111808777e-02,-2.094137109816074371e-02,1.576003432273864746e-02,-5.736632645130157471e-02,5.593523383140563965e-05,5.246508866548538208e-03,-3.484016656875610352e-02,6.463035941123962402e-02,4.013969749212265015e-02,1.265965960919857025e-02,1.012957394123077393e-01,6.161436438560485840e-02,5.294685252010822296e-03,7.901678979396820068e-02,3.770116716623306274e-03,3.315057605504989624e-03,6.589818745851516724e-03,1.233375631272792816e-02,2.380583435297012329e-03,8.362909778952598572e-03,1.580912619829177856e-03,-4.558017104864120483e-02,5.490332841873168945e-05,-6.286166608333587646e-02,-1.158800125122070312e-01,4.557126760482788086e-02,3.813490271568298340e-03,3.220095857977867126e-02,1.172900199890136719e-02,1.320527866482734680e-03,-5.641795322299003601e-02,-6.268092244863510132e-02,3.120146319270133972e-02,1.732463017106056213e-02,2.614408731460571289e-05,2.893646433949470520e-02,2.411007881164550781e-05,2.770004607737064362e-02,5.318016186356544495e-02,2.822960540652275085e-02,4.717286676168441772e-03,4.249241203069686890e-03,-5.690324679017066956e-02,1.655930466949939728e-02,3.134593740105628967e-02,3.340102732181549072e-03,1.641634851694107056e-03,8.911322802305221558e-04,1.150289550423622131e-03,1.006750762462615967e-02,4.742427915334701538e-02,1.349162310361862183e-03,4.400800168514251709e-02,-1.870988495647907257e-02,-6.162136420607566833e-02,2.453103661537170410e-05,3.427347168326377869e-02,3.404564410448074341e-02,-1.292546838521957397e-01,3.385841846466064453e-04,-2.288552559912204742e-02,5.015122890472412109e-02,9.098433703184127808e-02,6.432197988033294678e-03,-4.027277603745460510e-02,1.449137926101684570e-06,-1.031455025076866150e-02,1.106081344187259674e-02,4.576703906059265137e-02,-1.432411279529333115e-02,2.570569328963756561e-02,-2.310154587030410767e-02,8.356487005949020386e-02,5.933777615427970886e-02,4.985034465789794922e-02,-2.168730646371841431e-02,3.777411580085754395e-02,-4.262494295835494995e-02,4.240250214934349060e-03,2.565607428550720215e-05,6.149464100599288940e-02,5.971442908048629761e-03,3.379409015178680420e-02,1.776442676782608032e-02,1.762434840202331543e-05,9.883768856525421143e-03,2.620343491435050964e-02,-6.249290704727172852e-02,1.861900091171264648e-05,1.274421811103820801e-05,4.677350819110870361e-02,-1.621991395950317383e-05,2.542510628700256348e-06,-5.107333138585090637e-02,1.109978929162025452e-02,7.937997579574584961e-04,1.568062230944633484e-02,4.008886218070983887e-02,1.147903501987457275e-03,2.939678728580474854e-03,-4.820339381694793701e-04,-1.293793320655822754e-05,7.908788323402404785e-02,-2.008600719273090363e-02,-9.378988295793533325e-02,-4.961060732603073120e-02,-4.447945952415466309e-02,-6.959217786788940430e-02,-5.405031889677047729e-02,7.045423611998558044e-03,6.198137998580932617e-05,8.873219601809978485e-03,5.715593695640563965e-03,3.500771149992942810e-02,7.091693580150604248e-03,9.925551712512969971e-04,-2.626156434416770935e-03,1.368927303701639175e-02,2.144955843687057495e-02,3.246047347784042358e-02,2.743428759276866913e-02,4.660362377762794495e-03,-1.901981048285961151e-02,5.737557634711265564e-02,-2.348142489790916443e-02,4.004515707492828369e-02,1.103524118661880493e-03,1.309115719050168991e-02,2.889972180128097534e-03,7.626203447580337524e-02,4.262657463550567627e-02,2.879631146788597107e-02,5.833417177200317383e-03,1.461790502071380615e-02,3.932702168822288513e-02,8.659525960683822632e-02,-4.287436604499816895e-05,1.825392246246337891e-07,5.614607036113739014e-02,3.956250846385955811e-03,3.829598426818847656e-06,1.516751945018768311e-04,1.466836035251617432e-02,1.866900548338890076e-02,1.298727393150329590e-01,6.254762411117553711e-06,4.034059122204780579e-02,-6.850000470876693726e-03,2.587301284074783325e-02,-6.661190092563629150e-02,8.458645641803741455e-02,1.978574506938457489e-02,2.999685704708099365e-03,7.218281924724578857e-02,5.902100726962089539e-02,-1.675212942063808441e-02,3.985602408647537231e-02,2.214428037405014038e-03,2.354533225297927856e-02,5.293363332748413086e-02,-1.887736655771732330e-02,-7.648138701915740967e-02,-1.886593922972679138e-02,3.672926500439643860e-02,8.529931306838989258e-03,4.762630909681320190e-03,5.698874592781066895e-03,2.830866724252700806e-03,5.014266818761825562e-03,9.726844727993011475e-04,2.679228782653808594e-05,5.414997041225433350e-02,9.124353528022766113e-05,-5.350745841860771179e-02,1.270473003387451172e-04,-1.128619089722633362e-01,-6.930266320705413818e-02,-1.876807212829589844e-02,5.746136978268623352e-02,1.192849688231945038e-02,1.854151487350463867e-04,4.976435750722885132e-02,4.617739841341972351e-02,-6.914588809013366699e-02,-6.206870451569557190e-02,4.668105393648147583e-02,5.812574177980422974e-02,5.916550755500793457e-03,5.142525210976600647e-02,-4.385822266340255737e-02,-4.522071778774261475e-02,-7.711390405893325806e-02,4.035274684429168701e-02,-5.923736840486526489e-02,1.120222266763448715e-02,1.426100730895996094e-03,-1.077024266123771667e-01,1.760168746113777161e-02,7.438223809003829956e-03,7.265475392341613770e-02,-4.616569727659225464e-02,-5.512332171201705933e-02,-6.811745464801788330e-02,5.080442503094673157e-02,1.173080690205097198e-02,-9.833564609289169312e-02,-8.326023817062377930e-06,-2.365905232727527618e-02,-8.073611557483673096e-02,-9.536712616682052612e-02,3.226340189576148987e-02,5.398299917578697205e-02,-5.617586150765419006e-02,1.293564960360527039e-02,5.085155367851257324e-02,-4.026397317647933960e-02,1.662703976035118103e-02,-2.098694443702697754e-02,9.857118129730224609e-06,1.704572327435016632e-02,2.435196191072463989e-03,6.727874279022216797e-05,1.574263721704483032e-02,2.307072281837463379e-05,4.777498543262481689e-04,-2.385820075869560242e-02,-6.101709231734275818e-02,4.663560166954994202e-02,7.140580564737319946e-03,2.517936564981937408e-02,5.855183675885200500e-02,1.685693860054016113e-05,6.086437031626701355e-03,-3.949105739593505859e-04,-2.731796354055404663e-03,3.095879033207893372e-02,9.705148637294769287e-03,7.479690015316009521e-03,2.235392481088638306e-02,1.261714566498994827e-02,1.699693500995635986e-03,1.019861549139022827e-03,1.186061650514602661e-03,4.745397716760635376e-02,3.736846148967742920e-02,-1.150955781340599060e-01,5.082427710294723511e-02,1.273974776268005371e-03,1.128654740750789642e-02,2.848729491233825684e-05,6.434527039527893066e-02,-1.206802651286125183e-01,5.423852242529392242e-03,-5.340057983994483948e-02,4.249833524227142334e-03,5.039523914456367493e-02,-9.575001895427703857e-04,4.540173709392547607e-02,-6.962633132934570312e-02,2.320466376841068268e-02,4.909932613372802734e-06,7.075518369674682617e-04,4.623612016439437866e-02,1.075562089681625366e-03,3.674253821372985840e-05,4.899021983146667480e-02,1.186806708574295044e-02,1.565116830170154572e-02,3.004746884107589722e-02,-5.384576320648193359e-02,-7.130686938762664795e-02,5.259936302900314331e-02,5.175818502902984619e-02,1.114961132407188416e-02,2.806946635246276855e-03,4.676346108317375183e-02,3.342255949974060059e-03,1.754984259605407715e-05,-2.491616830229759216e-02,5.419738590717315674e-04,6.637112237513065338e-03,4.260685294866561890e-03,6.557420641183853149e-02,2.971291542053222656e-05,2.203603461384773254e-02,4.264634102582931519e-02,4.529042169451713562e-02,4.083871468901634216e-02,-1.165975928306579590e-01,4.848938435316085815e-03,-9.112893790006637573e-02,5.869425088167190552e-02,3.465681150555610657e-02,7.764069736003875732e-02,5.641102790832519531e-03,-1.653539761900901794e-02,-9.311137348413467407e-02,7.379334419965744019e-04,1.245730556547641754e-03,-6.940831989049911499e-02,-1.957418210804462433e-02,7.249861955642700195e-04,2.689971961081027985e-02,-2.023096196353435516e-02,3.759177401661872864e-02,4.908744990825653076e-02,3.514330834150314331e-03,1.292671635746955872e-02,-3.726005554199218750e-03,1.000627875328063965e-03,5.916506052017211914e-05,5.516037717461585999e-02,1.886733248829841614e-02,8.822344243526458740e-04,-5.587919801473617554e-02,-6.269117444753646851e-02,-2.304115705192089081e-02,1.793362200260162354e-03,6.669804453849792480e-03,9.205716848373413086e-02,1.845521666109561920e-02,3.716420382261276245e-03,-2.031108364462852478e-02,4.163426160812377930e-02,9.117226116359233856e-03,2.473967149853706360e-03,1.182611566036939621e-02,4.152432084083557129e-04,-5.546002835035324097e-02,-2.001465298235416412e-02,1.328080892562866211e-02,6.707757711410522461e-04,1.418143510818481445e-03,-2.319850027561187744e-03,1.420658454298973083e-02,6.662234663963317871e-04,1.530722156167030334e-02,-1.831765100359916687e-02,4.639551043510437012e-04,1.723842695355415344e-02,7.945388555526733398e-03,5.453498288989067078e-02,1.489745453000068665e-03,-1.382778305560350418e-02,-5.955107882618904114e-02,-1.578118652105331421e-03,4.782418161630630493e-02,7.909598201513290405e-02,8.374901860952377319e-02,5.899029970169067383e-02,5.744270235300064087e-02,-6.260896474123001099e-02,1.080033741891384125e-02,8.471211045980453491e-02,1.791684329509735107e-02,8.361660689115524292e-02,-3.570275381207466125e-03,-2.031826600432395935e-02,5.559129640460014343e-03,1.008792221546173096e-02,5.176315084099769592e-02,2.286624163389205933e-03,2.664700150489807129e-05,5.450557917356491089e-03,-4.770142585039138794e-02,1.223757863044738770e-03,-1.926667429506778717e-02,-4.658016189932823181e-02,2.998435311019420624e-02,-3.937611728906631470e-02,4.883725196123123169e-03,9.969819337129592896e-03,9.570270776748657227e-06,1.493841409683227539e-05,2.837349101901054382e-02,-2.377704530954360962e-02,3.034763038158416748e-03,4.540156573057174683e-03,3.934486210346221924e-02,4.619707353413105011e-03,6.531085819005966187e-04,1.051649451255798340e-05,1.039979979395866394e-03,3.093950264155864716e-02,1.431217510253190994e-02,-1.622736454010009766e-05,-5.782888829708099365e-02,-5.344489216804504395e-02,2.181373536586761475e-02,-2.056279778480529785e-02,-2.042464911937713623e-04,1.461058855056762695e-05,9.109213948249816895e-03,4.266261309385299683e-02,-4.774502664804458618e-02,4.084229469299316406e-03,9.277527034282684326e-02,1.830448769032955170e-02,2.713489532470703125e-02,3.542751073837280273e-06,-4.493471235036849976e-02,4.789084196090698242e-04,-5.948099493980407715e-02,2.233684062957763672e-05,9.533017873764038086e-06,2.192550525069236755e-02,3.040354698896408081e-03,2.316621132194995880e-02,-4.775911942124366760e-02,3.223363682627677917e-02,-6.932245194911956787e-02,3.086847439408302307e-02,1.163884997367858887e-03,4.260822013020515442e-02,-5.574762076139450073e-02,-5.363948270678520203e-02,7.939670234918594360e-02,4.403523355722427368e-02,8.246526122093200684e-04,7.634523510932922363e-02,-7.152557373046875000e-07,2.376735210418701172e-05,5.085008963942527771e-02,4.526097327470779419e-02,1.754611730575561523e-06,2.780459821224212646e-02,-8.321312069892883301e-02,-2.712915278971195221e-02,5.670196563005447388e-02,-1.196555346250534058e-01,-1.806846261024475098e-02,1.283000782132148743e-02,7.136408239603042603e-03,-1.385932974517345428e-02,-4.069598764181137085e-02,7.830575108528137207e-02,3.305892460048198700e-03,-8.425050973892211914e-02,2.776414155960083008e-02,3.134757280349731445e-04,2.922985889017581940e-02,4.980627447366714478e-02,-2.154114097356796265e-02,-1.844548061490058899e-02,5.198446661233901978e-02,4.710412770509719849e-02,2.184882760047912598e-05,-1.660693995654582977e-02,1.971255987882614136e-03,2.681707032024860382e-02,-8.537657558917999268e-04,7.127530872821807861e-03,3.102909773588180542e-03,3.368937969207763672e-02,5.272915959358215332e-02,1.601470634341239929e-02,3.223925828933715820e-03,3.725585341453552246e-02,2.504124306142330170e-02,-6.186128407716751099e-02,-2.091887034475803375e-02,6.354868412017822266e-03,2.185285091400146484e-03,1.854449510574340820e-05,-3.152484074234962463e-03,2.145192958414554596e-02,5.331493914127349854e-03,3.407170251011848450e-02,-4.978892952203750610e-02,1.135912165045738220e-02,-5.160560086369514465e-02,6.175654008984565735e-03,-5.333028733730316162e-03,4.242950677871704102e-02,-5.737518519163131714e-02,-2.392520755529403687e-02,-6.435018777847290039e-02,4.072016105055809021e-02,2.034679055213928223e-03,-2.242624759674072266e-06,1.858919858932495117e-06,1.359530445188283920e-02,4.643749445676803589e-03,4.284124821424484253e-03,3.359296172857284546e-02,9.822596795856952667e-03,-1.298774480819702148e-01,3.907808661460876465e-02,4.780251532793045044e-02,4.372354596853256226e-02,6.026044487953186035e-03,2.280212938785552979e-04,-1.374441385269165039e-01,-1.701604574918746948e-02,7.067671976983547211e-03,4.145203530788421631e-02,1.519262790679931641e-03,1.697652041912078857e-02,-4.357089102268218994e-02,1.037240028381347656e-03,5.165971815586090088e-03,-2.132067084312438965e-02,5.693375691771507263e-02,1.070579141378402710e-02,3.316625952720642090e-05,2.751871943473815918e-05,4.383082501590251923e-03,-5.721962079405784607e-02,7.788911461830139160e-04,-6.386648118495941162e-02,5.124883726239204407e-03,3.347160294651985168e-03,9.174030274152755737e-04,3.498351573944091797e-02,4.519278556108474731e-02,3.930080682039260864e-03,-5.832927301526069641e-02,4.917180538177490234e-02,3.638878464698791504e-03,5.512344650924205780e-03,6.904745846986770630e-02,5.021103098988533020e-02,-1.575425267219543457e-05,2.559198066592216492e-03,8.838139474391937256e-04,5.623950622975826263e-03,6.414884328842163086e-02,2.638760954141616821e-03,-1.085514351725578308e-01,9.402442723512649536e-03,5.105394870042800903e-02,5.903013050556182861e-03,1.780117489397525787e-02,1.793485134840011597e-03,-9.005972743034362793e-02,-5.018622055649757385e-02,-1.270426064729690552e-01,-1.768472045660018921e-02,2.811515145003795624e-02,3.370589762926101685e-02,-4.224851727485656738e-05,4.007861763238906860e-02,1.538752019405364990e-02,3.939810022711753845e-02,-1.284282505512237549e-01,3.948318213224411011e-02,5.117375403642654419e-02,2.960638701915740967e-02,2.492636442184448242e-03,1.453086733818054199e-04,-4.080639779567718506e-02,4.257115349173545837e-02,7.040131837129592896e-02,5.905333906412124634e-03,3.680082410573959351e-02,-4.673955217003822327e-02,2.401127852499485016e-02,2.796575799584388733e-02,4.644922167062759399e-02,1.477882266044616699e-03,3.787617385387420654e-02,1.299659609794616699e-01,-4.906861484050750732e-02,2.537842839956283569e-02,-3.810712695121765137e-02,1.825530529022216797e-01,1.617290079593658447e-02,-2.202286757528781891e-02,7.512412965297698975e-03,3.259685263037681580e-02,1.128718256950378418e-03,1.253701373934745789e-02,1.352280378341674805e-06,1.029205508530139923e-02,-5.995517969131469727e-02,7.065404206514358521e-03,3.444403409957885742e-05,3.726438432931900024e-02,4.166352003812789917e-02,-1.084092408418655396e-01,5.492370575666427612e-03,2.782046794891357422e-05,1.398216933012008667e-03,6.273910403251647949e-04,-5.866719037294387817e-02,2.312302589416503906e-03,2.105161547660827637e-05,5.450084805488586426e-03,2.494867704808712006e-02,-4.430773109197616577e-02,-4.851059615612030029e-02,-1.944052614271640778e-02,-1.191452741622924805e-01,2.127781510353088379e-03,1.829925924539566040e-03,1.485849916934967041e-02,4.496425390243530273e-06,3.408372402191162109e-03,1.944366842508316040e-03,4.976500198245048523e-02,3.548399358987808228e-02,-1.030061468482017517e-01,1.563602313399314880e-02,8.173286914825439453e-06,-4.745841771364212036e-02,7.604341953992843628e-03,7.353139109909534454e-03,-2.148230187594890594e-02,2.664700150489807129e-05,-2.009363472461700439e-02,1.735796220600605011e-02,-4.721833020448684692e-02,-5.655820295214653015e-02,5.198551714420318604e-02,-3.764797002077102661e-03,4.279613494873046875e-05,-4.567591845989227295e-02,3.990590199828147888e-02,-5.163048952817916870e-02,1.361790113151073456e-03,2.394152060151100159e-02,1.147486083209514618e-02,2.516107819974422455e-02,7.870013266801834106e-02,1.490116119384765625e-07,-8.628804236650466919e-03,4.899688065052032471e-04,-1.600566133856773376e-02,3.644165769219398499e-02,1.554476469755172729e-02,2.318541519343852997e-02,1.129130274057388306e-02,4.408982396125793457e-02,3.279453516006469727e-02,-5.297638475894927979e-02,7.960567623376846313e-02,-1.545486971735954285e-02,1.360997557640075684e-04,2.571240067481994629e-03,-6.620362401008605957e-04,6.267305463552474976e-03,-7.403297349810600281e-03,-6.456086412072181702e-03,-1.780696213245391846e-02,4.341587424278259277e-03,-4.676069319248199463e-02,1.947324723005294800e-03,1.998245716094970703e-05,-2.041967771947383881e-02,-2.314171940088272095e-02,2.036487683653831482e-02,1.990100368857383728e-03,-2.208983153104782104e-02,1.711124926805496216e-02,1.960047706961631775e-02,-5.358856916427612305e-02,-5.414868518710136414e-02,1.582130789756774902e-05,2.683106809854507446e-02,2.919327281415462494e-02,-3.738459944725036621e-02,-1.113352179527282715e-01,4.252489656209945679e-03,1.055374741554260254e-05,-2.022677659988403320e-02,5.351447686553001404e-02,1.058120280504226685e-03,4.488833248615264893e-03,-6.871972978115081787e-02,3.888010978698730469e-03,-4.753933846950531006e-02,3.771496936678886414e-02,1.149729639291763306e-02,1.632906496524810791e-04,-4.693555086851119995e-02,-2.080396190285682678e-02,-4.606131091713905334e-02,3.360226005315780640e-02,1.074244733899831772e-02,2.454731613397598267e-03,4.863075539469718933e-02,5.085906013846397400e-03,-1.821815408766269684e-02,2.000565230846405029e-01,-6.963681429624557495e-02,4.028940200805664062e-02,-1.868432387709617615e-03,2.811934426426887512e-02,5.100059136748313904e-02,-5.858193710446357727e-02,8.293814957141876221e-03,7.188644260168075562e-03,-7.850055396556854248e-02,-4.261992871761322021e-02,5.624933168292045593e-03,1.034400612115859985e-01,-2.089887857437133789e-06,-5.229636281728744507e-02,-6.274970620870590210e-02,2.284839376807212830e-02,5.369879305362701416e-02,4.461571946740150452e-02,8.037727326154708862e-03,4.588451236486434937e-03,2.997200749814510345e-02,2.193525433540344238e-04,1.541648618876934052e-02,1.766532659530639648e-03,-5.415518954396247864e-02,-5.874524265527725220e-02,6.377042084932327271e-02,-6.910150870680809021e-03,1.133560910820960999e-01,-2.131709270179271698e-02,1.257955282926559448e-02,6.973367650061845779e-03,1.039361674338579178e-02,6.267608702182769775e-02,2.507988363504409790e-03,1.842955313622951508e-02,-5.082584172487258911e-02,-2.373588457703590393e-02,-1.845074817538261414e-03,2.007672935724258423e-02,-6.399178504943847656e-02,-5.848705768585205078e-07,5.181942135095596313e-03,3.157220780849456787e-04,-1.827835291624069214e-02,7.887136191129684448e-03,3.179279342293739319e-02,-6.801985204219818115e-02,1.004065945744514465e-02,3.554597496986389160e-03,-4.023313522338867188e-06,1.152022741734981537e-02,6.928747892379760742e-02,2.547584474086761475e-03,-2.265655435621738434e-02,-1.918852142989635468e-02,-4.593070223927497864e-02,3.959485515952110291e-02,-1.941855996847152710e-02,6.668269634246826172e-07,4.208910092711448669e-02,3.664977848529815674e-04,1.043031364679336548e-02,-1.963957399129867554e-02,5.509071052074432373e-04,6.010785698890686035e-03,2.500796318054199219e-02,5.747158825397491455e-02,2.112273871898651123e-02,7.875549048185348511e-02,5.649812519550323486e-03,3.328576683998107910e-03,4.815107583999633789e-02,-4.412606358528137207e-06,9.898184798657894135e-03,4.888363182544708252e-04,2.843998372554779053e-04,-4.125697910785675049e-02,-2.469652891159057617e-02,-1.876765117049217224e-02,2.519391477108001709e-03,-3.276890143752098083e-03,2.147451788187026978e-02,2.461329102516174316e-03,1.214444637298583984e-06,1.068302020430564880e-01,2.248067967593669891e-02,4.847590811550617218e-03,3.864273801445960999e-02,3.851525485515594482e-03,3.711653873324394226e-02,8.933246135711669922e-06,2.922297641634941101e-02,6.340593099594116211e-04,3.853396326303482056e-02,4.801653325557708740e-03,6.582260131835937500e-03,2.533480152487754822e-02,-3.799223899841308594e-02,-6.246574223041534424e-02,4.599183797836303711e-03,5.550435185432434082e-02,-5.943527072668075562e-02,-5.109383910894393921e-02,-1.999298483133316040e-02,-3.948781639337539673e-03,9.916722774505615234e-06,6.722682714462280273e-02,-1.802810467779636383e-02,1.184888370335102081e-02,9.313225746154785156e-07,7.622875273227691650e-04,-1.451358199119567871e-02,-5.760218203067779541e-02,2.385158836841583252e-02,-2.318620681762695312e-05,-1.955317147076129913e-02,7.417425513267517090e-05,8.562897332012653351e-03,5.614012479782104492e-06,-5.233756452798843384e-02,-5.923495441675186157e-02,5.603615194559097290e-03,3.175253048539161682e-03,3.474238887429237366e-02,1.437813043594360352e-03,-5.693558976054191589e-02,1.271739602088928223e-03,6.506167352199554443e-03,1.964201591908931732e-02,5.925206840038299561e-02,3.099288791418075562e-02,-4.206810519099235535e-02,4.564209282398223877e-02,1.681570522487163544e-02,-1.263276636600494385e-01,3.756582736968994141e-05,-7.278241962194442749e-02,2.181693539023399353e-02,9.499974548816680908e-04,8.306480944156646729e-03,2.583499252796173096e-02,1.212602853775024414e-02,1.284283399581909180e-02,-1.170346960425376892e-01,6.553176790475845337e-03,5.066125467419624329e-02,2.622604370117187500e-05,-5.812978744506835938e-02,-9.649442881345748901e-02,-1.181690841913223267e-01,1.398488879203796387e-03,-1.807529106736183167e-02,5.721092969179153442e-02,-2.466976828873157501e-02,2.983991801738739014e-02,-4.849885404109954834e-02,6.954880058765411377e-02,-1.375882327556610107e-02,3.184630721807479858e-02,1.964725181460380554e-02,1.122802495956420898e-05,-2.171306498348712921e-02,3.285147249698638916e-02,2.757478132843971252e-02,-4.624978080391883850e-02,2.500989846885204315e-02,3.147317469120025635e-02,2.562424167990684509e-02,1.051649451255798340e-05,-6.453845649957656860e-02,-7.679146528244018555e-02,-1.065619289875030518e-05,5.879815667867660522e-02,-7.361403852701187134e-02,6.496658176183700562e-02,1.804048195481300354e-03,9.816139936447143555e-06,1.467745937407016754e-02,7.705111056566238403e-03,6.161630153656005859e-06,-4.335547983646392822e-02,2.735118195414543152e-02,-1.592536643147468567e-02,3.951916471123695374e-02,-2.452425286173820496e-02,3.867533057928085327e-03,5.241986364126205444e-03,1.429273188114166260e-02,5.566593259572982788e-02,3.519994392991065979e-02,1.345336437225341797e-03,4.057348892092704773e-02,-5.845803022384643555e-02,-1.692186295986175537e-02,2.671033143997192383e-06,1.703571528196334839e-03,1.201253011822700500e-02,5.807893723249435425e-02,1.613670773804187775e-02,6.987616419792175293e-03,-5.948404595255851746e-02,2.613291144371032715e-05,5.599397420883178711e-02,-6.819861382246017456e-02,-7.283063605427742004e-03,1.194035634398460388e-03,3.870503604412078857e-02,-5.240381136536598206e-02,7.069204747676849365e-02,6.827998906373977661e-03,4.332352057099342346e-02,5.492653697729110718e-03,5.056528374552726746e-03,-2.204934693872928619e-02,3.214180469512939453e-05,-6.990991532802581787e-04,-9.406358003616333008e-07,7.564359158277511597e-02,2.887774258852005005e-03,-4.273461923003196716e-02,-5.794300884008407593e-02,8.161328732967376709e-03,5.010193213820457458e-03,3.177672624588012695e-06,2.657295763492584229e-02,1.351170241832733154e-03,5.215082317590713501e-03,7.227543741464614868e-02,-7.136900722980499268e-02,-1.826282776892185211e-02,4.178957641124725342e-02,