4.084908217191696167e-02,9.946325793862342834e-03,9.294353425502777100e-03,4.727834835648536682e-03,2.959037758409976959e-02,3.027714788913726807e-02,-2.975814975798130035e-02,4.193701595067977905e-02,1.845323108136653900e-02,2.977477386593818665e-02,2.499747462570667267e-02,-1.136928796768188477e-03,1.291234046220779419e-03,-2.070391178131103516e-02,2.657091431319713593e-02,-7.463432848453521729e-05,3.357522189617156982e-03,3.534458950161933899e-02,2.224992215633392334e-02,-1.509175263345241547e-02,3.054301813244819641e-02,5.958806723356246948e-03,-1.014841161668300629e-02,-4.638459533452987671e-03,6.282500922679901123e-03,5.378169007599353790e-03,-2.478281781077384949e-02,-3.474937751889228821e-02,-1.294814329594373703e-02,2.902799844741821289e-02,-2.461165376007556915e-02,9.996211156249046326e-03,7.750314194709062576e-03,1.709073036909103394e-02,5.214726552367210388e-04,-4.084793478250503540e-02,5.872687324881553650e-03,1.688231527805328369e-02,1.522324793040752411e-02,9.289924055337905884e-03,2.921121194958686829e-04,-3.601016849279403687e-02,1.795547455549240112e-02,3.595887869596481323e-02,1.442445442080497742e-03,4.354169964790344238e-02,6.497028470039367676e-02,-3.221540525555610657e-02,-5.844333674758672714e-03,2.842669188976287842e-02,-1.032284647226333618e-02,-3.765013441443443298e-02,2.353540807962417603e-02,-6.803587079048156738e-03,1.140983402729034424e-02,-4.084547609090805054e-02,1.512316055595874786e-02,5.163142457604408264e-03,1.912172324955463409e-02,2.726484090089797974e-04,2.992083877325057983e-02,2.315204404294490814e-02,2.106688916683197021e-02,4.274427145719528198e-02,-3.789669834077358246e-03,-4.201719537377357483e-03,6.289934739470481873e-03,-9.784940630197525024e-03,4.113646224141120911e-02,-2.168208546936511993e-02,3.983988240361213684e-02,4.063632339239120483e-03,1.288161054253578186e-02,-3.713161684572696686e-03,2.491441369056701660e-02,2.359520643949508667e-03,2.911387011408805847e-02,-2.022089436650276184e-03,1.726390048861503601e-02,3.253442421555519104e-02,-5.676221102476119995e-03,-2.566267270594835281e-03,2.266334928572177887e-02,4.922800511121749878e-02,2.174737676978111267e-02,5.889673903584480286e-02,4.035654664039611816e-02,4.138330370187759399e-02,3.308730572462081909e-02,1.627003401517868042e-02,2.505230158567428589e-02,-5.471907556056976318e-03,4.581003449857234955e-03,-3.952629119157791138e-02,1.270148344337940216e-02,3.545781597495079041e-02,2.912612259387969971e-02,3.354601189494132996e-02,1.559816207736730576e-02,-6.338831037282943726e-03,1.681082881987094879e-02,3.211797028779983521e-02,3.688831627368927002e-02,3.170849010348320007e-02,2.287287078797817230e-02,6.013598758727312088e-04,-1.218797452747821808e-02,2.348825708031654358e-02,4.556132853031158447e-02,-1.908700540661811829e-02,4.218496382236480713e-02,3.325119987130165100e-02,-3.906249534338712692e-03,5.154731497168540955e-02,-2.357687801122665405e-02,3.687470778822898865e-02,-4.947530105710029602e-03,-2.099756151437759399e-03,-4.121089354157447815e-03,4.931394755840301514e-02,2.634476684033870697e-02,2.795194275677204132e-03,1.425145007669925690e-02,3.183611854910850525e-02,2.462036907672882080e-03,3.958113491535186768e-02,2.843429893255233765e-02,-3.778415545821189880e-02,-1.364986598491668701e-02,4.389680176973342896e-02,1.947101205587387085e-03,3.749845921993255615e-02,1.568151637911796570e-02,5.749608576297760010e-02,3.678897395730018616e-02,1.105799898505210876e-02,6.369754672050476074e-03,-1.865696161985397339e-03,2.310743741691112518e-02,1.023619249463081360e-02,3.297064080834388733e-02,-6.680253427475690842e-04,3.378705680370330811e-02,-3.317279368638992310e-02,3.900015354156494141e-02,-3.987881820648908615e-03,3.227824345231056213e-03,2.128362469375133514e-02,-2.838265383616089821e-03,-1.104724220931529999e-02,2.519565634429454803e-02,-2.331695519387722015e-03,1.890608295798301697e-02,6.175805814564228058e-03,4.313885048031806946e-02,5.843153223395347595e-03,-5.625755339860916138e-02,3.712106496095657349e-02,4.641061276197433472e-02,1.872487738728523254e-02,-3.423351049423217773e-02,4.953522235155105591e-02,5.120120942592620850e-03,2.340688556432723999e-02,4.716219380497932434e-02,-1.231782138347625732e-03,4.907725378870964050e-03,-2.742622047662734985e-03,1.815875805914402008e-02,-3.441631793975830078e-02,1.659915968775749207e-02,-5.955021362751722336e-03,-1.955333910882472992e-02,2.750328741967678070e-02,-2.579246275126934052e-02,3.046177327632904053e-02,2.564698457717895508e-03,-8.870065212249755859e-04,1.971275173127651215e-02,-2.764210104942321777e-02,1.296986266970634460e-02,-2.418793551623821259e-02,3.736313804984092712e-02,2.859572879970073700e-03,-5.032395943999290466e-03,3.862825408577919006e-02,4.558918066322803497e-03,-7.631084881722927094e-03,2.354043163359165192e-02,-2.823267132043838501e-03,-3.599556535482406616e-02,7.583016529679298401e-03,-1.362804509699344635e-02,-3.510077297687530518e-02,2.481522411108016968e-02,3.087224438786506653e-03,1.014388818293809891e-02,-1.178330276161432266e-03,-1.715743914246559143e-02,8.601197972893714905e-03,1.322019938379526138e-02,-3.129765391349792480e-04,-6.563907489180564880e-03,1.246390282176434994e-03,3.854856640100479126e-02,3.059820272028446198e-02,7.340521365404129028e-02,-3.856692463159561157e-02,-3.846434131264686584e-02,1.491193287074565887e-02,-2.809769473969936371e-02,7.232159376144409180e-03,-4.650368914008140564e-02,1.294075790792703629e-02,2.219107002019882202e-02,3.575362265110015869e-02,-5.652660876512527466e-02,4.517089575529098511e-02,-7.785726338624954224e-04,-2.558475360274314880e-03,2.725526690483093262e-02,-1.589296013116836548e-02,2.281412668526172638e-02,6.077478826045989990e-02,3.812293708324432373e-02,5.057430267333984375e-02,2.885659225285053253e-02,4.681058973073959351e-02,2.015208825469017029e-02,2.143990248441696167e-03,-1.259350590407848358e-02,1.483559608459472656e-04,5.135828629136085510e-03,-3.680995106697082520e-02,3.083184547722339630e-02,2.694206312298774719e-02,3.617057576775550842e-02,-1.810816116631031036e-03,2.716853655874729156e-02,-5.956785753369331360e-04,-4.689859226346015930e-03,8.871603757143020630e-03,7.199941202998161316e-03,1.191529631614685059e-02,2.090013958513736725e-02,1.088417600840330124e-02,2.741508372128009796e-02,-3.276623412966728210e-02,1.063302531838417053e-02,4.257307574152946472e-02,1.768869161605834961e-02,9.670108556747436523e-04,-4.656186327338218689e-03,-2.174542751163244247e-03,3.141098842024803162e-02,-4.658645018935203552e-03,1.873780414462089539e-02,1.909221708774566650e-02,-5.139656364917755127e-02,-4.817843437194824219e-03,-2.202754653990268707e-02,7.243881002068519592e-03,8.836183696985244751e-03,9.419573470950126648e-03,-2.830508165061473846e-03,-2.464257180690765381e-03,8.682927116751670837e-03,2.850137650966644287e-03,2.906485833227634430e-02,1.566975004971027374e-02,2.194830402731895447e-02,3.685793653130531311e-02,4.441572353243827820e-02,-1.299043558537960052e-02,2.535479143261909485e-03,9.953377768397331238e-03,9.174562990665435791e-03,-5.490344762802124023e-02,-3.449895419180393219e-03,4.866363480687141418e-02,-3.298179060220718384e-02,-3.171589598059654236e-02,6.404753774404525757e-03,1.869271509349346161e-03,4.275441542267799377e-02,1.614598557353019714e-02,-1.612097024917602539e-03,4.005001485347747803e-02,4.989508166909217834e-02,-3.762144595384597778e-02,2.884695865213871002e-02,1.732153259217739105e-02,-4.632215574383735657e-02,-2.153822965919971466e-02,-2.699124068021774292e-02,3.947347402572631836e-02,1.220247335731983185e-02,-1.063084602355957031e-02,4.538103938102722168e-03,-4.965809360146522522e-02,-1.541911624372005463e-02,1.644186116755008698e-02,1.399610005319118500e-02,1.174285449087619781e-02,2.138134464621543884e-02,4.670891910791397095e-03,3.064131736755371094e-02,2.269926667213439941e-02,4.108297452330589294e-02,2.893809415400028229e-02,5.271214991807937622e-03,7.918164134025573730e-03,2.180311828851699829e-02,-1.613787375390529633e-02,2.268579602241516113e-02,7.552372291684150696e-03,-5.099377781152725220e-02,3.486032783985137939e-02,8.106921799480915070e-03,2.202186733484268188e-03,8.704473264515399933e-03,3.762681037187576294e-02,5.363672971725463867e-05,-5.902888253331184387e-03,-3.905424103140830994e-02,-4.681063815951347351e-03,-8.281949907541275024e-03,3.007998876273632050e-02,2.267693541944026947e-02,6.798109039664268494e-03,4.321476444602012634e-03,2.546071261167526245e-02,6.098721176385879517e-03,3.057061322033405304e-02,-8.364641107618808746e-03,-1.160865835845470428e-02,3.689286485314369202e-02,1.667213067412376404e-02,5.554121360182762146e-02,4.050084948539733887e-02,1.402833964675664902e-02,-7.856111973524093628e-03,-8.220564574003219604e-03,2.356158569455146790e-03,9.717330336570739746e-03,-1.045804098248481750e-02,3.190980851650238037e-02,-3.438039869070053101e-02,1.901586912572383881e-02,-3.438040241599082947e-02,2.630867063999176025e-02,1.427215244621038437e-02,6.287099421024322510e-02,-2.769079990684986115e-02,-2.131938934326171875e-03,2.732379920780658722e-02,1.804404519498348236e-02,-3.934421017765998840e-02,4.292236268520355225e-02,-5.120416171848773956e-03,8.676505647599697113e-03,-1.088883727788925171e-04,2.500091493129730225e-02,1.837346330285072327e-02,8.538594469428062439e-03,3.686808049678802490e-02,3.631622716784477234e-02,2.141137048602104187e-02,-5.592180415987968445e-03,5.561977624893188477e-03,2.938280999660491943e-02,2.000888809561729431e-02,3.237856552004814148e-03,1.590781286358833313e-02,-3.492804244160652161e-03,-7.505653426051139832e-03,6.602073088288307190e-03,1.043663546442985535e-02,2.441691234707832336e-03,2.137955836951732635e-02,4.241291433572769165e-02,2.424476109445095062e-02,-1.475123688578605652e-02,6.088856607675552368e-03,4.049310088157653809e-02,4.258051514625549316e-02,2.362803742289543152e-02,5.777075886726379395e-03,2.803149819374084473e-02,3.771624341607093811e-02,6.967758759856224060e-03,6.539080291986465454e-03,-2.043476514518260956e-02,8.618808351457118988e-03,1.537009794265031815e-02,5.210307985544204712e-02,3.565283492207527161e-02,3.576764836907386780e-02,3.297122940421104431e-02,4.278380423784255981e-03,-2.493602223694324493e-03,-5.711331032216548920e-03,-4.124448448419570923e-02,4.320834949612617493e-02,2.672042697668075562e-03,-3.952203691005706787e-02,-1.072217524051666260e-02,-3.284177929162979126e-02,4.198412597179412842e-02,-9.294359013438224792e-03,-2.113902568817138672e-02,9.715111926198005676e-03,-5.609543994069099426e-03,3.896661102771759033e-02,-1.737648993730545044e-02,1.185944862663745880e-02,-3.501559048891067505e-02,2.381260506808757782e-02,-6.030600517988204956e-03,1.465299725532531738e-02,3.387968242168426514e-02,3.767431527376174927e-02,4.952691122889518738e-02,3.787183761596679688e-02,3.596244752407073975e-02,5.179242230951786041e-03,-1.196383871138095856e-02,2.422606013715267181e-02,-8.819945156574249268e-03,3.238986432552337646e-02,4.745743051171302795e-02,7.635034620761871338e-03,-2.154677547514438629e-02,2.222670242190361023e-02,2.092454209923744202e-02,4.739751294255256653e-02,-2.438271418213844299e-03,1.263682916760444641e-02,1.072461903095245361e-02,5.807739496231079102e-02,-2.785490825772285461e-03,-1.482366584241390228e-03,2.276238985359668732e-03,-3.450679779052734375e-02,-3.780975565314292908e-02,7.841194048523902893e-03,1.073243468999862671e-02,-5.620291456580162048e-03,-2.048164606094360352e-04,1.983659900724887848e-02,-4.260406829416751862e-03,-5.753731355071067810e-03,2.704952843487262726e-02,-6.800932809710502625e-03,-3.644116595387458801e-02,3.013527765870094299e-02,6.843494251370429993e-03,-1.901760697364807129e-04,-1.289363577961921692e-02,3.734418749809265137e-02,-3.655827604234218597e-03,8.902283385396003723e-03,1.182563789188861847e-02,3.395561501383781433e-02,2.170295082032680511e-02,3.495646268129348755e-02,-2.894393354654312134e-02,-1.047020591795444489e-02,1.374054327607154846e-02,-1.234497874975204468e-03,3.802846185863018036e-03,2.966553159058094025e-02,5.293262004852294922e-02,-3.309308318421244621e-03,2.057761140167713165e-02,1.621873117983341217e-02,1.241233199834823608e-02,3.503595292568206787e-02,-3.657211083918809891e-03,3.555861860513687134e-02,-4.036188870668411255e-02,4.331111162900924683e-02,-6.751338019967079163e-03,4.957985505461692810e-02,1.098857168108224869e-02,4.671550542116165161e-02,-3.214911743998527527e-02,2.631979435682296753e-02,6.641037762165069580e-04,1.874766126275062561e-02,3.494699485599994659e-03,4.116900265216827393e-03,1.214727386832237244e-02,1.606564596295356750e-02,2.898618951439857483e-02,3.557422012090682983e-02,1.292620133608579636e-02,-3.423275053501129150e-02,2.524764649569988251e-02,-1.289737876504659653e-03,2.681736275553703308e-02,2.761745825409889221e-02,1.950738579034805298e-02,5.527168512344360352e-03,4.551719874143600464e-02,3.567611053586006165e-02,8.748155087232589722e-03,-4.527981579303741455e-02,1.762887649238109589e-02,2.561213262379169464e-02,4.548317939043045044e-02,5.261883884668350220e-02,-4.169734194874763489e-03,4.397633299231529236e-02,-3.840904682874679565e-02,3.936652094125747681e-03,4.938756301999092102e-02,5.302758142352104187e-02,3.807452693581581116e-02,5.253698676824569702e-02,-2.006187289953231812e-02,-3.087780810892581940e-02,6.746368110179901123e-02,8.524700999259948730e-03,1.246404834091663361e-02,2.644217200577259064e-02,5.668262019753456116e-03,4.370193183422088623e-02,1.254586316645145416e-02,-3.083227667957544327e-03,-1.550760120153427124e-03,2.426623925566673279e-02,-6.142972968518733978e-03,1.608251780271530151e-02,2.313250303268432617e-02,-1.763403415679931641e-04,9.115321561694145203e-03,2.736972831189632416e-02,3.777946159243583679e-02,1.616584137082099915e-03,2.340183965861797333e-02,-1.645084470510482788e-03,2.296791970729827881e-02,1.924821175634860992e-02,-4.142351448535919189e-03,6.667532026767730713e-02,1.044235751032829285e-02,-2.004171535372734070e-02,-2.712975256145000458e-03,2.333847060799598694e-02,1.285905670374631882e-02,9.579188190400600433e-03,1.070721819996833801e-02,-4.779539071023464203e-03,5.513981729745864868e-02,-2.126134932041168213e-03,1.443172059953212738e-02,-3.108511678874492645e-03,2.911422401666641235e-02,-4.798742011189460754e-03,2.571819722652435303e-02,5.372975021600723267e-02,2.946919389069080353e-02,-5.403783172369003296e-02,2.978846430778503418e-02,2.858960255980491638e-02,4.863995313644409180e-02,5.343200638890266418e-02,-3.602663055062294006e-03,-2.990933600813150406e-03,-1.856950670480728149e-02,-8.680000901222229004e-04,2.962986007332801819e-03,5.571199208498001099e-02,-1.688551157712936401e-03,-2.788359764963388443e-03,1.020247861742973328e-02,5.854754149913787842e-02,2.474819868803024292e-02,3.785636276006698608e-02,-7.038938347250223160e-03,-2.970443107187747955e-03,5.928454920649528503e-02,-1.054343394935131073e-02,4.105966165661811829e-02,1.031475700438022614e-02,-3.372204303741455078e-02,1.574378646910190582e-02,-1.351603306829929352e-02,-1.444333605468273163e-02,2.827069349586963654e-02,-2.130453474819660187e-03,5.664525553584098816e-03,-9.269164875149726868e-04,-8.668765425682067871e-03,6.563011556863784790e-04,-3.290702402591705322e-02,2.078826539218425751e-02,1.875545829534530640e-03,3.436282277107238770e-03,3.261539619415998459e-03,1.543145254254341125e-02,3.256849944591522217e-03,1.077765785157680511e-02,-1.243518665432929993e-03,8.937865495681762695e-04,1.395303942263126373e-02,3.033959120512008667e-02,-1.124117523431777954e-03,-5.570160225033760071e-03,5.121452733874320984e-02,-3.402512520551681519e-04,2.817413024604320526e-02,1.490934845060110092e-02,2.956468611955642700e-02,-5.686914175748825073e-02,4.342171922326087952e-02,2.414577826857566833e-02,4.300543665885925293e-02,-6.477877497673034668e-03,2.314187027513980865e-02,1.095773652195930481e-03,1.632724702358245850e-02,-2.831369638442993164e-04,2.006434276700019836e-02,1.591369137167930603e-02,1.450814772397279739e-02,4.154699295759201050e-02,-1.116601005196571350e-02,7.439935579895973206e-03,-5.166184157133102417e-03,8.913534693419933319e-04,5.836602300405502319e-03,2.656413614749908447e-02,-6.193427368998527527e-03,3.975934162735939026e-02,2.394766919314861298e-02,4.086752980947494507e-02,2.778836339712142944e-02,1.905373483896255493e-02,5.332960933446884155e-02,7.799945771694183350e-03,2.566284127533435822e-02,3.906281292438507080e-02,9.604657068848609924e-03,-9.943148121237754822e-03,-5.629838909953832626e-03,1.731211552396416664e-03,3.761133924126625061e-02,6.233326625078916550e-03,1.247576437890529633e-02,-1.924832351505756378e-03,2.687721699476242065e-02,1.658160611987113953e-02,4.286038130521774292e-02,4.068626090884208679e-02,1.616684533655643463e-02,-3.061353228986263275e-02,2.207510545849800110e-02,1.086521893739700317e-03,2.735071629285812378e-02,-2.606409601867198944e-03,2.180524542927742004e-02,-2.706320583820343018e-02,3.267389908432960510e-02,-2.667906880378723145e-02,1.944285258650779724e-02,2.304658107459545135e-02,4.214245826005935669e-03,1.202697586268186569e-02,-2.517240121960639954e-03,-4.556812345981597900e-03,-2.265586331486701965e-02,1.085035353899002075e-01,9.046992659568786621e-02,5.314320325851440430e-02,-2.555444277822971344e-02,-7.730554789304733276e-04,-5.212565883994102478e-04,-4.154047928750514984e-03,3.232949972152709961e-02,5.762126296758651733e-03,3.380706161260604858e-02,1.051479950547218323e-02,-2.587278559803962708e-02,-4.362408444285392761e-02,1.609273254871368408e-02,1.870771124958992004e-02,2.881698496639728546e-02,4.089260846376419067e-02,2.552575618028640747e-02,9.330417960882186890e-04,2.849791198968887329e-02,1.022935286164283752e-02,4.933083802461624146e-02,-1.545846462249755859e-03,2.769109047949314117e-02,-1.860355213284492493e-02,1.845911890268325806e-02,3.256518393754959106e-02,2.600723877549171448e-02,1.247779093682765961e-02,2.322126179933547974e-02,1.036770176142454147e-02,4.551408067345619202e-02,4.944371059536933899e-03,-3.759275749325752258e-02,-3.988470137119293213e-02,5.267469212412834167e-03,1.119071617722511292e-02,4.647602140903472900e-02,2.563867345452308655e-02,-1.417073793709278107e-02,4.876213520765304565e-02,1.547524705529212952e-03,-4.205195233225822449e-03,1.966107636690139771e-03,1.967448741197586060e-02,3.118803352117538452e-02,8.455559611320495605e-03,-3.747396543622016907e-02,4.155072197318077087e-02,1.803759671747684479e-02,5.681749433279037476e-03,3.910836577415466309e-02,3.306431695818901062e-02,1.860182918608188629e-02,-1.020111143589019775e-02,2.759305387735366821e-02,4.277989640831947327e-02,4.081116989254951477e-03,-2.356357872486114502e-04,3.335341438651084900e-02,3.878921270370483398e-03,2.208784222602844238e-03,2.656662836670875549e-03,-4.037565551698207855e-03,-1.870425883680582047e-03,6.729483604431152344e-02,2.972850017249584198e-02,2.579849585890769958e-02,-3.784707933664321899e-02,2.976423129439353943e-02,5.156232044100761414e-03,1.267111860215663910e-02,-9.137600660324096680e-03,1.568693667650222778e-02,1.826160773634910583e-02,1.741100475192070007e-02,2.053499221801757812e-03,4.345036298036575317e-02,4.014913737773895264e-02,1.473081484436988831e-02,4.912503063678741455e-03,1.819878816604614258e-03,4.878152161836624146e-02,2.441681548953056335e-02,5.330562219023704529e-02,3.958649188280105591e-02,8.002305403351783752e-03,-7.571185007691383362e-03,-9.584154933691024780e-03,2.746628597378730774e-02,6.354071199893951416e-03,8.799951523542404175e-03,-6.605990231037139893e-03,-1.566128246486186981e-02,5.604573339223861694e-02,2.406860329210758209e-02,5.020383372902870178e-02,2.607106417417526245e-02,-4.224942624568939209e-02,-8.565904572606086731e-03,-2.562738209962844849e-02,1.145835220813751221e-02,2.871860750019550323e-02,1.268414407968521118e-02,-6.802484393119812012e-03,2.599456533789634705e-02,-4.055105615407228470e-03,7.073823362588882446e-04,-8.088514208793640137e-03,5.994737148284912109e-04,5.187956616282463074e-02,-3.260502219200134277e-02,3.238476580008864403e-03,1.159069500863552094e-02,9.921584278345108032e-04,3.209329023957252502e-02,-1.410642638802528381e-02,1.174490898847579956e-03,-8.252644911408424377e-04,2.141217514872550964e-02,-5.598952993750572205e-03,-4.994968324899673462e-02,4.034463316202163696e-02,2.963207289576530457e-02,8.600924164056777954e-03,-3.611454274505376816e-03,9.992739185690879822e-03,1.599599234759807587e-02,1.150026172399520874e-02,6.780862808227539062e-03,8.158881217241287231e-03,2.068940550088882446e-03,2.299247682094573975e-02,4.860132560133934021e-02,1.878951117396354675e-02,3.780428320169448853e-03,3.998905420303344727e-02,-3.689931705594062805e-02,-2.797635272145271301e-03,9.630538523197174072e-03,1.873303204774856567e-03,5.094201117753982544e-02,3.368714079260826111e-02,1.552924327552318573e-02,1.744413748383522034e-03,4.936227202415466309e-02,-2.178549766540527344e-03,4.287756234407424927e-02,-2.941592223942279816e-02,1.375154778361320496e-02,1.892735064029693604e-02,3.514377400279045105e-03,3.662183135747909546e-02,-5.504763685166835785e-03,9.485266171395778656e-03,5.256652086973190308e-02,4.399186000227928162e-03,1.101885549724102020e-02,4.385748505592346191e-02,1.529441960155963898e-02,3.408534452319145203e-02,-4.269307013601064682e-03,1.928336918354034424e-02,3.447572700679302216e-03,1.081369817256927490e-02,-1.083959732204675674e-02,-2.123092859983444214e-02,-1.753076724708080292e-02,3.966733813285827637e-03,6.878174841403961182e-03,3.210448101162910461e-02,-3.755187988281250000e-02,-2.668023575097322464e-03,1.114999316632747650e-02,-1.210064254701137543e-02,4.079136624932289124e-02,8.181301876902580261e-03,-7.061436772346496582e-04,3.637043759226799011e-02,2.494454756379127502e-02,2.277627401053905487e-02,6.156346574425697327e-02,-1.026495359838008881e-03,3.337669372558593750e-02,-1.185954548418521881e-03,-3.362131491303443909e-02,-1.442199759185314178e-02,8.517421782016754150e-03,5.431462079286575317e-02,3.820114210247993469e-02,3.504410386085510254e-02,1.187656261026859283e-02,1.087950728833675385e-02,1.711130142211914062e-03,4.250052571296691895e-02,3.188816830515861511e-03,6.751200184226036072e-03,1.356500759720802307e-02,4.434215277433395386e-02,1.046609599143266678e-02,1.225555781275033951e-02,2.683482319116592407e-02,2.655711211264133453e-02,1.857761479914188385e-02,-1.197282224893569946e-02,-9.894242510199546814e-03,2.988732978701591492e-02,1.984696835279464722e-02,4.393294453620910645e-03,1.100971177220344543e-02,4.311699420213699341e-03,2.959896810352802277e-03,1.064317859709262848e-02,3.456931188702583313e-02,3.257416933774948120e-02,5.189286544919013977e-02,-2.783632371574640274e-03,-2.284938655793666840e-02,-5.595155060291290283e-03,1.120480429381132126e-02,5.420675501227378845e-03,4.437607526779174805e-02,2.091147005558013916e-03,2.516460418701171875e-02,5.110355466604232788e-02,1.545196864753961563e-02,2.281459048390388489e-02,8.152807131409645081e-03,4.010168835520744324e-02,-5.400442983955144882e-03,7.306324318051338196e-03,1.089760102331638336e-02,4.664226248860359192e-02,-2.636482939124107361e-03,7.114320993423461914e-02,4.192122444510459900e-02,2.298905514180660248e-02,2.987015992403030396e-03,2.472637221217155457e-02,-6.176464259624481201e-03,2.747515216469764709e-02,6.123750470578670502e-03,9.059064090251922607e-03,1.615289784967899323e-02,-4.774726927280426025e-03,2.611623890697956085e-02,-3.144429065287113190e-03,6.090173497796058655e-03,1.196183264255523682e-03,1.916074380278587341e-02,2.802606858313083649e-02,3.128784894943237305e-02,4.070780053734779358e-02,1.287507824599742889e-03,4.604166001081466675e-02,7.215552031993865967e-03,2.789838425815105438e-02,-6.763922050595283508e-03,3.217939659953117371e-02,3.347746282815933228e-02,4.413482546806335449e-02,-2.088256180286407471e-03,8.074601180851459503e-03,3.495842590928077698e-02,2.442143484950065613e-02,2.966945059597492218e-03,-8.828802034258842468e-03,2.445518597960472107e-02,-2.308314666152000427e-03,-5.805967375636100769e-03,9.940402582287788391e-03,8.767606690526008606e-03,1.176466792821884155e-02,5.691197142004966736e-02,2.228568308055400848e-02,4.731500893831253052e-02,3.987801820039749146e-02,1.612700708210468292e-02,2.024445682764053345e-02,6.138767115771770477e-03,4.535876959562301636e-02,-8.360259234905242920e-03,6.811670027673244476e-03,2.504971995949745178e-02,2.129154093563556671e-02,-3.562461119145154953e-03,3.119362331926822662e-02,2.768108621239662170e-03,-8.925260975956916809e-03,2.716529555618762970e-02,5.668738856911659241e-03,1.286791265010833740e-02,3.446672111749649048e-02,8.359018713235855103e-03,3.542489558458328247e-02,2.317659556865692139e-02,-3.653476014733314514e-03,1.946864277124404907e-02,1.717066392302513123e-03,-8.590271696448326111e-03,3.775846213102340698e-03,-7.240664213895797729e-03,-9.535454213619232178e-03,3.126113489270210266e-02,-2.940239384770393372e-03,-2.463594079017639160e-03,9.017642587423324585e-03,-6.300248205661773682e-04,-3.592111170291900635e-03,6.110031157732009888e-03,2.582982741296291351e-02,5.448428913950920105e-02,-2.173564210534095764e-02,-1.257738657295703888e-02,2.521835081279277802e-02,6.721362471580505371e-03,-7.042661309242248535e-06,4.318801686167716980e-02,6.935933604836463928e-03,2.617637068033218384e-02,2.351027727127075195e-02,2.910392731428146362e-02,2.521670982241630554e-02,-3.753319382667541504e-03,6.984522193670272827e-02,-3.839187696576118469e-02,3.125379234552383423e-02
4.800488427281379700e-02,6.689827144145965576e-02,5.673298239707946777e-02,6.083099544048309326e-02,5.283906683325767517e-02,4.161503165960311890e-02,2.623937837779521942e-02,5.428246036171913147e-02,3.924762830138206482e-02,4.837644472718238831e-02,4.679654538631439209e-02,4.781948402523994446e-02,2.207515202462673187e-02,3.431462496519088745e-02,4.333423078060150146e-02,4.401341453194618225e-02,2.658275328576564789e-02,1.299210190773010254e-01,3.860332444310188293e-02,2.569269761443138123e-02,5.420222878456115723e-02,3.832908719778060913e-02,2.639178186655044556e-02,2.329452522099018097e-02,-2.815056778490543365e-02,1.355918403714895248e-02,1.059811562299728394e-02,2.994566410779953003e-02,2.306607924401760101e-02,4.789570346474647522e-02,8.802618831396102905e-03,1.607120595872402191e-02,1.508054602891206741e-02,4.031979292631149292e-02,1.692632585763931274e-02,2.403525635600090027e-02,3.284166380763053894e-02,2.533011138439178467e-02,1.605470478534698486e-02,5.898810923099517822e-02,8.068763650953769684e-03,3.193165734410285950e-02,4.547425732016563416e-02,5.001721903681755066e-02,1.355397142469882965e-02,5.707791820168495178e-02,5.602190643548965454e-02,1.618004590272903442e-02,6.337543018162250519e-04,5.940002202987670898e-02,1.336524821817874908e-02,1.465851813554763794e-02,4.974475502967834473e-02,2.840163558721542358e-02,3.405583277344703674e-02,3.251904994249343872e-02,5.303054302930831909e-02,6.980526261031627655e-03,4.528317600488662720e-02,2.113780938088893890e-02,4.692818596959114075e-02,4.670818895101547241e-02,4.760811477899551392e-02,5.675382912158966064e-02,4.410030320286750793e-03,3.849277645349502563e-02,3.040055558085441589e-02,3.808556497097015381e-02,4.996723309159278870e-02,1.979809999465942383e-02,6.099392101168632507e-02,3.552946075797080994e-02,2.155611105263233185e-02,4.245267715305089951e-03,1.038078516721725464e-01,3.437935560941696167e-02,1.191401481628417969e-01,3.224690258502960205e-02,4.108487069606781006e-02,5.154602974653244019e-02,2.818336524069309235e-02,3.313850611448287964e-04,2.135583385825157166e-02,8.503801375627517700e-02,3.092113696038722992e-02,6.166771426796913147e-02,5.867007374763488770e-02,4.300824552774429321e-02,5.002970993518829346e-02,5.882368981838226318e-02,4.031101241707801819e-02,4.084110260009765625e-02,1.922327652573585510e-02,3.830845281481742859e-02,7.213586568832397461e-02,4.460940882563591003e-02,3.655072674155235291e-02,4.952316731214523315e-02,3.739443793892860413e-02,4.432595521211624146e-02,3.287257254123687744e-02,4.676160961389541626e-02,5.153642594814300537e-02,5.740118026733398438e-02,1.719938591122627258e-02,-2.478027250617742538e-03,2.778200618922710419e-02,5.052922666072845459e-02,5.778802931308746338e-02,2.739440277218818665e-02,4.804692417383193970e-02,5.423607677221298218e-02,3.229035995900630951e-03,5.198638513684272766e-02,2.298543788492679596e-02,5.494173616170883179e-02,1.304066646844148636e-02,4.944094456732273102e-03,3.336868062615394592e-02,5.605996027588844299e-02,4.186686873435974121e-02,1.965018548071384430e-02,3.432630375027656555e-02,5.387521535158157349e-02,9.981562383472919464e-03,5.187049508094787598e-02,4.273638874292373657e-02,2.388972416520118713e-02,4.295833408832550049e-02,6.162334233522415161e-02,3.655716031789779663e-02,3.910799324512481689e-02,4.581163823604583740e-02,5.954766646027565002e-02,4.757006466388702393e-02,1.958702877163887024e-02,6.572098284959793091e-02,3.055645711719989777e-02,4.654034227132797241e-02,4.314514249563217163e-02,5.484738200902938843e-02,1.937753753736615181e-03,5.990327894687652588e-02,2.157675474882125854e-02,5.757479742169380188e-02,1.188790611922740936e-02,6.057589128613471985e-02,3.972148895263671875e-02,7.189051713794469833e-03,-9.686288982629776001e-02,4.102182388305664062e-02,7.204334251582622528e-04,4.310856014490127563e-02,1.362499780952930450e-02,5.432512611150741577e-02,2.701927721500396729e-02,3.041282482445240021e-02,5.047818273305892944e-02,4.847534745931625366e-02,5.203668773174285889e-02,3.543294221162796021e-02,5.209064483642578125e-02,7.585360854864120483e-02,5.284177511930465698e-02,5.144976824522018433e-02,-4.465610533952713013e-02,2.151343971490859985e-02,4.109804332256317139e-02,4.815272241830825806e-02,4.054306447505950928e-02,4.864493384957313538e-02,2.367455698549747467e-02,3.757072612643241882e-02,5.419426038861274719e-02,2.136468142271041870e-02,5.099695175886154175e-02,7.465036213397979736e-02,1.932403072714805603e-03,3.977968916296958923e-02,2.052565664052963257e-02,5.927062407135963440e-02,4.830235615372657776e-03,4.887710511684417725e-02,4.488646518439054489e-03,6.211699917912483215e-03,5.510989576578140259e-02,1.570079475641250610e-02,1.728686690330505371e-02,4.738236963748931885e-02,7.064052857458591461e-03,3.960699588060379028e-02,4.782829433679580688e-02,4.043396562337875366e-02,2.971714362502098083e-02,4.617409408092498779e-02,9.229572489857673645e-03,4.552543908357620239e-02,1.449102768674492836e-03,3.490732237696647644e-02,3.106622584164142609e-02,4.638992249965667725e-02,2.073251456022262573e-02,2.340016141533851624e-02,1.248575630597770214e-03,6.965842843055725098e-02,6.407079100608825684e-02,5.765671283006668091e-02,2.093696221709251404e-02,3.209011256694793701e-02,4.120826721191406250e-02,2.337689697742462158e-02,4.234728217124938965e-02,9.528251364827156067e-03,4.064888134598731995e-02,6.078105047345161438e-02,4.807971417903900146e-02,3.683449327945709229e-02,5.392939224839210510e-02,4.974525421857833862e-02,6.804782897233963013e-04,4.043314605951309204e-02,2.539309114217758179e-02,4.668488726019859314e-02,5.710175260901451111e-02,5.158417671918869019e-02,6.001160293817520142e-02,4.119742289185523987e-02,5.336911231279373169e-02,3.870214521884918213e-02,3.577447310090065002e-02,2.460482530295848846e-02,1.091745495796203613e-02,1.873853802680969238e-02,1.362248230725526810e-02,4.036036878824234009e-02,5.404355749487876892e-02,5.510248988866806030e-02,1.738283969461917877e-02,3.634775057435035706e-02,1.717364415526390076e-02,6.458038929849863052e-03,8.128768205642700195e-02,3.121175989508628845e-02,2.123650349676609039e-02,4.842193052172660828e-02,4.279768094420433044e-02,3.869727998971939087e-02,1.961488462984561920e-02,3.640481829643249512e-02,5.492398887872695923e-02,4.026469215750694275e-02,3.639999032020568848e-02,2.098590321838855743e-02,4.336195066571235657e-03,5.685945600271224976e-02,4.378661140799522400e-02,3.856087476015090942e-02,6.205938756465911865e-02,3.215705603361129761e-02,1.803840696811676025e-02,4.986702930182218552e-03,3.114036470651626587e-02,3.020710498094558716e-02,5.789992958307266235e-02,2.091915532946586609e-02,3.197686001658439636e-02,6.890901923179626465e-02,3.607203811407089233e-02,5.807569622993469238e-02,2.143733575940132141e-02,2.464822679758071899e-02,5.076666921377182007e-02,6.521380692720413208e-02,3.848782181739807129e-02,4.728621244430541992e-02,1.389160659164190292e-02,4.272902011871337891e-02,3.579420596361160278e-02,6.679350044578313828e-03,6.323658674955368042e-02,1.658286899328231812e-02,2.139589376747608185e-02,8.578933775424957275e-02,4.218514077365398407e-03,4.769856482744216919e-02,3.370744362473487854e-02,4.944476298987865448e-03,5.827710032463073730e-02,6.614720076322555542e-02,3.346991911530494690e-02,5.124372988939285278e-02,3.866142034530639648e-02,1.786945387721061707e-02,4.107584059238433838e-02,1.106984820216894150e-02,5.457875132560729980e-02,6.537377834320068359e-02,2.706464380025863647e-02,4.920296370983123779e-02,3.112359717488288879e-02,3.474000841379165649e-02,4.036920890212059021e-02,3.411138430237770081e-02,3.601111099123954773e-02,1.677987724542617798e-02,3.864292055368423462e-02,4.460804536938667297e-02,3.152679651975631714e-02,5.347482115030288696e-02,4.493923485279083252e-02,2.983783558011054993e-02,5.572314560413360596e-02,5.508607625961303711e-02,6.392842158675193787e-03,3.786958009004592896e-02,3.188819065690040588e-02,3.625784814357757568e-02,4.516710340976715088e-02,2.399732917547225952e-02,2.092947624623775482e-02,2.817728742957115173e-02,5.646337568759918213e-02,1.494666747748851776e-02,2.592871338129043579e-02,3.957719728350639343e-02,1.666203141212463379e-02,2.742560952901840210e-02,5.463572964072227478e-02,4.301838576793670654e-02,3.203452378511428833e-02,2.346532419323921204e-02,4.290287196636199951e-02,2.936366014182567596e-02,5.447084456682205200e-02,2.691654488444328308e-02,6.711987778544425964e-03,5.510624498128890991e-02,5.697396770119667053e-02,5.775181204080581665e-02,5.714578926563262939e-02,1.349211484193801880e-02,-5.468569695949554443e-02,3.820765763521194458e-02,2.771977148950099945e-02,4.794032871723175049e-02,2.834494411945343018e-02,5.691062286496162415e-02,2.802877500653266907e-02,3.529511019587516785e-02,2.608849853277206421e-02,5.828385800123214722e-02,1.514780055731534958e-02,5.847306177020072937e-02,2.343461662530899048e-02,6.046699360013008118e-03,1.533193886280059814e-02,2.611948177218437195e-02,1.063783466815948486e-02,4.478915035724639893e-02,2.447516471147537231e-02,2.477592229843139648e-02,1.783728972077369690e-02,4.931135103106498718e-02,3.960044682025909424e-02,2.767352014780044556e-02,4.662326723337173462e-02,4.229649528861045837e-02,1.380685716867446899e-02,1.783391088247299194e-02,3.603819385170936584e-02,1.164757162332534790e-01,5.387493222951889038e-02,5.228979885578155518e-02,6.198368966579437256e-02,5.081471987068653107e-03,2.633031271398067474e-02,5.478936433792114258e-02,4.934311658143997192e-02,2.785246074199676514e-02,1.531444024294614792e-02,5.781802907586097717e-02,6.242122501134872437e-02,3.508638590574264526e-02,1.993463560938835144e-02,4.953517764806747437e-02,4.956913739442825317e-02,5.954495444893836975e-02,6.566067039966583252e-02,4.319737479090690613e-02,4.922328144311904907e-02,2.541423402726650238e-02,4.488600045442581177e-02,2.844206988811492920e-02,2.305568009614944458e-02,3.097868338227272034e-02,5.769777670502662659e-02,3.973206132650375366e-02,5.432362854480743408e-02,5.519830435514450073e-02,3.165364637970924377e-02,3.748737741261720657e-03,2.274352125823497772e-03,1.973453536629676819e-02,6.127474829554557800e-02,6.370793282985687256e-02,2.306176722049713135e-02,4.468834400177001953e-02,3.840605542063713074e-02,5.125959217548370361e-02,2.233506739139556885e-02,1.541385892778635025e-02,2.398787997663021088e-02,2.318666130304336548e-02,4.714385792613029480e-02,2.501978911459445953e-02,5.570556595921516418e-02,3.495521843433380127e-02,4.151802137494087219e-02,7.944102399051189423e-04,1.674468256533145905e-02,4.853606224060058594e-02,4.834318906068801880e-02,5.958348512649536133e-02,5.192380771040916443e-02,4.479794949293136597e-02,1.454327348619699478e-02,2.412678301334381104e-02,1.218337379395961761e-02,2.017592079937458038e-02,3.927164897322654724e-02,5.829218029975891113e-02,4.140321165323257446e-02,7.171725854277610779e-03,6.068205460906028748e-02,3.810293227434158325e-02,5.323395878076553345e-02,4.647114872932434082e-02,3.087335452437400818e-02,3.088901191949844360e-02,6.185157597064971924e-02,4.818978905677795410e-02,8.917671628296375275e-03,1.845973171293735504e-02,3.386621922254562378e-02,1.134843751788139343e-02,4.701601341366767883e-02,1.713977009057998657e-02,2.212514542043209076e-02,2.853181399405002594e-02,2.237241901457309723e-02,1.994022727012634277e-02,1.805599406361579895e-02,4.974982514977455139e-02,1.954727247357368469e-02,2.632297202944755554e-02,4.827523231506347656e-02,1.398568786680698395e-02,5.119124799966812134e-02,1.489269454032182693e-02,4.804199934005737305e-02,1.512649469077587128e-03,5.612673237919807434e-02,2.772984653711318970e-02,5.042511224746704102e-02,3.955783694982528687e-02,1.244553625583648682e-01,1.824617758393287659e-02,2.727283723652362823e-02,4.406781122088432312e-02,-5.463242530822753906e-02,1.951474510133266449e-02,4.150116071105003357e-02,5.259132012724876404e-02,7.046825252473354340e-03,1.840640604496002197e-02,4.675235599279403687e-02,5.496116727590560913e-02,5.420272797346115112e-02,3.295717760920524597e-04,4.934921115636825562e-02,3.001410514116287231e-02,5.816540867090225220e-02,4.418164119124412537e-02,5.078097805380821228e-02,2.870618551969528198e-02,5.812637507915496826e-02,2.864026650786399841e-02,4.271086305379867554e-02,1.808146387338638306e-02,4.615341499447822571e-02,6.834966596215963364e-03,4.636600613594055176e-02,6.085793673992156982e-02,3.699979931116104126e-02,4.382895678281784058e-02,4.283854365348815918e-02,2.999284490942955017e-02,2.096377685666084290e-02,4.159576818346977234e-02,6.540958303958177567e-03,5.165903270244598389e-02,2.452958188951015472e-02,4.962762445211410522e-02,2.709429524838924408e-02,5.989560484886169434e-02,5.574811249971389771e-02,4.370222985744476318e-02,3.529370576143264771e-02,4.435769468545913696e-02,4.078317061066627502e-02,4.906827211380004883e-02,5.702968686819076538e-02,4.153062403202056885e-02,5.427274852991104126e-02,2.270417660474777222e-02,2.838286757469177246e-02,5.453758314251899719e-02,5.682256817817687988e-02,5.414096266031265259e-02,5.307030305266380310e-02,1.939335465431213379e-02,3.646444156765937805e-02,5.749231576919555664e-02,5.470814183354377747e-02,5.608371645212173462e-02,6.024536490440368652e-02,4.976461455225944519e-02,5.193162709474563599e-02,2.326078154146671295e-02,1.705065369606018066e-03,1.758060418069362640e-03,5.632773041725158691e-02,-8.949087932705879211e-04,2.913277223706245422e-02,1.528653036803007126e-02,3.086855821311473846e-02,5.854533240199089050e-02,3.982550650835037231e-02,4.520376026630401611e-02,1.957076601684093475e-02,3.886854648590087891e-02,3.061592578887939453e-02,5.174062401056289673e-02,2.158444188535213470e-02,2.430064138025045395e-03,5.963354557752609253e-02,9.186744689941406250e-02,4.159445688128471375e-02,-8.211442828178405762e-02,4.170773923397064209e-02,1.888973265886306763e-02,2.910587564110755920e-02,8.301535248756408691e-02,1.879143062978982925e-03,5.547640472650527954e-02,4.805908352136611938e-02,3.205081447958946228e-02,1.612936146557331085e-03,6.046376004815101624e-02,1.567988656461238861e-03,4.661539196968078613e-02,5.807732790708541870e-02,4.369005560874938965e-02,1.691210269927978516e-02,4.565156996250152588e-02,4.950803518295288086e-02,6.487535685300827026e-02,5.152600258588790894e-02,1.044924464076757431e-02,-2.596961334347724915e-03,1.734590157866477966e-02,1.834477111697196960e-02,1.035983022302389145e-02,6.229087710380554199e-02,4.334156960248947144e-02,1.812708564102649689e-02,3.040004149079322815e-02,5.898153036832809448e-02,5.350793525576591492e-02,4.440671578049659729e-02,1.174014620482921600e-02,6.230835802853107452e-03,5.468919873237609863e-02,2.875274233520030975e-02,5.780459195375442505e-02,5.109525471925735474e-02,1.651629433035850525e-02,1.659061200916767120e-02,2.151314355432987213e-02,2.415344677865505219e-02,4.301800578832626343e-02,6.013775710016489029e-03,1.877348124980926514e-02,6.462014745920896530e-03,3.079026006162166595e-02,4.726278781890869141e-02,2.154943719506263733e-02,4.195295274257659912e-02,3.229959681630134583e-02,3.596449270844459534e-02,2.338374033570289612e-02,6.768003106117248535e-02,3.701291978359222412e-02,2.739077433943748474e-02,1.929730176925659180e-02,4.703538492321968079e-02,2.681859955191612244e-02,4.051659256219863892e-02,5.997050553560256958e-02,2.090517058968544006e-02,5.842068046331405640e-02,-5.692404508590698242e-02,3.472803533077239990e-02,2.802019193768501282e-02,4.486469179391860962e-02,3.516937047243118286e-02,5.059715360403060913e-02,5.780805274844169617e-02,5.912047997117042542e-02,2.253140136599540710e-02,4.251226410269737244e-02,1.946604624390602112e-02,3.657256811857223511e-02,1.917175389826297760e-02,6.322889029979705811e-02,3.994395956397056580e-02,4.403426498174667358e-02,5.903239920735359192e-02,2.734828181564807892e-02,2.209361270070075989e-02,2.765137888491153717e-02,5.804194137454032898e-03,4.288515821099281311e-02,4.405193030834197998e-02,2.667270973324775696e-02,3.975812345743179321e-02,1.024454459547996521e-02,5.004809051752090454e-02,4.101853817701339722e-02,3.953539952635765076e-02,4.904337972402572632e-02,6.855286657810211182e-02,4.072858020663261414e-02,5.464542657136917114e-02,2.985035628080368042e-02,2.252600900828838348e-02,1.930723432451486588e-03,5.278143566101789474e-03,5.917526036500930786e-02,1.548824645578861237e-02,1.532804407179355621e-02,1.977479457855224609e-02,4.279884696006774902e-02,5.599676817655563354e-02,5.023993551731109619e-02,5.077889189124107361e-02,6.315456330776214600e-02,2.832367643713951111e-02,5.446546152234077454e-02,5.202010273933410645e-02,3.937786817550659180e-02,4.418227821588516235e-03,2.858964726328849792e-02,-3.627226455137133598e-03,4.865556955337524414e-02,8.197829127311706543e-03,5.412609875202178955e-02,5.354265123605728149e-02,4.939793050289154053e-02,1.544592250138521194e-02,2.538576722145080566e-02,2.748915925621986389e-02,5.104381963610649109e-02,7.074059545993804932e-02,6.450788676738739014e-02,5.966972187161445618e-02,2.648038603365421295e-02,1.388580072671175003e-02,5.456850863993167877e-03,1.656251959502696991e-02,4.142132401466369629e-02,4.750959947705268860e-02,4.457158595323562622e-02,3.337372094392776489e-02,2.463332191109657288e-02,1.108529791235923767e-02,9.736125171184539795e-02,5.197128653526306152e-02,5.067992210388183594e-02,5.630651116371154785e-02,4.174531251192092896e-02,5.343909189105033875e-02,4.463086649775505066e-02,4.376079142093658447e-02,6.079986691474914551e-02,2.811039611697196960e-02,3.905467689037322998e-02,2.874493226408958435e-02,1.783520355820655823e-02,5.218573287129402161e-02,4.258970916271209717e-02,5.801710486412048340e-02,2.796413563191890717e-02,1.764713786542415619e-02,5.052004754543304443e-02,5.093092471361160278e-02,2.194883115589618683e-02,2.293682843446731567e-02,6.344570219516754150e-02,4.201512038707733154e-02,5.623612180352210999e-02,4.894007742404937744e-02,1.689861714839935303e-02,5.435713380575180054e-02,2.289895340800285339e-02,2.248244918882846832e-02,5.786393582820892334e-02,3.712914884090423584e-02,5.109308660030364990e-02,7.841540873050689697e-02,2.546797133982181549e-02,4.961333423852920532e-02,2.548895031213760376e-02,3.816359862685203552e-02,5.660390853881835938e-02,4.340873286128044128e-02,5.247106403112411499e-02,8.246166631579399109e-03,5.175914987921714783e-02,5.216421559453010559e-02,3.484466671943664551e-02,1.082845032215118408e-02,4.176667705178260803e-02,1.030372735112905502e-02,2.160463295876979828e-02,1.642740331590175629e-02,1.917107589542865753e-02,2.110991394147276878e-03,6.274611502885818481e-02,4.306256026029586792e-02,4.945208132266998291e-02,3.003934770822525024e-02,4.412991181015968323e-02,5.762141570448875427e-02,3.176554292440414429e-02,2.468137629330158234e-02,6.763658672571182251e-02,4.983482509851455688e-02,4.841462150216102600e-02,2.096635662019252777e-02,5.226345732808113098e-02,5.538304895162582397e-02,3.242312371730804443e-02,4.006453603506088257e-02,4.331825673580169678e-02,5.516635626554489136e-02,4.392336681485176086e-02,5.588123202323913574e-02,5.289502814412117004e-02,6.050289049744606018e-02,2.061048895120620728e-02,2.437776327133178711e-02,5.082464590668678284e-02,3.219219297170639038e-02,2.368901483714580536e-02,1.667565479874610901e-02,3.621423989534378052e-02,5.377737432718276978e-02,5.061247944831848145e-02,5.309554934501647949e-02,3.830119967460632324e-02,1.765326783061027527e-02,2.123370207846164703e-02,1.769710518419742584e-02,2.872703596949577332e-02,4.467221349477767944e-02,1.652336306869983673e-02,4.268406331539154053e-02,5.452162027359008789e-02,8.734785951673984528e-03,1.496168039739131927e-02,2.465976774692535400e-02,4.904731363058090210e-02,6.740230321884155273e-02,3.071574494242668152e-02,7.071391679346561432e-03,5.377923697233200073e-02,4.461181163787841797e-02,4.396004602313041687e-02,2.261319942772388458e-02,1.991051994264125824e-02,1.503488700836896896e-02,4.231012612581253052e-02,3.016434609889984131e-02,3.227975964546203613e-02,5.301817506551742554e-02,3.883519396185874939e-02,3.460909053683280945e-02,1.392307225614786148e-02,2.609484642744064331e-02,6.268349289894104004e-02,4.620623588562011719e-02,3.101934120059013367e-02,4.420108720660209656e-02,5.156575888395309448e-02,4.621616005897521973e-02,5.215890333056449890e-02,2.998863533139228821e-02,2.457075193524360657e-02,4.588050395250320435e-02,1.070365309715270996e-02,3.216944634914398193e-03,9.475219249725341797e-02,2.645089663565158844e-02,5.516623705625534058e-02,4.217939451336860657e-02,3.495478630065917969e-02,5.520828813314437866e-02,5.353502929210662842e-02,5.798356235027313232e-02,5.122755840420722961e-02,2.752814069390296936e-02,5.877509713172912598e-02,3.730005398392677307e-02,3.028263151645660400e-02,5.311211571097373962e-02,-5.724623799324035645e-02,1.477756537497043610e-02,6.690354645252227783e-02,1.288081891834735870e-02,4.523407295346260071e-02,5.970063805580139160e-02,5.768848955631256104e-02,4.928129911422729492e-02,1.085738767869770527e-03,4.223829135298728943e-02,2.276598475873470306e-02,6.765606254339218140e-02,2.004776895046234131e-02,2.185261808335781097e-02,3.451795876026153564e-02,1.558743696659803391e-02,7.827636599540710449e-02,5.197618156671524048e-02,1.193806342780590057e-02,1.315519679337739944e-03,2.617750689387321472e-02,2.711049094796180725e-02,6.248557567596435547e-02,5.673847347497940063e-02,3.352973237633705139e-02,5.102737620472908020e-02,1.738682761788368225e-02,4.733961820602416992e-02,5.605076253414154053e-02,2.180503681302070618e-03,5.273214727640151978e-02,6.971023976802825928e-04,2.665680274367332458e-02,3.667710721492767334e-02,1.591067016124725342e-02,6.461188942193984985e-02,5.656329914927482605e-02,4.864904284477233887e-02,1.520328037440776825e-02,3.696724027395248413e-02,3.374506160616874695e-02,4.894657433032989502e-02,4.542424529790878296e-02,2.732848003506660461e-02,4.547727108001708984e-02,6.203772500157356262e-02,4.400466382503509521e-02,2.880978956818580627e-02,5.300879850983619690e-02,4.566147923469543457e-02,1.227331999689340591e-02,3.752356022596359253e-02,2.741307020187377930e-02,4.158806800842285156e-02,4.110241308808326721e-02,6.084774062037467957e-02,4.367904365062713623e-02,3.308030962944030762e-02,1.888131722807884216e-02,1.660086400806903839e-02,4.273726791143417358e-02,5.769964307546615601e-02,5.338613688945770264e-02,1.188980415463447571e-03,2.105784043669700623e-02,8.812057785689830780e-04,1.193842198699712753e-02,1.168416440486907959e-02,4.704005643725395203e-02,9.429177269339561462e-03,4.237315058708190918e-02,5.096582695841789246e-02,4.820132255554199219e-02,1.010098755359649658e-01,3.053517080843448639e-02,8.112046867609024048e-02,1.241437532007694244e-02,3.038186952471733093e-02,1.638448238372802734e-02,5.434909462928771973e-02,4.517582058906555176e-02,5.922158062458038330e-02,5.460562929511070251e-02,4.897984862327575684e-02,5.147015303373336792e-02,4.466693848371505737e-02,3.883110359311103821e-02,3.665630146861076355e-02,2.034609019756317139e-02,6.683020293712615967e-02,1.900117099285125732e-02,2.848794497549533844e-02,4.730942100286483765e-02,4.212492145597934723e-03,5.510476231575012207e-02,1.885037869215011597e-02,4.413894563913345337e-02,3.752303123474121094e-02,4.996591061353683472e-02,5.801679193973541260e-02,1.924794353544712067e-02,5.441428720951080322e-02,4.236739128828048706e-02,4.008676484227180481e-02,1.786357536911964417e-02,4.114010557532310486e-02,2.850170060992240906e-02,6.171911582350730896e-02,4.418826475739479065e-02,1.431004237383604050e-02,5.138504505157470703e-02,5.724279955029487610e-02,4.700066521763801575e-03,3.832456842064857483e-02,4.407992959022521973e-02,2.289973199367523193e-03,2.409391291439533234e-02,2.471870556473731995e-02,2.977448888123035431e-02,5.581886321306228638e-02,5.509790778160095215e-02,1.350540481507778168e-02,6.474892795085906982e-02,5.473947525024414062e-02,4.709753394126892090e-02,5.523514002561569214e-02,2.277493663132190704e-02,4.856298863887786865e-02,4.191700741648674011e-02,1.891782879829406738e-02,4.710439592599868774e-02,3.416019678115844727e-02,1.764446496963500977e-04,5.796317383646965027e-02,5.690056085586547852e-02,2.594465017318725586e-02,4.985552281141281128e-02,2.967717126011848450e-02,4.583328217267990112e-02,5.119999870657920837e-02,8.764477074146270752e-02,5.363742262125015259e-02,4.546186327934265137e-02,-2.801455557346343994e-04,4.166371375322341919e-02,2.375683933496475220e-02,2.092903293669223785e-02,3.537402674555778503e-02,2.581447362899780273e-02,2.484179474413394928e-02,3.739588707685470581e-02,4.447221010923385620e-02,4.412700980901718140e-02,4.144319519400596619e-02,4.877436161041259766e-02,2.056654170155525208e-02,2.781270071864128113e-02,4.013570025563240051e-02,5.530573427677154541e-02,2.456691302359104156e-02,2.880601584911346436e-02,4.021704941987991333e-02,1.322135329246520996e-02,2.328542992472648621e-02,6.347911059856414795e-02,2.534405142068862915e-02,4.526000469923019409e-02,4.346394538879394531e-02,4.843251779675483704e-02,4.168156161904335022e-02,2.594105526804924011e-02,5.910538882017135620e-02,1.590157672762870789e-02,4.372946918010711670e-02
2.620735950767993927e-02,3.842500969767570496e-02,2.979602478444576263e-02,3.574410825967788696e-02,1.674811169505119324e-02,5.816740915179252625e-03,3.574787080287933350e-02,6.854381412267684937e-03,3.562396392226219177e-02,4.807040467858314514e-02,2.314308658242225647e-02,3.318836167454719543e-02,-2.256739884614944458e-02,4.551344364881515503e-02,8.133029565215110779e-03,2.276376076042652130e-02,4.113442823290824890e-02,6.390082836151123047e-02,1.575896516442298889e-02,4.827443510293960571e-02,1.621593907475471497e-02,5.323559045791625977e-02,3.273148834705352783e-02,4.689272493124008179e-03,4.759956151247024536e-02,1.193880569189786911e-02,1.403037458658218384e-03,4.029719904065132141e-02,1.338426955044269562e-03,1.156308315694332123e-02,-3.827535314485430717e-03,7.476419676095247269e-03,1.407140213996171951e-02,3.838079422712326050e-02,8.984861895442008972e-03,2.166434563696384430e-02,4.041203111410140991e-02,1.072325184941291809e-02,2.709017135202884674e-03,3.310730680823326111e-02,6.514149252325296402e-03,5.839103087782859802e-02,1.302060019224882126e-02,2.657274529337882996e-02,3.068216517567634583e-02,6.092675030231475830e-03,3.542798012495040894e-02,-1.264314167201519012e-02,-4.159370902925729752e-03,3.768505901098251343e-02,2.659052610397338867e-03,-9.460378438234329224e-03,2.416090294718742371e-02,1.073964405804872513e-02,5.339089035987854004e-02,5.198111385107040405e-02,2.657479047775268555e-02,-3.748372569680213928e-02,1.329945772886276245e-02,2.824898809194564819e-02,1.005796901881694794e-02,1.486854534596204758e-02,1.983399316668510437e-02,8.941283449530601501e-03,-2.308769710361957550e-02,2.482816576957702637e-02,3.047073818743228912e-02,2.785009518265724182e-02,2.659930661320686340e-02,-1.425330899655818939e-02,1.354012638330459595e-02,4.209799692034721375e-02,1.550864242017269135e-02,5.417397245764732361e-03,4.966539889574050903e-02,4.636445641517639160e-02,6.150040030479431152e-02,-5.416749045252799988e-02,1.660958118736743927e-02,2.853354811668395996e-02,1.018836162984371185e-02,-2.295340597629547119e-02,7.138721644878387451e-03,9.943518787622451782e-02,1.915050670504570007e-03,4.759283736348152161e-02,1.243981905281543732e-02,2.688398212194442749e-02,1.004950702190399170e-02,2.963748387992382050e-02,1.896034181118011475e-02,2.714733965694904327e-02,2.252630330622196198e-02,5.598345398902893066e-02,3.477710485458374023e-02,1.430389471352100372e-02,1.722109504044055939e-02,1.084741204977035522e-02,4.093974828720092773e-02,3.363988548517227173e-02,3.655902110040187836e-03,3.889765590429306030e-03,2.972879074513912201e-02,1.789541170001029968e-02,3.334045410156250000e-03,-2.758998051285743713e-02,5.312775820493698120e-02,2.078979462385177612e-02,3.988746553659439087e-02,3.610850125551223755e-02,2.223712578415870667e-02,1.495869271457195282e-02,-1.999814808368682861e-02,2.921067550778388977e-02,9.506801143288612366e-03,1.190927438437938690e-02,-2.197366580367088318e-02,6.934848614037036896e-03,3.848153352737426758e-02,2.601671963930130005e-02,7.209606468677520752e-03,7.174270227551460266e-03,5.448705330491065979e-02,1.393154636025428772e-02,7.628060411661863327e-03,4.020390287041664124e-02,6.627272814512252808e-03,1.109824050217866898e-02,4.844695329666137695e-02,8.054384961724281311e-03,5.051385611295700073e-02,2.311452850699424744e-02,1.561386603862047195e-02,3.580715507268905640e-02,7.633930072188377380e-03,1.486179046332836151e-02,4.250559210777282715e-02,3.221039101481437683e-02,5.730690062046051025e-02,6.170879304409027100e-02,5.492689460515975952e-02,-2.872004732489585876e-02,2.247855067253112793e-02,8.091120980679988861e-03,6.775399670004844666e-03,-3.929990157485008240e-02,3.858179599046707153e-02,1.759909279644489288e-02,-1.455898489803075790e-02,8.161296695470809937e-02,3.304720669984817505e-02,3.343231044709682465e-03,2.278402820229530334e-02,1.173289399594068527e-02,8.650531992316246033e-03,4.520747438073158264e-02,4.800647497177124023e-02,5.974801257252693176e-03,3.425377234816551208e-02,2.891699783504009247e-02,4.525482282042503357e-02,2.312154136598110199e-02,4.900231212377548218e-02,3.135274350643157959e-02,1.961594633758068085e-02,4.312758147716522217e-02,3.970798105001449585e-02,2.283003740012645721e-02,1.790133118629455566e-02,5.543907731771469116e-02,6.426471471786499023e-02,-4.521638527512550354e-02,4.550736397504806519e-02,1.816932857036590576e-02,2.347921766340732574e-02,2.693483605980873108e-02,5.457209050655364990e-02,7.237618323415517807e-03,4.942890256643295288e-02,-1.307482086122035980e-02,2.927810512483119965e-02,-6.027538329362869263e-03,8.695267140865325928e-03,-3.138269856572151184e-02,1.593283563852310181e-02,1.167731732130050659e-02,1.412275154143571854e-02,1.000085845589637756e-02,5.812927708029747009e-02,8.478210307657718658e-03,5.278438702225685120e-02,2.582239918410778046e-02,2.978311479091644287e-02,3.092313930392265320e-02,3.787182271480560303e-02,2.140418440103530884e-02,1.802067831158638000e-02,-1.868840306997299194e-03,2.937443181872367859e-02,3.478262200951576233e-02,1.873806118965148926e-02,2.931714802980422974e-02,3.107269480824470520e-02,-2.859947271645069122e-02,7.735984027385711670e-02,2.674057707190513611e-02,5.144517123699188232e-02,1.020705327391624451e-03,4.582793638110160828e-02,1.308481860905885696e-02,1.380843948572874069e-02,5.743376910686492920e-02,-1.196105498820543289e-02,1.428857445716857910e-02,3.042150847613811493e-02,1.881489157676696777e-02,5.739238858222961426e-02,1.528418995440006256e-02,3.179498016834259033e-02,5.239180289208889008e-03,2.376035414636135101e-02,-2.106240950524806976e-03,1.675385609269142151e-02,3.069655410945415497e-02,8.400097489356994629e-03,1.421348378062248230e-02,2.196795865893363953e-02,1.593909226357936859e-02,3.675080090761184692e-02,4.481126368045806885e-02,4.177439212799072266e-02,2.702461183071136475e-02,4.122320935130119324e-02,-6.680655293166637421e-03,2.355902083218097687e-02,2.360423095524311066e-02,1.355221495032310486e-02,9.787815622985363007e-03,1.409875974059104919e-02,8.253265172243118286e-03,1.160044781863689423e-02,4.687734693288803101e-02,3.686910867691040039e-02,4.010495543479919434e-02,1.401794888079166412e-02,1.584211550652980804e-02,2.088910713791847229e-02,1.534654758870601654e-03,5.582161247730255127e-02,8.712617680430412292e-03,5.787230655550956726e-02,5.174754559993743896e-02,2.349959500133991241e-02,4.312265664339065552e-03,1.658091880381107330e-02,2.832420356571674347e-02,2.998220920562744141e-02,3.088146448135375977e-02,5.458906292915344238e-02,2.475241757929325104e-02,2.363711595535278320e-02,3.696597367525100708e-02,3.681468218564987183e-02,3.322175145149230957e-02,7.847692817449569702e-03,3.581906110048294067e-02,3.997877612709999084e-02,5.034342408180236816e-02,3.889190405607223511e-02,3.647479042410850525e-02,4.927355796098709106e-03,7.808785885572433472e-03,2.764124795794487000e-02,3.096814081072807312e-02,2.164491079747676849e-02,2.023842558264732361e-02,6.060580909252166748e-02,5.662801116704940796e-02,9.034363552927970886e-03,-4.800353199243545532e-03,3.321485128253698349e-03,1.020597200840711594e-02,5.609903484582901001e-02,-4.341897554695606232e-03,2.143013104796409607e-02,3.167245164513587952e-02,3.027308732271194458e-03,1.284392736852169037e-02,-4.515293985605239868e-03,5.139805376529693604e-02,1.649231463670730591e-02,4.160933941602706909e-02,1.804722845554351807e-02,3.884607553482055664e-02,-2.248073183000087738e-02,1.148275844752788544e-02,3.497463464736938477e-02,4.358534514904022217e-02,2.494963258504867554e-02,4.318393766880035400e-02,3.329737111926078796e-02,1.358465012162923813e-02,2.719439938664436340e-02,1.407552231103181839e-02,2.415399998426437378e-03,5.235467478632926941e-02,3.508232906460762024e-02,8.675046265125274658e-04,6.795734167098999023e-03,8.678346872329711914e-03,4.185231029987335205e-02,3.219827264547348022e-02,2.678014524281024933e-02,2.768034581094980240e-03,2.160256914794445038e-02,3.820550814270973206e-02,6.096349656581878662e-02,1.902428083121776581e-02,2.501195296645164490e-02,7.220616564154624939e-03,2.999228611588478088e-02,1.508309878408908844e-02,-3.191472962498664856e-02,9.224331006407737732e-03,6.865856051445007324e-02,-4.090984165668487549e-02,1.678313873708248138e-02,1.634946651756763458e-02,9.076360613107681274e-03,3.843101486563682556e-02,1.414443552494049072e-02,3.356944024562835693e-02,4.066231846809387207e-02,1.650089398026466370e-02,4.859701730310916901e-03,5.508977919816970825e-04,1.265944540500640869e-02,2.881608717143535614e-02,1.679888740181922913e-02,1.023239456117153168e-02,4.472467117011547089e-03,4.744272679090499878e-02,4.875047132372856140e-02,4.297299683094024658e-02,1.940969005227088928e-02,4.434446990489959717e-02,1.625376753509044647e-02,1.661322638392448425e-02,4.923065379261970520e-02,1.776300743222236633e-02,2.553591504693031311e-02,6.963165476918220520e-03,3.820194303989410400e-02,2.630126290023326874e-02,8.664947934448719025e-03,-2.780362963676452637e-03,7.395338267087936401e-03,-9.806369431316852570e-03,1.620218902826309204e-02,9.270651265978813171e-03,2.646566554903984070e-02,2.871604636311531067e-02,1.578992232680320740e-02,5.679193511605262756e-02,5.112171173095703125e-03,4.081267863512039185e-03,1.993873342871665955e-02,3.472343087196350098e-05,2.629680559039115906e-02,4.791870340704917908e-02,5.480563268065452576e-02,2.536807954311370850e-02,3.124739229679107666e-02,3.173018246889114380e-02,1.657365076243877411e-02,9.271565824747085571e-03,2.773824706673622131e-02,1.802878454327583313e-02,3.036912903189659119e-02,4.381227307021617889e-03,1.535503007471561432e-02,2.877654135227203369e-02,2.992630191147327423e-02,4.543877020478248596e-02,1.752969622611999512e-02,1.305026561021804810e-02,3.028648346662521362e-02,4.264690354466438293e-02,3.204242885112762451e-02,1.968783140182495117e-02,2.810734324157238007e-02,6.550929695367813110e-02,4.590569436550140381e-02,1.923022791743278503e-02,3.358659334480762482e-03,1.782661303877830505e-02,2.531850524246692657e-02,1.233749091625213623e-02,1.645698212087154388e-02,3.728476166725158691e-02,5.739423446357250214e-03,9.867464192211627960e-03,-1.705721765756607056e-02,4.797646775841712952e-03,4.402525350451469421e-02,2.136066183447837830e-02,5.743534862995147705e-02,4.905794188380241394e-02,5.561271682381629944e-03,1.708075404167175293e-02,1.331556309014558792e-02,2.672010473906993866e-02,2.632768452167510986e-02,2.792318910360336304e-02,3.316072374582290649e-02,2.651726827025413513e-02,4.629120975732803345e-02,1.715555042028427124e-02,8.223011158406734467e-03,5.523913539946079254e-03,9.435188025236129761e-03,1.170176453888416290e-02,4.443806409835815430e-02,3.877758234739303589e-02,4.866302013397216797e-03,1.301262155175209045e-02,4.438072815537452698e-02,8.971299976110458374e-04,3.862984478473663330e-02,4.532361403107643127e-03,6.274608895182609558e-03,1.883456856012344360e-02,-1.788620371371507645e-03,6.687906384468078613e-02,2.082406356930732727e-02,6.286215037107467651e-03,2.768597751855850220e-02,5.991671234369277954e-03,3.769458457827568054e-02,5.209980159997940063e-02,3.648888692259788513e-02,9.624592028558254242e-03,1.094332709908485413e-02,5.229058861732482910e-02,-1.265913899987936020e-02,2.050032094120979309e-02,1.029396895319223404e-02,-4.344838112592697144e-02,6.135283783078193665e-02,1.112754642963409424e-02,7.248856127262115479e-04,8.144306950271129608e-03,1.595439389348030090e-02,3.668873384594917297e-02,1.586112752556800842e-02,1.040620170533657074e-02,1.190117467194795609e-02,3.826459124684333801e-02,2.181996405124664307e-02,5.738306790590286255e-03,9.690958075225353241e-03,2.780513279139995575e-02,2.732113935053348541e-03,1.238313782960176468e-02,5.260987207293510437e-02,5.646481364965438843e-02,-1.165636628866195679e-02,3.629398718476295471e-02,5.936713516712188721e-02,4.941381514072418213e-02,1.097423024475574493e-02,1.667262613773345947e-02,2.742260694503784180e-02,-1.410758215934038162e-02,6.401545368134975433e-03,1.664506457746028900e-02,2.681609615683555603e-02,1.265341416001319885e-02,-1.384890638291835785e-03,6.880121305584907532e-03,4.264146089553833008e-02,1.107558794319629669e-02,3.322761878371238708e-02,3.293246403336524963e-02,2.661601640284061432e-02,1.417187228798866272e-02,3.759821504354476929e-02,1.708048209547996521e-02,2.623150311410427094e-02,1.294233836233615875e-02,-1.896607689559459686e-03,1.944789662957191467e-02,3.474399447441101074e-02,3.074145875871181488e-02,7.264086976647377014e-03,2.397511526942253113e-02,3.988489508628845215e-03,5.952110979706048965e-03,8.494004607200622559e-03,3.580791875720024109e-03,1.628579199314117432e-02,3.464622050523757935e-02,2.052406035363674164e-02,4.548675939440727234e-02,9.541435167193412781e-03,1.341027021408081055e-02,5.911602824926376343e-02,4.931545630097389221e-02,1.318405009806156158e-02,2.852926775813102722e-02,2.365075796842575073e-02,4.295821860432624817e-02,2.729347534477710724e-02,4.728621616959571838e-02,9.130159392952919006e-03,4.614020884037017822e-02,2.182611450552940369e-02,1.546984910964965820e-02,1.045911572873592377e-02,3.427582979202270508e-02,3.170882584527134895e-03,5.817216262221336365e-02,4.065819829702377319e-02,2.743448503315448761e-02,2.784581668674945831e-02,2.633298002183437347e-02,2.205561101436614990e-02,4.911927506327629089e-03,1.752569712698459625e-02,-1.766441762447357178e-02,7.544202730059623718e-03,2.466563694179058075e-02,5.302003584802150726e-03,2.303114160895347595e-03,-4.762113094329833984e-04,4.589324444532394409e-02,3.143700212240219116e-02,1.651779748499393463e-02,2.779931761324405670e-02,1.519567333161830902e-02,7.795194163918495178e-03,6.074610352516174316e-02,1.967699453234672546e-02,9.323289617896080017e-03,8.443601429462432861e-03,3.546580672264099121e-02,5.332664772868156433e-02,5.643514171242713928e-02,6.560309976339340210e-02,8.374247699975967407e-03,1.171594392508268356e-02,1.259392313659191132e-02,4.418890550732612610e-02,9.102609939873218536e-03,4.079205542802810669e-02,3.063460253179073334e-02,2.781546302139759064e-02,5.301981233060359955e-03,2.735546976327896118e-02,-2.466473262757062912e-03,5.343113094568252563e-02,1.644348911941051483e-02,1.900405995547771454e-02,9.286186657845973969e-03,8.434766903519630432e-03,4.848735779523849487e-02,7.533244788646697998e-04,2.858240902423858643e-02,1.324532832950353622e-02,-1.623366214334964752e-02,3.929391503334045410e-02,1.119084283709526062e-02,2.584912814199924469e-02,2.139584906399250031e-02,2.570894360542297363e-02,-4.408529400825500488e-02,5.217514187097549438e-02,3.278245031833648682e-02,1.882015354931354523e-02,2.975413203239440918e-02,1.807345077395439148e-03,9.345093742012977600e-03,2.879084646701812744e-02,4.770408570766448975e-02,5.911637097597122192e-03,2.533943206071853638e-02,-3.810371737927198410e-03,6.880929693579673767e-03,4.048358276486396790e-02,3.425005823373794556e-02,6.887294352054595947e-03,3.919170703738927841e-03,4.073064401745796204e-02,5.912684835493564606e-03,3.934128582477569580e-02,2.681337855756282806e-02,9.883891791105270386e-03,1.064991671591997147e-02,4.351167753338813782e-02,4.719446599483489990e-02,-2.791417576372623444e-02,3.454307466745376587e-02,4.885300993919372559e-02,4.544934257864952087e-03,1.916522346436977386e-02,4.708205908536911011e-02,4.291521012783050537e-02,1.587666943669319153e-02,4.178381711244583130e-02,1.510147284716367722e-02,1.908505335450172424e-02,5.655923858284950256e-02,6.542991846799850464e-03,5.426940508186817169e-03,1.242208853363990784e-02,6.128599494695663452e-02,1.367901638150215149e-02,2.871546521782875061e-02,1.108179613947868347e-02,2.783484011888504028e-02,5.372308194637298584e-02,2.615582570433616638e-02,4.114710912108421326e-02,1.952643971890211105e-03,3.182250633835792542e-02,1.224550697952508926e-02,1.328085176646709442e-02,1.290659792721271515e-02,3.746781125664710999e-02,4.772319272160530090e-02,1.039695367217063904e-02,-1.229792833328247070e-04,5.859024822711944580e-02,2.417920157313346863e-03,7.040764205157756805e-03,2.334472723305225372e-02,-6.751844659447669983e-03,6.060108542442321777e-03,2.390317618846893311e-02,3.704773634672164917e-02,3.167236596345901489e-02,4.756614938378334045e-02,6.198216229677200317e-03,6.807591766119003296e-03,7.160452194511890411e-03,2.926477603614330292e-02,-1.622583903372287750e-02,-5.430088378489017487e-03,1.448236778378486633e-02,1.206881459802389145e-02,3.219922631978988647e-02,4.930794704705476761e-03,1.861842721700668335e-02,2.776179462671279907e-02,1.403479836881160736e-02,1.713696867227554321e-02,3.139217942953109741e-02,5.302705615758895874e-02,2.756272070109844208e-02,3.549714013934135437e-02,2.436074800789356232e-02,3.362957388162612915e-03,3.867292404174804688e-02,1.118890102952718735e-02,1.085624657571315765e-02,-1.357765588909387589e-02,2.580594643950462341e-02,2.583112381398677826e-02,2.552791126072406769e-02,6.209240294992923737e-03,5.087221041321754456e-03,5.113667249679565430e-02,6.946930289268493652e-02,4.614789038896560669e-02,3.736919909715652466e-02,2.731470949947834015e-02,3.349501639604568481e-02,2.026132680475711823e-02,1.804898679256439209e-02,-4.245222359895706177e-02,2.053176239132881165e-02,6.939618289470672607e-02,2.382774278521537781e-02,5.355753004550933838e-02,3.001534380018711090e-02,-1.395109388977289200e-02,5.283185467123985291e-02,2.392369508743286133e-02,1.413376815617084503e-02,1.135163381695747375e-02,2.842710353434085846e-02,3.626392036676406860e-02,9.385921061038970947e-03,1.981065422296524048e-02,1.058858633041381836e-02,2.540015242993831635e-02,2.231543697416782379e-02,4.837111383676528931e-02,7.399870082736015320e-03,2.995445206761360168e-02,2.280193194746971130e-02,3.073884919285774231e-02,9.349454194307327271e-03,8.937310427427291870e-03,2.249657735228538513e-02,2.487087063491344452e-02,-1.686460711061954498e-02,1.030780188739299774e-02,3.908808529376983643e-02,5.895438417792320251e-02,6.338100880384445190e-03,1.619536429643630981e-02,1.708745770156383514e-02,3.528261184692382812e-02,3.280395641922950745e-02,2.237908169627189636e-02,3.743840381503105164e-02,3.666358813643455505e-02,1.407885923981666565e-02,4.878571256995201111e-02,2.365497499704360962e-02,3.636753186583518982e-02,8.537624031305313110e-03,5.329744517803192139e-02,1.159351319074630737e-02,5.468029528856277466e-03,1.967715099453926086e-02,4.066340159624814987e-03,5.437805503606796265e-02,3.539844229817390442e-02,4.486050084233283997e-02,2.705796435475349426e-02,2.320209145545959473e-02,2.330356277525424957e-02,3.189021721482276917e-02,3.208436444401741028e-02,-3.388104960322380066e-02,3.154538571834564209e-04,5.293659493327140808e-02,2.900777198374271393e-02,1.732946187257766724e-02,3.978361189365386963e-02,1.767330616712570190e-02,3.104170225560665131e-02,5.766482092440128326e-03,3.784221410751342773e-02,3.513355180621147156e-02,1.735541224479675293e-02,1.816469989717006683e-02,2.963314391672611237e-02,7.116662338376045227e-03,6.706085056066513062e-03,5.286335200071334839e-02,5.579340457916259766e-02,2.284887433052062988e-02,6.075201556086540222e-03,3.439211845397949219e-02,3.648814558982849121e-02,7.801719009876251221e-03,3.278074041008949280e-02,3.766492754220962524e-02,1.499454677104949951e-02,1.564833894371986389e-02,3.584151342511177063e-02,4.960806667804718018e-02,2.900855056941509247e-02,3.355639055371284485e-02,2.301695384085178375e-02,1.824107766151428223e-02,2.286288700997829437e-02,1.817338168621063232e-02,1.283985376358032227e-02,3.113876283168792725e-02,-9.377242997288703918e-03,3.766409121453762054e-03,2.735979482531547546e-02,6.150601431727409363e-03,3.039523586630821228e-02,2.312722429633140564e-02,-2.906780131161212921e-02,2.405961975455284119e-02,3.778211027383804321e-02,2.857722528278827667e-02,1.202750392258167267e-02,4.866719990968704224e-02,-1.103548333048820496e-03,2.739401534199714661e-02,2.327267080545425415e-02,1.921042613685131073e-02,-1.974630169570446014e-03,2.962557412683963776e-02,9.914074093103408813e-03,3.946620225906372070e-02,3.891474753618240356e-02,4.867350682616233826e-02,8.705522865056991577e-03,1.512309536337852478e-02,5.567230284214019775e-02,5.222941283136606216e-03,2.825655788183212280e-02,3.145750984549522400e-02,6.628859043121337891e-02,3.536594286561012268e-02,6.198468059301376343e-02,3.454599156975746155e-02,1.737557165324687958e-02,3.690780699253082275e-02,2.601880580186843872e-03,7.888309657573699951e-03,2.743617817759513855e-02,-1.067873742431402206e-02,-9.002718143165111542e-04,6.138772144913673401e-02,2.681646123528480530e-02,1.375636830925941467e-02,2.288553491234779358e-02,5.406156554818153381e-02,3.192058950662612915e-02,1.377397589385509491e-02,3.846373036503791809e-02,2.235750481486320496e-02,4.112506657838821411e-02,2.990366518497467041e-02,3.069103136658668518e-02,3.986401483416557312e-02,8.842492476105690002e-03,4.702898859977722168e-02,8.548584766685962677e-03,4.828778654336929321e-02,3.165417537093162537e-02,1.738156005740165710e-02,-6.899461150169372559e-04,2.661643177270889282e-02,1.000156439840793610e-02,-1.442273706197738647e-02,4.507134482264518738e-02,1.169071905314922333e-02,3.967103734612464905e-02,6.772676482796669006e-03,3.041112795472145081e-02,4.618423432111740112e-02,3.633182868361473083e-02,5.169401317834854126e-02,1.296876184642314911e-02,-4.203151911497116089e-03,1.325565390288829803e-03,5.242569372057914734e-03,4.106812179088592529e-02,4.898686334490776062e-02,3.133741393685340881e-02,4.709321632981300354e-02,1.102292537689208984e-02,6.646793335676193237e-03,1.365076564252376556e-02,3.385753929615020752e-02,1.123579125851392746e-02,8.963525295257568359e-03,7.004986051470041275e-03,1.927975192666053772e-02,3.112549334764480591e-02,9.511658921837806702e-03,3.956211730837821960e-03,5.021387711167335510e-03,2.392390742897987366e-02,4.530505277216434479e-03,1.297493185847997665e-02,5.196946486830711365e-02,1.519803516566753387e-02,2.353971451520919800e-02,5.055440589785575867e-02,6.265680491924285889e-02,4.499305039644241333e-03,1.662230491638183594e-02,4.798421636223793030e-03,4.472172632813453674e-02,8.699659258127212524e-03,8.578235283493995667e-04,2.869445085525512695e-02,4.128055274486541748e-02,2.131797373294830322e-04,3.297306224703788757e-02,3.545931354165077209e-02,5.984215438365936279e-02,4.436172172427177429e-02,1.737571321427822113e-02,7.855398580431938171e-03,2.633801847696304321e-02,2.251801267266273499e-02,2.076106145977973938e-02,2.483688760548830032e-03,-1.532777864485979080e-02,-1.179575920104980469e-04,-2.304940484464168549e-03,2.211065776646137238e-02,2.905530668795108795e-02,2.296893857419490814e-02,3.273732215166091919e-02,2.725964412093162537e-02,1.755500957369804382e-02,5.100935697555541992e-02,3.450940549373626709e-02,9.147619456052780151e-02,2.517404966056346893e-03,4.043779894709587097e-02,1.114973053336143494e-02,5.988627672195434570e-03,2.928595617413520813e-02,4.705230891704559326e-02,7.618634030222892761e-03,2.305434830486774445e-02,2.729596011340618134e-02,8.543746545910835266e-03,2.663278393447399139e-02,1.632920652627944946e-02,2.261974476277828217e-02,3.930026292800903320e-02,1.126856356859207153e-02,5.761448666453361511e-02,2.546994015574455261e-02,1.382568571716547012e-02,3.236659616231918335e-02,2.291600685566663742e-03,1.640168577432632446e-02,1.517349295318126678e-02,1.304962113499641418e-02,5.159394815564155579e-03,1.221194118261337280e-02,1.530220545828342438e-02,5.750017613172531128e-02,5.754768848419189453e-03,8.292208425700664520e-03,2.316907420754432678e-02,1.967682316899299622e-02,5.080617964267730713e-03,2.867984585464000702e-02,6.928164977580308914e-03,1.046478934586048126e-02,2.673573419451713562e-02,1.791114546358585358e-02,2.870348282158374786e-02,4.077006876468658447e-02,6.082082167267799377e-03,1.486812625080347061e-02,2.550298906862735748e-02,3.350686654448509216e-02,2.693589217960834503e-02,2.952794730663299561e-02,2.369185909628868103e-03,4.701957106590270996e-03,1.108480244874954224e-02,2.173908799886703491e-02,2.814612910151481628e-02,9.085044264793395996e-03,3.020546585321426392e-02,3.186457231640815735e-02,1.938893459737300873e-02,5.223270878195762634e-02,6.841843947768211365e-03,2.190969884395599365e-03,5.798932909965515137e-02,3.877283632755279541e-02,3.335857763886451721e-02,1.581645198166370392e-02,3.038733452558517456e-02,6.660102307796478271e-02,9.551703929901123047e-03,5.351708456873893738e-02,1.209713146090507507e-02,1.823580451309680939e-02,3.665394615381956100e-03,3.407071158289909363e-02,3.756717592477798462e-02,5.254046991467475891e-03,4.209382832050323486e-02,1.419841591268777847e-02,1.134129520505666733e-02,1.793110743165016174e-02,2.936037257313728333e-02,2.773614972829818726e-02,6.101310253143310547e-02,3.082020394504070282e-02,6.273266859352588654e-03,8.107656612992286682e-03,1.677605882287025452e-02,2.188155986368656158e-02,2.935826033353805542e-02,3.858277201652526855e-02,6.713500246405601501e-03,5.491784773766994476e-03,7.771088741719722748e-03,1.418140530586242676e-02,2.728006802499294281e-02,1.994280330836772919e-02,9.087560698390007019e-03,1.077084243297576904e-02,3.055482730269432068e-02,3.114815801382064819e-02,4.353333264589309692e-02,-6.621367298066616058e-03,2.434882894158363342e-02
3.032580763101577759e-02,3.408830240368843079e-02,2.853748574852943420e-02,3.054726682603359222e-02,2.776560373604297638e-02,2.485671453177928925e-02,6.051676720380783081e-02,2.264380455017089844e-02,2.999824658036231995e-02,-1.792922243475914001e-02,2.735526487231254578e-02,2.391580119729042053e-02,2.703917399048805237e-02,-1.474490761756896973e-02,2.380833774805068970e-02,2.137062139809131622e-02,4.599712416529655457e-02,5.336989462375640869e-02,2.631185390055179596e-02,6.035815179347991943e-02,2.826551347970962524e-02,5.109073966741561890e-02,5.468340218067169189e-02,2.388098835945129395e-02,5.030442029237747192e-02,2.865739725530147552e-02,1.271741092205047607e-02,6.625075638294219971e-02,3.429336473345756531e-02,2.413676865398883820e-02,5.385522963479161263e-04,2.734471857547760010e-02,3.003250248730182648e-02,1.690141856670379639e-03,2.568403258919715881e-03,3.253921866416931152e-02,4.035972058773040771e-02,2.792676165699958801e-02,2.712779119610786438e-02,3.075428307056427002e-02,3.492566198110580444e-02,7.739873975515365601e-02,2.261868864297866821e-02,3.072580695152282715e-02,4.565870016813278198e-02,1.236863434314727783e-03,4.211708158254623413e-02,4.653624817728996277e-02,2.989029511809349060e-02,2.993021905422210693e-02,1.584364473819732666e-02,4.213366284966468811e-02,2.583442628383636475e-02,3.556913509964942932e-02,5.357985571026802063e-02,4.173915833234786987e-02,2.758513204753398895e-02,4.226469248533248901e-02,2.187223732471466064e-02,3.972113505005836487e-02,2.478252910077571869e-02,2.497211843729019165e-02,2.463098987936973572e-02,2.313414216041564941e-02,2.854333445429801941e-02,1.619859971106052399e-02,3.013597056269645691e-02,8.157655596733093262e-03,3.175348788499832153e-02,3.118513710796833038e-02,2.655554935336112976e-02,4.154485464096069336e-02,2.914024703204631805e-02,3.361443802714347839e-02,4.935419559478759766e-02,4.630926251411437988e-02,5.018074065446853638e-02,2.317354641854763031e-02,2.407315373420715332e-02,3.011463955044746399e-02,3.497899323701858521e-02,3.031977638602256775e-02,2.956290356814861298e-02,5.412216484546661377e-02,2.301318012177944183e-02,4.166597872972488403e-02,2.799856103956699371e-02,3.551206365227699280e-02,2.528870478272438049e-02,3.004296496510505676e-02,2.854064665734767914e-02,1.982294954359531403e-02,3.176634758710861206e-02,7.600491493940353394e-02,3.475431352853775024e-02,2.812803722918033600e-02,2.914207801222801208e-02,2.822503447532653809e-02,3.275173902511596680e-02,1.278679911047220230e-02,2.287608757615089417e-02,8.196745067834854126e-03,3.140942752361297607e-02,2.691580541431903839e-02,2.975476160645484924e-02,3.086224757134914398e-02,5.860016867518424988e-02,2.859949320554733276e-02,3.655815124511718750e-02,5.827535688877105713e-02,4.611559212207794189e-03,2.522205933928489685e-02,3.100182116031646729e-02,4.327692091464996338e-03,5.246931686997413635e-02,2.749472111463546753e-02,2.956445701420307159e-02,3.367805480957031250e-02,1.243649516254663467e-02,3.692572936415672302e-02,2.440837398171424866e-02,1.994896307587623596e-02,5.460054427385330200e-02,2.908248268067836761e-02,3.079300560057163239e-02,3.455501049757003784e-02,2.308532595634460449e-02,5.593151599168777466e-02,-1.018279045820236206e-02,4.677318036556243896e-03,4.442471265792846680e-02,3.158064931631088257e-02,2.095378935337066650e-02,4.336939007043838501e-02,2.866386808454990387e-02,3.007250279188156128e-02,4.162085056304931641e-02,9.640329517424106598e-03,5.746350064873695374e-02,5.850577726960182190e-02,-2.354819700121879578e-02,3.455504029989242554e-02,3.069898486137390137e-02,5.366638675332069397e-02,4.404906183481216431e-03,3.339552134275436401e-02,3.097902052104473114e-02,2.547653019428253174e-02,3.092975914478302002e-02,3.727605193853378296e-02,3.002226911485195160e-02,3.238097578287124634e-02,2.764633297920227051e-02,2.899076044559478760e-02,4.367828369140625000e-04,4.792150110006332397e-02,2.910293638706207275e-03,2.536917477846145630e-02,3.787670657038688660e-02,3.078893572092056274e-02,7.267937064170837402e-02,3.614548966288566589e-02,4.498349502682685852e-02,2.499086782336235046e-02,3.383868187665939331e-02,3.236003965139389038e-02,4.555639997124671936e-02,1.820890605449676514e-02,2.430834807455539703e-02,7.711735367774963379e-02,6.123000755906105042e-02,2.852677181363105774e-02,-1.511732675135135651e-02,2.747110463678836823e-02,5.267476290464401245e-02,2.923494577407836914e-02,3.685786575078964233e-02,2.938636764883995056e-02,3.774029761552810669e-02,3.224388137459754944e-02,2.803999371826648712e-02,-2.348503330722451210e-03,2.753018401563167572e-02,4.273108020424842834e-02,3.496124595403671265e-02,2.434589341282844543e-02,2.769648842513561249e-02,1.929480955004692078e-02,5.839500948786735535e-02,3.416890278458595276e-02,7.420495897531509399e-02,2.491615526378154755e-02,4.053451120853424072e-04,6.389073282480239868e-02,-1.201706752181053162e-02,4.769690334796905518e-02,2.115938067436218262e-02,3.059086948633193970e-02,-3.007795661687850952e-03,3.477578982710838318e-02,2.331177517771720886e-02,4.122275859117507935e-02,4.924924671649932861e-02,3.817964717745780945e-02,5.187083035707473755e-02,3.402919322252273560e-02,5.083104968070983887e-02,5.297246202826499939e-02,6.913977861404418945e-02,2.077800035476684570e-02,5.210705846548080444e-02,5.151288211345672607e-02,4.529942944645881653e-02,2.080313302576541901e-02,3.229742124676704407e-02,2.881809882819652557e-02,-6.036236882209777832e-04,3.048863634467124939e-02,2.661503106355667114e-02,2.984821051359176636e-02,2.912388555705547333e-02,3.264978528022766113e-02,2.405924722552299500e-02,3.912114351987838745e-02,2.813998423516750336e-02,3.133822977542877197e-02,2.931525371968746185e-02,3.174065425992012024e-02,3.114921785891056061e-02,3.882838040590286255e-02,5.183558166027069092e-02,3.858065232634544373e-02,4.728840291500091553e-02,4.233349859714508057e-02,3.009452298283576965e-02,2.763787284493446350e-02,2.529799379408359528e-02,1.410912349820137024e-02,2.706892229616641998e-02,6.181605160236358643e-03,3.496041893959045410e-02,4.012127593159675598e-02,3.576785326004028320e-02,4.545444250106811523e-02,2.331513725221157074e-02,1.980593055486679077e-02,2.803080715239048004e-02,5.249631777405738831e-02,5.580332130193710327e-02,2.402958460152149200e-02,5.802485346794128418e-02,5.024080723524093628e-02,2.521240711212158203e-02,3.465602546930313110e-02,2.804650925099849701e-02,2.182971313595771790e-02,2.916441299021244049e-02,3.177425637841224670e-02,1.224927511066198349e-02,3.432710841298103333e-02,2.472549676895141602e-04,3.690317273139953613e-02,3.679201751947402954e-02,3.075097501277923584e-02,2.208712510764598846e-02,3.227279335260391235e-02,3.542890027165412903e-02,5.024117603898048401e-02,3.098477423191070557e-02,4.904827475547790527e-02,2.828660979866981506e-02,2.413772977888584137e-02,4.012657701969146729e-02,5.519114434719085693e-03,2.074208855628967285e-02,5.492893606424331665e-02,5.435877293348312378e-02,5.103474482893943787e-03,3.405827656388282776e-02,-4.713881760835647583e-03,5.001690983772277832e-02,5.397720262408256531e-02,3.849354386329650879e-02,3.172565251588821411e-02,3.062942065298557281e-02,3.043308667838573456e-02,3.322683274745941162e-02,2.454494498670101166e-02,-7.821038365364074707e-03,1.541894022375345230e-02,2.697067521512508392e-02,1.571022346615791321e-02,2.976312302052974701e-02,-4.567144438624382019e-03,3.205329924821853638e-02,2.681556716561317444e-02,3.342693299055099487e-02,5.860502645373344421e-02,2.410485781729221344e-02,7.737237028777599335e-03,3.358028829097747803e-03,2.267333678901195526e-02,2.504654601216316223e-02,2.232310548424720764e-02,2.907312661409378052e-02,4.635032638907432556e-02,3.256694972515106201e-02,2.362234517931938171e-02,2.409389801323413849e-02,2.482423558831214905e-02,4.189651459455490112e-02,3.051144443452358246e-02,3.024987131357192993e-02,2.267330186441540718e-03,-3.475926816463470459e-03,3.815197944641113281e-02,6.589826196432113647e-03,2.920650318264961243e-02,3.132405504584312439e-02,1.343705784529447556e-02,3.329669684171676636e-02,2.956610545516014099e-02,2.533486858010292053e-02,3.397840633988380432e-02,1.710426807403564453e-02,3.007047064602375031e-02,3.702628612518310547e-02,2.797840163111686707e-02,2.181156724691390991e-02,3.837209194898605347e-02,2.108038216829299927e-02,3.150066360831260681e-02,4.163054376840591431e-02,2.893762476742267609e-02,3.454670310020446777e-02,3.577553201466798782e-03,2.349064685404300690e-02,3.038340434432029724e-02,3.169627487659454346e-02,2.363730035722255707e-02,2.809515595436096191e-02,3.465450555086135864e-02,-1.186220347881317139e-02,4.351982101798057556e-02,2.206927165389060974e-02,5.789955705404281616e-02,2.801424078643321991e-02,6.229240447282791138e-02,4.945104196667671204e-02,6.019125506281852722e-02,3.076319582760334015e-02,2.829501777887344360e-02,4.472807422280311584e-02,5.476368963718414307e-02,3.392133861780166626e-02,2.848735824227333069e-02,2.664649859070777893e-02,4.399154707789421082e-02,3.164816275238990784e-02,2.477546036243438721e-02,3.016707673668861389e-02,4.034385830163955688e-02,2.455811761319637299e-02,5.690052732825279236e-02,1.993618160486221313e-02,2.275712974369525909e-02,2.873544022440910339e-02,2.896457165479660034e-02,1.980802603065967560e-02,4.788964241743087769e-02,5.399071425199508667e-02,2.438404783606529236e-02,2.602408453822135925e-02,3.119076415896415710e-02,3.548101335763931274e-02,3.388812765479087830e-02,2.612949162721633911e-02,1.989354565739631653e-02,2.959436550736427307e-02,2.860742807388305664e-02,3.213263675570487976e-02,3.170457854866981506e-02,2.786539494991302490e-03,4.570720717310905457e-02,3.150673210620880127e-02,3.010830096900463104e-02,3.289765119552612305e-02,3.401756659150123596e-02,3.179154172539710999e-02,3.202638402581214905e-02,3.138059005141258240e-02,5.436550453305244446e-02,6.304416805505752563e-02,2.830885350704193115e-02,2.401255443692207336e-02,3.302752599120140076e-02,3.351409733295440674e-02,2.446717768907546997e-02,2.975835278630256653e-02,3.522140905261039734e-02,3.262792155146598816e-02,3.244228661060333252e-02,4.171117022633552551e-02,-2.665523439645767212e-03,3.588341549038887024e-02,3.117640502750873566e-02,-9.043160825967788696e-03,7.790535688400268555e-02,2.492824383080005646e-02,3.296619281172752380e-02,2.676075324416160583e-02,3.602380305528640747e-02,3.712509199976921082e-02,3.169413655996322632e-02,5.217697471380233765e-02,2.637891098856925964e-02,7.345314323902130127e-02,2.479148656129837036e-02,3.066076524555683136e-02,2.613979578018188477e-02,2.983864024281501770e-02,1.961253583431243896e-03,3.887965530157089233e-02,3.552374243736267090e-02,2.454308234155178070e-02,2.996546775102615356e-02,4.961859434843063354e-02,2.996064722537994385e-02,4.291085898876190186e-02,2.673171088099479675e-02,2.830325812101364136e-02,2.295078895986080170e-02,1.500538550317287445e-03,5.570676550269126892e-02,2.851097285747528076e-02,2.508811652660369873e-02,2.326581627130508423e-02,2.330148778855800629e-02,3.767018765211105347e-02,4.261439293622970581e-02,2.424850314855575562e-02,3.315147385001182556e-02,1.198364607989788055e-02,6.968974322080612183e-02,4.242292046546936035e-02,1.850033923983573914e-02,2.691877633333206177e-02,2.723621577024459839e-02,4.159386083483695984e-02,2.782882004976272583e-02,2.108065783977508545e-02,1.911875791847705841e-02,2.614728547632694244e-02,3.878068178892135620e-02,6.241358071565628052e-02,2.640644088387489319e-02,2.926814556121826172e-02,2.778417803347110748e-02,2.055827155709266663e-02,2.658954635262489319e-02,3.251485526561737061e-02,2.656611613929271698e-02,1.990363560616970062e-02,2.397362142801284790e-02,5.285516381263732910e-02,5.614146590232849121e-02,3.317003697156906128e-02,5.383749678730964661e-02,5.833840742707252502e-02,3.310523182153701782e-02,1.076969690620899200e-02,2.551715634763240814e-02,3.779048100113868713e-02,3.054957836866378784e-02,2.961896732449531555e-02,2.065533399581909180e-02,2.687654830515384674e-02,2.981026656925678253e-02,3.070351108908653259e-02,2.330553717911243439e-02,6.843344867229461670e-02,2.607564628124237061e-02,1.629560068249702454e-02,3.481203690171241760e-02,3.194191679358482361e-02,3.125740960240364075e-02,6.019523739814758301e-02,2.485350891947746277e-02,4.143464565277099609e-02,2.290456928312778473e-02,3.183369338512420654e-02,2.075801417231559753e-02,3.389886021614074707e-02,2.751412056386470795e-02,2.352898195385932922e-02,3.274612501263618469e-02,2.212936617434024811e-02,5.345698818564414978e-02,2.397840097546577454e-02,3.199746087193489075e-02,2.650845609605312347e-02,5.486564338207244873e-02,2.596785686910152435e-02,4.693233594298362732e-02,2.831796929240226746e-02,2.601268887519836426e-02,5.312551930546760559e-02,1.503934338688850403e-02,2.199062146246433258e-02,1.201225630939006805e-02,3.362052515149116516e-02,3.821507096290588379e-02,1.212116703391075134e-02,3.797978907823562622e-02,5.191592499613761902e-02,4.625307768583297729e-02,3.572280704975128174e-02,3.196799755096435547e-02,2.315624244511127472e-02,3.720523789525032043e-02,2.388286963105201721e-02,7.161244750022888184e-02,4.623003676533699036e-02,2.659053914248943329e-02,2.724941819906234741e-02,3.068985231220722198e-02,2.084891498088836670e-02,2.518619224429130554e-02,2.880892716348171234e-02,2.975092455744743347e-02,3.067169897258281708e-02,3.084206208586692810e-02,3.035420179367065430e-02,2.186348661780357361e-02,2.729587070643901825e-02,4.395363852381706238e-02,2.896691113710403442e-02,2.834197133779525757e-02,3.092040121555328369e-02,1.526335254311561584e-03,2.434639818966388702e-02,2.956486493349075317e-02,2.750102244317531586e-02,2.930473163723945618e-02,3.145848214626312256e-02,4.338546097278594971e-02,4.079733416438102722e-02,-1.139217615127563477e-02,3.240933269262313843e-02,2.444532141089439392e-02,2.810375019907951355e-02,1.807657629251480103e-02,3.903926908969879150e-02,3.094935044646263123e-02,3.893393650650978088e-02,1.861435174942016602e-02,2.677090466022491455e-02,3.351039066910743713e-02,3.313474729657173157e-02,3.175153955817222595e-02,2.585394307971000671e-02,3.087346628308296204e-02,2.588677592575550079e-02,5.626993626356124878e-02,2.469744719564914703e-02,-1.575418561697006226e-02,-5.882937461137771606e-03,1.439683139324188232e-03,3.468972444534301758e-02,3.033614344894886017e-02,5.556643009185791016e-04,1.325801759958267212e-02,4.717542976140975952e-02,3.619292378425598145e-02,2.154160290956497192e-02,3.252779692411422729e-02,5.238606035709381104e-02,4.356097429990768433e-02,2.774369530379772186e-02,3.322319313883781433e-02,1.405443530529737473e-02,3.619509190320968628e-02,3.795282170176506042e-02,6.056006997823715210e-02,3.211125731468200684e-03,2.478506602346897125e-02,4.796396568417549133e-02,2.997842431068420410e-02,4.666227474808692932e-02,4.838763922452926636e-02,2.377754822373390198e-02,3.309322893619537354e-02,4.745637625455856323e-02,3.047115355730056763e-02,-3.715811297297477722e-03,2.307571843266487122e-02,5.437567830085754395e-02,2.121357992291450500e-02,4.347908869385719299e-02,4.659067094326019287e-02,2.491193264722824097e-02,3.417133539915084839e-02,4.812527075409889221e-02,2.042818814516067505e-02,1.847314275801181793e-02,3.598462417721748352e-02,4.705340787768363953e-02,2.604887448251247406e-02,3.120068646967411041e-02,2.693906426429748535e-02,3.311881422996520996e-02,3.892970085144042969e-02,2.651344239711761475e-02,1.894930563867092133e-02,2.307295240461826324e-02,-4.582256078720092773e-04,2.981128171086311340e-02,3.243404999375343323e-02,2.421034686267375946e-02,4.304286837577819824e-02,5.391160026192665100e-02,3.938789665699005127e-02,3.395589441061019897e-02,2.670011110603809357e-02,3.235322982072830200e-02,1.940823346376419067e-02,2.070849947631359100e-02,2.469126321375370026e-02,5.248566716909408569e-02,4.788384586572647095e-02,3.077297843992710114e-02,2.933135069906711578e-02,5.185361951589584351e-02,9.833522140979766846e-03,3.555879741907119751e-02,3.274196758866310120e-02,2.820899337530136108e-02,2.631527557969093323e-02,3.016266226768493652e-02,2.883173152804374695e-02,3.876487165689468384e-02,4.461672157049179077e-02,2.570903673768043518e-02,4.358867183327674866e-03,2.110326476395130157e-02,4.545532539486885071e-02,3.019858524203300476e-02,2.998997643589973450e-02,2.655824087560176849e-02,2.848942205309867859e-02,4.946090281009674072e-02,2.375310659408569336e-02,2.913060970604419708e-02,2.914216928184032440e-02,2.959568426012992859e-02,3.168660402297973633e-02,3.069254010915756226e-02,6.959643214941024780e-02,3.036705963313579559e-02,2.597583644092082977e-02,3.001529350876808167e-02,3.330313414335250854e-02,4.352410882711410522e-02,-7.340287789702415466e-03,2.673978358507156372e-02,-2.317050471901893616e-03,2.773242630064487457e-02,3.008168376982212067e-02,2.401005104184150696e-02,2.663607150316238403e-02,2.744881808757781982e-02,5.022456124424934387e-02,-1.688149198889732361e-02,2.450498566031455994e-02,9.426020085811614990e-03,4.030800238251686096e-02,5.855101346969604492e-02,3.938680887222290039e-02,3.248079121112823486e-02,3.358348459005355835e-02,3.064094483852386475e-02,5.128059908747673035e-02,3.016127273440361023e-02,5.372373014688491821e-02,5.773998051881790161e-02,4.438957944512367249e-02,4.510365799069404602e-02,2.594508230686187744e-02,2.669689245522022247e-02,2.399699948728084564e-02,2.980940416455268860e-02,2.851178869605064392e-02,2.452350407838821411e-02,2.293938025832176208e-02,-5.112476646900177002e-04,1.029960811138153076e-02,2.939204499125480652e-02,6.295949220657348633e-02,2.847661077976226807e-02,3.065887466073036194e-02,2.948899194598197937e-02,2.976531349122524261e-02,2.876106463372707367e-02,2.643932029604911804e-02,3.532118350267410278e-02,2.279039658606052399e-02,4.046309739351272583e-02,5.729841440916061401e-02,3.220006078481674194e-02,5.720981582999229431e-02,2.591888606548309326e-02,2.562751434743404388e-02,3.852625936269760132e-02,3.645050525665283203e-02,3.973069041967391968e-02,4.159865528345108032e-02,3.102549165487289429e-02,3.253905475139617920e-02,2.811159566044807434e-02,3.759727254509925842e-02,3.246006369590759277e-02,3.548860549926757812e-02,2.788863703608512878e-02,5.322594195604324341e-02,3.059927001595497131e-02,2.557163313031196594e-02,2.480887249112129211e-02,6.525696720927953720e-03,-1.054533198475837708e-02,3.337930142879486084e-02,4.480500146746635437e-02,3.751767426729202271e-02,3.030941635370254517e-02,5.069249123334884644e-02,4.249174147844314575e-02,4.136095568537712097e-02,2.644444815814495087e-02,3.077364154160022736e-02,2.323030494153499603e-02,3.124954737722873688e-02,2.631428092718124390e-02,6.735422462224960327e-02,2.744583413004875183e-02,2.790739387273788452e-02,2.323086187243461609e-02,4.877206310629844666e-02,3.508671000599861145e-02,2.357240207493305206e-02,2.316236123442649841e-02,3.948812559247016907e-02,2.233991958200931549e-02,3.266157582402229309e-03,5.310313403606414795e-02,5.203709006309509277e-02,2.212142944335937500e-02,2.521902322769165039e-02,3.195995837450027466e-02,3.975548595190048218e-02,2.323250286281108856e-02,3.017712384462356567e-02,4.203110933303833008e-02,3.538769483566284180e-02,2.572876587510108948e-02,3.452567011117935181e-02,4.985011368989944458e-02,3.451279550790786743e-02,1.910436898469924927e-03,3.539445996284484863e-02,2.668995223939418793e-02,3.589275479316711426e-02,2.880092896521091461e-02,5.502014234662055969e-02,4.200004041194915771e-02,2.085311710834503174e-02,2.128975465893745422e-02,3.065570630133152008e-02,2.687566727399826050e-02,1.406946126371622086e-02,2.934015914797782898e-02,2.735354751348495483e-02,4.219837486743927002e-02,5.177067220211029053e-02,2.048470824956893921e-02,2.496558055281639099e-02,6.304571032524108887e-02,3.196245059370994568e-02,2.679624594748020172e-02,1.933769881725311279e-02,2.845315262675285339e-02,2.895358949899673462e-02,4.034982249140739441e-02,1.887784898281097412e-02,3.140358999371528625e-02,5.331960693001747131e-02,8.004750125110149384e-03,2.658991888165473938e-02,2.781963720917701721e-02,5.554179474711418152e-02,1.577861793339252472e-02,3.031427040696144104e-02,3.095831349492073059e-02,5.883833765983581543e-02,3.532459214329719543e-02,5.605705454945564270e-02,2.585688233375549316e-02,2.445266954600811005e-02,3.506446629762649536e-02,2.347945421934127808e-02,1.658869162201881409e-02,6.557604297995567322e-03,4.432248324155807495e-02,3.095151856541633606e-02,4.246364533901214600e-02,2.530360780656337738e-02,2.994295582175254822e-02,3.065756149590015411e-02,5.427149683237075806e-02,2.782889641821384430e-02,2.904062345623970032e-02,2.966481447219848633e-02,3.166629374027252197e-02,6.376071274280548096e-02,2.964222989976406097e-02,2.893359772861003876e-02,3.983022272586822510e-02,2.848367206752300262e-02,3.287696838378906250e-02,2.739824354648590088e-02,4.044998064637184143e-02,4.543206095695495605e-02,2.115020528435707092e-02,-4.461150616407394409e-03,2.689586952328681946e-02,2.764856629073619843e-02,2.956761419773101807e-02,3.222244605422019958e-02,1.357648242264986038e-02,3.172351047396659851e-02,2.167959883809089661e-02,5.140640586614608765e-02,6.338773667812347412e-02,4.623707383871078491e-02,3.671856969594955444e-02,2.801249735057353973e-02,4.607080668210983276e-02,3.099743649363517761e-02,1.824712939560413361e-02,5.461349338293075562e-02,3.648133948445320129e-02,2.932414598762989044e-02,4.677795618772506714e-02,2.933076210319995880e-02,3.061305731534957886e-02,2.390044368803501129e-02,4.140293598175048828e-02,3.183531016111373901e-02,7.811464369297027588e-03,2.887154370546340942e-02,5.675932019948959351e-02,4.826573655009269714e-03,2.758601121604442596e-02,7.470697164535522461e-03,2.253267914056777954e-03,3.019886836409568787e-02,2.652245014905929565e-02,2.154044061899185181e-02,5.192330479621887207e-02,3.090634010732173920e-02,2.221786230802536011e-02,5.076122283935546875e-02,6.172931939363479614e-02,6.409607827663421631e-03,2.059853076934814453e-02,1.971370354294776917e-02,-2.050018683075904846e-02,2.452659979462623596e-02,2.682117372751235962e-02,5.579508841037750244e-03,5.584158748388290405e-02,8.278764784336090088e-03,3.083721362054347992e-02,3.086308203637599945e-02,5.740561336278915405e-02,4.431836679577827454e-02,1.908426173031330109e-03,2.671809494495391846e-02,3.238372504711151123e-02,2.996765449643135071e-02,3.480271622538566589e-02,3.271988034248352051e-02,3.451539203524589539e-02,3.168206661939620972e-02,2.701436728239059448e-02,5.329173058271408081e-02,3.365248069167137146e-02,4.606897383928298950e-02,2.947938814759254456e-02,3.564719855785369873e-02,2.149067074060440063e-02,4.742870107293128967e-02,3.442566096782684326e-02,5.464868992567062378e-02,1.438330672681331635e-02,4.039555042982101440e-02,2.723974362015724182e-02,2.679116837680339813e-02,2.213768102228641510e-02,-7.783129811286926270e-03,2.248845621943473816e-02,2.625676058232784271e-02,2.472157403826713562e-02,2.286791801452636719e-02,2.203623764216899872e-02,2.882084250450134277e-02,3.051172941923141479e-02,3.242352604866027832e-02,2.910893224179744720e-02,5.254725366830825806e-02,2.772739715874195099e-02,3.440873697400093079e-02,3.001633659005165100e-02,3.008725866675376892e-02,2.436005882918834686e-02,2.865198068320751190e-02,2.649234049022197723e-02,3.296948969364166260e-03,6.839966401457786560e-03,3.226595744490623474e-02,5.368716642260551453e-02,2.364355698227882385e-02,1.933323033154010773e-02,2.862881124019622803e-02,5.520721897482872009e-02,1.451913267374038696e-03,1.713983342051506042e-02,2.754580602049827576e-02,2.528066933155059814e-02,3.232896327972412109e-02,3.173382952809333801e-02,9.065491147339344025e-03,1.629948429763317108e-02,3.104978241026401520e-02,2.972180210053920746e-02,3.230910748243331909e-02,3.348954021930694580e-02,2.605229429900646210e-02,3.882961720228195190e-02,2.876003459095954895e-02,-1.196105033159255981e-03,2.709080837666988373e-02,2.548921480774879456e-02,3.117102012038230896e-02,2.791888639330863953e-02,3.371046110987663269e-02,1.385565381497144699e-02,2.956776879727840424e-02,3.731418028473854065e-02,2.492934279143810272e-02,2.735101431608200073e-02,-2.165119722485542297e-02,3.180773183703422546e-02,5.034551769495010376e-02,2.605932019650936127e-02,2.976382710039615631e-02,5.870895460247993469e-02,2.476578950881958008e-02,4.087895154953002930e-02,2.467976696789264679e-02,2.506776154041290283e-02,2.945790439844131470e-02,2.656364999711513519e-02,4.396300390362739563e-02,2.150619402527809143e-02,4.155924916267395020e-02,3.668188676238059998e-02,4.086895287036895752e-02,2.966464683413505554e-02,1.820762082934379578e-02,2.064625918865203857e-02,5.855021253228187561e-02,2.672853507101535797e-02,2.198184654116630554e-02,1.784368790686130524e-02,