-9.770510718226432800e-03,-5.691282451152801514e-03,-1.136229373514652252e-02,-1.327853091061115265e-02,-5.244914442300796509e-03,-1.453875005245208740e-02,-1.589967310428619385e-02,-2.649198472499847412e-02,-4.630967974662780762e-03,-4.094256088137626648e-03,5.153249949216842651e-04,-4.639552161097526550e-02,-1.122870296239852905e-02,-5.694819614291191101e-03,2.012290060520172119e-03,-1.018377952277660370e-02,2.641079947352409363e-03,3.140522167086601257e-03,-4.606820642948150635e-03,-1.667334139347076416e-02,-5.645263940095901489e-03,1.775890588760375977e-02,-1.282393187284469604e-02,5.211114883422851562e-03,-1.948178559541702271e-02,-2.538904547691345215e-03,-1.522048562765121460e-02,7.458776235580444336e-03,-3.389516845345497131e-03,7.381234318017959595e-03,8.416250348091125488e-03,2.447393350303173065e-02,-1.373891532421112061e-02,8.967552334070205688e-03,4.699734970927238464e-03,-4.507283866405487061e-02,2.284518815577030182e-02,6.740091368556022644e-03,-1.038781087845563889e-02,6.944142282009124756e-03,6.163362413644790649e-03,-8.857877925038337708e-03,3.665594384074211121e-03,3.768380731344223022e-03,2.968890592455863953e-03,1.042514741420745850e-01,9.707197546958923340e-03,-3.611247986555099487e-02,2.683143317699432373e-02,-1.622316241264343262e-02,5.756832659244537354e-03,-7.807910442352294922e-03,-1.286493986845016479e-02,2.699089422821998596e-02,5.422160029411315918e-06,4.602633416652679443e-03,4.062332212924957275e-03,-2.473438158631324768e-03,3.939658403396606445e-03,8.550919592380523682e-04,-2.622874453663825989e-03,-9.167402982711791992e-02,-9.984232485294342041e-03,-2.355938777327537537e-03,7.656322792172431946e-03,-1.503610983490943909e-02,-1.421782374382019043e-02,1.075650751590728760e-02,2.780435606837272644e-03,-4.791080951690673828e-02,-1.576750539243221283e-02,-1.549003273248672485e-02,1.732259988784790039e-07,-6.693933159112930298e-03,-8.280180394649505615e-03,1.418478786945343018e-04,-1.896016299724578857e-02,8.095558732748031616e-03,-1.785817742347717285e-02,-1.053763926029205322e-02,1.024660654366016388e-03,6.174180656671524048e-03,1.034513115882873535e-05,1.611109822988510132e-03,7.863305509090423584e-03,7.180534303188323975e-04,2.592274919152259827e-03,6.740729324519634247e-03,5.277921259403228760e-02,-1.152430847287178040e-02,-1.102806441485881805e-02,3.171836957335472107e-03,8.249882608652114868e-03,2.230331301689147949e-05,-1.157560944557189941e-02,-3.280451521277427673e-02,-7.363107055425643921e-03,3.512075170874595642e-03,-5.298367142677307129e-02,-4.931930825114250183e-02,7.689341902732849121e-03,-1.471625640988349915e-02,-8.558884263038635254e-03,1.083418726921081543e-03,9.388905018568038940e-03,-7.048696279525756836e-03,4.688866436481475830e-03,2.030495554208755493e-03,-4.753893241286277771e-03,1.816554926335811615e-03,-1.685887947678565979e-02,-6.804838776588439941e-04,-1.006539911031723022e-02,-1.166039705276489258e-02,-2.764508128166198730e-02,6.348142400383949280e-03,-6.114270910620689392e-02,-1.928929612040519714e-02,-4.955334588885307312e-03,-2.008117735385894775e-02,7.121205329895019531e-03,8.593946695327758789e-03,4.216667264699935913e-03,7.371630519628524780e-03,4.962245002388954163e-03,9.987654164433479309e-03,-1.455199345946311951e-02,-1.674293354153633118e-02,-1.301580201834440231e-02,-1.591919735074043274e-02,4.358394071459770203e-03,2.528664842247962952e-02,1.946504600346088409e-02,-1.708289049565792084e-02,2.723682671785354614e-03,-1.692548394203186035e-04,3.393460065126419067e-04,-8.316732943058013916e-03,3.429118543863296509e-02,-5.613088607788085938e-03,3.522217273712158203e-03,-3.963397815823554993e-03,-6.261341273784637451e-03,-1.361607387661933899e-02,-1.785149052739143372e-02,-2.735844440758228302e-02,-1.107837073504924774e-02,-4.033690318465232849e-03,-2.527546137571334839e-02,-8.098699152469635010e-03,-1.498550176620483398e-02,7.091084495186805725e-03,-2.268763072788715363e-02,-6.377203390002250671e-03,-1.321565732359886169e-02,8.423190563917160034e-03,1.822076737880706787e-03,-2.690099179744720459e-03,3.844892606139183044e-03,8.931303396821022034e-03,-1.265200376510620117e-01,4.311477765440940857e-03,6.475480273365974426e-03,-1.872023567557334900e-02,-2.589599415659904480e-02,7.086537778377532959e-03,-9.245218709111213684e-03,-1.248741149902343750e-02,6.392475217580795288e-03,8.829444646835327148e-03,-3.024010732769966125e-02,4.902657121419906616e-03,-2.129355445504188538e-03,-9.352635592222213745e-03,-2.851309999823570251e-02,-9.126711636781692505e-03,-2.104775980114936829e-02,-5.804873071610927582e-04,-1.032499782741069794e-02,7.861226797103881836e-03,1.951765269041061401e-03,2.859385684132575989e-03,7.036531344056129456e-03,-7.449866831302642822e-02,-2.453509159386157990e-02,9.849462658166885376e-03,-1.127667166292667389e-02,-6.232472136616706848e-03,-1.965714991092681885e-02,-6.556898355484008789e-03,-5.678363144397735596e-03,-3.816695883870124817e-03,4.728883504867553711e-03,-9.411234408617019653e-03,8.040156960487365723e-02,5.005469545722007751e-03,-1.393977552652359009e-02,6.800569593906402588e-03,-2.445920556783676147e-02,2.323010936379432678e-03,-6.393928825855255127e-02,-1.753306575119495392e-02,-2.895047143101692200e-02,-1.495706662535667419e-02,-4.059627652168273926e-03,3.663899376988410950e-03,4.484180361032485962e-03,-5.233833193778991699e-02,-8.671266958117485046e-03,1.742294430732727051e-02,-3.499554842710494995e-02,6.086092442274093628e-03,-1.562530919909477234e-02,4.623197019100189209e-03,-1.959771104156970978e-02,-3.100368566811084747e-02,1.821691915392875671e-02,-7.438421249389648438e-03,7.186084985733032227e-06,-1.778199523687362671e-02,-8.004002273082733154e-03,4.790207371115684509e-03,-3.128635510802268982e-02,-2.122566290199756622e-02,-8.919334039092063904e-03,-1.103330962359905243e-02,6.471827626228332520e-03,-3.047508187592029572e-02,-4.137486219406127930e-03,-1.178638078272342682e-02,1.267506182193756104e-02,6.527658551931381226e-04,2.046080306172370911e-03,5.845883861184120178e-03,-3.581933677196502686e-03,1.425909623503684998e-02,5.662210285663604736e-03,1.471692882478237152e-02,-2.221093326807022095e-02,4.539078101515769958e-03,-3.756137192249298096e-02,2.533925697207450867e-02,4.523552954196929932e-03,1.929601095616817474e-02,1.672749780118465424e-02,3.521951287984848022e-02,-2.325066551566123962e-02,-1.533538289368152618e-02,1.241861656308174133e-02,-2.250571921467781067e-02,9.777046740055084229e-03,2.064556442201137543e-02,-1.526656374335289001e-02,1.157605499029159546e-01,4.924008622765541077e-03,7.353581488132476807e-03,7.758158445358276367e-02,4.343295469880104065e-03,-6.904376298189163208e-02,2.797998487949371338e-03,-8.042145520448684692e-02,4.543412104249000549e-02,-1.213999018073081970e-01,5.340140312910079956e-03,7.976006716489791870e-03,8.706741034984588623e-03,1.258251816034317017e-02,2.432062663137912750e-02,9.761184453964233398e-03,1.474643312394618988e-02,-2.613767236471176147e-02,-3.033690899610519409e-02,-2.735342830419540405e-03,-1.201332360506057739e-02,-7.648068666458129883e-02,-2.362824231386184692e-02,1.454912126064300537e-05,1.242774445563554764e-02,-7.710700482130050659e-02,8.438488468527793884e-03,-3.444043546915054321e-02,2.988599240779876709e-03,-3.745467588305473328e-02,-7.639230042695999146e-02,1.236282568424940109e-02,-1.982057094573974609e-02,-3.748114407062530518e-02,-1.672070473432540894e-02,-2.110320329666137695e-02,-7.386201620101928711e-02,-3.048775717616081238e-03,1.923386007547378540e-03,1.606078818440437317e-02,8.589588105678558350e-03,-1.890718564391136169e-02,-1.793559081852436066e-02,-1.439439132809638977e-03,6.616977974772453308e-03,6.126701459288597107e-02,-4.296425729990005493e-03,-2.774181775748729706e-02,-1.767192222177982330e-02,-1.710486412048339844e-02,-1.842076331377029419e-02,2.086045220494270325e-03,-6.819501519203186035e-02,-1.187559217214584351e-03,1.668721437454223633e-03,-3.427967056632041931e-02,5.646822974085807800e-03,-9.646683931350708008e-03,1.245774514973163605e-02,-4.921192303299903870e-03,5.008837208151817322e-03,2.376174554228782654e-03,-6.142791360616683960e-03,-1.977106928825378418e-02,8.357349783182144165e-03,2.008711919188499451e-03,2.182561531662940979e-02,-6.706809997558593750e-02,3.360918909311294556e-02,-3.073319792747497559e-03,-1.158210635185241699e-02,-1.484786532819271088e-02,9.919272735714912415e-03,9.237352758646011353e-03,-4.806317389011383057e-03,-2.225585281848907471e-03,6.809115409851074219e-03,2.239828929305076599e-03,7.451256737112998962e-03,-3.100370243191719055e-02,-5.062960088253021240e-03,3.896092996001243591e-03,-6.168322637677192688e-03,2.103235572576522827e-03,6.188001483678817749e-03,6.898673623800277710e-02,-2.467023581266403198e-02,-1.676842570304870605e-02,-2.895260229706764221e-03,1.755123957991600037e-05,-7.255105674266815186e-02,-6.444169208407402039e-03,-2.603219822049140930e-03,-5.249092355370521545e-03,-3.177678585052490234e-02,3.848807886242866516e-03,3.621136769652366638e-03,-2.131745219230651855e-03,2.995878458023071289e-04,-8.180556446313858032e-02,1.982163637876510620e-03,-3.961735218763351440e-02,-5.298592522740364075e-02,-7.931796461343765259e-02,6.581615656614303589e-03,7.659891620278358459e-03,6.662413477897644043e-03,-2.289167419075965881e-02,3.903504461050033569e-03,-3.146871924400329590e-03,8.385660126805305481e-03,-3.006816841661930084e-02,1.058777719736099243e-01,-1.012867689132690430e-02,7.098244875669479370e-02,8.164605125784873962e-03,-3.574786335229873657e-02,4.625683184713125229e-03,-7.121894508600234985e-03,-3.935493528842926025e-03,-9.975906461477279663e-03,4.283002763986587524e-02,-7.433444261550903320e-02,-2.829346805810928345e-03,-3.236173838376998901e-02,-2.153296396136283875e-02,-4.536454752087593079e-02,-2.924272790551185608e-03,-7.609279453754425049e-02,-4.557063803076744080e-03,5.612771958112716675e-03,1.410953700542449951e-05,-6.969988346099853516e-03,-1.087784767150878906e-02,-5.229815840721130371e-03,-2.042536810040473938e-02,6.164144724607467651e-04,3.967010229825973511e-02,1.606439054012298584e-02,2.909908071160316467e-02,-3.295019268989562988e-06,4.333588480949401855e-02,-9.886741638183593750e-03,3.503635525703430176e-06,1.703448221087455750e-02,-4.732878878712654114e-03,8.545748889446258545e-03,1.596044003963470459e-02,7.847733795642852783e-03,1.413933001458644867e-02,4.767006263136863708e-03,4.680892452597618103e-03,-2.068086341023445129e-02,-2.390618063509464264e-02,-3.082618117332458496e-03,5.177643150091171265e-03,9.891697764396667480e-02,-1.300607621669769287e-02,3.190480172634124756e-03,3.734212368726730347e-03,7.334396243095397949e-03,-3.141676634550094604e-02,-1.031325943768024445e-02,-2.317198552191257477e-02,-1.668661832809448242e-03,4.129881039261817932e-02,-4.144465550780296326e-03,3.330823034048080444e-03,6.985887885093688965e-04,-2.344113215804100037e-02,-2.122755348682403564e-02,-8.508075028657913208e-03,1.622580736875534058e-02,-1.778598129749298096e-02,-6.103783845901489258e-03,-5.424739792943000793e-03,4.662906751036643982e-03,-1.325165294110774994e-02,-2.640210464596748352e-02,1.174956932663917542e-02,3.316819667816162109e-03,-3.522187471389770508e-03,3.531813621520996094e-03,1.345263421535491943e-01,1.331212557852268219e-02,-2.307223528623580933e-02,1.228684186935424805e-02,8.802597224712371826e-02,-6.222128868103027344e-03,2.975830808281898499e-03,-3.929600119590759277e-02,-3.304304555058479309e-03,9.820361435413360596e-02,8.967414498329162598e-03,9.120071306824684143e-03,1.837495714426040649e-03,-1.238491572439670563e-02,8.019672706723213196e-03,-3.536104038357734680e-02,-6.760402768850326538e-02,-2.775569632649421692e-02,4.822384566068649292e-03,2.004206180572509766e-06,1.237361133098602295e-02,-2.174061164259910583e-02,1.366293057799339294e-03,-1.233114674687385559e-02,3.702092915773391724e-03,7.071937620639801025e-02,1.355363242328166962e-02,-2.399499714374542236e-02,-6.181981042027473450e-02,-8.827038109302520752e-04,8.001692593097686768e-03,-2.075979858636856079e-02,-3.886066377162933350e-03,-3.633506596088409424e-03,6.625540554523468018e-03,2.951269969344139099e-03,5.245109647512435913e-02,-2.486475557088851929e-02,-4.981072619557380676e-03,-1.638988591730594635e-02,-4.198561981320381165e-02,-2.219304069876670837e-02,-9.206391870975494385e-03,2.163149416446685791e-03,-1.048557460308074951e-02,2.532016485929489136e-02,2.511815913021564484e-02,1.489644870162010193e-02,-2.044820040464401245e-02,1.184742897748947144e-02,-5.387412384152412415e-03,-1.699388399720191956e-02,-7.983857765793800354e-03,-1.778901368379592896e-02,6.673300638794898987e-03,4.416739568114280701e-03,-1.108770295977592468e-01,9.188130497932434082e-03,1.204205118119716644e-02,2.655131742358207703e-03,-1.937150955200195312e-06,-1.135220378637313843e-02,-7.994741201400756836e-03,7.780583575367927551e-03,2.988483756780624390e-03,2.407575398683547974e-02,1.102872192859649658e-05,2.995263785123825073e-03,5.669642239809036255e-03,-1.223952695727348328e-02,-3.324878215789794922e-02,4.224967211484909058e-03,-4.845600575208663940e-03,-5.703233182430267334e-03,7.214171811938285828e-03,-1.737863942980766296e-02,1.260951347649097443e-02,6.486874073743820190e-03,-1.824184879660606384e-02,3.685187548398971558e-04,8.032049983739852905e-03,1.018914133310317993e-01,-7.075943052768707275e-03,-1.160911098122596741e-02,-6.508886814117431641e-03,-1.891998574137687683e-02,-4.613317549228668213e-03,4.005134105682373047e-03,-3.017485141754150391e-06,3.974283114075660706e-03,-5.450466647744178772e-03,-9.214930236339569092e-03,3.863120451569557190e-03,4.349740222096443176e-03,-1.765945926308631897e-02,5.086099728941917419e-03,2.508023753762245178e-03,1.854184269905090332e-02,-5.590945482254028320e-03,1.169964857399463654e-02,-2.893123030662536621e-02,1.972032710909843445e-03,-1.053586974740028381e-02,-1.490866765379905701e-02,-1.472618989646434784e-02,-1.349179074168205261e-02,1.854574307799339294e-03,2.866338938474655151e-03,1.138761825859546661e-02,-2.770574763417243958e-03,-1.551968231797218323e-02,2.112260088324546814e-03,-2.501781657338142395e-02,-1.427766680717468262e-02,6.912663578987121582e-03,8.057467639446258545e-04,-4.748798906803131104e-03,-8.959323167800903320e-07,5.992384627461433411e-03,-2.445586025714874268e-03,-1.350890845060348511e-03,7.878536358475685120e-03,6.186263635754585266e-03,-1.822809129953384399e-02,-3.831351175904273987e-03,-1.972604542970657349e-03,2.503350377082824707e-03,7.143955677747726440e-03,1.315397769212722778e-02,-1.603576168417930603e-02,-1.107334345579147339e-02,1.569739356637001038e-02,-1.560639031231403351e-02,2.181379124522209167e-03,4.952596500515937805e-03,-7.008625194430351257e-03,-3.387769311666488647e-02,5.587819963693618774e-03,9.032579138875007629e-03,-2.093859016895294189e-02,3.559695929288864136e-02,3.284417092800140381e-03,-7.979098707437515259e-03,-3.558492287993431091e-03,2.959881536662578583e-02,6.115436553955078125e-04,-1.304725930094718933e-02,3.254471346735954285e-03,-4.443671554327011108e-03,-3.407456912100315094e-03,-1.008205860853195190e-02,1.146694645285606384e-02,6.655671447515487671e-02,-1.579673960804939270e-02,-1.592896133661270142e-02,4.193561151623725891e-03,1.593472436070442200e-03,-1.338406093418598175e-02,-1.536556892096996307e-02,2.022574469447135925e-02,2.821970731019973755e-03,1.139866933226585388e-02,3.244392573833465576e-03,-7.843551039695739746e-02,-6.762322038412094116e-03,-1.762328669428825378e-02,-4.579180851578712463e-03,1.122673973441123962e-03,-4.128074273467063904e-03,-1.037644967436790466e-02,2.640815451741218567e-02,-2.614710852503776550e-02,-1.464590430259704590e-03,8.091893047094345093e-02,2.885321713984012604e-02,1.347970589995384216e-02,-4.514385014772415161e-03,-4.332326352596282959e-05,-2.626081928610801697e-03,4.806257784366607666e-04,5.270898342132568359e-03,-5.518356338143348694e-03,7.417052984237670898e-06,6.725080311298370361e-03,-1.305859535932540894e-03,7.749820128083229065e-03,6.567429751157760620e-03,-2.664195373654365540e-03,-4.673037678003311157e-03,-1.541821286082267761e-02,3.151785582304000854e-03,-9.531177580356597900e-03,5.649121478199958801e-03,-6.114460527896881104e-03,-1.801173016428947449e-02,-3.875313326716423035e-03,4.195529967546463013e-03,-6.710635498166084290e-03,6.725316867232322693e-03,-5.816753953695297241e-03,2.130239270627498627e-02,-1.043330598622560501e-02,-1.552359759807586670e-02,4.732437431812286377e-02,6.717815995216369629e-05,-1.147319674491882324e-01,2.772826701402664185e-04,6.311856210231781006e-03,-2.969224192202091217e-02,3.805384039878845215e-06,3.273218870162963867e-03,5.515245720744132996e-04,3.082313016057014465e-02,-9.483154863119125366e-04,-7.700064778327941895e-02,-3.372632712125778198e-02,4.311028867959976196e-03,-1.640256121754646301e-02,-3.791479393839836121e-02,-4.735492169857025146e-03,-3.713800013065338135e-02,-3.037587180733680725e-02,-2.213323861360549927e-02,2.728614956140518188e-03,1.391255855560302734e-01,-6.057713180780410767e-04,-1.044017821550369263e-02,6.888138130307197571e-03,1.309532672166824341e-04,-8.359394967555999756e-03,-6.333820521831512451e-03,2.178038097918033600e-02,-4.652999341487884521e-03,7.696315646171569824e-03,5.224209278821945190e-03,9.806521236896514893e-03,-1.943933591246604919e-02,-2.525676041841506958e-02,-1.598328351974487305e-03,3.295019268989562988e-06,-1.982087083160877228e-02,-6.326571106910705566e-03,4.784891381859779358e-03,-2.050906419754028320e-02,6.941687315702438354e-03,7.445879280567169189e-03,-2.668218314647674561e-02,3.603645041584968567e-02,-1.872096955776214600e-02,-9.882790967822074890e-03,-3.343215957283973694e-02,6.125424057245254517e-03,2.106501162052154541e-02,9.289096295833587646e-02,7.778570055961608887e-03,6.221272051334381104e-04,1.030142419040203094e-02,-2.672981470823287964e-03,1.367189735174179077e-02,-2.657696604728698730e-03,2.013839781284332275e-03,3.609642386436462402e-03,-5.294986069202423096e-03,-1.355880498886108398e-02,2.886962145566940308e-03,4.947451874613761902e-03,-5.600083619356155396e-03,-1.910961046814918518e-02,1.296568661928176880e-04,5.387835204601287842e-03,-1.763698086142539978e-02,4.697026312351226807e-02,1.608734950423240662e-03,-8.321866393089294434e-03,-5.510581284761428833e-02,4.222642630338668823e-03,4.437869414687156677e-03,-1.333560794591903687e-04,-9.114213287830352783e-03,-4.064999520778656006e-03,4.729304462671279907e-03,-2.131623029708862305e-02,8.659543469548225403e-03,-8.822564035654067993e-03,-8.463550359010696411e-03,-2.926513180136680603e-02,-3.708831965923309326e-03,-1.403829455375671387e-02,1.233831048011779785e-02,9.826377034187316895e-03,-1.212360803037881851e-04,-3.002615645527839661e-03,5.886739119887351990e-03,1.062135025858879089e-02,1.750389114022254944e-03,-2.891145646572113037e-03,2.881085872650146484e-02,4.295259714126586914e-06,-2.288113161921501160e-02,-5.954299494624137878e-02,-1.812766864895820618e-02,-2.800940349698066711e-02,7.613098248839378357e-03,3.326784819364547729e-03,-2.755729481577873230e-02,-9.721041470766067505e-02,-3.662476316094398499e-03,-2.282340079545974731e-03,-3.608530014753341675e-02,4.137750715017318726e-03,1.089840941131114960e-02,-7.702904939651489258e-02,-1.022401079535484314e-02,2.278259024024009705e-03,7.841654121875762939e-02,-6.418332457542419434e-03,4.396874457597732544e-03,-2.119274437427520752e-02,4.738138988614082336e-03,1.154303550720214844e-02,2.182565629482269287e-02,-3.902871161699295044e-02,-1.572148874402046204e-03,-1.707053557038307190e-02,-2.008501440286636353e-03,-2.707305550575256348e-02,-2.572053857147693634e-02,-3.361649811267852783e-03,6.691297516226768494e-03,1.831166446208953857e-05,8.686767891049385071e-03,-2.139654383063316345e-02,1.875727623701095581e-02,4.780412465333938599e-02,-5.306416004896163940e-02,1.168217509984970093e-02,2.524510025978088379e-03,1.354047805070877075e-01,-1.655655913054943085e-02,7.252763956785202026e-03,-1.877206563949584961e-02,-1.381367817521095276e-02,-2.754956111311912537e-02,-2.208138629794120789e-02,8.537837304174900055e-03,-1.237073168158531189e-02,3.498217090964317322e-03,-2.926720306277275085e-03,6.894391030073165894e-03,-9.636849164962768555e-03,7.406625896692276001e-03,8.209095336496829987e-03,-8.465081453323364258e-03,-2.358390390872955322e-02,-7.683953270316123962e-03,-1.351404562592506409e-02,3.171414136886596680e-03,-1.217999495565891266e-02,1.714009791612625122e-03,7.742271572351455688e-02,1.864565163850784302e-02,-4.247814416885375977e-03,1.916887238621711731e-03,1.201745122671127319e-03,2.681910060346126556e-02,-2.684826590120792389e-02,-5.966084823012351990e-02,1.112410984933376312e-02,1.028258353471755981e-03,6.829604506492614746e-03,-4.831854254007339478e-03,8.242204785346984863e-06,1.145322248339653015e-02,-5.974255502223968506e-03,-5.395539104938507080e-03,8.475315570831298828e-02,-2.034453302621841431e-02,6.000660359859466553e-03,1.808647066354751587e-03,-5.312245339155197144e-03,-1.113143563270568848e-02,-9.342137724161148071e-03,-3.232487291097640991e-02,-3.153182566165924072e-03,4.377832636237144470e-03,1.873729750514030457e-03,-1.919772475957870483e-02,6.643682718276977539e-03,6.230697035789489746e-03,8.570378646254539490e-03,-1.635048538446426392e-02,3.719761967658996582e-02,-2.577595040202140808e-02,6.926953792572021484e-03,9.268160909414291382e-03,-4.567676410079002380e-02,-7.843200583010911942e-04,-6.254689767956733704e-03,-4.841785877943038940e-03,7.124703843146562576e-04,-1.224365606904029846e-01,2.224559150636196136e-02,1.024015620350837708e-02,3.829207271337509155e-04,1.058759167790412903e-03,2.977589145302772522e-03,9.589636325836181641e-02,1.563358753919601440e-01,1.285616680979728699e-02,-1.909463852643966675e-02,-1.397275924682617188e-02,5.365778505802154541e-02,-3.293545171618461609e-02,8.288770914077758789e-06,4.495127499103546143e-02,4.913020879030227661e-02,3.128997981548309326e-03,-2.158496156334877014e-02,2.893991768360137939e-05,6.824878510087728500e-03,-3.392021358013153076e-02,6.139116361737251282e-03,4.887115210294723511e-03,-5.490936338901519775e-03,1.063158735632896423e-02,-2.150020748376846313e-02,2.921819686889648438e-03,-3.338811919093132019e-03,5.183774977922439575e-03,-1.304896175861358643e-02,-7.661332190036773682e-02,1.337943784892559052e-02,-2.381208166480064392e-02,3.537040203809738159e-03,-4.480253905057907104e-03,-2.686047554016113281e-02,2.726799622178077698e-02,8.548436686396598816e-03,1.050465740263462067e-02,-2.892989665269851685e-03,-4.401393234729766846e-03,1.216121017932891846e-05,6.018469110131263733e-03,-1.952722854912281036e-02,4.015054553747177124e-03,1.176192983984947205e-02,-8.061174303293228149e-03,3.809550404548645020e-02,-4.663204029202461243e-02,-1.256811246275901794e-02,-4.029443114995956421e-02,-1.877500489354133606e-02,-1.946995593607425690e-02,-1.311104744672775269e-02,-5.832578986883163452e-02,-8.754067122936248779e-03,-6.421708315610885620e-02,-1.895954087376594543e-02,-1.682242378592491150e-03,-8.582137525081634521e-04,2.856275066733360291e-02,3.233373165130615234e-03,2.211369946599006653e-02,-1.057318970561027527e-02,3.165207803249359131e-03,1.316076703369617462e-02,-2.527728676795959473e-02,-3.936339169740676880e-03,7.443483918905258179e-03,-5.347667261958122253e-03,-1.836360991001129150e-02,-1.226342469453811646e-02,-2.155516296625137329e-03,3.582881763577461243e-03,-3.490436822175979614e-03,-2.374422736465930939e-02,2.200956456363201141e-03,-1.889986544847488403e-02,-4.847081005573272705e-02,-4.224536567926406860e-02,-2.418049238622188568e-02,-1.022674888372421265e-02,-8.233271539211273193e-03,1.648809574544429779e-02,-8.920613676309585571e-03,-4.162978380918502808e-03,-7.566280663013458252e-03,-6.520033627748489380e-02,-1.806550472974777222e-02,7.189121097326278687e-03,1.307103931903839111e-01,-2.784409746527671814e-02,2.747625857591629028e-02,-1.931465044617652893e-02,3.179699927568435669e-02,-2.769116871058940887e-02,1.352280378341674805e-06,-4.572257772088050842e-02,-3.454827517271041870e-02,7.441643625497817993e-03,1.479335129261016846e-03,8.929383009672164917e-03,-2.316917479038238525e-02,4.645249806344509125e-03,-1.683446019887924194e-02,3.011032566428184509e-02,-1.790719479322433472e-02,-5.920779705047607422e-02,-1.321332901716232300e-02,-9.229529649019241333e-03,7.737807929515838623e-03,-1.837040111422538757e-02,5.934618413448333740e-03,-4.027948155999183655e-02,-1.770807988941669464e-02,-8.888859301805496216e-03,2.282476052641868591e-03,-7.953491061925888062e-03,4.408450797200202942e-03,4.321379587054252625e-03,-3.187062591314315796e-02,-1.070352643728256226e-02,1.588760875165462494e-02,-3.830865025520324707e-04,1.754950731992721558e-03,1.985070854425430298e-02,-2.736656740307807922e-02,-1.699388399720191956e-02,4.176469519734382629e-03,-1.122939884662628174e-01,-1.003678888082504272e-02,-1.985123939812183380e-02,8.645083755254745483e-03,-2.415544539690017700e-02,-1.057320833206176758e-02,-1.434898003935813904e-02,8.754073642194271088e-03,-1.499751955270767212e-02,-3.589971736073493958e-02,-1.782783307135105133e-02,1.300277560949325562e-02,3.117132931947708130e-03,-3.677047789096832275e-04,-1.526803523302078247e-02,-1.875538565218448639e-02,-3.367774188518524170e-04,-1.457877270877361298e-02,-3.914443030953407288e-02,-1.084627211093902588e-02,-1.881456375122070312e-02,1.521715521812438965e-02,-2.314880862832069397e-02,-4.462850093841552734e-02,-1.750530302524566650e-02,-3.039287403225898743e-03,-4.904180765151977539e-03,5.217995494604110718e-03,-1.850289478898048401e-02,-4.069847986102104187e-03,-7.003810256719589233e-03,2.014309167861938477e-03,2.007568255066871643e-02,5.292784422636032104e-03,-1.069842055439949036e-01
7.624595612287521362e-02,1.335856616497039795e-01,1.856854371726512909e-02,7.766172289848327637e-02,1.129492372274398804e-01,8.994716405868530273e-02,2.074879221618175507e-02,5.556533858180046082e-02,4.560896754264831543e-02,4.374603927135467529e-02,2.418035641312599182e-02,-4.593444615602493286e-02,1.013969331979751587e-01,5.015347898006439209e-02,3.335652127861976624e-02,8.214721828699111938e-02,4.108560830354690552e-02,3.494606167078018188e-02,1.427574455738067627e-01,2.956573851406574249e-02,-1.964500546455383301e-01,-9.607511758804321289e-02,7.436188310384750366e-02,4.122018441557884216e-02,1.102387309074401855e-01,1.346004158258438110e-01,7.569932937622070312e-02,2.032374441623687744e-01,4.262748733162879944e-02,4.435929656028747559e-02,3.827677667140960693e-02,4.342807084321975708e-02,8.585056662559509277e-02,1.151308119297027588e-01,3.779584914445877075e-02,3.645073249936103821e-02,2.018671669065952301e-02,4.379775375127792358e-02,1.409322116523981094e-02,1.649309396743774414e-01,2.626565285027027130e-02,1.539837755262851715e-02,4.453808069229125977e-02,4.283008351922035217e-02,3.854891657829284668e-02,4.476637393236160278e-02,4.083943739533424377e-02,3.699354827404022217e-02,4.134937003254890442e-02,1.171502172946929932e-01,3.955588117241859436e-02,6.736484915018081665e-02,1.326070129871368408e-01,-1.289203763008117676e-01,1.579898595809936523e-02,3.614561632275581360e-02,4.394944757223129272e-02,1.548855192959308624e-02,3.701627254486083984e-02,3.335939347743988037e-02,4.194461554288864136e-02,2.654548175632953644e-02,1.169199347496032715e-01,4.911348223686218262e-02,4.171793162822723389e-02,1.241146028041839600e-01,1.419069916009902954e-01,4.179618880152702332e-02,3.461395576596260071e-02,3.204081207513809204e-02,3.801198303699493408e-02,1.100913062691688538e-01,1.514054741710424423e-02,7.935748994350433350e-02,9.636750817298889160e-02,3.007620014250278473e-02,5.222320929169654846e-02,4.544741660356521606e-02,1.568371504545211792e-01,1.016128808259963989e-01,2.764237672090530396e-02,3.421993553638458252e-02,1.931625977158546448e-02,3.853099793195724487e-02,1.271894574165344238e-01,2.362823113799095154e-02,3.941905871033668518e-02,8.471379056572914124e-03,-8.762434870004653931e-02,8.087699860334396362e-02,5.836188048124313354e-02,4.392749071121215820e-02,3.566516935825347900e-02,3.124532289803028107e-02,1.297783851623535156e-01,4.824038222432136536e-02,7.457845658063888550e-02,3.852061927318572998e-02,1.507144607603549957e-02,3.221324458718299866e-02,1.677261888980865479e-01,1.007146686315536499e-01,7.075569778680801392e-02,4.507476091384887695e-02,3.737213835120201111e-02,4.530080780386924744e-02,3.865528851747512817e-02,4.410978406667709351e-02,6.826481968164443970e-02,1.669017039239406586e-02,8.490075170993804932e-02,1.572689563035964966e-01,1.821709983050823212e-02,1.019250005483627319e-01,4.488079249858856201e-02,3.133486211299896240e-02,-3.095222637057304382e-02,9.659217298030853271e-02,4.406405985355377197e-02,2.709604054689407349e-02,3.372970968484878540e-02,4.038178920745849609e-02,2.368652820587158203e-02,3.571797162294387817e-02,3.719470277428627014e-02,3.916665539145469666e-02,2.531708776950836182e-02,8.643454313278198242e-02,2.617153525352478027e-02,2.732683345675468445e-02,4.096524044871330261e-02,1.911301165819168091e-02,-9.436849504709243774e-02,6.188881397247314453e-02,1.281390041112899780e-01,4.162204265594482422e-02,3.709772229194641113e-02,1.341978907585144043e-01,4.538636654615402222e-02,5.036890506744384766e-02,4.559987783432006836e-02,4.334625601768493652e-02,6.226573884487152100e-02,9.995398670434951782e-02,2.720224671065807343e-02,4.516264796257019043e-02,5.856723338365554810e-02,5.553236603736877441e-02,1.703048944473266602e-01,6.107128039002418518e-02,9.214363247156143188e-02,3.059452027082443237e-02,2.350030653178691864e-02,-1.348434239625930786e-01,1.158622354269027710e-01,3.856834024190902710e-02,4.071507602930068970e-02,1.512682139873504639e-01,-1.788355857133865356e-01,3.069894574582576752e-02,3.128218278288841248e-02,3.911036252975463867e-02,5.481357499957084656e-02,1.625276729464530945e-02,-4.100652784109115601e-02,4.553938657045364380e-02,4.567695409059524536e-02,1.076510697603225708e-01,3.714721277356147766e-02,3.511848300695419312e-02,1.556052174419164658e-02,3.732311725616455078e-02,5.109769850969314575e-02,8.558364212512969971e-02,-4.886613041162490845e-02,6.896204501390457153e-02,9.710450470447540283e-02,2.911208197474479675e-02,7.357844710350036621e-02,3.797970712184906006e-02,9.384904056787490845e-02,3.860235959291458130e-02,3.996844589710235596e-02,2.953352034091949463e-02,2.434247173368930817e-02,-1.945618987083435059e-01,2.464435063302516937e-02,4.503915831446647644e-02,1.602005660533905029e-01,1.862454563379287720e-01,3.746002912521362305e-02,6.467302143573760986e-02,3.675517812371253967e-02,8.554456382989883423e-02,3.888294473290443420e-02,4.043573141098022461e-02,1.052223742008209229e-01,3.935939073562622070e-02,1.570975631475448608e-01,3.798836097121238708e-02,3.316336870193481445e-02,2.857722714543342590e-02,5.468863993883132935e-02,8.445433527231216431e-02,1.857665032148361206e-01,3.804054856300354004e-02,4.405772686004638672e-02,2.929771505296230316e-02,6.976500153541564941e-02,1.894221305847167969e-01,1.768962480127811432e-02,3.344343602657318115e-02,7.980006933212280273e-02,3.873531147837638855e-02,7.151308655738830566e-02,4.376509040594100952e-02,-2.812096290290355682e-02,8.014590293169021606e-02,1.603774912655353546e-02,1.087269335985183716e-01,6.671515852212905884e-02,3.953802585601806641e-02,1.552218347787857056e-01,1.603273302316665649e-02,1.561282388865947723e-02,7.538022100925445557e-02,3.873095661401748657e-02,9.006560593843460083e-02,5.013301223516464233e-02,1.713307946920394897e-02,4.419680684804916382e-02,3.173889964818954468e-02,3.959468007087707520e-02,3.833041340112686157e-02,4.549493268132209778e-02,2.937265485525131226e-02,1.425059735774993896e-01,2.965197339653968811e-02,2.994739823043346405e-02,3.248274326324462891e-02,7.107060402631759644e-02,2.076670713722705841e-02,4.514270648360252380e-02,-1.450601369142532349e-01,-1.425071954727172852e-01,1.488671302795410156e-01,1.863345876336097717e-02,3.728107362985610962e-02,4.151980206370353699e-02,2.046538144350051880e-02,2.998485788702964783e-02,8.716382086277008057e-03,3.190495818853378296e-02,4.657543823122978210e-02,1.224807649850845337e-02,3.796194493770599365e-02,4.164135828614234924e-02,1.864221133291721344e-02,2.634821832180023193e-02,3.801028430461883545e-02,2.680988796055316925e-02,1.515620350837707520e-01,6.204863637685775757e-02,3.846810013055801392e-02,4.273997619748115540e-02,1.439164578914642334e-01,1.466988623142242432e-01,2.636930346488952637e-02,1.291698366403579712e-01,2.892393246293067932e-02,9.184542298316955566e-02,6.819655746221542358e-02,1.329785883426666260e-01,3.344589471817016602e-02,-4.359076917171478271e-02,8.504390716552734375e-02,1.894154585897922516e-02,3.066997975111007690e-02,2.967426553368568420e-02,4.169376567006111145e-02,-5.377487093210220337e-02,1.226224899291992188e-01,8.798448368906974792e-03,-5.754208564758300781e-02,2.955760061740875244e-02,3.649780526757240295e-02,3.986522555351257324e-02,8.863779157400131226e-02,8.359625935554504395e-02,2.076859027147293091e-02,3.401709347963333130e-02,2.874075621366500854e-02,2.690164744853973389e-02,1.366724371910095215e-01,2.799040824174880981e-02,2.578793838620185852e-02,5.241056531667709351e-02,3.201492130756378174e-02,1.657781004905700684e-01,4.787926748394966125e-02,4.626762866973876953e-02,2.991238795220851898e-02,1.838708370923995972e-01,2.485628053545951843e-02,4.049949347972869873e-02,8.589185774326324463e-03,-1.816076487302780151e-01,1.807004213333129883e-01,2.214249968528747559e-02,3.159683942794799805e-02,1.225188374519348145e-01,-2.750740759074687958e-02,4.902321100234985352e-02,4.097537696361541748e-02,2.753401361405849457e-02,5.104595422744750977e-02,1.694309413433074951e-01,4.008938372135162354e-02,2.312008291482925415e-02,2.719914540648460388e-02,2.627414464950561523e-01,-1.727355271577835083e-01,1.326306909322738647e-01,1.501536518335342407e-01,3.054381720721721649e-02,3.039772436022758484e-02,3.753033652901649475e-02,4.349234327673912048e-02,2.022570185363292694e-02,1.518889069557189941e-01,4.281335324048995972e-02,3.340156748890876770e-02,4.505674540996551514e-02,6.876029819250106812e-02,4.451148957014083862e-02,7.260335236787796021e-02,3.867325931787490845e-02,3.617142140865325928e-02,4.366214573383331299e-02,1.446405202150344849e-01,3.615700453519821167e-02,2.858725376427173615e-02,3.055736236274242401e-02,3.453741222620010376e-02,4.156747460365295410e-02,4.823330044746398926e-02,4.506045952439308167e-02,1.608694493770599365e-01,3.985698521137237549e-02,3.040765225887298584e-02,1.186971664428710938e-01,3.568968176841735840e-02,2.826480939984321594e-02,3.435222804546356201e-02,-4.037141427397727966e-02,3.536830097436904907e-02,3.114966675639152527e-02,3.992062807083129883e-02,3.868327662348747253e-02,4.212517291307449341e-02,4.330609366297721863e-02,4.130953550338745117e-02,4.374793544411659241e-02,3.923824056982994080e-02,4.690545052289962769e-02,4.460063576698303223e-02,1.164056807756423950e-01,4.463722184300422668e-02,2.775236032903194427e-02,9.303921833634376526e-03,3.101860918104648590e-02,5.493995547294616699e-02,4.664626717567443848e-02,1.200461238622665405e-01,1.525026559829711914e-01,2.350134029984474182e-02,3.881476819515228271e-02,2.189333550631999969e-02,1.886228099465370178e-02,1.654363237321376801e-02,6.555847078561782837e-02,3.330200910568237305e-02,4.229106754064559937e-02,4.213581979274749756e-02,2.860065177083015442e-02,4.109133034944534302e-02,1.237019747495651245e-01,4.403531551361083984e-02,9.440597891807556152e-02,3.561489656567573547e-02,2.243348769843578339e-02,1.936095021665096283e-02,-3.314303234219551086e-02,3.875701129436492920e-02,-1.312300413846969604e-01,1.381883770227432251e-01,2.279003337025642395e-02,1.003490015864372253e-02,5.489419400691986084e-02,3.058800101280212402e-02,1.855418384075164795e-01,3.684634715318679810e-02,2.670609392225742340e-02,3.388000279664993286e-02,4.070428758859634399e-02,5.101344734430313110e-02,2.317010052502155304e-02,4.092373698949813843e-02,3.390404582023620605e-02,3.958909586071968079e-02,1.212062090635299683e-01,2.356194518506526947e-02,3.398954868316650391e-02,3.071234561502933502e-02,-4.685036092996597290e-02,8.161651343107223511e-02,3.114608488976955414e-02,1.866615749895572662e-02,-1.296563744544982910e-01,4.823163896799087524e-02,4.167379438877105713e-02,1.180399581789970398e-01,1.060512438416481018e-01,2.304827980697154999e-02,7.668916881084442139e-02,8.552581071853637695e-03,7.119736075401306152e-02,8.732982724905014038e-02,5.003827810287475586e-02,3.355650976300239563e-02,7.473611831665039062e-02,5.031191185116767883e-02,4.702424257993698120e-02,3.777357935905456543e-02,4.644646123051643372e-02,3.614858165383338928e-02,6.761812418699264526e-02,6.186243146657943726e-03,1.108589768409729004e-01,3.931737318634986877e-02,2.986390888690948486e-02,4.334795102477073669e-02,2.930084057152271271e-02,3.413638100028038025e-03,4.860959947109222412e-02,4.565971344709396362e-02,3.901522234082221985e-02,4.196849465370178223e-02,4.674522578716278076e-02,8.191228657960891724e-02,3.716747462749481201e-02,4.534687474370002747e-02,2.260452136397361755e-02,4.206941276788711548e-02,3.755860403180122375e-02,1.814837008714675903e-02,3.957453370094299316e-02,3.157318383455276489e-02,2.538806758821010590e-02,9.730134904384613037e-02,3.771129995584487915e-02,4.899680614471435547e-02,4.161342605948448181e-02,1.090174317359924316e-01,1.423691306263208389e-02,7.648642361164093018e-02,4.144164174795150757e-02,9.472871571779251099e-02,6.649536639451980591e-02,1.301647573709487915e-01,3.997042775154113770e-02,3.790843859314918518e-02,5.041160434484481812e-02,8.796311914920806885e-02,4.887795075774192810e-02,2.886861190199851990e-02,-4.116615280508995056e-02,2.739420346915721893e-02,7.952809333801269531e-02,4.202390089631080627e-02,9.325896203517913818e-02,-3.844889998435974121e-02,6.255943328142166138e-03,3.612139075994491577e-02,3.000847995281219482e-02,1.972163170576095581e-01,4.898681491613388062e-02,3.004584088921546936e-02,7.251950353384017944e-02,2.750477939844131470e-02,4.347637668251991272e-02,4.249690845608711243e-02,-2.339383587241172791e-03,3.838394582271575928e-02,2.460754103958606720e-02,3.817368671298027039e-02,1.172095164656639099e-02,1.170196235179901123e-01,7.737292349338531494e-02,2.541299164295196533e-02,3.579996526241302490e-02,-1.559723615646362305e-01,2.493759244680404663e-02,3.422433137893676758e-02,2.198301814496517181e-02,-1.147408187389373779e-01,4.711336642503738403e-02,1.166364178061485291e-02,8.330319821834564209e-02,6.744004040956497192e-02,4.057183116674423218e-02,8.969704806804656982e-02,3.329077735543251038e-02,4.202278703451156616e-02,9.943921864032745361e-02,3.727606683969497681e-02,4.219808056950569153e-02,4.915780574083328247e-02,1.321391612291336060e-01,1.050849333405494690e-01,8.780918270349502563e-02,2.654277905821800232e-02,8.534231781959533691e-02,1.877665072679519653e-01,3.734874725341796875e-02,4.314909130334854126e-02,6.873719394207000732e-02,1.154038906097412109e-01,3.823648765683174133e-02,4.130963236093521118e-02,8.157664537429809570e-02,4.459901899099349976e-02,4.010298848152160645e-02,2.746749296784400940e-02,4.593291506171226501e-02,3.755194321274757385e-02,1.033354476094245911e-01,4.214504361152648926e-02,1.199050247669219971e-01,2.750799246132373810e-02,2.655437588691711426e-02,1.294583231210708618e-01,3.130621463060379028e-02,2.907626889646053314e-02,4.161708429455757141e-02,2.305432036519050598e-02,2.754093147814273834e-02,3.712470829486846924e-02,1.097331941127777100e-01,1.232407838106155396e-01,3.958958014845848083e-02,3.369545936584472656e-02,8.066312968730926514e-02,1.309051923453807831e-02,4.468543455004692078e-02,1.425747126340866089e-01,1.107454001903533936e-01,3.948620706796646118e-02,4.228628426790237427e-02,2.118111029267311096e-02,4.349086433649063110e-02,6.382095813751220703e-02,2.551685087382793427e-02,3.844579309225082397e-02,2.790488675236701965e-02,8.385394513607025146e-02,1.043038070201873779e-01,2.421948686242103577e-02,2.636318281292915344e-02,4.689931869506835938e-02,4.358900710940361023e-02,4.413901269435882568e-02,2.940762788057327271e-02,-2.122438848018646240e-01,3.933117538690567017e-02,1.275062561035156250e-01,4.911530390381813049e-02,3.313054889440536499e-02,4.578108713030815125e-02,5.028849095106124878e-02,2.864975295960903168e-02,3.320137411355972290e-02,1.227091252803802490e-01,4.031784087419509888e-02,7.199874520301818848e-02,3.381825983524322510e-02,8.180592209100723267e-02,3.852201625704765320e-02,4.715397953987121582e-02,-2.268961519002914429e-01,1.152351498603820801e-01,3.955758363008499146e-02,4.480803385376930237e-02,2.768002264201641083e-02,3.456778451800346375e-02,-1.714341789484024048e-01,3.395377099514007568e-02,3.029784560203552246e-02,3.932366520166397095e-02,3.571474179625511169e-02,3.879170119762420654e-02,9.679207950830459595e-02,5.189664661884307861e-02,2.292791381478309631e-02,3.000657260417938232e-02,8.769536763429641724e-02,8.841564878821372986e-03,2.507398277521133423e-02,1.276022046804428101e-01,3.505243360996246338e-02,-1.631449908018112183e-01,3.455917164683341980e-02,5.816221237182617188e-02,2.517341822385787964e-02,4.861458390951156616e-02,1.048862338066101074e-01,4.210512340068817139e-02,5.644662678241729736e-02,2.312475815415382385e-02,1.275511234998703003e-01,4.217957332730293274e-02,3.908107057213783264e-02,4.044337198138237000e-02,4.829666018486022949e-02,6.519237905740737915e-02,8.065086603164672852e-02,2.833747491240501404e-02,1.204442083835601807e-01,2.310921251773834229e-02,4.856507480144500732e-02,3.440404683351516724e-02,5.711950361728668213e-02,3.716404736042022705e-02,4.148617386817932129e-02,3.675488382577896118e-02,9.031268954277038574e-02,-9.709583222866058350e-02,2.783180773258209229e-02,8.845212310552597046e-02,4.059994220733642578e-02,3.386496752500534058e-02,5.280002206563949585e-02,3.061192110180854797e-02,1.091992408037185669e-01,8.620772510766983032e-03,2.365145273506641388e-02,2.932203933596611023e-02,9.656208567321300507e-03,3.245849534869194031e-02,3.718026354908943176e-02,1.032165437936782837e-02,1.258194912225008011e-02,3.440815955400466919e-02,2.606389485299587250e-02,3.328494727611541748e-02,3.988311439752578735e-02,3.461847081780433655e-02,1.041965186595916748e-01,1.550245881080627441e-01,3.304468467831611633e-02,6.764563918113708496e-02,6.882277876138687134e-02,5.616991966962814331e-02,4.385317116975784302e-02,4.376839846372604370e-02,8.191588521003723145e-02,1.373268067836761475e-01,4.081529751420021057e-02,4.193053394556045532e-02,4.071815684437751770e-02,3.399202972650527954e-02,3.464984893798828125e-02,7.937490940093994141e-02,4.780934005975723267e-02,1.370258629322052002e-01,2.817616611719131470e-02,4.147741198539733887e-02,4.690860584378242493e-02,4.150998592376708984e-02,9.552747011184692383e-02,4.081192985177040100e-02,3.992654383182525635e-02,1.391092240810394287e-01,4.692944884300231934e-02,2.289206162095069885e-02,6.949838995933532715e-02,-3.478007018566131592e-02,1.207628101110458374e-01,2.139427661895751953e-01,4.922346025705337524e-02,-2.089485228061676025e-01,3.314882516860961914e-02,3.773090988397598267e-02,4.279933124780654907e-02,1.926467120647430420e-01,1.007210016250610352e-01,4.974450543522834778e-02,1.664284467697143555e-01,1.522535681724548340e-01,1.311639547348022461e-01,1.138742417097091675e-01,4.210037738084793091e-02,1.721575483679771423e-02,8.313901722431182861e-02,3.009126149117946625e-02,3.785771131515502930e-02,2.363303676247596741e-02,-1.740549057722091675e-01,2.162134461104869843e-02,7.073903083801269531e-02,3.042399883270263672e-02,3.760750591754913330e-02,4.236266016960144043e-02,-1.929351389408111572e-01,4.336021840572357178e-02,1.422642767429351807e-01,3.663191944360733032e-02,9.458629786968231201e-02,3.622554987668991089e-02,2.156979031860828400e-02,1.240793913602828979e-01,2.706651762127876282e-02,1.028411835432052612e-01,1.431036293506622314e-01,5.419803783297538757e-02,4.247943311929702759e-02,3.256324306130409241e-02,4.710336402058601379e-02,3.251114860177040100e-02,2.951387129724025726e-02,3.546090424060821533e-02,6.422590464353561401e-02,1.287741661071777344e-01,2.972861006855964661e-02,9.635679423809051514e-02,-3.656665235757827759e-02,1.087984889745712280e-01,1.546934098005294800e-01,4.043073952198028564e-02,3.943853080272674561e-02,5.126179009675979614e-02,3.513231873512268066e-02,6.670699268579483032e-02,7.486185431480407715e-02,-4.338461160659790039e-02,4.397085681557655334e-02,3.242357820272445679e-02,2.643507346510887146e-02,8.563020080327987671e-02,3.457279130816459656e-02,3.989136964082717896e-02,8.944901823997497559e-02,1.261130273342132568e-01,9.233412146568298340e-02,4.402972757816314697e-02,3.897136449813842773e-02,2.037481069564819336e-01,-4.588098824024200439e-02,4.867854714393615723e-02,3.006071969866752625e-02,8.759796619415283203e-02,1.458006948232650757e-01,5.218102037906646729e-02,5.431858450174331665e-02,4.122573882341384888e-02,2.006646990776062012e-02,-2.077468484640121460e-01,2.658453397452831268e-02,-1.390065550804138184e-01,3.908065706491470337e-02,3.060041368007659912e-02,2.056436426937580109e-02,4.233304411172866821e-02,6.244550272822380066e-02,2.279782854020595551e-02,3.742959722876548767e-02,1.095545366406440735e-01,1.073648184537887573e-01,-4.432874172925949097e-02,1.053115427494049072e-01,3.241747245192527771e-02,2.068717405200004578e-02,3.406859189271926880e-02,5.016577243804931641e-02,3.702858090400695801e-02,1.411917358636856079e-01,3.907738253474235535e-02,2.649702318012714386e-02,1.479827165603637695e-01,3.574796020984649658e-02,4.739114642143249512e-02,7.110454142093658447e-02,3.914058953523635864e-02,2.894775941967964172e-02,3.714523836970329285e-02,-9.342820942401885986e-02,1.720080077648162842e-01,1.316299140453338623e-01,4.988675564527511597e-02,4.270899295806884766e-02,2.392662502825260162e-02,4.999142140150070190e-02,2.040141075849533081e-02,4.050688073039054871e-02,2.752988226711750031e-02,3.776688128709793091e-02,7.019779086112976074e-02,1.417835243046283722e-02,3.847994655370712280e-02,6.629218161106109619e-02,1.212317124009132385e-01,2.406300418078899384e-02,1.080381870269775391e-01,1.876938939094543457e-01,3.452371805906295776e-02,5.503717437386512756e-02,1.144237443804740906e-01,8.079145103693008423e-02,3.975963220000267029e-02,6.751681864261627197e-02,3.977896645665168762e-02,3.574912995100021362e-02,2.585271000862121582e-02,3.784711658954620361e-02,3.278797119855880737e-02,3.752804547548294067e-02,2.240883000195026398e-02,4.694851487874984741e-02,9.551918506622314453e-02,4.105617851018905640e-02,3.858846798539161682e-02,-3.568844869732856750e-02,3.471261635422706604e-02,6.379286199808120728e-02,5.072955414652824402e-02,3.161792084574699402e-02,6.360496580600738525e-02,2.331992797553539276e-02,3.780923038721084595e-02,3.475121408700942993e-02,3.195316344499588013e-02,3.979800641536712646e-02,4.990116506814956665e-02,9.208488464355468750e-02,3.800515830516815186e-02,1.073181107640266418e-01,1.074490025639533997e-01,3.730722516775131226e-02,1.288056969642639160e-01,2.332787029445171356e-02,3.360943496227264404e-02,1.556079387664794922e-01,1.124488860368728638e-01,2.569814771413803101e-02,3.289298713207244873e-02,3.385038673877716064e-02,1.645515486598014832e-02,3.940902650356292725e-02,4.066029191017150879e-02,1.178521960973739624e-01,3.565464168787002563e-02,1.328195929527282715e-01,1.799453496932983398e-01,2.779273688793182373e-02,3.912743553519248962e-02,1.678794324398040771e-01,-5.175310000777244568e-02,8.714053779840469360e-03,9.779541194438934326e-02,3.495085239410400391e-02,1.133525669574737549e-01,1.323645114898681641e-01,8.548688143491744995e-03,3.832752257585525513e-02,4.447672888636589050e-02,4.390482231974601746e-02,1.576493084430694580e-01,4.339630901813507080e-02,3.848484903573989868e-02,3.420302271842956543e-02,4.260978102684020996e-02,3.704430907964706421e-02,8.942919224500656128e-02,3.040886670351028442e-02,4.193617403507232666e-02,1.153439581394195557e-01,3.637251257896423340e-02,1.012970283627510071e-01,2.974422834813594818e-02,6.817652285099029541e-02,1.789926178753376007e-02,3.715704381465911865e-02,3.349288552999496460e-02,2.477440237998962402e-02,-1.817587465047836304e-01,1.774672046303749084e-02,4.528515785932540894e-02,3.994178026914596558e-02,4.436196759343147278e-02,9.255862236022949219e-02,4.013304412364959717e-02,3.011300973594188690e-02,5.546613782644271851e-02,1.253364831209182739e-01,3.866418078541755676e-02,4.802318289875984192e-02,2.346481010317802429e-02,1.285855472087860107e-01,4.756572842597961426e-02,4.241020232439041138e-02,4.028603062033653259e-02,2.402888797223567963e-02,3.020107001066207886e-02,1.300740689039230347e-01,-5.772972106933593750e-02,1.046061329543590546e-02,3.500259667634963989e-02,8.770316839218139648e-02,4.388163983821868896e-02,-1.299685984849929810e-01,7.121323794126510620e-02,7.461154460906982422e-02,1.530658900737762451e-01,-9.033705294132232666e-02,2.563751116394996643e-02,-1.840593218803405762e-01,5.637145414948463440e-02,1.850420236587524414e-02,9.511791169643402100e-03,1.002936884760856628e-01,6.649471819400787354e-03,8.847128599882125854e-02,2.073935605585575104e-02,1.906810328364372253e-02,1.143079251050949097e-01,4.361466318368911743e-02,3.965499252080917358e-02,4.102016985416412354e-02,7.648292928934097290e-02,2.704507857561111450e-02,9.931378066539764404e-02,2.498687803745269775e-02,1.357680708169937134e-01,2.007304280996322632e-01,-2.246076315641403198e-01,8.437265455722808838e-02,3.391301631927490234e-02,1.926957443356513977e-02,3.343478590250015259e-02,3.707307949662208557e-02,7.652389258146286011e-02,1.775944232940673828e-02,-1.869642138481140137e-01,4.923962056636810303e-02,4.255333170294761658e-02,4.519841074943542480e-02,1.598270833492279053e-01,5.657910555601119995e-02,2.652226760983467102e-02,2.083349041640758514e-02,1.243852525949478149e-01,2.333243563771247864e-02,3.581489622592926025e-02,1.610517874360084534e-02,3.890739381313323975e-02,1.146717090159654617e-02,-1.450483053922653198e-01,5.349697917699813843e-02,4.270679503679275513e-02,3.584016859531402588e-02,8.561939746141433716e-02,8.275425434112548828e-02,2.715362608432769775e-02,9.646528959274291992e-02,2.749174460768699646e-02,3.913171216845512390e-02,4.581499099731445312e-02,3.269802033901214600e-02,3.415463492274284363e-02,1.350209712982177734e-01,3.727380186319351196e-02,1.866131275892257690e-02,7.961911708116531372e-02,9.697551839053630829e-03,1.108675897121429443e-01,5.278546735644340515e-02,1.235468238592147827e-01,4.370127990841865540e-02,4.757553711533546448e-02,1.744836568832397461e-01,6.223533302545547485e-02,7.086123526096343994e-02,3.894298151135444641e-02,9.814716875553131104e-02,4.710271209478378296e-02,8.146749436855316162e-02,2.561173774302005768e-02,2.448754757642745972e-02,3.724187612533569336e-02,8.520838804543018341e-03
-7.048249244689941406e-06,3.241242468357086182e-02,1.490116119384765625e-06,-4.198402166366577148e-06,2.459680102765560150e-02,-9.387731552124023438e-07,-1.086480915546417236e-05,-4.512257874011993408e-06,1.485922280699014664e-02,1.160620432347059250e-02,5.139037966728210449e-06,-2.433947660028934479e-02,3.491884097456932068e-02,3.216769546270370483e-04,1.280187442898750305e-02,-8.255243301391601562e-06,1.181395165622234344e-02,1.872547715902328491e-02,3.590448200702667236e-02,-9.462237358093261719e-07,-1.055505126714706421e-01,3.286305814981460571e-02,-5.338080227375030518e-04,1.983033306896686554e-02,7.979571819305419922e-06,-7.547438144683837891e-06,6.321817636489868164e-06,1.379824876785278320e-01,9.538445621728897095e-03,8.392740041017532349e-03,1.644269004464149475e-02,5.925987288355827332e-02,-2.139942348003387451e-02,1.532211899757385254e-05,2.462043985724449158e-02,-6.199348717927932739e-06,3.162521123886108398e-02,1.162279397249221802e-02,2.994202077388763428e-06,6.262707710266113281e-02,2.548717521131038666e-02,2.623535692691802979e-06,6.689677014946937561e-03,1.336397416889667511e-02,1.475897058844566345e-02,3.390014171600341797e-05,1.359251514077186584e-02,-4.191772546619176865e-03,6.398490071296691895e-02,-1.585630699992179871e-02,1.305644772946834564e-02,3.590378910303115845e-04,5.440874025225639343e-02,-1.627782732248306274e-02,-2.471730113029479980e-06,2.434056252241134644e-02,5.319416522979736328e-04,1.918380521237850189e-02,1.575604081153869629e-02,2.158436551690101624e-02,1.060060970485210419e-02,-8.283648639917373657e-06,8.875530213117599487e-03,3.617089241743087769e-04,1.189436204731464386e-02,-2.738395705819129944e-02,7.069901376962661743e-02,2.427385747432708740e-02,1.521625928580760956e-02,-4.076864570379257202e-06,-4.300847649574279785e-06,1.877546310424804688e-06,1.419324241578578949e-02,3.325894474983215332e-03,3.067845851182937622e-02,1.242038793861865997e-02,1.391405798494815826e-02,2.749454416334629059e-02,7.900214195251464844e-02,1.637155190110206604e-02,-1.033728010952472687e-03,1.834905706346035004e-02,3.326684236526489258e-06,9.521676227450370789e-03,4.359550774097442627e-03,4.969537258148193359e-06,6.030028685927391052e-03,2.221709117293357849e-03,-8.167419582605361938e-05,-8.975341916084289551e-05,1.516379415988922119e-05,9.668461978435516357e-03,2.310244366526603699e-02,1.441282033920288086e-02,-4.972152411937713623e-03,-1.071300357580184937e-05,2.299436554312705994e-02,1.413759402930736542e-02,-7.221824489533901215e-06,-1.314757391810417175e-04,6.369610130786895752e-02,2.629169076681137085e-02,5.921348929405212402e-06,-7.953494787216186523e-07,2.605385705828666687e-02,1.595748402178287506e-02,1.320760883390903473e-02,9.965160861611366272e-03,7.482245564460754395e-06,-3.954395651817321777e-06,-7.776178419589996338e-03,5.105927586555480957e-02,6.984919309616088867e-07,1.873354241251945496e-02,-4.060259088873863220e-04,2.337335608899593353e-02,-5.407015234231948853e-02,6.500224769115447998e-02,1.903130486607551575e-02,4.535540938377380371e-07,2.698246389627456665e-02,2.066328562796115875e-02,1.989994198083877563e-03,5.369437858462333679e-03,1.843457855284214020e-02,1.682321913540363312e-02,-8.735805749893188477e-07,2.317130565643310547e-06,1.528300344944000244e-06,-4.395842552185058594e-07,1.786847412586212158e-02,3.864869102835655212e-02,3.286731243133544922e-02,5.042180418968200684e-06,2.377852797508239746e-05,1.294864900410175323e-02,2.179063670337200165e-02,3.674081712961196899e-02,3.349035978317260742e-06,1.942654326558113098e-02,6.400702521204948425e-03,1.434478349983692169e-02,2.717623487114906311e-03,4.033909738063812256e-02,3.862194716930389404e-06,-1.833068206906318665e-03,1.961924135684967041e-05,1.455380581319332123e-02,9.465479105710983276e-02,1.288421824574470520e-02,3.663865476846694946e-02,1.954915374517440796e-02,-6.379559636116027832e-06,9.041089564561843872e-03,3.404216840863227844e-02,2.361101657152175903e-02,9.454747661948204041e-03,3.888259083032608032e-02,-5.261135846376419067e-02,1.192983239889144897e-02,8.069910109043121338e-07,-5.250796675682067871e-06,7.336743175983428955e-03,-4.461035132408142090e-07,-1.457020267844200134e-02,3.079734742641448975e-04,1.328619103878736496e-02,4.128058254718780518e-02,1.906955614686012268e-02,1.516658812761306763e-02,-4.096888005733489990e-06,1.586717180907726288e-02,1.803460344672203064e-02,-6.854534149169921875e-07,-2.353814058005809784e-02,1.082836091518402100e-02,5.460389330983161926e-02,-8.989269845187664032e-04,-4.015862941741943359e-06,1.309995166957378387e-02,-9.641051292419433594e-06,1.669805310666561127e-02,1.865018531680107117e-02,-1.017539761960506439e-05,-4.086643457412719727e-06,-8.507587015628814697e-02,5.573034286499023438e-06,1.165445894002914429e-03,8.554045110940933228e-02,1.420789062976837158e-01,9.678862988948822021e-05,1.147234439849853516e-02,2.025254629552364349e-02,2.756375074386596680e-02,-5.887821316719055176e-06,1.369275152683258057e-02,-6.131827831268310547e-06,1.554843224585056305e-02,6.530283391475677490e-02,1.315204240381717682e-02,-2.287561073899269104e-07,1.169582270085811615e-02,-5.646292120218276978e-04,-2.946704626083374023e-06,1.500435173511505127e-01,2.305386587977409363e-03,1.149019412696361542e-02,-7.850583642721176147e-06,6.144568324089050293e-03,7.794709503650665283e-02,-9.732320904731750488e-07,2.418971806764602661e-02,1.441687345504760742e-06,1.202419586479663849e-02,1.606345176696777344e-05,-5.184328649193048477e-03,-7.150912191718816757e-03,7.551163434982299805e-06,1.192092895507812500e-06,4.396480321884155273e-02,6.475416943430900574e-03,1.574860699474811554e-02,-6.446982920169830322e-02,-5.745328962802886963e-06,-6.681308150291442871e-06,-4.053115844726562500e-06,1.773097738623619080e-02,-1.080048643052577972e-02,1.705336943268775940e-02,1.141801476478576660e-05,2.474531531333923340e-02,1.322466880083084106e-02,1.154792401939630508e-02,1.315782964229583740e-02,1.456367317587137222e-02,2.433035895228385925e-02,-9.648501873016357422e-06,-3.386681899428367615e-03,1.848290860652923584e-02,5.177382379770278931e-03,-6.327405571937561035e-06,5.078098177909851074e-02,6.788352504372596741e-03,-4.178225994110107422e-02,-4.947879910469055176e-02,-3.819167613983154297e-05,-2.230517566204071045e-06,-1.075677573680877686e-06,2.567317336797714233e-02,-1.434143632650375366e-05,4.710611701011657715e-02,3.744684159755706787e-02,-2.272427082061767578e-06,-1.602619886398315430e-05,-2.024136483669281006e-05,1.971933059394359589e-02,1.016631722450256348e-05,4.207258298993110657e-02,-8.198230527341365814e-03,1.904948800802230835e-02,-1.439543440937995911e-03,-2.045607566833496094e-02,-1.421198248863220215e-06,1.919337734580039978e-02,1.263733021914958954e-02,2.436339855194091797e-06,3.019720315933227539e-05,-1.004589721560478210e-03,1.104590296745300293e-02,-4.048459231853485107e-06,-7.540058344602584839e-03,-3.784894943237304688e-06,-1.105666160583496094e-05,1.069470308721065521e-02,-3.533830493688583374e-02,-1.267883926630020142e-03,1.651607453823089600e-05,-2.486865036189556122e-03,-4.644971340894699097e-06,1.112322509288787842e-02,-1.812267117202281952e-02,-3.680586814880371094e-06,4.665460437536239624e-06,-4.256260022521018982e-02,-1.258216798305511475e-06,-3.098510205745697021e-06,-9.901821613311767578e-06,4.338875412940979004e-02,6.534159183502197266e-06,-1.193105708807706833e-05,-7.742094807326793671e-03,1.045416947454214096e-02,-9.306706488132476807e-06,-1.507252454757690430e-05,-6.457790732383728027e-06,5.407258868217468262e-06,1.208269316703081131e-02,2.089457213878631592e-02,-1.301831752061843872e-02,1.362892985343933105e-02,-8.990988135337829590e-06,-5.278736352920532227e-06,1.191487088799476624e-01,1.934356987476348877e-06,1.509176939725875854e-02,-9.367242455482482910e-06,-1.056711226701736450e-01,9.498888999223709106e-02,-3.706663846969604492e-06,2.120101079344749451e-02,3.489387780427932739e-02,-8.438527584075927734e-03,1.544147171080112457e-02,1.227406784892082214e-02,-3.752838820219039917e-04,1.923679932951927185e-02,9.238763153553009033e-02,2.030420117080211639e-02,2.872433513402938843e-03,6.461037695407867432e-02,-1.461749672889709473e-01,-5.318206548690795898e-02,2.367794886231422424e-02,4.295074194669723511e-02,9.388361126184463501e-03,-1.616853289306163788e-03,1.790097728371620178e-02,1.550359930843114853e-02,5.716457962989807129e-06,1.343697309494018555e-02,9.585442021489143372e-03,1.198638789355754852e-02,-1.071393489837646484e-05,1.327403634786605835e-02,7.721748203039169312e-03,5.334615707397460938e-06,1.370393484830856323e-02,2.128796093165874481e-02,1.681968569755554199e-06,6.020671129226684570e-02,5.786686204373836517e-03,7.942318916320800781e-06,-2.793881576508283615e-03,-3.942754119634628296e-06,1.469050906598567963e-02,1.828583702445030212e-02,1.661179214715957642e-02,1.037648469209671021e-01,1.355369202792644501e-02,1.686471886932849884e-02,1.472234725952148438e-05,2.449120953679084778e-02,-5.735550075769424438e-06,1.754299551248550415e-02,-2.312633022665977478e-02,-4.066620022058486938e-06,-6.398011464625597000e-06,1.950655505061149597e-02,2.411264553666114807e-02,1.497878506779670715e-02,1.567853987216949463e-02,1.104134321212768555e-02,1.999974995851516724e-02,1.575343869626522064e-02,-9.318813681602478027e-06,-3.695487976074218750e-06,2.362845465540885925e-02,-3.000721335411071777e-06,-5.677393637597560883e-04,-6.958842277526855469e-06,-2.001446206122636795e-03,1.398010645061731339e-02,1.764920726418495178e-02,1.401683315634727478e-02,-8.814036846160888672e-06,-4.566740244626998901e-06,1.898529008030891418e-03,-6.298068910837173462e-06,-6.266403943300247192e-06,-1.558917574584484100e-06,1.113675534725189209e-05,-8.808448910713195801e-06,1.361179351806640625e-02,4.716796800494194031e-03,1.295432075858116150e-02,5.898997187614440918e-06,1.320242881774902344e-05,1.730132102966308594e-02,-7.864087820053100586e-06,1.953251287341117859e-02,-1.510418951511383057e-05,3.969341889023780823e-02,-1.310280058532953262e-02,2.113756164908409119e-02,3.181180730462074280e-02,3.776253014802932739e-02,5.193054676055908203e-06,2.557817474007606506e-02,1.452056132256984711e-02,-2.278903033584356308e-03,6.919471919536590576e-02,1.783583126962184906e-02,4.380049556493759155e-02,1.038627512753009796e-02,1.587807945907115936e-02,2.065444923937320709e-02,-8.112750947475433350e-06,1.330128498375415802e-02,2.016218751668930054e-02,-1.052394509315490723e-05,5.193257331848144531e-02,2.121394500136375427e-02,2.573682554066181183e-02,-2.972405403852462769e-03,-1.564684323966503143e-02,-7.124617695808410645e-06,7.729977369308471680e-07,-5.312263965606689453e-06,4.004583880305290222e-02,1.833803206682205200e-02,7.635984569787979126e-03,1.215562224388122559e-05,1.223995536565780640e-02,-1.642853021621704102e-06,2.974595129489898682e-02,2.032788097858428955e-02,5.948945134878158569e-02,-1.362711191177368164e-05,1.766609027981758118e-02,2.279933914542198181e-02,-4.501640796661376953e-05,-4.758459981530904770e-03,3.030289337038993835e-02,1.108768768608570099e-02,1.802974194288253784e-02,1.115074753761291504e-02,-8.031725883483886719e-06,3.179789334535598755e-02,6.188366189599037170e-02,2.292660623788833618e-02,-1.379847526550292969e-05,1.683037355542182922e-02,3.983936458826065063e-02,-7.065129466354846954e-06,1.537494547665119171e-02,2.151355147361755371e-05,2.625293284654617310e-02,1.984251476824283600e-02,1.347926072776317596e-02,-5.239620804786682129e-06,2.125267125666141510e-02,-5.226931534707546234e-04,-9.840819984674453735e-06,2.590631321072578430e-02,1.692332141101360321e-02,7.054516114294528961e-03,4.435536637902259827e-02,-2.525746822357177734e-06,1.318551786243915558e-02,-7.797032594680786133e-06,1.793464273214340210e-02,-2.384185791015625000e-06,2.775166742503643036e-02,-3.576278686523437500e-06,-7.885158993303775787e-06,1.043938100337982178e-03,2.124848030507564545e-02,-4.075467586517333984e-06,1.439249143004417419e-02,3.935391828417778015e-02,1.185899786651134491e-02,1.812498643994331360e-02,1.490674912929534912e-05,-3.459256142377853394e-03,1.630325056612491608e-02,-7.154420018196105957e-06,-1.409904006868600845e-02,7.805894128978252411e-03,1.117330044507980347e-03,1.433144044131040573e-02,-3.973320126533508301e-04,-1.525240018963813782e-02,5.766067281365394592e-02,4.827462136745452881e-02,3.640460781753063202e-03,1.135458201169967651e-01,1.871353201568126678e-02,-1.287087798118591309e-06,4.736706614494323730e-06,-5.634501576423645020e-07,5.905430763959884644e-03,1.128998212516307831e-02,-2.899741753935813904e-02,2.561263740062713623e-02,2.176351100206375122e-02,2.208207547664642334e-02,1.138076186180114746e-06,2.851220592856407166e-02,-3.630295395851135254e-06,2.416380122303962708e-02,1.904731057584285736e-02,-4.845658317208290100e-02,8.774792775511741638e-03,2.397885546088218689e-03,4.615634679794311523e-06,3.144990652799606323e-03,-1.181494444608688354e-03,-5.975365638732910156e-06,9.436160326004028320e-06,9.891707450151443481e-04,1.013623736798763275e-02,2.359528094530105591e-02,-9.608404710888862610e-03,1.688443310558795929e-02,7.130205631256103516e-06,2.023642696440219879e-02,1.140744239091873169e-02,-1.749768853187561035e-05,3.266461193561553955e-02,2.403743192553520203e-02,-1.844334602355957031e-02,-5.696900188922882080e-06,1.981407776474952698e-02,1.049578189849853516e-01,2.293309010565280914e-02,5.558300763368606567e-04,4.374627023935317993e-04,4.660230129957199097e-02,2.036141604185104370e-02,1.631433330476284027e-02,6.894021481275558472e-02,2.428069710731506348e-03,1.116552576422691345e-02,-8.642673492431640625e-06,1.842862553894519806e-02,2.337293513119220734e-02,6.828057020902633667e-02,1.504855323582887650e-02,3.359178453683853149e-02,-3.084540367126464844e-06,-3.406777977943420410e-06,8.122511208057403564e-04,1.786076836287975311e-02,-2.337824553251266479e-04,2.144700661301612854e-02,1.408807933330535889e-03,4.456691443920135498e-03,1.534020062536001205e-02,1.210719347000122070e-06,5.154246836900711060e-02,1.603304594755172729e-02,9.194023907184600830e-03,2.081646397709846497e-02,-6.075948476791381836e-06,1.264710538089275360e-02,2.379106730222702026e-02,5.830079317092895508e-06,1.074562408030033112e-02,7.575346156954765320e-03,-8.131377398967742920e-06,1.434646733105182648e-02,3.155283629894256592e-04,1.037523243576288223e-02,1.434249803423881531e-02,2.862885594367980957e-06,4.003016278147697449e-02,-5.908310413360595703e-06,3.256885707378387451e-02,3.723427653312683105e-06,1.172515843063592911e-02,9.639283642172813416e-03,1.094907056540250778e-02,-1.790933310985565186e-06,-1.102100089192390442e-01,1.945833303034305573e-02,4.851531237363815308e-02,-5.042180418968200684e-06,2.524880692362785339e-02,1.677740179002285004e-02,1.966170966625213623e-02,6.692044436931610107e-02,1.305734179913997650e-02,5.003064870834350586e-06,1.749005541205406189e-02,1.127899065613746643e-02,-4.479414783418178558e-03,7.640570402145385742e-06,3.623277693986892700e-02,1.326575875282287598e-05,-9.523177146911621094e-02,4.054852575063705444e-02,1.637699827551841736e-02,-8.055940270423889160e-06,-3.760680556297302246e-06,-1.157892681658267975e-02,-5.556292086839675903e-02,1.235844939947128296e-02,1.656462252140045166e-02,1.951141841709613800e-02,-5.531124770641326904e-06,1.498162094503641129e-02,6.675720214843750000e-06,1.795525290071964264e-02,8.232891559600830078e-06,-3.486312692984938622e-03,2.037361264228820801e-05,4.731427878141403198e-02,-3.921799361705780029e-06,3.431737422943115234e-05,-3.151595592498779297e-06,-5.134448409080505371e-02,2.391628921031951904e-02,1.614484935998916626e-04,9.311750531196594238e-03,1.698276400566101074e-02,-2.501532435417175293e-05,4.714166745543479919e-03,1.132950745522975922e-02,9.391456842422485352e-06,-7.949769496917724609e-06,1.409490872174501419e-02,1.957983896136283875e-02,1.143882144242525101e-02,1.039269939064979553e-02,1.154581084847450256e-02,6.337501108646392822e-04,-8.175354450941085815e-04,2.619211748242378235e-02,2.393543720245361328e-02,2.412039972841739655e-02,-5.357898771762847900e-06,2.027519047260284424e-03,1.910371147096157074e-02,1.487347111105918884e-02,1.829081214964389801e-02,-5.614012479782104492e-06,-1.688636280596256256e-02,2.103791572153568268e-03,3.955335542559623718e-02,9.523704648017883301e-06,1.856184378266334534e-02,9.955838322639465332e-07,-4.020161926746368408e-03,-4.742294549942016602e-06,-2.388376742601394653e-06,3.479314967989921570e-03,1.437070779502391815e-02,-1.107994467020034790e-05,6.027843803167343140e-02,7.505511865019798279e-03,-2.283602952957153320e-06,-4.076398909091949463e-06,1.823920756578445435e-03,-1.544132828712463379e-06,-1.215410884469747543e-05,1.095481403172016144e-02,-7.599592208862304688e-06,6.738519668579101562e-02,7.954201847314834595e-02,1.669649966061115265e-02,2.578273415565490723e-05,6.310965865850448608e-03,1.229718327522277832e-05,1.424213219434022903e-02,1.085683051496744156e-02,6.441911682486534119e-03,2.783581987023353577e-02,4.644093662500381470e-02,1.054929569363594055e-03,1.692762784659862518e-02,2.974672056734561920e-02,2.459868974983692169e-02,4.470348358154296875e-08,-1.587253063917160034e-05,-8.195638656616210938e-08,4.834430292248725891e-03,1.225911453366279602e-02,1.389677822589874268e-02,1.256519928574562073e-02,2.068004198372364044e-02,1.113899610936641693e-02,1.728575117886066437e-02,5.829788371920585632e-02,-5.435198545455932617e-06,-4.535540938377380371e-07,-2.481304109096527100e-04,-1.411620527505874634e-02,-2.075731754302978516e-05,1.569625735282897949e-01,-2.123415470123291016e-06,-1.057337373495101929e-01,4.868058487772941589e-03,1.818308606743812561e-02,8.358256891369819641e-03,9.066672623157501221e-02,-1.937089115381240845e-02,1.265141367912292480e-02,4.148304834961891174e-02,5.576034635305404663e-02,4.134198650717735291e-02,1.897811889648437500e-04,1.048066653311252594e-02,-2.657994627952575684e-06,6.545658409595489502e-02,1.747827418148517609e-02,2.027355134487152100e-02,-7.464550435543060303e-06,-4.708477854728698730e-02,2.917399257421493530e-02,7.860232144594192505e-04,-2.943715546280145645e-03,1.636044681072235107e-02,2.777438610792160034e-03,-1.077152192592620850e-01,1.952060125768184662e-02,4.394898563623428345e-02,1.721289567649364471e-02,1.836821064352989197e-02,1.152166910469532013e-02,2.939254045486450195e-06,5.763024091720581055e-06,-4.713889211416244507e-06,3.239381313323974609e-02,5.874412879347801208e-02,3.012642264366149902e-05,2.756174281239509583e-02,-5.248429253697395325e-03,1.474070269614458084e-02,2.519011124968528748e-02,2.729817852377891541e-02,9.085554629564285278e-03,3.619395196437835693e-03,-6.086848676204681396e-03,1.178909651935100555e-02,5.785375833511352539e-06,-5.752715095877647400e-02,1.710307598114013672e-02,-5.653971806168556213e-02,1.792816631495952606e-02,9.679881855845451355e-03,-1.364871859550476074e-04,2.161599695682525635e-06,1.736674457788467407e-03,1.221154071390628815e-02,-1.678868196904659271e-02,1.040401309728622437e-02,-8.961185812950134277e-06,-6.463844329118728638e-06,-1.613050699234008789e-06,9.424984455108642578e-06,-1.272931694984436035e-05,-8.083879947662353516e-07,-9.097158908843994141e-06,-1.102685928344726562e-06,2.685956656932830811e-03,1.965079456567764282e-02,1.227861940860748291e-01,-4.302001744508743286e-02,1.576640270650386810e-02,5.240637809038162231e-03,1.374297961592674255e-02,8.490661531686782837e-02,2.639360725879669189e-02,3.758534789085388184e-03,1.730225421488285065e-02,6.528571248054504395e-06,-9.439830482006072998e-02,1.139938831329345703e-06,-4.087365418672561646e-02,-1.170486211776733398e-05,-4.957895725965499878e-06,3.353790566325187683e-02,8.303653448820114136e-03,3.106892108917236328e-06,3.723427653312683105e-06,1.416714489459991455e-02,4.414176195859909058e-02,3.985276445746421814e-02,-8.986888453364372253e-03,1.124195754528045654e-03,-5.763622932136058807e-03,-4.623085260391235352e-06,1.125527918338775635e-02,1.427471823990345001e-02,1.786260306835174561e-02,3.798293322324752808e-02,2.173630334436893463e-02,1.031109225004911423e-02,3.841695934534072876e-02,-4.166737198829650879e-06,1.324306614696979523e-02,2.375558391213417053e-02,1.113309524953365326e-02,2.931803464889526367e-06,2.332354523241519928e-02,-1.440497115254402161e-03,5.542299523949623108e-02,2.829374000430107117e-02,8.223107084631919861e-03,1.178091950714588165e-02,5.717090144753456116e-02,-9.767711162567138672e-06,-1.191673800349235535e-05,2.365635707974433899e-02,5.137065425515174866e-03,2.244970574975013733e-02,1.223411411046981812e-03,2.875924110412597656e-06,2.132425084710121155e-02,4.095811396837234497e-03,7.325723767280578613e-03,1.218728721141815186e-05,-3.252178430557250977e-06,9.301953762769699097e-02,2.275740355253219604e-02,9.247066453099250793e-03,6.016343832015991211e-06,7.035685703158378601e-03,-8.075032383203506470e-06,1.301616430282592773e-05,1.745267584919929504e-02,2.326265722513198853e-02,-5.001202225685119629e-07,1.838516071438789368e-02,-5.185369402170181274e-03,2.152193337678909302e-02,8.024275302886962891e-06,-1.862645149230957031e-09,-6.424177438020706177e-03,1.177244074642658234e-02,1.290736533701419830e-02,-1.547696627676486969e-02,-5.667886696755886078e-03,5.473675206303596497e-03,1.427100226283073425e-02,-5.766800604760646820e-03,-8.207745850086212158e-06,-2.553686499595642090e-06,2.340190857648849487e-02,2.595016919076442719e-02,1.353626046329736710e-02,2.058212831616401672e-02,-1.501291990280151367e-05,-2.418830990791320801e-05,1.965176314115524292e-02,4.782611131668090820e-02,-4.917383193969726562e-07,-1.019984483718872070e-05,-4.783427342772483826e-02,4.475936293601989746e-06,1.531839370727539062e-05,-7.456906139850616455e-03,-8.396804332733154297e-06,1.304782927036285400e-06,1.425139792263507843e-02,-8.515579625964164734e-03,-5.438923835754394531e-06,1.786432974040508270e-02,1.125930622220039368e-02,3.711599856615066528e-02,1.849653013050556183e-02,1.006344780325889587e-01,8.007533103227615356e-02,-2.424474805593490601e-03,1.928404346108436584e-02,8.083579689264297485e-02,-3.629783540964126587e-02,2.096543647348880768e-02,-1.710634678602218628e-03,2.170342765748500824e-02,1.477450132369995117e-05,-3.860176354646682739e-02,3.208851814270019531e-02,1.731127686798572540e-02,2.821322903037071228e-02,1.733212918043136597e-02,5.762885883450508118e-02,1.272326335310935974e-02,2.212751097977161407e-02,-2.561137080192565918e-07,1.324708759784698486e-02,1.435270905494689941e-02,-1.007124781608581543e-02,7.439711689949035645e-02,-1.380499452352523804e-05,2.615153789520263672e-06,-1.523643732070922852e-06,1.467772200703620911e-02,1.726838573813438416e-02,1.614727079868316650e-05,-7.301801815629005432e-06,6.628558039665222168e-03,-3.077089786529541016e-06,3.697350621223449707e-07,-6.648309528827667236e-02,1.035071909427642822e-05,-8.374452590942382812e-06,1.506777852773666382e-02,4.932964593172073364e-02,3.233551979064941406e-05,1.505026966333389282e-02,2.314100414514541626e-02,-4.089437425136566162e-06,-1.358240842819213867e-05,1.922435313463211060e-02,1.109738089144229889e-02,-5.710870027542114258e-06,5.771128833293914795e-02,1.658979430794715881e-02,1.162064447999000549e-02,1.414085831493139267e-02,-5.833804607391357422e-06,-4.504807293415069580e-06,4.736313223838806152e-02,-6.207641586661338806e-02,-2.937391400337219238e-06,-8.296701125800609589e-04,3.207311034202575684e-02,1.210088003426790237e-02,-3.911615163087844849e-02,1.422264985740184784e-02,4.111638292670249939e-03,4.338094964623451233e-02,-4.896443337202072144e-03,-2.024695277214050293e-06,-5.280187726020812988e-02,-1.136213541030883789e-06,-3.496184945106506348e-06,4.153373092412948608e-02,4.838855192065238953e-02,5.100975558161735535e-02,-9.748471900820732117e-03,-1.499429345130920410e-06,1.194071955978870392e-06,9.495240449905395508e-02,1.498471200466156006e-02,1.664204336702823639e-02,1.423719711601734161e-02,-1.466578617691993713e-02,-3.724535927176475525e-04,2.137441188097000122e-02,6.883138418197631836e-02,4.951863363385200500e-02,-1.079703420400619507e-01,-1.524699479341506958e-01,5.476176738739013672e-07,2.849458530545234680e-02,-9.373761713504791260e-06,2.528115361928939819e-02,-1.395121216773986816e-06,-5.414709448814392090e-06,-5.021691322326660156e-06,-8.396983146667480469e-02,1.743325218558311462e-02,1.388342399150133133e-02,1.222703605890274048e-03,8.812774717807769775e-02,1.804620772600173950e-02,3.060552664101123810e-02,6.561855785548686981e-03,8.191913366317749023e-06,1.676015183329582214e-02,-1.210253685712814331e-05,3.894791007041931152e-06,1.246136613190174103e-02,5.614130757749080658e-03,1.457780785858631134e-02,1.103171333670616150e-02,-7.804483175277709961e-06,-2.254731953144073486e-06,3.477798402309417725e-02,-5.934387445449829102e-06,-2.672271104529500008e-03,2.461637370288372040e-02,-5.690380930900573730e-06,-3.684312105178833008e-06,3.188656270503997803e-02,1.083967089653015137e-02,1.123245432972908020e-02,4.250285401940345764e-02,2.074613422155380249e-02,1.584552228450775146e-05,-4.169732332229614258e-03,-4.880828782916069031e-06,1.647648215293884277e-02,2.530769631266593933e-02,-1.272559165954589844e-05,3.211782313883304596e-03,-6.493180990219116211e-06,1.519101858139038086e-01,7.716173306107521057e-03,2.876169979572296143e-03,1.686644926667213440e-02,-1.112744212150573730e-05,1.391118392348289490e-02,6.910413503646850586e-06,1.431284751743078232e-02,-9.753741323947906494e-06,7.787831127643585205e-03,7.663237862288951874e-03
-1.610569469630718231e-02,5.601476877927780151e-02,3.685229271650314331e-02,-1.574087329208850861e-02,2.953068539500236511e-02,1.247000321745872498e-02,1.583881862461566925e-02,-3.652580827474594116e-02,-1.768772676587104797e-02,-1.826559193432331085e-02,2.058938331902027130e-02,-7.222046703100204468e-02,2.527291700243949890e-02,-2.260626666247844696e-02,1.421994809061288834e-02,-1.021721027791500092e-02,-1.264910958707332611e-02,5.713906139135360718e-03,9.997776150703430176e-02,3.749011084437370300e-03,-1.597515195608139038e-01,-3.982478380203247070e-02,-2.180713415145874023e-02,2.585663460195064545e-02,9.355518966913223267e-03,2.556407451629638672e-02,2.120089903473854065e-02,1.184771358966827393e-01,-1.936035975813865662e-02,3.407688066363334656e-02,1.698247715830802917e-02,4.500707611441612244e-02,-1.708713546395301819e-02,4.047380387783050537e-02,-5.075149238109588623e-05,-5.626254156231880188e-02,7.555632293224334717e-02,-9.480254724621772766e-03,4.047729820013046265e-02,6.111035495996475220e-02,1.651852950453758240e-02,3.039494529366493225e-02,-1.674798503518104553e-02,1.461635529994964600e-02,-1.483689993619918823e-04,5.890121310949325562e-02,1.379236951470375061e-02,-4.657706245779991150e-02,4.262017086148262024e-02,4.660755395889282227e-03,9.410372003912925720e-03,-2.043312788009643555e-02,7.176589220762252808e-02,-5.308233946561813354e-02,4.031271487474441528e-02,2.158776484429836273e-02,-2.646772563457489014e-02,6.669270992279052734e-02,1.746159605681896210e-02,1.281667500734329224e-03,-2.132733725011348724e-02,-7.276178151369094849e-02,2.209275029599666595e-02,-2.613596804440021515e-02,1.526851207017898560e-03,7.934935390949249268e-03,9.365445375442504883e-02,3.200875222682952881e-02,1.341277919709682465e-02,-3.070360794663429260e-02,-3.162299841642379761e-02,1.241334527730941772e-02,1.621550880372524261e-03,4.598572850227355957e-04,2.977512776851654053e-04,9.053776040673255920e-03,-3.172059357166290283e-02,4.060642421245574951e-02,7.356700301170349121e-02,4.967128857970237732e-02,-6.208042427897453308e-02,5.276797339320182800e-03,3.780860453844070435e-02,4.895817488431930542e-02,2.785257995128631592e-02,2.498954907059669495e-02,-2.520325221121311188e-02,4.386706650257110596e-02,-2.798955515027046204e-02,-1.177449896931648254e-02,-1.547666080296039581e-02,-8.405443280935287476e-03,1.797894760966300964e-02,1.472813729196786880e-02,4.400129243731498718e-02,-3.865525126457214355e-02,1.306087523698806763e-02,-1.025062054395675659e-03,-2.834542654454708099e-02,-7.664199918508529663e-02,1.401097625494003296e-01,2.656318061053752899e-02,-1.873382553458213806e-02,1.172535121440887451e-05,1.203537732362747192e-02,-1.445844396948814392e-02,9.956374764442443848e-03,-1.754379086196422577e-02,-1.676733233034610748e-02,3.063099086284637451e-02,-1.171176135540008545e-02,1.113109737634658813e-01,2.858603373169898987e-02,3.605952858924865723e-02,-4.334925115108489990e-02,7.196845486760139465e-03,-4.922550171613693237e-02,4.747031629085540771e-02,-2.429789490997791290e-02,-2.475634217262268066e-02,1.269656047224998474e-02,2.631932497024536133e-02,8.239473216235637665e-03,1.518525369465351105e-02,1.061018370091915131e-02,1.178797148168087006e-02,1.795284822583198547e-02,9.389044716954231262e-03,4.339227452874183655e-03,-2.182199805974960327e-02,-2.218578010797500610e-04,6.592890620231628418e-02,-2.890660613775253296e-02,-1.640216819941997528e-02,8.229981362819671631e-02,1.030038297176361084e-02,1.517634931951761246e-02,3.816117346286773682e-02,1.127084717154502869e-02,-1.837322860956192017e-02,7.666863501071929932e-03,-2.230800129473209381e-02,-1.915415748953819275e-02,3.329057246446609497e-03,7.099075242877006531e-03,-3.830049932003021240e-02,-1.080404780805110931e-02,-2.101702429354190826e-02,9.287913888692855835e-02,-1.348175853490829468e-02,2.066812850534915924e-02,2.178847789764404297e-02,-1.471789181232452393e-02,-5.317217856645584106e-02,3.559633716940879822e-02,2.861510403454303741e-02,5.338320508599281311e-03,1.107618212699890137e-01,-1.159043833613395691e-01,1.035918481647968292e-02,-4.322810098528862000e-02,-2.168161608278751373e-02,2.311961725354194641e-02,3.066157177090644836e-02,-5.181381106376647949e-02,2.253412455320358276e-02,1.779728010296821594e-02,1.958812028169631958e-02,1.793598383665084839e-02,3.225281834602355957e-03,2.308029681444168091e-02,9.128442034125328064e-03,-2.272805012762546539e-02,-7.285531610250473022e-03,-6.530173122882843018e-02,2.810132876038551331e-02,3.066927753388881683e-02,-6.365666538476943970e-02,-1.575100608170032501e-02,1.738105528056621552e-02,2.605113759636878967e-02,-6.001647561788558960e-04,2.365034446120262146e-02,-6.428857892751693726e-02,-3.722305223345756531e-02,-1.411694884300231934e-01,2.964027784764766693e-02,-1.746652275323867798e-02,8.166341483592987061e-02,1.127475947141647339e-01,-2.271712943911552429e-02,6.285754963755607605e-03,1.129813492298126221e-03,-1.872815191745758057e-04,3.846558183431625366e-02,-7.322449237108230591e-03,4.556935280561447144e-03,3.890840336680412292e-03,8.288376778364181519e-02,1.557836867868900299e-02,-5.971367657184600830e-02,-2.417977899312973022e-02,-4.281703382730484009e-02,6.060268729925155640e-03,1.156779527664184570e-01,2.587940730154514313e-02,-1.061054319143295288e-02,-7.425855845212936401e-02,-1.094697229564189911e-02,7.477013021707534790e-02,-1.359787024557590485e-02,1.663156226277351379e-02,5.671855807304382324e-02,-1.107640564441680908e-04,1.214677095413208008e-02,-4.822867363691329956e-02,-4.390742629766464233e-02,-9.032920002937316895e-03,3.301138058304786682e-02,4.070346429944038391e-02,-1.090354472398757935e-02,5.018264055252075195e-03,8.765118196606636047e-03,-3.000524267554283142e-02,3.076628968119621277e-02,-2.111944742500782013e-02,1.828183606266975403e-02,-1.187668927013874054e-02,-1.942613348364830017e-02,3.361051529645919800e-02,3.072664700448513031e-02,1.525326631963253021e-02,-1.368370093405246735e-02,1.365496031939983368e-02,-2.341984212398529053e-02,2.503463253378868103e-02,9.251219034194946289e-02,-7.145106047391891479e-02,-1.624318212270736694e-02,1.448969915509223938e-02,4.912026226520538330e-02,4.504259303212165833e-02,-1.607739925384521484e-02,-7.079305499792098999e-02,-7.399377226829528809e-02,3.952881693840026855e-02,1.374721899628639221e-02,-2.532944642007350922e-02,3.561150282621383667e-02,2.802595496177673340e-02,2.260877192020416260e-02,4.381472617387771606e-02,-3.295763954520225525e-02,5.013236030936241150e-02,4.049860686063766479e-02,1.251154579222202301e-02,3.511781990528106689e-02,8.165976032614707947e-03,-7.004489749670028687e-02,-4.306672140955924988e-03,-7.790556550025939941e-02,4.330477118492126465e-02,-7.580434530973434448e-02,1.195572316646575928e-02,3.741088509559631348e-02,1.057057753205299377e-01,1.028859019279479980e-01,-7.239077985286712646e-02,4.299565404653549194e-02,-3.171060979366302490e-02,-4.761543124914169312e-03,1.814892515540122986e-02,2.316115796566009521e-02,8.294004946947097778e-03,-5.516938120126724243e-02,-1.370431110262870789e-02,3.798066452145576477e-02,-7.306897640228271484e-02,-7.157792896032333374e-02,4.777068272233009338e-03,-6.088397651910781860e-02,1.087378486990928650e-01,1.162892021238803864e-02,-5.305343121290206909e-02,-3.167503699660301208e-02,-3.187210112810134888e-02,-3.919875994324684143e-02,3.604552149772644043e-02,1.031886227428913116e-02,-2.930245362222194672e-02,-6.940142810344696045e-02,2.279353886842727661e-02,-3.892531245946884155e-02,1.217022687196731567e-01,-2.134804055094718933e-02,8.145677857100963593e-03,-2.595640160143375397e-02,2.880289591848850250e-02,4.991278797388076782e-02,-1.821907237172126770e-02,-3.719634562730789185e-02,-2.858792059123516083e-02,1.002746745944023132e-01,-3.225556388497352600e-02,-3.644898533821105957e-04,-1.862948387861251831e-02,-1.483541727066040039e-01,9.837201982736587524e-02,-2.610788121819496155e-02,4.012748599052429199e-03,4.416219890117645264e-02,-4.592017829418182373e-02,-1.807757653295993805e-02,-1.794732362031936646e-02,-6.171055883169174194e-02,-1.643740385770797729e-02,8.373861759901046753e-02,2.669253945350646973e-02,2.162995934486389160e-02,4.383590072393417358e-02,4.112329334020614624e-02,-7.718601822853088379e-02,4.233630001544952393e-02,6.199406832456588745e-02,-2.491126395761966705e-02,-6.884547322988510132e-02,1.262733340263366699e-02,-1.823515072464942932e-02,2.905419841408729553e-02,1.232256293296813965e-01,1.677269116044044495e-03,2.123320102691650391e-02,-3.534890711307525635e-02,9.714871644973754883e-03,-1.844620890915393829e-02,-1.665626280009746552e-02,9.468382224440574646e-03,6.498033180832862854e-03,3.400847688317298889e-02,6.626896560192108154e-02,-2.745669335126876831e-02,6.930939853191375732e-02,-6.446880847215652466e-02,-6.740426272153854370e-02,-1.544036902487277985e-02,-2.141456492245197296e-02,-1.886176317930221558e-02,7.856205850839614868e-02,-1.151150092482566833e-03,2.236290462315082550e-02,2.671831287443637848e-02,-1.256790012121200562e-03,-3.659254312515258789e-02,1.027245819568634033e-02,-6.654440611600875854e-02,-4.869156330823898315e-02,-4.242663085460662842e-02,1.002587005496025085e-02,2.379734441637992859e-02,1.801248081028461456e-02,-2.361965551972389221e-02,-1.704639941453933716e-02,-2.587385103106498718e-02,1.004550419747829437e-02,-4.031095653772354126e-02,4.597926139831542969e-02,5.013380199670791626e-02,3.114582784473896027e-02,-3.721299767494201660e-02,1.772394590079784393e-02,-6.614231318235397339e-02,5.870282649993896484e-03,-2.640085481107234955e-02,4.002412408590316772e-02,3.586361184716224670e-02,-3.280711546540260315e-02,-2.932943962514400482e-02,-3.955615311861038208e-02,-2.242223732173442841e-02,-2.703388594090938568e-02,-1.699584163725376129e-02,-4.001143574714660645e-02,-1.569136790931224823e-02,-2.235760353505611420e-02,1.382924057543277740e-02,-2.147234976291656494e-02,1.631865650415420532e-02,-2.098489180207252502e-02,-4.970308393239974976e-03,6.599396467208862305e-03,3.451696597039699554e-03,2.809335105121135712e-02,-5.467018485069274902e-02,-7.071904838085174561e-05,-4.545242711901664734e-02,4.528937116265296936e-02,3.243214637041091919e-02,4.563087224960327148e-02,-2.040878124535083771e-02,-6.830303370952606201e-02,6.838405132293701172e-02,3.194652497768402100e-02,3.908981382846832275e-02,8.713455870747566223e-03,8.904898539185523987e-03,-2.893079072237014771e-02,-2.172004431486129761e-02,-1.830091327428817749e-02,4.698593169450759888e-03,4.261844605207443237e-02,6.320844590663909912e-02,7.301849313080310822e-03,9.676739573478698730e-03,-6.721311807632446289e-02,-5.927602201700210571e-02,-1.481628976762294769e-02,-3.790040314197540283e-02,3.004477918148040771e-02,-4.702851548790931702e-02,-2.580319531261920929e-02,-3.092549741268157959e-05,3.409887477755546570e-02,4.521876573562622070e-03,1.816897466778755188e-02,2.049263566732406616e-03,4.581010341644287109e-02,4.073559120297431946e-02,5.427628010511398315e-02,-1.576317101716995239e-02,4.890672862529754639e-03,-1.857589371502399445e-02,-4.946059733629226685e-02,3.028640896081924438e-02,6.918495520949363708e-03,-1.921543851494789124e-02,-1.111930236220359802e-02,8.203261345624923706e-02,3.826649487018585205e-02,3.546152636408805847e-02,2.410393953323364258e-02,3.249756619334220886e-02,-2.186020091176033020e-02,1.876102946698665619e-02,1.798254437744617462e-02,-2.045385725796222687e-02,4.985329508781433105e-02,1.907334290444850922e-02,-2.462850883603096008e-03,-4.874158650636672974e-03,-1.441534794867038727e-02,1.606536284089088440e-02,-4.335361346602439880e-02,-3.759435936808586121e-02,-2.251296862959861755e-02,1.273055840283632278e-02,-1.441370975226163864e-02,3.440752252936363220e-02,-2.879145741462707520e-02,1.937644183635711670e-02,1.373775303363800049e-03,2.962434664368629456e-03,3.484168648719787598e-02,3.152904286980628967e-02,6.860207766294479370e-03,-3.240956366062164307e-02,3.958949819207191467e-03,2.973981201648712158e-02,1.670788973569869995e-03,4.102006554603576660e-03,7.815980911254882812e-02,7.758051156997680664e-03,2.394003421068191528e-02,2.278100326657295227e-02,-1.401368156075477600e-02,-1.950116083025932312e-02,-2.948752231895923615e-02,-5.537427589297294617e-02,7.443384267389774323e-03,6.562219932675361633e-03,1.032668910920619965e-02,-5.844615399837493896e-03,-5.148664489388465881e-02,4.569381475448608398e-02,3.439774364233016968e-02,-2.699968591332435608e-02,9.532097727060317993e-02,-1.490456424653530121e-02,-3.159113973379135132e-02,-1.653927750885486603e-02,-2.634165994822978973e-02,2.090382948517799377e-02,-1.642657257616519928e-02,-5.223041772842407227e-02,1.376591436564922333e-02,2.477255836129188538e-02,-2.098074182868003845e-03,3.978453576564788818e-02,4.907031729817390442e-02,-1.590228453278541565e-02,7.365176454186439514e-03,-2.577446401119232178e-03,-7.411658018827438354e-02,2.223688736557960510e-02,-1.638313755393028259e-02,2.853184565901756287e-02,-4.348807409405708313e-02,-4.818822070956230164e-02,3.376226127147674561e-02,-1.021716743707656860e-03,-3.826502710580825806e-03,4.140581935644149780e-03,9.004449471831321716e-03,-7.580430805683135986e-02,-1.224406063556671143e-03,4.086058586835861206e-03,2.597802132368087769e-02,-2.800524234771728516e-04,4.582549259066581726e-02,4.913461208343505859e-02,1.266218721866607666e-02,-6.499044597148895264e-03,-2.210301160812377930e-02,1.118249446153640747e-02,1.059515774250030518e-01,7.276453077793121338e-03,-2.453522197902202606e-02,-1.561652310192584991e-02,7.755950093269348145e-02,-4.438104107975959778e-03,-1.337249390780925751e-02,5.466887727379798889e-02,-2.153691090643405914e-02,3.623655065894126892e-03,-3.404052183032035828e-02,-2.437825314700603485e-02,1.219986565411090851e-02,2.448314055800437927e-02,-1.196023076772689819e-04,4.159744456410408020e-02,1.426081918179988861e-02,1.414298452436923981e-02,6.025725603103637695e-02,2.475796267390251160e-03,-6.365554034709930420e-02,2.847867459058761597e-02,2.523964829742908478e-02,1.678621768951416016e-02,1.721459440886974335e-02,3.864698112010955811e-03,7.514239847660064697e-02,1.249762065708637238e-02,1.440365519374608994e-02,1.694448664784431458e-02,3.762513399124145508e-02,-2.046125754714012146e-02,1.499347090721130371e-01,4.170538857579231262e-02,-2.787075936794281006e-05,-2.243699133396148682e-02,1.397613622248172760e-02,-2.225070632994174957e-02,-9.438827633857727051e-03,2.454598806798458099e-02,1.215513236820697784e-02,-1.822215132415294647e-02,1.297349482774734497e-02,6.029311567544937134e-03,3.559844195842742920e-02,1.230831816792488098e-02,-2.137428894639015198e-02,-2.015037275850772858e-02,-1.606065593659877777e-02,-3.086476400494575500e-02,-1.700821220874786377e-01,1.537501066923141479e-02,5.061916261911392212e-02,1.324570365250110626e-02,8.569799363613128662e-03,-1.457173377275466919e-02,-2.510754577815532684e-02,4.176858812570571899e-02,3.983978182077407837e-03,1.595414057374000549e-02,-6.572604179382324219e-04,1.392052695155143738e-02,-6.973139941692352295e-02,-1.088799536228179932e-02,4.508749768137931824e-02,2.898222953081130981e-02,-1.585964113473892212e-01,4.557705670595169067e-02,8.303951472043991089e-04,-1.653730869293212891e-04,1.497747935354709625e-02,-7.247760146856307983e-02,-8.973576873540878296e-02,1.628247648477554321e-02,2.649208158254623413e-02,7.526967674493789673e-04,-3.455908223986625671e-02,-1.072681322693824768e-02,-3.237295895814895630e-03,-1.934810914099216461e-02,3.060019388794898987e-02,-6.612765789031982422e-02,4.893463850021362305e-02,5.389544367790222168e-02,-2.313345298171043396e-02,7.346642762422561646e-02,4.434352368116378784e-02,-7.559414952993392944e-02,3.616070747375488281e-02,6.733380258083343506e-03,2.185033448040485382e-02,-1.771717704832553864e-02,7.633545249700546265e-02,1.795440912246704102e-02,-2.128448896110057831e-02,3.478150814771652222e-02,1.031093150377273560e-01,-2.383059635758399963e-02,1.897712051868438721e-02,5.337623879313468933e-03,-2.214722894132137299e-02,3.756204620003700256e-03,1.182405278086662292e-02,-6.353377550840377808e-02,6.329480558633804321e-02,1.084676850587129593e-02,-1.956362277269363403e-02,-3.148739039897918701e-02,-2.065131254494190216e-02,1.284505054354667664e-02,-8.515568450093269348e-03,1.410378143191337585e-03,-3.871902823448181152e-03,-3.342372179031372070e-02,-2.639157697558403015e-02,3.707544505596160889e-02,1.794013008475303650e-02,3.722883760929107666e-03,-7.370752841234207153e-02,-6.751690804958343506e-02,4.528558626770973206e-02,1.783658005297183990e-02,2.774621360003948212e-02,2.180419489741325378e-02,4.027901962399482727e-02,4.827622696757316589e-02,1.020174939185380936e-02,-3.395921736955642700e-02,1.175424456596374512e-02,2.462268434464931488e-02,1.847810670733451843e-02,-4.181746020913124084e-02,-1.978501491248607635e-02,-2.987789362668991089e-02,5.276873707771301270e-05,6.976248323917388916e-02,7.169328629970550537e-03,7.233372330665588379e-02,-5.029542371630668640e-03,-1.879687234759330750e-02,-3.436112776398658752e-03,-1.618728972971439362e-02,-3.500204533338546753e-03,4.232892021536827087e-02,4.957602545619010925e-02,-2.741393446922302246e-02,-3.739316016435623169e-04,4.094850271940231323e-03,2.202358469367027283e-02,9.979536756873130798e-03,-3.926306962966918945e-02,2.549048885703086853e-02,2.889459021389484406e-02,-2.582636289298534393e-02,-1.989226043224334717e-02,-1.221033558249473572e-02,2.060536667704582214e-02,3.877412527799606323e-04,2.967621013522148132e-02,5.622689798474311829e-02,1.823914051055908203e-02,5.536753684282302856e-03,-2.332653664052486420e-02,-5.908799916505813599e-02,9.511676430702209473e-02,1.328259408473968506e-01,5.319000780582427979e-02,-1.637015491724014282e-01,1.106112636625766754e-02,2.621356397867202759e-02,-2.091133408248424530e-02,9.243932366371154785e-02,-2.266392111778259277e-03,-2.151291817426681519e-02,6.855864822864532471e-02,1.118658334016799927e-01,5.808835849165916443e-02,6.674940884113311768e-02,-1.838111691176891327e-02,3.131690621376037598e-02,1.964859105646610260e-02,4.427950456738471985e-02,1.075284183025360107e-02,1.292348280549049377e-02,-6.817468255758285522e-02,3.717688843607902527e-03,-1.867434382438659668e-02,-8.658921718597412109e-02,-1.752562820911407471e-05,2.275206893682479858e-02,-1.552691310644149780e-01,-3.175431117415428162e-02,9.948186576366424561e-02,9.945573285222053528e-03,2.998020499944686890e-03,1.807540468871593475e-02,2.273589558899402618e-02,1.771410182118415833e-02,-3.682800754904747009e-02,2.361338585615158081e-03,1.055350229144096375e-01,5.062845349311828613e-02,3.632620722055435181e-02,-7.007931172847747803e-02,-1.760015636682510376e-02,1.803562045097351074e-02,1.290440373122692108e-02,6.079219281673431396e-03,8.405284956097602844e-03,2.382371202111244202e-02,1.733388379216194153e-02,2.341002225875854492e-03,-5.104221403598785400e-02,2.164070867002010345e-02,1.985383033752441406e-02,2.189400233328342438e-02,7.011879235506057739e-03,-4.734186455607414246e-02,-6.891103833913803101e-02,-1.592518948018550873e-02,-8.286934345960617065e-03,-6.184337660670280457e-02,-8.325941860675811768e-03,-2.325585298240184784e-02,-3.716250509023666382e-02,-5.210936069488525391e-03,1.363053359091281891e-02,4.057617858052253723e-02,-4.649218171834945679e-03,7.828506827354431152e-02,-3.551457077264785767e-03,2.987522073090076447e-02,1.944910362362861633e-02,1.032859757542610168e-01,-6.646836549043655396e-02,-2.351519651710987091e-02,7.648623548448085785e-03,1.785827241837978363e-02,8.099328726530075073e-02,-2.997629530727863312e-02,-2.068663202226161957e-02,1.587461866438388824e-02,4.648943990468978882e-02,-1.547625362873077393e-01,-1.979491487145423889e-02,-6.520634889602661133e-02,9.532999247312545776e-03,-5.722999945282936096e-02,3.153419122099876404e-02,1.668388023972511292e-03,7.212069630622863770e-02,-1.106062904000282288e-02,3.433346748352050781e-03,3.899738192558288574e-02,4.116824269294738770e-02,-5.709332227706909180e-02,3.969982266426086426e-03,-6.878201663494110107e-02,-2.659041061997413635e-02,1.262562721967697144e-02,-2.211724407970905304e-02,8.097477257251739502e-03,5.080950260162353516e-02,2.854007296264171600e-02,1.034022867679595947e-02,5.344160273671150208e-02,-3.862669691443443298e-02,7.328109815716743469e-03,3.952073678374290466e-02,5.800655111670494080e-03,-2.692846953868865967e-02,2.043659426271915436e-02,-5.035708844661712646e-02,1.148970052599906921e-01,4.628695547580718994e-02,1.663277857005596161e-02,1.603737473487854004e-06,4.722758382558822632e-02,-3.578191995620727539e-02,-3.059171512722969055e-02,2.869177982211112976e-02,2.488481253385543823e-02,2.012636698782444000e-02,-1.647600159049034119e-02,5.053948611021041870e-02,1.814937777817249298e-02,-1.848204992711544037e-02,4.530255123972892761e-02,2.726748399436473846e-02,4.916913807392120361e-03,9.374944120645523071e-02,1.555556431412696838e-03,-1.668239757418632507e-02,1.444683969020843506e-02,-5.371030420064926147e-03,-4.131777957081794739e-02,-1.288986206054687500e-02,-7.955785840749740601e-04,8.726287633180618286e-04,6.007194519042968750e-03,2.412254549562931061e-02,-6.965439021587371826e-02,1.283039525151252747e-02,1.935919001698493958e-02,9.039273485541343689e-03,-5.649585276842117310e-03,-2.041645348072052002e-04,6.096048280596733093e-03,-6.443256139755249023e-02,-7.303313165903091431e-02,-1.943886466324329376e-02,-1.920852810144424438e-04,-7.328139990568161011e-02,-7.810307294130325317e-02,1.984197460114955902e-02,1.355967484414577484e-02,2.324433997273445129e-03,1.591237261891365051e-02,2.317335270345211029e-02,5.358727276325225830e-02,9.080667793750762939e-02,1.557286828756332397e-02,2.488519251346588135e-02,9.251557290554046631e-03,3.305380046367645264e-02,1.587639190256595612e-02,2.396954968571662903e-02,2.586762793362140656e-02,4.168832302093505859e-02,9.497589617967605591e-02,1.451607886701822281e-02,1.275454834103584290e-02,-7.248985767364501953e-02,1.022815797477960587e-02,-8.479692041873931885e-05,5.713015794754028320e-03,3.314365074038505554e-02,4.235928878188133240e-02,7.226511090993881226e-02,8.846327662467956543e-02,-6.593684852123260498e-02,1.940258592367172241e-02,7.899194210767745972e-02,-5.032395943999290466e-02,4.331560060381889343e-02,-6.111603230237960815e-03,4.525665193796157837e-03,1.512166112661361694e-02,2.606641687452793121e-02,5.416072532534599304e-02,2.843149006366729736e-03,3.850638121366500854e-02,-2.716055139899253845e-02,1.267225742340087891e-01,3.393493592739105225e-03,2.497918903827667236e-04,-3.581224381923675537e-02,-1.146366447210311890e-02,2.233147807419300079e-02,-9.153407067060470581e-03,5.545748025178909302e-02,-5.250079929828643799e-02,1.099255308508872986e-02,-5.540565401315689087e-02,2.198621816933155060e-02,9.342318400740623474e-03,1.381856575608253479e-02,-3.852768614888191223e-02,-2.092478424310684204e-02,-3.795361518859863281e-02,1.149899326264858246e-02,-1.194502040743827820e-01,2.816865406930446625e-02,-1.880962774157524109e-02,4.029685631394386292e-03,5.038002133369445801e-02,-5.136914551258087158e-03,3.445675596594810486e-03,2.311674132943153381e-02,-4.100625962018966675e-02,4.970961064100265503e-02,3.610272705554962158e-02,-1.746773347258567810e-02,4.658529534935951233e-03,8.032896369695663452e-02,-2.508647739887237549e-02,-8.358540013432502747e-03,-1.889443397521972656e-02,-2.356201596558094025e-02,-3.200303763151168823e-02,4.662989079952239990e-02,-5.124496668577194214e-02,1.564043574035167694e-02,-4.211135953664779663e-02,2.034399658441543579e-03,-1.280961185693740845e-02,-6.274194270372390747e-02,3.958440199494361877e-02,1.256687380373477936e-02,5.686592310667037964e-02,-4.756492003798484802e-02,8.945245295763015747e-03,-1.150475367903709412e-01,5.994409322738647461e-02,-1.107321679592132568e-02,4.757049679756164551e-02,1.569295302033424377e-02,4.794390499591827393e-02,-1.379140280187129974e-02,3.477470204234123230e-02,-1.961841993033885956e-02,4.050518199801445007e-02,-3.267403692007064819e-03,-1.865811645984649658e-05,6.340686231851577759e-03,-2.184818685054779053e-02,-6.328873336315155029e-02,1.404157467186450958e-02,5.319207534193992615e-02,5.207923799753189087e-02,3.041348420083522797e-02,-2.155497372150421143e-01,-8.791118860244750977e-03,1.387136615812778473e-02,