-1.057942025363445282e-02,-1.181958615779876709e-02,-2.475279383361339569e-02,-1.417172700166702271e-02,6.725202500820159912e-02,-1.211330480873584747e-02,-1.980611123144626617e-02,1.048930883407592773e-01,-1.383600197732448578e-02,-9.755194187164306641e-03,-8.718363940715789795e-03,-1.621044054627418518e-02,-7.031785324215888977e-03,1.261038184165954590e-01,-5.960610508918762207e-02,1.899547129869461060e-02,-2.942513488233089447e-02,-3.687473759055137634e-02,-4.396115243434906006e-02,-1.472414471209049225e-03,6.123826652765274048e-02,9.627494215965270996e-02,-1.368041522800922394e-02,8.457358181476593018e-02,-1.542715169489383698e-02,-1.292171515524387360e-02,-9.349036961793899536e-03,2.799740061163902283e-03,2.694214135408401489e-02,-5.642838031053543091e-02,-4.747821018099784851e-02,-1.209485530853271484e-02,-1.405318267643451691e-02,-4.948870465159416199e-02,6.790471822023391724e-02,1.258792579174041748e-01,-1.141308806836605072e-02,-1.504302769899368286e-02,-1.142634823918342590e-02,-1.709476299583911896e-02,-1.145107857882976532e-02,-1.938110962510108948e-02,1.380009055137634277e-01,-5.474153161048889160e-02,-5.311168357729911804e-02,-5.145672708749771118e-03,-1.130730845034122467e-02,-3.996846824884414673e-02,-1.144632697105407715e-02,1.446458883583545685e-02,-4.109216481447219849e-02,-1.020494289696216583e-02,-3.256148472428321838e-02,-1.102157309651374817e-02,2.228002995252609253e-03,-3.972075879573822021e-03,-1.428877189755439758e-02,4.398688673973083496e-03,-1.498346216976642609e-02,4.906563088297843933e-03,-2.212752588093280792e-02,-2.799609489738941193e-02,-7.357976585626602173e-02,-1.347502414137125015e-02,1.310879550874233246e-02,1.233697868883609772e-03,-1.388963870704174042e-02,-5.238103121519088745e-02,-6.295838207006454468e-02,9.082758799195289612e-03,-3.530089557170867920e-02,-7.366057485342025757e-03,-2.302272990345954895e-02,-7.933486998081207275e-02,-3.000244870781898499e-02,-8.009383454918861389e-03,-4.047761857509613037e-02,2.400686219334602356e-02,-2.332264743745326996e-02,-4.822724312543869019e-02,-9.840307757258415222e-03,9.417569264769554138e-03,-2.121956273913383484e-02,-5.354857072234153748e-03,-1.433446630835533142e-02,-3.254105895757675171e-02,1.168826781213283539e-02,9.215877205133438110e-02,-1.944916322827339172e-03,8.895117789506912231e-04,1.520112156867980957e-03,-2.234477549791336060e-03,-5.591429769992828369e-03,-1.064427010715007782e-02,-6.920561194419860840e-02,-5.031478404998779297e-02,5.748698487877845764e-03,-3.315188735723495483e-02,-1.794293336570262909e-02,-4.216577857732772827e-03,4.067175090312957764e-03,-9.929105639457702637e-03,-6.881181150674819946e-03,-1.443605870008468628e-02,-1.766451448202133179e-02,-1.150451786816120148e-02,-1.365788094699382782e-02,1.188953369855880737e-01,-1.699475385248661041e-02,1.877903006970882416e-02,1.062069237232208252e-01,-3.286507725715637207e-02,-1.225697249174118042e-02,1.223418265581130981e-01,-1.251053996384143829e-02,-9.622201323509216309e-04,4.053575918078422546e-02,8.255457133054733276e-02,-3.248158469796180725e-02,-7.496483623981475830e-03,-1.118754968047142029e-02,1.454964876174926758e-01,-6.925299763679504395e-03,-3.759565204381942749e-02,2.402984723448753357e-02,-1.021346449851989746e-02,-1.059480942785739899e-02,-5.117845907807350159e-02,6.119129061698913574e-02,-6.306923925876617432e-02,-2.688627690076828003e-02,-4.509929940104484558e-02,-2.482125908136367798e-02,-1.206457987427711487e-02,-2.000931650400161743e-03,-9.308941662311553955e-03,1.192644238471984863e-03,-3.689705207943916321e-02,-9.627468883991241455e-03,-1.637169532477855682e-02,1.418402194976806641e-01,3.826623409986495972e-02,-4.614792764186859131e-03,7.645986974239349365e-02,-1.211337931454181671e-02,-1.360619999468326569e-02,5.444437265396118164e-03,-3.095182403922080994e-02,-7.666310295462608337e-03,2.078025415539741516e-02,-1.638524979352951050e-02,1.250772923231124878e-01,-1.379994116723537445e-02,1.988286525011062622e-02,-1.709657721221446991e-02,1.099082641303539276e-02,-1.849269680678844452e-02,6.049781292676925659e-02,-1.593203097581863403e-02,9.497559070587158203e-02,-5.298021063208580017e-02,-1.805947721004486084e-02,8.993474766612052917e-03,-3.250152617692947388e-02,-4.432043805718421936e-02,7.022514194250106812e-02,-3.114119544625282288e-02,-1.431133598089218140e-02,-2.136588096618652344e-03,9.801615029573440552e-02,-6.871920078992843628e-03,5.520785599946975708e-02,-5.828942358493804932e-02,1.133342161774635315e-01,-7.792089879512786865e-02,-1.370338723063468933e-03,-5.897545814514160156e-02,-9.389441460371017456e-03,1.593342050909996033e-02,-8.849883452057838440e-03,-2.732525207102298737e-02,8.121418952941894531e-02,-1.177336089313030243e-02,-4.885417595505714417e-02,8.096933364868164062e-02,8.682446181774139404e-02,-2.981765568256378174e-02,-1.070226356387138367e-02,-7.583564147353172302e-03,5.378637090325355530e-02,-2.427649311721324921e-02,3.965630382299423218e-02,-1.772043853998184204e-02,5.393970757722854614e-03,-1.948153413832187653e-02,-2.082938700914382935e-02,-6.734922528266906738e-03,9.346896782517433167e-03,8.152307569980621338e-02,-2.024302445352077484e-02,4.657250270247459412e-02,-1.099507138133049011e-02,-2.684805542230606079e-02,-1.020503230392932892e-02,-4.930580034852027893e-02,3.500781953334808350e-02,-1.138700544834136963e-02,-1.443516835570335388e-02,-3.342593088746070862e-03,-2.013996057212352753e-02,-1.294339075684547424e-02,7.924526929855346680e-03,-5.178789794445037842e-02,-2.950024046003818512e-02,1.241048239171504974e-02,-8.511058986186981201e-04,-4.667439311742782593e-02,-3.127112612128257751e-02,-1.061442494392395020e-02,-1.162313856184482574e-02,-1.019557006657123566e-02,-4.141280055046081543e-02,-2.746484056115150452e-02,5.252670496702194214e-03,-3.082818537950515747e-02,-6.649365276098251343e-02,1.232222467660903931e-01,-1.242539007216691971e-02,-1.663395203649997711e-02,-1.090863905847072601e-02,-1.658380404114723206e-02,-3.075382858514785767e-02,-3.229769691824913025e-02,6.205146014690399170e-02,5.099244788289070129e-02,-5.593411624431610107e-03,5.735153332352638245e-02,-3.491593897342681885e-02,1.157743111252784729e-02,9.657153487205505371e-02,2.308456227183341980e-02,5.355522036552429199e-03,2.557098492980003357e-02,1.166646927595138550e-02,4.189167171716690063e-03,-2.299146354198455811e-02,-1.429024338722229004e-02,-1.031643524765968323e-02,-4.143296182155609131e-02,-4.049476981163024902e-02,-5.000111460685729980e-02,-1.764695346355438232e-02,-1.263462007045745850e-03,6.737895309925079346e-02,-6.192906573414802551e-02,-1.025365479290485382e-02,-1.194585114717483521e-02,-2.228438109159469604e-02,-2.902713790535926819e-02,-1.058597303926944733e-02,2.809327654540538788e-02,-6.663987785577774048e-02,6.877976655960083008e-02,-9.324727579951286316e-03,8.056253194808959961e-02,2.044672146439552307e-02,4.950709640979766846e-03,-1.325488090515136719e-02,-6.336964666843414307e-03,1.046875342726707458e-01,-5.694080144166946411e-03,-5.341917276382446289e-04,1.478200033307075500e-02,1.186511293053627014e-02,6.870372220873832703e-03,-1.094090566039085388e-02,-1.126962900161743164e-02,-2.201951108872890472e-02,-5.164787173271179199e-02,2.244418486952781677e-03,-2.965814061462879181e-02,4.765927046537399292e-02,3.411823511123657227e-02,1.154613345861434937e-01,-9.097680449485778809e-03,-2.828251570463180542e-02,-8.302351459860801697e-03,-8.863428607583045959e-03,-1.041243225336074829e-02,9.968773275613784790e-02,6.461160257458686829e-03,-2.860064432024955750e-02,-1.022023148834705353e-03,-9.629424661397933960e-03,8.072656393051147461e-02,-3.223473206162452698e-02,-4.133607447147369385e-02,-8.443571627140045166e-03,-2.872689440846443176e-02,2.251245453953742981e-02,1.117848753929138184e-01,-2.545626275241374969e-02,-9.529776871204376221e-03,-5.761230736970901489e-02,-1.420602574944496155e-02,1.448892708867788315e-02,-6.469845771789550781e-03,-9.201761335134506226e-03,9.132748842239379883e-02,-1.693730428814888000e-02,9.536033496260643005e-03,2.220612019300460815e-03,-9.566918015480041504e-03,-8.711941540241241455e-03,-2.126270160079002380e-02,6.667105853557586670e-02,1.447990983724594116e-01,6.015375256538391113e-04,-5.388271063566207886e-03,-1.343333721160888672e-02,-1.172055676579475403e-02,-9.873801842331886292e-03,4.623040556907653809e-03,4.840517044067382812e-02,-3.398796916007995605e-02,-1.103158853948116302e-02,-2.179645746946334839e-02,-9.275637567043304443e-04,-6.294609978795051575e-03,-6.096705794334411621e-03,-2.846854180097579956e-02,-5.195842683315277100e-02,-1.748229749500751495e-02,8.244896307587623596e-03,-1.290133595466613770e-02,-1.453955844044685364e-02,-7.252804934978485107e-04,-2.886761538684368134e-02,-4.395367950201034546e-02,-1.300849206745624542e-02,-2.234771847724914551e-03,-8.724097162485122681e-03,-8.835835382342338562e-03,3.731593862175941467e-02,1.541742309927940369e-02,-1.140429824590682983e-02,-2.762353979051113129e-02,3.507120907306671143e-02,-1.128904148936271667e-02,1.113773509860038757e-02,-9.208062663674354553e-03,-2.914610132575035095e-02,-1.317120902240276337e-02,-4.327832534909248352e-02,1.052597314119338989e-01,-3.768493607640266418e-02,-3.317171707749366760e-02,-5.839998275041580200e-02,-1.679147779941558838e-02,-1.242950931191444397e-02,-1.367467641830444336e-02,-4.897768609225749969e-03,7.167929410934448242e-02,-5.781972780823707581e-03,-8.626893162727355957e-03,-4.339782521128654480e-02,-5.021405220031738281e-02,-9.865887463092803955e-03,-1.044416427612304688e-02,-1.200691610574722290e-02,9.798532724380493164e-02,2.360912039875984192e-03,1.576430909335613251e-02,-4.053429141640663147e-02,1.216905936598777771e-02,-3.531784191727638245e-02,1.061197556555271149e-02,3.027871623635292053e-02,-1.631614565849304199e-02,-1.946411840617656708e-02,-1.402196288108825684e-02,5.429956689476966858e-02,-2.902112714946269989e-02,4.942391440272331238e-02,-6.032014265656471252e-03,1.061439700424671173e-02,1.136054247617721558e-01,-1.963692158460617065e-02,-4.533838480710983276e-02,1.124183461070060730e-02,-1.565410383045673370e-02,-2.408645302057266235e-02,-6.345584988594055176e-03,-1.933859661221504211e-02,-5.810148641467094421e-02,5.704788491129875183e-02,-1.124148070812225342e-02,-8.332187309861183167e-03,-1.793549396097660065e-02,-3.751862794160842896e-03,-1.361346803605556488e-02,-6.784468889236450195e-02,1.024218797683715820e-01,-1.075612381100654602e-03,-8.609341830015182495e-02,-6.123295053839683533e-02,-5.299135297536849976e-02,-2.167845517396926880e-02,-1.640522666275501251e-02,-2.314596809446811676e-02,8.927741646766662598e-02,-5.494625866413116455e-02,-2.559841424226760864e-02,-1.383137702941894531e-02,-1.830635219812393188e-02,-1.965061202645301819e-02,1.505687832832336426e-04,6.967169791460037231e-02,5.987986922264099121e-03,2.687655575573444366e-02,4.839107394218444824e-03,-5.534551292657852173e-02,-2.025460265576839447e-02,7.753367722034454346e-02,-7.298683747649192810e-03,5.239155143499374390e-04,-2.432799711823463440e-02,-7.686980068683624268e-03,3.400768712162971497e-02,9.451525285840034485e-03,-6.199434027075767517e-02,-1.926629990339279175e-02,-4.529112949967384338e-03,-4.973972216248512268e-03,-1.380668953061103821e-02,-1.050672866404056549e-02,1.208328083157539368e-02,-5.739668384194374084e-03,-5.034271255135536194e-02,-1.000452600419521332e-02,-2.934014797210693359e-02,-1.424909383058547974e-02,-9.182538837194442749e-03,-8.329350501298904419e-03,-2.187415957450866699e-02,-6.968464702367782593e-03,-3.176640346646308899e-02,-1.125051267445087433e-02,-3.089765831828117371e-02,9.566068649291992188e-02,1.031346619129180908e-03,-1.588438078761100769e-02,1.230403482913970947e-01,-1.286108233034610748e-02,2.214506827294826508e-02,-2.901966869831085205e-02,3.975669667124748230e-02,-2.360222861170768738e-02,-6.380423903465270996e-03,3.102068044245243073e-02,-1.389004290103912354e-02,-2.346584200859069824e-02,-3.377470746636390686e-02,-2.088095620274543762e-02,-4.928510263562202454e-02,-1.974504254758358002e-02,2.020759880542755127e-02,-5.083065107464790344e-02,-1.738733984529972076e-02,-4.771187156438827515e-02,-4.688769578933715820e-03,5.699137225747108459e-03,-7.778074592351913452e-03,-1.348187960684299469e-02,7.391870021820068359e-04,-3.427334874868392944e-02,-2.846390008926391602e-02,-1.161145977675914764e-02,7.184203714132308960e-02,-9.290942922234535217e-03,-1.332210563123226166e-02,-1.480410806834697723e-02,4.054236039519309998e-02,-8.120447397232055664e-03,-2.542087435722351074e-02,4.126406461000442505e-02,-1.288795098662376404e-02,-1.390626095235347748e-02,5.894097313284873962e-02,2.339519187808036804e-02,-2.304065972566604614e-03,-1.054483465850353241e-02,1.069270074367523193e-02,-2.815026044845581055e-02,5.029311031103134155e-02,-1.373508945107460022e-02,1.363039389252662659e-02,-5.054667964577674866e-02,1.305429264903068542e-03,9.295120835304260254e-02,-3.715550526976585388e-03,2.365360409021377563e-02,-9.824145585298538208e-03,1.258246749639511108e-01,-1.463837921619415283e-02,-2.890176884829998016e-02,3.902260959148406982e-02,6.547292321920394897e-02,-2.074193395674228668e-02,-3.013646602630615234e-02,3.204287588596343994e-02,-2.191936969757080078e-02,-1.486607640981674194e-02,-1.358346827328205109e-02,-1.339911855757236481e-02,-6.366758048534393311e-02,-1.254257746040821075e-02,3.282573446631431580e-02,4.427209496498107910e-04,1.700610294938087463e-02,-8.075498044490814209e-03,-4.345794394612312317e-02,-4.044556990265846252e-03,-3.778214380145072937e-02,-1.504712924361228943e-02,-7.315706461668014526e-03,-4.088198766112327576e-03,6.715035066008567810e-03,9.762870147824287415e-03,3.807739913463592529e-02,-1.111264526844024658e-02,-1.799177378416061401e-02,-1.274342462420463562e-02,-1.256472617387771606e-02,4.450400173664093018e-02,-1.949255727231502533e-02,-9.283481165766716003e-03,-1.197870261967182159e-02,-1.173099130392074585e-02,-1.310072094202041626e-02,-1.168532297015190125e-02,-1.336275599896907806e-02,4.435688257217407227e-03,-1.023839786648750305e-02,-1.912707649171352386e-02,1.653472706675529480e-02,-1.195766683667898178e-02,1.688814163208007812e-02,3.298643976449966431e-03,-1.159370690584182739e-02,-4.780310019850730896e-02,2.037442661821842194e-02,-6.042214855551719666e-02,-3.030604310333728790e-02,-1.943358406424522400e-02,-2.889277786016464233e-02,-1.653249375522136688e-02,3.941270709037780762e-02,-1.855643838644027710e-02,-1.192574016749858856e-02,-4.734605550765991211e-03,-1.707986183464527130e-02,-4.298884421586990356e-03,-1.106864586472511292e-02,2.971291542053222656e-04,2.115783840417861938e-02,-1.518525555729866028e-02,5.381955578923225403e-02,1.580185070633888245e-02,-2.155758440494537354e-03,1.628889515995979309e-02,7.737388834357261658e-03,4.281109571456909180e-02,6.704409420490264893e-02,-1.186430267989635468e-02,-2.123165875673294067e-02,-1.254424452781677246e-02,3.955256938934326172e-02,-4.088290035724639893e-02,-2.436189912259578705e-02,-6.372131407260894775e-02,-4.917014390230178833e-03,-1.396350748836994171e-02,-1.880615949630737305e-03,-2.370832487940788269e-03,2.828864380717277527e-02,2.797245793044567108e-02,-2.299132011830806732e-02,2.580720931291580200e-03,1.082240231335163116e-02,-6.478636711835861206e-02,4.186170175671577454e-02,-5.107022076845169067e-02,-5.491636693477630615e-02,4.900474101305007935e-03,-1.858569495379924774e-02,-1.852657273411750793e-02,1.795514114201068878e-02,-4.475756734609603882e-02,-1.181085966527462006e-02,-1.173318270593881607e-02,-6.066229939460754395e-02,7.751006633043289185e-03,-2.804198302328586578e-02,6.394881755113601685e-02,7.042863965034484863e-02,-9.493626654148101807e-03,-7.424820214509963989e-03,-2.017050795257091522e-02,5.461351573467254639e-02,-2.562001347541809082e-02,7.312735915184020996e-02,8.950142562389373779e-02,-2.614650875329971313e-03,-2.595650404691696167e-02,-5.494599044322967529e-02,-4.657092690467834473e-02,-9.902657940983772278e-03,4.538217559456825256e-03,4.276511259377002716e-03,6.045214831829071045e-04,-3.366472199559211731e-03,-1.399333216249942780e-02,-5.012879148125648499e-02,-1.261528767645359039e-02,-1.154458336532115936e-02,-7.055345922708511353e-03,-1.157419197261333466e-02,-1.329484209418296814e-02,-4.662450402975082397e-03,8.918578922748565674e-02,-1.109143719077110291e-03,8.356748148798942566e-03,-3.640190698206424713e-03,-8.812200278043746948e-03,-1.261260546743869781e-02,-1.262831129133701324e-02,3.281139954924583435e-02,-1.725819148123264313e-02,-1.059691794216632843e-02,-1.511478237807750702e-02,-1.061189174652099609e-02,-1.356071420013904572e-02,-2.382324263453483582e-02,-4.973092675209045410e-02,-1.266039907932281494e-04,4.131363704800605774e-02,-5.187229812145233154e-02,-1.364988274872303009e-02,-1.955199614167213440e-02,-2.287587150931358337e-03,1.216504536569118500e-02,-1.013638079166412354e-02,-1.885831728577613831e-02,-1.025800034403800964e-02,1.241094246506690979e-02,-1.276461593806743622e-02,-1.941803470253944397e-02,-7.230170071125030518e-03,-9.267574176192283630e-03,-5.026996135711669922e-03,3.994472324848175049e-03,7.018086314201354980e-02,-2.639585733413696289e-02,2.159621939063072205e-02,-3.971627727150917053e-02,-2.121117897331714630e-02,-4.127671197056770325e-02,-1.246020756661891937e-02,-5.767848342657089233e-02,1.522116921842098236e-02,-1.072683557868003845e-02,-1.260685548186302185e-02,-1.780530437827110291e-02,-1.249263994395732880e-02,-2.334625646471977234e-02,-9.367279708385467529e-03,-6.596882641315460205e-02,1.743774488568305969e-02,1.039173454046249390e-03,6.168562546372413635e-02,-3.627665340900421143e-03,1.285859346389770508e-01,-1.100823841989040375e-02,-2.639273926615715027e-02,-5.365235358476638794e-02,-1.812447980046272278e-02,-3.212955594062805176e-02,4.058681055903434753e-02,-5.715691670775413513e-02,-4.595113545656204224e-02,-1.633046939969062805e-02,1.408759038895368576e-02,7.472347468137741089e-02,1.043080836534500122e-01,1.108188182115554810e-03,3.000584244728088379e-02,-5.132504925131797791e-02,-1.239814236760139465e-02,-2.886001020669937134e-04,-1.205747574567794800e-02,-1.285859756171703339e-02,-1.553177274763584137e-02,-3.777071833610534668e-04,-4.032943397760391235e-03,1.654200255870819092e-02,-3.813517838716506958e-02,4.139835014939308167e-02,-1.578716933727264404e-02,-3.038526512682437897e-02,7.651696354150772095e-02,4.293739795684814453e-03,-1.848198473453521729e-02,3.788886964321136475e-02,-1.414130628108978271e-02,-3.348629921674728394e-02,-1.306435838341712952e-02,9.040700271725654602e-03,-2.724767848849296570e-02,6.907483935356140137e-02,5.475958436727523804e-02,-1.193238236010074615e-02,5.519799143075942993e-02,7.582332193851470947e-02,7.363965734839439392e-03,1.285542249679565430e-01,-1.323555223643779755e-02,4.551126435399055481e-02,1.142228394746780396e-01,9.429000318050384521e-03,-5.740940570831298828e-02,8.708337694406509399e-02,1.212480068206787109e-01,-1.242334954440593719e-02,1.199508272111415863e-02,2.351817116141319275e-02,3.811462968587875366e-02,-1.295495033264160156e-02,-3.565602377057075500e-02,-2.699057757854461670e-02,5.455946549773216248e-03,-1.033134013414382935e-02,-5.083294585347175598e-03,1.433276385068893433e-01,-3.925229981541633606e-02,2.737564221024513245e-02,-5.225803703069686890e-03,-2.597380615770816803e-02,-1.510466076433658600e-02,-1.069894805550575256e-02,4.475103691220283508e-02,-1.418408006429672241e-02,9.018576890230178833e-02,3.746686875820159912e-02,8.817556500434875488e-02,-9.221017360687255859e-03,-3.227471932768821716e-02,-3.284104168415069580e-03,-2.504888921976089478e-03,3.618267551064491272e-02,9.892364591360092163e-02,7.406315207481384277e-02,8.130274713039398193e-02,-1.407828368246555328e-02,4.210216552019119263e-02,-3.648404404520988464e-02,-1.000690460205078125e-02,1.160140931606292725e-01,1.787179708480834961e-02,-1.447735354304313660e-03,-3.501338139176368713e-02,4.277218505740165710e-02,1.126037910580635071e-03,-2.534741908311843872e-02,-1.418761257082223892e-02,7.800470292568206787e-02,-1.610507816076278687e-02,8.031781762838363647e-03,-7.102805376052856445e-02,5.429831519722938538e-02,7.545800507068634033e-02,3.667091205716133118e-02,6.500935181975364685e-03,-8.959770202636718750e-03,9.689217805862426758e-02,-2.989371120929718018e-02,-1.703308895230293274e-02,-3.400385752320289612e-02,-6.558259949088096619e-03,-1.415415853261947632e-02,-5.722812190651893616e-02,4.736656695604324341e-02,-1.339894626289606094e-02,-3.865104913711547852e-02,-4.529513418674468994e-03,-8.549567312002182007e-03,-6.430409103631973267e-02,-1.532130315899848938e-02,-1.151550188660621643e-02,-9.421439841389656067e-03,-6.756895780563354492e-02,-8.756477385759353638e-03,-1.473251730203628540e-03,7.654339075088500977e-03,3.518373891711235046e-02,3.693304210901260376e-02,6.207489967346191406e-02,-2.166460268199443817e-02,-5.465690046548843384e-04,-1.313785277307033539e-02,-1.133572310209274292e-03,1.929651014506816864e-02,1.206064969301223755e-02,-1.190485805273056030e-02,7.029386609792709351e-02,-2.224513888359069824e-02,-1.129772327840328217e-02,-8.462537080049514771e-03,-1.690446771681308746e-02,6.811366975307464600e-02,1.171061769127845764e-02,-2.770446240901947021e-03,1.545255780220031738e-01,-1.024358905851840973e-02,-1.127668097615242004e-02,-8.138092234730720520e-03,7.334769517183303833e-02,1.074651256203651428e-01,3.506035357713699341e-02,-3.852340951561927795e-02,-6.387873739004135132e-02,-1.507230103015899658e-02,1.598887704312801361e-02,-1.197733730077743530e-02,-4.924274981021881104e-02,-1.073668152093887329e-02,-4.319429397583007812e-03,1.801874302327632904e-02,-7.591925561428070068e-03,-1.211667060852050781e-02,-1.459565851837396622e-02,-9.562522172927856445e-04,-1.274729706346988678e-02,-7.754389196634292603e-03,-1.138916239142417908e-02,-3.694180399179458618e-03,-3.323964774608612061e-03,-4.774133488535881042e-02,-5.965960025787353516e-02,1.893078908324241638e-03,-3.254249319434165955e-02,-1.713969744741916656e-02,-9.606376290321350098e-02,1.366957090795040131e-02,3.764033317565917969e-03,5.508986115455627441e-02,-1.127304136753082275e-02,-1.913197338581085205e-03,-1.247554272413253784e-02,8.943801373243331909e-02,3.181827813386917114e-02,-1.065311208367347717e-02,-6.054566428065299988e-02,3.641931712627410889e-02,-2.095462195575237274e-02,-1.002835109829902649e-02,4.750290885567665100e-02,1.258951276540756226e-01,-9.445687755942344666e-03,-7.770568132400512695e-03,-1.424718834459781647e-02,-9.963013231754302979e-03,8.658375591039657593e-04,-3.895863145589828491e-02,-9.334364905953407288e-03,8.996798098087310791e-02,-1.445679366588592529e-02,-2.551122754812240601e-02,6.191270425915718079e-03,4.593989625573158264e-02,-6.634888052940368652e-02,-2.511006407439708710e-02,-1.224091649055480957e-02,8.779994398355484009e-02,-2.606915310025215149e-02,-7.670931518077850342e-03,-2.331998758018016815e-02,-1.350902579724788666e-02,3.858311101794242859e-02,-2.018550597131252289e-02,-1.658271811902523041e-02,-4.753954708576202393e-03,6.664540618658065796e-02,-9.890478104352951050e-03,1.760571822524070740e-02,-5.472354590892791748e-03,-1.546838879585266113e-02,-1.325252093374729156e-02,-1.059178262948989868e-02,4.523964971303939819e-02,2.178242057561874390e-02,-7.500059902667999268e-03,-8.807238191366195679e-03,-1.788362301886081696e-02,-1.493876799941062927e-02,-5.591940134763717651e-02,-1.110774278640747070e-02,2.333105355501174927e-02,-1.401271671056747437e-03,3.469593450427055359e-02,2.959056943655014038e-02,-6.060452386736869812e-02,-2.775476686656475067e-02,8.938789367675781250e-03,-9.633434936404228210e-03,1.162699684500694275e-01,-2.463121339678764343e-02,-1.286849565804004669e-02,-1.399547979235649109e-02,3.461984917521476746e-03,-1.519635505974292755e-02,-3.777759894728660583e-02,1.139524020254611969e-02,2.955701202154159546e-04,-2.911607921123504639e-02,-1.837262138724327087e-02,-1.027311384677886963e-02,-2.828582376241683960e-02,-3.774812072515487671e-02,-1.635089144110679626e-02,-1.377296820282936096e-02,5.691940709948539734e-02,-8.804856240749359131e-02,-1.448538899421691895e-02,2.923733368515968323e-02,-1.648161001503467560e-02,-1.353118382394313812e-02,1.251911744475364685e-03,-3.290352225303649902e-02,-1.014575920999050140e-02,-2.926812507212162018e-02,3.692261502146720886e-02,-5.462241917848587036e-02,-1.077777892351150513e-02,2.682488039135932922e-02,-3.564132377505302429e-02,1.441022101789712906e-02,-1.990447938442230225e-02,-1.327105425298213959e-02,-4.660135507583618164e-02,-4.296053200960159302e-03,-8.262877166271209717e-02,-8.384373039007186890e-03,-1.568067818880081177e-02,-1.002948917448520660e-02,-1.626042462885379791e-02,-8.718036115169525146e-04,-3.094319254159927368e-03,-3.142218664288520813e-02,-1.486518979072570801e-02,5.677957087755203247e-04,2.661651745438575745e-02,5.170954763889312744e-02,7.839142531156539917e-02,1.317549198865890503e-01,-7.872438430786132812e-02,-1.583422534167766571e-02,-7.674001157283782959e-03,-2.176648937165737152e-02,-1.314602233469486237e-02,-1.448672264814376831e-03,-3.926201537251472473e-02,-2.308773249387741089e-02,-9.179376065731048584e-04,-2.344178035855293274e-02,-3.185316920280456543e-03,5.312535539269447327e-02,2.645796723663806915e-02,-4.789718240499496460e-02,3.537461161613464355e-04,1.670259982347488403e-02,-4.213135689496994019e-03,-1.953697763383388519e-02,-3.225918859243392944e-02,-2.246216870844364166e-02,5.919315665960311890e-02,-5.007090792059898376e-02,-2.329589985311031342e-02,-1.250663772225379944e-02,-1.816171780228614807e-02,-1.737058907747268677e-02,-3.064076229929924011e-02,-9.898573160171508789e-03,-1.315527781844139099e-02,8.717067539691925049e-03,-1.228310540318489075e-02,-2.898579463362693787e-03,-4.160719364881515503e-02,-4.676487669348716736e-02,-5.163522809743881226e-02
2.487646602094173431e-02,2.746911719441413879e-03,5.696210265159606934e-02,-3.119096159934997559e-03,8.672480285167694092e-02,6.145581603050231934e-03,4.599520564079284668e-02,1.408503949642181396e-01,1.691196486353874207e-02,2.783100679516792297e-02,3.067530132830142975e-02,-1.677866652607917786e-02,3.140470758080482483e-02,1.522520333528518677e-01,7.871933281421661377e-03,2.760743163526058197e-02,4.783603176474571228e-02,-1.509537547826766968e-02,5.045146495103836060e-02,5.100296437740325928e-02,8.825092017650604248e-02,1.008865907788276672e-01,1.639651507139205933e-02,1.094460412859916687e-01,3.371103852987289429e-02,2.010373771190643311e-02,-1.440241932868957520e-03,2.841554954648017883e-02,5.681311711668968201e-02,-1.282138284295797348e-03,4.178570210933685303e-02,1.004823297262191772e-02,3.507173806428909302e-02,5.675056949257850647e-02,8.563791215419769287e-02,1.412546336650848389e-01,2.645945549011230469e-02,2.933223918080329895e-02,3.410666063427925110e-02,5.401868373155593872e-02,2.268399484455585480e-02,4.171196371316909790e-02,1.681696474552154541e-01,1.773594878613948822e-02,2.744790539145469666e-02,2.790954895317554474e-02,4.602936655282974243e-02,-2.223045192658901215e-02,2.890091389417648315e-02,4.033848643302917480e-02,-7.507048547267913818e-03,2.950215339660644531e-02,5.915640294551849365e-02,2.636390551924705505e-02,2.144980616867542267e-02,3.086835332214832306e-02,2.606862783432006836e-02,-9.757108986377716064e-03,3.031911328434944153e-02,-1.130443625152111053e-02,5.497663468122482300e-02,5.452362447977066040e-02,2.052208594977855682e-02,4.606771841645240784e-02,3.413277491927146912e-02,5.639990419149398804e-02,1.900993101298809052e-02,3.658386878669261932e-03,-3.648299956694245338e-03,2.443542517721652985e-02,5.652000755071640015e-02,3.163007646799087524e-02,3.488168120384216309e-02,3.161542117595672607e-02,5.667607486248016357e-02,-3.319511190056800842e-03,-8.810948580503463745e-03,-2.286136522889137268e-02,3.589191287755966187e-02,3.851856663823127747e-02,9.656446054577827454e-03,3.375392779707908630e-02,1.004142686724662781e-03,2.390510402619838715e-02,2.695764042437076569e-02,4.621492698788642883e-02,3.118648007512092590e-02,1.082659661769866943e-01,2.754226140677928925e-02,2.565566822886466980e-02,1.678789407014846802e-02,3.268909081816673279e-02,-1.656503602862358093e-02,2.712450921535491943e-02,1.834186725318431854e-02,4.354056715965270996e-02,2.701853215694427490e-02,4.805483669042587280e-02,4.666318371891975403e-02,3.001914173364639282e-02,2.723317593336105347e-02,4.870048165321350098e-02,3.271374851465225220e-02,1.010498497635126114e-02,4.314263164997100830e-02,1.669462397694587708e-02,3.068788722157478333e-02,1.104843765497207642e-01,4.707958549261093140e-02,4.027098417282104492e-02,1.075568869709968567e-01,3.559485822916030884e-02,2.123534679412841797e-03,1.210358068346977234e-01,2.819888666272163391e-02,5.192688107490539551e-02,5.002760514616966248e-02,1.200737059116363525e-01,5.833975970745086670e-02,-1.578484475612640381e-02,2.706824988126754761e-02,1.411132961511611938e-01,5.133910104632377625e-03,4.546203464269638062e-02,3.464695811271667480e-02,2.089151740074157715e-02,3.167854249477386475e-02,4.034179076552391052e-02,8.394891023635864258e-02,-2.211094601079821587e-03,3.559480980038642883e-02,5.070948228240013123e-02,-3.236970305442810059e-02,2.626905031502246857e-02,3.208573162555694580e-02,3.297914937138557434e-02,3.423162922263145447e-02,4.407361522316932678e-02,2.745244652032852173e-02,3.283545747399330139e-02,1.592982858419418335e-01,-2.675650641322135925e-02,3.212697058916091919e-02,1.052782982587814331e-01,2.799856476485729218e-02,2.800015732645988464e-02,3.427940607070922852e-02,6.189721450209617615e-02,1.226218789815902710e-02,-1.501826941967010498e-02,3.091736882925033569e-02,1.604028791189193726e-01,2.917542681097984314e-02,3.279673680663108826e-02,3.166635334491729736e-02,2.980689890682697296e-02,5.067727342247962952e-02,9.532932937145233154e-02,3.287505358457565308e-02,1.342218369245529175e-01,-2.139383926987648010e-03,2.962559461593627930e-02,2.728768251836299896e-02,5.822477862238883972e-02,4.134258627891540527e-02,9.009729325771331787e-02,5.540736019611358643e-02,1.272881124168634415e-02,3.001730144023895264e-02,1.238155812025070190e-01,2.668464928865432739e-02,8.656576275825500488e-02,1.579727232456207275e-02,1.408705562353134155e-01,5.001043528318405151e-02,3.094088286161422729e-02,1.619834452867507935e-02,3.228516504168510437e-02,-3.467094153165817261e-03,2.876555174589157104e-02,4.079915583133697510e-02,1.028080806136131287e-01,3.138819336891174316e-02,4.871664941310882568e-02,1.078257039189338684e-01,1.003219038248062134e-01,4.513661190867424011e-02,6.679473444819450378e-03,2.905864454805850983e-02,8.209139108657836914e-02,4.290889203548431396e-02,3.828144818544387817e-02,-4.362216219305992126e-03,2.793317660689353943e-02,3.370323404669761658e-02,-6.395526230335235596e-03,3.174881637096405029e-02,2.692120149731636047e-02,1.161898970603942871e-01,4.633252322673797607e-02,5.985899269580841064e-02,1.672863960266113281e-02,5.686008930206298828e-02,3.417816013097763062e-03,2.624292299151420593e-02,5.474618822336196899e-02,3.115482628345489502e-02,2.701848372817039490e-02,1.770043000578880310e-02,2.822208404541015625e-02,2.231802418828010559e-02,-2.504970505833625793e-02,1.778533309698104858e-02,5.654124915599822998e-02,-1.606566458940505981e-02,2.537570893764495850e-02,2.017025649547576904e-02,5.850381404161453247e-02,1.445059292018413544e-02,3.335861489176750183e-02,2.809774875640869141e-02,4.115496575832366943e-02,3.803678974509239197e-02,1.795481704175472260e-02,5.443112552165985107e-02,1.489157043397426605e-02,1.409636884927749634e-01,4.385188966989517212e-02,3.237744420766830444e-02,1.295317336916923523e-02,-4.147127270698547363e-03,-2.669639140367507935e-02,2.822298929095268250e-02,7.085877656936645508e-02,8.661979436874389648e-02,2.608509175479412079e-02,5.777772516012191772e-03,2.719618007540702820e-02,2.640866860747337341e-02,1.029933616518974304e-01,4.324828833341598511e-02,2.697889693081378937e-02,3.430766612291336060e-02,2.696830779314041138e-02,2.954176440834999084e-02,6.024066358804702759e-02,3.405009955167770386e-02,-1.563340425491333008e-02,6.085712462663650513e-02,-1.062168739736080170e-02,3.408347954973578453e-03,3.057039156556129456e-02,-9.208437055349349976e-03,1.075713932514190674e-01,8.370781317353248596e-03,3.276617452502250671e-02,2.758385799825191498e-02,5.913019180297851562e-02,5.655080080032348633e-02,1.730710268020629883e-03,4.120160266757011414e-02,-2.101629506796598434e-03,1.007350385189056396e-01,3.125706315040588379e-02,1.090607494115829468e-01,-2.138833329081535339e-02,2.236484736204147339e-02,4.235985875129699707e-02,2.255086600780487061e-02,9.528457373380661011e-02,3.059124201536178589e-02,2.881696075201034546e-02,2.678728848695755005e-02,1.672837138175964355e-02,8.169377222657203674e-03,2.860199660062789917e-02,1.272268034517765045e-02,4.125741869211196899e-02,3.816091455519199371e-03,2.618407830595970154e-02,4.407128691673278809e-02,7.659399509429931641e-02,3.563280776143074036e-02,1.125190630555152893e-01,3.334151953458786011e-02,3.548574447631835938e-02,5.489682406187057495e-02,2.982593514025211334e-02,3.024869039654731750e-02,1.080958768725395203e-01,1.411779597401618958e-02,5.853949114680290222e-02,5.233759805560112000e-02,3.491861745715141296e-02,1.077761948108673096e-01,4.431923106312751770e-02,-1.122153364121913910e-02,2.862365730106830597e-02,5.059804394841194153e-02,3.585020080208778381e-02,1.325929164886474609e-01,5.632008612155914307e-02,3.157602995634078979e-02,3.560039214789867401e-03,2.645487338304519653e-02,2.304046973586082458e-02,2.234447374939918518e-02,3.079377859830856323e-02,1.043669804930686951e-01,3.136713057756423950e-02,3.048292733728885651e-02,4.385208711028099060e-02,2.785475179553031921e-02,3.381118178367614746e-02,4.704763740301132202e-02,7.794968783855438232e-03,1.788646727800369263e-01,5.190308392047882080e-02,3.193451836705207825e-02,1.742848008871078491e-02,2.599163725972175598e-02,1.289044134318828583e-02,2.071197517216205597e-02,6.610302627086639404e-02,-9.892538189888000488e-03,3.445276618003845215e-02,5.754005908966064453e-02,2.805039659142494202e-02,2.828317880630493164e-02,2.101239003241062164e-02,-4.356811940670013428e-02,4.753293097019195557e-02,3.367524966597557068e-02,3.050459921360015869e-02,1.619688048958778381e-02,2.865647338330745697e-02,-7.702071219682693481e-03,5.309825390577316284e-02,3.374985978007316589e-02,2.581518515944480896e-02,-4.972975701093673706e-03,3.214763104915618896e-02,3.511593118309974670e-02,5.205381661653518677e-02,5.125491321086883545e-02,-9.370684623718261719e-03,4.221082106232643127e-02,5.470010265707969666e-02,-2.690255641937255859e-04,5.734421312808990479e-02,2.520135417580604553e-02,-1.035474240779876709e-02,2.513244003057479858e-02,-7.390087470412254333e-03,1.046021282672882080e-01,4.232424497604370117e-02,5.868829414248466492e-02,2.069667913019657135e-03,3.398013859987258911e-02,3.447718918323516846e-02,2.955957874655723572e-02,4.785670340061187744e-02,9.749680012464523315e-02,-1.014215499162673950e-02,2.880371361970901489e-02,4.812772199511528015e-02,3.113903664052486420e-02,-1.517000049352645874e-02,2.603463456034660339e-02,2.745131030678749084e-03,1.227836310863494873e-01,5.544408783316612244e-02,2.172240614891052246e-02,-8.472500368952751160e-03,2.948160655796527863e-02,2.311850711703300476e-02,-1.425598561763763428e-02,4.680465906858444214e-02,1.449082605540752411e-02,3.287851065397262573e-02,2.921508811414241791e-02,4.926040023565292358e-02,5.492992699146270752e-02,5.170270800590515137e-02,8.062302134931087494e-03,3.043918497860431671e-02,1.496891528367996216e-01,2.798630669713020325e-02,4.807655699551105499e-03,1.693408936262130737e-02,2.898555807769298553e-02,3.515040874481201172e-02,2.600855752825737000e-02,2.803666144609451294e-02,-1.485622487962245941e-04,4.315919429063796997e-02,-6.337240338325500488e-03,1.174450200051069260e-02,4.201572015881538391e-02,3.049389645457267761e-02,1.491145044565200806e-02,6.021798588335514069e-03,1.299212276935577393e-01,2.976720221340656281e-02,3.053913079202175140e-02,9.193778038024902344e-03,-2.737103961408138275e-03,5.477197840809822083e-02,3.181985393166542053e-02,5.864794552326202393e-02,8.487781882286071777e-02,4.036213457584381104e-02,5.751514807343482971e-02,2.556480467319488525e-02,4.635741561651229858e-02,3.296001255512237549e-02,3.141076117753982544e-02,9.799802303314208984e-02,3.402550891041755676e-02,4.448835551738739014e-02,2.201237715780735016e-02,2.871973672881722450e-03,3.044376894831657410e-02,1.097643077373504639e-01,3.219841793179512024e-02,-5.758762359619140625e-03,5.706702917814254761e-02,3.300486877560615540e-02,4.904552176594734192e-02,1.388961076736450195e-02,5.740394350141286850e-03,4.717753455042839050e-02,2.810004353523254395e-02,2.411041222512722015e-02,2.780252881348133087e-02,2.881794050335884094e-02,1.866418309509754181e-02,5.038488656282424927e-03,5.572198424488306046e-03,2.650489471852779388e-02,-1.331131160259246826e-02,3.572930023074150085e-02,3.043506667017936707e-02,3.162079304456710815e-02,5.477523803710937500e-02,2.598308771848678589e-02,-5.021970719099044800e-04,1.667258888483047485e-02,-3.415018320083618164e-03,1.209461539983749390e-01,3.137999773025512695e-02,3.167268261313438416e-02,1.494397372007369995e-01,1.763280853629112244e-02,3.190394863486289978e-02,5.228462442755699158e-02,5.686619132757186890e-02,5.729010701179504395e-02,1.232375390827655792e-02,4.265860095620155334e-02,2.536188811063766479e-02,5.400955304503440857e-02,-1.514334976673126221e-02,-9.024677798151969910e-03,3.881974611431360245e-03,3.086354210972785950e-02,3.300266340374946594e-02,3.662557154893875122e-02,3.316356986761093140e-02,4.685732722282409668e-02,2.755703404545783997e-03,3.282852843403816223e-02,3.376457095146179199e-02,3.045497834682464600e-02,-4.443466663360595703e-03,-6.556856445968151093e-03,4.558558389544487000e-02,2.960366383194923401e-02,7.619424164295196533e-02,2.900600433349609375e-02,1.706436276435852051e-02,3.358565270900726318e-02,5.485635623335838318e-02,3.373790532350540161e-02,3.034366667270660400e-02,7.639237493276596069e-02,3.193284198641777039e-02,3.433195501565933228e-02,6.863312423229217529e-02,4.186307266354560852e-02,-2.133108675479888916e-03,2.955343574285507202e-02,5.630209669470787048e-02,5.759961530566215515e-02,6.528239697217941284e-02,5.166639387607574463e-02,3.475503996014595032e-02,4.974424466490745544e-02,2.072666771709918976e-02,9.252932667732238770e-02,1.275750901550054550e-02,4.052161052823066711e-02,2.985196933150291443e-02,1.547220200300216675e-01,3.327734768390655518e-02,6.111564487218856812e-02,3.813844546675682068e-02,8.816580474376678467e-02,3.121111914515495300e-02,5.346641317009925842e-02,4.497682303190231323e-02,6.125914677977561951e-02,1.733791083097457886e-02,9.290990419685840607e-03,1.248097233474254608e-02,1.344309840351343155e-02,2.869053743779659271e-02,-6.056662648916244507e-03,-6.690457463264465332e-03,3.785312920808792114e-02,7.295478135347366333e-03,4.048035293817520142e-02,2.018684893846511841e-02,-3.964710049331188202e-03,2.804583869874477386e-02,3.413359075784683228e-02,2.739661931991577148e-02,2.216694504022598267e-02,3.665296360850334167e-02,7.303708046674728394e-02,3.548845648765563965e-02,5.333848297595977783e-02,2.709864079952239990e-02,1.757631450891494751e-02,7.671487331390380859e-02,4.611491784453392029e-02,3.174237161874771118e-02,3.086657077074050903e-02,2.477687411010265350e-02,2.640116959810256958e-02,6.764565408229827881e-02,2.675145491957664490e-02,2.604328654706478119e-02,3.318196535110473633e-02,5.489811301231384277e-02,2.899299934506416321e-02,4.767419397830963135e-02,3.727801889181137085e-02,-1.014221832156181335e-02,3.259389847517013550e-02,2.061571367084980011e-02,4.196375608444213867e-02,-2.711834851652383804e-03,4.141810163855552673e-02,6.232692301273345947e-02,5.566371232271194458e-02,2.638208866119384766e-02,-2.310622483491897583e-02,4.973877966403961182e-02,2.731566876173019409e-02,3.155024722218513489e-02,5.920088291168212891e-02,3.037816472351551056e-02,4.615023732185363770e-02,2.059232443571090698e-02,2.636788599193096161e-02,4.394657909870147705e-03,9.071383625268936157e-02,2.371627092361450195e-02,-6.622739136219024658e-03,3.894967585802078247e-02,2.477036416530609131e-02,4.783226177096366882e-02,9.631084650754928589e-02,1.977489329874515533e-02,4.419659078121185303e-02,1.587166264653205872e-02,5.720298364758491516e-02,-7.664406672120094299e-03,4.468889161944389343e-02,1.463254354894161224e-02,-1.421339809894561768e-02,1.852756552398204803e-02,3.157145902514457703e-02,2.549384161829948425e-02,5.118156969547271729e-02,6.361920386552810669e-02,4.295055195689201355e-02,2.949398010969161987e-02,2.982461638748645782e-02,3.878205548971891403e-03,8.511739969253540039e-02,3.989390283823013306e-02,2.684125443920493126e-03,2.780809067189693451e-02,3.026270866394042969e-02,3.369727730751037598e-02,-2.156945690512657166e-02,1.161725725978612900e-03,1.184524688869714737e-02,4.649253189563751221e-02,1.065184548497200012e-02,2.147101238369941711e-02,5.386689305305480957e-02,5.973476916551589966e-02,9.376953542232513428e-02,2.862599305808544159e-02,-1.869104430079460144e-02,2.688431367278099060e-02,6.234080716967582703e-02,5.770525708794593811e-02,9.928973019123077393e-02,1.169863343238830566e-01,3.037881106138229370e-02,5.771550536155700684e-02,4.951278865337371826e-02,5.038823187351226807e-02,3.323977440595626831e-02,2.031018026173114777e-02,5.443447083234786987e-02,3.145845606923103333e-02,1.282782945781946182e-02,4.552249982953071594e-02,6.241671368479728699e-02,3.558240830898284912e-02,2.099374122917652130e-02,3.275197744369506836e-02,1.422779727727174759e-02,2.574643306434154510e-02,4.794514179229736328e-02,1.179757118225097656e-01,-1.098366454243659973e-03,-5.651369690895080566e-03,5.325327813625335693e-02,3.075519762933254242e-02,3.574474155902862549e-02,1.088020019233226776e-02,3.308693319559097290e-02,5.062223970890045166e-02,4.898624494671821594e-02,3.299961611628532410e-02,1.262737810611724854e-02,2.980884164571762085e-02,3.206565976142883301e-02,2.053108438849449158e-02,3.279891610145568848e-02,5.885172635316848755e-02,-2.378254430368542671e-03,2.041040733456611633e-02,2.494647912681102753e-02,2.533068880438804626e-02,1.244377158582210541e-02,-1.583458855748176575e-03,4.451306536793708801e-02,2.385879866778850555e-02,3.414769470691680908e-02,2.493828907608985901e-02,4.391615092754364014e-02,3.275382891297340393e-02,3.023238666355609894e-02,1.635888963937759399e-02,2.418840862810611725e-02,9.642585366964340210e-02,5.884052440524101257e-02,3.286982700228691101e-02,3.898724913597106934e-02,4.539619013667106628e-02,-3.890478983521461487e-04,2.895088493824005127e-02,4.953215364366769791e-03,2.880351617932319641e-02,2.892386354506015778e-02,3.184627369046211243e-02,2.988546714186668396e-02,2.954692207276821136e-02,4.423660039901733398e-02,2.090071141719818115e-02,-6.576496525667607784e-04,4.903945326805114746e-02,3.181659430265426636e-02,8.995200693607330322e-02,2.977923490107059479e-02,1.562749445438385010e-01,2.207823097705841064e-03,5.948870629072189331e-02,-6.852510850876569748e-04,4.640261456370353699e-02,5.618361011147499084e-02,7.827844470739364624e-02,-2.202686853706836700e-03,6.131881475448608398e-02,3.319838643074035645e-02,2.850881405174732208e-02,9.380993992090225220e-02,1.299265325069427490e-01,3.410335630178451538e-03,5.890396237373352051e-02,2.114872261881828308e-02,1.473693456500768661e-02,2.639357931911945343e-02,3.134257718920707703e-02,2.788938581943511963e-02,1.116742379963397980e-02,1.673621311783790588e-02,1.992405764758586884e-02,4.692371934652328491e-02,-1.452975533902645111e-02,5.330099537968635559e-02,4.446455836296081543e-02,5.539602786302566528e-02,9.800796955823898315e-02,2.459222450852394104e-02,5.366453528404235840e-02,7.809951901435852051e-02,6.353598088026046753e-03,-1.199025660753250122e-03,4.764115065336227417e-02,3.899963200092315674e-02,3.610126674175262451e-02,1.037166416645050049e-01,5.163196474313735962e-02,3.583562746644020081e-02,5.198621749877929688e-02,1.042605489492416382e-01,3.978449851274490356e-02,1.225524246692657471e-01,3.562607988715171814e-02,5.984038859605789185e-02,1.395030617713928223e-01,6.656166166067123413e-02,1.750793773680925369e-03,1.165926158428192139e-01,1.528815776109695435e-01,2.670962736010551453e-02,4.564778134226799011e-02,4.291279986500740051e-02,6.145346164703369141e-02,2.656385861337184906e-02,-6.054779514670372009e-04,5.612560734152793884e-02,3.745848685503005981e-02,1.040454953908920288e-02,2.581834606826305389e-02,1.744191497564315796e-01,-7.177976891398429871e-03,3.089869022369384766e-02,1.052408851683139801e-02,3.521354496479034424e-02,-5.397008731961250305e-03,2.550651133060455322e-02,7.403792440891265869e-02,3.621854633092880249e-02,1.235535740852355957e-01,3.359484300017356873e-02,1.039261594414710999e-01,3.647710755467414856e-02,3.411231189966201782e-02,-8.912395685911178589e-03,3.202473372220993042e-02,4.007533192634582520e-02,1.258932054042816162e-01,8.926001936197280884e-02,1.128518730401992798e-01,2.309508621692657471e-03,-2.848336100578308105e-02,4.203336313366889954e-02,3.407428041100502014e-02,1.541228294372558594e-01,2.920938096940517426e-02,-1.772425882518291473e-02,5.198118835687637329e-02,8.733199536800384521e-02,2.903686091303825378e-02,5.227788910269737244e-02,4.564075544476509094e-02,9.464666992425918579e-02,-1.087156496942043304e-02,6.465168669819831848e-03,1.580460183322429657e-02,7.593033462762832642e-02,5.710245296359062195e-02,3.805450722575187683e-02,9.886611253023147583e-03,-1.186825707554817200e-02,1.321698725223541260e-01,2.982030063867568970e-02,3.368245810270309448e-02,2.756989747285842896e-02,2.969269454479217529e-02,4.725684970617294312e-02,3.365342039614915848e-03,6.930904090404510498e-02,-1.434829086065292358e-03,3.811959922313690186e-02,5.134271830320358276e-02,-7.056584581732749939e-03,4.644592292606830597e-03,3.409206867218017578e-02,3.029629774391651154e-02,2.157294191420078278e-02,7.406649645417928696e-03,3.505320847034454346e-02,2.023456059396266937e-02,-1.922411471605300903e-02,3.078084997832775116e-02,5.863086134195327759e-02,4.271695017814636230e-02,-4.460350610315799713e-03,2.583988010883331299e-02,4.771188646554946899e-02,2.516035549342632294e-02,-1.571650803089141846e-02,3.089184500277042389e-02,2.800764888525009155e-02,7.580783218145370483e-02,4.501545801758766174e-02,3.679107129573822021e-02,3.363503888249397278e-02,4.173830896615982056e-02,8.890215307474136353e-02,4.315543547272682190e-02,2.703315205872058868e-02,1.853385865688323975e-01,1.147578470408916473e-02,2.978038787841796875e-02,3.035853244364261627e-02,9.864011406898498535e-02,1.403612941503524780e-01,-2.012095227837562561e-02,-1.299008727073669434e-03,1.206623204052448273e-02,4.753272235393524170e-02,4.275037720799446106e-02,2.970372885465621948e-02,8.282125927507877350e-04,2.985623106360435486e-02,2.878935635089874268e-02,3.748957067728042603e-03,1.492483727633953094e-02,3.127094730734825134e-02,4.528381302952766418e-02,1.003615185618400574e-02,5.691732838749885559e-02,3.008659370243549347e-02,2.760485373437404633e-02,-1.820569857954978943e-02,1.004790887236595154e-03,3.617703169584274292e-02,1.921901945024728775e-03,2.453568764030933380e-02,4.236360266804695129e-02,1.120495609939098358e-02,2.735431492328643799e-02,4.474021866917610168e-02,2.014211378991603851e-02,8.049774914979934692e-02,3.616342321038246155e-02,3.159064799547195435e-02,3.076403960585594177e-02,1.251172125339508057e-01,5.807711556553840637e-02,2.936169877648353577e-02,4.187121521681547165e-05,5.902088806033134460e-02,4.593503102660179138e-02,1.073543168604373932e-02,6.466947495937347412e-02,1.576048731803894043e-01,4.701212793588638306e-02,3.742362558841705322e-02,1.543101109564304352e-02,3.064643591642379761e-02,5.357215553522109985e-02,-8.520735427737236023e-04,9.346507489681243896e-03,1.024762988090515137e-01,2.740575559437274933e-02,5.555444583296775818e-02,2.676190063357353210e-02,5.871143937110900879e-02,4.279694519937038422e-03,4.719999805092811584e-02,1.870610564947128296e-02,1.147914007306098938e-01,4.521483182907104492e-02,3.921747207641601562e-03,5.322240293025970459e-02,2.705018036067485809e-02,6.077694147825241089e-02,3.092688322067260742e-02,1.313860528171062469e-02,3.014359250664710999e-02,8.786212652921676636e-02,-2.048112079501152039e-02,2.822669222950935364e-02,2.873423509299755096e-02,3.078421764075756073e-02,2.557119354605674744e-02,3.090537153184413910e-02,6.628569960594177246e-02,3.867056220769882202e-02,3.146179020404815674e-02,-1.733531802892684937e-02,3.036270663142204285e-02,3.207810968160629272e-02,3.240427002310752869e-03,2.529639005661010742e-02,4.144044592976570129e-02,1.477615442126989365e-02,4.455967620015144348e-02,5.210292711853981018e-02,1.406810060143470764e-02,4.145411401987075806e-02,2.305578626692295074e-02,1.058510504662990570e-02,1.331818550825119019e-01,4.298071563243865967e-02,4.581602290272712708e-03,3.483697399497032166e-02,4.850960895419120789e-02,2.892399951815605164e-02,3.978433087468147278e-04,5.624707788228988647e-02,1.174020953476428986e-02,5.511644110083580017e-02,3.116865642368793488e-02,1.894272305071353912e-02,5.161870643496513367e-02,4.498621076345443726e-02,3.022402338683605194e-02,3.246426582336425781e-02,9.079468250274658203e-02,5.239145457744598389e-02,2.765638753771781921e-02,4.442744329571723938e-02,-1.060996018350124359e-02,3.137682005763053894e-02,-3.097079694271087646e-03,-6.790500134229660034e-03,5.064081400632858276e-03,5.378657579421997070e-02,-1.565610989928245544e-02,2.976677380502223969e-03,3.370840102434158325e-02,4.021240025758743286e-02,4.325922951102256775e-02,2.870094776153564453e-02,3.205627202987670898e-02,2.652306109666824341e-02,4.850766062736511230e-02,3.090546280145645142e-02,6.121476739645004272e-02,3.012242168188095093e-02,2.616308256983757019e-02,1.109178923070430756e-02,3.365205973386764526e-02,3.380602225661277771e-02,-9.170562028884887695e-03,4.232575744390487671e-02,2.863213606178760529e-02,2.631001919507980347e-02,4.159386828541755676e-02,7.228980958461761475e-02,9.780672937631607056e-02,1.705574095249176025e-01,1.799639500677585602e-02,2.444542199373245239e-02,2.578260377049446106e-02,2.971868589520454407e-02,-1.185956411063671112e-02,4.033618047833442688e-02,-1.849076710641384125e-03,1.854540780186653137e-03,1.750702783465385437e-02,3.008806332945823669e-02,3.201887011528015137e-02,1.076381281018257141e-02,3.320951014757156372e-02,1.986237056553363800e-02,2.803269773721694946e-02,5.452085286378860474e-03,3.324305638670921326e-02,3.264513611793518066e-02,5.411697924137115479e-02,4.663035273551940918e-02,5.711243674159049988e-02,5.797977000474929810e-02,5.996633321046829224e-02,7.149121165275573730e-02,4.148349538445472717e-02,4.147941246628761292e-02,5.723594129085540771e-02,2.885458432137966156e-02,1.674244552850723267e-02,1.493676565587520599e-02,-1.027435064315795898e-03,5.023795366287231445e-02,-2.846515923738479614e-02,3.248779103159904480e-02,3.630356118083000183e-02
2.389792725443840027e-02,5.374590307474136353e-02,-2.453802712261676788e-02,4.693954437971115112e-02,5.355330929160118103e-02,4.636658728122711182e-02,-6.178662180900573730e-03,1.036921814084053040e-01,2.657991833984851837e-02,9.695768356323242188e-02,4.070859402418136597e-02,9.360717236995697021e-02,5.288317799568176270e-02,1.048246622085571289e-01,1.536392420530319214e-02,2.928747609257698059e-02,-8.670309558510780334e-03,6.626576185226440430e-02,-3.614562377333641052e-02,-1.709568127989768982e-02,8.399768173694610596e-02,7.011248171329498291e-02,1.696925424039363861e-02,7.664737105369567871e-02,4.775826632976531982e-02,2.520014718174934387e-02,5.363653972744941711e-02,2.059441991150379181e-02,8.569410443305969238e-02,1.390717364847660065e-02,-3.029619157314300537e-02,5.305908620357513428e-02,2.544131129980087280e-02,-4.619509726762771606e-02,4.579828679561614990e-02,8.393935114145278931e-02,3.351619094610214233e-02,2.841793932020664215e-02,4.757251590490341187e-02,-2.397863380610942841e-02,2.208093926310539246e-02,-1.386419683694839478e-02,1.149731874465942383e-01,7.742851041257381439e-03,-1.195391267538070679e-02,2.584677003324031830e-02,-8.090998977422714233e-03,7.720860838890075684e-02,3.694334253668785095e-02,1.595533825457096100e-02,5.501090735197067261e-02,8.261334151029586792e-03,-2.202979847788810730e-02,5.207743495702743530e-03,2.302137576043605804e-02,4.738033749163150787e-03,2.549192309379577637e-02,1.349912285804748535e-01,4.472227767109870911e-02,5.658570677042007446e-02,-2.515408210456371307e-02,2.429876476526260376e-04,-4.464875906705856323e-02,-1.356235984712839127e-02,2.097296342253684998e-02,-1.743819005787372589e-02,2.684009447693824768e-02,2.142206020653247833e-02,1.468414161354303360e-02,1.662247814238071442e-02,-1.848234422504901886e-02,5.819968879222869873e-02,5.540682002902030945e-03,-5.815789103507995605e-02,-2.062960341572761536e-02,4.831955581903457642e-02,5.735497921705245972e-02,7.346047461032867432e-02,4.799373447895050049e-03,-9.720466099679470062e-03,3.730204701423645020e-02,1.855308748781681061e-02,1.857029460370540619e-02,2.334209345281124115e-02,3.126367926597595215e-02,-8.118262514472007751e-03,1.698999665677547455e-02,7.599782198667526245e-02,2.302285097539424896e-02,2.238183841109275818e-02,2.836399525403976440e-02,8.108378946781158447e-02,6.428669393062591553e-02,3.208348900079727173e-02,-4.560671374201774597e-02,-4.028882458806037903e-02,2.218719199299812317e-02,-1.675132289528846741e-02,4.023397341370582581e-03,7.608094066381454468e-02,2.498700655996799469e-02,-8.234379813075065613e-03,5.389302223920822144e-02,3.665328025817871094e-02,-1.532543636858463287e-02,1.481966860592365265e-02,5.227501504123210907e-03,7.552059739828109741e-02,-1.637807674705982208e-02,1.334737800061702728e-02,7.462398707866668701e-02,1.697305589914321899e-03,4.376298189163208008e-02,9.945642948150634766e-02,2.587449923157691956e-02,1.525447238236665726e-02,3.443811833858489990e-02,7.089259475469589233e-02,-2.403278648853302002e-02,1.431441307067871094e-01,3.363886848092079163e-03,1.457086354494094849e-01,4.011765122413635254e-02,6.809257902204990387e-03,2.854969352483749390e-02,1.951873674988746643e-02,4.660534858703613281e-02,-2.845997735857963562e-02,7.203161716461181641e-02,1.094729267060756683e-02,7.187217473983764648e-03,-4.226390644907951355e-02,1.159355118870735168e-01,2.607063949108123779e-02,9.152777493000030518e-02,6.434507668018341064e-02,1.060530394315719604e-01,-5.403514951467514038e-03,2.423606440424919128e-02,4.156723991036415100e-02,1.136895343661308289e-01,8.593173325061798096e-02,8.688242733478546143e-02,6.542935222387313843e-02,2.784518897533416748e-02,3.641762584447860718e-02,1.176797598600387573e-01,-2.162083983421325684e-02,3.464977070689201355e-02,5.401676148176193237e-02,4.554613307118415833e-02,1.085550040006637573e-01,3.067732229828834534e-02,2.568062767386436462e-02,5.519567057490348816e-02,1.919200271368026733e-02,-8.180422708392143250e-03,8.032570779323577881e-02,4.741075634956359863e-02,1.102892905473709106e-01,3.290172293782234192e-02,5.163761973381042480e-02,2.173741906881332397e-02,-2.363457530736923218e-02,-3.213768824934959412e-02,5.544117093086242676e-02,-2.381603419780731201e-02,3.391127660870552063e-02,8.600793033838272095e-02,9.640811383724212646e-02,2.518955990672111511e-02,9.230594336986541748e-02,5.406044889241456985e-03,1.484290659427642822e-01,-6.097890436649322510e-02,4.368111491203308105e-02,5.057884845882654190e-03,3.936262056231498718e-02,5.392202362418174744e-02,4.283270239830017090e-02,-1.057411171495914459e-02,7.705820351839065552e-02,2.982930280268192291e-02,-4.113535210490226746e-02,1.042218282818794250e-01,6.241386383771896362e-02,-7.013650611042976379e-03,4.394954815506935120e-02,3.161828219890594482e-02,4.420291259884834290e-02,-8.696740493178367615e-03,3.390922769904136658e-02,2.809095196425914764e-02,2.027792856097221375e-02,3.725464269518852234e-02,7.984824478626251221e-02,5.023404955863952637e-02,2.074734494090080261e-02,1.054694801568984985e-01,-1.353305391967296600e-02,4.480030387639999390e-02,1.706718094646930695e-02,-2.323256433010101318e-02,4.831277579069137573e-02,-6.035315804183483124e-03,7.263496518135070801e-02,3.087053075432777405e-02,1.475706323981285095e-02,3.191931173205375671e-02,5.289148166775703430e-02,2.200555801391601562e-02,7.319554686546325684e-02,9.374806657433509827e-03,-2.392178587615489960e-02,6.047566980123519897e-02,1.592346467077732086e-02,2.751138294115662575e-03,-2.212218940258026123e-02,2.825119532644748688e-02,4.365840181708335876e-02,3.885241597890853882e-02,-7.100108079612255096e-03,2.164850011467933655e-03,3.210776671767234802e-02,-1.824004948139190674e-02,8.809635415673255920e-03,1.038885340094566345e-01,-1.939819753170013428e-02,4.530674964189529419e-02,3.514878079295158386e-02,4.578603059053421021e-02,1.106291264295578003e-01,1.047199685126543045e-02,8.087481558322906494e-02,7.219450175762176514e-02,5.554136820137500763e-03,7.706747949123382568e-02,1.814108341932296753e-03,2.313163504004478455e-02,1.030030846595764160e-01,1.448647491633892059e-02,1.382792927324771881e-02,2.122596278786659241e-02,2.448203042149543762e-02,1.120470985770225525e-01,-2.638371288776397705e-02,3.624240309000015259e-02,6.381842494010925293e-02,5.882934667170047760e-03,6.105053797364234924e-02,2.615343965590000153e-02,4.756030440330505371e-02,5.533983558416366577e-02,7.519136369228363037e-02,9.822437539696693420e-03,5.312556773424148560e-02,4.147677868604660034e-02,-2.544850856065750122e-02,-2.636908739805221558e-02,4.677511751651763916e-02,3.486887365579605103e-02,1.150226220488548279e-02,6.640440970659255981e-02,3.127459436655044556e-02,1.263907998800277710e-01,7.115069031715393066e-02,2.616432681679725647e-02,-1.357276365160942078e-02,2.465321682393550873e-02,8.579387515783309937e-02,6.846366822719573975e-02,7.157690823078155518e-02,1.901149004697799683e-02,1.208489984273910522e-01,3.937455639243125916e-02,3.720653802156448364e-02,2.926715277135372162e-02,-1.111017726361751556e-02,2.328402362763881683e-02,2.334620617330074310e-02,-7.466040551662445068e-03,6.338651478290557861e-02,2.989634312689304352e-02,8.818675577640533447e-02,6.326880306005477905e-02,3.943998366594314575e-03,2.922150492668151855e-02,4.522353410720825195e-02,3.220061585307121277e-02,1.081074476242065430e-01,3.477178514003753662e-02,-1.872963830828666687e-02,-1.655343174934387207e-02,6.687468290328979492e-02,6.996865570545196533e-02,-6.149613298475742340e-03,5.921599268913269043e-02,2.693761140108108521e-02,-2.031165733933448792e-02,2.772548049688339233e-02,6.592362374067306519e-02,-7.408699020743370056e-03,5.100528150796890259e-02,2.494046650826931000e-02,2.280812524259090424e-02,3.259934484958648682e-02,1.413374543190002441e-01,2.977987937629222870e-02,6.249645724892616272e-02,4.561608657240867615e-02,1.908997818827629089e-02,1.625081524252891541e-02,4.329304397106170654e-02,6.347011774778366089e-02,-7.097139954566955566e-03,7.920014858245849609e-02,1.266903430223464966e-01,-1.046304032206535339e-02,5.228645354509353638e-02,2.529282681643962860e-02,2.495723031461238861e-02,3.891085460782051086e-02,2.788550406694412231e-02,6.261745095252990723e-02,5.453357100486755371e-02,4.222980514168739319e-02,-2.363285049796104431e-02,1.093289330601692200e-01,4.175448417663574219e-02,2.262686006724834442e-02,1.199536323547363281e-01,-3.597613051533699036e-02,4.612138122320175171e-02,2.160386741161346436e-02,1.590669155120849609e-02,3.605134785175323486e-02,5.603525787591934204e-02,-2.093642763793468475e-02,-9.144186973571777344e-03,2.525473199784755707e-02,4.559592902660369873e-02,5.480444431304931641e-02,3.106136433780193329e-02,3.913997486233711243e-02,2.149042487144470215e-02,6.150559335947036743e-02,-7.416456937789916992e-03,3.866247460246086121e-02,5.379692837595939636e-02,-1.980853453278541565e-02,2.153432928025722504e-02,8.528688549995422363e-02,2.395679987967014313e-02,6.068970635533332825e-02,7.215173542499542236e-02,-2.261735685169696808e-02,-1.749151200056076050e-02,1.382142864167690277e-02,5.469410866498947144e-02,4.097989201545715332e-02,2.896030992269515991e-02,-1.876697689294815063e-02,7.333918660879135132e-02,5.351753532886505127e-02,7.523883134126663208e-02,-4.095933586359024048e-02,-9.616241790354251862e-03,6.425224244594573975e-02,2.581378072500228882e-02,5.088715627789497375e-02,1.060139909386634827e-01,-1.896250247955322266e-02,3.714163601398468018e-02,5.834848433732986450e-02,1.928584277629852295e-02,7.161097973585128784e-02,6.024173647165298462e-02,4.916792735457420349e-02,2.916963398456573486e-02,4.207516461610794067e-02,2.037877589464187622e-02,5.146341770887374878e-02,-2.485829778015613556e-02,4.751476272940635681e-02,3.157092630863189697e-02,2.151584811508655548e-02,9.906213730573654175e-02,5.559185892343521118e-02,3.727169334888458252e-02,3.586189076304435730e-02,2.923424541950225830e-02,7.582720369100570679e-03,2.288529276847839355e-02,3.536941856145858765e-02,2.711010910570621490e-02,6.503532826900482178e-02,6.041851639747619629e-02,3.008538484573364258e-02,-1.343714445829391479e-02,9.265612810850143433e-02,2.327723428606987000e-02,4.753079265356063843e-03,6.774409860372543335e-02,2.452573180198669434e-02,-6.475643068552017212e-02,5.099901463836431503e-03,4.699606448411941528e-02,-2.884986251592636108e-02,4.545001685619354248e-02,-2.355642057955265045e-02,7.221304625272750854e-02,-3.096703253686428070e-02,-2.225703373551368713e-02,2.483982220292091370e-02,-1.381184905767440796e-02,4.653766006231307983e-02,8.484661579132080078e-02,5.455207079648971558e-02,1.248580068349838257e-01,1.868119649589061737e-02,3.060513176023960114e-02,2.712734602391719818e-02,4.626306891441345215e-02,7.026781141757965088e-02,5.564589798450469971e-02,4.271354898810386658e-02,-2.172618731856346130e-02,5.862698704004287720e-02,3.701914846897125244e-02,3.524538502097129822e-02,1.581464521586894989e-02,-1.416880730539560318e-02,3.029875457286834717e-02,2.044745720922946930e-02,3.402817994356155396e-02,2.899252064526081085e-02,3.605053201317787170e-02,3.842270374298095703e-02,2.312373369932174683e-02,2.800740674138069153e-02,9.393839538097381592e-02,4.609764739871025085e-02,3.392894193530082703e-02,5.417434871196746826e-02,-2.035598829388618469e-02,2.235945872962474823e-02,4.546908661723136902e-02,4.031126201152801514e-02,7.948000729084014893e-02,1.037802696228027344e-01,1.124287843704223633e-01,3.654609620571136475e-02,9.400724619626998901e-02,1.427011750638484955e-02,2.681838162243366241e-02,-2.049297466874122620e-02,2.626953087747097015e-02,-2.360044047236442566e-02,3.080583736300468445e-02,3.085526265203952789e-02,2.694789879024028778e-02,-2.299187332391738892e-02,9.422878175973892212e-02,2.736169844865798950e-02,2.140463516116142273e-02,4.790045320987701416e-02,2.728442288935184479e-02,-2.696504071354866028e-02,4.924123361706733704e-02,-3.726897388696670532e-02,6.294661760330200195e-02,1.209987234324216843e-02,5.119051411747932434e-02,3.359417244791984558e-02,5.548069626092910767e-02,4.599124938249588013e-02,-1.983891986310482025e-02,3.938881680369377136e-02,6.039316952228546143e-02,4.045572131872177124e-02,1.541483122855424881e-02,4.404573887586593628e-02,5.982850119471549988e-02,6.064454466104507446e-02,3.449687734246253967e-03,8.397608995437622070e-02,3.311994299292564392e-02,3.752332180738449097e-02,5.364661663770675659e-02,2.951179072260856628e-02,8.953082561492919922e-02,4.242237284779548645e-02,-2.199226990342140198e-02,-1.961697265505790710e-02,4.373645782470703125e-02,1.021961867809295654e-02,2.228229679167270660e-02,-3.279199823737144470e-02,2.704854868352413177e-02,8.657822757959365845e-02,2.977463230490684509e-02,1.446121186017990112e-02,4.655259102582931519e-02,1.559947133064270020e-01,3.934920951724052429e-02,-6.953736767172813416e-03,2.829124778509140015e-02,8.492919802665710449e-02,6.253615021705627441e-03,-2.121255919337272644e-02,2.508926019072532654e-02,-2.551860734820365906e-02,2.638653293251991272e-02,3.732782602310180664e-02,1.744010858237743378e-02,9.965191595256328583e-03,3.384728729724884033e-02,5.348191782832145691e-02,5.223642289638519287e-02,2.157793566584587097e-02,1.111991256475448608e-01,-1.029930263757705688e-02,2.568989247083663940e-02,4.093876481056213379e-02,2.203455567359924316e-02,6.069960817694664001e-02,1.816461980342864990e-02,2.938177064061164856e-02,2.222824096679687500e-02,7.904443889856338501e-02,6.065581738948822021e-02,-1.943211629986763000e-02,3.812711685895919800e-02,2.833008021116256714e-02,8.158377557992935181e-02,-5.737116560339927673e-03,4.205882549285888672e-02,4.643607512116432190e-02,2.257917821407318115e-02,2.380251698195934296e-02,-2.040063217282295227e-02,2.733262255787849426e-02,2.116116881370544434e-02,4.904195666313171387e-02,-2.718650363385677338e-02,2.613634243607521057e-02,-2.019337564706802368e-02,1.296290941536426544e-02,5.752899497747421265e-02,5.556883662939071655e-02,-9.362326003611087799e-03,1.803406327962875366e-02,1.351804751902818680e-02,-2.866195328533649445e-02,-2.555644884705543518e-02,-1.894026994705200195e-02,9.666511788964271545e-03,7.777296006679534912e-02,-1.665698736906051636e-02,2.812108770012855530e-02,7.791161537170410156e-02,-2.211976610124111176e-02,1.649145781993865967e-02,-1.920378953218460083e-02,2.515131048858165741e-02,3.428313136100769043e-02,6.806938350200653076e-02,-7.126692682504653931e-03,3.299210965633392334e-02,1.017436981201171875e-01,1.604671590030193329e-02,2.225945144891738892e-02,4.416285455226898193e-02,6.135342270135879517e-02,3.700945898890495300e-02,-7.554775103926658630e-03,3.182443603873252869e-02,6.474477052688598633e-02,3.695598989725112915e-02,-7.900997996330261230e-03,1.275904756039381027e-02,6.059384346008300781e-02,2.042265422642230988e-02,9.173680841922760010e-02,1.869515888392925262e-02,3.176094591617584229e-02,8.164208382368087769e-02,-7.117779925465583801e-03,1.620958894491195679e-01,2.034086734056472778e-02,7.874794304370880127e-03,4.883561655879020691e-02,-2.834442816674709320e-02,2.692527882754802704e-02,2.230116911232471466e-02,5.887873470783233643e-02,4.992689937353134155e-02,7.069417834281921387e-02,3.238901868462562561e-02,3.583581745624542236e-02,-1.652531698346138000e-02,1.130436640232801437e-02,3.205312043428421021e-02,-2.346016652882099152e-02,5.615141987800598145e-02,7.436488568782806396e-02,4.020821303129196167e-02,6.746441870927810669e-02,5.759634077548980713e-02,5.308258160948753357e-02,-8.862290531396865845e-03,9.250313043594360352e-02,1.364442706108093262e-01,8.726996183395385742e-02,-2.274094149470329285e-02,-4.100576415657997131e-02,-4.330849647521972656e-02,2.997420914471149445e-02,3.048771247267723083e-02,-1.485584676265716553e-02,1.192362904548645020e-01,3.005939163267612457e-02,-2.067834325134754181e-02,-3.783246502280235291e-02,4.593195766210556030e-02,1.986658945679664612e-02,5.551859736442565918e-02,1.880064606666564941e-02,1.467807218432426453e-02,-8.565254509449005127e-03,9.072588384151458740e-02,4.250554740428924561e-02,5.662250518798828125e-02,-2.154301106929779053e-02,3.033775091171264648e-02,4.298611730337142944e-02,3.397921100258827209e-02,4.957998171448707581e-02,-7.794979959726333618e-03,1.322934310883283615e-02,4.860879108309745789e-02,4.654229804873466492e-02,4.025316238403320312e-02,1.430707890540361404e-02,1.583834760822355747e-03,9.208585321903228760e-02,4.237842932343482971e-02,1.685020327568054199e-02,2.177804522216320038e-02,7.077147066593170166e-02,1.994476653635501862e-02,3.981831669807434082e-02,4.738382995128631592e-02,-1.397378370165824890e-02,2.919408679008483887e-02,1.772232353687286377e-02,2.327942289412021637e-02,-1.356102526187896729e-02,5.877252668142318726e-02,4.860590398311614990e-02,2.702765539288520813e-02,1.615108549594879150e-02,6.648611277341842651e-02,-4.031579941511154175e-03,2.487925067543983459e-02,-9.054135531187057495e-03,-9.244039654731750488e-03,2.869694307446479797e-02,3.984725475311279297e-02,2.088354527950286865e-02,1.979081518948078156e-02,3.755870088934898376e-02,4.656381905078887939e-02,5.086338147521018982e-02,3.570272028446197510e-02,-1.258217077702283859e-02,1.492505967617034912e-01,1.066888216882944107e-02,8.331710100173950195e-02,9.313067793846130371e-02,7.726705074310302734e-02,8.909237384796142578e-02,7.787003368139266968e-02,3.773604333400726318e-02,-2.065308392047882080e-02,1.812620647251605988e-02,-1.773084327578544617e-02,-1.713271439075469971e-02,-2.918612211942672729e-03,1.676082611083984375e-02,-3.920552507042884827e-02,5.132676661014556885e-02,2.410925552248954773e-02,5.394939333200454712e-02,1.098997294902801514e-01,1.212095469236373901e-01,4.638394713401794434e-02,3.182992804795503616e-04,2.916003204882144928e-02,8.970735594630241394e-03,3.010623157024383545e-02,2.997308596968650818e-02,2.727212011814117432e-02,1.103124693036079407e-01,6.897084414958953857e-02,7.303706556558609009e-02,6.948067992925643921e-02,2.621798217296600342e-02,-1.729841157793998718e-02,-1.679170317947864532e-02,8.021509647369384766e-02,3.066077083349227905e-02,-2.303413301706314087e-02,4.615469649434089661e-02,3.868737444281578064e-02,4.644630104303359985e-02,-1.426881551742553711e-02,3.532272949814796448e-02,4.060536623001098633e-03,7.494184374809265137e-02,5.145413428544998169e-02,3.143340349197387695e-02,5.687218531966209412e-02,9.803392738103866577e-02,1.753083243966102600e-02,1.225539073348045349e-01,4.350537061691284180e-02,3.977670520544052124e-02,1.021326780319213867e-01,3.496000543236732483e-02,2.599360421299934387e-02,1.053526848554611206e-01,1.182132884860038757e-01,2.714542858302593231e-02,6.706345826387405396e-02,1.934910193085670471e-02,5.174090340733528137e-02,2.860577031970024109e-02,4.194035381078720093e-02,-2.142129838466644287e-02,1.806019246578216553e-02,4.828306287527084351e-02,2.236154861748218536e-02,1.194331198930740356e-01,5.903352797031402588e-02,2.344894409179687500e-02,3.124183230102062225e-02,4.378449171781539917e-03,5.394671484827995300e-02,1.480616815388202667e-02,8.851136267185211182e-02,4.891870915889739990e-02,7.185380905866622925e-02,4.403604939579963684e-02,6.293877214193344116e-02,5.451120808720588684e-02,-2.838270738720893860e-03,5.219327285885810852e-02,9.008795022964477539e-02,2.567012235522270203e-02,9.058056026697158813e-02,5.790691450238227844e-02,9.328559786081314087e-02,4.394672065973281860e-02,8.724713325500488281e-02,-2.505133114755153656e-02,4.404629394412040710e-02,1.074898913502693176e-01,2.926057577133178711e-02,4.305635765194892883e-02,-1.814940571784973145e-02,-6.486963480710983276e-03,7.739601656794548035e-03,-1.896188408136367798e-02,4.092121496796607971e-03,6.218154355883598328e-02,4.068936407566070557e-02,3.669571131467819214e-02,-4.264023900032043457e-02,7.680209726095199585e-02,6.768556684255599976e-02,3.681180253624916077e-02,3.352976217865943909e-02,6.057392060756683350e-02,1.182438582181930542e-01,3.171430900692939758e-03,5.009442940354347229e-02,7.241060957312583923e-03,5.298529192805290222e-02,1.433465536683797836e-02,3.221494704484939575e-02,7.721217721700668335e-02,4.837069660425186157e-02,-2.529797516763210297e-02,-1.735929027199745178e-02,4.213431850075721741e-02,4.483049735426902771e-03,5.032710731029510498e-02,4.519147053360939026e-02,1.934108883142471313e-02,2.867359202355146408e-03,6.516042351722717285e-02,2.619229257106781006e-02,5.978814885020256042e-02,4.344100505113601685e-02,3.738239035010337830e-02,7.187373936176300049e-02,3.123550117015838623e-02,2.105788327753543854e-02,-1.515476405620574951e-02,2.073159255087375641e-02,5.458863824605941772e-02,2.091313153505325317e-02,3.849919885396957397e-02,6.087509542703628540e-02,-9.436651133000850677e-03,4.513337463140487671e-02,5.807871371507644653e-02,-2.064026147127151489e-02,5.241789668798446655e-02,1.335829868912696838e-02,1.230755373835563660e-01,1.359024941921234131e-01,4.056890681385993958e-02,1.500968635082244873e-02,5.170464515686035156e-02,1.077075228095054626e-01,9.809064120054244995e-02,7.341584563255310059e-02,3.629805147647857666e-02,7.882726378738880157e-03,2.347553893923759460e-02,1.608994789421558380e-02,4.188705980777740479e-02,2.668647840619087219e-02,4.220167174935340881e-02,1.102344784885644913e-02,9.568309783935546875e-02,3.844486176967620850e-02,4.528906568884849548e-02,-1.675877347588539124e-02,3.796443715691566467e-02,-2.101267501711845398e-02,4.251211136579513550e-02,2.958558872342109680e-02,6.853713095188140869e-02,3.996512293815612793e-02,-9.863518178462982178e-03,1.730735599994659424e-02,2.228284813463687897e-02,-2.264972589910030365e-02,2.799395471811294556e-02,-7.820683717727661133e-02,1.690932735800743103e-02,1.572209596633911133e-02,9.479691088199615479e-02,4.715934023261070251e-02,8.802658319473266602e-02,3.996956348419189453e-02,9.187826514244079590e-02,6.181493774056434631e-02,4.446513205766677856e-02,1.974785514175891876e-02,4.588365554809570312e-02,-9.220607578754425049e-03,3.319959342479705811e-02,5.879361182451248169e-02,1.143566370010375977e-01,-1.597834751009941101e-02,8.155206218361854553e-03,2.891626395285129547e-02,5.123907327651977539e-02,-1.246286742389202118e-02,4.369943961501121521e-02,3.212992846965789795e-02,6.537269800901412964e-02,3.353682160377502441e-02,-2.369207888841629028e-02,2.225006744265556335e-02,4.393592476844787598e-02,3.849045373499393463e-03,-1.053497940301895142e-02,2.345817163586616516e-02,7.950134575366973877e-02,-6.818430498242378235e-03,3.577886894345283508e-02,-2.336492575705051422e-02,3.561536222696304321e-02,5.857035517692565918e-02,1.239445339888334274e-02,3.015127778053283691e-02,8.671776950359344482e-02,5.470651388168334961e-02,6.793768703937530518e-02,2.799195982515811920e-02,1.860123313963413239e-02,4.020994156599044800e-02,2.889500744640827179e-02,4.399556666612625122e-02,8.344577252864837646e-02,2.353913336992263794e-02,4.301790520548820496e-02,6.768295168876647949e-02,2.187653444707393646e-03,4.551620408892631531e-02,2.396353892982006073e-02,2.137169986963272095e-02,1.841915957629680634e-02,3.163119032979011536e-02,4.091284424066543579e-02,1.464485935866832733e-02,4.226323682814836502e-03,-8.117727935314178467e-03,3.085748478770256042e-02,3.193999081850051880e-02,8.980484306812286377e-02,-8.559789508581161499e-03,3.853182494640350342e-02,2.343825623393058777e-02,-1.893091946840286255e-02,3.077255934476852417e-02,3.789193555712699890e-02,-2.119813300669193268e-02,3.617185726761817932e-02,-2.298657968640327454e-02,5.305853113532066345e-02,2.349459566175937653e-02,-1.927009224891662598e-02,-5.098029971122741699e-03,4.282490536570549011e-02,4.418675601482391357e-02,5.509326606988906860e-02,-7.153655588626861572e-02,3.152221068739891052e-02,3.845177590847015381e-02,2.563016861677169800e-02,4.278488829731941223e-02,4.029196500778198242e-02,4.989415407180786133e-02,4.310068115592002869e-02,-2.451047487556934357e-02,6.933686137199401855e-02,1.561661809682846069e-02,3.983992338180541992e-02,2.001775801181793213e-02,-9.845012798905372620e-03,2.615364827215671539e-02,3.876702114939689636e-02,2.866152860224246979e-02,-3.758942335844039917e-02,8.521147072315216064e-02,-6.863833218812942505e-02,1.397807523608207703e-02,2.749349549412727356e-02,3.984786570072174072e-02,4.766775667667388916e-02,1.036234200000762939e-01,5.934295058250427246e-02,-2.993620559573173523e-02,2.354842424392700195e-02,2.338767610490322113e-02,2.119909226894378662e-02,7.749120891094207764e-02,7.618329674005508423e-02,1.261300891637802124e-01,-5.430173128843307495e-02,2.408234775066375732e-02,2.069272287189960480e-02,5.618073046207427979e-02,5.779130756855010986e-02,1.253326516598463058e-02,3.776419162750244141e-02,2.618962526321411133e-02,2.927973121404647827e-02,1.266362331807613373e-02,9.347758442163467407e-02,6.489464640617370605e-02,3.033371828496456146e-02,5.359061434864997864e-02,8.919481933116912842e-02,4.442524164915084839e-02,8.075355738401412964e-02,4.652024805545806885e-02,-2.028943412005901337e-02,-2.341221831738948822e-02,5.168948695063591003e-02,-4.279359430074691772e-02,-2.526793070137500763e-02,-2.694714814424514771e-02,-1.355655957013368607e-02,-2.074703387916088104e-02,-2.054827287793159485e-02,3.669100999832153320e-02,3.259063512086868286e-02,3.928477317094802856e-02,5.353601276874542236e-02,-1.152774877846240997e-02,9.108707308769226074e-02,-8.427022024989128113e-03,-1.553376577794551849e-02
2.194179221987724304e-02,5.873375013470649719e-02,3.360847383737564087e-02,4.531461000442504883e-02,6.439749151468276978e-02,2.550723776221275330e-02,3.229368105530738831e-02,9.070774167776107788e-02,2.434285543859004974e-02,6.132336705923080444e-02,3.131029754877090454e-02,8.531755208969116211e-02,2.881418727338314056e-02,9.717679768800735474e-02,1.002214034087955952e-03,3.625293076038360596e-02,3.265533596277236938e-02,5.535071343183517456e-02,3.485854342579841614e-02,2.365979924798011780e-02,6.086579337716102600e-02,1.070662289857864380e-01,2.271766215562820435e-02,7.598450779914855957e-02,3.387608006596565247e-02,2.305946312844753265e-02,5.867912620306015015e-02,2.535130456089973450e-02,4.612887650728225708e-02,7.689192891120910645e-03,1.427289657294750214e-02,4.003295302391052246e-02,3.213027864694595337e-02,2.428625710308551788e-02,8.525057882070541382e-02,9.128360450267791748e-02,2.782127447426319122e-02,2.635728567838668823e-02,5.026576668024063110e-02,2.629153244197368622e-02,2.134141884744167328e-02,9.177019819617271423e-03,9.952779859304428101e-02,-1.002324279397726059e-02,-7.356393150985240936e-03,2.585099264979362488e-02,1.851294003427028656e-02,6.594603508710861206e-02,2.844113297760486603e-02,2.801529318094253540e-02,4.038924351334571838e-02,2.627028152346611023e-02,2.573017776012420654e-02,3.348238021135330200e-02,2.924710884690284729e-02,2.598231099545955658e-02,2.298409678041934967e-02,8.553835004568099976e-02,4.475858807563781738e-02,2.110432460904121399e-02,2.342862635850906372e-02,3.370543569326400757e-02,2.053550072014331818e-02,2.402745932340621948e-02,3.061006218194961548e-02,2.345979958772659302e-02,2.314284257590770721e-02,2.348391339182853699e-02,1.283828821033239365e-02,3.268723562359809875e-02,3.413416445255279541e-02,3.111847862601280212e-02,3.254802152514457703e-02,7.544996589422225952e-02,2.182743139564990997e-02,4.499988257884979248e-02,4.536025598645210266e-02,7.671152055263519287e-02,3.313041850924491882e-02,-1.061034388840198517e-02,4.523316770792007446e-02,3.288764879107475281e-02,1.406666077673435211e-02,2.336790226399898529e-02,2.258714288473129272e-02,3.700010478496551514e-02,2.690986543893814087e-02,7.809855043888092041e-02,2.524454519152641296e-02,2.274750359356403351e-02,2.929578721523284912e-02,5.031174793839454651e-02,6.658853590488433838e-02,2.533724159002304077e-02,3.291139006614685059e-02,5.773670598864555359e-02,2.295371331274509430e-02,2.794344350695610046e-02,3.560107946395874023e-02,4.153697937726974487e-02,3.309395164251327515e-02,2.016469463706016541e-02,3.270954266190528870e-02,2.174097113311290741e-02,1.990684494376182556e-02,2.164213359355926514e-02,3.155882656574249268e-02,9.029337018728256226e-02,2.541372179985046387e-02,2.465041726827621460e-02,1.109889298677444458e-01,3.798163682222366333e-02,4.176650196313858032e-02,1.125443950295448303e-01,2.588058263063430786e-02,3.205763548612594604e-02,4.504095390439033508e-02,7.160483300685882568e-02,3.417310863733291626e-02,8.520651608705520630e-02,3.252515196800231934e-02,1.314487010240554810e-01,5.431052297353744507e-02,2.828572317957878113e-02,4.583299160003662109e-02,2.226219885051250458e-02,3.226548060774803162e-02,1.141616702079772949e-02,6.663367897272109985e-02,8.441546000540256500e-03,3.390504047274589539e-02,3.416660428047180176e-02,1.071373075246810913e-01,2.157726511359214783e-02,6.069458276033401489e-02,3.273338451981544495e-02,6.534109264612197876e-02,2.740438096225261688e-02,2.789693884551525116e-02,3.171933069825172424e-02,1.056166738271713257e-01,9.056136757135391235e-02,5.508744344115257263e-02,6.774882227182388306e-02,2.733729779720306396e-02,2.705501578748226166e-02,7.318246364593505859e-02,2.423995174467563629e-02,2.837401628494262695e-02,5.371727049350738525e-02,4.551877453923225403e-02,9.486333280801773071e-02,2.449921332299709320e-02,3.431268781423568726e-02,3.632352501153945923e-02,2.951032854616641998e-02,3.058625012636184692e-02,4.860770702362060547e-02,3.418636322021484375e-02,6.683008372783660889e-02,4.101683385670185089e-03,4.492160677909851074e-02,2.711498178541660309e-02,3.321107476949691772e-02,1.966932788491249084e-02,9.902788698673248291e-02,2.880735695362091064e-02,2.455306798219680786e-02,5.559359118342399597e-02,7.857881486415863037e-02,2.301146835088729858e-02,4.870178550481796265e-02,-1.033819653093814850e-02,8.577315509319305420e-02,-4.957698285579681396e-02,3.836606070399284363e-02,-8.233323693275451660e-03,3.356122598052024841e-02,5.848827213048934937e-02,2.861740998923778534e-02,2.423367276787757874e-02,7.654409110546112061e-02,2.983378805220127106e-02,2.719539031386375427e-02,5.973567813634872437e-02,1.009723991155624390e-01,3.334799036383628845e-02,4.538475349545478821e-02,4.439318180084228516e-02,9.302892535924911499e-02,2.634865231812000275e-02,4.484821110963821411e-02,1.568804308772087097e-02,2.319979108870029449e-02,3.365100175142288208e-02,5.349378287792205811e-02,3.174895420670509338e-02,2.644938044250011444e-02,6.712705641984939575e-02,1.591858081519603729e-02,5.178084596991539001e-02,2.498658001422882080e-02,2.287700027227401733e-02,4.950284212827682495e-02,-7.657226175069808960e-03,5.770106241106987000e-02,3.066818602383136749e-02,2.521094866096973419e-02,3.709731623530387878e-02,4.259524494409561157e-02,2.155742980539798737e-02,7.458793371915817261e-02,1.498559257015585899e-03,3.487123548984527588e-02,6.818552315235137939e-02,2.738062292337417603e-02,-4.157346673309803009e-03,2.200433984398841858e-02,1.964203082025051117e-02,3.251120448112487793e-02,2.542850561439990997e-02,-2.675404027104377747e-02,3.448181599378585815e-02,3.189185634255409241e-02,2.595506794750690460e-02,6.780892144888639450e-04,9.611387550830841064e-02,2.562483400106430054e-02,3.333484753966331482e-02,2.807862684130668640e-02,1.783050224184989929e-02,9.933125227689743042e-02,4.152628779411315918e-02,7.169253379106521606e-02,4.836910963058471680e-02,2.807673439383506775e-02,8.812186121940612793e-02,3.464966267347335815e-02,2.959397435188293457e-02,1.165724843740463257e-01,3.121273964643478394e-02,3.262026235461235046e-02,3.511416539549827576e-02,2.736241556704044342e-02,6.702974438667297363e-02,2.814812958240509033e-02,3.239903971552848816e-02,6.623896956443786621e-02,-3.419612068682909012e-03,4.816527664661407471e-02,7.369268219918012619e-03,3.221584856510162354e-02,5.849235504865646362e-02,6.732197105884552002e-02,-1.003896165639162064e-02,3.198521211743354797e-02,2.762749418616294861e-02,2.740653604269027710e-02,3.165471553802490234e-02,4.909975826740264893e-02,4.890843108296394348e-02,7.767284289002418518e-03,6.638210266828536987e-02,3.067067638039588928e-02,5.945513769984245300e-02,7.752451300621032715e-02,3.282026201486587524e-02,2.672636881470680237e-02,2.464503236114978790e-02,1.296352446079254150e-01,2.792397141456604004e-02,5.249755084514617920e-02,2.530035562813282013e-02,1.227776929736137390e-01,3.805200383067131042e-02,2.602908201515674591e-02,2.386078797280788422e-02,1.775724440813064575e-02,2.529593184590339661e-02,2.360836043953895569e-02,3.328762575984001160e-02,5.631234496831893921e-02,4.358889162540435791e-02,1.205863282084465027e-01,3.346621990203857422e-02,3.346454724669456482e-02,3.585065156221389771e-02,2.975882403552532196e-02,3.214671090245246887e-02,1.120550632476806641e-01,3.569693118333816528e-02,2.828686870634555817e-02,2.271398343145847321e-02,3.551255166530609131e-02,7.077762484550476074e-02,2.554598823189735413e-02,4.573086649179458618e-02,2.694191038608551025e-02,2.985680103302001953e-02,4.266731813549995422e-02,8.262594044208526611e-02,3.116855770349502563e-02,3.157162666320800781e-02,7.687472272664308548e-03,2.251336351037025452e-02,3.556359186768531799e-02,1.351044178009033203e-01,2.978254854679107666e-02,1.049206703901290894e-01,3.210474923253059387e-02,3.081119433045387268e-02,4.218512028455734253e-02,2.785016968846321106e-02,3.768245875835418701e-02,3.109031915664672852e-02,8.608274906873703003e-02,1.056749671697616577e-01,3.136531263589859009e-02,2.862369269132614136e-02,2.081651985645294189e-02,2.496961131691932678e-02,4.792149364948272705e-02,3.507352247834205627e-02,5.423970147967338562e-02,2.410892397165298462e-02,3.385651856660842896e-02,3.804909437894821167e-02,6.306864321231842041e-02,2.825429290533065796e-02,2.376694045960903168e-02,1.088554710149765015e-01,2.542521804571151733e-02,3.791051357984542847e-02,2.775433100759983063e-02,2.216130867600440979e-02,2.089131437242031097e-02,5.438749119639396667e-02,1.522560976445674896e-02,-7.736720610409975052e-03,2.091532573103904724e-02,4.536243528127670288e-02,3.249062970280647278e-02,3.282822296023368835e-02,4.206716641783714294e-02,4.065615311264991760e-02,6.029389053583145142e-02,3.051806613802909851e-02,5.412146821618080139e-02,5.556243658065795898e-02,3.343116492033004761e-02,2.254152670502662659e-02,7.702532410621643066e-02,2.419353649020195007e-02,4.746928066015243530e-02,1.031868755817413330e-01,2.479945495724678040e-02,3.541122004389762878e-02,1.172011904418468475e-02,4.998826980590820312e-02,4.728884994983673096e-02,2.848658524453639984e-02,2.468562498688697815e-02,7.217720150947570801e-02,1.833648234605789185e-02,4.929988831281661987e-02,3.077749907970428467e-02,-8.661932311952114105e-03,6.327509135007858276e-02,2.209530025720596313e-02,5.335961282253265381e-02,7.672016322612762451e-02,2.329904586076736450e-02,4.323219135403633118e-02,4.452178627252578735e-02,2.919343300163745880e-02,-7.583878003060817719e-03,6.307156383991241455e-02,2.768583968281745911e-02,2.065305970609188080e-02,3.591816499829292297e-02,2.550045214593410492e-02,7.148939371109008789e-02,3.369940444827079773e-02,6.220121681690216064e-02,2.860043197870254517e-02,2.487813122570514679e-02,8.843407034873962402e-02,4.263141006231307983e-02,9.763317182660102844e-03,4.218301922082901001e-02,2.198139205574989319e-02,3.291391953825950623e-02,2.242762595415115356e-02,3.041925653815269470e-02,8.501997217535972595e-03,7.399701327085494995e-02,5.109408497810363770e-02,2.607790753245353699e-02,1.762334629893302917e-02,5.190242454409599304e-02,2.741992846131324768e-02,-1.347836479544639587e-02,7.622543722391128540e-02,2.777189947664737701e-02,8.998530358076095581e-02,-1.355070434510707855e-02,3.248510137200355530e-02,3.283831477165222168e-02,3.343352675437927246e-02,2.352533489465713501e-02,8.169107139110565186e-02,1.379492878913879395e-02,1.724586822092533112e-02,2.102958969771862030e-02,2.399245649576187134e-02,3.482056409120559692e-02,4.932340979576110840e-02,6.188017129898071289e-02,7.318297028541564941e-02,3.394309058785438538e-02,4.089510813355445862e-02,4.257000517100095749e-03,3.188158199191093445e-02,7.074001431465148926e-02,3.045160695910453796e-02,5.218407511711120605e-02,2.120479941368103027e-02,3.300806879997253418e-02,4.731428250670433044e-02,3.708849847316741943e-02,-6.184040103107690811e-03,2.142551727592945099e-02,2.996532432734966278e-02,2.094718627631664276e-02,2.027040161192417145e-02,2.899905666708946228e-02,4.161231219768524170e-02,3.649334236979484558e-02,1.122350059449672699e-02,2.569498680531978607e-02,8.462202548980712891e-02,3.464213013648986816e-02,3.209880739450454712e-02,2.905057929456233978e-02,1.445902138948440552e-02,2.348341234028339386e-02,1.491378899663686752e-02,4.857600480318069458e-02,7.264099270105361938e-02,7.018502056598663330e-02,6.198285520076751709e-02,3.398368507623672485e-02,9.126621484756469727e-02,2.232616581022739410e-02,2.935162559151649475e-02,3.618944436311721802e-02,4.441818222403526306e-02,1.966885104775428772e-02,2.203430607914924622e-02,3.768906369805335999e-02,2.138394117355346680e-02,1.630365662276744843e-02,8.695028722286224365e-02,2.023378200829029083e-02,1.461838372051715851e-02,3.292538970708847046e-02,3.751636669039726257e-02,1.380533631891012192e-02,3.497965261340141296e-02,2.440876513719558716e-02,5.923664569854736328e-02,2.797946892678737640e-02,3.441017121076583862e-02,3.127881884574890137e-02,5.738281458616256714e-02,1.433724537491798401e-02,2.535264194011688232e-02,2.654656209051609039e-02,6.845376640558242798e-02,2.806486748158931732e-02,2.137957885861396790e-02,3.296101093292236328e-02,4.155969619750976562e-02,3.377446159720420837e-02,2.634122595191001892e-02,3.785727173089981079e-02,3.098968416452407837e-02,3.255411610007286072e-02,6.481942534446716309e-02,2.827996015548706055e-02,7.805411517620086670e-02,2.652351930737495422e-02,2.543225139379501343e-02,2.829705178737640381e-02,5.668104439973831177e-02,3.713310882449150085e-02,2.847245708107948303e-02,2.184300497174263000e-02,3.054369240999221802e-02,1.182330772280693054e-01,2.969985455274581909e-02,2.812062390148639679e-02,2.991971001029014587e-02,9.050562977790832520e-02,3.171006590127944946e-02,3.753384575247764587e-02,4.684708639979362488e-02,7.304070144891738892e-02,2.956920117139816284e-02,2.011860720813274384e-02,4.347969964146614075e-02,2.504764497280120850e-02,2.008458971977233887e-02,2.870921790599822998e-02,2.495957352221012115e-02,-2.413119887933135033e-03,2.743873000144958496e-02,6.197180598974227905e-02,5.985208973288536072e-02,3.273039683699607849e-02,6.261758506298065186e-02,-1.143882330507040024e-02,2.233551442623138428e-02,1.474452950060367584e-02,2.754960395395755768e-02,3.376173973083496094e-02,2.504365518689155579e-02,3.406052663922309875e-02,3.075241483747959137e-02,4.724160581827163696e-02,5.445432662963867188e-02,1.369676925241947174e-02,2.277121320366859436e-02,2.679878100752830505e-02,4.942130297422409058e-02,3.162537515163421631e-02,3.400358930230140686e-02,2.977842092514038086e-02,2.279428020119667053e-02,2.621378377079963684e-02,2.739992365241050720e-02,2.184296399354934692e-02,2.254366874694824219e-02,3.304449841380119324e-02,2.564541250467300415e-02,3.120435960590839386e-02,2.380024641752243042e-02,2.163685485720634460e-02,6.348756700754165649e-02,3.105475008487701416e-02,-5.114470608532428741e-03,2.305613271892070770e-02,9.277788922190666199e-03,2.701671607792377472e-02,3.329496458172798157e-02,2.652942389249801636e-02,2.488511800765991211e-02,8.519482612609863281e-02,2.775072306394577026e-02,2.382495068013668060e-02,5.467677116394042969e-02,2.711725607514381409e-02,2.810730598866939545e-02,2.366835251450538635e-02,2.784447185695171356e-02,4.009924083948135376e-02,5.175422132015228271e-02,3.687470778822898865e-02,3.798915445804595947e-02,5.994633585214614868e-02,2.608470432460308075e-02,2.726865746080875397e-02,5.433236062526702881e-02,6.247289106249809265e-02,2.776259183883666992e-02,2.448147349059581757e-02,2.790068462491035461e-02,5.033595114946365356e-02,1.862417161464691162e-02,2.509428933262825012e-02,8.318956010043621063e-03,5.905425548553466797e-02,2.374748140573501587e-02,5.980080366134643555e-02,2.414688467979431152e-02,4.022986069321632385e-02,4.677237570285797119e-02,3.091072477400302887e-02,9.030369669198989868e-02,2.504994906485080719e-02,-1.394180580973625183e-02,4.967262968420982361e-02,2.233335562050342560e-02,7.190606556832790375e-03,3.006678260862827301e-02,3.449812904000282288e-02,3.469002991914749146e-02,7.587623596191406250e-02,8.994868025183677673e-03,3.179955482482910156e-02,2.474492974579334259e-02,1.005508471280336380e-03,3.936676681041717529e-02,3.070614486932754517e-02,6.922865658998489380e-02,7.054188102483749390e-02,2.700864709913730621e-02,7.255899906158447266e-02,4.271201044321060181e-02,7.773300260305404663e-02,3.315066918730735779e-02,5.898343771696090698e-02,7.140024006366729736e-02,5.574666708707809448e-02,2.313480526208877563e-02,-4.015918821096420288e-04,2.421978674829006195e-02,3.084729611873626709e-02,3.468713536858558655e-02,2.570771425962448120e-02,6.792441010475158691e-02,2.547078952193260193e-02,2.603124082088470459e-02,8.304569870233535767e-03,3.516568243503570557e-02,2.378443069756031036e-02,3.231014683842658997e-02,2.381322160363197327e-02,2.347856573760509491e-02,2.395965531468391418e-02,7.705273479223251343e-02,4.198263585567474365e-02,6.045638769865036011e-02,2.343694865703582764e-02,3.033953346312046051e-02,3.421890735626220703e-02,2.905902452766895294e-02,6.234268471598625183e-02,2.338126674294471741e-02,3.354691714048385620e-02,3.364228457212448120e-02,4.728725925087928772e-02,3.060725517570972443e-02,3.060742467641830444e-02,-2.148958854377269745e-03,5.621602386236190796e-02,5.536876618862152100e-02,1.010902412235736847e-02,2.131826616823673248e-02,4.589578136801719666e-02,2.287460863590240479e-02,4.219420999288558960e-02,4.848216474056243896e-02,3.150278329849243164e-02,2.602812089025974274e-02,2.903241850435733795e-02,2.260016277432441711e-02,2.541224099695682526e-02,3.247620165348052979e-02,3.122432902455329895e-02,2.574433386325836182e-02,2.709274366497993469e-02,6.632553786039352417e-02,3.581628948450088501e-02,3.978759795427322388e-02,3.783935680985450745e-02,2.103303000330924988e-02,1.535975467413663864e-02,2.966907806694507599e-02,2.249102573841810226e-03,2.875479683279991150e-02,2.732289955019950867e-02,3.207631409168243408e-02,3.396369144320487976e-02,2.885102666914463043e-02,1.605867967009544373e-02,1.353821754455566406e-01,8.805666118860244751e-03,3.935369849205017090e-02,5.460149049758911133e-02,5.252170562744140625e-02,5.582956224679946899e-02,9.098067879676818848e-02,2.650715969502925873e-02,3.959701955318450928e-02,9.533493779599666595e-03,2.491807192564010620e-02,3.587632626295089722e-02,2.968977577984333038e-02,7.101616822183132172e-03,-1.091459393501281738e-02,3.500073403120040894e-02,2.919209748506546021e-02,9.368001669645309448e-02,8.280798792839050293e-02,8.455461263656616211e-02,2.937598712742328644e-02,-1.833586604334414005e-03,2.164558693766593933e-02,3.000102937221527100e-02,3.010726347565650940e-02,2.727443538606166840e-02,1.994017884135246277e-02,7.661507278680801392e-02,5.074694752693176270e-02,4.231933131814002991e-02,5.803612619638442993e-02,4.437039047479629517e-02,2.135261148214340210e-02,3.145565092563629150e-02,7.618755102157592773e-02,4.250855743885040283e-02,2.380086854100227356e-02,3.182924911379814148e-02,3.454010188579559326e-02,1.551788393408060074e-02,2.681107446551322937e-02,4.208057373762130737e-02,3.442236408591270447e-02,6.948374211788177490e-02,6.786405295133590698e-02,3.231836855411529541e-02,6.068544089794158936e-02,6.374674290418624878e-02,4.269075021147727966e-02,1.220488399267196655e-01,3.421221300959587097e-02,5.016788095235824585e-02,9.240435063838958740e-02,7.615864276885986328e-02,-2.986391074955463409e-03,6.614403426647186279e-02,9.334176033735275269e-02,2.541735023260116577e-02,3.811164572834968567e-02,2.304011210799217224e-02,4.829394817352294922e-02,2.494352310895919800e-02,1.134515274316072464e-02,2.275615185499191284e-02,4.516168683767318726e-02,5.067425221204757690e-02,2.314171567559242249e-02,1.023195311427116394e-01,4.704016819596290588e-02,3.368331119418144226e-02,2.192388847470283508e-02,3.048033267259597778e-02,4.798645153641700745e-02,2.254971675574779510e-02,5.621778219938278198e-02,3.596814721822738647e-02,7.262364029884338379e-02,5.601094290614128113e-02,1.123031377792358398e-01,3.610084578394889832e-02,3.428884595632553101e-02,1.834014803171157837e-02,5.569471418857574463e-02,4.201289638876914978e-02,8.495352417230606079e-02,1.043644249439239502e-01,8.106570690870285034e-02,4.316194355487823486e-02,9.729205071926116943e-02,2.392612770199775696e-02,3.298626095056533813e-02,9.215831011533737183e-02,3.293961659073829651e-02,1.900944672524929047e-02,2.843563631176948547e-02,2.824333123862743378e-02,2.894476056098937988e-02,1.716789789497852325e-02,2.708122506737709045e-02,7.025942206382751465e-02,1.027416996657848358e-02,3.976591676473617554e-02,2.389940805733203888e-02,6.125541403889656067e-02,6.881035119295120239e-02,4.883280023932456970e-02,3.792398422956466675e-02,6.458696722984313965e-02,7.354149222373962402e-02,2.644171193242073059e-02,3.745887055993080139e-02,4.052825272083282471e-02,2.970836870372295380e-02,3.279757127165794373e-02,-1.994570484384894371e-03,5.736476555466651917e-02,1.333766430616378784e-02,1.948375441133975983e-02,2.802143990993499756e-02,1.541765127331018448e-02,-1.639455929398536682e-02,3.570929542183876038e-02,3.025445342063903809e-02,2.552564814686775208e-02,-1.511638239026069641e-02,3.711687400937080383e-02,2.680530212819576263e-02,6.575796008110046387e-02,5.334325507283210754e-02,4.598959535360336304e-02,7.138855010271072388e-02,9.102443233132362366e-03,2.479542046785354614e-02,2.602774277329444885e-02,2.642062120139598846e-02,6.177275255322456360e-02,2.637818083167076111e-02,2.282480522990226746e-02,6.921900063753128052e-02,1.954463310539722443e-02,3.518414497375488281e-02,3.401508182287216187e-02,2.067861706018447876e-02,6.006144359707832336e-02,2.854577638208866119e-02,6.925148516893386841e-02,1.112942621111869812e-01,4.798007011413574219e-02,2.616123668849468231e-02,2.969660796225070953e-02,5.997475981712341309e-02,9.074361622333526611e-02,8.123280107975006104e-02,1.087009068578481674e-02,-1.498433761298656464e-02,3.810633718967437744e-02,2.599191665649414062e-02,2.970081754028797150e-02,8.975360542535781860e-03,2.632849849760532379e-02,3.848466277122497559e-02,7.762160152196884155e-02,2.781876549124717712e-02,3.241763263940811157e-02,2.476230449974536896e-02,3.810511901974678040e-02,2.717499807476997375e-02,3.026890382170677185e-02,2.608872763812541962e-02,7.059387117624282837e-02,3.791046887636184692e-02,-2.792707830667495728e-02,4.042065236717462540e-03,2.722185850143432617e-02,2.623444423079490662e-02,1.522822957485914230e-02,6.582449376583099365e-02,3.354085236787796021e-02,2.430495060980319977e-02,6.323555856943130493e-02,3.577268123626708984e-02,5.622360855340957642e-02,2.378172986209392548e-02,8.043923974037170410e-02,5.314951762557029724e-02,2.936103194952011108e-02,8.162201382219791412e-03,4.776106774806976318e-02,2.680534496903419495e-02,3.027779795229434967e-02,5.737952888011932373e-02,9.885487705469131470e-02,2.279907464981079102e-02,3.477775305509567261e-02,2.244498953223228455e-02,2.936329133808612823e-02,2.750350907444953918e-02,1.161624770611524582e-02,2.157832682132720947e-02,1.067991405725479126e-01,2.108096331357955933e-02,2.676812373101711273e-02,3.190361335873603821e-02,5.905800685286521912e-02,-1.399540342390537262e-02,2.710613235831260681e-02,2.754374966025352478e-02,7.606425881385803223e-02,2.876174077391624451e-02,2.861701697111129761e-02,3.299498930573463440e-02,2.056222222745418549e-02,5.110164359211921692e-02,2.859669737517833710e-02,1.853438280522823334e-02,5.377890169620513916e-02,6.210447847843170166e-02,7.175658643245697021e-02,3.114317730069160461e-02,2.631134539842605591e-02,3.073124960064888000e-02,1.843423582613468170e-02,2.801119722425937653e-02,5.289044231176376343e-02,3.933604061603546143e-02,3.146204724907875061e-02,6.711824983358383179e-02,2.806536480784416199e-02,4.619135335087776184e-02,5.832123104482889175e-03,2.367750555276870728e-02,3.346379473805427551e-02,3.226485103368759155e-02,5.326544120907783508e-02,3.411813825368881226e-02,-7.968310266733169556e-03,3.058209642767906189e-02,3.635198250412940979e-02,2.520447783172130585e-02,9.076111018657684326e-02,2.811253443360328674e-02,2.968746982514858246e-02,3.167944774031639099e-02,1.778110861778259277e-02,2.199988253414630890e-02,1.281090453267097473e-02,2.516998164355754852e-02,3.569610044360160828e-02,2.732138708233833313e-02,3.418852388858795166e-02,2.029128931462764740e-02,2.621739730238914490e-02,2.611904591321945190e-02,3.167530894279479980e-02,3.188724070787429810e-02,4.517652839422225952e-02,6.096460670232772827e-02,2.229972183704376221e-02,4.162576422095298767e-02,1.642767339944839478e-02,3.290349617600440979e-02,3.825797140598297119e-02,2.471807785332202911e-02,4.792938381433486938e-02,3.097328171133995056e-02,7.501906156539916992e-02,1.181623712182044983e-02,3.298412263393402100e-02,2.997374534606933594e-02,-1.241874694824218750e-02,3.408680856227874756e-02,3.177563846111297607e-02,2.344734407961368561e-02,2.737830393016338348e-02,5.669409036636352539e-02,5.653605610132217407e-02,2.753593586385250092e-02,2.288110554218292236e-02,3.693994879722595215e-02,3.436291962862014771e-02,5.755291506648063660e-02,6.301412731409072876e-02,2.836346440017223358e-02,