2.828074991703033447e-02,3.746791183948516846e-02,-1.800852268934249878e-02,2.500338479876518250e-02,5.958416685461997986e-02,3.577275946736335754e-02,2.129268459975719452e-02,9.254727512598037720e-03,-9.067803621292114258e-04,6.607029587030410767e-03,2.150382846593856812e-03,6.441803276538848877e-02,9.363026171922683716e-02,-2.466359362006187439e-02,2.481843158602714539e-02,6.946643814444541931e-03,-2.805136516690254211e-02,2.295036241412162781e-02,6.886812858283519745e-03,3.378621488809585571e-02,1.865846104919910431e-02,1.640122756361961365e-02,-3.700074180960655212e-02,6.087139248847961426e-03,3.746972605586051941e-02,4.371268302202224731e-02,1.934270374476909637e-02,3.545010089874267578e-02,1.130248419940471649e-02,-1.963089779019355774e-02,1.933112554252147675e-02,3.728369623422622681e-02,-1.024398580193519592e-02,-1.753635518252849579e-02,1.289380528032779694e-02,2.175255492329597473e-02,4.843242466449737549e-02,-2.671427652239799500e-02,6.005106866359710693e-02,-7.818352431058883667e-03,1.053585857152938843e-02,3.942563384771347046e-02,-1.990533806383609772e-02,-1.859888434410095215e-04,7.222902029752731323e-02,5.653102323412895203e-02,5.747079849243164062e-03,1.268030330538749695e-02,5.448696017265319824e-02,5.216170102357864380e-02,4.188276082277297974e-02,2.019206807017326355e-02,3.412937000393867493e-02,-1.604408770799636841e-02,-2.731702849268913269e-02,1.461043395102024078e-02,-3.633327782154083252e-02,8.614017069339752197e-02,-2.844075486063957214e-02,2.919093705713748932e-02,-1.189008448272943497e-02,2.679977007210254669e-02,-3.026623651385307312e-02,2.531334199011325836e-02,3.104509972035884857e-02,1.035816408693790436e-02,-3.384845331311225891e-02,-1.853936724364757538e-02,-4.942409694194793701e-02,7.684959471225738525e-02,2.471091225743293762e-02,3.287825360894203186e-02,-1.556777954101562500e-02,3.985289856791496277e-02,2.759579569101333618e-02,1.335659064352512360e-02,4.945392906665802002e-02,3.857074677944183350e-02,-2.877033315598964691e-03,1.833758503198623657e-02,4.342834278941154480e-02,-6.672754883766174316e-03,-6.023196503520011902e-03,6.099667772650718689e-02,-7.684376090764999390e-03,3.756353631615638733e-02,4.695316031575202942e-02,-1.780520565807819366e-02,-1.295963674783706665e-02,6.398353725671768188e-03,2.764806337654590607e-02,1.578311622142791748e-02,-1.161709986627101898e-02,2.404660917818546295e-02,2.847602777183055878e-02,-1.173512823879718781e-02,2.017547935247421265e-02,9.194612503051757812e-03,2.338022179901599884e-02,1.173595152795314789e-02,-1.112742908298969269e-02,1.405688188970088959e-02,3.562946245074272156e-02,2.538604475557804108e-02,1.446020230650901794e-02,2.145816013216972351e-02,8.242537081241607666e-02,3.263254463672637939e-02,3.977695107460021973e-02,1.283601112663745880e-02,2.277254126965999603e-02,-2.296653762459754944e-02,1.706767827272415161e-02,-2.899842336773872375e-03,2.844391204416751862e-02,8.243378996849060059e-02,7.224474102258682251e-02,8.102647960186004639e-02,2.790721878409385681e-02,-1.523055508732795715e-02,2.406787313520908356e-02,8.694797754287719727e-03,-2.166796475648880005e-04,9.926933795213699341e-03,1.577558182179927826e-02,7.525272667407989502e-02,3.255479410290718079e-02,6.565508246421813965e-02,6.891520321369171143e-02,-2.029425278306007385e-02,1.469049975275993347e-02,8.494552224874496460e-03,-1.052998006343841553e-03,4.727438092231750488e-02,5.810887739062309265e-02,3.590574860572814941e-02,1.136911660432815552e-02,-2.290567755699157715e-02,6.161777675151824951e-02,-2.847352810204029083e-02,1.631306670606136322e-02,1.990093663334846497e-02,6.731604039669036865e-02,-1.994396001100540161e-02,7.027370855212211609e-03,3.014555200934410095e-03,-1.779679767787456512e-02,2.257210761308670044e-02,1.646519452333450317e-02,6.073753535747528076e-02,3.767401725053787231e-02,2.824646234512329102e-02,1.443251036107540131e-02,-9.563754312694072723e-03,2.372789196670055389e-02,1.738865301012992859e-02,2.139134891331195831e-02,2.156118117272853851e-02,2.958715148270130157e-02,4.297040030360221863e-02,1.574073173105716705e-02,6.568676233291625977e-02,1.033703088760375977e-01,6.301950663328170776e-03,2.986149676144123077e-02,-5.262589082121849060e-03,2.323403768241405487e-02,3.230602666735649109e-02,-5.713309347629547119e-02,1.140939258038997650e-02,-1.573091186583042145e-02,5.935803055763244629e-03,7.416871376335620880e-03,-2.777858451008796692e-02,8.765703067183494568e-03,2.757509425282478333e-02,2.029395103454589844e-02,4.823590070009231567e-02,5.848176777362823486e-03,-1.949893496930599213e-02,-3.660529479384422302e-02,7.612128555774688721e-02,6.013454124331474304e-02,2.123182825744152069e-02,1.940100453794002533e-02,1.251044496893882751e-02,1.914544589817523956e-02,2.653391286730766296e-02,2.099878527224063873e-02,5.525235086679458618e-03,3.844836726784706116e-02,-2.251452021300792694e-02,2.660963311791419983e-02,2.027134411036968231e-02,1.144828088581562042e-02,-2.882975712418556213e-02,-1.151512004435062408e-02,3.623511269688606262e-02,-2.824527397751808167e-02,3.301813825964927673e-02,-2.315048314630985260e-02,-1.815427094697952271e-02,4.251657426357269287e-02,3.049508668482303619e-02,7.826913893222808838e-02,-2.569034136831760406e-02,2.271480113267898560e-02,-2.501346543431282043e-02,-2.132210880517959595e-03,-6.589011289179325104e-03,-1.736216433346271515e-02,-1.702321693301200867e-02,-1.434453390538692474e-02,1.318885106593370438e-02,4.749561101198196411e-02,2.528599835932254791e-02,-1.257055625319480896e-02,1.539187505841255188e-03,-1.691708341240882874e-02,-4.225431010127067566e-03,1.338579505681991577e-02,1.592228934168815613e-02,-7.252953946590423584e-05,-3.252049535512924194e-02,7.750041782855987549e-02,1.682348549365997314e-03,8.192110806703567505e-03,1.353131607174873352e-02,2.437166310846805573e-02,2.566946484148502350e-02,4.658957570791244507e-02,1.465074904263019562e-02,2.664748579263687134e-02,7.474800199270248413e-02,4.569610580801963806e-02,9.539633989334106445e-03,3.488647937774658203e-02,-1.861547306180000305e-02,-2.008631452918052673e-02,2.344304695725440979e-02,-2.364929951727390289e-02,2.788140252232551575e-02,3.095237165689468384e-02,3.943720832467079163e-02,2.182045765221118927e-02,-2.430935576558113098e-02,1.262157037854194641e-02,1.814009621739387512e-02,7.844093441963195801e-02,1.720519363880157471e-02,1.739005930721759796e-02,2.750654518604278564e-02,-4.933195188641548157e-02,1.366553641855716705e-02,-1.497009210288524628e-02,1.451063901185989380e-02,4.101365432143211365e-02,1.683904230594635010e-02,2.372091636061668396e-02,-2.249245718121528625e-02,4.198814556002616882e-02,-1.513915136456489563e-03,-1.762403547763824463e-02,4.777152463793754578e-02,-2.765904553234577179e-02,4.542746394872665405e-02,3.495713695883750916e-02,6.436727941036224365e-02,1.177929155528545380e-02,3.092461824417114258e-02,6.268166005611419678e-02,1.871335878968238831e-02,8.338316529989242554e-02,5.120553448796272278e-02,5.907746404409408569e-02,-1.444062776863574982e-02,6.367526948451995850e-03,2.252660132944583893e-02,6.497293710708618164e-02,3.286151215434074402e-02,2.078271657228469849e-02,2.940778993070125580e-02,-3.005279600620269775e-02,-2.320283278822898865e-02,-1.130005531013011932e-02,1.001984812319278717e-02,1.699178665876388550e-02,5.188991501927375793e-02,-7.296862080693244934e-03,-2.544720843434333801e-02,2.091698348522186279e-02,9.765211492776870728e-03,2.433879487216472626e-02,5.379555001854896545e-02,-3.646221384406089783e-02,2.223285846412181854e-02,2.998594194650650024e-02,3.707421571016311646e-02,1.293453946709632874e-02,1.828382536768913269e-02,-1.182095427066087723e-02,1.222784258425235748e-02,4.535634443163871765e-02,-5.432549864053726196e-03,1.564692333340644836e-02,3.426041454076766968e-03,2.924334630370140076e-02,1.299496740102767944e-03,2.308571897447109222e-02,1.226254366338253021e-02,3.425726294517517090e-02,-1.194618083536624908e-02,1.300362497568130493e-02,8.802349865436553955e-02,4.111434519290924072e-02,3.200645372271537781e-02,-2.713573910295963287e-02,-4.427405074238777161e-03,1.497323065996170044e-02,1.095127128064632416e-02,3.081544488668441772e-02,5.355558544397354126e-02,-2.601308003067970276e-02,-2.046903409063816071e-02,1.121726818382740021e-02,2.663307636976242065e-02,1.228305697441101074e-02,-1.402149815112352371e-02,5.109987407922744751e-02,5.428082123398780823e-02,4.070817679166793823e-02,1.631371118128299713e-02,-2.543782815337181091e-02,-1.481033489108085632e-02,2.456915751099586487e-02,-7.241122424602508545e-03,3.007495589554309845e-02,-2.806809172034263611e-02,1.835612766444683075e-02,-2.185588143765926361e-02,-4.644789732992649078e-03,3.680146113038063049e-02,7.361210882663726807e-04,5.229870602488517761e-02,4.778383299708366394e-02,3.110889717936515808e-02,2.977992966771125793e-02,5.179516971111297607e-02,4.970216378569602966e-02,1.464165188372135162e-02,2.348311059176921844e-02,-2.645216695964336395e-02,-1.975831203162670135e-02,1.763956807553768158e-02,-4.540314897894859314e-03,6.239449605345726013e-03,1.084270328283309937e-02,-1.143009960651397705e-02,2.244837395846843719e-02,1.688116788864135742e-02,1.913202926516532898e-03,2.766020968556404114e-02,2.088205888867378235e-02,-1.162377372384071350e-02,6.874340772628784180e-02,3.483200445771217346e-02,-3.670433536171913147e-03,7.143154740333557129e-03,1.366389915347099304e-03,6.060183048248291016e-02,1.494845375418663025e-02,-2.243015170097351074e-02,6.583677232265472412e-02,-1.704134047031402588e-02,1.433109678328037262e-02,4.840853065252304077e-02,2.493405155837535858e-02,2.880944870412349701e-02,-3.882187604904174805e-02,2.171566709876060486e-03,6.300647556781768799e-02,1.523567363619804382e-02,1.946838200092315674e-02,-1.345784030854701996e-02,4.266949743032455444e-02,6.365181505680084229e-02,-1.638020202517509460e-02,-2.544387616217136383e-02,1.649055629968643188e-02,-1.750370673835277557e-02,4.937056452035903931e-02,4.692101478576660156e-02,9.006785228848457336e-03,-2.744241803884506226e-02,2.423615194857120514e-02,4.121730849146842957e-02,4.748066514730453491e-02,9.521754458546638489e-03,-1.537447795271873474e-03,3.362861648201942444e-02,-4.031922668218612671e-03,-1.966168917715549469e-02,-1.659718900918960571e-02,5.325522273778915405e-02,5.968372523784637451e-02,1.227555982768535614e-02,-3.843570500612258911e-02,1.555942185223102570e-02,3.908856958150863647e-02,1.355427131056785583e-02,1.585836522281169891e-02,4.726582393050193787e-02,4.894628748297691345e-02,1.926723495125770569e-02,-2.484897524118423462e-02,-1.814970187842845917e-02,-2.201406657695770264e-02,3.740460798144340515e-02,1.178593374788761139e-02,-1.526181958615779877e-02,5.487583205103874207e-02,2.297675423324108124e-02,2.184917405247688293e-02,-1.928137987852096558e-02,-3.151573613286018372e-02,-1.845051907002925873e-02,-1.512160524725914001e-02,4.833579063415527344e-02,-2.723032794892787933e-02,-7.641077041625976562e-03,1.494651474058628082e-02,9.108169004321098328e-03,1.609034463763237000e-02,3.022194840013980865e-02,-5.911108106374740601e-03,3.960338234901428223e-02,2.325118705630302429e-02,9.204123169183731079e-03,-5.850188434123992920e-03,1.521947421133518219e-02,4.096291959285736084e-04,-2.011813968420028687e-02,2.313731983304023743e-02,4.746846854686737061e-03,6.482839584350585938e-03,1.718943938612937927e-03,5.359059944748878479e-02,-1.541594043374061584e-03,2.527569793164730072e-02,1.850110664963722229e-02,1.807691715657711029e-02,6.818561255931854248e-02,8.695263415575027466e-03,-2.079458534717559814e-02,-1.468908414244651794e-02,5.728365853428840637e-02,-1.764462329447269440e-02,-2.113020047545433044e-02,-3.478983789682388306e-02,1.306980382651090622e-02,2.413323335349559784e-02,-2.401968091726303101e-02,-2.388511225581169128e-02,5.450175702571868896e-02,-1.565570011734962463e-02,1.087794825434684753e-02,4.099102690815925598e-02,1.170424651354551315e-02,2.289749309420585632e-02,-4.411130025982856750e-02,2.863985672593116760e-02,-1.991010271012783051e-02,2.764074131846427917e-03,3.120006807148456573e-02,6.619203835725784302e-03,9.475072845816612244e-03,5.466927215456962585e-02,-1.243470236659049988e-02,1.179630868136882782e-02,-8.114960044622421265e-03,2.445958741009235382e-02,-8.644932880997657776e-03,-2.540887519717216492e-02,3.802058845758438110e-02,1.664621569216251373e-02,2.319075725972652435e-02,-1.877524331212043762e-02,-1.555447094142436981e-02,2.030612900853157043e-02,1.514367386698722839e-02,2.924117073416709900e-02,2.507059276103973389e-02,1.537792012095451355e-02,-6.323564797639846802e-03,-1.748695410788059235e-02,4.214002192020416260e-02,1.873638853430747986e-02,1.736871153116226196e-02,9.299546480178833008e-03,-1.597312279045581818e-02,1.144224219024181366e-02,5.273637920618057251e-02,2.080899290740489960e-02,5.161126703023910522e-02,5.781587213277816772e-02,7.633143663406372070e-02,-2.547774650156497955e-02,-3.215853124856948853e-03,1.633664220571517944e-02,-1.772887632250785828e-02,9.489101171493530273e-02,1.172277703881263733e-02,-1.923625916242599487e-02,1.717806048691272736e-02,-3.674814850091934204e-02,2.564780786633491516e-02,1.061793416738510132e-02,1.129444688558578491e-02,2.323521673679351807e-02,1.380484551191329956e-02,-2.057407237589359283e-02,-6.127287819981575012e-02,2.135155349969863892e-02,6.260573118925094604e-02,8.873164653778076172e-03,1.150759309530258179e-02,1.848739571869373322e-02,7.704401388764381409e-03,2.174737490713596344e-02,2.961541339755058289e-02,-2.048776485025882721e-02,2.326822280883789062e-02,4.478736594319343567e-02,2.443663775920867920e-03,3.090136498212814331e-02,3.839250653982162476e-02,4.219985008239746094e-02,1.513986475765705109e-02,1.676382310688495636e-02,5.004121735692024231e-02,-3.953231871128082275e-02,2.399511449038982391e-02,-7.426306605339050293e-03,1.768566295504570007e-02,6.093777716159820557e-02,-5.868829786777496338e-03,-2.287756465375423431e-02,-1.628404110670089722e-02,2.016110531985759735e-02,2.044405788183212280e-02,6.419703364372253418e-02,7.715175300836563110e-02,-2.019070647656917572e-02,-1.498777791857719421e-02,1.099514216184616089e-02,5.106668174266815186e-02,5.341361835598945618e-02,1.225238479673862457e-02,6.288486719131469727e-02,2.320135012269020081e-02,-1.684466376900672913e-02,-6.376080214977264404e-03,2.261110395193099976e-02,3.570634871721267700e-02,-2.494940906763076782e-02,-1.698741316795349121e-02,4.257124289870262146e-02,8.150402456521987915e-03,4.180811718106269836e-02,1.234688609838485718e-02,4.717513918876647949e-02,1.473278366029262543e-02,6.504222750663757324e-03,1.783683151006698608e-02,1.923322118818759918e-02,-2.047236450016498566e-02,3.649668395519256592e-02,1.719670556485652924e-02,-2.420750632882118225e-02,-2.814086340367794037e-02,-2.091892063617706299e-02,-1.748007908463478088e-02,-2.510841563344001770e-02,1.105285622179508209e-02,3.022554330527782440e-02,1.558350026607513428e-02,1.746768131852149963e-02,3.726232796907424927e-02,6.176765635609626770e-02,1.193645596504211426e-02,-1.549275591969490051e-03,6.302808970212936401e-02,2.618362940847873688e-02,8.778786286711692810e-03,2.540459483861923218e-02,2.188342809677124023e-02,2.846627868711948395e-02,1.320785842835903168e-02,3.024750575423240662e-02,2.310860902070999146e-02,2.966314367949962616e-02,2.294025197625160217e-02,1.956071332097053528e-02,-2.338592521846294403e-02,-2.837605029344558716e-02,2.757076732814311981e-02,-2.999239973723888397e-02,-1.692849211394786835e-02,-2.715837210416793823e-02,-3.326239436864852905e-02,2.624380588531494141e-02,1.533744856715202332e-02,1.312737911939620972e-02,2.211178839206695557e-02,-4.609746858477592468e-03,9.345011785626411438e-03,3.380715847015380859e-03,1.452179439365863800e-02,4.440746456384658813e-02,7.419794052839279175e-02,2.708846889436244965e-02,5.768060684204101562e-02,-1.112629286944866180e-02,-3.250492364168167114e-02,6.389838457107543945e-02,2.961672842502593994e-03,4.436506330966949463e-02,-1.919756829738616943e-02,5.269113183021545410e-02,-5.814162641763687134e-02,-3.121042437851428986e-02,6.665995344519615173e-03,6.130049005150794983e-02,-2.333855070173740387e-02,2.259576879441738129e-02,2.729599736630916595e-02,-7.341556251049041748e-03,-9.035216644406318665e-03,-1.037358492612838745e-02,3.042722679674625397e-02,-1.208704337477684021e-02,2.764830924570560455e-02,3.349874168634414673e-03,1.506489515304565430e-02,-1.107502728700637817e-03,-2.352876402437686920e-02,1.126076839864253998e-02,1.632555574178695679e-02,5.909997224807739258e-02,2.664357796311378479e-02,2.433973923325538635e-02,-2.331736311316490173e-02,2.450416609644889832e-02,1.334859803318977356e-02,1.530389115214347839e-02,2.792291343212127686e-04,2.150953747332096100e-02,-1.443936396390199661e-02,3.036893904209136963e-03,1.934438757598400116e-02,-2.445789985358715057e-02,7.810361683368682861e-02,-5.276782438158988953e-03,2.600989863276481628e-02,-2.159226126968860626e-02,-6.128848716616630554e-02,2.687002345919609070e-02,2.454016357660293579e-04,9.312833100557327271e-02,5.676462873816490173e-02,-1.039322093129158020e-02,1.013812422752380371e-02,4.152159020304679871e-02,-2.460286766290664673e-02,8.316541090607643127e-03,2.451260760426521301e-02,1.701173186302185059e-02,5.104747787117958069e-02,3.841335326433181763e-02,2.729907259345054626e-02,-2.760814316570758820e-02,3.629190847277641296e-02,2.703107148408889771e-02,-7.980894297361373901e-03,7.576274871826171875e-02,-1.142848003655672073e-02,1.238174922764301300e-02,-5.357242189347743988e-03,4.336128011345863342e-02,-2.100823074579238892e-02,-8.319413289427757263e-03,-1.735197007656097412e-02,4.064472392201423645e-02,1.370474044233560562e-02,2.065157145261764526e-02,2.197218313813209534e-02,6.377410888671875000e-02,-2.219167724251747131e-02,1.637526974081993103e-02,-1.117257215082645416e-02,-6.345856003463268280e-03,1.498149149119853973e-02,1.921550929546356201e-02,2.272117882966995239e-03,1.799281686544418335e-03,3.120528720319271088e-02,2.630947716534137726e-02,1.924971118569374084e-02,5.845280736684799194e-02,4.849162697792053223e-02,-9.679572656750679016e-03,1.152171194553375244e-02,-4.757518880069255829e-03,3.205275535583496094e-02,-2.610365301370620728e-02,2.902280539274215698e-03,1.123308017849922180e-02,4.471569135785102844e-02,-1.859301328659057617e-02,-1.393450144678354263e-02,5.693674460053443909e-02,3.279082477092742920e-02,8.274602890014648438e-02,2.186033688485622406e-02,4.800520092248916626e-02,7.432445883750915527e-02,-4.184599965810775757e-04,3.015479445457458496e-02,-9.787559509277343750e-03,5.411379039287567139e-03,9.165847674012184143e-03,4.948524385690689087e-02,-4.541907459497451782e-02,-3.226761892437934875e-02,-3.482232987880706787e-02,-2.567680738866329193e-02,5.998184531927108765e-02,-3.099951148033142090e-02,2.414792031049728394e-02,2.036934904754161835e-02,-2.359633706510066986e-02,-1.579200848937034607e-02,5.704054981470108032e-02,-9.038208983838558197e-03,1.452921144664287567e-02,-2.609064802527427673e-02,5.411334708333015442e-02,2.006696909666061401e-02,1.812080666422843933e-02,-2.908853814005851746e-02,-3.452983126044273376e-02,7.517163455486297607e-02,2.274106815457344055e-02,2.675953507423400879e-02,3.344387561082839966e-02,7.661797106266021729e-02,3.664211183786392212e-02,1.238211430609226227e-02,2.805258706212043762e-02,1.664789952337741852e-02,-2.593942545354366302e-02,3.134902194142341614e-02,-3.008210100233554840e-03,7.258119061589241028e-03,3.124101087450981140e-02,5.502481013536453247e-02,3.030599281191825867e-02,7.158135995268821716e-03,3.723387047648429871e-02,2.214187756180763245e-02,-9.034246206283569336e-03,-3.883147239685058594e-02,-3.779501840472221375e-02,1.899701543152332306e-02,3.029574081301689148e-02,8.598955348134040833e-03,7.799516618251800537e-02,-3.431893885135650635e-02,1.106928661465644836e-02,1.801700890064239502e-02,1.599132269620895386e-02,-2.883976325392723083e-03,1.231000199913978577e-02,3.165331855416297913e-02,3.878283128142356873e-02,1.067735254764556885e-01,-1.616733148694038391e-02,2.566075883805751801e-02,-1.411816291511058807e-02,-1.836132444441318512e-02,6.866189092397689819e-02,-5.269192159175872803e-03,2.686448767781257629e-02,8.692051470279693604e-02,-1.821052283048629761e-02,7.629973813891410828e-03,-1.169901527464389801e-02,2.427193336188793182e-02,-2.677617594599723816e-03,-1.800731196999549866e-02,4.037331789731979370e-03,5.309545993804931641e-02,2.420973777770996094e-02,4.542399197816848755e-03,8.504012599587440491e-03,-3.222691267728805542e-02,2.129435166716575623e-02,8.447529375553131104e-02,2.764904871582984924e-03,2.970364317297935486e-02,-1.499967463314533234e-02,2.772476896643638611e-02,-2.204134315252304077e-02,4.396856576204299927e-02,1.542238146066665649e-02,2.609966695308685303e-02,6.783813238143920898e-02,3.948504477739334106e-02,4.125919565558433533e-02,5.386065691709518433e-02,3.366426378488540649e-02,2.574576064944267273e-02,3.280669450759887695e-02,1.463146135210990906e-02,-2.755393460392951965e-02,2.056689746677875519e-02,2.228224277496337891e-02,3.976313024759292603e-02,2.771577611565589905e-02,2.074353396892547607e-03,2.957383915781974792e-02,6.018071994185447693e-02,2.639588899910449982e-02,-1.440430805087089539e-02,-3.719266504049301147e-03,4.991583898663520813e-02,-1.707251928746700287e-02,2.716212905943393707e-02,3.038891777396202087e-02,3.080319426953792572e-02,-3.562840074300765991e-02,3.981144353747367859e-02,9.158886969089508057e-02,-8.746910840272903442e-03,2.720151096582412720e-03,1.859377324581146240e-02,-2.234447002410888672e-02,-1.075536571443080902e-02,1.053480803966522217e-02,-1.674443483352661133e-04,9.833864867687225342e-03,-1.863874495029449463e-04,-4.001090675592422485e-02,5.762792006134986877e-02,6.229678913950920105e-02,-1.451566070318222046e-02,3.662808611989021301e-02,2.030139788985252380e-02,-1.846068724989891052e-02,-2.601655386388301849e-02,7.321327924728393555e-03,-2.242080494761466980e-02,1.119410805404186249e-02,1.731542311608791351e-02,-2.899293415248394012e-02,-2.859290316700935364e-02,3.439355269074440002e-02,-3.865886107087135315e-02,3.997870534658432007e-02,8.998347446322441101e-03,-1.338382810354232788e-02,3.639166057109832764e-02,2.026896178722381592e-02,2.789891324937343597e-02,-4.597832448780536652e-03,1.249929517507553101e-02,7.894907891750335693e-02,1.129601150751113892e-03,-1.613649725914001465e-02,-2.672079950571060181e-03,-2.664780430495738983e-02,1.442967355251312256e-02,2.559963054955005646e-02,-9.331535547971725464e-03,-1.331159658730030060e-02,5.435585975646972656e-02,-8.033853024244308472e-03,6.736244261264801025e-02,-2.141616865992546082e-02,1.845291629433631897e-02,1.781924627721309662e-02,2.714879438281059265e-02,1.746490038931369781e-02,-2.894017100334167480e-02,1.218638010323047638e-02,3.102686256170272827e-02,6.116572767496109009e-02,-1.957735046744346619e-02,-2.361451089382171631e-02,-2.619497478008270264e-02,5.872284993529319763e-03,-1.270677894353866577e-02,1.261249184608459473e-02,1.535261422395706177e-02,-7.162224501371383667e-03,1.378215011209249496e-02,6.666016578674316406e-02,2.779870852828025818e-02,-2.737846784293651581e-02,1.315630972385406494e-02,2.616218291223049164e-02,-2.879236079752445221e-02,4.512734338641166687e-02,-8.402144536375999451e-03,1.410470902919769287e-02,1.427489891648292542e-02,9.751413017511367798e-03,1.937796548008918762e-02,2.314805984497070312e-02,-1.646548882126808167e-02,2.612395957112312317e-02,4.113239049911499023e-02,3.014945425093173981e-02,3.938680514693260193e-02,9.770778939127922058e-03,3.384191542863845825e-02,-1.629046164453029633e-02,1.441836357116699219e-02,4.656593501567840576e-02,5.854928866028785706e-03,6.508776545524597168e-02,-2.250232920050621033e-02,-2.152093499898910522e-02,2.871757373213768005e-02,2.881081961095333099e-02,2.943701297044754028e-02,7.497628033161163330e-02,6.684819236397743225e-03,-2.473908290266990662e-02,2.111923322081565857e-02,-2.269542589783668518e-02,-2.688384987413883209e-02,-1.939303427934646606e-02,5.830788984894752502e-02,-2.319259196519851685e-02,4.694125801324844360e-02,-1.915909349918365479e-03,2.648598700761795044e-02,1.050179265439510345e-02,-4.974202439188957214e-02,-7.274188101291656494e-04,7.526955008506774902e-02,1.534394361078739166e-02,7.705101370811462402e-02,-2.735501341521739960e-02,4.561570659279823303e-02,1.980842463672161102e-02,-2.998686209321022034e-02,1.051200181245803833e-02,4.102671518921852112e-02,-1.339848339557647705e-02,1.675741933286190033e-02,4.996373876929283142e-02,-1.283785328269004822e-02,8.023103326559066772e-02,2.574114501476287842e-02,5.277395248413085938e-03,2.756900154054164886e-02,9.062495082616806030e-03,6.025073677301406860e-02,-3.053139336407184601e-02,1.240630261600017548e-02,5.445019900798797607e-02,2.353345230221748352e-02,1.482669636607170105e-02,-2.807779237627983093e-03,3.393262624740600586e-03,-2.899265289306640625e-02,2.146136388182640076e-02,-2.870955504477024078e-02,2.817442081868648529e-02,1.929747313261032104e-02,5.366809666156768799e-02,3.623967617750167847e-02,1.668843254446983337e-02,-1.345975324511528015e-03,-2.202428877353668213e-04,2.693711593747138977e-02,4.636966064572334290e-02,6.379816681146621704e-03,-1.748265884816646576e-02,-6.105073168873786926e-02,-3.297786042094230652e-02,6.349824368953704834e-02,-4.956563562154769897e-02,6.080856919288635254e-02,1.379297673702239990e-02,-4.094606265425682068e-02,4.347417503595352173e-02,2.319082245230674744e-02
3.473282977938652039e-02,4.287339374423027039e-02,-7.563773542642593384e-03,4.059426113963127136e-02,4.424930363893508911e-02,7.918970286846160889e-02,4.774060845375061035e-02,4.869989678263664246e-02,3.535112366080284119e-02,4.582893103361129761e-02,7.105258107185363770e-02,4.017823562026023865e-02,7.766942679882049561e-02,-2.697272226214408875e-03,3.540326654911041260e-02,-8.033961057662963867e-04,6.155658885836601257e-02,4.854365438222885132e-02,3.260920941829681396e-02,4.002121090888977051e-02,3.644494339823722839e-02,6.696228682994842529e-02,6.230968609452247620e-02,4.448595643043518066e-02,5.321140587329864502e-02,4.379222169518470764e-02,-1.266728341579437256e-02,5.254033580422401428e-02,5.158302187919616699e-02,-1.147065311670303345e-02,4.188081249594688416e-02,3.661261871457099915e-02,-1.457197219133377075e-02,5.051061511039733887e-02,-3.153248876333236694e-02,4.644455015659332275e-02,5.484635382890701294e-02,3.844513371586799622e-02,5.670932680368423462e-02,3.636351227760314941e-02,3.750480711460113525e-02,4.220649600028991699e-02,1.024648547172546387e-03,5.236654728651046753e-02,6.776269525289535522e-02,5.764025822281837463e-02,5.292988568544387817e-02,4.960149526596069336e-02,3.804720565676689148e-02,4.228469729423522949e-02,1.181796565651893616e-02,4.819256812334060669e-02,3.831668570637702942e-02,4.120271652936935425e-02,4.052591323852539062e-02,4.110828787088394165e-02,-5.188538506627082825e-02,7.930916547775268555e-02,-9.047864004969596863e-03,4.079223051667213440e-02,-4.490211606025695801e-02,5.076982080936431885e-02,-2.518234774470329285e-03,4.348556697368621826e-02,7.081714272499084473e-02,2.990858815610408783e-02,3.778621926903724670e-02,-8.624916896224021912e-03,4.651911184191703796e-02,7.661694288253784180e-02,4.257024824619293213e-02,2.468961291015148163e-02,-3.556598350405693054e-02,7.766440510749816895e-02,5.459977686405181885e-02,3.242899477481842041e-02,4.652456194162368774e-02,4.304406419396400452e-02,-1.489659119397401810e-02,4.556778445839881897e-02,5.481115356087684631e-02,4.423945397138595581e-02,4.182512685656547546e-02,5.343839898705482483e-02,-2.919461578130722046e-02,4.819194227457046509e-02,5.245228111743927002e-02,4.169212654232978821e-02,5.299775302410125732e-02,3.237910568714141846e-02,4.702664539217948914e-02,4.611091688275337219e-02,-8.091235533356666565e-03,4.064153879880905151e-02,3.639094531536102295e-02,4.289171844720840454e-02,3.780232369899749756e-02,4.205042496323585510e-02,-1.728982850909233093e-02,3.716377913951873779e-02,-6.845444440841674805e-04,3.878257051110267639e-02,4.321144893765449524e-02,4.293800145387649536e-02,3.421415388584136963e-02,1.214169152081012726e-02,8.837461471557617188e-02,5.116897448897361755e-02,3.390675783157348633e-02,4.022388532757759094e-02,4.545489326119422913e-02,4.166258499026298523e-02,4.355192184448242188e-02,4.358617961406707764e-02,5.407430976629257202e-02,5.920150876045227051e-02,6.110701709985733032e-02,6.231394410133361816e-02,4.735263437032699585e-02,-4.333531484007835388e-03,4.518556594848632812e-02,3.152276575565338135e-02,-1.073699817061424255e-02,3.857172653079032898e-02,3.595421463251113892e-02,5.728722363710403442e-02,4.856219142675399780e-02,5.266358703374862671e-02,4.444600269198417664e-02,-6.746169179677963257e-03,4.402285814285278320e-02,3.691453114151954651e-02,3.190939500927925110e-02,3.832369297742843628e-02,5.839489400386810303e-02,4.499406367540359497e-02,3.827441856265068054e-02,-1.128301583230495453e-02,4.821146279573440552e-02,-7.487852126359939575e-03,4.376956447958946228e-02,4.025538265705108643e-02,4.935126751661300659e-02,-1.198135316371917725e-03,3.914355486631393433e-02,3.940599784255027771e-02,-2.987614367157220840e-03,4.465036839246749878e-02,4.322016611695289612e-02,5.575216561555862427e-02,7.325893640518188477e-02,3.600366786122322083e-02,3.950877487659454346e-02,1.601545140147209167e-03,4.810388386249542236e-02,4.649196565151214600e-02,4.427505284547805786e-02,4.652450233697891235e-02,6.148449331521987915e-02,3.989674150943756104e-02,5.113989487290382385e-02,6.267565488815307617e-02,9.129170328378677368e-02,3.281070664525032043e-02,3.929671645164489746e-02,-2.932762913405895233e-02,4.724612459540367126e-02,4.698008671402931213e-02,4.956622421741485596e-02,5.396914109587669373e-02,3.760325536131858826e-02,4.866197705268859863e-02,3.330667316913604736e-02,5.701584368944168091e-02,5.175061523914337158e-02,5.136174708604812622e-02,4.500729963183403015e-02,3.465505689382553101e-02,5.476373806595802307e-02,4.197800159454345703e-02,5.031146854162216187e-02,7.429677248001098633e-02,4.132499545812606812e-02,4.343143105506896973e-02,4.723964259028434753e-02,4.486764594912528992e-02,4.818591848015785217e-02,4.996211826801300049e-02,4.161477833986282349e-02,3.181764483451843262e-02,3.790760412812232971e-02,-3.057562746107578278e-03,4.282897710800170898e-02,4.138468578457832336e-02,3.843244165182113647e-02,1.376524474471807480e-02,4.826657474040985107e-02,3.742720186710357666e-02,4.055732861161231995e-02,1.737486757338047028e-02,-2.986667677760124207e-03,4.536677896976470947e-02,4.875617846846580505e-02,4.782037064433097839e-02,4.341733455657958984e-02,3.688091784715652466e-02,4.527654871344566345e-02,-1.080770045518875122e-03,4.711346328258514404e-02,-3.091981634497642517e-04,-7.565816864371299744e-03,-1.519316807389259338e-03,-5.687253549695014954e-03,3.023287653923034668e-02,4.402156174182891846e-02,3.914485499262809753e-02,3.392472863197326660e-02,3.933432698249816895e-02,3.867873176932334900e-02,-1.817772164940834045e-03,4.577061533927917480e-02,3.762609139084815979e-02,-2.330631017684936523e-03,4.701734706759452820e-02,7.743825763463973999e-02,4.796308279037475586e-02,5.401850864291191101e-02,4.564887285232543945e-02,4.350814595818519592e-02,5.075407028198242188e-02,5.124203860759735107e-02,3.144086897373199463e-02,6.571312248706817627e-02,6.562652438879013062e-02,5.043660849332809448e-02,3.198827058076858521e-02,5.392408370971679688e-02,4.148177802562713623e-02,3.653201833367347717e-02,3.295940160751342773e-02,3.721389919519424438e-02,4.151762649416923523e-02,-2.675659954547882080e-03,3.168062493205070496e-02,4.655773565173149109e-02,5.424733087420463562e-02,4.536592215299606323e-02,5.225066840648651123e-02,7.586536556482315063e-02,6.527539342641830444e-02,4.555139690637588501e-02,5.108470469713211060e-02,4.425993934273719788e-02,4.050691425800323486e-02,4.543256014585494995e-02,3.483346104621887207e-02,3.231143578886985779e-03,3.960158303380012512e-02,4.556880518794059753e-02,4.149743169546127319e-02,3.602050989866256714e-02,3.115979582071304321e-02,4.813279956579208374e-02,3.604987263679504395e-02,4.820214211940765381e-02,5.474948137998580933e-02,4.214479774236679077e-02,4.339905828237533569e-02,4.200207442045211792e-02,4.019786790013313293e-02,4.087986052036285400e-02,4.517304524779319763e-02,7.156087458133697510e-02,5.536516755819320679e-02,3.964933007955551147e-02,3.237566351890563965e-02,3.669761493802070618e-02,1.677247323095798492e-02,3.963233903050422668e-02,4.680262133479118347e-02,4.325329139828681946e-02,5.376142263412475586e-02,-8.457260206341743469e-03,1.509034447371959686e-02,4.621908068656921387e-02,3.855711966753005981e-02,3.239786624908447266e-02,6.882072985172271729e-02,4.979754984378814697e-02,3.956307843327522278e-02,4.445353150367736816e-02,3.331262618303298950e-02,5.910938233137130737e-02,5.939449369907379150e-02,4.148063808679580688e-02,5.852561071515083313e-02,5.189085006713867188e-02,3.084869496524333954e-02,3.924386948347091675e-02,4.860739037394523621e-02,-3.515453636646270752e-02,3.404984250664710999e-02,7.200166583061218262e-02,1.073732972145080566e-03,3.160686790943145752e-02,5.247058719396591187e-02,5.893570184707641602e-02,4.403356462717056274e-02,4.100935906171798706e-02,-1.853851228952407837e-02,3.916737437248229980e-02,-3.411796689033508301e-02,3.909948468208312988e-02,7.833773642778396606e-02,4.196094349026679993e-02,5.004076659679412842e-02,-4.184021800756454468e-02,4.467474669218063354e-02,3.655704110860824585e-02,3.712855279445648193e-02,-5.066771060228347778e-03,3.608281165361404419e-02,9.316853247582912445e-03,3.997655212879180908e-02,3.517623990774154663e-02,5.241526290774345398e-02,3.863058984279632568e-02,-2.440785057842731476e-03,5.750842764973640442e-02,4.985243827104568481e-02,4.911530017852783203e-02,3.927151858806610107e-02,4.134380072355270386e-02,3.768361732363700867e-02,5.540342256426811218e-02,3.834315389394760132e-02,4.646161943674087524e-02,5.864509195089340210e-02,1.271158456802368164e-02,-1.155233569443225861e-02,-1.606077887117862701e-03,4.420210421085357666e-02,3.114800155162811279e-02,3.874687105417251587e-02,3.833629563450813293e-02,4.339820519089698792e-02,4.111562296748161316e-02,8.164621889591217041e-02,3.600095584988594055e-02,5.275033786892890930e-02,4.694725945591926575e-02,4.483786970376968384e-02,-3.246866166591644287e-03,4.319009184837341309e-02,3.963342308998107910e-02,4.141062498092651367e-02,3.187522292137145996e-02,-1.583372987806797028e-02,4.670508950948715210e-02,3.636683896183967590e-02,5.397664755582809448e-02,4.637209326028823853e-02,4.625340178608894348e-02,3.789469599723815918e-02,5.114492774009704590e-02,-6.251633167266845703e-03,3.897982090711593628e-02,3.753078356385231018e-02,2.650547586381435394e-02,5.115109682083129883e-02,4.873919859528541565e-02,-2.095663920044898987e-02,5.297746881842613220e-02,-3.367234766483306885e-02,4.417711496353149414e-02,5.660052970051765442e-02,4.883480072021484375e-02,3.632286190986633301e-02,3.831090033054351807e-02,6.525530666112899780e-02,6.364160776138305664e-02,3.907996788620948792e-02,4.511887207627296448e-02,4.853844642639160156e-02,5.766474083065986633e-02,4.256183654069900513e-02,5.086511373519897461e-02,4.189011454582214355e-02,4.478403553366661072e-02,-7.068669423460960388e-03,3.513183817267417908e-02,3.598630800843238831e-02,3.488084673881530762e-02,3.270361199975013733e-02,3.359454497694969177e-02,3.592796623706817627e-02,5.246138572692871094e-02,4.103182256221771240e-02,3.826135396957397461e-02,3.855690732598304749e-02,4.965337738394737244e-02,1.979159191250801086e-03,4.850393906235694885e-02,6.068979576230049133e-02,5.742701143026351929e-02,4.186042770743370056e-02,4.227434843778610229e-02,-2.332084253430366516e-02,3.513802587985992432e-02,3.606754541397094727e-02,4.499803110957145691e-02,3.929113969206809998e-02,6.053801253437995911e-02,4.257220774888992310e-02,-6.215939298272132874e-03,3.940841555595397949e-02,3.955052793025970459e-02,1.209244877099990845e-02,5.301564559340476990e-02,4.032574594020843506e-02,5.423863977193832397e-02,4.190753400325775146e-02,4.707784950733184814e-02,-8.162293583154678345e-03,3.904371336102485657e-02,-3.926379606127738953e-03,4.225402325391769409e-02,4.717492312192916870e-02,4.910622537136077881e-02,4.899488389492034912e-02,3.736272826790809631e-02,3.920546919107437134e-02,3.689086064696311951e-02,4.220777004957199097e-02,3.150892257690429688e-02,4.198423773050308228e-02,4.657330736517906189e-02,4.399253055453300476e-02,-1.153714209794998169e-02,4.681817442178726196e-02,3.525465726852416992e-02,-2.997986972332000732e-03,4.817917197942733765e-02,4.860620945692062378e-02,3.644817322492599487e-02,4.290974140167236328e-02,4.185725748538970947e-02,3.676126897335052490e-02,4.774080589413642883e-02,5.760094523429870605e-02,4.992119595408439636e-02,6.372801959514617920e-02,3.321472555398941040e-02,1.672366634011268616e-04,5.379201844334602356e-02,5.970337614417076111e-02,3.991952538490295410e-02,4.605503380298614502e-02,3.894645348191261292e-02,3.071034140884876251e-02,4.120424017310142517e-02,8.657734841108322144e-03,-4.909962415695190430e-03,3.902354091405868530e-02,5.202149972319602966e-02,3.109408915042877197e-02,5.040444433689117432e-02,2.331835590302944183e-02,4.260719567537307739e-02,3.879018127918243408e-03,4.644680395722389221e-02,4.524706304073333740e-02,3.884055465459823608e-02,4.999411851167678833e-02,3.631881624460220337e-02,3.881819173693656921e-02,4.415513575077056885e-02,-3.935590758919715881e-02,3.130654245615005493e-02,5.081580579280853271e-02,4.738830029964447021e-02,4.527119919657707214e-02,1.029422692954540253e-02,3.587314486503601074e-02,5.754230171442031860e-02,4.522026702761650085e-02,-5.518943071365356445e-03,-7.055781781673431396e-03,4.419542476534843445e-02,2.909129112958908081e-02,5.163550376892089844e-02,4.822370782494544983e-02,3.948246687650680542e-02,7.888963446021080017e-03,4.671863466501235962e-02,5.841333791613578796e-02,4.799558222293853760e-02,-2.636494487524032593e-02,4.153417050838470459e-02,4.770080745220184326e-02,4.236673563718795776e-02,5.108844116330146790e-02,4.798612743616104126e-02,4.292980581521987915e-02,4.144682735204696655e-02,5.656612664461135864e-02,-1.081318221986293793e-02,4.014860466122627258e-02,4.136486724019050598e-02,-2.185011282563209534e-03,8.828342705965042114e-02,3.579765930771827698e-02,9.242123924195766449e-04,4.538670182228088379e-02,4.241349920630455017e-02,3.590588271617889404e-02,3.290802612900733948e-02,3.834441676735877991e-02,4.436108842492103577e-02,4.188508167862892151e-02,-3.524948656558990479e-02,4.349784925580024719e-02,4.768753424286842346e-02,5.311084538698196411e-02,3.342415019869804382e-02,3.332283347845077515e-02,4.481136798858642578e-02,3.147231787443161011e-02,4.389636218547821045e-02,6.388468295335769653e-02,4.022114351391792297e-02,4.421016946434974670e-02,3.776724264025688171e-02,3.367283567786216736e-02,3.835699334740638733e-02,3.423461318016052246e-02,3.768837824463844299e-02,3.869920223951339722e-02,4.360727593302726746e-02,7.014090567827224731e-02,5.751235038042068481e-02,3.440356999635696411e-02,4.413381218910217285e-02,4.592412337660789490e-02,5.982303619384765625e-02,3.579364344477653503e-02,-9.302657097578048706e-03,-2.065141126513481140e-02,5.188217759132385254e-02,4.111482575535774231e-02,4.466928914189338684e-02,7.041978836059570312e-02,-3.722664713859558105e-02,4.109162464737892151e-02,4.556751251220703125e-02,3.645376116037368774e-02,7.033935934305191040e-02,-1.303043961524963379e-02,1.699176803231239319e-02,3.948999196290969849e-02,-6.740689277648925781e-03,4.023428261280059814e-02,4.524670913815498352e-02,7.135492563247680664e-02,3.378881141543388367e-03,5.278373509645462036e-02,3.576839715242385864e-02,3.760008513927459717e-02,3.727931901812553406e-02,3.623522073030471802e-02,3.825020045042037964e-02,4.506650567054748535e-02,4.693050310015678406e-02,4.328197240829467773e-02,4.500966519117355347e-02,-6.466964259743690491e-03,3.749225661158561707e-02,4.290528222918510437e-02,7.590218633413314819e-02,3.121935948729515076e-02,-6.680380553007125854e-03,3.781842812895774841e-02,3.357082605361938477e-02,3.266268596053123474e-02,4.613306000828742981e-02,3.575486317276954651e-02,4.097801819443702698e-02,-1.654797419905662537e-02,8.050993084907531738e-02,3.457119688391685486e-02,-1.100658997893333435e-02,5.407723039388656616e-02,3.408673405647277832e-02,4.187793657183647156e-02,4.325421154499053955e-02,4.580749943852424622e-02,5.085797235369682312e-02,3.533471375703811646e-02,3.973199054598808289e-02,4.505364224314689636e-02,4.090723395347595215e-02,4.399439319968223572e-02,4.057602584362030029e-02,-7.333831861615180969e-03,6.772633641958236694e-04,5.511895567178726196e-02,4.430006444454193115e-02,-4.063159227371215820e-03,3.717468678951263428e-02,1.514636911451816559e-03,4.071752727031707764e-02,4.399598389863967896e-02,4.523319378495216370e-02,3.258801996707916260e-02,-4.665885120630264282e-03,4.745531082153320312e-02,6.488278508186340332e-02,4.042420536279678345e-02,3.884472325444221497e-02,5.807824060320854187e-02,4.713664576411247253e-02,3.824799135327339172e-02,4.737589135766029358e-02,6.070276349782943726e-02,4.460673406720161438e-02,4.038196802139282227e-02,6.797259300947189331e-02,4.198684543371200562e-02,4.271516576409339905e-02,3.171182051301002502e-02,3.908576071262359619e-02,4.826419800519943237e-02,4.063061624765396118e-02,-5.952857434749603271e-03,3.955373540520668030e-02,4.618486016988754272e-02,4.298901557922363281e-02,4.113123565912246704e-02,-4.440867900848388672e-02,2.770167402923107147e-02,2.320289611816406250e-03,-1.791244745254516602e-02,4.751361161470413208e-02,4.146757721900939941e-02,4.038644582033157349e-02,1.377380359917879105e-02,-3.072630055248737335e-02,4.099339246749877930e-02,4.763894155621528625e-02,-2.886391431093215942e-02,4.311024025082588196e-02,2.089858986437320709e-03,3.948637098073959351e-02,4.798170179128646851e-02,3.139892965555191040e-02,5.226249992847442627e-02,4.299831390380859375e-02,-3.141066059470176697e-03,2.986856177449226379e-02,4.504082351922988892e-02,3.280184417963027954e-02,7.264985889196395874e-02,-4.443313926458358765e-03,4.192081838846206665e-02,-4.384076222777366638e-03,5.036931112408638000e-02,7.059451937675476074e-02,3.866188973188400269e-02,7.722199708223342896e-02,4.266700893640518188e-02,5.159287527203559875e-02,4.171109572052955627e-02,6.812506169080734253e-02,3.737153951078653336e-03,3.763620182871818542e-02,4.888769984245300293e-02,4.384946823120117188e-02,5.362443625926971436e-02,7.508214563131332397e-02,3.782214224338531494e-02,-1.137593947350978851e-02,5.374645441770553589e-02,3.106044232845306396e-02,4.728596657514572144e-02,7.109301537275314331e-02,1.902352087199687958e-04,4.073135927319526672e-02,-3.874008357524871826e-02,4.468424618244171143e-02,-7.515829056501388550e-03,3.580465912818908691e-02,4.286742210388183594e-02,4.056683555245399475e-02,3.319665417075157166e-02,5.166705325245857239e-02,4.979192465543746948e-02,4.654062539339065552e-02,-7.044866681098937988e-03,4.728614911437034607e-02,1.458057574927806854e-02,-3.040894120931625366e-02,5.293622240424156189e-02,4.800095781683921814e-02,3.812512010335922241e-02,4.299837723374366760e-02,4.125063121318817139e-02,4.584574326872825623e-02,4.573490470647811890e-02,3.992565348744392395e-02,3.669857606291770935e-02,4.249664768576622009e-02,4.239472374320030212e-02,1.791007816791534424e-04,3.210109844803810120e-02,3.897961229085922241e-02,3.638499975204467773e-02,4.920984059572219849e-02,6.623920798301696777e-02,4.397177323698997498e-02,-2.511078864336013794e-02,5.374579131603240967e-02,3.989542275667190552e-02,8.495443314313888550e-02,3.527672588825225830e-02,5.127303302288055420e-02,6.702326983213424683e-02,4.032218456268310547e-02,3.305007517337799072e-02,-1.037587597966194153e-02,3.853870555758476257e-02,4.982261359691619873e-02,3.812626749277114868e-02,4.402028769254684448e-02,-1.685107126832008362e-04,-4.475042223930358887e-03,6.261678040027618408e-02,7.787702977657318115e-02,-6.250310689210891724e-04,4.532072693109512329e-02,4.754550009965896606e-02,3.791818022727966309e-02,4.557435959577560425e-02,5.303090065717697144e-02,-2.128737792372703552e-02,3.738958016037940979e-02,-3.515303134918212891e-03,5.422428622841835022e-02,5.420482158660888672e-02,3.346181660890579224e-02,1.092189922928810120e-04,4.138972610235214233e-02,7.539875060319900513e-02,4.015453904867172241e-02,5.151982232928276062e-02,6.107053160667419434e-02,7.181623578071594238e-02,3.538929671049118042e-02,3.992049768567085266e-02,4.261236637830734253e-02,6.604291498661041260e-02,4.093059897422790527e-02,3.874327614903450012e-02,6.132731214165687561e-04,5.309255048632621765e-02,3.329291567206382751e-02,5.470068752765655518e-02,4.296173155307769775e-02,3.835041821002960205e-02,5.241752415895462036e-02,4.753134399652481079e-02,3.787349164485931396e-02,3.903672099113464355e-03,4.069199413061141968e-02,4.496802017092704773e-02,5.041063204407691956e-02,3.118433244526386261e-02,6.645290553569793701e-02,4.089445993304252625e-02,3.832972422242164612e-02,4.204210266470909119e-02,3.407401591539382935e-02,3.439454361796379089e-02,4.335910826921463013e-02,3.455539420247077942e-02,4.359044507145881653e-02,9.975409507751464844e-02,4.134731367230415344e-02,4.088025167584419250e-02,4.892686381936073303e-02,5.155111104249954224e-02,6.273774802684783936e-02,-2.360648661851882935e-02,4.240586236119270325e-02,7.422805577516555786e-02,3.210262954235076904e-02,3.814181685447692871e-02,4.668546095490455627e-02,5.028871446847915649e-02,3.858567029237747192e-02,-6.413370370864868164e-03,3.169969841837882996e-02,3.643824160099029541e-02,4.400498047471046448e-02,4.824514687061309814e-02,3.361530974507331848e-02,2.632994204759597778e-03,4.612663388252258301e-02,4.201899096369743347e-02,1.653658039867877960e-02,4.578772932291030884e-02,4.762463271617889404e-02,4.238136857748031616e-02,5.834013596177101135e-02,4.028783366084098816e-02,5.239511281251907349e-02,5.022375285625457764e-02,6.689243763685226440e-02,3.816891461610794067e-02,5.391622334718704224e-02,3.893622756004333496e-02,4.317004978656768799e-02,4.010577499866485596e-02,7.054288685321807861e-02,4.135700315237045288e-02,1.222470775246620178e-03,4.904898628592491150e-02,4.663504287600517273e-02,3.524795547127723694e-02,4.303006827831268311e-02,4.885234683752059937e-02,5.324523895978927612e-02,2.425767108798027039e-02,4.549106582999229431e-02,5.447962880134582520e-02,5.119954794645309448e-02,7.048339396715164185e-02,-3.737407922744750977e-02,5.005732178688049316e-02,4.203988239169120789e-02,4.225869104266166687e-02,4.104592651128768921e-02,3.673567622900009155e-02,8.024095743894577026e-02,-3.791333734989166260e-02,4.480654373764991760e-02,4.224538803100585938e-02,4.716025292873382568e-02,-4.032726585865020752e-02,5.289295315742492676e-02,-1.496101357042789459e-02,3.233300894498825073e-02,4.862505942583084106e-02,1.144809648394584656e-03,5.031841248273849487e-02,4.221095517277717590e-02,-7.517252117395401001e-03,4.488914832472801208e-02,3.931353241205215454e-02,3.899852931499481201e-02,-3.865905106067657471e-03,3.391339629888534546e-02,-6.988175213336944580e-03,3.735085576772689819e-02,4.421072453260421753e-02,-2.348935231566429138e-03,7.498860359191894531e-04,-9.295754134654998779e-04,4.711022600531578064e-03,8.478321135044097900e-03,3.088331967592239380e-02,-2.506314776837825775e-04,3.375652804970741272e-02,6.657937914133071899e-02,4.700333997607231140e-02,-4.855788312852382660e-03,4.708366841077804565e-02,7.109552621841430664e-02,3.400194272398948669e-02,-3.143765404820442200e-02,5.317631363868713379e-02,-9.086793288588523865e-03,4.581245779991149902e-02,5.862759798765182495e-02,4.344256222248077393e-02,-3.383998572826385498e-02,5.964719131588935852e-02,-2.019046247005462646e-02,6.896956264972686768e-02,4.593562334775924683e-02,5.369153618812561035e-02,4.861097037792205811e-02,4.735335707664489746e-02,4.184745997190475464e-02,-1.019217073917388916e-03,3.923025354743003845e-02,4.025742411613464355e-02,4.990326613187789917e-02,-5.747869610786437988e-03,4.375823959708213806e-02,7.048702239990234375e-02,4.669781029224395752e-02,-4.631254449486732483e-02,4.374876245856285095e-02,3.892712295055389404e-02,4.934066534042358398e-02,2.650526911020278931e-02,5.088756233453750610e-02,4.678989574313163757e-02,4.082578048110008240e-02,4.001831263303756714e-02,4.402315616607666016e-02,5.147141218185424805e-02,4.855994880199432373e-02,3.942119330167770386e-02,4.317113384604454041e-02,3.973889723420143127e-02,4.341520369052886963e-02,4.782860726118087769e-02,4.311585053801536560e-02,-9.434625506401062012e-03,3.882717341184616089e-02,3.866226971149444580e-02,4.524048417806625366e-02,3.976606950163841248e-02,3.850860521197319031e-02,5.231497809290885925e-02,4.179521463811397552e-03,3.025140054523944855e-02,2.530567348003387451e-02,3.227462992072105408e-02,4.475970566272735596e-02,9.987913072109222412e-04,-4.136570543050765991e-02,4.041123762726783752e-02,5.409695208072662354e-02,7.559514045715332031e-02,7.475097477436065674e-02,4.983358457684516907e-02,5.502215027809143066e-02,4.451312124729156494e-02,6.167009845376014709e-02,3.990101069211959839e-02,-6.098665297031402588e-03,4.243321716785430908e-02,4.103518277406692505e-02,5.239724740386009216e-02,9.027533233165740967e-04,4.347028210759162903e-02,3.519386053085327148e-02,4.073305055499076843e-03,3.097001463174819946e-04,6.341601908206939697e-02,3.349236398935317993e-02,5.537978559732437134e-02,5.580033361911773682e-02,4.322931915521621704e-02,4.655171185731887817e-02,4.220176488161087036e-02,4.265459626913070679e-02,3.052635863423347473e-02,4.896555095911026001e-02,4.973658546805381775e-02,5.639287829399108887e-02,4.748151078820228577e-02,4.224158078432083130e-02,4.248616099357604980e-02,3.661549836397171021e-02,4.836263880133628845e-02,3.030709177255630493e-02,6.359210610389709473e-02,-3.510735929012298584e-03,2.991444244980812073e-02,5.299180373549461365e-02,4.746343195438385010e-02,3.773251548409461975e-02,4.239779897034168243e-03,4.945681989192962646e-02,3.797538578510284424e-02,4.881065711379051208e-02,4.901005327701568604e-02,4.513996839523315430e-02,4.176646098494529724e-02,5.405995249748229980e-02,4.199639707803726196e-02,5.317014828324317932e-02,3.588826581835746765e-02,4.391748085618019104e-02,4.056312516331672668e-02,3.959805518388748169e-02,3.428717330098152161e-02,4.343342408537864685e-02,5.017812922596931458e-02,1.134055666625499725e-03,4.357598349452018738e-02,4.780341871082782745e-03,5.441304668784141541e-02,3.182316944003105164e-02,4.740271344780921936e-02,4.476366192102432251e-02,4.476865381002426147e-02
3.502704575657844543e-02,3.142057359218597412e-02,3.584464639425277710e-02,3.799945116043090820e-02,3.628145903348922729e-02,3.847913444042205811e-02,6.985032558441162109e-02,3.528165444731712341e-02,2.094763517379760742e-02,3.338740393519401550e-02,4.556731134653091431e-02,3.614779561758041382e-02,4.866249114274978638e-02,3.594497218728065491e-02,3.437408804893493652e-02,6.533405929803848267e-02,-8.350808173418045044e-03,9.315128624439239502e-02,2.319937199354171753e-02,3.888040781021118164e-02,3.346564993262290955e-02,3.269663453102111816e-02,-1.141434907913208008e-02,2.744883298873901367e-02,3.932314366102218628e-02,3.734321519732475281e-02,8.571250736713409424e-02,6.893973052501678467e-02,4.006169363856315613e-02,4.253032058477401733e-02,5.539499223232269287e-02,3.355308249592781067e-02,7.719296216964721680e-02,2.174758911132812500e-02,8.833321183919906616e-02,5.454819649457931519e-02,3.890268132090568542e-02,-6.173915229737758636e-03,4.181573539972305298e-02,1.809209026396274567e-02,2.599216997623443604e-02,3.441475331783294678e-02,4.633608087897300720e-02,2.445607259869575500e-02,4.697743058204650879e-02,4.024612158536911011e-02,4.455355182290077209e-02,7.313140481710433960e-02,3.645728901028633118e-02,3.514504060149192810e-02,7.777336984872817993e-02,8.045650273561477661e-02,3.569597378373146057e-02,1.248768717050552368e-02,-2.265927381813526154e-03,5.986593663692474365e-02,6.061027571558952332e-02,5.186948925256729126e-02,2.851685509085655212e-02,3.899105638265609741e-02,7.204619795083999634e-02,7.896627485752105713e-02,3.431515023112297058e-02,8.321789652109146118e-02,3.211178630590438843e-02,2.966574579477310181e-02,-6.174516398459672928e-03,4.031993448734283447e-02,-1.475114747881889343e-02,4.890558123588562012e-02,7.433419674634933472e-02,7.226522266864776611e-02,8.322599530220031738e-02,5.578817427158355713e-02,8.903276920318603516e-02,3.241503611207008362e-02,4.157593846321105957e-02,3.352978080511093140e-02,4.858974367380142212e-02,7.645070552825927734e-02,3.939355909824371338e-02,1.472451165318489075e-02,1.463163178414106369e-02,3.717410191893577576e-02,5.506179481744766235e-02,3.550022840499877930e-02,5.122058093547821045e-02,6.091509945690631866e-03,1.804198324680328369e-02,3.001457825303077698e-02,7.124575227499008179e-02,5.926683545112609863e-02,4.435611516237258911e-02,3.185419365763664246e-02,3.364754095673561096e-02,1.157064270228147507e-02,4.687767103314399719e-02,3.375453129410743713e-02,9.691892564296722412e-02,4.232866689562797546e-02,2.901312708854675293e-02,3.950216993689537048e-02,5.457717552781105042e-02,7.544179260730743408e-02,3.392966091632843018e-02,4.938043653964996338e-02,4.490593075752258301e-02,1.097557842731475830e-01,3.290844708681106567e-02,4.792719334363937378e-02,8.537399768829345703e-02,8.426509797573089600e-03,6.652161478996276855e-02,1.685952022671699524e-02,8.338642120361328125e-02,4.471765458583831787e-02,4.352471232414245605e-02,4.520109668374061584e-02,1.046497598290443420e-01,6.513023376464843750e-02,7.927235215902328491e-02,2.535716444253921509e-02,5.246978998184204102e-02,3.907673805952072144e-02,3.479719907045364380e-02,4.217798635363578796e-02,1.089005470275878906e-01,4.141151160001754761e-02,3.796987235546112061e-02,3.494329378008842468e-02,3.723786398768424988e-02,2.979728765785694122e-02,1.911034993827342987e-02,3.803497552871704102e-02,4.178849235177040100e-02,4.810465127229690552e-02,3.881694748997688293e-02,3.397420421242713928e-02,3.769860044121742249e-02,3.116454556584358215e-02,7.239456474781036377e-02,4.311413690447807312e-02,4.254109412431716919e-02,4.510357230901718140e-02,3.261031582951545715e-02,2.719819545745849609e-02,6.016470491886138916e-02,7.397679239511489868e-02,6.597501039505004883e-02,4.097856953740119934e-02,4.086250439286231995e-02,3.463020920753479004e-02,3.610004112124443054e-02,5.178070813417434692e-02,8.531980216503143311e-02,6.705057621002197266e-02,8.133365958929061890e-02,7.949890196323394775e-02,1.051940992474555969e-01,3.439634293317794800e-02,7.230457663536071777e-02,4.561276733875274658e-02,4.856812208890914917e-02,3.013449348509311676e-02,2.953893691301345825e-02,5.930621922016143799e-02,8.686996251344680786e-02,3.347219154238700867e-02,-2.100256830453872681e-02,4.305031150579452515e-02,7.015661336481571198e-03,4.039166122674942017e-02,2.307445183396339417e-02,-9.065981954336166382e-03,3.821582347154617310e-02,1.140474975109100342e-01,6.014411896467208862e-02,3.314185515046119690e-02,4.584348946809768677e-02,4.704328253865242004e-03,-4.987186193466186523e-02,5.081971362233161926e-02,3.933439403772354126e-02,6.919302791357040405e-02,7.861250638961791992e-02,7.056339085102081299e-02,7.531848549842834473e-02,1.043454557657241821e-01,6.233821436762809753e-02,2.693829126656055450e-02,3.765802830457687378e-02,3.278120607137680054e-02,6.472390145063400269e-02,5.365769565105438232e-02,3.526765108108520508e-02,3.843486309051513672e-02,9.617965668439865112e-03,3.862582147121429443e-02,-2.703218720853328705e-03,3.633799031376838684e-02,3.789453953504562378e-02,1.908428966999053955e-03,3.623276203870773315e-02,9.319193661212921143e-02,3.709500283002853394e-02,1.424877997487783432e-02,9.471449255943298340e-02,3.673379868268966675e-02,2.768239751458168030e-02,4.663649201393127441e-02,3.214511275291442871e-02,4.883249849081039429e-02,4.049900174140930176e-02,3.009497188031673431e-02,3.706615790724754333e-02,3.758574277162551880e-02,1.052379421889781952e-02,2.686513215303421021e-02,9.085986763238906860e-03,5.197783187031745911e-02,7.940581440925598145e-02,3.553431481122970581e-02,5.432480946183204651e-02,-8.077045902609825134e-03,4.745122790336608887e-02,3.493807464838027954e-02,4.851152375340461731e-02,7.296301424503326416e-02,7.895836234092712402e-02,9.820634126663208008e-02,3.867825865745544434e-02,3.145861625671386719e-02,3.416255488991737366e-02,4.658097773790359497e-02,3.959985077381134033e-02,2.864738740026950836e-02,3.952845185995101929e-02,1.147219911217689514e-03,1.293560303747653961e-02,3.308488801121711731e-02,8.308055810630321503e-03,7.009980082511901855e-02,8.822769671678543091e-02,3.774575889110565186e-02,6.479530036449432373e-02,-7.576256990432739258e-03,7.842320203781127930e-02,8.163315802812576294e-02,4.238379001617431641e-02,3.381781280040740967e-02,7.284238934516906738e-02,1.025864183902740479e-01,-1.094483584165573120e-01,5.043176561594009399e-02,1.958296634256839752e-02,3.323899209499359131e-02,3.909456729888916016e-02,3.457647562026977539e-02,8.377151936292648315e-02,2.662414684891700745e-03,3.369328007102012634e-02,2.427681908011436462e-02,6.137758493423461914e-03,3.515516966581344604e-02,-1.050867885351181030e-02,4.034714400768280029e-02,4.019431397318840027e-02,3.633338585495948792e-02,5.213315412402153015e-02,3.274299949407577515e-02,3.507980331778526306e-02,7.957902550697326660e-02,4.863745719194412231e-02,4.034315049648284912e-02,3.823934122920036316e-02,1.522044837474822998e-02,3.101984970271587372e-02,4.798534139990806580e-02,3.546193242073059082e-02,3.541296720504760742e-02,6.328744441270828247e-02,8.697929978370666504e-02,3.543004021048545837e-02,3.839495405554771423e-02,8.511277846992015839e-03,5.479873716831207275e-02,3.218347579240798950e-02,3.971605747938156128e-02,1.559391058981418610e-02,1.830089837312698364e-03,8.634042739868164062e-02,2.983182668685913086e-02,9.616085141897201538e-02,4.242823645472526550e-02,-5.154569633305072784e-03,9.157050400972366333e-02,1.115208864212036133e-01,3.984791040420532227e-02,5.515921860933303833e-02,6.089003384113311768e-02,5.782032012939453125e-02,3.252513706684112549e-02,3.530370444059371948e-02,6.475111842155456543e-02,3.152393922209739685e-02,4.081213474273681641e-02,1.015533059835433960e-01,3.099322691559791565e-02,7.186645269393920898e-02,8.573772013187408447e-02,3.801746666431427002e-02,7.997027784585952759e-02,5.526388436555862427e-02,4.795934259891510010e-02,3.345731645822525024e-02,3.487685322761535645e-02,5.422598123550415039e-02,1.457461435347795486e-02,3.725787624716758728e-02,4.010211303830146790e-02,6.197655946016311646e-02,3.327615186572074890e-02,3.926642984151840210e-02,9.399441070854663849e-03,3.579688444733619690e-02,7.134449481964111328e-02,4.370012879371643066e-02,4.336286708712577820e-02,4.421455413103103638e-02,3.807922825217247009e-02,3.619524091482162476e-02,4.570790380239486694e-02,-4.235655069351196289e-03,9.662587195634841919e-03,9.063673019409179688e-02,1.213727146387100220e-02,9.504948556423187256e-02,-1.153310388326644897e-02,4.633333161473274231e-02,3.820733726024627686e-02,5.041188374161720276e-02,5.662100017070770264e-02,2.968696318566799164e-02,3.460624068975448608e-02,3.832127898931503296e-02,4.662306606769561768e-02,4.992560297250747681e-02,4.296158626675605774e-02,3.599168732762336731e-02,3.913835436105728149e-02,8.436589688062667847e-02,-2.344975247979164124e-03,3.964107483625411987e-02,6.805974245071411133e-02,1.838640309870243073e-02,3.064265288412570953e-02,3.137237951159477234e-02,5.078889057040214539e-02,8.320740610361099243e-02,3.390029072761535645e-02,3.914198279380798340e-02,8.508837223052978516e-02,8.726099133491516113e-02,1.386566087603569031e-02,4.100216552615165710e-02,8.204893767833709717e-02,1.737758889794349670e-02,3.240932151675224304e-02,2.721614204347133636e-02,4.078938812017440796e-02,6.659872829914093018e-02,6.039068475365638733e-02,4.251962527632713318e-02,9.276789426803588867e-02,7.163633406162261963e-02,3.769443929195404053e-02,9.089348465204238892e-02,3.137357160449028015e-02,-8.368717506527900696e-03,1.996696740388870239e-02,4.519443586468696594e-02,4.822190850973129272e-02,7.924955338239669800e-02,1.581467129290103912e-02,4.287796467542648315e-02,3.570081293582916260e-02,1.497176103293895721e-02,-3.561932593584060669e-03,8.786588907241821289e-02,3.312924504280090332e-02,3.514856100082397461e-02,3.466193005442619324e-02,3.178879618644714355e-02,1.300397515296936035e-02,5.443605408072471619e-02,3.610292449593544006e-02,4.060235992074012756e-02,4.828541353344917297e-02,1.630863547325134277e-02,3.576602414250373840e-02,2.287316136062145233e-02,3.933309763669967651e-02,6.781091913580894470e-03,4.171578213572502136e-02,4.154922813177108765e-02,6.308418512344360352e-02,-9.494207799434661865e-03,4.857173562049865723e-02,3.426942974328994751e-02,3.264353424310684204e-02,5.316817387938499451e-02,3.723534569144248962e-02,4.316884651780128479e-02,7.516761869192123413e-02,3.190598636865615845e-02,4.022415727376937866e-03,3.377459943294525146e-03,4.373744130134582520e-02,4.200021550059318542e-02,1.726132072508335114e-02,3.944793716073036194e-02,7.442939281463623047e-02,6.369638442993164062e-02,3.079788759350776672e-02,-1.301855780184268951e-03,3.827737271785736084e-02,2.338637784123420715e-02,3.526293486356735229e-02,-9.129129350185394287e-03,1.823226548731327057e-02,3.544196859002113342e-02,4.365332797169685364e-02,3.493427112698554993e-02,4.109898582100868225e-02,1.969581842422485352e-02,3.145862370729446411e-02,8.130042254924774170e-02,4.834274947643280029e-02,5.314444378018379211e-02,7.123069465160369873e-02,2.428686991333961487e-02,4.229327291250228882e-02,9.364485740661621094e-02,3.629434481263160706e-02,2.413116209208965302e-02,2.741599269211292267e-02,3.422505408525466919e-02,1.653278432786464691e-02,8.970527350902557373e-02,9.528489410877227783e-02,7.229274511337280273e-02,4.658793658018112183e-02,3.049011528491973877e-02,4.121505096554756165e-02,2.410750836133956909e-02,4.294096305966377258e-02,6.510450504720211029e-03,9.255919605493545532e-03,-6.565753370523452759e-03,2.935281954705715179e-02,5.481017380952835083e-02,4.153726622462272644e-02,4.063744470477104187e-02,3.414882719516754150e-02,2.058517001569271088e-02,3.110619820654392242e-02,4.019962623715400696e-02,2.621651813387870789e-02,5.519108474254608154e-02,3.414378687739372253e-02,2.963015809655189514e-02,-1.378929242491722107e-03,3.018670715391635895e-02,9.649022668600082397e-02,2.494342997670173645e-02,4.022782295942306519e-02,3.591463342308998108e-02,8.184978365898132324e-02,3.159150481224060059e-02,2.444042824208736420e-02,7.955985516309738159e-02,1.623830944299697876e-02,3.819359838962554932e-02,3.628492727875709534e-02,3.069914318621158600e-02,6.908413767814636230e-02,3.883474320173263550e-02,4.004570841789245605e-02,7.350705564022064209e-02,2.906787395477294922e-02,7.673007994890213013e-02,9.146878123283386230e-02,5.757306516170501709e-02,6.209605559706687927e-02,4.228875041007995605e-03,4.344704374670982361e-02,7.285211980342864990e-02,6.883010268211364746e-02,5.380859971046447754e-02,9.218206629157066345e-03,5.193884670734405518e-02,4.286405816674232483e-02,7.429736852645874023e-02,3.689179942011833191e-02,3.732650727033615112e-02,4.321499168872833252e-02,3.113827109336853027e-02,1.945553533732891083e-02,6.033455580472946167e-02,3.692878782749176025e-02,5.290749669075012207e-02,3.263428434729576111e-02,4.427380114793777466e-02,6.380889564752578735e-02,-6.265365518629550934e-03,3.586566448211669922e-02,2.888998761773109436e-02,4.164681211113929749e-02,7.123064249753952026e-02,2.909108996391296387e-02,7.116524875164031982e-02,-6.113667786121368408e-02,5.822751671075820923e-02,4.181128367781639099e-02,3.328251466155052185e-02,3.165843710303306580e-02,7.709403336048126221e-02,2.771933749318122864e-02,7.520178705453872681e-02,3.556403890252113342e-02,1.463336497545242310e-02,9.097842872142791748e-02,3.771219030022621155e-02,3.233174607157707214e-02,4.035907238721847534e-02,3.386989235877990723e-02,3.361503407359123230e-02,2.601936459541320801e-02,7.576604187488555908e-02,4.159549996256828308e-02,-6.429930776357650757e-02,3.135202080011367798e-02,2.468964643776416779e-02,7.137501984834671021e-02,4.512352123856544495e-02,1.879863254725933075e-02,3.053862787783145905e-02,6.462755799293518066e-02,6.151799857616424561e-02,6.501265615224838257e-02,3.619996085762977600e-02,4.791853949427604675e-02,6.677246838808059692e-02,8.198665454983711243e-03,6.742387264966964722e-02,3.594580292701721191e-02,3.896896168589591980e-02,8.810424804687500000e-02,8.716141432523727417e-02,3.970248624682426453e-02,3.406617790460586548e-02,1.668447256088256836e-02,7.805894315242767334e-02,3.522334992885589600e-02,4.462733119726181030e-02,2.308078855276107788e-02,3.375876694917678833e-02,3.184577822685241699e-02,3.358748182654380798e-02,3.437542170286178589e-02,3.638930618762969971e-02,7.202958315610885620e-02,3.538067638874053955e-02,6.058538332581520081e-02,7.087787985801696777e-02,3.392886370420455933e-02,3.152937814593315125e-02,7.212727516889572144e-02,-3.622970357537269592e-02,1.526284776628017426e-02,4.274683445692062378e-02,5.030672065913677216e-03,-3.616730682551860809e-03,3.196883574128150940e-02,5.081262439489364624e-02,3.450473770499229431e-02,5.077993124723434448e-02,9.902010858058929443e-02,4.684723541140556335e-02,3.353748843073844910e-02,5.502886325120925903e-02,4.073905572295188904e-02,5.251899361610412598e-02,2.932720817625522614e-02,7.927677780389785767e-02,7.159333676099777222e-02,6.395015120506286621e-02,3.409503400325775146e-02,3.275129944086074829e-02,7.986366748809814453e-02,3.201351314783096313e-02,6.706362962722778320e-02,5.723723769187927246e-02,2.910975366830825806e-02,2.544601447880268097e-02,8.554843068122863770e-02,-3.740733489394187927e-03,3.469282016158103943e-02,8.831406012177467346e-03,3.056777641177177429e-02,2.928770333528518677e-02,5.800048261880874634e-02,7.572855055332183838e-02,3.256634995341300964e-02,4.702627658843994141e-02,2.881078422069549561e-02,2.373605594038963318e-02,4.471729323267936707e-02,3.755469247698783875e-02,4.139761626720428467e-02,9.390062093734741211e-02,3.447241708636283875e-02,1.145120896399021149e-02,-1.757284812629222870e-02,3.794240579009056091e-02,2.160851284861564636e-02,4.397969320416450500e-02,5.568508058786392212e-04,3.813776001334190369e-02,-9.377596527338027954e-02,-3.369588404893875122e-03,2.308744750916957855e-02,3.558421507477760315e-02,3.552881628274917603e-02,5.506977066397666931e-02,8.257119357585906982e-02,1.241142489016056061e-02,1.331610977649688721e-02,7.545515894889831543e-02,5.524726957082748413e-02,3.532522171735763550e-02,7.771873474121093750e-02,3.876794502139091492e-02,6.161203235387802124e-02,1.975494250655174255e-02,3.890049457550048828e-02,8.221838623285293579e-02,5.125363916158676147e-02,3.939659893512725830e-02,9.200997650623321533e-02,4.444415494799613953e-02,4.340546205639839172e-02,4.603730514645576477e-02,6.813259422779083252e-02,5.177197605371475220e-02,3.261265158653259277e-02,6.744112074375152588e-02,4.435778036713600159e-02,2.494295313954353333e-02,7.018447667360305786e-02,1.315987575799226761e-02,4.870377480983734131e-02,5.549409985542297363e-02,3.984818980097770691e-02,4.117629677057266235e-02,-1.855137385427951813e-02,3.690041974186897278e-02,2.011225745081901550e-02,5.164781212806701660e-02,3.476940095424652100e-02,3.287434205412864685e-02,4.675395786762237549e-02,3.785830363631248474e-02,4.352029785513877869e-02,4.821715503931045532e-02,9.954809397459030151e-02,6.388270854949951172e-02,4.319092631340026855e-02,3.889337554574012756e-02,3.550459444522857666e-02,3.237771987915039062e-02,1.255692541599273682e-01,6.192794442176818848e-02,1.836103759706020355e-02,4.737855866551399231e-02,5.162528902292251587e-02,4.525825381278991699e-02,5.179617553949356079e-02,3.495819494128227234e-02,3.950602933764457703e-02,1.505764201283454895e-02,3.461483865976333618e-04,3.429347649216651917e-02,3.087174333631992340e-02,6.662933528423309326e-02,7.734756171703338623e-02,3.682233393192291260e-02,4.100595787167549133e-02,7.489756494760513306e-02,3.188041597604751587e-02,5.411720648407936096e-02,4.157962277531623840e-02,7.312808930873870850e-02,2.978500723838806152e-02,3.251299634575843811e-02,4.017361626029014587e-02,7.686451077461242676e-02,7.113883644342422485e-02,3.402065858244895935e-02,3.433818742632865906e-02,1.150269061326980591e-02,5.568772554397583008e-02,4.613335430622100830e-02,3.633237257599830627e-02,2.166351303458213806e-03,2.181003242731094360e-02,6.939037889242172241e-02,4.029335826635360718e-02,4.273131489753723145e-03,5.900194495916366577e-02,3.983508795499801636e-02,6.720452755689620972e-02,5.155369266867637634e-02,3.217632323503494263e-02,3.904417902231216431e-02,4.527075588703155518e-02,2.973321825265884399e-02,4.085899889469146729e-02,3.923258185386657715e-02,2.282983437180519104e-02,4.088390246033668518e-02,3.712898865342140198e-02,-8.138036355376243591e-03,2.625609375536441803e-02,2.977770008146762848e-02,-8.530052378773689270e-03,4.194144904613494873e-02,2.325924485921859741e-02,5.487322062253952026e-02,7.040903717279434204e-02,1.290825661271810532e-02,5.760496482253074646e-03,3.924040123820304871e-02,5.588562414050102234e-02,4.927945137023925781e-02,2.794759720563888550e-02,4.080048203468322754e-02,9.245996922254562378e-02,3.507639467716217041e-02,3.864596039056777954e-02,-5.571708083152770996e-03,4.695132002234458923e-02,3.604464977979660034e-02,1.061613857746124268e-01,3.429328277707099915e-02,4.750470072031021118e-02,3.267588838934898376e-02,5.405466258525848389e-02,4.295663163065910339e-02,3.327848389744758606e-02,2.422335557639598846e-03,3.826880827546119690e-02,5.138796567916870117e-02,4.205268993973731995e-02,4.588629305362701416e-02,4.101607948541641235e-02,4.353587701916694641e-02,5.024797469377517700e-02,6.359105557203292847e-02,7.904821634292602539e-02,1.510396413505077362e-02,3.293298184871673584e-02,-3.598305396735668182e-03,5.337879061698913574e-02,1.070071682333946228e-01,3.039621561765670776e-02,4.517436400055885315e-02,-3.814419731497764587e-03,2.791815809905529022e-02,5.900573730468750000e-02,3.191831707954406738e-02,1.860720291733741760e-02,6.284222006797790527e-02,3.453116491436958313e-02,3.240215778350830078e-02,5.507484823465347290e-02,7.190580479800701141e-03,2.922251448035240173e-02,2.136769890785217285e-02,2.243609726428985596e-02,4.523574933409690857e-02,4.892052710056304932e-02,3.895894065499305725e-02,4.912873730063438416e-02,1.501874253153800964e-02,4.536634683609008789e-02,1.097959745675325394e-02,7.129272818565368652e-02,2.525442093610763550e-02,3.189124166965484619e-02,2.603779733180999756e-02,3.278318047523498535e-02,7.353053987026214600e-02,3.950321674346923828e-02,3.012524545192718506e-02,3.093352727591991425e-02,8.556842803955078125e-02,9.473347663879394531e-02,5.936383828520774841e-02,9.103851020336151123e-02,7.606493309140205383e-03,5.247947573661804199e-02,-1.177627220749855042e-02,3.475839272141456604e-02,7.263124734163284302e-02,3.351473063230514526e-02,4.357018321752548218e-02,3.789905458688735962e-02,3.842540830373764038e-02,3.679203242063522339e-02,4.404877498745918274e-02,3.070263937115669250e-02,3.644427657127380371e-02,5.251760780811309814e-02,3.053690493106842041e-02,7.546886801719665527e-02,7.594355940818786621e-02,3.388214111328125000e-02,5.106603726744651794e-02,3.438599407672882080e-02,9.850233048200607300e-02,7.780084013938903809e-02,7.678672671318054199e-02,2.349708601832389832e-02,2.882222086191177368e-02,3.864026814699172974e-02,8.715485781431198120e-02,7.961793988943099976e-02,4.291742295026779175e-02,4.271826148033142090e-02,-1.081655919551849365e-02,3.638273850083351135e-02,4.919729754328727722e-02,7.762104272842407227e-02,3.662934154272079468e-02,7.727301120758056641e-02,-9.525138884782791138e-04,7.135904580354690552e-02,3.763686865568161011e-02,5.395275354385375977e-02,3.213597461581230164e-02,3.779026865959167480e-02,3.321582078933715820e-02,3.747004270553588867e-02,3.559551760554313660e-02,4.352194070816040039e-02,3.270196169614791870e-02,5.748356133699417114e-02,5.336720496416091919e-03,3.967633098363876343e-02,4.254069179296493530e-02,3.259352967143058777e-02,4.277816787362098694e-02,6.359174102544784546e-02,3.747836872935295105e-02,3.427636250853538513e-02,9.587723016738891602e-02,3.429181501269340515e-02,8.905754983425140381e-02,5.006272345781326294e-02,4.566699638962745667e-02,3.164555504918098450e-02,3.314377367496490479e-02,5.673552304506301880e-02,4.261821508407592773e-02,7.550246268510818481e-02,4.816431552171707153e-02,2.676010318100452423e-02,5.563348159193992615e-02,3.067541494965553284e-02,4.006288945674896240e-02,3.514771908521652222e-02,1.058997958898544312e-01,1.400494948029518127e-02,9.107647836208343506e-02,4.072203859686851501e-02,5.477074161171913147e-02,4.531520977616310120e-02,-4.030738025903701782e-03,4.906350001692771912e-02,6.115259975194931030e-02,9.022076427936553955e-02,6.592843681573867798e-02,3.523593023419380188e-02,4.363229125738143921e-02,8.520001173019409180e-02,3.950064629316329956e-02,3.824945911765098572e-02,1.631519198417663574e-02,-1.262617111206054688e-02,2.765912003815174103e-02,8.140544593334197998e-02,6.342257559299468994e-02,4.677386581897735596e-02,2.066594734787940979e-02,2.773237228393554688e-02,3.980272263288497925e-02,5.852106213569641113e-02,7.282690145075321198e-03,5.836285278201103210e-02,6.981039047241210938e-02,-1.383602805435657501e-02,3.637691959738731384e-02,1.283200737088918686e-02,6.355735659599304199e-02,5.258320271968841553e-02,5.251447111368179321e-02,7.722557336091995239e-02,7.453221827745437622e-02,3.829418867826461792e-02,3.791078925132751465e-02,3.163472190499305725e-02,5.571864545345306396e-02,3.651817142963409424e-02,3.309860080480575562e-02,1.107806786894798279e-01,4.436079040169715881e-02,3.024574741721153259e-02,3.627814725041389465e-02,3.229182958602905273e-02,3.692803531885147095e-02,4.117613285779953003e-02,6.040380522608757019e-02,3.745698556303977966e-02,9.708899259567260742e-02,3.531906381249427795e-02,4.965790733695030212e-02,6.023635342717170715e-02,-1.073212921619415283e-02,5.986505746841430664e-02,1.789737120270729065e-02,3.640105947852134705e-03,3.115011751651763916e-02,3.651464357972145081e-02,7.593514397740364075e-03,3.847728669643402100e-02,4.834745824337005615e-02,4.492774978280067444e-02,3.265178948640823364e-02,2.410060167312622070e-02,6.121917441487312317e-02,4.709524288773536682e-02,3.256402164697647095e-02,4.381696134805679321e-02,-1.096999831497669220e-02,3.544221818447113037e-02,6.792185455560684204e-02,-7.554337382316589355e-03,3.948269411921501160e-02,3.722344711422920227e-02,7.864352315664291382e-03,6.115917116403579712e-02,4.176218062639236450e-02,1.437160186469554901e-02,8.661070466041564941e-02,7.739125937223434448e-02,3.376210108399391174e-02,8.617968857288360596e-02,2.981968037784099579e-02,4.593241587281227112e-02,2.689979970455169678e-02,3.040108643472194672e-02,4.170751199126243591e-02,9.105039387941360474e-02,3.613131120800971985e-02,6.178881973028182983e-02,2.988767437636852264e-02,-1.841283403337001801e-03,8.498946577310562134e-02,-5.392991006374359131e-03,3.011423163115978241e-02,5.931054800748825073e-02,3.901753947138786316e-02,3.145002946257591248e-02,4.857996851205825806e-02,2.247796207666397095e-02,3.295968845486640930e-02,5.959633737802505493e-02,3.959465026855468750e-02,3.131979331374168396e-02,8.628163486719131470e-04,-2.137001976370811462e-02,3.096959367394447327e-02,3.801263868808746338e-02,3.197254240512847900e-02,4.136496782302856445e-02,2.986715547740459442e-02,-1.075884234160184860e-02,3.575616702437400818e-02,7.039363682270050049e-02
3.809504583477973938e-02,4.341691359877586365e-02,4.108483344316482544e-02,4.375221580266952515e-02,4.220982640981674194e-02,7.147312164306640625e-02,6.502829492092132568e-02,6.044992431998252869e-02,3.557727858424186707e-02,5.526443943381309509e-02,5.814262852072715759e-02,4.276353865861892700e-02,5.052811652421951294e-02,4.505093395709991455e-02,3.930166736245155334e-02,5.991734191775321960e-02,2.433783374726772308e-02,9.147372841835021973e-02,2.616507560014724731e-02,4.471365362405776978e-02,4.357662424445152283e-02,5.791220068931579590e-02,2.315539680421352386e-02,4.447393864393234253e-02,5.307568237185478210e-02,3.750912100076675415e-02,6.346386671066284180e-02,5.842205882072448730e-02,6.246987730264663696e-02,4.845856130123138428e-02,6.077352538704872131e-02,4.012656584382057190e-02,6.017809733748435974e-02,5.044611543416976929e-02,7.387473434209823608e-02,4.871267080307006836e-02,5.119565501809120178e-02,3.161506354808807373e-02,5.160716921091079712e-02,3.446976095438003540e-02,3.773179277777671814e-02,4.196276515722274780e-02,4.203260317444801331e-02,3.985588252544403076e-02,4.694503918290138245e-02,5.296902358531951904e-02,6.963057816028594971e-02,8.468899130821228027e-02,4.328389093279838562e-02,4.406791552901268005e-02,4.197804257273674011e-02,8.372169733047485352e-02,3.833060339093208313e-02,3.788702934980392456e-02,4.051483795046806335e-02,6.552924215793609619e-02,3.173930943012237549e-02,5.524436756968498230e-02,4.036202281713485718e-02,4.554534330964088440e-02,5.527833849191665649e-02,5.382974818348884583e-02,4.068864136934280396e-02,7.998405396938323975e-02,6.078483909368515015e-02,4.013000056147575378e-02,3.777441754937171936e-02,4.921592772006988525e-02,3.292856737971305847e-02,5.248778685927391052e-02,4.549153521656990051e-02,3.672734275460243225e-02,6.051382794976234436e-02,7.326374948024749756e-02,6.205360218882560730e-02,4.426033049821853638e-02,4.462271928787231445e-02,4.319366440176963806e-02,4.869108274579048157e-02,8.316227793693542480e-02,4.348145425319671631e-02,3.701537102460861206e-02,4.144244641065597534e-02,4.341065883636474609e-02,4.247126728296279907e-02,4.795518517494201660e-02,5.158891528844833374e-02,4.168473184108734131e-02,6.469891220331192017e-02,4.405817389488220215e-02,4.136176407337188721e-02,5.317067727446556091e-02,4.881733283400535583e-02,4.188657924532890320e-02,3.889335691928863525e-02,3.676452115178108215e-02,6.241735070943832397e-02,5.429733172059059143e-02,7.467202842235565186e-02,5.644915997982025146e-02,4.191932827234268188e-02,4.826626554131507874e-02,6.411145627498626709e-02,8.087097108364105225e-02,4.636503383517265320e-02,4.975054413080215454e-02,7.323454320430755615e-02,9.868127107620239258e-02,3.823075443506240845e-02,5.964104086160659790e-02,8.579115569591522217e-02,3.781901299953460693e-02,7.315702736377716064e-02,3.823543712496757507e-02,5.200953781604766846e-02,4.574616253376007080e-02,4.351938143372535706e-02,4.755579680204391479e-02,1.015888899564743042e-01,5.053079873323440552e-02,8.110126852989196777e-02,3.509837388992309570e-02,5.153542757034301758e-02,4.974348843097686768e-02,4.637553542852401733e-02,4.310759156942367554e-02,9.942903369665145874e-02,4.139894992113113403e-02,4.508086293935775757e-02,4.912299290299415588e-02,5.545749515295028687e-02,4.424864053726196289e-02,3.194307163357734680e-02,4.398099333047866821e-02,5.340173840522766113e-02,5.655317381024360657e-02,5.086167156696319580e-02,4.399774223566055298e-02,4.346235468983650208e-02,3.846690058708190918e-02,4.519460350275039673e-02,5.280092358589172363e-02,4.253629222512245178e-02,5.577720701694488525e-02,4.424656927585601807e-02,3.794820606708526611e-02,4.816671460866928101e-02,7.546006888151168823e-02,6.968067586421966553e-02,5.193518847227096558e-02,7.022637873888015747e-02,3.694368153810501099e-02,5.758442357182502747e-02,4.264552146196365356e-02,8.242093026638031006e-02,4.981125891208648682e-02,8.549917489290237427e-02,8.092078566551208496e-02,6.016752123832702637e-02,4.010633751749992371e-02,5.711005255579948425e-02,5.134618654847145081e-02,5.258106812834739685e-02,4.066847264766693115e-02,3.928472846746444702e-02,4.864817112684249878e-02,8.596718311309814453e-02,4.679462313652038574e-02,1.183206774294376373e-02,5.947168916463851929e-02,3.759116306900978088e-02,5.977354198694229126e-02,3.248342126607894897e-02,2.527177520096302032e-02,6.276734173297882080e-02,1.099520325660705566e-01,4.568520933389663696e-02,3.851846605539321899e-02,6.970600783824920654e-02,4.197837784886360168e-02,2.161934226751327515e-02,5.544343590736389160e-02,4.474446177482604980e-02,7.710833102464675903e-02,8.246719092130661011e-02,7.424609363079071045e-02,4.948373883962631226e-02,9.968672692775726318e-02,7.004922628402709961e-02,3.179124742746353149e-02,4.369467124342918396e-02,3.913935646414756775e-02,6.903929263353347778e-02,4.487990960478782654e-02,5.295949429273605347e-02,1.764723099768161774e-02,4.776080697774887085e-02,4.360188543796539307e-02,4.055733233690261841e-02,4.414362087845802307e-02,5.267168581485748291e-02,4.534486681222915649e-02,4.784363508224487305e-02,8.840337395668029785e-02,4.536135867238044739e-02,3.686043992638587952e-02,9.702564775943756104e-02,5.218458175659179688e-02,5.203509330749511719e-02,4.585814103484153748e-02,4.029406234622001648e-02,3.818112239241600037e-02,4.690451547503471375e-02,3.416713699698448181e-02,4.359690472483634949e-02,4.371126368641853333e-02,3.390451148152351379e-02,4.469874501228332520e-02,3.867011517286300659e-02,5.017938837409019470e-02,8.443345874547958374e-02,4.515207186341285706e-02,5.574819445610046387e-02,2.940699085593223572e-02,6.281133741140365601e-02,5.669254064559936523e-02,6.723975390195846558e-02,7.953107357025146484e-02,8.618320524692535400e-02,9.506776928901672363e-02,5.005150660872459412e-02,3.802589327096939087e-02,5.925429984927177429e-02,4.952360317111015320e-02,4.472742974758148193e-02,3.195488825440406799e-02,5.380720645189285278e-02,3.654742613434791565e-02,3.616730868816375732e-02,3.643315657973289490e-02,3.411719575524330139e-02,4.362578317523002625e-02,6.719416379928588867e-02,4.841542616486549377e-02,7.103896886110305786e-02,2.330336719751358032e-02,8.040799200534820557e-02,6.653615832328796387e-02,4.230633378028869629e-02,5.688050016760826111e-02,7.271680235862731934e-02,1.018680855631828308e-01,-2.939832024276256561e-02,5.812260881066322327e-02,3.479444235563278198e-02,4.331087693572044373e-02,4.474066942930221558e-02,4.408556595444679260e-02,8.779108524322509766e-02,4.149301350116729736e-02,3.950788080692291260e-02,3.111849166452884674e-02,5.159285664558410645e-02,4.083786904811859131e-02,2.449204400181770325e-02,5.189875513315200806e-02,5.113518983125686646e-02,4.407509788870811462e-02,6.001698970794677734e-02,4.224034398794174194e-02,4.189585149288177490e-02,7.869485020637512207e-02,4.990093037486076355e-02,4.783428460359573364e-02,4.403823614120483398e-02,3.239229694008827209e-02,4.586017131805419922e-02,4.963672161102294922e-02,4.130496084690093994e-02,4.676937311887741089e-02,4.726572334766387939e-02,6.743036210536956787e-02,3.690060973167419434e-02,2.102079242467880249e-02,4.355028271675109863e-02,4.056678339838981628e-02,4.200743138790130615e-02,6.721951812505722046e-02,4.918618872761726379e-02,3.956738859415054321e-02,9.012006223201751709e-02,4.135200381278991699e-02,5.792215466499328613e-02,5.406976491212844849e-02,4.081874713301658630e-02,5.701440945267677307e-02,1.068169325590133667e-01,3.624673187732696533e-02,6.394684314727783203e-02,5.285248905420303345e-02,4.419448226690292358e-02,4.514979943633079529e-02,6.301290541887283325e-02,5.358653515577316284e-02,4.463391005992889404e-02,6.559856235980987549e-02,7.251721620559692383e-02,3.831142187118530273e-02,7.871782034635543823e-02,6.817302107810974121e-02,4.413967579603195190e-02,5.855996906757354736e-02,4.495996609330177307e-02,5.666401982307434082e-02,4.193982854485511780e-02,4.983062297105789185e-02,3.374597057700157166e-02,4.464978724718093872e-02,4.984981194138526917e-02,5.612564831972122192e-02,6.144706159830093384e-02,3.949572890996932983e-02,1.791910268366336823e-02,4.000036418437957764e-02,4.541833698749542236e-02,5.806025117635726929e-02,5.086415261030197144e-02,4.204222559928894043e-02,5.347089096903800964e-02,4.878978431224822998e-02,4.907540977001190186e-02,5.382850021123886108e-02,3.401724249124526978e-02,3.768561035394668579e-02,6.346690654754638672e-02,3.627621382474899292e-02,8.951397240161895752e-02,2.636313065886497498e-02,4.768934845924377441e-02,4.401396587491035461e-02,4.898704588413238525e-02,6.139701977372169495e-02,4.072722047567367554e-02,4.161921516060829163e-02,4.196368157863616943e-02,5.143645033240318298e-02,4.752201214432716370e-02,7.178922742605209351e-02,4.079517349600791931e-02,5.649150535464286804e-02,8.394079655408859253e-02,3.313976898789405823e-02,4.870663955807685852e-02,7.764320820569992065e-02,3.478442132472991943e-02,3.924846276640892029e-02,4.081469774246215820e-02,3.801472485065460205e-02,8.141039311885833740e-02,4.267155379056930542e-02,6.212131679058074951e-02,8.117453008890151978e-02,8.856108784675598145e-02,3.890140727162361145e-02,4.131412878632545471e-02,6.433624029159545898e-02,3.621473908424377441e-02,4.639618843793869019e-02,3.533533215522766113e-02,4.399102553725242615e-02,7.556495070457458496e-02,3.999203443527221680e-02,4.251001402735710144e-02,6.097529456019401550e-02,7.581782341003417969e-02,5.082585662603378296e-02,9.012845158576965332e-02,3.635628148913383484e-02,3.827829286456108093e-02,5.006337910890579224e-02,5.758851394057273865e-02,6.125476956367492676e-02,8.322926610708236694e-02,4.762853682041168213e-02,5.720734596252441406e-02,4.408874362707138062e-02,5.034609884023666382e-02,3.551145270466804504e-02,9.469627588987350464e-02,4.463228955864906311e-02,4.177767783403396606e-02,4.059651494026184082e-02,4.355656728148460388e-02,3.265509754419326782e-02,3.684438765048980713e-02,4.188251867890357971e-02,5.177851021289825439e-02,5.591218918561935425e-02,3.315075486898422241e-02,3.856443613767623901e-02,5.240161716938018799e-02,4.840406030416488647e-02,4.072487354278564453e-02,5.504244565963745117e-02,5.161687731742858887e-02,7.061582058668136597e-02,3.008701279759407043e-02,3.256722167134284973e-02,4.236651584506034851e-02,4.714747890830039978e-02,4.490823298692703247e-02,4.420365765690803528e-02,4.454683512449264526e-02,8.313596248626708984e-02,4.128455743193626404e-02,3.939887881278991699e-02,3.954441100358963013e-02,5.163138732314109802e-02,6.838733702898025513e-02,3.717179223895072937e-02,4.934175685048103333e-02,7.884541898965835571e-02,6.120119616389274597e-02,4.065331071615219116e-02,3.903597220778465271e-02,5.259400606155395508e-02,4.224658384919166565e-02,4.618272930383682251e-02,2.928518503904342651e-02,5.225984379649162292e-02,4.622310400009155273e-02,5.273058265447616577e-02,4.930523782968521118e-02,5.274989083409309387e-02,3.255351632833480835e-02,4.299376904964447021e-02,8.542936295270919800e-02,5.762933939695358276e-02,4.292712360620498657e-02,4.996939003467559814e-02,3.674333915114402771e-02,5.430105328559875488e-02,9.614127874374389648e-02,5.787614732980728149e-02,3.646259009838104248e-02,3.714007139205932617e-02,3.899697959423065186e-02,3.659415245056152344e-02,9.031238406896591187e-02,6.943847984075546265e-02,6.406189501285552979e-02,5.608161911368370056e-02,4.610534384846687317e-02,3.824820742011070251e-02,4.641299322247505188e-02,5.496977269649505615e-02,3.990533947944641113e-02,3.641659766435623169e-02,3.286666050553321838e-02,3.364809975028038025e-02,4.582381248474121094e-02,1.877323910593986511e-02,5.370987951755523682e-02,4.016634821891784668e-02,4.924400150775909424e-02,4.238592088222503662e-02,5.035898089408874512e-02,3.170467913150787354e-02,4.733818769454956055e-02,3.905642032623291016e-02,4.645599424839019775e-02,4.521442949771881104e-02,4.294663667678833008e-02,9.239491820335388184e-02,3.633025288581848145e-02,4.991205036640167236e-02,4.174425080418586731e-02,5.790709331631660461e-02,4.038766771554946899e-02,4.101358354091644287e-02,8.456480503082275391e-02,3.766027092933654785e-02,1.809218712151050568e-02,4.249253869056701660e-02,5.125200003385543823e-02,7.637079060077667236e-02,4.546335712075233459e-02,4.150845110416412354e-02,7.484859228134155273e-02,3.564976155757904053e-02,5.101001262664794922e-02,9.541831910610198975e-02,6.869482994079589844e-02,5.348052456974983215e-02,4.205660521984100342e-02,5.820762366056442261e-02,5.316163599491119385e-02,6.140972673892974854e-02,6.641981005668640137e-02,5.260387063026428223e-02,4.193716868758201599e-02,5.037185922265052795e-02,4.974545165896415710e-02,4.075369238853454590e-02,4.331603273749351501e-02,4.321975260972976685e-02,3.885864466428756714e-02,3.465418890118598938e-02,6.798324733972549438e-02,4.143077880144119263e-02,5.948445573449134827e-02,5.301573500037193298e-02,3.795661777257919312e-02,7.249769568443298340e-02,3.271064534783363342e-02,4.268889129161834717e-02,4.243275523185729980e-02,5.105981975793838501e-02,7.516562938690185547e-02,4.186222329735755920e-02,4.911269992589950562e-02,-6.707127392292022705e-02,5.659965425729751587e-02,4.244956001639366150e-02,4.289972409605979919e-02,5.038384348154067993e-02,8.036263287067413330e-02,3.330700099468231201e-02,8.216549456119537354e-02,6.010975688695907593e-02,4.019414633512496948e-02,9.626446664333343506e-02,4.206993430852890015e-02,4.775265604257583618e-02,4.627498984336853027e-02,3.999841213226318359e-02,3.807573020458221436e-02,3.867502883076667786e-02,4.906941950321197510e-02,6.451587378978729248e-02,-1.939771696925163269e-02,3.488528355956077576e-02,5.237419158220291138e-02,7.823248207569122314e-02,5.471660569310188293e-02,3.305052220821380615e-02,4.360419884324073792e-02,5.047811195254325867e-02,4.548489674925804138e-02,7.492493093013763428e-02,4.519162327051162720e-02,4.824862256646156311e-02,4.842089861631393433e-02,4.108088463544845581e-02,7.139890640974044800e-02,4.269917309284210205e-02,6.321329623460769653e-02,6.442773342132568359e-02,8.569819480180740356e-02,4.955913871526718140e-02,3.886445611715316772e-02,4.007979482412338257e-02,8.191666752099990845e-02,6.543810665607452393e-02,3.256336227059364319e-02,5.371487140655517578e-02,3.894937410950660706e-02,4.794885963201522827e-02,4.034288600087165833e-02,4.631754383444786072e-02,4.154447466135025024e-02,7.514059543609619141e-02,5.935127660632133484e-02,6.725975871086120605e-02,7.922127842903137207e-02,4.467325657606124878e-02,3.777014464139938354e-02,7.543418556451797485e-02,2.887573465704917908e-02,3.118700720369815826e-02,5.593496561050415039e-02,3.917209804058074951e-02,3.276222944259643555e-02,4.922771453857421875e-02,5.436582863330841064e-02,4.847683385014533997e-02,5.904962494969367981e-02,7.797382771968841553e-02,7.694628834724426270e-02,4.979851096868515015e-02,4.607383906841278076e-02,4.995418712496757507e-02,3.702088445425033569e-02,4.141561686992645264e-02,8.636030554771423340e-02,7.880184799432754517e-02,5.263726413249969482e-02,4.875967651605606079e-02,4.043957218527793884e-02,4.667076468467712402e-02,4.196715354919433594e-02,4.770809039473533630e-02,6.962316483259201050e-02,4.601069539785385132e-02,4.279147088527679443e-02,6.488481163978576660e-02,3.261319547891616821e-02,5.151464790105819702e-02,3.377659618854522705e-02,3.596168011426925659e-02,4.071370512247085571e-02,4.730572551488876343e-02,8.031490445137023926e-02,3.945210576057434082e-02,4.510526359081268311e-02,5.108078196644783020e-02,5.230206251144409180e-02,5.182205885648727417e-02,4.530895501375198364e-02,4.499217867851257324e-02,9.413640201091766357e-02,4.231690987944602966e-02,4.906731843948364258e-02,2.227505110204219818e-02,4.170802608132362366e-02,4.164993762969970703e-02,6.739355623722076416e-02,3.966944664716720581e-02,4.003617540001869202e-02,-2.674072235822677612e-02,3.908623754978179932e-02,4.377610236406326294e-02,4.267066717147827148e-02,4.502073302865028381e-02,7.231698185205459595e-02,8.148817718029022217e-02,4.295744746923446655e-02,4.112531989812850952e-02,5.671617761254310608e-02,3.378803655505180359e-02,4.721356928348541260e-02,6.365521252155303955e-02,5.615745484828948975e-02,4.733600839972496033e-02,4.036305099725723267e-02,1.887550950050354004e-02,6.108348444104194641e-02,5.925179272890090942e-02,4.581677168607711792e-02,7.199515402317047119e-02,5.411218851804733276e-02,3.501457720994949341e-02,4.601974040269851685e-02,4.945176094770431519e-02,3.581284731626510620e-02,6.259141862392425537e-02,7.154577970504760742e-02,4.340080544352531433e-02,3.445052728056907654e-02,7.253092527389526367e-02,3.277779370546340942e-02,5.601788684725761414e-02,4.570182785391807556e-02,4.534475505352020264e-02,4.480869323015213013e-02,2.218432910740375519e-02,6.399018317461013794e-02,3.477515652775764465e-02,5.762407183647155762e-02,4.341824725270271301e-02,5.431153625249862671e-02,5.378263443708419800e-02,6.655870378017425537e-02,3.763873130083084106e-02,4.272791743278503418e-02,9.658503532409667969e-02,7.683368772268295288e-02,4.903335496783256531e-02,7.022898644208908081e-02,4.852126538753509521e-02,4.002508148550987244e-02,1.082868427038192749e-01,3.474327921867370605e-02,3.430164232850074768e-02,5.023242905735969543e-02,4.303755238652229309e-02,6.004880368709564209e-02,3.992241621017456055e-02,4.520014300942420959e-02,4.594677314162254333e-02,3.583134710788726807e-02,4.286071658134460449e-02,4.008821398019790649e-02,3.825126588344573975e-02,4.907946288585662842e-02,5.164354294538497925e-02,4.160314425826072693e-02,4.802942276000976562e-02,4.680466651916503906e-02,4.865710437297821045e-02,4.150447621941566467e-02,5.928830802440643311e-02,4.948487877845764160e-02,3.811406344175338745e-02,3.906679898500442505e-02,4.784779250621795654e-02,7.697970420122146606e-02,7.654235512018203735e-02,4.117422550916671753e-02,4.055137932300567627e-02,3.662671148777008057e-02,6.074933707714080811e-02,4.729846864938735962e-02,4.602029174566268921e-02,3.899482637643814087e-02,3.635387495160102844e-02,7.507367432117462158e-02,6.610947102308273315e-02,3.968853503465652466e-02,4.463445022702217102e-02,5.092405155301094055e-02,4.204143583774566650e-02,5.156969651579856873e-02,4.508755728602409363e-02,5.117528140544891357e-02,5.786063894629478455e-02,4.693004488945007324e-02,4.234857857227325439e-02,4.807092249393463135e-02,3.606683760881423950e-02,6.188043579459190369e-02,4.267004132270812988e-02,3.172221034765243530e-02,3.720264881849288940e-02,3.633350133895874023e-02,2.353598177433013916e-02,6.878082454204559326e-02,3.682182356715202332e-02,4.823775216937065125e-02,4.910673201084136963e-02,3.792241960763931274e-02,4.473280161619186401e-02,4.616385698318481445e-02,4.345046356320381165e-02,6.676795333623886108e-02,4.335728287696838379e-02,5.130138993263244629e-02,6.502451002597808838e-02,4.497703537344932556e-02,3.559589385986328125e-02,3.646427392959594727e-02,5.938384681940078735e-02,4.670490324497222900e-02,1.004422158002853394e-01,5.777505785226821899e-02,5.758750438690185547e-02,3.902253136038780212e-02,6.111616268754005432e-02,4.937413707375526428e-02,5.870591104030609131e-02,4.093354567885398865e-02,4.284470155835151672e-02,4.910271987318992615e-02,6.107340008020401001e-02,4.037448763847351074e-02,4.628936573863029480e-02,5.485567450523376465e-02,5.791313946247100830e-02,5.333916470408439636e-02,7.911843806505203247e-02,3.838302195072174072e-02,3.744194656610488892e-02,3.751846402883529663e-02,5.382990092039108276e-02,1.040558516979217529e-01,4.079286009073257446e-02,5.777335539460182190e-02,3.581989929080009460e-02,3.833440691232681274e-02,6.434024125337600708e-02,4.518318921327590942e-02,3.921028971672058105e-02,7.122402638196945190e-02,3.885587304830551147e-02,4.402245208621025085e-02,5.737841129302978516e-02,4.335833340883255005e-02,4.087287187576293945e-02,4.386127367615699768e-02,4.490814357995986938e-02,4.926386475563049316e-02,4.059717804193496704e-02,4.771716520190238953e-02,5.051770806312561035e-02,3.208208084106445312e-02,4.129185900092124939e-02,3.746439516544342041e-02,5.176807940006256104e-02,3.825538605451583862e-02,3.846677392721176147e-02,3.371884673833847046e-02,3.796975314617156982e-02,7.904383540153503418e-02,5.861575528979301453e-02,4.382474347949028015e-02,3.537420183420181274e-02,9.214594960212707520e-02,9.478540718555450439e-02,5.743580311536788940e-02,8.652311563491821289e-02,4.623601958155632019e-02,4.713726043701171875e-02,2.059311978518962860e-02,4.007242619991302490e-02,6.062633916735649109e-02,4.868470877408981323e-02,5.761844292283058167e-02,4.443839192390441895e-02,5.115208029747009277e-02,4.264835640788078308e-02,5.280819907784461975e-02,4.140924662351608276e-02,6.451451778411865234e-02,5.839087441563606262e-02,5.198934674263000488e-02,6.589294224977493286e-02,8.071592450141906738e-02,4.198459163308143616e-02,4.636067897081375122e-02,5.941680073738098145e-02,5.191870033740997314e-02,7.786250114440917969e-02,7.491132616996765137e-02,5.845478549599647522e-02,3.785358741879463196e-02,6.490136682987213135e-02,5.994640290737152100e-02,6.823140382766723633e-02,5.500669777393341064e-02,5.003300309181213379e-02,3.926455229520797729e-02,4.165095835924148560e-02,5.220044031739234924e-02,5.676576867699623108e-02,5.707010626792907715e-02,8.393049985170364380e-02,3.915759921073913574e-02,5.549055710434913635e-02,6.273302435874938965e-02,4.767198860645294189e-02,4.556845873594284058e-02,6.206183880567550659e-02,3.465645387768745422e-02,4.352964088320732117e-02,4.106455668807029724e-02,4.817892983555793762e-02,4.485738277435302734e-02,7.023472338914871216e-02,4.014350473880767822e-02,4.577392339706420898e-02,3.994721919298171997e-02,4.171039536595344543e-02,5.198995023965835571e-02,4.788564145565032959e-02,4.581060260534286499e-02,4.122970253229141235e-02,7.931017875671386719e-02,2.496851049363613129e-02,6.769414246082305908e-02,3.701194748282432556e-02,4.153271391987800598e-02,3.667757660150527954e-02,5.897862464189529419e-02,5.171780660748481750e-02,4.368805885314941406e-02,7.843042910099029541e-02,5.705247819423675537e-02,3.470504283905029297e-02,4.086577519774436951e-02,5.339080840349197388e-02,4.041748493909835815e-02,4.570707678794860840e-02,5.707734078168869019e-02,4.032607376575469971e-02,6.339902430772781372e-02,5.356393009424209595e-02,4.323622584342956543e-02,4.822964221239089966e-02,3.959315270185470581e-02,6.580239534378051758e-02,5.227915570139884949e-02,8.722517639398574829e-02,7.400783896446228027e-02,3.521816432476043701e-02,5.454235151410102844e-02,3.920518979430198669e-02,3.948574140667915344e-02,5.397531390190124512e-02,4.097718000411987305e-02,1.531587168574333191e-02,4.667817056179046631e-02,6.264576315879821777e-02,6.695650517940521240e-02,5.548625811934471130e-02,5.024557560682296753e-02,3.618885576725006104e-02,4.693448916077613831e-02,4.919802770018577576e-02,3.192613273859024048e-02,4.686268419027328491e-02,7.024005055427551270e-02,2.519089169800281525e-02,4.832535237073898315e-02,3.944156691431999207e-02,6.979385018348693848e-02,5.949456244707107544e-02,5.844193696975708008e-02,4.806810617446899414e-02,8.402785658836364746e-02,4.378988221287727356e-02,4.047914594411849976e-02,4.041004553437232971e-02,5.055124685168266296e-02,3.974495828151702881e-02,5.347047001123428345e-02,1.018894538283348083e-01,3.945421800017356873e-02,3.740772232413291931e-02,4.435357451438903809e-02,4.498057067394256592e-02,4.478824138641357422e-02,5.364729091525077820e-02,4.196493327617645264e-02,4.913774877786636353e-02,5.287577211856842041e-02,6.621021032333374023e-02,5.403137952089309692e-02,4.803065210580825806e-02,1.858016662299633026e-02,4.809322953224182129e-02,3.927005082368850708e-02,3.313174098730087280e-02,4.286247491836547852e-02,4.268319904804229736e-02,3.688338398933410645e-02,4.977035522460937500e-02,4.803057014942169189e-02,5.189717561006546021e-02,5.057171732187271118e-02,2.090277522802352905e-02,5.245881900191307068e-02,5.303780734539031982e-02,4.183712229132652283e-02,4.866671189665794373e-02,2.070359513163566589e-02,3.980587422847747803e-02,4.995931312441825867e-02,3.402094915509223938e-02,5.946148931980133057e-02,4.490702599287033081e-02,4.892703890800476074e-02,5.584714561700820923e-02,4.700197279453277588e-02,5.540496110916137695e-02,8.666380494832992554e-02,7.973041385412216187e-02,4.817918315529823303e-02,8.027822524309158325e-02,3.396601602435112000e-02,4.811878129839897156e-02,3.855170309543609619e-02,3.831111639738082886e-02,5.038090795278549194e-02,9.102213382720947266e-02,4.999399930238723755e-02,5.136848986148834229e-02,5.707759782671928406e-02,3.796761482954025269e-02,8.876994997262954712e-02,3.268650546669960022e-02,