6.037990748882293701e-02,-2.447874471545219421e-02,-5.619578063488006592e-03,-3.838247060775756836e-02,-7.145823910832405090e-03,-7.267700508236885071e-03,3.295922651886940002e-02,-4.219996556639671326e-02,1.500814128667116165e-02,1.780041120946407318e-02,5.777474865317344666e-02,2.107939869165420532e-02,-1.420658361166715622e-02,1.955154538154602051e-02,1.274489797651767731e-02,-1.664566807448863983e-02,-8.911173790693283081e-03,3.109069541096687317e-02,3.444328904151916504e-04,-1.354981027543544769e-02,3.028803318738937378e-02,1.804582774639129639e-02,2.988241426646709442e-02,-1.182812266051769257e-02,-1.937869004905223846e-02,4.573203250765800476e-02,-1.642002351582050323e-02,-4.535388201475143433e-02,-2.658780477941036224e-02,5.121584981679916382e-03,-1.312161982059478760e-02,-1.636889390647411346e-02,-9.824179112911224365e-03,1.337564736604690552e-02,2.163037471473217010e-02,3.996124491095542908e-02,4.332084208726882935e-04,-2.103621140122413635e-02,-5.946956574916839600e-03,-1.367253065109252930e-02,1.164168789982795715e-01,-7.220335304737091064e-03,-2.553932555019855499e-02,1.394250094890594482e-01,3.285766020417213440e-02,3.000845015048980713e-02,3.111522272229194641e-02,-1.315140351653099060e-02,3.862424939870834351e-02,2.997890114784240723e-02,2.504067495465278625e-02,-2.292129211127758026e-03,2.638117596507072449e-02,5.462736636400222778e-02,-2.182387933135032654e-02,4.062597826123237610e-02,3.145067021250724792e-02,-1.311898045241832733e-02,1.890238747000694275e-02,2.426745370030403137e-02,-1.289281435310840607e-02,-5.821978673338890076e-03,-1.314550638198852539e-02,-2.239131741225719452e-02,3.460301458835601807e-02,6.349822878837585449e-02,2.084359899163246155e-02,-1.450939103960990906e-02,-2.801951020956039429e-03,-2.381948381662368774e-02,2.454034984111785889e-02,-1.116571202874183655e-02,-3.598779439926147461e-03,-2.102734334766864777e-02,2.824466116726398468e-02,1.248059421777725220e-02,2.953259088099002838e-02,1.873422972857952118e-02,9.901737794280052185e-03,-1.813480071723461151e-02,-1.158315129578113556e-02,7.837472110986709595e-02,-6.557106971740722656e-04,-1.753387972712516785e-02,2.592189237475395203e-03,2.703955397009849548e-02,-8.682548999786376953e-03,-8.587928488850593567e-03,-2.640762925148010254e-02,8.965147659182548523e-03,-2.805267088115215302e-02,-7.865745574235916138e-03,6.233916431665420532e-02,3.605764359235763550e-02,1.900553703308105469e-03,2.816604264080524445e-02,1.050997804850339890e-02,-1.013633236289024353e-02,7.369881123304367065e-02,-4.815773665904998779e-02,-1.635187491774559021e-02,-7.548224180936813354e-03,-1.490797847509384155e-02,-8.588302880525588989e-03,-9.305819869041442871e-03,-1.866885647177696228e-02,-6.612116470932960510e-03,3.639366477727890015e-04,-1.608748547732830048e-02,2.805418521165847778e-02,-6.914667785167694092e-03,2.878482080996036530e-02,6.229899823665618896e-03,-1.716026663780212402e-02,2.296451292932033539e-02,3.835615515708923340e-02,-1.400134153664112091e-02,3.844462335109710693e-04,4.605382680892944336e-02,3.747985512018203735e-02,-3.887761384248733521e-03,4.388500377535820007e-02,4.191618040204048157e-02,-2.349290996789932251e-02,-1.136648468673229218e-02,1.973054930567741394e-02,4.653511941432952881e-02,-1.531813479959964752e-02,2.594534866511821747e-02,3.154643625020980835e-02,9.053094312548637390e-03,4.434881731867790222e-02,9.817093610763549805e-03,-2.186626195907592773e-02,-3.256453573703765869e-02,-7.955959998071193695e-03,1.140203326940536499e-03,-2.752945758402347565e-02,-1.511202566325664520e-02,-1.750710606575012207e-02,5.589995533227920532e-02,-1.067917607724666595e-02,2.823757380247116089e-02,-8.813278749585151672e-03,4.305771738290786743e-02,2.486727759242057800e-02,1.144544593989849091e-02,-5.072855204343795776e-02,3.078929707407951355e-02,-2.113351039588451385e-02,-7.444350048899650574e-03,3.274330124258995056e-02,-2.345821261405944824e-02,-8.353762328624725342e-03,-2.310254611074924469e-02,-7.280655205249786377e-03,2.816140279173851013e-02,-1.635123789310455322e-02,2.979408577084541321e-02,6.672331690788269043e-02,5.577522143721580505e-02,-1.269078813493251801e-02,3.924607485532760620e-02,2.520808577537536621e-02,-8.595723658800125122e-03,-6.697397679090499878e-03,1.011197082698345184e-02,2.470318228006362915e-02,-5.441147834062576294e-03,2.234963886439800262e-02,3.001998737454414368e-02,1.956884562969207764e-02,-2.232694067060947418e-02,4.696554318070411682e-02,1.336943954229354858e-01,2.750082686543464661e-02,4.084617272019386292e-02,5.940333381295204163e-02,-6.715828552842140198e-03,6.443170830607414246e-03,6.983767449855804443e-02,-2.378879487514495850e-02,4.101999476552009583e-02,-1.032072305679321289e-02,-4.200357943773269653e-03,-2.903103828430175781e-03,3.468223288655281067e-02,2.603475935757160187e-02,-9.568279609084129333e-03,-1.027363166213035583e-02,-2.697521448135375977e-02,6.954160518944263458e-03,-2.829251438379287720e-02,2.865704894065856934e-02,4.288977757096290588e-02,2.455024980008602142e-02,3.430837392807006836e-02,3.655860200524330139e-02,2.707178145647048950e-02,2.124009467661380768e-02,2.416418865323066711e-02,-2.563692629337310791e-03,3.344432637095451355e-02,-2.088954485952854156e-02,2.610493451356887817e-02,-2.695650048553943634e-02,-1.302275806665420532e-03,-2.417930960655212402e-02,5.187120288610458374e-02,-1.219012960791587830e-02,2.654391899704933167e-02,-1.433091610670089722e-02,-1.530690304934978485e-02,2.454047650098800659e-02,1.490572933107614517e-02,3.438639640808105469e-02,-5.270462483167648315e-03,1.428205147385597229e-02,-1.461900956928730011e-02,-1.087118964642286301e-02,1.763552427291870117e-04,3.258747048676013947e-03,-9.584106504917144775e-03,3.124275617301464081e-02,-1.764538697898387909e-02,1.304726302623748779e-02,-2.720725163817405701e-02,-1.712436415255069733e-02,2.989086881279945374e-02,1.551670953631401062e-02,-1.641439273953437805e-03,-7.752627134323120117e-04,-1.054442673921585083e-02,-1.594398170709609985e-03,4.452168568968772888e-02,2.071239519864320755e-03,3.171877190470695496e-02,-2.545647695660591125e-02,-1.788882166147232056e-02,-2.264000847935676575e-02,4.615093395113945007e-02,-1.453565433621406555e-02,-2.706909924745559692e-02,6.265722960233688354e-02,7.797634601593017578e-02,9.840913116931915283e-05,-2.057252451777458191e-02,-1.399780996143817902e-02,2.649693563580513000e-02,-8.080579340457916260e-03,3.077051229774951935e-02,2.107601799070835114e-02,7.542040199041366577e-02,2.199539542198181152e-02,2.067324146628379822e-02,-2.369866520166397095e-02,1.596461981534957886e-03,-5.925867706537246704e-03,4.511291161179542542e-02,-1.672015525400638580e-02,1.023305878043174744e-01,3.056607767939567566e-02,-2.658390812575817108e-02,9.848844259977340698e-03,1.014200970530509949e-02,-1.007459685206413269e-02,5.530517920851707458e-02,2.877682074904441833e-02,2.680827677249908447e-02,-1.375429518520832062e-02,3.162451460957527161e-02,1.327477209270000458e-02,2.622742205858230591e-02,-1.559429988265037537e-02,-5.051262676715850830e-03,-2.450204268097877502e-02,-1.607877761125564575e-02,3.228508308529853821e-02,-1.052682101726531982e-02,2.254746854305267334e-02,-1.236230507493019104e-02,-5.935984849929809570e-02,-1.411793380975723267e-02,-7.413540035486221313e-03,3.235844150185585022e-02,-1.411113515496253967e-02,1.109264604747295380e-02,-7.427655160427093506e-03,-8.723214268684387207e-04,4.887418076395988464e-02,2.367733791470527649e-02,1.893581077456474304e-02,-8.672073483467102051e-03,2.471753209829330444e-02,4.461879283189773560e-02,-1.587266288697719574e-02,5.646311491727828979e-02,-1.200561039149761200e-02,-1.076783984899520874e-02,-2.368902042508125305e-02,1.645259559154510498e-02,1.106186211109161377e-02,-2.671781927347183228e-03,5.574286729097366333e-02,2.644740417599678040e-02,-6.592903286218643188e-03,3.804143145680427551e-02,3.681128472089767456e-02,-2.825783379375934601e-02,2.817605063319206238e-02,-1.131818071007728577e-02,3.163586184382438660e-02,8.933136612176895142e-02,1.846681162714958191e-02,-3.681771829724311829e-02,-9.847581386566162109e-03,-4.660155624151229858e-03,4.399212077260017395e-02,-4.191580414772033691e-02,3.757800161838531494e-02,-3.422146663069725037e-02,-7.732890546321868896e-03,4.439339041709899902e-02,9.128801524639129639e-03,5.222980678081512451e-02,-1.932552829384803772e-02,-3.291260078549385071e-02,-2.413047105073928833e-02,-2.024110406637191772e-02,-2.730254270136356354e-02,-1.160297542810440063e-02,1.656529307365417480e-02,2.786400169134140015e-02,-2.873057685792446136e-02,5.337669700384140015e-02,2.288799732923507690e-03,2.991268225014209747e-02,2.878296002745628357e-02,8.302170783281326294e-03,2.686870098114013672e-02,2.624326385557651520e-02,-7.089380174875259399e-03,3.667581453919410706e-02,2.355887740850448608e-02,-1.713588833808898926e-03,-1.092592999339103699e-02,-1.668402180075645447e-02,2.766977809369564056e-02,4.987692460417747498e-02,1.315654814243316650e-01,-1.157240755856037140e-02,2.669826894998550415e-02,-2.545290812849998474e-02,5.815551802515983582e-02,-7.419686764478683472e-03,3.265758976340293884e-02,-2.246869727969169617e-02,2.004036679863929749e-02,-1.692603714764118195e-02,-2.355707809329032898e-02,3.954725340008735657e-02,2.967016026377677917e-02,2.567938715219497681e-02,2.893008850514888763e-02,4.359700158238410950e-02,4.278774932026863098e-02,2.804050222039222717e-02,-3.152531757950782776e-02,2.078435942530632019e-02,6.968684494495391846e-02,2.844363264739513397e-02,-1.356993615627288818e-02,9.506205096840858459e-03,-2.226106822490692139e-02,-2.494146302342414856e-02,1.086225174367427826e-02,-7.530916482210159302e-03,1.303191483020782471e-01,7.026094943284988403e-02,6.938473135232925415e-02,8.364883065223693848e-02,-1.843095943331718445e-02,-1.088242232799530029e-02,1.187918111681938171e-01,-1.907281205058097839e-02,3.044206649065017700e-02,-2.281840890645980835e-02,-2.015347406268119812e-02,3.069193474948406219e-02,5.348878353834152222e-02,-2.875924110412597656e-05,2.701234072446823120e-02,3.094018995761871338e-02,-1.071832887828350067e-02,-1.923274248838424683e-03,5.024017393589019775e-02,-1.955580338835716248e-02,-1.066622324287891388e-02,7.708968594670295715e-03,-2.139380201697349548e-03,2.564879693090915680e-02,4.977830126881599426e-02,3.147741407155990601e-02,3.162652999162673950e-02,-1.134112849831581116e-02,-2.569798380136489868e-02,1.245914213359355927e-02,3.243255242705345154e-02,4.513734579086303711e-02,-2.475965209305286407e-02,1.662511378526687622e-02,2.422695979475975037e-02,7.187511771917343140e-03,-1.289360970258712769e-02,-1.087276451289653778e-02,9.576920419931411743e-03,-1.948169618844985962e-02,1.220330689102411270e-02,-1.945587433874607086e-02,-9.344883263111114502e-03,1.254555396735668182e-02,2.906638383865356445e-02,-1.419060118496417999e-02,-1.113818213343620300e-02,6.274528801441192627e-03,4.696166142821311951e-02,3.175029158592224121e-02,1.821774616837501526e-02,-8.404238149523735046e-03,2.929347939789295197e-02,7.721818983554840088e-04,3.466014564037322998e-02,-4.966910183429718018e-02,2.475515007972717285e-02,2.933320961892604828e-02,-4.754398018121719360e-03,2.862222492694854736e-02,-2.575119212269783020e-02,-2.481037564575672150e-02,-1.238054968416690826e-02,1.552499458193778992e-02,5.046491324901580811e-02,3.149265050888061523e-02,-6.666649132966995239e-03,-2.412568777799606323e-03,-5.525901913642883301e-03,1.086017787456512451e-01,-1.019301638007164001e-02,2.514377608895301819e-02,-7.161166518926620483e-03,3.978534042835235596e-02,2.754623070359230042e-02,6.966274231672286987e-03,4.456499218940734863e-02,8.986502885818481445e-03,-1.314200833439826965e-02,-5.848779156804084778e-02,-2.970376424491405487e-02,-7.247354835271835327e-03,-4.191134124994277954e-02,-1.758627593517303467e-02,3.026266582310199738e-02,2.846519649028778076e-02,-4.370605200529098511e-02,-4.796681925654411316e-03,-8.102595806121826172e-03,-1.242125779390335083e-02,-5.048193782567977905e-02,-1.438922062516212463e-02,2.192570269107818604e-02,-1.664144173264503479e-02,-2.220819331705570221e-02,-1.467180997133255005e-02,-1.529973465949296951e-02,-6.541255861520767212e-03,-1.244946755468845367e-02,3.889603540301322937e-02,-1.804288104176521301e-02,1.210189238190650940e-02,-1.641143113374710083e-02,9.550072252750396729e-03,2.863481268286705017e-02,4.248530045151710510e-02,-1.227561756968498230e-02,7.996521890163421631e-02,1.424231566488742828e-02,2.978141978383064270e-02,5.434393510222434998e-02,-1.385373622179031372e-02,2.727389708161354065e-02,-1.944163814187049866e-02,-1.086614839732646942e-02,3.633572906255722046e-02,2.434492111206054688e-02,1.118343509733676910e-02,-4.026940464973449707e-02,3.707894310355186462e-02,-1.348339393734931946e-02,-7.346477359533309937e-04,2.362651564180850983e-02,4.128124564886093140e-04,1.088386401534080505e-02,2.454417571425437927e-02,-7.776005193591117859e-03,-2.496439218521118164e-02,-1.600495353341102600e-02,-1.137998234480619431e-02,5.193155258893966675e-02,3.633895143866539001e-02,1.178785599768161774e-02,4.140380024909973145e-02,-8.362390100955963135e-03,2.716281637549400330e-02,2.720852009952068329e-02,-1.064866036176681519e-02,-1.380243524909019470e-02,1.554409973323345184e-03,-1.556473970413208008e-02,4.313779994845390320e-02,-2.152606844902038574e-03,3.125114366412162781e-02,2.219679579138755798e-02,-4.266171902418136597e-02,-4.310160875320434570e-03,-1.938566565513610840e-02,-6.574243307113647461e-03,2.293463796377182007e-02,2.721872553229331970e-02,-2.934454008936882019e-03,2.236549556255340576e-02,3.211135417222976685e-02,-1.618968695402145386e-02,-5.064945667982101440e-03,5.453930795192718506e-02,9.065438061952590942e-03,2.284360490739345551e-02,-1.869146525859832764e-02,-3.935005515813827515e-03,2.192562818527221680e-02,1.152108237147331238e-02,2.538680657744407654e-02,-1.336621306836605072e-02,1.103052124381065369e-02,-1.406118646264076233e-02,-1.401057280600070953e-02,2.203207090497016907e-02,-9.594745934009552002e-04,-1.052197441458702087e-02,2.520235255360603333e-02,-1.109266281127929688e-02,-4.324980080127716064e-03,4.482056573033332825e-02,8.561260998249053955e-03,2.817805483937263489e-02,2.117077820003032684e-02,-9.389406070113182068e-03,5.686441063880920410e-02,2.771806716918945312e-02,-1.841587200760841370e-02,2.823734283447265625e-02,-7.131580263376235962e-03,2.967514842748641968e-02,-1.592612080276012421e-02,2.211423963308334351e-02,-6.419921293854713440e-03,-1.056950446218252182e-02,-3.449608385562896729e-02,-1.657094433903694153e-02,4.883578792214393616e-02,-1.344142667949199677e-02,1.107987575232982635e-02,-1.063835434615612030e-02,7.200840115547180176e-02,-6.965946406126022339e-03,-4.099172353744506836e-02,-2.164710313081741333e-03,-1.340585574507713318e-02,-8.003246039152145386e-03,2.919909171760082245e-02,1.884354650974273682e-02,1.354103907942771912e-03,-7.905490696430206299e-03,8.971282839775085449e-02,1.725911535322666168e-02,-6.596289575099945068e-03,3.521849215030670166e-02,3.164799138903617859e-02,3.260750323534011841e-02,-5.917631089687347412e-03,3.974918648600578308e-02,-2.871673554182052612e-02,6.671842932701110840e-02,-3.470491617918014526e-03,-8.729381486773490906e-03,-2.901913598179817200e-03,1.843023300170898438e-01,-3.273185342550277710e-03,-1.100559718906879425e-02,-1.192687079310417175e-02,6.182381138205528259e-02,2.289539948105812073e-02,5.752215161919593811e-02,3.402900323271751404e-02,-2.162971347570419312e-02,-1.266169175505638123e-02,5.325505137443542480e-02,2.126913145184516907e-02,-1.525686681270599365e-02,9.593095630407333374e-03,-2.590328082442283630e-02,4.689010232686996460e-02,2.347778528928756714e-02,2.669281885027885437e-02,1.762779802083969116e-02,-2.378535829484462738e-02,3.330294415354728699e-02,4.871693626046180725e-02,2.794326096773147583e-02,-1.140164770185947418e-02,-1.022425387054681778e-02,-1.419348083436489105e-02,-1.282669696956872940e-02,-2.002860791981220245e-02,-2.205117233097553253e-02,2.950355783104896545e-02,-1.743032783269882202e-02,2.883916720747947693e-02,3.933744877576828003e-02,2.246493473649024963e-02,-7.596742361783981323e-03,-4.521369934082031250e-03,-2.226829528808593750e-02,-1.036200113594532013e-02,2.534927800297737122e-02,2.391561865806579590e-04,5.243654921650886536e-02,-7.017577067017555237e-03,-1.255394890904426575e-02,2.032658085227012634e-02,-1.585491746664047241e-02,-1.484009064733982086e-02,3.091076388955116272e-03,-4.381687194108963013e-02,-2.936020493507385254e-03,1.045198738574981689e-02,6.499043107032775879e-02,-1.108668744564056396e-03,-1.307503506541252136e-02,-1.633705943822860718e-02,-2.699694037437438965e-02,5.826845020055770874e-02,-9.342011064291000366e-03,3.292039409279823303e-02,-5.252841860055923462e-03,2.901839837431907654e-02,-1.634626463055610657e-02,2.599316090345382690e-02,-1.114457380026578903e-02,-1.103210821747779846e-02,-9.319551289081573486e-03,-3.582961857318878174e-02,-1.835943385958671570e-02,5.877854675054550171e-02,5.025704577565193176e-02,-1.820543035864830017e-02,2.966969087719917297e-02,-5.509238690137863159e-02,2.199485152959823608e-02,3.102256357669830322e-02,2.035462670028209686e-02,3.132711350917816162e-02,8.845357224345207214e-03,7.938370108604431152e-03,-1.706352457404136658e-02,1.864409074187278748e-02,-4.180280491709709167e-03,3.083597496151924133e-02,3.250930458307266235e-02,-1.657998934388160706e-02,-2.637897990643978119e-02,-2.201462537050247192e-02,-1.991499587893486023e-02,-2.680861577391624451e-02,3.814047202467918396e-02,-1.706189103424549103e-02,-6.831276230514049530e-03,1.049242913722991943e-03,1.175437681376934052e-02,-2.159002795815467834e-02,-1.741940528154373169e-02,1.059094443917274475e-03,-1.389916893094778061e-02,3.326550126075744629e-02,2.481254190206527710e-02,-1.873138546943664551e-02,-5.369624122977256775e-03,2.798668481409549713e-02,2.384043112397193909e-02,-1.224164292216300964e-02,5.300422757863998413e-02,-7.641370408236980438e-03,-1.078293845057487488e-02,-1.568549871444702148e-02,1.038542017340660095e-02,-2.746328711509704590e-02,-1.974238827824592590e-02,5.427170544862747192e-04,4.266005009412765503e-02,-2.866759151220321655e-02,3.260249271988868713e-02,5.695743858814239502e-02,-1.916355639696121216e-02,-3.151403740048408508e-02,9.843257069587707520e-02,-2.081118524074554443e-02,-1.326359808444976807e-02,9.272411465644836426e-03,-5.104988813400268555e-03,-1.965077221393585205e-02,-2.538457885384559631e-02,3.112130425870418549e-02,2.711841836571693420e-02,-4.948062077164649963e-02,1.221476122736930847e-03,-1.678360812366008759e-02,1.109494417905807495e-01,9.797072038054466248e-03,-1.482829265296459198e-02,-1.142957992851734161e-02,-1.037628017365932465e-02,-3.913514316082000732e-03,3.186021000146865845e-03,-2.291082963347434998e-02,3.448137268424034119e-02,3.008667379617691040e-02,1.894773170351982117e-02,-8.369233459234237671e-03,2.411800622940063477e-02,3.145918250083923340e-03,-2.179985120892524719e-02,3.603146970272064209e-02,1.244382373988628387e-02,1.265497356653213501e-01,-2.906404063105583191e-02,5.489304289221763611e-02,-5.236730724573135376e-02,-5.471382290124893188e-03,2.142753452062606812e-02,2.852714806795120239e-02,3.357274085283279419e-02,-1.748104766011238098e-02,-1.648729667067527771e-02,1.057017967104911804e-02,4.945361614227294922e-02,2.420112676918506622e-02,2.854198403656482697e-02,-1.654730923473834991e-02,2.203963696956634521e-02,-2.683444693684577942e-02,3.074168413877487183e-02,-2.612707763910293579e-02,5.478374660015106201e-03,3.490903601050376892e-02,3.002231940627098083e-02,9.242599830031394958e-03,-2.371414378285408020e-02,1.276661455631256104e-02,2.884873561561107635e-02,-3.095126897096633911e-02,-1.550680864602327347e-02,-1.915940083563327789e-02,-6.144545972347259521e-03,-2.771669626235961914e-02,4.410101100802421570e-03,-3.123722970485687256e-03,1.982058584690093994e-02,4.966241121292114258e-02,-1.035972777754068375e-02,2.503717318177223206e-02,2.786659076809883118e-02,-3.630706295371055603e-02,-5.196657031774520874e-03,-1.509148627519607544e-02,1.495084166526794434e-02,1.200557686388492584e-02,-1.212773472070693970e-02,-8.456148207187652588e-03,1.740128919482231140e-02,-1.192764565348625183e-02,2.280710265040397644e-02,2.356427721679210663e-02,-4.111012443900108337e-03,-1.943783462047576904e-02,-2.756471186876296997e-02,3.252980485558509827e-02,1.200712844729423523e-02,-1.932890340685844421e-02,2.957505919039249420e-02,2.742095291614532471e-02,3.267923742532730103e-02,-1.696549728512763977e-02,-1.723076030611991882e-02,7.056079059839248657e-02,-8.891185745596885681e-03,-5.782805383205413818e-03,3.126609697937965393e-02,-1.004339754581451416e-02,1.383204944431781769e-02,5.364887788891792297e-02,3.473538532853126526e-02,2.859543263912200928e-02,4.638670757412910461e-02,-3.578845411539077759e-03,1.037640403956174850e-02,4.238875210285186768e-02,-3.776453435420989990e-03,1.360624656081199646e-02,-1.988215185701847076e-02,-2.111383900046348572e-02,3.101194649934768677e-02,3.555672988295555115e-02,-3.587484359741210938e-03,-1.004057377576828003e-02,-2.176580205559730530e-02,4.414590448141098022e-02,4.707146063446998596e-02,2.087676897644996643e-03,-2.651502378284931183e-02,-1.219454593956470490e-02,9.317738935351371765e-03,-1.596791110932826996e-02,1.882107183337211609e-02,-1.273922063410282135e-02,2.588725462555885315e-02,-1.911741867661476135e-02,-6.774549372494220734e-03,4.262534901499748230e-02,-1.150201819837093353e-02,1.859439350664615631e-02,5.474866554141044617e-02,-2.357061021029949188e-02,5.429509654641151428e-02,3.488438948988914490e-02,-1.585661619901657104e-02,-6.942458450794219971e-03,1.470403373241424561e-02,-6.265143863856792450e-03,-1.209691166877746582e-02,3.855079412460327148e-04,-3.295420855283737183e-02,2.791965007781982422e-02,-2.495217695832252502e-02,-7.240682840347290039e-03,2.602797746658325195e-02,4.642348736524581909e-02,-8.834797888994216919e-03,5.569416284561157227e-02,-1.229201443493366241e-02,-2.028418891131877899e-02,3.243630751967430115e-02,-8.616771548986434937e-03,2.058998495340347290e-02,-2.043817192316055298e-02,-3.282543271780014038e-03,-1.653156429529190063e-02,3.011329099535942078e-02,-8.738018572330474854e-03,-5.740191787481307983e-03,-4.577309265732765198e-02,-1.797379180788993835e-02,2.396572381258010864e-04,-7.821455597877502441e-03,-1.492802053689956665e-03,-1.671464927494525909e-02,-1.945822499692440033e-02,3.720662742853164673e-02,-1.769044995307922363e-02,4.519739747047424316e-02,3.973113745450973511e-02,3.746857866644859314e-03,-2.498706616461277008e-02,-1.432253606617450714e-02,-1.126052066683769226e-02,3.120734915137290955e-02,-5.367789417505264282e-03,-3.603132069110870361e-02,4.725677520036697388e-02,-8.246090263128280640e-03,3.116881102323532104e-02,-8.068636059761047363e-03,1.323502697050571442e-02,3.405449166893959045e-02,-1.689151488244533539e-02,3.827826306223869324e-02,3.607738390564918518e-02,1.939034089446067810e-03,6.260102242231369019e-02,-1.830935478210449219e-02,-1.221620291471481323e-02,-1.343307550996541977e-02,1.560499519109725952e-02,4.808859154582023621e-02,3.864242509007453918e-02,-6.009217351675033569e-03,-8.048666641116142273e-03,2.264173328876495361e-02,4.448991268873214722e-03,3.484465926885604858e-02,-1.514076068997383118e-02,3.110821172595024109e-02,5.128550902009010315e-02,-5.886543542146682739e-03,8.085520565509796143e-02,-3.525476902723312378e-02,4.660173878073692322e-02,-4.842955619096755981e-02,2.632447890937328339e-02,5.900801718235015869e-02,1.589740626513957977e-03,1.796030439436435699e-02,9.901966899633407593e-03,5.722632259130477905e-02,-3.045201301574707031e-04,-4.332929849624633789e-03,3.374956920742988586e-02,5.743636190891265869e-02,3.968188166618347168e-02,-1.820202544331550598e-02,-1.916495338082313538e-02,2.193570882081985474e-02,9.836461395025253296e-03,4.255787283182144165e-02,4.516633599996566772e-02,3.233042731881141663e-02,4.343688488006591797e-05,-2.273989096283912659e-02,-2.461109310388565063e-03,-1.807268150150775909e-02,4.853617027401924133e-02,5.195344612002372742e-02,3.734987229108810425e-02,3.107204288244247437e-02,2.742938324809074402e-02,4.089106246829032898e-02,-5.410108715295791626e-03,-9.948866441845893860e-03,4.927164316177368164e-02,8.238743059337139130e-03,-1.300121843814849854e-02,-3.124937415122985840e-03,-3.648052364587783813e-02,-8.070450276136398315e-04,2.700857631862163544e-02,7.114369422197341919e-02,-1.286820694804191589e-02,-9.369783103466033936e-03,-1.622354052960872650e-02,3.283289074897766113e-02,5.728345364332199097e-02,1.334897242486476898e-02,-5.969579331576824188e-03,-1.624632626771926880e-02,3.611294552683830261e-02,8.328091353178024292e-03,-2.625595405697822571e-02,2.038189396262168884e-02,-7.170759141445159912e-03,2.307807840406894684e-02,2.762061357498168945e-02,7.601231336593627930e-03,-2.618458122014999390e-03,3.510433807969093323e-02,7.058902084827423096e-02,5.727220326662063599e-03,-4.378318786621093750e-03,3.140748292207717896e-02,-8.853610605001449585e-03,-1.534499228000640869e-03,2.776618115603923798e-02,2.013996243476867676e-03,8.979526162147521973e-02,-1.188934594392776489e-02,-2.214016392827033997e-03,1.689665019512176514e-03,2.893843501806259155e-02,7.489407807588577271e-02,-5.816364660859107971e-02,3.456453979015350342e-02,-2.373561263084411621e-02,-1.349247060716152191e-02,-1.088906452059745789e-02,3.815234452486038208e-02,1.037985645234584808e-02,-6.470661610364913940e-03,2.206250652670860291e-02,3.116176091134548187e-02,7.746077142655849457e-03,4.471287131309509277e-03,2.512532472610473633e-02,-1.130279898643493652e-02
7.527749985456466675e-02,3.784202039241790771e-02,4.341331869363784790e-02,4.744201898574829102e-02,3.593277186155319214e-02,3.169241175055503845e-02,3.086361661553382874e-02,4.067225009202957153e-02,3.456223011016845703e-02,3.003429807722568512e-02,6.118012964725494385e-02,2.823700197041034698e-02,3.415073826909065247e-02,3.451988846063613892e-02,3.104254417121410370e-02,3.645311295986175537e-02,3.649485111236572266e-02,2.567047625780105591e-02,4.374907538294792175e-02,8.643522113561630249e-02,2.128624729812145233e-02,6.557196378707885742e-02,2.600386738777160645e-02,3.202522173523902893e-02,3.990359604358673096e-02,2.869247086346149445e-02,3.275827318429946899e-02,3.047160059213638306e-02,3.647141903638839722e-02,4.701654985547065735e-02,3.544431924819946289e-02,3.101778216660022736e-02,4.026367887854576111e-02,-2.646633423864841461e-02,3.410640358924865723e-02,6.061165034770965576e-02,3.473565727472305298e-02,-6.919017434120178223e-02,5.032176524400711060e-02,3.349068015813827515e-02,1.305475682020187378e-01,3.793036192655563354e-02,3.147684410214424133e-02,1.338986754417419434e-01,3.484733775258064270e-02,2.988087199628353119e-02,2.884112298488616943e-02,3.530164808034896851e-02,5.362838506698608398e-02,5.029073357582092285e-02,3.586857020854949951e-02,4.169185459613800049e-02,2.840699255466461182e-02,-4.263908416032791138e-02,2.820705436170101166e-02,6.580796092748641968e-02,3.527590632438659668e-02,3.597511351108551025e-02,5.885581672191619873e-02,3.306742385029792786e-02,4.273084551095962524e-02,4.375035688281059265e-02,3.762938082218170166e-02,3.448892757296562195e-02,3.218451142311096191e-02,4.729273170232772827e-02,2.910689637064933777e-02,3.426372259855270386e-02,4.028837755322456360e-02,6.164743378758430481e-02,2.311674878001213074e-02,3.279518336057662964e-02,4.546304419636726379e-02,3.778394311666488647e-02,5.574945732951164246e-02,4.529383778572082520e-02,2.008244767785072327e-02,3.320914506912231445e-02,3.247402980923652649e-02,3.521385788917541504e-02,3.904990106821060181e-02,1.545637845993041992e-01,-4.736021161079406738e-02,3.247158229351043701e-02,6.199977546930313110e-02,2.644924819469451904e-02,3.601156920194625854e-02,3.339943662285804749e-02,4.141870141029357910e-02,4.119236022233963013e-02,3.949044272303581238e-02,3.730071336030960083e-02,7.520016282796859741e-02,5.336303263902664185e-02,3.568070381879806519e-02,2.130027860403060913e-02,3.497816622257232666e-02,3.687945008277893066e-02,6.812350451946258545e-02,1.901831477880477905e-02,3.976072371006011963e-02,3.891327604651451111e-02,-7.831527292728424072e-02,2.954993955790996552e-02,5.139487981796264648e-02,3.295291960239410400e-02,3.571321070194244385e-02,3.243158757686614990e-02,3.305758908390998840e-02,3.266447409987449646e-02,4.615815728902816772e-02,2.672531269490718842e-02,5.437461659312248230e-02,3.585544973611831665e-02,2.665897831320762634e-02,5.699176341295242310e-02,3.900082036852836609e-02,3.189220279455184937e-02,6.225153058767318726e-02,2.380061522126197815e-02,3.660384565591812134e-02,5.970715731382369995e-02,6.102631986141204834e-02,4.389042407274246216e-02,3.426018357276916504e-02,3.405790403485298157e-02,3.808500990271568298e-02,3.604431077837944031e-02,3.499101847410202026e-02,3.262493386864662170e-02,3.694993630051612854e-02,6.390565633773803711e-02,-4.977458342909812927e-02,2.850272133946418762e-02,-2.405769564211368561e-02,4.486065730452537537e-02,4.249797388911247253e-02,4.206917062401771545e-02,3.895704820752143860e-02,4.105982929468154907e-02,1.181747391819953918e-01,3.602736070752143860e-02,2.914352715015411377e-02,3.562033921480178833e-02,5.067996308207511902e-02,3.279842063784599304e-02,3.692858293652534485e-02,2.653600275516510010e-02,5.488982796669006348e-02,3.785058110952377319e-02,3.077180683612823486e-02,4.438458383083343506e-02,4.027574509382247925e-02,2.997337840497493744e-02,3.606938570737838745e-02,3.345375508069992065e-02,3.991119191050529480e-02,4.155505076050758362e-02,5.279396846890449524e-02,7.542546093463897705e-02,6.726208329200744629e-02,5.092653632164001465e-02,5.661198496818542480e-02,5.228380113840103149e-02,4.312120005488395691e-02,3.585334122180938721e-02,3.993221744894981384e-02,1.930431090295314789e-02,3.709090873599052429e-02,3.192777186632156372e-02,1.709505356848239899e-02,3.199341893196105957e-02,3.655143454670906067e-02,4.424675181508064270e-02,1.373950242996215820e-01,2.382571808993816376e-02,6.235377863049507141e-02,2.055423520505428314e-02,3.965401276946067810e-02,4.547178000211715698e-02,1.737842708826065063e-02,6.016368418931961060e-02,5.684702098369598389e-02,3.849311172962188721e-02,4.447199031710624695e-02,3.955320268869400024e-02,6.619360297918319702e-02,2.467177994549274445e-02,3.438981249928474426e-02,5.590438842773437500e-02,3.076808340847492218e-02,-2.429311722517013550e-02,3.196272999048233032e-02,6.261737644672393799e-02,1.760046370327472687e-02,2.851559594273567200e-02,4.573096334934234619e-02,2.497533708810806274e-02,3.455587849020957947e-02,3.383762761950492859e-02,2.931883558630943298e-02,3.866406530141830444e-02,2.701076865196228027e-02,4.274297133088111877e-02,3.116087801754474640e-02,2.868699468672275543e-02,4.194678366184234619e-02,3.284010291099548340e-02,6.505637615919113159e-02,3.648589551448822021e-02,2.394417673349380493e-02,4.067552462220191956e-02,3.877569735050201416e-02,-1.681492477655410767e-02,4.972874373197555542e-02,6.584908813238143921e-02,3.374011069536209106e-02,5.194809287786483765e-02,2.736609056591987610e-02,3.432348370552062988e-02,4.462458938360214233e-02,4.289866983890533447e-02,4.851564019918441772e-02,-4.916932806372642517e-02,3.390151262283325195e-02,4.284469783306121826e-02,-2.592056058347225189e-02,4.288863390684127808e-02,3.380802273750305176e-02,-4.170590266585350037e-02,3.814253583550453186e-02,4.539832845330238342e-02,5.098974332213401794e-02,4.139339923858642578e-02,4.512491077184677124e-02,3.339027240872383118e-02,1.100867986679077148e-02,3.455801308155059814e-02,3.407684713602066040e-02,3.586638346314430237e-02,6.389421969652175903e-02,3.991587087512016296e-02,4.645638540387153625e-02,7.437881827354431152e-02,8.902490139007568359e-02,4.045585542917251587e-02,3.525953367352485657e-02,3.653417527675628662e-02,2.505963295698165894e-02,3.614223748445510864e-02,3.135342895984649658e-02,3.299808129668235779e-02,8.378049731254577637e-02,2.999036945402622223e-02,3.272874653339385986e-02,4.353752359747886658e-02,4.783804714679718018e-02,3.499892726540565491e-02,6.133481487631797791e-02,3.473891317844390869e-02,1.017205417156219482e-01,2.993768081068992615e-02,3.442490845918655396e-02,4.565311968326568604e-02,3.403865545988082886e-02,3.674412518739700317e-02,6.878270208835601807e-02,2.663931623101234436e-02,5.658412724733352661e-02,3.264527767896652222e-02,3.913434222340583801e-02,4.036907479166984558e-02,2.456498891115188599e-02,3.699337318539619446e-02,3.700572624802589417e-02,3.438087552785873413e-02,5.372273549437522888e-02,3.215979784727096558e-02,3.735300898551940918e-02,3.008792176842689514e-02,4.369059950113296509e-02,2.511011064052581787e-02,3.561174869537353516e-02,4.730694741010665894e-02,1.886647567152976990e-02,3.962459415197372437e-02,4.403152316808700562e-02,2.722793444991111755e-02,4.502337425947189331e-02,2.345458790659904480e-02,2.526885643601417542e-02,3.492892906069755554e-02,3.944772109389305115e-02,2.752237580716609955e-02,6.035880744457244873e-02,3.605884313583374023e-02,4.648241028189659119e-02,4.996680468320846558e-02,3.160201013088226318e-02,4.427682980895042419e-02,-2.815823256969451904e-02,-4.330156743526458740e-02,3.032996505498886108e-02,7.668068259954452515e-02,4.791606217622756958e-02,3.060401603579521179e-02,6.430417299270629883e-02,1.768759451806545258e-02,4.835942760109901428e-02,3.016466647386550903e-02,3.647395223379135132e-02,2.363948337733745575e-02,8.651330322027206421e-02,2.933095768094062805e-02,3.643775358796119690e-02,3.629811480641365051e-02,3.684418275952339172e-02,6.476880609989166260e-02,3.641489148139953613e-02,5.179883539676666260e-02,5.499354377388954163e-02,2.814200147986412048e-02,6.033551320433616638e-02,7.621685415506362915e-02,6.400299817323684692e-02,2.847078070044517517e-02,3.774972632527351379e-02,2.918424271047115326e-02,2.946603670716285706e-02,4.085350781679153442e-02,3.170289844274520874e-02,3.130937367677688599e-02,5.635596811771392822e-02,4.431621730327606201e-02,4.367697611451148987e-02,3.877422213554382324e-02,2.318368479609489441e-02,4.935406893491744995e-02,4.082448780536651611e-02,3.657598048448562622e-02,2.713540941476821899e-02,2.998472377657890320e-02,5.303608253598213196e-02,3.120865114033222198e-02,4.936728253960609436e-02,7.548622041940689087e-02,3.569735959172248840e-02,3.924066573381423950e-02,6.377888470888137817e-02,1.325279176235198975e-01,3.697532415390014648e-02,4.577299952507019043e-02,2.721284329891204834e-02,4.590754956007003784e-02,3.437319397926330566e-02,5.133257806301116943e-02,3.272763639688491821e-02,3.085405379533767700e-02,4.016235098242759705e-02,3.010499477386474609e-02,4.243597760796546936e-02,3.371024131774902344e-02,3.405956178903579712e-02,3.278701007366180420e-02,4.261655360460281372e-02,5.933078378438949585e-02,5.275490134954452515e-02,3.949763998389244080e-02,3.398743644356727600e-02,7.127514481544494629e-02,2.623400464653968811e-02,4.060584306716918945e-02,3.727025166153907776e-02,3.352832049131393433e-02,4.904460906982421875e-02,3.361760079860687256e-02,4.050125926733016968e-02,1.249738931655883789e-01,8.776706457138061523e-02,7.731164991855621338e-02,8.902313560247421265e-02,4.553128778934478760e-02,3.581052273511886597e-02,1.220817938446998596e-01,3.963646665215492249e-02,-6.451789289712905884e-02,3.390098735690116882e-02,3.020469099283218384e-02,4.148794338107109070e-02,6.842595338821411133e-02,-3.331578522920608521e-02,3.567589819431304932e-02,2.710805460810661316e-02,3.257181495428085327e-02,4.198263213038444519e-02,6.488054990768432617e-02,2.982175350189208984e-02,5.089758336544036865e-02,-3.532763198018074036e-02,3.256925195455551147e-02,4.925012961030006409e-02,6.349448114633560181e-02,2.300160750746726990e-02,2.278175950050354004e-02,3.340288624167442322e-02,4.505979642271995544e-02,4.000599682331085205e-02,2.586533874273300171e-02,6.368184834718704224e-02,3.196975588798522949e-02,3.288282454013824463e-02,2.566252648830413818e-02,3.248510509729385376e-02,3.276383876800537109e-02,3.702639788389205933e-02,3.359941765666007996e-02,4.977997019886970520e-02,-1.462614350020885468e-02,3.917256742715835571e-02,3.799317777156829834e-02,4.084299504756927490e-02,2.770602703094482422e-02,3.581833094358444214e-02,4.616846889257431030e-02,3.666298091411590576e-02,6.626609712839126587e-02,-5.463127046823501587e-02,5.855166912078857422e-02,3.624927625060081482e-02,2.072044834494590759e-02,3.453846648335456848e-02,3.031172975897789001e-02,2.990072406828403473e-02,3.028018400073051453e-02,1.783141866326332092e-02,3.281957656145095825e-02,3.938391059637069702e-02,5.735761672258377075e-02,4.386220872402191162e-02,3.528708219528198242e-02,-3.012415766716003418e-02,6.499513983726501465e-05,3.346902877092361450e-02,3.381690010428428650e-02,4.069183766841888428e-02,4.425452277064323425e-02,1.098386719822883606e-01,5.139018222689628601e-02,3.152561187744140625e-02,3.587191924452781677e-02,5.622132867574691772e-02,2.825016528367996216e-02,-3.216191753745079041e-02,4.212170094251632690e-02,3.316532820463180542e-02,4.009435698390007019e-02,4.484821110963821411e-02,4.347118362784385681e-02,3.684422746300697327e-02,4.099332541227340698e-02,3.058708831667900085e-02,5.545656383037567139e-02,3.548851236701011658e-02,2.507800795137882233e-02,3.276628255844116211e-02,3.495210781693458557e-02,3.276025131344795227e-02,4.438313096761703491e-02,3.511507809162139893e-02,3.180562332272529602e-02,3.737367689609527588e-02,3.719871118664741516e-02,4.961863160133361816e-02,2.923966199159622192e-02,4.628349840641021729e-02,3.653874620795249939e-02,2.706207707524299622e-02,2.955275774002075195e-02,3.753995150327682495e-02,3.773069381713867188e-02,3.828011453151702881e-02,4.094843566417694092e-02,5.765550583600997925e-02,3.943226113915443420e-02,8.558911830186843872e-02,6.076912209391593933e-02,2.169837430119514465e-02,6.558044999837875366e-02,4.211784526705741882e-02,-2.597045525908470154e-02,3.075379878282546997e-02,-3.769122064113616943e-03,3.016331419348716736e-02,2.999365888535976410e-02,3.480101749300956726e-02,4.956032335758209229e-02,3.792909905314445496e-02,3.375182300806045532e-02,4.424240440130233765e-02,5.060739070177078247e-02,3.961555659770965576e-02,4.912518337368965149e-02,3.847647830843925476e-02,3.693267330527305603e-02,4.412441700696945190e-02,3.665430098772048950e-02,4.665131866931915283e-02,7.324150949716567993e-02,6.149574369192123413e-02,3.254372626543045044e-02,2.195999398827552795e-02,3.571328893303871155e-02,3.132879734039306641e-02,2.856755815446376801e-02,3.438117355108261108e-02,3.415144979953765869e-02,4.169503971934318542e-02,3.598605096340179443e-02,-1.252624392509460449e-02,3.619001805782318115e-02,2.131901308894157410e-02,3.052991628646850586e-02,3.964911401271820068e-02,3.288139030337333679e-02,3.371598944067955017e-02,4.784171655774116516e-02,3.499164804816246033e-02,5.721762776374816895e-02,4.221367835998535156e-02,3.057628124952316284e-02,2.223839424550533295e-02,3.236468881368637085e-02,3.252344578504562378e-02,6.902492791414260864e-02,3.291944786906242371e-02,3.284447640180587769e-02,3.276969864964485168e-02,4.177920520305633545e-02,3.685677796602249146e-02,4.855521023273468018e-02,3.641368821263313293e-02,3.208182752132415771e-02,3.359622880816459656e-02,4.400283843278884888e-02,3.771223500370979309e-02,3.156177699565887451e-02,3.109275735914707184e-02,4.014719277620315552e-02,3.132832422852516174e-02,3.308599442243576050e-02,4.633122682571411133e-02,6.934925913810729980e-02,3.632553294301033020e-02,3.591582179069519043e-02,3.551468625664710999e-02,3.294175118207931519e-02,2.554141357541084290e-02,2.849725261330604553e-02,3.200078010559082031e-02,4.022497311234474182e-02,3.769915923476219177e-02,5.119261890649795532e-02,4.006353393197059631e-02,3.407808020710945129e-02,-3.174843639135360718e-02,4.348097369074821472e-02,3.998929262161254883e-02,3.061090596020221710e-02,4.805055633187294006e-02,3.393243253231048584e-02,4.500784724950790405e-02,3.726875036954879761e-02,8.157365024089813232e-02,2.979404851794242859e-02,4.110892489552497864e-02,3.285100311040878296e-02,4.453907907009124756e-02,4.069998487830162048e-02,4.430823773145675659e-02,3.275800123810768127e-02,3.088119812309741974e-02,3.576102480292320251e-02,9.756068140268325806e-02,5.117172747850418091e-02,4.809129983186721802e-02,-1.877127215266227722e-02,5.515071004629135132e-02,5.505841225385665894e-02,3.268015012145042419e-02,2.798056229948997498e-02,4.796717315912246704e-02,-6.937418878078460693e-02,4.522345215082168579e-02,3.749249130487442017e-02,3.797055035829544067e-02,1.704580932855606079e-01,-3.151644021272659302e-02,3.860885277390480042e-02,3.171208500862121582e-02,5.098187550902366638e-02,3.331217542290687561e-02,7.155877351760864258e-02,2.209419384598731995e-02,3.487412631511688232e-02,4.443717747926712036e-02,7.060449570417404175e-02,3.123088926076889038e-02,3.112947195768356323e-02,-3.655515983700752258e-02,3.666973114013671875e-02,6.438452750444412231e-02,2.903485856950283051e-02,3.457171842455863953e-02,3.314037993550300598e-02,-1.341853849589824677e-02,5.282675474882125854e-02,6.085567176342010498e-02,4.888375848531723022e-02,3.983623534440994263e-02,3.916526958346366882e-02,4.443544894456863403e-02,3.063420020043849945e-02,2.959656901657581329e-02,3.105839341878890991e-02,2.624997124075889587e-02,4.014486446976661682e-02,2.057145163416862488e-02,5.364248156547546387e-02,3.265416994690895081e-02,2.652744576334953308e-02,3.441486507654190063e-02,2.922763302922248840e-02,3.404406085610389709e-02,2.621887251734733582e-02,3.981012105941772461e-02,7.141007483005523682e-02,3.407183662056922913e-02,3.037444502115249634e-02,3.016279079020023346e-02,3.297890350222587585e-02,3.636962175369262695e-02,-2.580765634775161743e-02,4.126707464456558228e-02,3.497950732707977295e-02,4.089415445923805237e-02,8.505605161190032959e-02,4.077638313174247742e-02,3.584425151348114014e-02,4.061838239431381226e-02,3.333196043968200684e-02,4.318279772996902466e-02,3.443678840994834900e-02,5.844502896070480347e-02,5.889846011996269226e-02,2.207609079778194427e-02,3.148483484983444214e-02,2.996739186346530914e-02,2.936164662241935730e-02,3.351953998208045959e-02,3.657547384500503540e-02,5.517589673399925232e-02,4.813158139586448669e-02,-3.990281373262405396e-03,5.802778527140617371e-02,4.108297452330589294e-02,-5.868907272815704346e-02,1.237885095179080963e-02,3.081064485013484955e-02,5.807994306087493896e-02,3.512738645076751709e-02,2.402726560831069946e-02,3.745943307876586914e-02,4.023849219083786011e-02,3.478781878948211670e-02,4.963357374072074890e-02,4.621144756674766541e-02,6.071358174085617065e-02,2.616504393517971039e-02,3.375808149576187134e-02,4.402306675910949707e-02,3.066081553697586060e-02,3.298608213663101196e-02,2.900033071637153625e-02,4.177901893854141235e-02,3.807179629802703857e-02,4.526382684707641602e-02,4.585114121437072754e-02,3.521440923213958740e-02,5.943909287452697754e-02,3.800513595342636108e-02,2.569456771016120911e-02,2.180438116192817688e-02,4.357959702610969543e-02,2.382251247763633728e-02,3.137259185314178467e-02,2.597338706254959106e-02,4.858832061290740967e-02,3.201936185359954834e-02,5.449052155017852783e-02,2.409032732248306274e-02,4.216600582003593445e-02,3.819049894809722900e-02,3.477931022644042969e-02,3.272742778062820435e-02,3.661265969276428223e-02,3.353495895862579346e-02,3.391044586896896362e-02,6.641607731580734253e-02,4.179150983691215515e-02,2.728329040110111237e-02,7.195830345153808594e-02,3.416970372200012207e-02,2.839086577296257019e-02,-9.669849276542663574e-02,4.689746722579002380e-02,4.778927937150001526e-02,3.395470976829528809e-02,4.616443067789077759e-02,3.310413286089897156e-02,4.511753842234611511e-02,3.546506538987159729e-02,4.385521635413169861e-02,4.915076494216918945e-02,3.511243313550949097e-02,3.795494139194488525e-02,1.111652851104736328e-01,3.053758852183818817e-02,-2.322740107774734497e-02,-1.753833144903182983e-02,3.153630346059799194e-02,4.220202565193176270e-02,4.212957620620727539e-02,4.168176278471946716e-02,3.587602823972702026e-02,6.122987717390060425e-02,3.135691955685615540e-02,3.674509748816490173e-02,3.568754717707633972e-02,3.374688327312469482e-02,4.734979569911956787e-02,-4.486881941556930542e-02,3.421020135283470154e-02,1.439343094825744629e-01,3.332980722188949585e-02,6.823764741420745850e-02,2.080953679978847504e-02,3.496339544653892517e-02,-4.655621945858001709e-02,3.561483323574066162e-02,5.740058049559593201e-02,4.222327470779418945e-02,3.621729090809822083e-02,4.038330167531967163e-02,3.858522698283195496e-02,-2.288161218166351318e-02,1.882398873567581177e-02,3.571636602282524109e-02,3.662209585309028625e-02,2.836094051599502563e-02,3.830149024724960327e-02,4.015328735113143921e-02,4.142067581415176392e-02,4.162347689270973206e-02,3.557126224040985107e-02,3.172093629837036133e-02,3.880526125431060791e-02,6.157857179641723633e-02,2.939485572278499603e-02,3.837874904274940491e-02,3.063698112964630127e-02,3.273646533489227295e-02,3.845252841711044312e-02,2.888544276356697083e-02,3.493988141417503357e-02,4.055533185601234436e-02,3.486902266740798950e-02,6.709935516119003296e-02,3.822910785675048828e-02,4.152877256274223328e-02,3.244157880544662476e-02,5.836036428809165955e-02,3.239362686872482300e-02,3.677072003483772278e-02,-5.790539830923080444e-02,4.250678792595863342e-02,3.583590686321258545e-02,3.659624978899955750e-02,3.201885148882865906e-02,4.211354255676269531e-02,3.416647017002105713e-02,3.237079083919525146e-02,3.131088614463806152e-02,3.811619058251380920e-02,2.961099147796630859e-02,2.983975410461425781e-02,3.475662320852279663e-02,3.182644397020339966e-02,2.989529632031917572e-02,2.181271463632583618e-02,-6.892477720975875854e-02,5.940911546349525452e-02,3.003405220806598663e-02,6.262487918138504028e-02,3.356538340449333191e-02,3.015981614589691162e-02,2.114529535174369812e-02,3.320185840129852295e-02,4.216833785176277161e-02,7.916820049285888672e-02,5.044373124837875366e-02,2.638010121881961823e-02,1.840357482433319092e-02,3.734670579433441162e-02,5.433977395296096802e-02,5.888421460986137390e-02,3.205823898315429688e-02,-2.482400089502334595e-02,3.944305330514907837e-02,2.910842560231685638e-02,3.849513083696365356e-02,2.365145459771156311e-02,4.084904491901397705e-02,2.936302870512008667e-02,3.300558403134346008e-02,6.733699887990951538e-02,6.172684580087661743e-02,3.662257269024848938e-02,4.359860345721244812e-02,4.268360510468482971e-02,3.107634000480175018e-02,3.028706647455692291e-02,3.418092429637908936e-02,3.298769891262054443e-02,2.368148788809776306e-02,4.851990193128585815e-02,4.835634678602218628e-02,5.782955139875411987e-02,3.331154212355613708e-02,6.925725191831588745e-02,7.220483571290969849e-02,4.271180182695388794e-02,6.761422008275985718e-02,3.890822082757949829e-02,3.704223036766052246e-02,3.849389776587486267e-02,-2.881997823715209961e-02,4.204410687088966370e-02,3.536377474665641785e-02,3.721367195248603821e-02,4.017426073551177979e-02,3.114786371588706970e-02,-2.611904218792915344e-02,3.439408540725708008e-02,3.891932219266891479e-02,6.618548184633255005e-02,3.708178550004959106e-02,6.822703033685684204e-02,3.489982336759567261e-02,2.949120476841926575e-02,2.533727884292602539e-02,4.730381444096565247e-02,2.775521203875541687e-02,4.260720685124397278e-02,2.476821839809417725e-02,4.199555516242980957e-02,2.295370027422904968e-02,3.360884636640548706e-02,4.528020694851875305e-02,2.964396774768829346e-02,3.880958631634712219e-02,3.946888074278831482e-02,3.683783113956451416e-02,3.171704337000846863e-02,3.187156096100807190e-02,4.088944196701049805e-02,2.615116909146308899e-02,3.783892840147018433e-02,6.898301839828491211e-02,5.335957556962966919e-02,3.418239206075668335e-02,3.689331561326980591e-02,3.468253090977668762e-02,3.809125348925590515e-02,1.894645765423774719e-02,5.093738436698913574e-02,4.458494111895561218e-02,6.451920419931411743e-02,3.236104547977447510e-02,-2.249947935342788696e-02,4.071481153368949890e-02,3.805939480662345886e-02,4.461924359202384949e-02,3.738458454608917236e-02,6.079920008778572083e-02,1.170874200761318207e-02,3.489762917160987854e-02,4.428206384181976318e-02,3.040439262986183167e-02,4.310163110494613647e-02,3.435337543487548828e-02,4.384564235806465149e-02,6.532419472932815552e-02,4.072041064500808716e-02,4.347476735711097717e-02,3.868085145950317383e-02,3.349875286221504211e-02,3.965945169329643250e-02,-4.171060025691986084e-02,3.293691575527191162e-02,2.036794833838939667e-02,6.626187264919281006e-02,3.444088995456695557e-02,8.825753629207611084e-02,3.152947872877120972e-02,6.615982949733734131e-02,4.087532311677932739e-02,2.662713453173637390e-02,7.418574392795562744e-02,5.140917375683784485e-02,3.788605704903602600e-02,3.269449993968009949e-02,6.415136903524398804e-02,2.731932699680328369e-02,5.543308332562446594e-02,5.145137384533882141e-02,6.882242858409881592e-02,5.334656685590744019e-02,3.171529620885848999e-02,4.225379228591918945e-02,3.187194466590881348e-02,4.233624786138534546e-02,6.815534830093383789e-02,-5.291031301021575928e-02,3.675295785069465637e-02,3.756558895111083984e-02,3.777169808745384216e-02,3.328821063041687012e-02,3.175753355026245117e-02,6.511791050434112549e-02,4.168557375669479370e-02,3.423244133591651917e-02,2.825283817946910858e-02,-4.741074889898300171e-02,-3.484943881630897522e-02,3.166722878813743591e-02,3.040129318833351135e-02,-4.923390597105026245e-02,-2.555639110505580902e-02,3.951264917850494385e-02,3.185758739709854126e-02,4.259305819869041443e-02,4.068269580602645874e-02,4.843186587095260620e-02,8.136746287345886230e-02,3.459374606609344482e-02,4.578801989555358887e-02,3.658638149499893188e-02,1.208171248435974121e-03,-6.611569970846176147e-02,4.316306114196777344e-02,5.022237077355384827e-02,3.317570313811302185e-02,2.689711004495620728e-02,-4.559377953410148621e-02,3.213261812925338745e-02,3.156896308064460754e-02,3.717160597443580627e-02,3.376690670847892761e-02,-2.871533855795860291e-02,3.181844577193260193e-02,4.453190043568611145e-02,5.224837735295295715e-02,4.349754750728607178e-02,2.912101894617080688e-02,2.964741736650466919e-02,5.797042325139045715e-02,4.613299667835235596e-02,4.191323369741439819e-02,3.350993618369102478e-02,2.837762422859668732e-02,9.405129402875900269e-02,3.584796190261840820e-02,3.401358798146247864e-02,-2.778041735291481018e-02,2.886121533811092377e-02,8.749718964099884033e-02,9.945667348802089691e-03,4.345339909195899963e-02,4.415893927216529846e-02,-4.635782167315483093e-02,3.900770843029022217e-02,6.494632363319396973e-02,3.863591700792312622e-02,4.079178720712661743e-02,3.059822693467140198e-02,1.476246491074562073e-02,-2.525060437619686127e-02,-4.467002674937248230e-02,3.176943212747573853e-02,3.281990066170692444e-02
7.058499008417129517e-02,3.716880455613136292e-04,7.827086374163627625e-03,-2.392206713557243347e-02,2.313986420631408691e-02,1.326732616871595383e-02,5.391792207956314087e-02,1.184546574950218201e-02,4.033343866467475891e-02,4.894126951694488525e-02,5.773540213704109192e-02,4.852217435836791992e-02,2.239491418004035950e-02,4.580136388540267944e-02,4.852769523859024048e-02,1.252814847975969315e-02,2.026176080107688904e-02,5.476379022002220154e-02,3.929934278130531311e-02,-5.091912299394607544e-02,5.681804195046424866e-02,4.133131727576255798e-02,7.107433676719665527e-02,3.722534328699111938e-02,2.031255327165126801e-02,7.254184782505035400e-02,9.091168642044067383e-03,-2.590020373463630676e-02,6.538944318890571594e-03,4.708684980869293213e-02,1.889904774725437164e-02,1.359312515705823898e-02,2.316249161958694458e-02,6.826473772525787354e-02,4.671318829059600830e-02,1.040463522076606750e-02,3.995991870760917664e-02,7.227966189384460449e-02,4.361374676227569580e-02,1.297330856323242188e-02,1.142989546060562134e-01,5.349507927894592285e-02,1.103442534804344177e-02,1.254651993513107300e-01,6.714458018541336060e-02,6.308674812316894531e-02,6.341203302145004272e-02,1.632946357131004333e-02,1.037763990461826324e-02,4.524404555559158325e-02,5.275274813175201416e-02,1.419760100543498993e-02,4.838294163346290588e-02,1.180344820022583008e-01,-1.636886224150657654e-02,4.778327047824859619e-02,7.088693976402282715e-02,3.004202619194984436e-02,3.952545672655105591e-02,4.654586315155029297e-02,-4.225798882544040680e-03,2.123690769076347351e-02,2.334342151880264282e-02,7.752764038741588593e-03,5.636966601014137268e-02,1.015841066837310791e-01,5.438122898340225220e-02,3.194427862763404846e-02,5.454398319125175476e-02,-1.738088205456733704e-02,5.748239904642105103e-02,1.545769162476062775e-02,1.695496216416358948e-02,9.150772355496883392e-03,5.621832609176635742e-02,4.401279985904693604e-02,6.013190001249313354e-02,4.731395095586776733e-02,4.291558638215065002e-02,1.048930082470178604e-02,3.933496028184890747e-02,-5.131409689784049988e-02,8.052314817905426025e-02,1.526811998337507248e-02,-2.851370722055435181e-02,4.996316134929656982e-02,3.815157711505889893e-02,3.643843159079551697e-02,2.036644704639911652e-02,5.162921920418739319e-02,-6.631086114794015884e-03,3.956016153097152710e-02,9.579928964376449585e-02,1.342677511274814606e-02,3.489650040864944458e-02,5.543832853436470032e-02,3.658468276262283325e-02,2.005244605243206024e-02,4.075908660888671875e-02,-1.347719226032495499e-02,1.751039549708366394e-02,1.256403699517250061e-02,7.966756820678710938e-02,6.521048396825790405e-02,4.052067920565605164e-02,1.158133987337350845e-02,3.625468909740447998e-02,4.008898884057998657e-02,1.266074832528829575e-02,6.068312749266624451e-02,4.758197069168090820e-02,6.051569804549217224e-02,3.930306807160377502e-02,1.003859099000692368e-02,6.050221994519233704e-02,4.949335008859634399e-02,2.150794118642807007e-02,3.396802395582199097e-02,1.279376447200775146e-04,6.285083293914794922e-02,4.451441764831542969e-02,1.624731346964836121e-03,-7.344657555222511292e-03,-1.121005229651927948e-02,1.825156249105930328e-02,4.784689843654632568e-02,8.725988864898681641e-02,3.641353920102119446e-02,6.062188744544982910e-02,6.325335800647735596e-02,4.301492497324943542e-02,5.110334604978561401e-03,1.052300781011581421e-01,9.244530461728572845e-03,3.623899817466735840e-02,3.595271147787570953e-03,2.817541733384132385e-02,-1.442651264369487762e-02,-7.183308247476816177e-03,1.869123056530952454e-02,-4.385780543088912964e-02,1.583315432071685791e-02,5.770095437765121460e-02,3.589682281017303467e-02,4.862663522362709045e-02,5.334258452057838440e-02,4.067585989832878113e-02,-1.344314403831958771e-02,4.522373899817466736e-02,2.203725837171077728e-02,3.500035032629966736e-02,4.330517351627349854e-02,-5.004741251468658447e-05,6.500748544931411743e-02,1.826069504022598267e-02,4.035918414592742920e-02,5.283199995756149292e-02,2.118676900863647461e-02,1.262494176626205444e-02,9.062787890434265137e-02,7.582660019397735596e-02,3.244806826114654541e-02,9.875236079096794128e-03,5.557925999164581299e-02,3.713439777493476868e-02,9.318683296442031860e-02,5.526395887136459351e-02,5.449374020099639893e-02,5.646423250436782837e-02,5.466724187135696411e-02,6.098250299692153931e-02,4.372474551200866699e-02,9.005961939692497253e-03,9.243033081293106079e-02,1.414009332656860352e-01,5.797787010669708252e-02,7.088379561901092529e-02,5.006480216979980469e-02,2.955100126564502716e-02,3.854344598948955536e-03,5.566829815506935120e-02,-2.069868333637714386e-02,6.812579929828643799e-03,6.962420791387557983e-02,4.737581685185432434e-02,1.312793791294097900e-02,4.920811578631401062e-02,5.292066559195518494e-02,2.164550684392452240e-02,4.547903314232826233e-02,1.590277813374996185e-02,7.280930876731872559e-02,9.437881410121917725e-03,4.220266267657279968e-02,4.399117454886436462e-02,6.636252999305725098e-02,4.250099882483482361e-02,7.334755361080169678e-02,5.751287192106246948e-02,4.341493546962738037e-02,5.381303280591964722e-02,5.764868855476379395e-02,6.083410233259201050e-02,-8.545655757188796997e-03,5.186466127634048462e-02,-1.933393441140651703e-02,2.021824009716510773e-02,1.076903939247131348e-02,7.496309280395507812e-02,1.555297430604696274e-02,5.566529929637908936e-02,4.140524193644523621e-02,4.053540900349617004e-02,9.781309962272644043e-02,5.102807655930519104e-03,6.492237001657485962e-02,6.308545172214508057e-02,4.229439049959182739e-02,3.987010568380355835e-02,1.852999068796634674e-02,1.999401673674583435e-02,3.943181596696376801e-03,3.852055594325065613e-02,8.326344192028045654e-02,9.830017574131488800e-03,4.336853325366973877e-02,4.857032746076583862e-02,2.051169238984584808e-02,7.581852376461029053e-02,8.528082072734832764e-02,2.808729559183120728e-02,1.813453435897827148e-02,-2.123869210481643677e-02,5.303239077329635620e-02,3.951728343963623047e-02,-1.588789932429790497e-02,6.170771270990371704e-02,6.931226700544357300e-03,-1.847990415990352631e-02,-2.664265409111976624e-02,6.623423099517822266e-02,4.016188532114028931e-02,-1.384425815194845200e-02,9.056571871042251587e-03,8.325937390327453613e-02,2.626018039882183075e-02,9.304715320467948914e-03,1.753995195031166077e-02,5.416790395975112915e-02,1.920290663838386536e-02,7.628373056650161743e-02,4.743996262550354004e-02,6.233870983123779297e-03,5.536936223506927490e-02,4.908414930105209351e-02,-5.999010521918535233e-03,1.470761373639106750e-02,4.416652396321296692e-02,1.154482364654541016e-02,2.619765326380729675e-02,9.712576121091842651e-02,5.509076267480850220e-02,8.851848542690277100e-03,4.359441623091697693e-02,4.096790403127670288e-02,3.606627881526947021e-02,8.963994681835174561e-03,6.071577221155166626e-02,5.659085884690284729e-02,1.529780589044094086e-02,5.799895524978637695e-02,4.799222573637962341e-02,5.263968557119369507e-02,3.663983568549156189e-02,4.173607006669044495e-02,-3.218580037355422974e-02,3.961194306612014771e-02,5.417171120643615723e-02,2.145210839807987213e-02,5.294601619243621826e-02,5.479409173130989075e-02,-2.349360659718513489e-02,1.852892525494098663e-02,6.463546305894851685e-04,6.295629590749740601e-02,4.057521373033523560e-02,4.409254714846611023e-02,4.758775234222412109e-02,2.035775966942310333e-02,5.057043582201004028e-02,5.396676063537597656e-02,5.081307515501976013e-02,4.008714109659194946e-02,6.416646391153335571e-02,1.228868402540683746e-02,3.897023573517799377e-02,5.040837824344635010e-02,-1.988794654607772827e-03,4.056074097752571106e-02,-1.256595738232135773e-02,1.294570565223693848e-01,8.355262875556945801e-02,5.385694652795791626e-02,5.963739007711410522e-03,4.825553297996520996e-02,5.495316162705421448e-02,5.128674209117889404e-03,6.137055158615112305e-02,-8.200300857424736023e-03,4.917456954717636108e-02,1.766976341605186462e-02,6.636762619018554688e-02,9.695243835449218750e-02,5.018768832087516785e-02,-7.955990731716156006e-03,3.728961944580078125e-02,4.914738237857818604e-02,6.492104381322860718e-02,-3.324249386787414551e-02,1.461759209632873535e-02,-2.613418549299240112e-02,6.565849483013153076e-02,6.539884954690933228e-02,5.428596958518028259e-02,1.104698702692985535e-02,1.236273441463708878e-02,-3.012353554368019104e-02,1.011671498417854309e-02,9.483598172664642334e-03,-2.146079577505588531e-02,1.438762061297893524e-02,4.369034245610237122e-02,1.245857588946819305e-02,-5.971691571176052094e-03,5.467656254768371582e-02,5.071079358458518982e-02,6.526531279087066650e-02,5.720172822475433350e-02,3.974422439932823181e-02,6.258578598499298096e-02,5.979350954294204712e-02,6.983996182680130005e-02,7.245318591594696045e-02,4.922381043434143066e-02,1.039494853466749191e-02,-5.609981715679168701e-02,1.504767686128616333e-02,5.948685854673385620e-02,1.035151630640029907e-02,1.274539977312088013e-01,1.977403089404106140e-02,3.965885192155838013e-02,8.711080066859722137e-03,5.708219483494758606e-02,2.577641606330871582e-02,8.585216477513313293e-03,8.507984690368175507e-03,4.820358753204345703e-02,-4.720458295196294785e-03,9.839387610554695129e-03,7.833660393953323364e-02,6.347712874412536621e-02,4.628793895244598389e-02,6.263595074415206909e-02,7.679143548011779785e-02,1.067999750375747681e-02,4.337728023529052734e-02,-7.401837501674890518e-03,4.769418388605117798e-02,5.576995760202407837e-02,6.658378243446350098e-02,4.117806255817413330e-02,4.329662770032882690e-02,1.393886562436819077e-02,-1.759216375648975372e-02,4.108686000108718872e-02,4.097368195652961731e-02,1.183641254901885986e-01,8.460547775030136108e-02,7.971979677677154541e-02,8.333395421504974365e-02,-1.674151979386806488e-02,1.962191052734851837e-02,1.206936463713645935e-01,1.302524004131555557e-02,1.367493569850921631e-01,1.757115498185157776e-02,1.038465276360511780e-02,3.816752880811691284e-02,1.015802845358848572e-02,8.806264400482177734e-02,6.030659005045890808e-02,5.862618237733840942e-02,1.608692854642868042e-02,2.272370830178260803e-02,8.255690336227416992e-03,1.345442794263362885e-02,-1.957151293754577637e-02,6.279854476451873779e-02,3.418077528476715088e-02,3.937571495771408081e-02,1.333627104759216309e-02,5.403843149542808533e-02,5.367701128125190735e-02,3.581237792968750000e-02,-8.637959137558937073e-03,4.238114506006240845e-02,6.950819492340087891e-02,6.919560581445693970e-02,7.790334057062864304e-03,4.447896033525466919e-02,5.563963949680328369e-02,4.133574664592742920e-02,3.260904923081398010e-02,1.680427044630050659e-02,4.685615375638008118e-02,-6.208395585417747498e-03,6.815314292907714844e-02,1.477456744760274887e-02,8.060948923230171204e-03,4.623110964894294739e-02,5.943863093852996826e-02,1.732234470546245575e-02,3.781564533710479736e-02,1.796403527259826660e-02,-1.799721270799636841e-03,1.429997235536575317e-01,4.522441700100898743e-02,2.410205081105232239e-02,5.524241179227828979e-02,3.387608379125595093e-02,5.849797278642654419e-02,-3.475731611251831055e-02,5.252543836832046509e-02,6.222653388977050781e-02,3.123401291668415070e-02,4.365525394678115845e-02,-1.681499555706977844e-02,-9.777461178600788116e-03,3.674724325537681580e-02,8.456861972808837891e-02,5.554222688078880310e-02,5.464380979537963867e-02,5.551989004015922546e-02,2.624579146504402161e-02,8.983274921774864197e-03,1.089643388986587524e-01,4.157820716500282288e-02,5.405851453542709351e-02,7.897032797336578369e-02,9.897125884890556335e-03,5.563557147979736328e-02,7.239037752151489258e-02,5.337073281407356262e-02,4.748571664094924927e-02,2.316427417099475861e-02,-1.985649578273296356e-02,-1.263056322932243347e-02,5.474886670708656311e-02,-9.802356362342834473e-04,1.147693675011396408e-02,4.165309667587280273e-02,7.152654230594635010e-02,-1.053646951913833618e-02,1.754472404718399048e-02,8.066016435623168945e-02,1.482030283659696579e-02,-5.593411624431610107e-03,2.304381690919399261e-02,5.102312564849853516e-02,1.636826060712337494e-02,3.881157934665679932e-02,4.637207835912704468e-03,1.229280047118663788e-02,3.959164023399353027e-02,3.657576441764831543e-02,6.193711608648300171e-02,1.857445016503334045e-02,4.708181321620941162e-02,1.699219271540641785e-02,4.718012735247612000e-02,6.108052283525466919e-02,1.178643852472305298e-02,3.583572804927825928e-02,8.741209656000137329e-02,3.940952569246292114e-02,6.339986622333526611e-02,7.348672300577163696e-02,1.864171028137207031e-02,9.831586480140686035e-02,1.092780847102403641e-02,3.719109296798706055e-02,5.583980306982994080e-02,5.702193453907966614e-02,3.984925150871276855e-02,-3.337252140045166016e-02,5.829037353396415710e-02,3.382561355829238892e-02,1.795441284775733948e-02,5.610742419958114624e-02,3.043058514595031738e-02,4.428913444280624390e-02,5.087711662054061890e-02,3.731191903352737427e-02,-1.376787014305591583e-02,1.937281340360641479e-03,-2.019782364368438721e-02,6.620983034372329712e-02,8.505776524543762207e-03,4.324640706181526184e-02,6.341682374477386475e-02,2.312915027141571045e-02,5.486559122800827026e-02,5.733882263302803040e-02,3.503972291946411133e-02,1.427815482020378113e-02,2.005732432007789612e-02,3.636680543422698975e-02,5.201204121112823486e-02,5.371091514825820923e-02,7.394446432590484619e-02,5.379383638501167297e-02,1.247054152190685272e-02,2.344852313399314880e-02,1.191021036356687546e-02,4.434842616319656372e-02,4.656706005334854126e-02,4.071868583559989929e-02,2.193677984178066254e-02,5.008334666490554810e-02,6.487576663494110107e-02,1.384104322642087936e-02,6.372419744729995728e-02,9.755108505487442017e-03,4.836311563849449158e-02,4.952673241496086121e-02,1.253598183393478394e-02,2.609356679022312164e-02,5.015898868441581726e-02,-2.980221062898635864e-03,5.105826258659362793e-02,1.352838519960641861e-02,4.563116282224655151e-02,3.633335232734680176e-02,3.695334494113922119e-02,6.023168563842773438e-02,3.387594968080520630e-02,4.071849957108497620e-02,5.904709920287132263e-02,1.491951383650302887e-02,5.585376918315887451e-02,6.831111758947372437e-02,5.238857492804527283e-02,4.486585408449172974e-02,5.749756097793579102e-02,2.007154561579227448e-02,4.513929411768913269e-02,6.074997037649154663e-02,8.203100413084030151e-03,7.610256969928741455e-02,5.098091438412666321e-02,3.834298253059387207e-02,1.438065338879823685e-02,5.417041480541229248e-02,8.604429662227630615e-02,-7.064472883939743042e-03,1.619580015540122986e-02,1.204051543027162552e-02,8.720581978559494019e-02,3.394726663827896118e-02,5.285814404487609863e-02,3.542167320847511292e-02,8.565682917833328247e-03,4.367754980921745300e-02,9.613109752535820007e-03,4.382231086492538452e-02,4.412611573934555054e-02,2.900957874953746796e-02,1.292512565851211548e-02,4.441429302096366882e-02,3.730786591768264771e-02,3.599527850747108459e-02,9.137485921382904053e-02,3.768413513898849487e-02,4.199884459376335144e-02,8.370374143123626709e-02,4.384484514594078064e-02,6.182837858796119690e-02,5.406011641025543213e-02,6.006981059908866882e-02,1.404000818729400635e-02,1.771626174449920654e-01,1.247952319681644440e-02,2.685488387942314148e-02,1.900559850037097931e-02,1.942632645368576050e-01,6.388960033655166626e-02,1.903137005865573883e-02,2.260365709662437439e-02,9.577760100364685059e-02,4.945185780525207520e-02,9.324066340923309326e-03,6.554282456636428833e-02,8.570057339966297150e-03,-7.652539759874343872e-03,8.306052535772323608e-03,5.054410174489021301e-02,3.378631174564361572e-02,7.196536660194396973e-02,1.747360080480575562e-02,1.093316823244094849e-02,4.899685084819793701e-02,5.388993769884109497e-02,4.799898341298103333e-02,3.842525929212570190e-02,7.372379302978515625e-03,1.571327820420265198e-02,3.853024914860725403e-02,2.143423072993755341e-02,9.067287668585777283e-03,-2.839192748069763184e-04,1.306467596441507339e-02,-2.737442776560783386e-02,9.092865511775016785e-03,5.786061659455299377e-02,1.187113858759403229e-02,5.941759794950485229e-02,1.481558755040168762e-02,4.856383800506591797e-02,6.201478838920593262e-02,3.875978291034698486e-02,-1.951394788920879364e-02,1.613686978816986084e-02,5.394747853279113770e-02,2.416090667247772217e-02,6.464678794145584106e-03,2.305116876959800720e-02,1.203069649636745453e-02,5.077031999826431274e-02,1.786887459456920624e-02,1.360528264194726944e-02,5.559474229812622070e-02,-3.141301870346069336e-02,5.222729593515396118e-02,3.928168863058090210e-02,-4.552563279867172241e-02,2.306704595685005188e-02,3.620441257953643799e-02,-2.882326021790504456e-03,1.257016137242317200e-02,9.741814434528350830e-02,1.786725968122482300e-02,4.699989408254623413e-02,6.650727987289428711e-02,5.494300276041030884e-02,1.253962051123380661e-02,5.159986391663551331e-02,1.589784026145935059e-02,3.443330526351928711e-02,1.905068382620811462e-02,-3.544303402304649353e-02,-1.533108763396739960e-03,6.032871082425117493e-02,7.419653236865997314e-02,-5.956388544291257858e-03,1.349461823701858521e-01,-1.681728288531303406e-02,4.765957593917846680e-02,6.302278488874435425e-03,4.821024090051651001e-02,6.506102532148361206e-02,3.780765831470489502e-02,3.936336189508438110e-02,1.596960052847862244e-02,4.424025863409042358e-02,9.460827335715293884e-03,5.367890000343322754e-03,5.862738937139511108e-02,8.619762025773525238e-03,-1.026621833443641663e-02,1.549796666949987411e-02,1.169406436383724213e-02,7.387658581137657166e-03,7.459105551242828369e-02,1.322881504893302917e-02,1.844875514507293701e-03,2.252788469195365906e-02,4.368415474891662598e-02,-2.755012735724449158e-02,1.400640513747930527e-02,4.151151329278945923e-02,-6.185527890920639038e-03,4.491198807954788208e-02,6.141444295644760132e-02,1.119230780750513077e-02,5.758773535490036011e-02,9.370055049657821655e-03,5.416438356041908264e-02,2.677635289728641510e-02,7.361717522144317627e-02,1.154696103185415268e-02,3.574680909514427185e-02,1.259440183639526367e-02,4.641060531139373779e-02,2.365853404626250267e-03,1.482056546956300735e-02,2.498697116971015930e-02,5.049330368638038635e-02,9.417884051799774170e-03,5.916327983140945435e-02,7.182554155588150024e-02,1.229585520923137665e-02,7.256200537085533142e-03,1.917252242565155029e-01,-1.874575018882751465e-02,2.928007580339908600e-02,4.192053526639938354e-02,2.797800861299037933e-02,3.653879463672637939e-02,-1.559621002525091171e-02,7.393676042556762695e-02,4.589177668094635010e-02,-1.891420781612396240e-02,3.493272885680198669e-02,1.718021370470523834e-02,1.211963146924972534e-01,5.012311786413192749e-02,4.395608976483345032e-02,4.538493603467941284e-02,3.164273500442504883e-02,5.125504732131958008e-02,3.940703347325325012e-02,1.648938283324241638e-02,6.117829680442810059e-02,4.501326382160186768e-02,5.012462288141250610e-02,2.215100824832916260e-02,4.720108211040496826e-02,3.410322219133377075e-02,-1.719513162970542908e-02,1.105246171355247498e-01,4.008854180574417114e-02,1.241865083575248718e-01,2.954670693725347519e-03,1.039949432015419006e-02,-1.371713168919086456e-02,2.745269425213336945e-02,1.093776375055313110e-01,6.470754742622375488e-02,5.261177197098731995e-02,-9.988816455006599426e-03,1.578088849782943726e-03,4.052194952964782715e-02,8.999380469322204590e-02,9.332571923732757568e-02,5.956087261438369751e-02,1.321457885205745697e-02,5.070161074399948120e-02,7.892768830060958862e-03,5.814361944794654846e-02,2.665231004357337952e-04,3.256314247846603394e-02,7.174563407897949219e-02,6.972162425518035889e-02,5.554369091987609863e-02,1.552848797291517258e-02,5.914445221424102783e-02,5.460555106401443481e-02,3.526753513142466545e-03,1.387331448495388031e-02,6.689208559691905975e-03,4.217416793107986450e-02,7.287797518074512482e-03,4.526115208864212036e-02,4.161399975419044495e-02,4.935455694794654846e-02,1.058718562126159668e-02,1.056172698736190796e-02,5.465784668922424316e-02,5.483788996934890747e-02,-3.848002851009368896e-02,6.323964148759841919e-02,1.805870980024337769e-02,1.276954263448715210e-01,4.126287251710891724e-02,1.638460531830787659e-02,3.956750035285949707e-02,4.813612997531890869e-02,2.321775816380977631e-02,5.868696421384811401e-02,5.085030943155288696e-02,3.155780583620071411e-02,1.484062056988477707e-03,8.714569732546806335e-03,5.714149773120880127e-02,4.032978415489196777e-02,2.129915542900562286e-02,5.279916897416114807e-02,6.272055208683013916e-02,1.476448476314544678e-01,-1.107841916382312775e-02,1.239640824496746063e-02,9.838091582059860229e-02,1.789419725537300110e-02,4.080021381378173828e-02,6.047865748405456543e-02,3.459910303354263306e-02,5.137392506003379822e-02,6.316326558589935303e-02,1.466444134712219238e-02,5.974574014544487000e-02,5.295366793870925903e-02,3.216823935508728027e-02,2.780985459685325623e-02,9.642016142606735229e-03,5.681495741009712219e-02,7.411594688892364502e-02,-9.087161161005496979e-04,1.143170520663261414e-02,5.566683784127235413e-02,5.266425758600234985e-02,6.788378953933715820e-02,1.425206288695335388e-02,9.157444350421428680e-03,-1.080901734530925751e-02,1.084011420607566833e-02,3.735924884676933289e-02,-1.465864293277263641e-02,2.661358192563056946e-02,5.213633179664611816e-02,1.221319381147623062e-02,4.387351125478744507e-02,1.619999296963214874e-02,5.288669094443321228e-02,-5.665047094225883484e-03,4.838043823838233948e-03,1.182540692389011383e-02,2.002416737377643585e-02,4.013437032699584961e-02,7.610019296407699585e-03,-1.208396442234516144e-02,5.391433835029602051e-03,6.342761963605880737e-02,1.532288268208503723e-02,6.168881058692932129e-02,8.264701068401336670e-02,5.088689737021923065e-03,3.603632003068923950e-02,3.340571746230125427e-02,1.711837947368621826e-02,5.222877860069274902e-02,7.043227553367614746e-02,2.348474226891994476e-02,5.341948568820953369e-02,1.056909933686256409e-02,2.242714911699295044e-02,1.151983439922332764e-02,1.537439320236444473e-02,-2.139526419341564178e-02,5.605629831552505493e-02,3.871606290340423584e-02,5.287871882319450378e-02,-5.198867991566658020e-03,2.544050291180610657e-02,1.530093606561422348e-02,5.575149506330490112e-02,2.317702025175094604e-02,4.691938310861587524e-02,-2.455497905611991882e-02,1.524905022233724594e-02,2.537391521036624908e-02,6.220285221934318542e-02,2.477011084556579590e-02,3.191706538200378418e-02,2.266465686261653900e-03,6.651680171489715576e-02,7.636563852429389954e-03,4.717742279171943665e-02,7.077615708112716675e-02,3.371262550354003906e-02,1.240485347807407379e-02,2.808748930692672729e-02,2.116926573216915131e-02,6.181979179382324219e-02,1.659075729548931122e-02,-2.367296628654003143e-02,-1.866593398153781891e-02,6.202401593327522278e-02,1.079866886138916016e-01,5.099982023239135742e-02,4.823284223675727844e-02,4.375076666474342346e-02,1.104808412492275238e-02,9.531337767839431763e-03,6.055735796689987183e-02,3.113153204321861267e-02,1.005813479423522949e-01,1.213654596358537674e-02,3.280712664127349854e-02,1.030503027141094208e-02,4.370690882205963135e-02,1.137202233076095581e-02,7.863549143075942993e-02,4.707125574350357056e-02,3.400534763932228088e-02,5.044177174568176270e-02,3.961382806301116943e-02,9.078381955623626709e-02,1.222353801131248474e-02,5.848938226699829102e-02,1.210522279143333435e-02,2.545390278100967407e-02,9.015398472547531128e-02,-3.126626834273338318e-03,1.025173813104629517e-02,-3.304942697286605835e-02,5.003825947642326355e-02,7.420293241739273071e-02,-1.050235331058502197e-02,4.188402742147445679e-02,4.511965438723564148e-02,7.730901986360549927e-02,3.796046227216720581e-02,4.963652789592742920e-02,1.465715654194355011e-02,7.366055995225906372e-02,5.232046917080879211e-02,9.426014497876167297e-03,1.717347651720046997e-03,5.104314163327217102e-02,4.600936174392700195e-02,-3.894383087754249573e-02,1.240160688757896423e-01,6.430621445178985596e-02,2.818904817104339600e-02,-1.399670448154211044e-02,2.992457151412963867e-02,1.226785313338041306e-02,3.044668585062026978e-03,9.071193635463714600e-02,4.357092827558517456e-02,6.697802245616912842e-02,1.315389573574066162e-01,1.399593055248260498e-01,2.251985855400562286e-02,3.513568267226219177e-02,1.129014864563941956e-01,6.224165111780166626e-02,3.908510506153106689e-02,2.941619977355003357e-02,-1.070777419954538345e-02,2.227906882762908936e-02,4.818636551499366760e-02,6.624011695384979248e-02,2.085578441619873047e-02,5.617839097976684570e-02,1.305295526981353760e-02,5.133533105254173279e-02,1.538866460323333740e-01,4.965637996792793274e-02,4.465411417186260223e-03,1.242849882692098618e-02,6.671085208654403687e-02,7.371222972869873047e-02,1.226881612092256546e-02,5.394580960273742676e-02,5.768994987010955811e-02,4.551004618406295776e-02,8.021578937768936157e-02,4.519305378198623657e-02,1.590591296553611755e-02,7.973413914442062378e-03,5.839589238166809082e-02,5.229954421520233154e-02,5.703263729810714722e-02,5.432818084955215454e-03,5.749933421611785889e-03,4.484518617391586304e-02,5.308157950639724731e-02,4.015134274959564209e-02,8.924089372158050537e-02,3.703382611274719238e-02,2.597828954458236694e-02,6.477610766887664795e-02,5.997341126203536987e-02,8.471879363059997559e-02,-1.836216077208518982e-02,4.716015979647636414e-02,-1.247030310332775116e-02,7.046434283256530762e-02,2.507582120597362518e-02,5.587095394730567932e-02,4.041949659585952759e-02,3.401290252804756165e-02,4.859678819775581360e-02,6.272067129611968994e-02,6.157047301530838013e-02,7.173879444599151611e-02,5.835188552737236023e-02,4.666712135076522827e-02
5.833252146840095520e-02,-1.927156560122966766e-02,1.327854953706264496e-02,-3.359192982316017151e-02,2.750931680202484131e-02,2.028129808604717255e-02,4.472134634852409363e-02,2.839784882962703705e-02,4.532557725906372070e-02,3.923505544662475586e-02,4.820847511291503906e-02,3.366905823349952698e-02,1.989330351352691650e-02,4.543290287256240845e-02,4.041190445423126221e-02,2.694783359766006470e-02,3.018812090158462524e-02,3.445164486765861511e-02,5.985853821039199829e-02,2.816367745399475098e-01,4.170340299606323242e-02,5.496337264776229858e-02,3.587424382567405701e-02,3.589017316699028015e-02,2.156014926731586456e-02,4.447559639811515808e-02,8.648265153169631958e-03,2.838473394513130188e-02,-3.216238692402839661e-03,3.057099878787994385e-02,3.065088763833045959e-02,1.014938764274120331e-02,3.098790906369686127e-02,5.118530243635177612e-02,4.654038697481155396e-02,3.519439697265625000e-02,2.402461878955364227e-02,1.331131160259246826e-01,4.537395015358924866e-02,2.707244642078876495e-02,9.412531554698944092e-02,4.408711567521095276e-02,1.441058330237865448e-02,1.036457195878028870e-01,4.281714931130409241e-02,4.184712842106819153e-02,5.229377001523971558e-02,2.774668112397193909e-02,3.924459591507911682e-02,5.059780925512313843e-02,3.903387486934661865e-02,2.344152517616748810e-02,3.942989185452461243e-02,1.187981069087982178e-01,2.913335524499416351e-02,5.918671935796737671e-02,3.853051364421844482e-02,3.288811445236206055e-02,4.724014177918434143e-02,4.152222722768783569e-02,1.139160525053739548e-02,2.785507589578628540e-02,3.311259299516677856e-02,1.136873103678226471e-02,3.756146878004074097e-02,5.302363261580467224e-02,3.422509878873825073e-02,3.097837977111339569e-02,4.976198077201843262e-02,-9.682934731245040894e-03,3.822245821356773376e-02,2.178602479398250580e-02,3.185632824897766113e-02,1.734929159283638000e-02,4.555642604827880859e-02,4.502461105585098267e-02,3.540678322315216064e-02,3.857193514704704285e-02,3.256045281887054443e-02,1.678001694381237030e-02,3.890637680888175964e-02,3.360151126980781555e-02,5.732573196291923523e-02,1.333961915224790573e-02,4.957517981529235840e-02,3.489249199628829956e-02,3.959419205784797668e-02,3.625621646642684937e-02,4.320680722594261169e-02,3.378294035792350769e-02,-1.037515327334403992e-02,3.802321478724479675e-02,6.877015531063079834e-02,3.950239345431327820e-02,2.558814361691474915e-02,3.946962580084800720e-02,4.259560257196426392e-02,2.734194509685039520e-02,9.642396122217178345e-02,-5.272815376520156860e-02,2.393849752843379974e-02,1.110146753489971161e-02,6.911943852901458740e-02,4.705044999718666077e-02,4.036841168999671936e-02,9.106499142944812775e-03,3.717970848083496094e-02,2.345985360443592072e-02,1.651303470134735107e-02,2.979963645339012146e-02,4.500896483659744263e-02,4.636479169130325317e-02,6.501254439353942871e-02,1.934338919818401337e-02,3.087911754846572876e-02,3.309199586510658264e-02,3.194547444581985474e-02,2.335203811526298523e-02,2.521927095949649811e-02,3.859418630599975586e-02,4.166752099990844727e-02,2.956711873412132263e-02,2.067266032099723816e-02,-6.310500204563140869e-03,2.112425491213798523e-02,3.731910139322280884e-02,4.504420608282089233e-02,3.431895375251770020e-02,3.235698491334915161e-02,4.322663694620132446e-02,3.733323514461517334e-02,2.607365325093269348e-02,9.459302574396133423e-02,3.697839565575122833e-03,1.755824685096740723e-02,1.633374765515327454e-02,2.751639485359191895e-02,-8.524582721292972565e-03,7.649688981473445892e-03,2.303458936512470245e-02,3.285316750407218933e-03,2.401481941342353821e-02,4.647155106067657471e-02,3.703758493065834045e-02,6.002940237522125244e-02,3.480272367596626282e-02,4.093827307224273682e-02,-7.520018517971038818e-02,4.480391368269920349e-02,2.127890475094318390e-02,3.672251850366592407e-02,4.668166488409042358e-02,-9.106596931815147400e-03,4.796889051795005798e-02,9.414660744369029999e-03,3.843975812196731567e-02,4.641839489340782166e-02,2.622768096625804901e-02,3.908547386527061462e-02,6.908833980560302734e-02,5.518670380115509033e-02,3.253426402807235718e-02,4.344312846660614014e-02,4.620078206062316895e-02,3.619968891143798828e-02,6.224139407277107239e-02,3.570360317826271057e-02,3.584029898047447205e-02,4.737457260489463806e-02,4.389966279268264771e-02,3.391727805137634277e-02,4.404941201210021973e-02,1.504517346620559692e-02,4.343537241220474243e-02,1.094922646880149841e-01,3.904734551906585693e-02,5.170203000307083130e-02,8.451913297176361084e-02,3.567479178309440613e-02,4.639916121959686279e-02,1.104918718338012695e-01,-1.418480090796947479e-02,3.579130768775939941e-02,5.157303437590599060e-02,4.606825485825538635e-02,1.605600118637084961e-02,6.126866489648818970e-02,3.910294920206069946e-02,3.284849226474761963e-02,4.733411967754364014e-02,4.113199189305305481e-03,4.529865831136703491e-02,-1.014583837240934372e-02,5.101102218031883240e-02,6.862396746873855591e-02,3.395380452275276184e-02,4.912856966257095337e-02,3.888051956892013550e-02,5.031694844365119934e-02,4.432805255055427551e-02,3.724871575832366943e-02,4.880667477846145630e-02,4.016096517443656921e-02,-1.039703376591205597e-03,4.067178070545196533e-02,1.775619015097618103e-02,3.053169697523117065e-02,1.018591225147247314e-02,6.326051801443099976e-02,2.404620125889778137e-02,3.601241856813430786e-02,3.854630142450332642e-02,3.717424720525741577e-02,6.571237742900848389e-02,5.428227037191390991e-02,5.414674431085586548e-02,5.106630176305770874e-02,4.596613347530364990e-02,3.415954113006591797e-02,1.391252409666776657e-02,2.483660914003849030e-02,4.569674283266067505e-02,4.331550002098083496e-02,8.863915503025054932e-02,1.628845930099487305e-02,4.122596979141235352e-02,2.832394279539585114e-02,2.955931797623634338e-02,4.217216372489929199e-02,8.112256228923797607e-02,2.284766733646392822e-02,3.085483983159065247e-02,3.225880861282348633e-02,4.915070161223411560e-02,6.659995019435882568e-02,4.374691098928451538e-02,3.458257392048835754e-02,-7.883556187152862549e-03,1.631000265479087830e-02,1.889265328645706177e-02,4.965281859040260315e-02,3.607267513871192932e-02,-1.291160844266414642e-02,4.796076565980911255e-02,6.225464120507240295e-02,2.356882207095623016e-02,2.257663384079933167e-02,2.111689373850822449e-02,3.532983362674713135e-02,3.388222679495811462e-02,3.203551471233367920e-02,4.118692502379417419e-02,5.048878118395805359e-02,3.457776829600334167e-02,4.070878028869628906e-02,-6.612111348658800125e-03,3.441850841045379639e-02,4.157346859574317932e-02,4.154093191027641296e-02,3.023946657776832581e-02,8.116281777620315552e-02,3.421257063746452332e-02,9.620031341910362244e-03,4.425238817930221558e-02,3.923414275050163269e-02,3.979579731822013855e-02,4.141546785831451416e-02,4.678442701697349548e-02,4.291170462965965271e-02,2.616515941917896271e-02,4.012855514883995056e-02,3.714981302618980408e-02,4.366464167833328247e-02,3.302234411239624023e-02,4.261115193367004395e-02,2.727020531892776489e-02,3.625115007162094116e-02,4.022915288805961609e-02,2.498921193182468414e-02,3.765556961297988892e-02,4.394125193357467651e-02,1.902164705097675323e-02,2.114654704928398132e-02,1.806775294244289398e-02,4.713179916143417358e-02,3.612265735864639282e-02,4.136076197028160095e-02,3.941012173891067505e-02,3.521917015314102173e-02,7.502720504999160767e-02,3.644515946507453918e-02,3.802358731627464294e-02,3.954479843378067017e-02,3.386325761675834656e-02,3.323367610573768616e-02,3.379864990711212158e-02,4.579330235719680786e-02,2.135317027568817139e-02,4.037098586559295654e-02,-6.065284367650747299e-03,9.536540508270263672e-02,7.819982618093490601e-02,4.754668474197387695e-02,3.979843854904174805e-02,4.472196847200393677e-02,4.394060000777244568e-02,3.172036260366439819e-02,3.863729909062385559e-02,-1.440154016017913818e-02,3.950883448123931885e-02,2.331029810011386871e-02,3.863103315234184265e-02,7.520450651645660400e-02,3.141374513506889343e-02,-3.327704221010208130e-02,3.741888701915740967e-02,4.561964422464370728e-02,5.179340764880180359e-02,2.084706164896488190e-02,4.424669966101646423e-02,6.109993904829025269e-02,4.811768978834152222e-02,5.347544699907302856e-02,8.338610827922821045e-02,4.347598925232887268e-02,9.202064014971256256e-03,1.926659792661666870e-02,5.534547381103038788e-03,9.086349979043006897e-03,-9.911362081766128540e-03,1.863201893866062164e-02,3.813732415437698364e-02,3.660938143730163574e-02,-1.364106498658657074e-02,7.196316868066787720e-02,7.013247162103652954e-02,4.162462800741195679e-02,4.563250020146369934e-02,3.871617838740348816e-02,3.146241232752799988e-02,3.867467120289802551e-02,5.175542831420898438e-02,4.043274372816085815e-02,4.040303081274032593e-02,2.903885766863822937e-02,4.869011789560317993e-02,1.210192684084177017e-02,3.557667881250381470e-02,4.813541471958160400e-02,1.008020192384719849e-01,3.244594857096672058e-02,3.904551640152931213e-02,-2.010177820920944214e-03,8.820771425962448120e-02,3.193002939224243164e-02,3.299781680107116699e-02,5.443206056952476501e-03,3.826599568128585815e-02,3.177299164235591888e-03,-4.141302779316902161e-03,3.788037598133087158e-02,3.437762707471847534e-02,4.563342407345771790e-02,5.633660778403282166e-02,5.134980008006095886e-02,3.610238060355186462e-02,4.650170356035232544e-02,-2.235368825495243073e-02,4.528546705842018127e-02,5.622437968850135803e-02,4.492548480629920959e-02,3.778453916311264038e-02,3.778780251741409302e-02,1.358088292181491852e-02,-4.107743036001920700e-03,3.861248493194580078e-02,3.950316831469535828e-02,9.929205477237701416e-02,6.736025214195251465e-02,6.288953870534896851e-02,6.966327130794525146e-02,6.211252883076667786e-03,2.326930500566959381e-02,9.002224355936050415e-02,1.606868393719196320e-02,1.287247240543365479e-01,1.218036375939846039e-02,7.017463445663452148e-03,4.294187575578689575e-02,4.321506991982460022e-02,6.293350458145141602e-02,4.159566387534141541e-02,3.506835177540779114e-02,2.162164263427257538e-02,2.194094285368919373e-02,3.755005449056625366e-02,5.006369203329086304e-03,1.090431772172451019e-02,6.378366798162460327e-02,1.871534064412117004e-02,4.341631010174751282e-02,4.389888420701026917e-02,3.966226056218147278e-02,3.976018354296684265e-02,3.282572701573371887e-02,-1.431367732584476471e-02,3.741497918963432312e-02,3.918195143342018127e-02,5.786674097180366516e-02,-1.118160970509052277e-02,3.976498544216156006e-02,3.108638152480125427e-02,3.236540779471397400e-02,3.225314244627952576e-02,2.491131052374839783e-02,3.887017443776130676e-02,-2.765277400612831116e-03,4.190609604120254517e-02,1.986390538513660431e-02,1.482982188463211060e-02,4.142910242080688477e-02,2.892670407891273499e-02,2.912123315036296844e-02,4.081305488944053650e-02,4.187368974089622498e-02,2.957317978143692017e-02,1.370286941528320312e-01,5.444725602865219116e-02,3.259717300534248352e-02,4.047763347625732422e-02,2.201770618557929993e-02,4.337845370173454285e-02,-6.351536512374877930e-02,3.093259781599044800e-02,3.444547206163406372e-02,3.629835695028305054e-02,4.062420874834060669e-02,-1.545996498316526413e-02,-1.244116853922605515e-02,3.396458923816680908e-02,6.064046919345855713e-02,8.727420866489410400e-02,4.314687475562095642e-02,4.617442563176155090e-02,2.761051617562770844e-02,2.265558019280433655e-02,8.808153122663497925e-02,4.407989233732223511e-02,3.609842061996459961e-02,5.761230736970901489e-02,2.595909684896469116e-02,3.759920597076416016e-02,6.734178960323333740e-02,6.754217296838760376e-02,3.553511202335357666e-02,3.112584352493286133e-02,1.090560201555490494e-02,-1.321233250200748444e-02,4.566316306591033936e-02,2.241025678813457489e-02,1.264292653650045395e-02,5.293272808194160461e-02,3.832789137959480286e-02,-4.175408929586410522e-02,1.548524294048547745e-02,5.687632411718368530e-02,2.022431977093219757e-02,2.213146537542343140e-02,3.034930489957332611e-02,4.282793775200843811e-02,2.063732035458087921e-02,2.446520887315273285e-02,-3.250313922762870789e-03,1.142494007945060730e-02,3.728256374597549438e-02,3.389793261885643005e-02,4.137790575623512268e-02,1.036757975816726685e-02,3.789686784148216248e-02,3.003478795289993286e-02,4.176647961139678955e-02,3.660883754491806030e-02,4.268355295062065125e-02,3.579941391944885254e-02,6.359282135963439941e-02,4.641697928309440613e-02,4.004744440317153931e-02,5.281976610422134399e-02,2.910320088267326355e-02,7.185813784599304199e-02,8.859558030962944031e-03,3.097266331315040588e-02,4.048789665102958679e-02,3.861978650093078613e-02,3.957663848996162415e-02,-4.924258589744567871e-02,4.763385653495788574e-02,3.282261639833450317e-02,2.631461992859840393e-02,3.823181241750717163e-02,2.780171297490596771e-02,4.492010176181793213e-02,5.788768827915191650e-02,3.683665394783020020e-02,-6.663367152214050293e-03,5.627898499369621277e-04,2.584953978657722473e-02,5.106898769736289978e-02,3.527305275201797485e-02,4.007748886942863464e-02,4.337285459041595459e-02,3.070268966257572174e-02,4.602963104844093323e-02,4.797474667429924011e-02,3.501975908875465393e-02,2.603782899677753448e-02,3.797479346394538879e-02,3.523215651512145996e-02,8.007168769836425781e-02,4.791375249624252319e-02,4.068876430392265320e-02,4.338563233613967896e-02,2.644998580217361450e-02,2.556210011243820190e-02,1.458971016108989716e-02,4.601477086544036865e-02,4.348287731409072876e-02,4.504917934536933899e-02,2.015949599444866180e-02,4.497254639863967896e-02,5.055841058492660522e-02,7.184613496065139771e-04,4.991358146071434021e-02,4.503929615020751953e-02,2.996353060007095337e-02,4.740821570158004761e-02,1.327946409583091736e-02,2.484905719757080078e-02,4.134099930524826050e-02,4.942200332880020142e-02,4.980400204658508301e-02,2.527372911572456360e-02,3.806791827082633972e-02,3.853324428200721741e-02,3.351812064647674561e-02,3.826269879937171936e-02,2.182526513934135437e-02,4.015947878360748291e-02,4.325088858604431152e-02,2.947710454463958740e-02,4.949000105261802673e-02,5.875220522284507751e-02,3.221044316887855530e-02,4.297050088644027710e-02,3.630078211426734924e-02,2.303090691566467285e-02,9.159091860055923462e-02,5.039086937904357910e-02,2.499467320740222931e-02,3.672423586249351501e-02,4.241806641221046448e-02,4.033613950014114380e-02,2.171726152300834656e-02,3.720000386238098145e-02,5.825969576835632324e-02,1.515684369951486588e-02,2.989564463496208191e-02,1.588849537074565887e-02,4.991448298096656799e-02,3.250021487474441528e-02,3.338593989610671997e-02,3.510444983839988708e-02,5.118746310472488403e-02,3.884095698595046997e-02,2.851556614041328430e-02,5.852552130818367004e-02,4.259996861219406128e-02,3.549280762672424316e-02,4.040186852216720581e-02,4.228434711694717407e-02,2.113091945648193359e-02,3.470693901181221008e-02,7.267602533102035522e-02,4.212855920195579529e-02,4.451253265142440796e-02,7.178727537393569946e-02,4.841695725917816162e-02,4.500228539109230042e-02,4.782257974147796631e-02,3.961026296019554138e-02,1.789567805826663971e-02,1.898518651723861694e-01,2.218216843903064728e-02,3.379172086715698242e-02,1.717882044613361359e-02,1.442008465528488159e-01,4.242476075887680054e-02,2.020929008722305298e-02,1.918238960206508636e-02,5.854516103863716125e-02,3.975459933280944824e-02,4.192877560853958130e-02,3.907673060894012451e-02,1.374457590281963348e-02,1.467224024236202240e-02,4.290865361690521240e-02,4.031743481755256653e-02,3.186276555061340332e-02,6.474401056766510010e-02,2.733058109879493713e-02,4.057153686881065369e-02,3.976800292730331421e-02,4.085756838321685791e-02,3.725836053490638733e-02,9.294634684920310974e-03,3.514522686600685120e-02,4.063150286674499512e-02,3.981370106339454651e-02,2.843670360743999481e-02,1.380969397723674774e-02,1.148461271077394485e-02,1.648033782839775085e-02,2.863339893519878387e-02,1.215256657451391220e-02,3.848051652312278748e-02,2.024073712527751923e-02,3.466127812862396240e-02,4.464412853121757507e-02,4.200838506221771240e-02,4.706719517707824707e-02,3.893445804715156555e-02,1.748945191502571106e-02,2.895952016115188599e-02,3.299673274159431458e-02,2.592633292078971863e-02,3.705276548862457275e-02,2.575921639800071716e-02,1.788807287812232971e-02,3.887930512428283691e-02,1.643960922956466675e-02,2.134297043085098267e-02,3.598269075155258179e-02,-5.386618524789810181e-02,4.491211473941802979e-02,4.105864465236663818e-02,2.739784494042396545e-02,2.273518033325672150e-02,3.360040858387947083e-02,4.811557941138744354e-03,6.170504726469516754e-03,5.482839420437812805e-02,2.942043729126453400e-02,5.273844301700592041e-02,5.858640000224113464e-02,4.025511071085929871e-02,1.761112362146377563e-02,3.646194934844970703e-02,1.098970230668783188e-02,3.384166210889816284e-02,3.183148428797721863e-02,-2.404072694480419159e-02,-6.998573429882526398e-03,1.025524884462356567e-01,4.513620585203170776e-02,1.860186457633972168e-03,1.260356605052947998e-01,-7.194076478481292725e-02,4.224966466426849365e-02,3.205823898315429688e-02,4.762785136699676514e-02,4.582352936267852783e-02,3.849940374493598938e-02,4.038906097412109375e-02,1.982604339718818665e-02,4.350969567894935608e-02,1.843971014022827148e-02,3.009665198624134064e-02,3.830666840076446533e-02,-4.169293679296970367e-03,-1.376827433705329895e-02,2.199222519993782043e-02,1.069192215800285339e-02,-8.742625825107097626e-03,4.665920138359069824e-02,2.120304852724075317e-02,1.935071684420108795e-02,3.184084594249725342e-02,4.310480132699012756e-02,-4.040798172354698181e-03,2.092612162232398987e-02,1.933008432388305664e-02,1.503304298967123032e-02,4.808747768402099609e-02,3.090790659189224243e-02,1.051185466349124908e-02,4.679080098867416382e-02,3.688446432352066040e-02,4.644777625799179077e-02,4.162498563528060913e-02,4.563694447278976440e-02,1.411562040448188782e-02,3.473156318068504333e-02,1.817589066922664642e-02,3.603219985961914062e-02,-4.993624519556760788e-03,1.396513264626264572e-02,2.726961299777030945e-02,6.463368237018585205e-02,1.269055157899856567e-02,4.516916722059249878e-02,5.844019725918769836e-02,1.339028961956501007e-02,-1.116839144378900528e-02,2.412623167037963867e-01,5.479536950588226318e-03,2.705540508031845093e-02,3.689932078123092651e-02,3.749278187751770020e-02,2.988042682409286499e-02,-6.531966384500265121e-03,3.863371536135673523e-02,4.250521957874298096e-02,1.530327182263135910e-02,2.366616763174533844e-02,2.182508260011672974e-02,9.272994101047515869e-02,3.435401618480682373e-02,1.850308850407600403e-02,2.182458154857158661e-02,3.134496882557868958e-02,4.801699519157409668e-02,6.227327510714530945e-02,1.345672085881233215e-02,4.417013376951217651e-02,5.498503148555755615e-02,3.854068741202354431e-02,2.665386721491813660e-02,4.897888004779815674e-02,2.676236629486083984e-02,2.061307895928621292e-03,1.191950142383575439e-01,4.395423084497451782e-02,9.813456237316131592e-02,-1.308982074260711670e-02,4.537647962570190430e-02,-6.515136361122131348e-02,3.313126042485237122e-02,1.001113951206207275e-01,4.121179133653640747e-02,4.795737937092781067e-02,3.117568558081984520e-03,-2.813481725752353668e-03,4.051575809717178345e-02,4.604356735944747925e-02,6.714256852865219116e-02,4.482781141996383667e-02,2.012352086603641510e-02,3.282384201884269714e-02,-9.007223881781101227e-03,4.635200649499893188e-02,2.158259786665439606e-02,3.576017543673515320e-02,4.394393041729927063e-02,4.018205031752586365e-02,3.001826442778110504e-02,1.425560005009174347e-02,9.387826919555664062e-02,4.579436779022216797e-02,-1.141428574919700623e-02,1.085140556097030640e-02,1.734085381031036377e-04,4.308887198567390442e-02,-9.522381238639354706e-03,2.846308983862400055e-02,4.203910380601882935e-02,4.564348608255386353e-02,4.044027999043464661e-02,1.563821919262409210e-02,3.562902286648750305e-02,5.151204764842987061e-02,-2.465554513037204742e-02,4.990213364362716675e-02,2.016653679311275482e-02,1.127433329820632935e-01,4.882960766553878784e-02,2.348140813410282135e-02,3.816414624452590942e-02,4.157470911741256714e-02,2.969732321798801422e-02,4.078462719917297363e-02,3.707548975944519043e-02,1.942694373428821564e-02,-3.502123057842254639e-03,-1.126601826399564743e-02,4.101236164569854736e-02,4.045584797859191895e-02,2.557571791112422943e-02,4.405996948480606079e-02,3.640403598546981812e-02,1.359238177537918091e-01,2.158701978623867035e-02,2.297340147197246552e-02,5.872466787695884705e-02,2.305120788514614105e-02,3.884982317686080933e-02,3.358242288231849670e-02,3.653715923428535461e-02,3.597423806786537170e-02,5.553234741091728210e-02,4.205400124192237854e-02,4.481702670454978943e-02,7.606180757284164429e-02,1.677553355693817139e-02,4.537087678909301758e-02,4.462035745382308960e-02,4.784920811653137207e-02,5.250062793493270874e-02,-5.505674984306097031e-03,1.267156563699245453e-03,6.190199032425880432e-02,3.222787752747535706e-02,5.487948656082153320e-02,1.542070973664522171e-02,9.900536388158798218e-03,1.769323274493217468e-02,3.792698681354522705e-02,3.247915580868721008e-02,-1.106721628457307816e-02,3.671477362513542175e-02,3.474098816514015198e-02,1.142021454870700836e-02,4.452921822667121887e-02,2.828571386635303497e-02,3.918350115418434143e-02,-8.927782997488975525e-03,2.815057709813117981e-02,4.636490717530250549e-02,2.012846246361732483e-02,5.678745731711387634e-02,3.613443300127983093e-02,-8.130749687552452087e-03,3.590606525540351868e-02,3.994518145918846130e-02,1.873281225562095642e-02,5.039401352405548096e-02,7.516628503799438477e-02,1.466813124716281891e-02,3.260373696684837341e-02,3.840187937021255493e-02,3.295601159334182739e-02,3.781071677803993225e-02,4.009194299578666687e-02,3.187356889247894287e-02,3.421591594815254211e-02,4.186470061540603638e-02,3.460656851530075073e-02,4.547250643372535706e-02,2.930359356105327606e-02,2.606357634067535400e-02,4.646710306406021118e-02,3.675015643239021301e-02,3.776051104068756104e-02,-5.267306230962276459e-03,2.079429104924201965e-02,3.977754712104797363e-02,3.960087522864341736e-02,2.280885353684425354e-02,4.731165990233421326e-02,-6.423320621252059937e-02,2.238793857395648956e-02,2.640611678361892700e-02,4.683032259345054626e-02,2.165073342621326447e-02,2.916210889816284180e-02,1.867425069212913513e-02,3.695905208587646484e-02,3.234417177736759186e-03,7.331394404172897339e-02,5.132329836487770081e-02,2.893594652414321899e-02,1.858459971845149994e-02,3.154826909303665161e-02,3.293533623218536377e-02,3.562405705451965332e-02,3.526490181684494019e-02,-5.051960702985525131e-03,2.027997933328151703e-02,4.704152047634124756e-02,7.842387259006500244e-02,4.332857578992843628e-02,3.845999017357826233e-02,2.843096852302551270e-02,2.113497070968151093e-02,3.273000195622444153e-02,3.313886746764183044e-02,2.623626589775085449e-02,5.637184157967567444e-02,1.243000477552413940e-02,3.199452906847000122e-02,9.400617331266403198e-03,4.438212886452674866e-02,4.144457355141639709e-02,4.157993942499160767e-02,4.678289964795112610e-02,3.647638484835624695e-02,4.188870266079902649e-02,5.946857482194900513e-02,8.572056889533996582e-02,1.517038419842720032e-02,3.292552381753921509e-02,4.144527018070220947e-02,3.350941836833953857e-02,6.730390340089797974e-02,-3.081696107983589172e-02,4.098882898688316345e-02,-9.415568411350250244e-02,4.019326344132423401e-02,5.733728408813476562e-02,4.252328351140022278e-02,5.233874171972274780e-02,3.315692394971847534e-02,5.303210392594337463e-02,2.063196524977684021e-02,4.662323370575904846e-02,3.868471086025238037e-02,5.836470052599906921e-02,3.663235902786254883e-02,1.413089409470558167e-02,-4.425129853188991547e-03,3.486563637852668762e-02,4.112329334020614624e-02,1.580258458852767944e-02,1.390712261199951172e-01,3.751308843493461609e-02,2.186803147196769714e-02,-8.453296497464179993e-03,3.328033536672592163e-02,1.246152631938457489e-02,2.988709136843681335e-02,4.909582063555717468e-02,4.297719150781631470e-02,3.863401710987091064e-02,1.150979250669479370e-01,1.173823624849319458e-01,2.468972280621528625e-02,3.468495979905128479e-02,1.111444383859634399e-01,4.342330992221832275e-02,3.557686507701873779e-02,2.007122337818145752e-02,-2.506401017308235168e-02,2.604644745588302612e-02,4.680636897683143616e-02,5.429980158805847168e-02,1.948237977921962738e-02,4.557534679770469666e-02,2.015607245266437531e-02,6.873392313718795776e-02,1.740446984767913818e-01,3.546721115708351135e-02,2.815838903188705444e-02,1.430358923971652985e-02,4.178952053189277649e-02,7.398949563503265381e-02,6.928929127752780914e-03,3.804475814104080200e-02,4.771536588668823242e-02,4.621362686157226562e-02,6.935703009366989136e-02,3.368861973285675049e-02,2.293514460325241089e-02,3.990854695439338684e-02,