2.992470934987068176e-02,6.764287501573562622e-02,-8.474865928292274475e-03,2.936605177819728851e-02,5.962206423282623291e-02,3.825638070702552795e-02,-1.536745950579643250e-02,8.175205439329147339e-03,8.167576976120471954e-03,1.270429044961929321e-02,-1.069570984691381454e-02,-9.196189045906066895e-02,5.028343573212623596e-02,1.808906719088554382e-02,7.123781368136405945e-03,2.961843274533748627e-02,9.245662949979305267e-03,8.180754259228706360e-03,8.216290175914764404e-02,-5.052047781646251678e-03,-1.645871102809906006e-01,-6.719793379306793213e-02,3.117002360522747040e-02,1.057711429893970490e-02,4.385972023010253906e-02,5.631628260016441345e-02,2.807758376002311707e-02,1.193097159266471863e-01,1.510688662528991699e-02,9.919218719005584717e-03,1.288353279232978821e-02,2.014510706067085266e-02,2.967226132750511169e-02,5.336906015872955322e-02,1.015251874923706055e-02,-5.849045235663652420e-03,-7.537264376878738403e-03,1.703772135078907013e-02,-1.493973471224308014e-02,9.107429534196853638e-02,2.144837751984596252e-03,-1.700719818472862244e-02,1.172540336847305298e-02,9.815637022256851196e-03,8.672765456140041351e-03,3.389911726117134094e-03,1.313806325197219849e-02,-6.812671199440956116e-03,2.151031792163848877e-02,5.579455941915512085e-02,9.700669907033443451e-03,2.530367113649845123e-02,1.456365548074245453e-02,-1.087635979056358337e-01,-1.437171548604965210e-02,8.077176287770271301e-03,1.124401111155748367e-02,-8.577374741435050964e-03,1.004376448690891266e-02,5.389440804719924927e-03,1.132576353847980499e-02,-4.230585880577564240e-03,5.387634038925170898e-02,1.648349873721599579e-02,1.338136382400989532e-02,5.679801106452941895e-02,7.703286409378051758e-02,7.731508463621139526e-03,6.724009290337562561e-03,-5.720175802707672119e-03,7.032627239823341370e-03,6.086008995771408081e-02,-1.798449456691741943e-02,2.601189166307449341e-02,4.614773020148277283e-02,2.989258617162704468e-03,6.327054463326931000e-03,1.141205243766307831e-02,1.001077368855476379e-01,4.610301181674003601e-02,8.276514708995819092e-04,9.913967922329902649e-03,-8.586531504988670349e-03,8.517540991306304932e-03,5.900180712342262268e-02,-1.146138366311788559e-02,1.086206641048192978e-02,-8.016133680939674377e-03,-7.393334805965423584e-02,4.307113215327262878e-02,2.567187696695327759e-02,1.396940182894468307e-02,7.957873865962028503e-03,-1.308962702751159668e-03,5.016486346721649170e-02,-1.789680682122707367e-03,2.803985960781574249e-02,9.563578292727470398e-03,-1.981984823942184448e-02,-9.967554360628128052e-03,1.106795594096183777e-01,4.539700597524642944e-02,2.581495046615600586e-02,1.587653346359729767e-02,7.361238822340965271e-03,1.063886377960443497e-02,1.108724623918533325e-02,1.332051772624254227e-02,2.217226848006248474e-02,-1.340219471603631973e-02,3.629629313945770264e-02,5.386925116181373596e-02,-9.713135659694671631e-05,4.650266095995903015e-02,-2.793591003865003586e-03,3.414360806345939636e-03,-5.096540600061416626e-02,4.929762333631515503e-02,1.139433216303586960e-02,-1.244570966809988022e-02,1.114582642912864685e-02,1.183954626321792603e-02,1.923360861837863922e-03,1.065207645297050476e-02,1.050993241369724274e-02,1.375071890652179718e-02,-1.135913934558629990e-02,3.592677786946296692e-02,8.277572691440582275e-03,-9.636230766773223877e-03,9.604463353753089905e-03,-9.795758873224258423e-03,-7.757694274187088013e-02,2.850017137825489044e-02,4.922254383563995361e-02,-1.445120107382535934e-02,3.257190808653831482e-03,6.798836588859558105e-02,8.919158019125461578e-03,1.343787554651498795e-02,1.292514521628618240e-02,9.042902849614620209e-03,1.482182554900646210e-02,5.410740524530410767e-02,-1.392132975161075592e-02,-2.873840043321251869e-03,2.643259428441524506e-02,2.282211557030677795e-02,1.045409440994262695e-01,1.569335907697677612e-02,4.083923995494842529e-02,5.360448732972145081e-03,-1.448067929595708847e-02,-1.114433407783508301e-01,5.059730634093284607e-02,1.123206876218318939e-02,8.971985429525375366e-03,8.259552717208862305e-02,-1.326249092817306519e-01,-2.579037100076675415e-04,-6.948363035917282104e-02,9.696953929960727692e-03,1.152660325169563293e-02,-1.590061560273170471e-02,-6.063215434551239014e-02,1.335825212299823761e-02,9.138000197708606720e-03,5.540574714541435242e-02,1.073097437620162964e-02,1.079708803445100784e-02,-1.635613664984703064e-02,9.902033954858779907e-03,1.758636534214019775e-02,3.884593397378921509e-02,-7.642453163862228394e-02,2.301396057009696960e-02,4.945170134305953979e-02,-5.589665845036506653e-03,2.820292487740516663e-02,1.048719324171543121e-02,3.886322304606437683e-02,1.011143345385789871e-02,1.085568964481353760e-02,-6.100147496908903122e-03,-1.348160766065120697e-02,-1.475341469049453735e-01,-1.408191770315170288e-02,1.381971687078475952e-02,1.026339381933212280e-01,1.213400587439537048e-01,9.543099440634250641e-03,1.997523382306098938e-02,1.509931124746799469e-02,3.582708910107612610e-02,1.136944722384214401e-02,9.834430180490016937e-03,3.872938454151153564e-02,1.248809322714805603e-02,8.298099786043167114e-02,8.181881159543991089e-03,-1.114252954721450806e-02,-8.260797709226608276e-03,9.998438879847526550e-03,3.077413700520992279e-02,1.057663112878799438e-01,7.733270525932312012e-03,1.437166798859834671e-02,-9.860696271061897278e-03,2.451073937118053436e-02,9.407778084278106689e-02,-2.184954471886157990e-02,7.801586762070655823e-03,2.852807566523551941e-02,1.268354244530200958e-02,2.757982164621353149e-02,-6.223112344741821289e-03,-5.300230160355567932e-02,3.013452701270580292e-02,5.506539717316627502e-03,5.329555645585060120e-02,2.177958562970161438e-02,1.002026163041591644e-02,5.375892668962478638e-02,-1.065628044307231903e-02,-1.763757318258285522e-02,3.040255233645439148e-02,1.144947297871112823e-02,3.728599846363067627e-02,1.362402737140655518e-02,-1.745803281664848328e-02,1.448324136435985565e-02,5.952002480626106262e-03,8.946746587753295898e-03,1.079425401985645294e-02,1.177416462451219559e-02,1.190774142742156982e-03,8.096387982368469238e-02,-6.470045540481805801e-03,-1.219765841960906982e-02,6.990650668740272522e-03,1.790358871221542358e-02,2.345630899071693420e-03,1.244546752423048019e-02,-9.930076450109481812e-02,-9.873396903276443481e-02,5.212587490677833557e-02,-1.476289611309766769e-02,1.245857402682304382e-02,1.283421553671360016e-02,-1.391628198325634003e-02,-9.959917515516281128e-04,-1.475416123867034912e-03,-9.806962683796882629e-03,6.479769945144653320e-04,-1.086616329848766327e-02,1.152676530182361603e-02,1.331691630184650421e-02,-9.358152747154235840e-03,-2.158622443675994873e-02,7.786804810166358948e-03,-1.778757013380527496e-02,7.736077159643173218e-02,-1.753922924399375916e-02,1.157535426318645477e-02,1.077919080853462219e-02,6.949965655803680420e-02,6.772133708000183105e-02,-5.104363895952701569e-03,6.028428301215171814e-02,3.899256698787212372e-03,3.289981186389923096e-02,4.204582422971725464e-02,5.620373412966728210e-02,4.500113427639007568e-03,-8.884024620056152344e-02,3.235534578561782837e-02,8.114866912364959717e-03,-3.911768086254596710e-03,-1.412271801382303238e-02,1.161753572523593903e-02,-8.623333275318145752e-02,5.707992985844612122e-02,-2.353655546903610229e-02,-9.270994365215301514e-02,4.067177884280681610e-03,-4.487661644816398621e-03,-1.169301569461822510e-03,3.684944286942481995e-02,3.310932964086532593e-02,-2.303069643676280975e-02,-3.526360727846622467e-03,7.664913311600685120e-03,1.046582125127315521e-03,6.426376104354858398e-02,-1.088200323283672333e-02,-1.206095609813928604e-02,2.463878132402896881e-02,7.022105157375335693e-03,8.080276101827621460e-02,1.273646857589483261e-02,-5.588235799223184586e-03,-9.400451555848121643e-03,1.070559248328208923e-01,-6.727513857185840607e-03,9.211240336298942566e-03,-2.741854265332221985e-02,-1.538297533988952637e-01,1.079749539494514465e-01,-1.921993121504783630e-02,6.793731823563575745e-03,5.438682064414024353e-02,-1.101157441735267639e-02,1.249277405440807343e-02,1.237416360527276993e-02,8.302489295601844788e-04,1.370270550251007080e-02,9.767332673072814941e-02,1.073609292507171631e-02,1.839980483055114746e-03,9.003076702356338501e-04,5.704035609960556030e-02,-1.102055162191390991e-01,6.541138887405395508e-02,8.308079093694686890e-02,-6.321752443909645081e-03,-4.575082100927829742e-03,1.078824326395988464e-02,1.058961357921361923e-02,4.040436819195747375e-03,7.371553778648376465e-02,1.315044704824686050e-02,-7.710014469921588898e-03,-5.829436704516410828e-03,2.216061949729919434e-02,1.464426796883344650e-02,3.243822604417800903e-02,7.709998637437820435e-03,1.019080728292465210e-02,1.089682243764400482e-02,8.497797697782516479e-02,3.854688256978988647e-04,1.898676156997680664e-03,5.279434844851493835e-04,-3.278828691691160202e-03,9.589402936398983002e-03,1.447721291333436966e-02,-7.971040904521942139e-04,9.041356295347213745e-02,1.016527786850929260e-02,2.991583198308944702e-03,6.840337812900543213e-02,8.579900488257408142e-03,-2.240873128175735474e-02,5.936766043305397034e-03,-9.103479236364364624e-02,-4.375714808702468872e-03,-1.253010053187608719e-02,1.277417689561843872e-02,1.136695593595504761e-02,1.278751902282238007e-02,-8.351854979991912842e-03,1.052011922001838684e-02,1.068427320569753647e-02,1.364703290164470673e-02,-2.118991687893867493e-05,4.573728889226913452e-03,5.557283386588096619e-02,1.174544636160135269e-02,1.615860499441623688e-03,-2.434415929019451141e-02,4.009174183011054993e-03,1.571664772927761078e-02,1.238188240677118301e-02,5.654917657375335693e-02,5.630005896091461182e-02,-2.198230475187301636e-02,1.296328380703926086e-02,-9.771266020834445953e-03,-1.563228853046894073e-02,-2.202381938695907593e-02,2.040270157158374786e-02,-1.324086356908082962e-02,1.034338399767875671e-02,1.523254811763763428e-02,1.095844432711601257e-03,1.118101086467504501e-02,5.027074739336967468e-02,1.128789875656366348e-02,3.621463850140571594e-02,7.391264662146568298e-03,4.003005102276802063e-03,-4.514608532190322876e-03,-6.653742492198944092e-02,7.855908945202827454e-03,-9.159964323043823242e-02,7.531534880399703979e-02,-1.515644136816263199e-02,1.392316073179244995e-03,1.830043084919452667e-02,-4.608141258358955383e-03,1.038120165467262268e-01,1.160161569714546204e-02,3.591384738683700562e-04,9.080696851015090942e-03,1.059366017580032349e-02,5.022749304771423340e-03,-1.223227009177207947e-02,1.069117337465286255e-02,8.960135281085968018e-03,-8.560381829738616943e-04,5.850913003087043762e-02,6.274022161960601807e-04,4.455955699086189270e-03,-4.144717007875442505e-03,-8.427885174751281738e-02,3.267471864819526672e-02,-7.234718650579452515e-03,-7.614083588123321533e-03,-8.676972240209579468e-02,1.304028462618589401e-02,1.248139794915914536e-02,5.433566123247146606e-02,5.951378121972084045e-02,-8.738864213228225708e-03,2.660847455263137817e-02,-1.792030408978462219e-03,2.622318826615810394e-02,3.370873257517814636e-02,1.811919920146465302e-02,7.106464356184005737e-03,2.891310863196849823e-02,-1.232070382684469223e-03,1.472130045294761658e-02,7.835359312593936920e-03,1.434977725148200989e-02,9.105950593948364258e-03,-6.024911999702453613e-04,-2.927569672465324402e-03,5.833719670772552490e-02,1.221304386854171753e-02,-3.135286271572113037e-03,1.058883499354124069e-02,-1.092607062309980392e-02,-2.409541606903076172e-02,1.066275034099817276e-02,-8.084649220108985901e-03,1.304882392287254333e-02,1.427211612462997437e-02,1.250694878399372101e-02,2.858916111290454865e-02,7.481697946786880493e-03,-5.309144034981727600e-05,-1.918512023985385895e-02,-7.968993857502937317e-03,1.056090928614139557e-02,-9.235155768692493439e-03,1.081055589020252228e-02,-1.102606672793626785e-02,1.382343471050262451e-03,4.035857319831848145e-02,1.111133582890033722e-02,1.233101543039083481e-02,-3.393605351448059082e-03,6.247400492429733276e-02,-2.020440995693206787e-02,2.785687334835529327e-02,1.118491590023040771e-02,4.142234846949577332e-02,2.079612202942371368e-02,6.911505013704299927e-02,1.296379044651985168e-02,9.899290278553962708e-03,1.123612653464078903e-02,3.641948476433753967e-02,1.487854868173599243e-02,-3.821243532001972198e-03,-7.705857604742050171e-02,-5.611259490251541138e-03,2.878643386065959930e-02,3.339619562029838562e-02,3.438089787960052490e-02,-6.961978971958160400e-02,3.494305536150932312e-03,-8.343122899532318115e-04,-1.067459955811500549e-02,1.206200942397117615e-01,1.873843930661678314e-02,-6.768147461116313934e-03,2.563659846782684326e-02,-8.509352803230285645e-03,9.851181879639625549e-03,1.371458359062671661e-02,-8.581953495740890503e-02,1.294908858835697174e-02,-1.027137041091918945e-04,8.729854598641395569e-03,-7.333425804972648621e-03,5.981564521789550781e-02,2.806446515023708344e-02,3.294070251286029816e-03,8.782865479588508606e-03,-1.118194088339805603e-01,1.922041177749633789e-03,9.053703397512435913e-03,-4.696087911725044250e-03,-9.987519681453704834e-02,-7.060801144689321518e-04,-5.336876958608627319e-03,2.766575850546360016e-02,2.157645300030708313e-02,1.290533505380153656e-02,3.680490702390670776e-02,-1.060666143894195557e-02,1.370434276759624481e-02,4.483649507164955139e-02,8.482186123728752136e-03,1.605140045285224915e-02,7.669458165764808655e-03,7.612267881631851196e-02,5.938042327761650085e-02,5.993492901325225830e-02,-1.427390426397323608e-02,4.156392812728881836e-02,1.132889688014984131e-01,8.173758164048194885e-03,1.501622144132852554e-02,2.418088354170322418e-02,5.578288808465003967e-02,8.652499876916408539e-03,1.256660185754299164e-02,3.525684773921966553e-02,1.534168235957622528e-02,9.764240123331546783e-03,4.823655821382999420e-03,1.195537205785512924e-02,1.370586082339286804e-02,5.562862753868103027e-02,9.301165118813514709e-03,5.665157735347747803e-02,6.525423377752304077e-03,-6.661872379481792450e-03,5.369791015982627869e-02,-6.594806909561157227e-04,1.109987497329711914e-04,1.316773146390914917e-02,-1.382321491837501526e-02,-2.663040533661842346e-03,3.755319863557815552e-03,5.196493119001388550e-02,6.263096630573272705e-02,1.264606229960918427e-02,6.894819438457489014e-03,3.152101859450340271e-02,-1.564969867467880249e-02,1.551037468016147614e-02,7.550054043531417847e-02,5.140664801001548767e-02,1.396949868649244308e-02,1.688475906848907471e-02,-1.585974544286727905e-02,1.351056061685085297e-02,2.766858972609043121e-02,2.506669610738754272e-03,1.115474849939346313e-02,1.281601190567016602e-02,2.900848537683486938e-02,3.884033486247062683e-02,1.375382766127586365e-03,-1.344420947134494781e-02,1.347661204636096954e-02,1.323812548071146011e-02,1.217199675738811493e-02,-1.202432066202163696e-02,-1.638434827327728271e-01,1.472735777497291565e-02,6.492170691490173340e-02,8.940665051341056824e-03,7.271924987435340881e-03,1.153015345335006714e-02,2.136538550257682800e-02,6.336122751235961914e-04,5.250800400972366333e-03,6.606148183345794678e-02,1.435471046715974808e-02,2.545728906989097595e-02,-1.119073666632175446e-02,2.844412066042423248e-02,2.284010872244834900e-03,1.162290573120117188e-03,-1.751748621463775635e-01,5.608644336462020874e-02,8.626231923699378967e-03,1.185464765876531601e-02,-9.707308374345302582e-03,-6.227117497473955154e-03,-1.127332374453544617e-01,8.251473307609558105e-03,2.794191241264343262e-03,9.511111304163932800e-03,-1.413306407630443573e-02,8.607394061982631683e-03,3.856818750500679016e-02,2.346600964665412903e-02,-5.690317600965499878e-03,-1.613868214190006256e-02,3.230819106101989746e-02,-2.114305272698402405e-03,-1.770444959402084351e-02,5.450087040662765503e-02,8.906003087759017944e-03,-1.096534579992294312e-01,1.563203334808349609e-02,1.288447901606559753e-02,-9.017437696456909180e-05,1.468244940042495728e-02,4.657673090696334839e-02,1.125716231763362885e-02,1.498763076961040497e-02,-1.430175080895423889e-02,5.663891136646270752e-02,1.301389373838901520e-02,1.224188320338726044e-02,1.043200399726629257e-02,1.297937054187059402e-02,1.530870236456394196e-02,3.297355398535728455e-02,-3.620604053139686584e-03,5.904867500066757202e-02,-5.535014905035495758e-03,1.376033015549182892e-02,-3.506241366267204285e-03,2.378023788332939148e-02,1.047458685934543610e-02,9.186953306198120117e-03,1.234684418886899948e-02,3.058192692697048187e-02,-8.948476612567901611e-02,-8.068671450018882751e-04,4.087590798735618591e-02,9.251762181520462036e-03,5.492337048053741455e-03,-6.059231981635093689e-02,-1.187626831233501434e-02,4.630590975284576416e-02,-2.581676281988620758e-02,1.327995210886001587e-03,7.013104856014251709e-03,-8.049445226788520813e-03,6.221234798431396484e-05,5.534844473004341125e-03,-2.316695638000965118e-02,-2.344612777233123779e-02,7.764814421534538269e-03,-1.245509646832942963e-02,-8.588241413235664368e-03,9.447586722671985626e-03,-1.036406308412551880e-02,4.823078215122222900e-02,8.891820162534713745e-02,6.025696173310279846e-03,9.920075535774230957e-05,2.591375075280666351e-02,2.859605103731155396e-02,1.520953979343175888e-02,1.286193076521158218e-02,2.859086357057094574e-02,6.826634705066680908e-02,1.242977380752563477e-02,1.255600713193416595e-02,1.230194512754678726e-02,8.836023509502410889e-03,9.014824405312538147e-03,2.789114043116569519e-02,-8.190013468265533447e-04,5.838631466031074524e-02,2.702338621020317078e-03,-4.118842072784900665e-03,1.092923711985349655e-02,1.268331427127122879e-02,4.320513829588890076e-02,1.383978314697742462e-02,1.097412034869194031e-02,7.425905764102935791e-02,8.351000957190990448e-03,-1.330980658531188965e-02,2.540011145174503326e-02,-1.562864519655704498e-02,5.896232649683952332e-02,1.405841410160064697e-01,9.393494576215744019e-03,-1.622514277696609497e-01,6.699511781334877014e-03,1.179474405944347382e-02,1.224525738507509232e-02,1.242265626788139343e-01,6.319041550159454346e-02,1.933993585407733917e-02,9.295297414064407349e-02,9.705787152051925659e-02,6.599707901477813721e-02,5.745011568069458008e-02,1.223225984722375870e-02,-8.892176672816276550e-03,3.969831764698028564e-02,1.849060878157615662e-03,1.185002364218235016e-02,-1.320738159120082855e-02,-1.139093786478042603e-01,-1.301136799156665802e-02,2.548650465905666351e-02,-1.424434687942266464e-02,1.030355785042047501e-02,8.697267621755599976e-03,-1.535323858261108398e-01,1.047560852020978928e-02,8.496927469968795776e-02,9.939916431903839111e-03,3.918936848640441895e-02,1.068958640098571777e-02,4.326499998569488525e-03,4.830237850546836853e-02,-8.435964584350585938e-03,4.503557085990905762e-02,6.957415491342544556e-02,1.039138808846473694e-02,1.365897059440612793e-02,-2.163456194102764130e-02,1.877138577401638031e-02,6.872264668345451355e-03,4.134850576519966125e-03,6.442743353545665741e-03,1.950085721909999847e-02,6.311921030282974243e-02,-3.849267959594726562e-04,5.011272802948951721e-02,-7.702878862619400024e-02,4.854949563741683960e-02,5.403687804937362671e-02,1.249139383435249329e-02,9.827918373048305511e-03,-2.072156639769673347e-04,-2.092398330569267273e-02,2.466142736375331879e-02,3.040074557065963745e-02,-8.373709768056869507e-02,1.337103359401226044e-02,-7.707665674388408661e-03,-1.731338351964950562e-02,4.617485776543617249e-02,6.784662604331970215e-03,8.728237822651863098e-03,4.079835861921310425e-02,6.049386411905288696e-02,4.185776412487030029e-02,1.098156720399856567e-02,1.199414953589439392e-02,1.270787268877029419e-01,-7.164489477872848511e-02,1.330933067947626114e-02,-5.234214477241039276e-03,3.674954921007156372e-02,7.793258130550384521e-02,2.556554041802883148e-03,1.673410832881927490e-02,1.253784634172916412e-02,-5.939580500125885010e-03,-1.538059264421463013e-01,-1.205744780600070953e-02,-1.013981103897094727e-01,6.748870015144348145e-03,-8.511524647474288940e-03,-8.488139137625694275e-03,9.927946142852306366e-03,-2.794243395328521729e-03,-1.097941864281892776e-02,1.066530309617519379e-02,5.004233494400978088e-02,5.213891714811325073e-02,-7.505228370428085327e-02,4.549774155020713806e-02,-3.311950713396072388e-03,-8.157790638506412506e-03,7.357610389590263367e-03,1.425362192094326019e-02,1.141667366027832031e-02,8.189513534307479858e-02,5.641013383865356445e-03,-2.655575051903724670e-03,8.313261717557907104e-02,-1.300397329032421112e-03,1.097227726131677628e-02,4.061752930283546448e-03,8.678639307618141174e-03,-7.607911713421344757e-03,4.696702584624290466e-03,-8.143034577369689941e-02,5.907846987247467041e-02,6.788472831249237061e-02,1.126555632799863815e-02,1.027658674865961075e-02,-2.572111785411834717e-03,-2.480161841958761215e-03,-2.258823253214359283e-02,1.288669183850288391e-02,1.977892592549324036e-03,9.994052350521087646e-03,3.028352186083793640e-02,-1.692684926092624664e-02,2.567327022552490234e-02,2.191357128322124481e-02,5.661788955330848694e-02,-5.670100450515747070e-03,4.003944247961044312e-02,1.098447814583778381e-01,7.063275203108787537e-03,1.926189474761486053e-02,4.516705125570297241e-02,2.992040291428565979e-02,8.615341968834400177e-03,2.564925514161586761e-02,1.087744627147912979e-02,5.270598456263542175e-03,-1.401152275502681732e-02,6.595257669687271118e-03,-6.147692911326885223e-03,1.367021724581718445e-02,3.450751304626464844e-03,1.078738924115896225e-02,3.570448234677314758e-02,1.234092097729444504e-02,1.482459343969821930e-02,-7.426114380359649658e-02,-1.331552397459745407e-02,2.315327338874340057e-02,1.564002409577369690e-02,-2.939632162451744080e-02,-1.923561841249465942e-02,-2.368438988924026489e-03,3.989918157458305359e-03,4.608785733580589294e-03,4.906430840492248535e-03,1.038760133087635040e-02,7.807681336998939514e-03,1.540661603212356567e-02,1.567541994154453278e-02,5.343080684542655945e-02,4.698271676898002625e-02,9.303539991378784180e-03,4.108366742730140686e-02,-1.410033367574214935e-02,5.059245973825454712e-03,6.769759207963943481e-02,3.071990050375461578e-02,-1.582727953791618347e-02,5.891244858503341675e-03,-4.386100452393293381e-03,-2.490897104144096375e-02,1.133179198950529099e-02,1.265623513609170914e-02,5.871492996811866760e-02,1.399313658475875854e-02,6.977703422307968140e-02,1.119228079915046692e-01,-1.286039594560861588e-02,1.154658012092113495e-02,1.056965216994285583e-01,-8.726349472999572754e-02,-1.315068453550338745e-03,4.064567387104034424e-02,8.992256596684455872e-03,4.561754316091537476e-02,5.462263897061347961e-02,-2.108447253704071045e-03,1.201343163847923279e-02,1.115964353084564209e-02,1.452931016683578491e-02,1.029484122991561890e-01,9.053864516317844391e-03,1.173292845487594604e-02,-6.066634319722652435e-03,1.417124271392822266e-02,1.218334026634693146e-02,3.199450671672821045e-02,-2.016261219978332520e-03,-5.244675092399120331e-03,4.426376521587371826e-02,3.445474430918693542e-04,4.308655112981796265e-02,9.738095104694366455e-05,2.291663736104965210e-02,-2.006512880325317383e-02,8.612187579274177551e-03,-1.955732703208923340e-02,-1.771876960992813110e-02,-1.348129957914352417e-01,2.852801233530044556e-03,1.403408404439687729e-02,1.109782792627811432e-02,1.488071121275424957e-02,4.390612989664077759e-02,1.030958071351051331e-02,-4.446804523468017578e-04,1.036362815648317337e-02,4.836113750934600830e-02,9.848369285464286804e-03,1.227230858057737350e-02,-1.281401421874761581e-02,6.705869734287261963e-02,1.405918411910533905e-02,1.092036534100770950e-02,1.071184221655130386e-02,-1.908327639102935791e-02,-1.331860199570655823e-03,6.946042180061340332e-02,-8.064149320125579834e-02,-2.475777827203273773e-02,-3.648919519037008286e-03,3.958444297313690186e-02,8.187172934412956238e-03,-8.782068639993667603e-02,2.404290065169334412e-02,2.303638495504856110e-02,7.931411266326904297e-02,-1.053258106112480164e-01,8.476418443024158478e-03,-1.365567743778228760e-01,-6.157297641038894653e-03,-1.900944486260414124e-02,-3.887489438056945801e-04,4.949800297617912292e-02,7.315337657928466797e-03,3.392780572175979614e-02,9.834591299295425415e-03,-2.068443968892097473e-02,5.992512777447700500e-02,1.808193325996398926e-02,9.187354706227779388e-03,1.378462929278612137e-02,2.581173740327358246e-02,3.336537629365921021e-04,2.969941683113574982e-02,-2.632394433021545410e-03,7.503509521484375000e-02,4.854680597782135010e-02,-1.792300343513488770e-01,3.238123655319213867e-02,1.086172834038734436e-02,-1.414036937057971954e-02,6.046324968338012695e-03,-5.845837295055389404e-04,3.413894027471542358e-02,-1.535197626799345016e-02,-1.393756419420242310e-01,9.036626666784286499e-03,1.293747965246438980e-02,1.399103924632072449e-02,8.908758312463760376e-02,2.226785756647586823e-02,-2.812046557664871216e-03,-4.168624058365821838e-03,1.352514475584030151e-01,1.850215345621109009e-02,-6.864974275231361389e-03,-1.915395818650722504e-02,9.691615588963031769e-03,-7.250407338142395020e-02,-1.206339597702026367e-01,7.066172547638416290e-03,1.130649261176586151e-02,9.337737224996089935e-03,3.668078780174255371e-02,3.115994855761528015e-02,-1.205481495708227158e-02,4.080312699079513550e-02,-3.111791796982288361e-03,-7.332741282880306244e-03,1.406127028167247772e-02,7.094375789165496826e-03,9.647533297538757324e-04,6.783146411180496216e-02,-1.148435287177562714e-03,-6.827138364315032959e-03,2.948071993887424469e-02,-2.347641438245773315e-02,4.999647289514541626e-02,6.714179180562496185e-03,5.537563562393188477e-02,-4.979626275599002838e-03,-8.946570567786693573e-03,1.013115346431732178e-01,2.277385070919990540e-02,2.310559526085853577e-02,1.459108479321002960e-02,4.141506180167198181e-02,1.311928126960992813e-02,3.130004554986953735e-02,3.233177587389945984e-03,3.767981193959712982e-03,1.073343493044376373e-02,-7.002316415309906006e-02
3.662207722663879395e-02,8.006261289119720459e-02,2.808681875467300415e-02,3.670681267976760864e-02,8.771465718746185303e-02,5.669600889086723328e-02,2.450662478804588318e-02,3.844218701124191284e-02,2.823579311370849609e-02,2.603474631905555725e-02,1.778118684887886047e-02,-3.020074404776096344e-02,8.664165437221527100e-02,3.034881502389907837e-02,2.871905267238616943e-02,3.296604007482528687e-02,2.651869133114814758e-02,3.050292842090129852e-02,9.352716803550720215e-02,2.326308377087116241e-02,-4.743371158838272095e-03,-1.748120971024036407e-02,2.945194393396377563e-02,3.155105561017990112e-02,6.295973062515258789e-02,6.197393313050270081e-02,5.269388109445571899e-02,1.592358648777008057e-01,2.702660113573074341e-02,3.289328143000602722e-02,2.935500256717205048e-02,3.074334934353828430e-02,3.389648348093032837e-02,4.574020951986312866e-02,3.063413687050342560e-02,5.709360539913177490e-02,2.335559763014316559e-02,2.863160707056522369e-02,2.113963663578033447e-02,1.036833450198173523e-01,2.532664127647876740e-02,2.818720415234565735e-02,2.678496390581130981e-02,2.831616252660751343e-02,2.726500853896141052e-02,-5.826872214674949646e-02,3.043967857956886292e-02,-2.911324426531791687e-02,3.075844794511795044e-02,4.407815262675285339e-02,2.775248885154724121e-02,3.005807846784591675e-02,-4.448863118886947632e-02,5.377715826034545898e-02,2.031325362622737885e-02,2.927138842642307281e-02,2.864443697035312653e-02,4.179771244525909424e-02,3.063569217920303345e-02,2.890916913747787476e-02,2.635144814848899841e-02,3.516012802720069885e-02,5.381236970424652100e-02,2.727008983492851257e-02,2.697392739355564117e-02,5.092888325452804565e-02,9.416912496089935303e-02,2.925659157335758209e-02,2.802213095128536224e-02,3.873502463102340698e-02,3.134109079837799072e-02,8.294991403818130493e-02,2.773920632898807526e-02,4.520876705646514893e-02,6.148415803909301758e-02,2.946886792778968811e-02,3.128687664866447449e-02,3.504040837287902832e-02,1.203167811036109924e-01,3.592719510197639465e-02,-1.737310364842414856e-02,2.926619350910186768e-02,2.220876328647136688e-02,4.951127246022224426e-02,8.165504038333892822e-02,2.457953244447708130e-02,3.065060079097747803e-02,2.145192772150039673e-02,-2.509801089763641357e-02,5.244647711515426636e-02,3.959329426288604736e-02,2.764090709388256073e-02,2.937711589038372040e-02,3.127799928188323975e-02,4.416484758257865906e-02,4.952198266983032227e-02,4.687459766864776611e-02,2.765778824687004089e-02,3.747860342264175415e-02,2.817516587674617767e-02,1.492445468902587891e-01,6.124720722436904907e-02,3.216585889458656311e-02,3.099498152732849121e-02,3.175717592239379883e-02,2.965321391820907593e-02,2.868605777621269226e-02,2.662124112248420715e-02,3.275187686085700989e-02,2.378702536225318909e-02,4.640447348356246948e-02,6.171833723783493042e-02,2.924600616097450256e-02,4.252832755446434021e-02,4.231940209865570068e-02,3.114573471248149872e-02,-1.274977624416351318e-02,8.914376795291900635e-02,2.691097743809223175e-02,2.484562993049621582e-02,2.882555499672889709e-02,3.243743255734443665e-02,2.764256298542022705e-02,2.859512902796268463e-02,2.745155431330204010e-02,2.956040762364864349e-02,2.283511497080326080e-02,5.408577248454093933e-02,2.912066318094730377e-02,2.632155269384384155e-02,2.873448655009269714e-02,3.991441428661346436e-02,-1.346379797905683517e-02,5.097713693976402283e-02,4.602143540978431702e-02,3.078906983137130737e-02,2.942965552210807800e-02,7.734699547290802002e-02,-2.106782793998718262e-02,2.795586176216602325e-02,2.828238159418106079e-02,2.744794636964797974e-02,3.074344992637634277e-02,7.835903018712997437e-02,2.273927815258502960e-02,-3.203826770186424255e-02,4.289646074175834656e-02,3.051953017711639404e-02,1.355571895837783813e-01,3.212134167551994324e-02,7.176654040813446045e-02,2.808560431003570557e-02,2.746912464499473572e-02,7.426530122756958008e-02,4.488437622785568237e-02,3.251519799232482910e-02,2.680292353034019470e-02,9.009324014186859131e-02,5.369962006807327271e-02,2.600535564124584198e-02,7.956289499998092651e-02,2.875331602990627289e-02,5.406317114830017090e-02,2.251554839313030243e-02,-1.634709537029266357e-02,3.029643557965755463e-02,2.851250208914279938e-02,8.487999439239501953e-02,3.026730380952358246e-02,2.849220670759677887e-02,2.697429619729518890e-02,2.713034488260746002e-02,3.022731840610504150e-02,5.277758464217185974e-02,1.095269806683063507e-02,4.410832002758979797e-02,8.068417757749557495e-02,-2.012749388813972473e-02,3.232688456773757935e-02,3.019002638757228851e-02,3.042772412300109863e-02,2.693480439484119415e-02,3.074447438120841980e-02,3.666801005601882935e-02,2.890029549598693848e-02,5.089087039232254028e-02,2.341809123754501343e-02,2.718083560466766357e-02,1.363932490348815918e-01,1.592197120189666748e-01,2.769264765083789825e-02,3.117791004478931427e-02,3.195149078965187073e-02,5.556972324848175049e-02,-2.263124845921993256e-02,2.736555412411689758e-02,5.086676031351089478e-02,2.818627096712589264e-02,1.066331639885902405e-01,2.998438104987144470e-02,5.447432026267051697e-02,2.385235391557216644e-02,1.269471365958452225e-02,5.377520620822906494e-02,1.425493508577346802e-01,3.420339524745941162e-02,2.802099287509918213e-02,3.030326031148433685e-02,3.635350987315177917e-02,9.182008355855941772e-02,2.353296056389808655e-02,2.821820601820945740e-02,-2.034946903586387634e-02,2.663789689540863037e-02,5.053770169615745544e-02,-3.156230598688125610e-02,-1.335998438298702240e-02,3.976866602897644043e-02,2.709611132740974426e-02,7.936625927686691284e-02,3.489810228347778320e-02,2.804444171488285065e-02,4.808083176612854004e-02,3.141142427921295166e-02,2.601190656423568726e-02,3.131063655018806458e-02,2.845108695328235626e-02,4.116631299257278442e-02,2.935631759464740753e-02,2.527372166514396667e-02,3.275157138705253601e-02,2.700504101812839508e-02,2.868071570992469788e-02,2.580533176660537720e-02,2.852841094136238098e-02,2.333023399114608765e-02,8.664716780185699463e-02,-1.628606207668781281e-02,2.172978036105632782e-02,3.017534315586090088e-02,-4.606708884239196777e-02,2.190983667969703674e-02,2.735398896038532257e-02,1.648373343050479889e-02,-1.377453282475471497e-02,5.775360763072967529e-02,2.525876648724079132e-02,-2.873257361352443695e-02,3.225727751851081848e-02,2.273664064705371857e-02,2.815122902393341064e-02,2.274958416819572449e-02,-2.482607960700988770e-02,-5.132077261805534363e-02,2.398269809782505035e-02,2.992644533514976501e-02,-4.048336297273635864e-02,2.580844610929489136e-02,-3.435580804944038391e-02,2.922413125634193420e-02,3.701005876064300537e-02,1.043140217661857605e-01,5.720441788434982300e-02,2.969074435532093048e-02,3.103839419782161713e-02,7.436855137348175049e-02,5.814415961503982544e-02,-1.998013257980346680e-02,6.634795665740966797e-02,-2.175853773951530457e-02,3.865713626146316528e-02,6.122149527072906494e-02,5.630389600992202759e-02,2.966543845832347870e-02,4.053235799074172974e-02,3.893243893980979919e-02,3.188776224851608276e-02,-1.930832117795944214e-02,4.253724217414855957e-02,2.724768407642841339e-02,-2.586005628108978271e-02,4.042889922857284546e-02,2.853631041944026947e-02,6.389680504798889160e-02,-2.114302292466163635e-02,2.401291579008102417e-02,3.177523985505104065e-02,6.998105347156524658e-02,5.761701613664627075e-02,3.401353210210800171e-02,-1.708122529089450836e-02,2.906640432775020599e-02,-2.255929633975028992e-02,6.011505424976348877e-02,2.715694531798362732e-02,2.406285703182220459e-02,3.181233629584312439e-02,2.923521585762500763e-02,1.078186780214309692e-01,2.978867664933204651e-02,2.679294347763061523e-02,2.458005584776401520e-02,1.432085633277893066e-01,2.858660742640495300e-02,2.788069844245910645e-02,3.231804445385932922e-02,1.625157892704010010e-03,1.387907415628433228e-01,2.427033707499504089e-02,2.729557268321514130e-02,6.434410065412521362e-02,-1.621603034436702728e-02,2.815596573054790497e-02,2.866576053202152252e-02,-2.006461098790168762e-02,3.048356622457504272e-02,1.229637265205383301e-01,3.073903359472751617e-02,2.771107666194438934e-02,2.216059528291225433e-02,7.089810818433761597e-02,-1.280107814818620682e-02,7.302749902009963989e-02,1.055859327316284180e-01,2.376417070627212524e-02,-1.874101534485816956e-02,3.275886178016662598e-02,2.739324606955051422e-02,2.908803150057792664e-02,7.056453824043273926e-02,2.708856761455535889e-02,2.168132737278938293e-02,3.079582005739212036e-02,3.617581352591514587e-02,2.692061476409435272e-02,3.081274032592773438e-02,2.760645560920238495e-02,3.056770004332065582e-02,-3.494185954332351685e-02,1.081879585981369019e-01,3.002756275236606598e-02,5.445908382534980774e-02,-2.032616734504699707e-02,5.713689699769020081e-02,2.689958736300468445e-02,3.010216355323791504e-02,2.741735056042671204e-02,1.110090091824531555e-01,2.811960503458976746e-02,2.923341281712055206e-02,7.097999751567840576e-02,2.879037894308567047e-02,5.302307009696960449e-02,2.887459099292755127e-02,-3.077613934874534607e-02,5.314839258790016174e-02,4.151320829987525940e-02,2.964788302779197693e-02,3.057525679469108582e-02,3.022769652307033539e-02,2.558957226574420929e-02,2.783229947090148926e-02,3.031054884195327759e-02,2.894422970712184906e-02,2.033504098653793335e-02,-5.405759066343307495e-02,5.617561191320419312e-02,-3.592563793063163757e-02,-2.296827360987663269e-02,2.861559577286243439e-02,-2.070442400872707367e-02,3.192313760519027710e-02,3.054895438253879547e-02,4.871689155697822571e-02,4.714966192841529846e-02,3.498674556612968445e-02,2.936424873769283295e-02,3.439626842737197876e-02,2.627370879054069519e-02,3.168279677629470825e-02,3.109287470579147339e-02,3.300247341394424438e-02,2.741736173629760742e-02,2.786395139992237091e-02,2.840323001146316528e-02,2.888296544551849365e-02,4.899090528488159180e-02,2.839131653308868408e-02,4.670839011669158936e-02,2.693185396492481232e-02,-2.234369888901710510e-02,2.363552898168563843e-02,-1.786068268120288849e-02,2.953550778329372406e-02,-1.904563233256340027e-02,8.259309083223342896e-02,2.426574379205703735e-02,2.782335318624973297e-02,3.224669396877288818e-02,-1.592171192169189453e-02,1.200523525476455688e-01,3.274610638618469238e-02,2.695678733289241791e-02,2.923962101340293884e-02,2.838281542062759399e-02,3.184492886066436768e-02,2.504230104386806488e-02,2.775753103196620941e-02,2.981347590684890747e-02,-4.685041308403015137e-02,5.673476308584213257e-02,2.914218604564666748e-02,3.159717470407485962e-02,-1.921777427196502686e-02,-2.473935112357139587e-02,3.513607010245323181e-02,3.192169219255447388e-02,2.542924880981445312e-02,-1.923376321792602539e-02,3.122774884104728699e-02,2.565995976328849792e-02,5.780670419335365295e-02,8.306181430816650391e-02,2.525307238101959229e-02,3.971745446324348450e-02,2.601503208279609680e-02,4.849612712860107422e-02,-6.247211247682571411e-03,2.818558551371097565e-02,3.006859123706817627e-02,3.400629013776779175e-02,-3.213579580187797546e-02,3.425434231758117676e-02,2.800386957824230194e-02,2.992033399641513824e-02,2.540381252765655518e-02,-7.782804965972900391e-02,2.785983309149742126e-02,8.283115923404693604e-02,3.109242208302021027e-02,-4.500505328178405762e-02,2.888480760157108307e-02,2.369422093033790588e-02,2.969763800501823425e-02,2.833987027406692505e-02,-2.974883839488029480e-02,3.214574977755546570e-02,3.038642182946205139e-02,2.671226672828197479e-02,3.590485081076622009e-02,3.017602674663066864e-02,3.559298068284988403e-02,4.394529759883880615e-02,4.040474072098731995e-02,2.814269438385963440e-02,2.516207098960876465e-02,2.876477316021919250e-02,2.722271904349327087e-02,2.681804634630680084e-02,6.015454232692718506e-02,2.802115306258201599e-02,-3.620668500661849976e-02,2.042618393898010254e-02,8.728530257940292358e-02,3.317007794976234436e-02,3.532901406288146973e-02,3.197015821933746338e-02,5.451488122344017029e-02,3.225262090563774109e-02,8.038800954818725586e-02,2.989474497735500336e-02,3.211803361773490906e-02,-2.975032106041908264e-02,4.090476036071777344e-02,3.004331514239311218e-02,2.231227979063987732e-02,-2.332340180873870850e-02,3.099465370178222656e-02,3.012304566800594330e-02,5.958441272377967834e-02,4.402993246912956238e-02,-1.628853939473628998e-02,2.531729638576507568e-02,2.643486484885215759e-02,2.557262592017650604e-02,1.480237692594528198e-01,3.112530708312988281e-02,2.356618642807006836e-02,3.207623958587646484e-02,2.342994138598442078e-02,2.644575014710426331e-02,2.750075608491897583e-02,-1.580400764942169189e-02,3.123780153691768646e-02,2.501330338418483734e-02,3.061378374695777893e-02,2.226273901760578156e-02,6.456691771745681763e-02,3.249831870198249817e-02,2.643145807087421417e-02,2.894352190196514130e-02,-1.556036248803138733e-02,2.752054855227470398e-02,3.588334470987319946e-02,2.273112908005714417e-02,9.267393499612808228e-02,1.585132069885730743e-02,2.087020687758922577e-02,4.266551509499549866e-02,3.433417901396751404e-02,2.710891328752040863e-02,5.144992470741271973e-02,-2.071640640497207642e-02,2.873452007770538330e-02,5.433588474988937378e-02,3.044606000185012817e-02,2.929690666496753693e-02,-5.764648690819740295e-02,8.254106342792510986e-02,8.163561671972274780e-02,7.357917726039886475e-02,2.350085973739624023e-02,6.170621514320373535e-02,1.464425176382064819e-01,3.026650473475456238e-02,2.835759706795215607e-02,3.293801844120025635e-02,6.657180935144424438e-02,2.894660644233226776e-02,2.829714864492416382e-02,6.171211600303649902e-02,2.755172923207283020e-02,2.710718102753162384e-02,-2.164721675217151642e-02,2.803345397114753723e-02,3.185984864830970764e-02,8.878588676452636719e-02,2.910458855330944061e-02,4.927913844585418701e-02,2.887595258653163910e-02,2.609977312386035919e-02,4.774743318557739258e-02,3.279618918895721436e-02,-1.976553164422512054e-02,3.211423009634017944e-02,2.432156726717948914e-02,3.106460906565189362e-02,2.814641594886779785e-02,5.563954263925552368e-02,8.963195234537124634e-02,3.022102080285549164e-02,2.943168766796588898e-02,4.988533258438110352e-02,2.651831880211830139e-02,2.916138991713523865e-02,7.337848842144012451e-02,4.751836881041526794e-02,2.807849645614624023e-02,2.870985306799411774e-02,2.620083652436733246e-02,2.764264494180679321e-02,3.490799292922019958e-02,2.797446213662624359e-02,2.864113636314868927e-02,-2.852656133472919464e-02,5.263549834489822388e-02,5.220971256494522095e-02,2.714697271585464478e-02,2.218689210712909698e-02,2.751874551177024841e-02,2.667383104562759399e-02,2.715016528964042664e-02,3.976533934473991394e-02,5.067238956689834595e-02,3.078830987215042114e-02,7.620290666818618774e-02,-2.360250614583492279e-02,2.695455215871334076e-02,2.971670776605606079e-02,3.098119422793388367e-02,2.169877104461193085e-02,2.848242223262786865e-02,8.117515593767166138e-02,2.861070260405540466e-02,3.757400065660476685e-02,-1.946367509663105011e-02,3.976425528526306152e-02,2.813452295958995819e-02,-3.485243394970893860e-02,3.204526007175445557e-02,5.655533820390701294e-02,3.078640252351760864e-02,2.813975140452384949e-02,2.321558445692062378e-02,-1.250149682164192200e-02,2.854032255709171295e-02,2.798467315733432770e-02,3.025729209184646606e-02,2.977021783590316772e-02,4.768316820263862610e-02,2.989866957068443298e-02,4.685715585947036743e-02,3.256980702280998230e-02,2.307709306478500366e-02,-2.463412098586559296e-02,-1.715925708413124084e-02,2.197061479091644287e-02,2.321712672710418701e-02,4.293470829725265503e-02,4.513432458043098450e-02,-1.501454040408134460e-02,3.166527673602104187e-02,2.915397100150585175e-02,2.850701659917831421e-02,2.790617384016513824e-02,4.063396900892257690e-02,2.890765108168125153e-02,3.182906657457351685e-02,2.363378927111625671e-02,3.087817877531051636e-02,2.771476469933986664e-02,2.991021424531936646e-02,2.600771375000476837e-02,2.919956669211387634e-02,3.133139014244079590e-02,5.317640677094459534e-02,3.429134562611579895e-02,6.161306798458099365e-02,2.379193529486656189e-02,3.205227851867675781e-02,2.108237147331237793e-02,3.150329738855361938e-02,2.921096049249172211e-02,2.841125801205635071e-02,2.842557057738304138e-02,4.551053047180175781e-02,-1.264785602688789368e-02,3.630132973194122314e-02,7.320871949195861816e-02,-3.387679159641265869e-02,2.994931861758232117e-02,7.743705064058303833e-02,-1.833263784646987915e-02,4.035438597202301025e-02,3.272780776023864746e-02,2.756380662322044373e-02,3.123728930950164795e-02,2.145885489881038666e-02,2.118137851357460022e-02,3.101931326091289520e-02,3.155367448925971985e-02,2.439668402075767517e-02,3.201892226934432983e-02,2.461875975131988525e-02,-2.696306630969047546e-02,2.591286040842533112e-02,4.069174453616142273e-02,5.544233694672584534e-02,1.085335910320281982e-01,2.917357347905635834e-02,-6.625479459762573242e-02,3.151819854974746704e-02,4.509026557207107544e-02,2.873814105987548828e-02,2.724212408065795898e-02,4.871202260255813599e-02,6.602143496274948120e-02,2.877390384674072266e-02,2.954357117414474487e-02,2.864060923457145691e-02,2.945095300674438477e-02,2.773447334766387939e-02,5.628089606761932373e-02,5.356935039162635803e-02,5.835033953189849854e-02,2.955061942338943481e-02,2.051313035190105438e-02,2.840606682002544403e-02,2.734936587512493134e-02,6.884546577930450439e-02,2.721215784549713135e-02,3.253927454352378845e-02,9.924992918968200684e-02,-2.282648906111717224e-02,2.426503226161003113e-02,3.018100932240486145e-02,3.489711880683898926e-02,5.375627800822257996e-02,1.861474215984344482e-01,-3.391607850790023804e-02,5.018132552504539490e-02,2.927843481302261353e-02,3.174333646893501282e-02,2.789782173931598663e-02,1.553015112876892090e-01,7.580716907978057861e-02,3.180796280503273010e-02,1.124873831868171692e-01,1.190055906772613525e-01,7.758521288633346558e-02,9.514603018760681152e-02,2.577656507492065430e-02,2.574808150529861450e-02,5.619752407073974609e-02,4.653593152761459351e-02,2.901179902255535126e-02,2.508115395903587341e-02,6.577649712562561035e-02,3.101585060358047485e-02,3.254851698875427246e-02,3.570771962404251099e-02,2.865644916892051697e-02,2.747385948896408081e-02,2.771554514765739441e-03,3.364717960357666016e-02,9.528093785047531128e-02,2.757116220891475677e-02,5.295120552182197571e-02,2.840988710522651672e-02,2.753750048577785492e-02,5.452042818069458008e-02,3.233349323272705078e-02,6.294117867946624756e-02,6.592854112386703491e-02,3.101638145744800568e-02,3.371152654290199280e-02,-2.968807332217693329e-02,2.844671346247196198e-02,3.005688451230525970e-02,2.596063911914825439e-02,2.833598293364048004e-02,3.135930374264717102e-02,9.352704137563705444e-02,4.214422777295112610e-02,7.026112079620361328e-02,-1.593477651476860046e-02,6.474594771862030029e-02,4.561961814761161804e-02,3.015611134469509125e-02,2.634792961180210114e-02,1.230941619724035263e-02,5.361091718077659607e-02,3.175051137804985046e-02,3.357141464948654175e-02,-2.855700813233852386e-02,2.666163071990013123e-02,-2.737319469451904297e-02,3.696460649371147156e-02,5.618900805711746216e-02,3.147186711430549622e-02,-3.121871687471866608e-02,5.799677222967147827e-02,5.561000108718872070e-02,4.465495795011520386e-02,2.925289422273635864e-02,2.826530113816261292e-02,1.635188758373260498e-01,-2.758274041116237640e-02,2.147788926959037781e-02,2.728156745433807373e-02,5.551751330494880676e-02,1.019149199128150940e-01,3.422075882554054260e-02,3.125029802322387695e-02,2.989674359560012817e-02,2.233482524752616882e-02,6.650990247726440430e-02,2.547966316342353821e-02,-1.708888262510299683e-02,-3.334243595600128174e-02,3.438095375895500183e-02,4.719115793704986572e-02,2.594945393502712250e-02,-7.083102315664291382e-02,2.368038520216941833e-02,2.923249825835227966e-02,7.538132369518280029e-02,7.836376130580902100e-02,-2.699817717075347900e-02,6.353365629911422729e-02,-1.815916597843170166e-02,2.722559124231338501e-02,2.970082126557826996e-02,2.919755876064300537e-02,2.913673780858516693e-02,9.638611972332000732e-02,2.840429544448852539e-02,2.391494438052177429e-02,9.412074089050292969e-02,2.935837768018245697e-02,2.915204502642154694e-02,3.480710461735725403e-02,2.930815704166889191e-02,2.492017485201358795e-02,2.667033299803733826e-02,-3.073571808636188507e-02,6.210492923855781555e-02,7.804226875305175781e-02,2.885895408689975739e-02,2.581931278109550476e-02,2.309562638401985168e-02,4.613339528441429138e-02,3.316700458526611328e-02,3.106976114213466644e-02,2.899074368178844452e-02,2.956495247781276703e-02,2.944632805883884430e-02,2.650107257068157196e-02,3.153783082962036133e-02,2.831509895622730255e-02,5.693193152546882629e-02,-2.944338694214820862e-02,5.366706475615501404e-02,1.366710364818572998e-01,2.859150804579257965e-02,3.045682422816753387e-02,6.647038459777832031e-02,5.046646296977996826e-02,2.793146669864654541e-02,3.270326182246208191e-02,2.743126265704631805e-02,2.711250633001327515e-02,2.523494884371757507e-02,2.916966751217842102e-02,-2.069810032844543457e-02,2.962242811918258667e-02,2.749082259833812714e-02,-2.795813046395778656e-02,3.775247186422348022e-02,2.748330123722553253e-02,2.766984701156616211e-02,-2.969400025904178619e-02,-2.117555215954780579e-02,3.367521613836288452e-02,2.863241545855998993e-02,-3.517340496182441711e-02,5.709943175315856934e-02,-3.122354671359062195e-02,2.560029551386833191e-02,2.884282171726226807e-02,3.083612583577632904e-02,3.017811849713325500e-02,-2.867593802511692047e-02,-7.543715834617614746e-02,2.972102910280227661e-02,8.494549989700317383e-02,5.619375780224800110e-02,-4.688233137130737305e-02,4.096634313464164734e-02,2.153937891125679016e-02,-3.476490825414657593e-02,8.943363279104232788e-02,-2.726029604673385620e-02,2.599072270095348358e-02,2.795206755399703979e-02,-1.673360541462898254e-02,2.621382288634777069e-02,2.825326286256313324e-02,2.771419286727905273e-02,9.001240134239196777e-02,3.460271656513214111e-02,7.550104707479476929e-02,1.403013467788696289e-01,-2.010821737349033356e-02,3.109202720224857330e-02,1.274705231189727783e-01,5.899214372038841248e-02,2.794414758682250977e-02,4.501719772815704346e-02,2.988173440098762512e-02,5.318869650363922119e-02,4.942087084054946899e-02,2.488601952791213989e-02,2.874092198908329010e-02,3.386711329221725464e-02,2.987569570541381836e-02,1.387889534235000610e-01,2.949311211705207825e-02,3.060516715049743652e-02,2.782762050628662109e-02,2.763516455888748169e-02,2.824143134057521820e-02,4.202393069863319397e-02,2.027121186256408691e-02,5.031564086675643921e-02,5.148608982563018799e-02,3.346247971057891846e-02,6.372227519750595093e-02,3.980117663741111755e-02,3.585807234048843384e-02,3.343208134174346924e-02,3.293062746524810791e-02,4.978736117482185364e-02,2.308690734207630157e-02,3.470214456319808960e-02,2.789030782878398895e-02,-3.146614134311676025e-02,2.815991267561912537e-02,2.974346838891506195e-02,5.434845015406608582e-02,2.825445123016834259e-02,2.528892084956169128e-02,1.240349188446998596e-02,4.207069426774978638e-02,3.429037332534790039e-02,2.829383872449398041e-02,2.558077499270439148e-02,8.413942903280258179e-02,3.008970990777015686e-02,2.625763230025768280e-02,2.781989052891731262e-02,2.597196958959102631e-02,-1.829821616411209106e-02,8.500907570123672485e-02,-2.222811803221702576e-02,2.821661531925201416e-02,-2.692312560975551605e-02,5.711518600583076477e-02,2.727232128381729126e-02,-3.143645077943801880e-02,4.609330743551254272e-02,4.687689989805221558e-02,9.524074941873550415e-02,8.749972283840179443e-02,2.704931981861591339e-02,5.174225568771362305e-02,-6.194894015789031982e-02,2.631874755024909973e-02,2.479146793484687805e-02,7.171363383531570435e-02,2.828103676438331604e-02,3.305716067552566528e-02,3.217974305152893066e-02,2.611279115080833435e-02,9.471473097801208496e-02,2.929709479212760925e-02,2.898433059453964233e-02,2.957950904965400696e-02,3.079890459775924683e-02,-2.023310214281082153e-02,-2.016008831560611725e-02,2.340498939156532288e-02,9.246598929166793823e-02,5.602952092885971069e-02,6.642310321331024170e-02,3.957941010594367981e-02,2.986929565668106079e-02,2.227369509637355804e-02,2.935987897217273712e-02,2.860280685126781464e-02,4.150968790054321289e-02,2.116790413856506348e-02,1.085304282605648041e-02,2.899142354726791382e-02,2.760024368762969971e-02,2.761164307594299316e-02,1.141242831945419312e-01,4.017395526170730591e-02,2.227834984660148621e-02,3.010029345750808716e-02,1.783939599990844727e-01,3.128100186586380005e-02,-2.762891724705696106e-02,2.663053013384342194e-02,2.681971155107021332e-02,6.345953047275543213e-02,8.130980283021926880e-02,3.923343494534492493e-02,2.763723582029342651e-02,2.788058668375015259e-02,5.281208828091621399e-02,4.193617403507232666e-02,-1.977628096938133240e-02,6.284950673580169678e-02,3.752345591783523560e-02,2.278968691825866699e-02,3.413206338882446289e-02,2.860934287309646606e-02,3.051301278173923492e-02,7.666725665330886841e-02,3.024066984653472900e-02,2.606926299631595612e-02,3.319108113646507263e-02,2.755355648696422577e-02,4.521445184946060181e-02,3.241503983736038208e-02,4.840204864740371704e-02,2.455911599099636078e-02,-2.669731713831424713e-02,1.367436051368713379e-01,2.980372868478298187e-02,3.332089632749557495e-02,2.955561317503452301e-02,5.666285380721092224e-02,2.880845405161380768e-02,3.984511271119117737e-02,2.646655775606632233e-02,-2.029574103653430939e-02,3.137321397662162781e-02,5.535568296909332275e-02
2.270700968801975250e-02,6.278612464666366577e-02,3.175971098244190216e-03,1.747107878327369690e-02,5.383476614952087402e-02,2.670206129550933838e-02,-1.184690929949283600e-02,-4.291711375117301941e-04,2.324336953461170197e-02,2.598069049417972565e-02,-4.009422846138477325e-03,6.004156544804573059e-03,5.716696754097938538e-02,3.035735897719860077e-02,2.597359754145145416e-02,1.748571172356605530e-02,2.432411350309848785e-02,2.621634490787982941e-02,9.320283681154251099e-02,1.257452741265296936e-02,-6.584158539772033691e-02,4.616839438676834106e-02,2.206039242446422577e-02,3.147529438138008118e-02,2.881216071546077728e-02,2.018273063004016876e-02,2.783190645277500153e-02,1.523213982582092285e-01,2.693282254040241241e-02,2.986873872578144073e-02,2.924313582479953766e-02,4.851748049259185791e-02,4.719151183962821960e-03,4.608253017067909241e-02,2.782336436212062836e-02,-1.321448199450969696e-02,1.254249271005392075e-02,3.155788034200668335e-02,-1.418560557067394257e-02,4.084363579750061035e-02,2.538282796740531921e-02,-1.475664321333169937e-02,2.181042544543743134e-02,2.794859930872917175e-02,2.392143942415714264e-02,1.099156886339187622e-01,3.122929111123085022e-02,2.689639851450920105e-02,5.251843109726905823e-02,2.615967020392417908e-02,2.451964840292930603e-02,2.306841313838958740e-02,5.658040195703506470e-02,-1.542676519602537155e-02,-1.407635770738124847e-02,2.919211983680725098e-02,2.790458686649799347e-02,2.411936596035957336e-02,3.053377009928226471e-02,2.557976171374320984e-02,2.555999159812927246e-02,6.987741217017173767e-04,5.729133263230323792e-02,2.651123329997062683e-02,2.682835981249809265e-02,2.547677233815193176e-02,1.038408353924751282e-01,2.681451104581356049e-02,2.489893883466720581e-02,-5.993161350488662720e-03,2.879836782813072205e-02,3.807319700717926025e-02,-3.451351076364517212e-03,2.914116717875003815e-02,5.115415900945663452e-02,2.383319474756717682e-02,1.982025429606437683e-02,3.515837714076042175e-02,1.123676598072052002e-01,5.869959294795989990e-02,5.721041932702064514e-02,2.555641531944274902e-02,4.047908820211887360e-03,3.474622592329978943e-02,2.797448076307773590e-02,-6.219795905053615570e-03,2.882735244929790497e-02,1.448393613100051880e-02,5.395332351326942444e-02,3.693797439336776733e-02,2.693777717649936676e-02,2.749147638678550720e-02,2.931184694170951843e-02,2.062280476093292236e-02,1.306775957345962524e-02,-8.689710870385169983e-03,4.214869439601898193e-02,2.439000271260738373e-02,-1.889435201883316040e-02,-8.044753223657608032e-03,1.344544291496276855e-01,4.842562228441238403e-02,2.194215916097164154e-02,3.094437718391418457e-02,2.755907177925109863e-02,2.918727695941925049e-02,2.852483652532100677e-02,2.646295540034770966e-02,2.274875342845916748e-02,-1.059541199356317520e-02,3.751653060317039490e-02,-1.549851149320602417e-02,2.315811626613140106e-02,5.936606973409652710e-02,-9.245987981557846069e-03,2.695255540311336517e-02,3.726128488779067993e-02,7.023797184228897095e-02,2.974696643650531769e-02,-2.742293290793895721e-03,3.105475567281246185e-02,3.234116733074188232e-02,1.308545842766761780e-02,2.375054545700550079e-02,2.737935446202754974e-02,3.307581320405006409e-02,-7.575937546789646149e-03,3.552336618304252625e-02,2.808306179940700531e-02,9.834135882556438446e-03,2.731293998658657074e-02,2.089399471879005432e-02,4.134400933980941772e-02,2.186093851923942566e-02,3.340687230229377747e-02,-8.907164447009563446e-03,2.603248134255409241e-02,6.043885275721549988e-02,6.770511716604232788e-02,2.790944091975688934e-02,2.809977717697620392e-02,2.538577280938625336e-02,2.758078277111053467e-02,5.712169036269187927e-02,-6.163604091852903366e-03,3.730473667383193970e-02,3.235904872417449951e-02,3.075987845659255981e-02,1.302157342433929443e-01,2.586107514798641205e-02,5.672750249505043030e-02,2.802304923534393311e-02,-6.860118359327316284e-03,-3.679142147302627563e-02,5.697157606482505798e-02,3.392440453171730042e-02,2.391994185745716095e-02,9.988232702016830444e-02,-5.255037546157836914e-02,2.603184059262275696e-02,-4.486524313688278198e-02,2.639470994472503662e-02,2.673730254173278809e-02,-1.326529216021299362e-02,3.408389538526535034e-02,3.010326810181140900e-02,2.809748053550720215e-02,6.476172059774398804e-02,2.903783135116100311e-02,2.468069829046726227e-02,-1.021874882280826569e-02,2.697649970650672913e-02,3.080991655588150024e-02,4.585038125514984131e-02,1.131027191877365112e-02,4.361448436975479126e-02,6.878045946359634399e-02,4.887896776199340820e-02,1.860774308443069458e-02,2.725448831915855408e-02,4.242555797100067139e-02,2.542095072567462921e-02,3.067044913768768311e-02,-3.436116036027669907e-03,4.657031968235969543e-05,-5.423584207892417908e-02,-7.281925529241561890e-03,2.798334695398807526e-02,1.126901060342788696e-01,1.565268188714981079e-01,2.408522367477416992e-02,3.090029209852218628e-02,2.586238831281661987e-02,4.585028812289237976e-02,7.818838953971862793e-02,2.483332157135009766e-02,2.685959637165069580e-02,2.806357294321060181e-02,9.439905732870101929e-02,2.772123739123344421e-02,-1.859175972640514374e-02,1.195224467664957047e-02,1.828492432832717896e-02,2.462650090456008911e-02,1.500705182552337646e-01,2.604796737432479858e-02,2.802066318690776825e-02,-7.252031005918979645e-03,2.565992251038551331e-02,4.732324182987213135e-02,-1.406106632202863693e-02,2.795056439936161041e-02,4.727316647768020630e-02,2.648946270346641541e-02,2.596394158899784088e-02,2.615940757095813751e-02,4.130360856652259827e-02,2.196841873228549957e-02,2.811347879469394684e-02,6.261191517114639282e-02,2.435643598437309265e-02,2.617457322776317596e-02,-2.797551825642585754e-02,7.169184274971485138e-03,-1.559147890657186508e-02,2.191457524895668030e-02,2.829323150217533112e-02,1.403707731515169144e-02,2.924430929124355316e-02,-1.424901373684406281e-02,3.268206492066383362e-02,2.503371611237525940e-02,2.478457801043987274e-02,2.564526163041591644e-02,2.761065028607845306e-02,3.079729527235031128e-02,7.196664065122604370e-02,4.864568263292312622e-02,-1.125068403780460358e-03,2.441920898854732513e-02,6.304495781660079956e-02,4.973131418228149414e-02,2.570084854960441589e-02,-3.780626505613327026e-02,-2.198669128119945526e-02,1.523294858634471893e-02,-7.594277150928974152e-03,7.416408509016036987e-02,3.877208381891250610e-02,-9.187493473291397095e-03,2.824720740318298340e-02,4.505151510238647461e-02,4.007749259471893311e-02,1.109256148338317871e-01,-3.160435706377029419e-03,2.988085336983203888e-02,9.917981922626495361e-02,2.063778042793273926e-02,2.099389769136905670e-02,2.504543215036392212e-02,-1.270702295005321503e-02,2.416770532727241516e-02,-2.245981246232986450e-02,2.965188026428222656e-02,3.057868964970111847e-02,6.755837798118591309e-02,6.576882302761077881e-02,6.206252798438072205e-02,4.831453785300254822e-02,6.316953152418136597e-02,8.946076035499572754e-03,6.219798326492309570e-02,1.677007600665092468e-02,2.515339106321334839e-02,-3.256430104374885559e-02,1.435780338943004608e-02,3.182875365018844604e-02,5.512359365820884705e-02,-1.286412402987480164e-02,2.705217897891998291e-02,1.827118545770645142e-02,7.324403524398803711e-02,-2.338544279336929321e-02,-4.174847155809402466e-02,6.345622986555099487e-02,-3.818063065409660339e-03,5.132133141160011292e-03,5.710619315505027771e-02,2.402129769325256348e-02,-2.642210945487022400e-02,3.646563738584518433e-02,2.892714552581310272e-02,6.333044171333312988e-02,7.926642894744873047e-02,-5.409166216850280762e-03,-3.059944137930870056e-03,2.764872647821903229e-02,3.207021951675415039e-02,2.386268600821495056e-02,2.963007800281047821e-02,-4.699768032878637314e-03,-2.540228888392448425e-03,1.411364227533340454e-01,1.147782523185014725e-02,2.495704032480716705e-02,-2.609530836343765259e-02,-5.601475387811660767e-02,1.270788758993148804e-01,-1.243155822157859802e-02,2.524679899215698242e-02,6.091912090778350830e-02,3.550848737359046936e-02,2.750211581587791443e-02,2.808314561843872070e-02,5.847132205963134766e-02,3.047831542789936066e-02,1.156152933835983276e-01,3.113030456006526947e-02,2.096391841769218445e-02,4.041895270347595215e-02,-7.132564485073089600e-02,-2.491092681884765625e-02,6.052416563034057617e-02,7.884557545185089111e-02,1.044549420475959778e-02,4.621361568570137024e-02,2.643110044300556183e-02,2.656943164765834808e-02,2.882796339690685272e-02,7.158483564853668213e-02,2.693004533648490906e-02,7.715750951319932938e-03,-5.850863642990589142e-03,3.444815799593925476e-02,2.746448293328285217e-02,2.636557631194591522e-02,2.511687949299812317e-02,2.901237271726131439e-02,8.717191964387893677e-02,9.346344321966171265e-02,2.069029770791530609e-02,4.772680625319480896e-02,4.218978434801101685e-02,-1.195811107754707336e-02,2.654042653739452362e-02,3.006379306316375732e-02,2.735740318894386292e-02,1.196501627564430237e-01,2.504881098866462708e-02,2.521964162588119507e-02,6.306750327348709106e-02,3.591106086969375610e-02,-2.832937054336071014e-02,2.627100981771945953e-02,3.443457186222076416e-03,-1.375299133360385895e-02,-2.183826453983783722e-02,2.952344715595245361e-02,3.051294945180416107e-02,3.009045496582984924e-02,-1.538834534585475922e-03,2.610346302390098572e-02,2.750892005860805511e-02,3.318930417299270630e-02,-4.486133344471454620e-03,1.104235500097274780e-01,6.426797807216644287e-02,8.660107851028442383e-02,5.738523975014686584e-02,-2.286293916404247284e-02,5.177432298660278320e-02,2.656514197587966919e-02,2.788679674267768860e-02,5.864328891038894653e-02,1.406636834144592285e-02,-2.798314578831195831e-02,2.813949249684810638e-02,7.234622258692979813e-03,-2.512137405574321747e-03,-2.446120604872703552e-02,2.388628572225570679e-02,-1.647131890058517456e-02,2.649186737835407257e-02,2.775606885552406311e-02,2.037260495126247406e-02,2.568102255463600159e-02,1.540038920938968658e-02,2.739755623042583466e-02,1.905163750052452087e-02,2.687703445553779602e-02,7.308310270309448242e-02,2.256239950656890869e-02,4.176970571279525757e-02,2.674702927470207214e-02,4.319648072123527527e-02,6.781430542469024658e-02,-1.184465084224939346e-02,4.630789160728454590e-02,3.159821406006813049e-02,4.656638205051422119e-02,3.706245124340057373e-02,3.550152853131294250e-02,3.009995445609092712e-02,2.466614544391632080e-02,2.824587747454643250e-02,2.132282406091690063e-02,-6.000027060508728027e-03,2.542256936430931091e-02,2.699746005237102509e-02,9.892231225967407227e-02,7.599994540214538574e-02,2.531302720308303833e-02,2.610260993242263794e-02,4.514339193701744080e-02,1.505782827734947205e-02,2.339750900864601135e-02,6.799174938350915909e-03,3.351543098688125610e-03,4.126044362783432007e-02,2.938015013933181763e-02,2.540034614503383636e-02,5.043283104896545410e-02,4.939467087388038635e-02,1.092442777007818222e-02,4.397062584757804871e-02,3.563449531793594360e-02,6.433329731225967407e-02,5.045909434556961060e-02,2.804819494485855103e-02,2.772230282425880432e-02,2.051535993814468384e-02,3.013925254344940186e-02,4.200945422053337097e-02,2.309169806540012360e-02,2.989746257662773132e-02,2.389697730541229248e-02,1.240270435810089111e-01,4.681418463587760925e-02,6.891134381294250488e-02,3.100371174514293671e-02,9.713239967823028564e-02,2.672170847654342651e-02,1.368215121328830719e-02,-2.521564997732639313e-02,2.608533017337322235e-02,7.527089118957519531e-02,3.476802259683609009e-02,3.034015372395515442e-02,2.654167823493480682e-02,1.866264641284942627e-02,2.660342119634151459e-02,-3.763125278055667877e-03,-2.233985252678394318e-02,1.565017737448215485e-02,2.800533175468444824e-02,1.663558557629585266e-02,3.966527059674263000e-02,-4.800174385309219360e-03,2.240812964737415314e-02,2.672340348362922668e-02,2.799991890788078308e-02,8.712974190711975098e-02,1.131408847868442535e-02,5.219260975718498230e-02,-1.941112987697124481e-02,2.960835210978984833e-02,3.307709097862243652e-02,4.167583212256431580e-02,3.234996274113655090e-02,6.774046272039413452e-02,3.143952414393424988e-02,3.046029992401599884e-02,7.552966475486755371e-02,1.720644906163215637e-02,2.605132572352886200e-02,-4.143733531236648560e-05,1.886510848999023438e-02,1.891316287219524384e-02,3.528618067502975464e-02,2.716402523219585419e-02,2.247268706560134888e-02,3.375553712248802185e-02,4.819546639919281006e-02,3.074490278959274292e-02,-5.095110740512609482e-03,1.461226046085357666e-01,3.102950379252433777e-02,1.471489667892456055e-05,2.129124663770198822e-02,8.596139959990978241e-03,2.611755579710006714e-02,2.732288278639316559e-02,-3.342731669545173645e-02,3.503924235701560974e-02,2.728301286697387695e-02,2.801939100027084351e-02,3.254229202866554260e-03,6.035233289003372192e-02,2.220410481095314026e-02,2.378422394394874573e-02,2.757830545306205750e-02,-2.984947524964809418e-02,2.421901002526283264e-02,2.204684540629386902e-02,8.762795478105545044e-03,-4.583604261279106140e-02,-4.550518002361059189e-03,1.268295757472515106e-02,2.547165006399154663e-02,2.781042456626892090e-02,2.707067877054214478e-02,5.298392847180366516e-02,3.619737923145294189e-02,2.867262996733188629e-02,3.121716342866420746e-02,3.028330393135547638e-02,2.924920432269573212e-02,1.120779216289520264e-01,6.788828223943710327e-02,5.236205458641052246e-02,5.371358245611190796e-02,-5.301436409354209900e-03,5.097065493464469910e-02,1.314962357282638550e-01,3.023322299122810364e-02,2.752738259732723236e-02,2.390014939010143280e-02,7.500759512186050415e-02,2.589759416878223419e-02,2.824160084128379822e-02,7.209847867488861084e-02,2.720832824707031250e-02,2.676105685532093048e-02,6.532253324985504150e-02,2.717272564768791199e-02,3.382180258631706238e-02,7.872499525547027588e-02,2.630112320184707642e-02,5.877247825264930725e-02,2.678529359400272369e-02,8.150799199938774109e-03,2.899526804685592651e-02,2.338534779846668243e-02,5.585756152868270874e-02,3.367791697382926941e-02,-7.165810093283653259e-03,2.120528183877468109e-02,2.389067225158214569e-02,3.309227898716926575e-02,7.405591011047363281e-02,3.016952238976955414e-02,2.435459569096565247e-02,4.408177733421325684e-02,-1.321226079016923904e-02,2.896114438772201538e-02,1.043757796287536621e-01,5.543404072523117065e-02,2.678466029465198517e-02,2.868287637829780579e-02,-8.852129802107810974e-03,2.826945483684539795e-02,2.985110506415367126e-02,2.331462129950523376e-02,2.822267822921276093e-02,7.182876020669937134e-02,4.744733124971389771e-02,1.951434463262557983e-02,3.148216009140014648e-02,-7.290038280189037323e-03,2.727660909295082092e-02,2.654077298939228058e-02,2.699064463376998901e-02,-1.141545362770557404e-02,-6.450124084949493408e-02,3.450420498847961426e-02,6.967476010322570801e-02,7.050354033708572388e-02,2.695749700069427490e-02,2.961357124149799347e-02,2.961543202400207520e-02,3.664346784353256226e-02,2.397004142403602600e-02,5.271302163600921631e-02,3.134025260806083679e-02,3.757587075233459473e-02,3.892347216606140137e-02,2.219131402671337128e-02,2.525225654244422913e-02,8.308611810207366943e-02,-1.055411249399185181e-01,7.008060812950134277e-02,2.590298838913440704e-02,2.793983183801174164e-02,-1.671801321208477020e-03,2.229969948530197144e-02,-2.475704438984394073e-02,2.666082233190536499e-02,3.006755560636520386e-02,2.724785543978214264e-02,-2.183450758457183838e-02,2.627552486956119537e-02,1.774882897734642029e-02,2.542920038104057312e-02,1.025990396738052368e-02,3.609072044491767883e-02,4.825313389301300049e-02,4.866281896829605103e-02,-1.060507725924253464e-02,6.298184394836425781e-02,3.571874275803565979e-02,-2.604162693023681641e-02,4.940061271190643311e-02,2.338248305022716522e-02,2.254365757107734680e-02,2.775616757571697235e-02,5.756510421633720398e-02,2.866742573678493500e-02,2.653268910944461823e-02,-3.302995115518569946e-03,6.802960485219955444e-02,2.725232392549514771e-02,3.039210103452205658e-02,2.507253363728523254e-02,2.691646665334701538e-02,2.990742214024066925e-02,3.418194502592086792e-02,1.070611085742712021e-02,6.740567088127136230e-02,2.338722534477710724e-02,3.218705207109451294e-02,-6.848257035017013550e-04,2.506681159138679504e-02,2.815207839012145996e-02,2.617781609296798706e-02,2.874012291431427002e-02,2.925196662545204163e-02,-1.286401227116584778e-02,2.515671402215957642e-02,6.047436594963073730e-02,8.112542331218719482e-02,2.519211545586585999e-02,-4.463228583335876465e-02,4.000771418213844299e-02,4.481576755642890930e-02,-2.285816892981529236e-02,2.114406973123550415e-02,2.805635705590248108e-02,1.045446842908859253e-02,3.974852710962295532e-02,2.326554059982299805e-02,-2.383050322532653809e-02,-1.934669166803359985e-02,2.325632236897945404e-02,-4.806039854884147644e-03,4.208262264728546143e-02,2.445691451430320740e-02,-9.885735809803009033e-03,5.089111253619194031e-02,1.071114465594291687e-01,2.543709427118301392e-02,1.262584179639816284e-01,3.192815557122230530e-02,2.428157255053520203e-02,2.865992113947868347e-02,2.711025066673755646e-02,3.437658026814460754e-02,6.366480141878128052e-02,4.263927042484283447e-02,2.755477651953697205e-02,2.789738215506076813e-02,3.312586620450019836e-02,2.767353132367134094e-02,2.399760670959949493e-02,-9.639283642172813416e-03,1.663124933838844299e-02,2.446258626878261566e-02,1.302680652588605881e-02,2.673192694783210754e-02,2.701826766133308411e-02,3.918131813406944275e-02,2.890068478882312775e-02,3.225264325737953186e-02,8.481750637292861938e-02,6.822768598794937134e-02,-4.012261517345905304e-03,2.151877805590629578e-02,-7.273224182426929474e-03,7.080660015344619751e-02,1.717662811279296875e-01,9.276106953620910645e-02,-6.280399858951568604e-02,2.286730334162712097e-02,2.904665283858776093e-02,2.269193716347217560e-02,1.270952671766281128e-01,5.087997764348983765e-02,3.321601822972297668e-02,8.943133056163787842e-02,1.223544329404830933e-01,7.172050327062606812e-02,7.034455984830856323e-02,2.523395419120788574e-02,1.802135258913040161e-03,7.070909440517425537e-02,3.342501074075698853e-02,2.978282608091831207e-02,-7.301403209567070007e-03,-2.523874863982200623e-02,5.498197861015796661e-04,2.429906837642192841e-02,-7.861168123781681061e-03,2.684837765991687775e-02,2.618644200265407562e-02,-4.735304415225982666e-02,3.200120478868484497e-02,9.436088800430297852e-02,2.744333446025848389e-02,4.287861287593841553e-02,2.463463507592678070e-02,2.634374797344207764e-02,1.806374266743659973e-02,6.750364787876605988e-03,4.870382696390151978e-02,8.221538364887237549e-02,2.982242032885551453e-02,3.896956145763397217e-02,3.031542710959911346e-02,2.377952262759208679e-02,2.529057115316390991e-02,2.599708735942840576e-02,2.214469574391841888e-02,2.677705325186252594e-02,2.572655677795410156e-02,2.852245420217514038e-02,2.936976589262485504e-02,-2.467975020408630371e-02,5.119922757148742676e-02,-1.835808157920837402e-02,3.001900389790534973e-02,2.601887285709381104e-02,-9.439207613468170166e-03,-2.627356350421905518e-02,2.626401185989379883e-02,4.148163646459579468e-02,8.295452222228050232e-03,2.637172862887382507e-02,5.372350662946701050e-02,-2.727729640901088715e-02,3.608967363834381104e-02,2.266795001924037933e-02,9.078617393970489502e-02,4.353431984782218933e-02,6.923381239175796509e-02,3.913233429193496704e-02,2.889892645180225372e-02,2.517257444560527802e-02,1.499882191419601440e-01,1.442670449614524841e-02,2.899269387125968933e-02,1.448826212435960770e-02,4.419716075062751770e-02,1.093008145689964294e-01,2.014468424022197723e-02,2.359518036246299744e-02,2.974896505475044250e-02,8.329303003847599030e-03,-5.218632146716117859e-02,-5.489682313054800034e-03,-2.241430245339870453e-02,7.953950762748718262e-02,-9.034653194248676300e-04,2.539993822574615479e-02,2.520344778895378113e-02,1.330657452344894409e-01,-3.305887803435325623e-03,2.451387420296669006e-02,6.803975999355316162e-02,6.593911349773406982e-02,1.559271570295095444e-02,3.973112255334854126e-02,4.340551048517227173e-02,9.171482175588607788e-03,2.485110983252525330e-02,2.913436107337474823e-02,2.814619243144989014e-02,7.227439433336257935e-02,2.425590530037879944e-02,2.434235997498035431e-02,7.248160243034362793e-02,5.720711313188076019e-03,2.896907925605773926e-02,2.422730624675750732e-02,2.580503746867179871e-02,5.620552226901054382e-03,2.653664164245128632e-02,7.006695866584777832e-02,-1.761498674750328064e-02,5.992235243320465088e-02,2.858131006360054016e-02,2.560689114034175873e-02,3.966632112860679626e-02,-9.917091578245162964e-03,-2.554458007216453552e-02,3.098351135849952698e-02,2.204761281609535217e-02,2.946147881448268890e-02,2.556697092950344086e-02,-1.839333027601242065e-02,3.059657104313373566e-02,2.702355198562145233e-02,6.132921576499938965e-02,7.855394482612609863e-02,2.153639122843742371e-02,1.268735378980636597e-01,2.660019509494304657e-02,3.001694194972515106e-02,2.420125901699066162e-02,3.681870922446250916e-02,2.624976821243762970e-02,2.332464978098869324e-02,2.635221928358078003e-02,2.604033052921295166e-02,-9.022986516356468201e-03,2.489922009408473969e-02,4.288255795836448669e-02,3.374036401510238647e-02,2.889873832464218140e-02,7.005539536476135254e-02,1.233530510216951370e-02,2.720743231475353241e-02,2.936793863773345947e-02,1.318257674574851990e-02,3.900562226772308350e-02,2.362810075283050537e-02,3.101960942149162292e-02,2.493147179484367371e-02,-2.520390041172504425e-02,7.765166461467742920e-02,2.659993618726730347e-02,2.729033119976520538e-02,2.558087557554244995e-02,3.007755428552627563e-02,8.445245027542114258e-02,1.337847262620925903e-01,3.414015099406242371e-02,6.832407414913177490e-02,2.742970362305641174e-02,1.019639819860458374e-01,-1.627631485462188721e-02,-7.427232339978218079e-03,8.603473007678985596e-02,2.069253847002983093e-02,5.128448456525802612e-02,-7.445838302373886108e-03,2.752996236085891724e-02,3.530502691864967346e-02,-1.899091713130474091e-02,2.776770479977130890e-02,2.748250775039196014e-02,5.337333306670188904e-02,4.464809596538543701e-02,1.114835888147354126e-01,1.132286265492439270e-01,4.399461299180984497e-02,3.101107105612754822e-02,1.211843863129615784e-01,-3.369062766432762146e-02,3.453462198376655579e-02,1.301147881895303726e-02,2.714314870536327362e-02,2.517792582511901855e-02,2.238284796476364136e-03,5.090875178575515747e-02,2.860579267144203186e-02,3.607643768191337585e-02,2.974104136228561401e-02,1.310067921876907349e-01,2.633481845259666443e-02,3.064608573913574219e-02,1.092783361673355103e-02,2.757371217012405396e-02,2.808854170143604279e-02,1.310677453875541687e-02,3.466744348406791687e-02,-1.013080216944217682e-02,1.984444633126258850e-02,3.628373611718416214e-03,4.833429306745529175e-02,2.892962470650672913e-02,3.601515665650367737e-02,-2.548507973551750183e-02,2.816594019532203674e-02,-2.419424615800380707e-02,-9.412242099642753601e-03,-4.340646415948867798e-02,2.472117915749549866e-02,6.972064077854156494e-02,2.838987298309803009e-02,4.806222766637802124e-02,5.286204442381858826e-02,2.656259946525096893e-02,3.061632066965103149e-02,1.702078059315681458e-02,2.380723133683204651e-02,2.990864217281341553e-02,2.643932402133941650e-02,-7.201312109827995300e-03,9.114423394203186035e-02,2.854827791452407837e-02,2.580140158534049988e-02,2.624272182583808899e-02,-1.205960847437381744e-02,6.571580469608306885e-02,7.166731357574462891e-02,1.966354623436927795e-02,-2.181057259440422058e-02,4.615903273224830627e-02,5.183678492903709412e-02,2.427751757204532623e-02,2.837624400854110718e-03,3.638070076704025269e-02,3.052070736885070801e-02,7.508791983127593994e-02,-4.872100055217742920e-02,2.394751273095607758e-02,-5.124492198228836060e-02,1.207069307565689087e-01,-1.424888428300619125e-02,5.066524446010589600e-02,6.506820768117904663e-02,6.616391241550445557e-02,1.046844571828842163e-02,3.141321986913681030e-02,-1.873438060283660889e-02,9.361110627651214600e-02,3.551884740591049194e-02,2.520546689629554749e-02,2.943387627601623535e-02,6.085788831114768982e-03,5.686479061841964722e-02,4.838489368557929993e-02,4.931217432022094727e-02,7.010329514741897583e-02,-4.843942448496818542e-02,-7.289162278175354004e-02,2.164157852530479431e-02,3.538120165467262268e-02,-8.509095758199691772e-03,3.022625297307968140e-02,8.777505718171596527e-04,2.074588090181350708e-02,-1.413482706993818283e-02,-3.687979653477668762e-02,2.553962543606758118e-02,2.752521820366382599e-02,2.753236144781112671e-02,1.125392466783523560e-01,4.006104543805122375e-02,3.044918179512023926e-02,1.372843421995639801e-02,1.730156689882278442e-01,7.344956696033477783e-02,4.329455271363258362e-02,-1.627876982092857361e-02,2.536126784980297089e-02,-3.351854160428047180e-02,-3.808552771806716919e-02,2.155176736414432526e-02,2.715935185551643372e-02,2.449611201882362366e-02,5.007677152752876282e-02,1.843483373522758484e-02,4.748473688960075378e-02,4.660511389374732971e-02,7.548543624579906464e-03,9.015942923724651337e-03,4.173299670219421387e-02,2.551003172993659973e-02,2.088985778391361237e-02,7.057175040245056152e-02,2.132198400795459747e-02,6.024989299476146698e-03,1.583871245384216309e-02,-1.990002579987049103e-02,5.324378982186317444e-02,2.245472930371761322e-02,4.027323052287101746e-02,-2.085618674755096436e-03,3.986879438161849976e-02,1.446457505226135254e-01,2.962898090481758118e-02,2.994399331510066986e-02,3.106456249952316284e-02,2.550267428159713745e-02,2.838000282645225525e-02,2.560893073678016663e-02,2.852654643356800079e-02,6.922282278537750244e-02,2.644117176532745361e-02,-2.811599895358085632e-02
2.931644022464752197e-02,5.866165459156036377e-02,1.350468955934047699e-02,2.717067860066890717e-02,5.326338484883308411e-02,3.725638613104820251e-02,-1.872658263891935349e-03,1.041284017264842987e-02,2.066659741103649139e-02,2.861361764371395111e-02,1.812629587948322296e-02,-3.399275243282318115e-02,5.153721198439598083e-02,2.738255262374877930e-02,3.169706463813781738e-02,2.646855637431144714e-02,2.783145755529403687e-02,3.648142516613006592e-02,8.750379085540771484e-02,1.219520717859268188e-02,3.254092484712600708e-02,1.828446798026561737e-02,2.900539711117744446e-02,4.015004262328147888e-02,3.509078919887542725e-02,4.400477930903434753e-02,3.418247401714324951e-02,1.046491116285324097e-01,2.986175566911697388e-02,3.872265666723251343e-02,4.164852201938629150e-02,5.756345018744468689e-02,2.473223209381103516e-02,4.503993690013885498e-02,3.713639080524444580e-02,1.365740550681948662e-03,4.312001168727874756e-02,4.043658077716827393e-02,2.212617173790931702e-02,7.220543920993804932e-02,3.316085785627365112e-02,7.082335650920867920e-04,2.188205905258655548e-02,3.213031589984893799e-02,3.023360669612884521e-02,6.987996399402618408e-02,4.491136968135833740e-02,-8.912474848330020905e-03,6.137768179178237915e-02,4.194838553667068481e-02,3.268695250153541565e-02,2.626192942261695862e-02,2.301646396517753601e-02,5.520945042371749878e-02,2.060807868838310242e-02,3.673955053091049194e-02,3.347231075167655945e-02,4.980619251728057861e-02,3.782555460929870605e-02,2.946993708610534668e-02,2.946372143924236298e-02,8.910393342375755310e-03,4.695148393511772156e-02,3.182475641369819641e-02,3.657339513301849365e-02,4.447178542613983154e-02,7.856432348489761353e-02,3.705048188567161560e-02,3.008287027478218079e-02,3.718877211213111877e-03,3.273670375347137451e-02,5.246858298778533936e-02,2.940003061667084694e-03,2.932888828217983246e-02,4.483198747038841248e-02,2.942781336605548859e-02,1.268389541655778885e-02,4.643843322992324829e-02,8.515465259552001953e-02,4.621419310569763184e-02,2.816561795771121979e-02,3.879582881927490234e-02,2.623471990227699280e-02,5.176915600895881653e-02,4.787410795688629150e-02,1.170752663165330887e-02,3.698097914457321167e-02,3.532520681619644165e-02,2.528825029730796814e-02,4.111504554748535156e-02,2.871972322463989258e-02,3.220868483185768127e-02,3.703891113400459290e-02,1.804902777075767517e-02,4.404671117663383484e-02,5.160250701010227203e-03,3.400152549147605896e-02,3.232661262154579163e-02,-1.910139247775077820e-02,4.788416437804698944e-03,1.108038872480392456e-01,4.115985706448554993e-02,2.518685162067413330e-02,2.676998823881149292e-02,3.881149366497993469e-02,2.398693934082984924e-02,3.664875030517578125e-02,2.873601764440536499e-02,2.495934441685676575e-02,1.256714388728141785e-02,3.620863705873489380e-02,5.743917450308799744e-02,2.760499343276023865e-02,4.555376991629600525e-02,3.211268689483404160e-03,3.761827945709228516e-02,1.797519996762275696e-02,5.468364804983139038e-02,3.136328980326652527e-02,5.372744984924793243e-03,3.932657837867736816e-02,4.597141221165657043e-02,2.781799808144569397e-02,3.748074173927307129e-02,3.441200405359268188e-02,4.519896209239959717e-02,6.337180733680725098e-03,3.492829203605651855e-02,3.620266914367675781e-02,1.076147798448801041e-02,3.141826763749122620e-02,4.003717377781867981e-02,1.001959294080734253e-02,2.840801142156124115e-02,4.458172619342803955e-02,5.244311410933732986e-03,1.859884522855281830e-02,5.780204385519027710e-02,4.157487303018569946e-02,2.311293967068195343e-02,3.110138513147830963e-02,2.900917083024978638e-02,2.400478720664978027e-02,4.990928992629051208e-02,-1.831413246691226959e-04,3.048023441806435585e-03,3.195954114198684692e-02,3.141640871763229370e-02,9.029913693666458130e-02,2.164161019027233124e-02,4.501535370945930481e-02,3.759982436895370483e-02,3.560243174433708191e-03,1.515014842152595520e-02,4.571240022778511047e-02,4.657682403922080994e-02,2.577928639948368073e-02,8.365191519260406494e-02,3.545866906642913818e-02,3.769380599260330200e-02,-7.397978007793426514e-02,3.415949642658233643e-02,3.036640211939811707e-02,8.167870342731475830e-03,1.348105352371931076e-02,3.852393478155136108e-02,2.046114206314086914e-02,5.533475801348686218e-02,4.116682708263397217e-02,3.787802159786224365e-02,-3.411568701267242432e-03,3.445407003164291382e-02,2.838407456874847412e-02,4.068902879953384399e-02,2.240573428571224213e-02,3.267540037631988525e-02,5.380097776651382446e-02,1.841703429818153381e-02,2.608942426741123199e-02,3.957559168338775635e-02,3.921150416135787964e-02,3.092744573950767517e-02,4.126735031604766846e-02,2.281957771629095078e-03,4.669861868023872375e-03,4.016077518463134766e-02,4.151780623942613602e-03,2.990261092782020569e-02,8.634775131940841675e-02,1.040837615728378296e-01,3.024571761488914490e-02,2.624658681452274323e-02,3.952996805310249329e-02,3.917859494686126709e-02,5.135864019393920898e-02,3.123927861452102661e-02,3.388189896941184998e-02,3.723065927624702454e-02,7.481647282838821411e-02,3.255781531333923340e-02,-1.696901209652423859e-02,8.611086755990982056e-03,1.055897306650876999e-02,3.213780373334884644e-02,9.557016193866729736e-02,3.304614499211311340e-02,3.626652061939239502e-02,5.475023761391639709e-03,2.647061087191104889e-02,7.656336575746536255e-02,-1.169904507696628571e-02,3.772873803973197937e-02,3.447891771793365479e-02,3.398368507623672485e-02,3.197545185685157776e-02,-4.416627809405326843e-03,1.965622231364250183e-02,3.081537410616874695e-02,3.916737064719200134e-02,4.809276759624481201e-02,2.441852353513240814e-02,3.483136743307113647e-02,4.443792998790740967e-02,1.081878691911697388e-02,3.250761423259973526e-03,2.812297269701957703e-02,3.783636167645454407e-02,2.969012036919593811e-02,2.516094595193862915e-02,4.090492613613605499e-03,4.778240993618965149e-02,3.181814402341842651e-02,2.184710837900638580e-02,3.375509381294250488e-02,2.364495769143104553e-02,4.143291711807250977e-02,7.569763809442520142e-02,2.250448055565357208e-02,3.528324188664555550e-03,3.341813012957572937e-02,3.028363548219203949e-02,5.667123198509216309e-02,2.362618781626224518e-02,-3.895855695009231567e-02,3.459134697914123535e-02,4.192579910159111023e-02,4.419241100549697876e-03,4.607354849576950073e-02,5.130987614393234253e-02,3.197547979652881622e-03,3.269673138856887817e-02,5.089169740676879883e-02,-7.369365543127059937e-03,6.868273019790649414e-02,3.020282089710235596e-02,4.047095403075218201e-02,6.396916508674621582e-02,2.922620624303817749e-02,-2.498400583863258362e-02,3.234963491559028625e-02,-2.754414081573486328e-02,6.568269431591033936e-02,-3.371686488389968872e-02,3.795117884874343872e-02,4.012381657958030701e-02,7.171144336462020874e-02,7.048238068819046021e-02,2.807492762804031372e-02,4.860650375485420227e-02,3.495837748050689697e-02,2.450140006840229034e-02,4.325762763619422913e-02,4.340540990233421326e-02,2.717154845595359802e-02,-3.691461682319641113e-02,2.699701860547065735e-02,4.469197243452072144e-02,2.354415506124496460e-02,-1.841213554143905640e-02,3.720328584313392639e-02,-5.759976431727409363e-02,6.763532757759094238e-02,-1.648271083831787109e-02,-2.740775421261787415e-02,3.419967740774154663e-02,6.379567086696624756e-03,9.511353448033332825e-03,4.567568749189376831e-02,3.050894103944301605e-02,-3.167171031236648560e-02,1.659049466252326965e-02,3.569749742746353149e-02,3.434113413095474243e-02,7.231682538986206055e-02,4.628383088856935501e-03,6.585919298231601715e-03,2.926165424287319183e-02,3.993313387036323547e-02,6.833513826131820679e-02,2.542195655405521393e-02,5.256841424852609634e-03,7.392603438347578049e-03,9.309318661689758301e-02,1.400981843471527100e-02,2.893224358558654785e-02,-2.834020368754863739e-02,3.124479949474334717e-02,9.290944039821624756e-02,-9.890708141028881073e-03,3.327754512429237366e-02,5.139565840363502502e-02,1.230690255761146545e-02,2.329764701426029205e-02,3.322613984346389771e-02,2.966584265232086182e-02,2.499054744839668274e-02,8.356327563524246216e-02,4.199283942580223083e-02,3.259645402431488037e-02,4.510192945599555969e-02,5.074378103017807007e-02,4.288103058934211731e-02,5.485463142395019531e-02,6.986930221319198608e-02,9.426416829228401184e-03,2.062413468956947327e-02,4.260881245136260986e-02,2.203613147139549255e-02,3.438070416450500488e-02,7.592853903770446777e-02,2.850301750004291534e-02,8.539112284779548645e-03,4.356930032372474670e-03,2.920515276491641998e-02,3.275664150714874268e-02,3.321966156363487244e-02,2.852690592408180237e-02,3.985842317342758179e-02,5.281656980514526367e-02,7.332336902618408203e-02,1.521968934684991837e-02,6.581664085388183594e-02,1.615805551409721375e-02,2.189630176872014999e-04,2.890331111848354340e-02,2.753700502216815948e-02,3.269009292125701904e-02,8.111719042062759399e-02,3.205753862857818604e-02,3.445196896791458130e-02,5.686537176370620728e-02,4.889029264450073242e-02,-4.629404097795486450e-02,3.158310800790786743e-02,-3.087080828845500946e-02,-7.950892671942710876e-03,-2.594453468918800354e-02,3.978731855750083923e-02,4.204601421952247620e-02,4.057557135820388794e-02,5.953664891421794891e-03,3.150485455989837646e-02,2.578597888350486755e-02,4.207244142889976501e-02,2.411306137219071388e-03,7.141643762588500977e-02,5.243382602930068970e-02,5.351646989583969116e-02,2.934654615819454193e-02,-1.802558824419975281e-02,2.511984482407569885e-02,2.198592759668827057e-02,2.576362155377864838e-02,5.083989724516868591e-02,4.219032451510429382e-02,-3.323887661099433899e-02,3.722300380468368530e-02,1.056307461112737656e-02,5.135082174092531204e-03,-2.626517415046691895e-02,2.608743123710155487e-02,-2.688890136778354645e-02,2.233581058681011200e-02,3.569142520427703857e-02,2.688690274953842163e-02,2.389698661863803864e-02,3.889229148626327515e-02,2.375251427292823792e-02,3.062863834202289581e-02,3.000741079449653625e-02,4.008662700653076172e-02,3.299025073647499084e-02,2.426465041935443878e-02,3.148462623357772827e-02,3.465005382895469666e-02,6.309191882610321045e-02,6.169227883219718933e-03,5.409134179353713989e-02,2.781058475375175476e-02,1.944494061172008514e-02,8.073586225509643555e-02,4.593912139534950256e-02,4.009310901165008545e-02,3.605951368808746338e-02,3.518938645720481873e-02,1.192333083599805832e-02,5.446033552289009094e-03,2.384402044117450714e-02,3.818456456065177917e-02,6.050246953964233398e-02,5.712243542075157166e-02,3.374257683753967285e-02,3.466007113456726074e-02,1.964684203267097473e-02,-5.943101271986961365e-02,3.209604695439338684e-02,1.145061943680047989e-02,2.494560554623603821e-02,3.086025454103946686e-02,2.753156609833240509e-02,2.888789027929306030e-02,4.605626687407493591e-02,5.066441744565963745e-02,9.602778591215610504e-03,3.289013728499412537e-02,4.580108821392059326e-02,3.412339091300964355e-02,3.814702481031417847e-02,2.342542819678783417e-02,3.601844608783721924e-02,2.733127027750015259e-02,3.068176563829183578e-03,5.312944576144218445e-02,2.944772690534591675e-02,2.699199691414833069e-02,2.858307212591171265e-02,7.853499799966812134e-02,5.032032728195190430e-02,5.834347009658813477e-02,4.599311202764511108e-02,5.692034214735031128e-02,2.301522158086299896e-02,2.328046783804893494e-02,-1.721334084868431091e-02,2.299886010587215424e-02,3.340680897235870361e-02,4.614722728729248047e-02,4.160487279295921326e-02,3.038438782095909119e-02,2.539139613509178162e-02,3.822915628552436829e-02,3.569885157048702240e-03,-1.880496740341186523e-02,6.468873471021652222e-03,3.620886802673339844e-02,2.643251977860927582e-02,4.729320108890533447e-02,5.520899314433336258e-03,2.934431284666061401e-02,3.858913853764533997e-02,3.421601653099060059e-02,5.429905652999877930e-02,2.557365223765373230e-02,5.437229201197624207e-02,-2.963375486433506012e-02,3.132289275527000427e-02,4.526289552450180054e-02,3.827827051281929016e-02,2.806002460420131683e-02,6.769078224897384644e-02,4.016042128205299377e-02,3.680242598056793213e-02,4.721572250127792358e-02,3.229708969593048096e-02,2.399169467389583588e-02,1.022184640169143677e-02,-4.610780626535415649e-02,1.252575032413005829e-02,3.583672642707824707e-02,3.243577107787132263e-02,3.260545060038566589e-02,2.307791449129581451e-02,5.108953267335891724e-02,3.800469636917114258e-02,3.418052103370428085e-03,1.023716181516647339e-01,2.601972036063671112e-02,8.540610782802104950e-03,2.471930533647537231e-02,8.773952722549438477e-03,3.236924856901168823e-02,3.308075666427612305e-02,-6.559173017740249634e-02,4.582740738987922668e-02,3.799411654472351074e-02,3.413437679409980774e-02,2.692484296858310699e-02,5.142691358923912048e-02,2.754539623856544495e-02,3.327827155590057373e-02,3.397065401077270508e-02,3.865320980548858643e-02,2.833420783281326294e-02,1.514784432947635651e-02,2.762956544756889343e-02,-2.394566498696804047e-02,3.521979961078613997e-04,3.332041576504707336e-02,3.001509793102741241e-02,2.659747377038002014e-02,3.553757816553115845e-02,3.731575608253479004e-02,2.057450823485851288e-02,3.652728721499443054e-02,3.780864551663398743e-02,3.463120386004447937e-02,4.059679061174392700e-02,7.224948704242706299e-02,6.417804956436157227e-02,5.242614075541496277e-02,5.202876776456832886e-02,1.278300769627094269e-03,4.445597156882286072e-02,9.711813926696777344e-02,3.352135047316551208e-02,2.477080374956130981e-02,2.609637379646301270e-02,5.834290012717247009e-02,3.368547931313514709e-02,3.475553542375564575e-02,4.364367574453353882e-02,3.435780480504035950e-02,2.960925549268722534e-02,3.724087029695510864e-02,2.420918643474578857e-02,4.685891419649124146e-02,5.715649947524070740e-02,3.141751512885093689e-02,4.637861996889114380e-02,3.511134907603263855e-02,1.294040028005838394e-02,4.866859689354896545e-02,3.458064794540405273e-02,2.665933594107627869e-02,4.874967038631439209e-02,4.992654547095298767e-03,1.362217031419277191e-02,2.757703326642513275e-02,4.027800634503364563e-02,6.404821574687957764e-02,4.015307500958442688e-02,3.224442526698112488e-02,3.868557512760162354e-02,6.636146456003189087e-03,3.613964095711708069e-02,8.852341771125793457e-02,4.623657837510108948e-02,3.827146440744400024e-02,3.567726537585258484e-02,9.550768882036209106e-04,2.974989078938961029e-02,3.291910514235496521e-02,3.246054798364639282e-02,3.871079534292221069e-02,4.487259685993194580e-02,3.540784120559692383e-02,3.407344594597816467e-02,4.446296393871307373e-02,3.786833956837654114e-03,3.146345540881156921e-02,3.134846314787864685e-02,2.249533683061599731e-02,1.688981894403696060e-03,4.143185913562774658e-02,4.585451632738113403e-02,5.904285982251167297e-02,4.281792789697647095e-02,3.276399895548820496e-02,2.241626381874084473e-02,2.821267023682594299e-02,4.446811974048614502e-02,2.884217910468578339e-02,5.623580887913703918e-02,3.549046069383621216e-02,3.045226261019706726e-02,6.945921108126640320e-03,2.661521919071674347e-02,3.615176305174827576e-02,5.212706699967384338e-02,3.495958447456359863e-02,5.474992096424102783e-02,3.520494699478149414e-02,3.090911358594894409e-02,9.129741229116916656e-03,1.135504245758056641e-02,4.700691252946853638e-02,3.251902014017105103e-02,4.531987011432647705e-02,3.547122329473495483e-02,-3.161017969250679016e-02,2.441475540399551392e-02,3.236345574259757996e-02,2.546712756156921387e-02,2.644082717597484589e-02,-2.047940343618392944e-02,3.845027461647987366e-02,5.208364874124526978e-02,-6.098364479839801788e-03,5.798638612031936646e-02,5.113661289215087891e-02,3.955751657485961914e-02,5.823234841227531433e-02,2.270406112074851990e-02,3.049579635262489319e-02,2.543722465634346008e-02,4.989697411656379700e-02,3.356625884771347046e-02,2.386393025517463684e-02,1.239375956356525421e-02,6.291291117668151855e-02,3.150859102606773376e-02,4.191702976822853088e-02,3.321379795670509338e-02,2.570396661758422852e-02,2.323404699563980103e-02,3.435788303613662720e-02,1.057335920631885529e-02,5.684477835893630981e-02,3.268834948539733887e-02,2.523310296237468719e-02,9.159450419247150421e-03,2.703109942376613617e-02,3.783717378973960876e-02,2.848635800182819366e-02,3.884514421224594116e-02,3.105710819363594055e-02,3.040226176381111145e-03,1.707920804619789124e-02,4.802851751446723938e-02,4.974955320358276367e-02,3.069441020488739014e-02,-7.159225642681121826e-02,9.456553496420383453e-03,4.304224252700805664e-02,-2.128406614065170288e-02,2.992299571633338928e-02,3.957041725516319275e-02,2.984980866312980652e-02,4.961293190717697144e-02,2.483149804174900055e-02,-2.763970382511615753e-02,-1.388766802847385406e-02,3.332955390214920044e-02,7.172768469899892807e-03,-8.056400343775749207e-03,2.798910625278949738e-02,-9.529851377010345459e-05,4.067889228463172913e-02,7.773923128843307495e-02,3.128731995820999146e-02,7.456890493631362915e-02,3.478307276964187622e-02,3.274962678551673889e-02,3.847797214984893799e-02,2.874565310776233673e-02,3.173965215682983398e-02,5.457787588238716125e-02,5.211487039923667908e-02,2.528368309140205383e-02,3.863774240016937256e-02,4.050643369555473328e-02,3.891341388225555420e-02,3.118714503943920135e-02,2.664300380274653435e-03,4.414897412061691284e-02,3.214099258184432983e-02,8.623370900750160217e-03,2.213610336184501648e-02,3.347308933734893799e-02,3.893765062093734741e-02,3.772283345460891724e-02,4.415136575698852539e-02,6.733725219964981079e-02,3.980972617864608765e-02,4.088320769369602203e-03,2.591347508132457733e-02,-1.143147004768252373e-03,6.457456946372985840e-02,1.204198226332664490e-01,5.536194518208503723e-02,3.979543223977088928e-02,3.148832917213439941e-02,4.478483647108078003e-02,2.291748486459255219e-02,1.009712889790534973e-01,5.648374184966087341e-02,3.496755659580230713e-02,7.701917737722396851e-02,1.002500206232070923e-01,6.124975532293319702e-02,5.793596431612968445e-02,3.072956576943397522e-02,2.112840861082077026e-02,4.525743052363395691e-02,4.744953662157058716e-02,3.837545216083526611e-02,6.884914822876453400e-03,5.303553864359855652e-02,1.018441002815961838e-02,2.619370445609092712e-02,5.161637673154473305e-04,3.459258005023002625e-02,2.908228337764739990e-02,3.544844686985015869e-02,2.775932662189006805e-02,8.969874680042266846e-02,3.527752310037612915e-02,3.475762158632278442e-02,3.784731775522232056e-02,3.036537393927574158e-02,3.947672620415687561e-02,9.395794942975044250e-03,4.456998035311698914e-02,7.299902290105819702e-02,3.164085745811462402e-02,5.018111690878868103e-02,-8.255837485194206238e-03,2.412718906998634338e-02,3.654471039772033691e-02,3.613741323351860046e-02,2.833698131144046783e-02,2.495735697448253632e-02,5.530092492699623108e-02,4.202146828174591064e-02,4.315219819545745850e-02,-5.546450242400169373e-02,4.438420385122299194e-02,4.481818526983261108e-02,4.079240188002586365e-02,3.124517388641834259e-02,-3.025453188456594944e-04,-4.109791666269302368e-02,2.720451354980468750e-02,3.636915981769561768e-02,-3.538503497838973999e-02,3.168275207281112671e-02,1.522469893097877502e-02,-3.636706247925758362e-02,4.202227294445037842e-02,3.492495790123939514e-02,5.576461553573608398e-02,4.081940278410911560e-02,6.268805265426635742e-02,3.421727567911148071e-02,3.355199843645095825e-02,3.962609171867370605e-02,1.069311052560806274e-01,-6.600562483072280884e-03,3.001717664301395416e-02,1.096539106220006943e-02,3.936565667390823364e-02,7.567860931158065796e-02,8.098199963569641113e-03,2.464668452739715576e-02,4.082933068275451660e-02,2.950680069625377655e-02,4.395668208599090576e-02,5.653858184814453125e-03,3.045574575662612915e-02,5.217163264751434326e-02,7.155788131058216095e-03,2.472836710512638092e-02,2.666908502578735352e-02,7.860197126865386963e-02,7.911179214715957642e-03,3.823957219719886780e-02,4.903927445411682129e-02,5.220489203929901123e-02,-2.882502041757106781e-03,4.130546748638153076e-02,1.985441893339157104e-02,1.987794786691665649e-02,3.456589579582214355e-02,2.596735022962093353e-02,3.985567763447761536e-02,6.656874716281890869e-02,3.282241150736808777e-02,3.434843197464942932e-02,6.841535866260528564e-02,1.215160451829433441e-02,2.906032651662826538e-02,1.824318617582321167e-02,3.027709759771823883e-02,1.057053264230489731e-02,2.858344279229640961e-02,4.131298139691352844e-02,5.973223969340324402e-02,5.685061216354370117e-02,2.978332340717315674e-02,2.698329649865627289e-02,4.946506395936012268e-02,1.781455241143703461e-03,-2.223369106650352478e-02,4.563983529806137085e-02,3.308547660708427429e-02,3.938715532422065735e-02,3.132016956806182861e-02,4.127048887312412262e-03,3.022172302007675171e-02,2.502867020666599274e-02,5.325657874345779419e-02,3.860670328140258789e-02,3.364922478795051575e-02,9.365160763263702393e-02,3.120199218392372131e-02,2.451963536441326141e-02,3.809174150228500366e-02,3.219548612833023071e-02,3.195397555828094482e-02,2.659432590007781982e-02,3.405490890145301819e-02,3.000612370669841766e-02,2.033080905675888062e-03,3.550557792186737061e-02,1.881138607859611511e-02,4.373737052083015442e-02,3.609012067317962646e-02,4.305363446474075317e-02,2.742308937013149261e-02,3.671823441982269287e-02,4.146870970726013184e-02,-1.389910653233528137e-02,9.864679537713527679e-03,2.564078010618686676e-02,3.102665208280086517e-02,-3.833563625812530518e-02,-3.859793394804000854e-02,4.072811827063560486e-02,3.792625293135643005e-02,3.162739798426628113e-02,3.386358916759490967e-02,3.599203005433082581e-02,4.924115911126136780e-02,9.808609634637832642e-02,4.796399921178817749e-02,5.613832175731658936e-02,3.930461406707763672e-02,7.062238454818725586e-02,3.148325905203819275e-02,6.057120859622955322e-03,5.690393596887588501e-02,5.562791600823402405e-02,3.905971348285675049e-02,1.341366674751043320e-03,3.039816580712795258e-02,1.884487085044384003e-02,-1.603671349585056305e-02,3.713677078485488892e-02,3.480445221066474915e-02,5.412274226546287537e-02,5.376173555850982666e-02,7.151235640048980713e-02,9.117823839187622070e-02,6.919716484844684601e-03,3.888362646102905273e-02,9.094533324241638184e-02,-3.340471163392066956e-02,4.291333258152008057e-02,3.170976787805557251e-02,3.653655201196670532e-02,3.771908953785896301e-02,3.923562914133071899e-02,5.809047073125839233e-02,4.054234921932220459e-02,4.669881239533424377e-02,3.351547569036483765e-02,1.090895012021064758e-01,2.105916850268840790e-02,4.042330384254455566e-02,1.441604550927877426e-02,3.384762257337570190e-02,4.289830103516578674e-02,2.693797834217548370e-02,4.583017900586128235e-02,-4.698786418884992599e-03,3.466058894991874695e-02,1.083677355200052261e-02,4.155729338526725769e-02,3.937176987528800964e-02,2.753335610032081604e-02,-2.582717686891555786e-02,3.736293688416481018e-02,-3.816345334053039551e-02,-4.012221004813909531e-03,3.565531224012374878e-02,3.162848576903343201e-02,4.487632960081100464e-02,3.434297442436218262e-02,5.639927089214324951e-02,4.337701946496963501e-02,3.273399919271469116e-02,4.256760701537132263e-02,9.691342711448669434e-03,4.262068122625350952e-02,4.156539589166641235e-02,2.317076176404953003e-02,4.938164725899696350e-03,7.056688517332077026e-02,2.766871266067028046e-02,2.946282364428043365e-02,3.088932111859321594e-02,-2.721765311434864998e-03,2.984810248017311096e-02,6.083168089389801025e-02,-5.553132668137550354e-02,-1.718285307288169861e-02,4.346232395619153976e-03,4.245568439364433289e-02,1.989495754241943359e-02,-3.281231224536895752e-02,2.941108308732509613e-02,2.856261841952800751e-02,6.785119324922561646e-02,-2.392963320016860962e-02,2.851498126983642578e-02,3.657379746437072754e-02,6.772097945213317871e-02,-5.762784276157617569e-03,5.816506594419479370e-02,5.050978437066078186e-02,7.173299044370651245e-02,2.665641717612743378e-02,4.278921335935592651e-02,-1.302823051810264587e-02,6.164194643497467041e-02,4.265885800123214722e-02,3.044279664754867554e-02,4.127679392695426941e-02,2.137853018939495087e-02,2.906591072678565979e-02,2.828728035092353821e-02,5.596309155225753784e-02,6.412898749113082886e-02,4.371882602572441101e-02,3.550627827644348145e-02,3.150766342878341675e-02,4.551486670970916748e-02,3.515909891575574875e-03,3.946020081639289856e-02,7.242184597998857498e-03,3.212453797459602356e-02,2.209437638521194458e-02,4.117585718631744385e-02,1.902114227414131165e-02,3.263973444700241089e-02,3.115691989660263062e-02,8.003117144107818604e-02,3.011880628764629364e-02,3.909799456596374512e-02,2.710155956447124481e-02,1.181857585906982422e-01,7.413224130868911743e-02,1.540525117889046669e-03,-6.893476936966180801e-03,3.170284256339073181e-02,-6.406942754983901978e-02,1.975232549011707306e-02,1.187549065798521042e-02,3.614244237542152405e-02,3.043978661298751831e-02,3.998776897788047791e-02,2.854507789015769958e-02,1.329460646957159042e-02,4.000064358115196228e-02,